<?xml version="1.0"?>
<opencv_storage>
<opencv_ml_svm>
  <format>3</format>
  <svmType>EPS_SVR</svmType>
  <kernel>
    <type>RBF</type>
    <gamma>0.01</gamma></kernel>
  <C>1.</C>
  <p>0.001</p>
  <term_criteria><epsilon>0.001</epsilon>
    <iterations>3000</iterations></term_criteria>
  <var_count>222</var_count>
  <sv_total>146</sv_total>
  <support_vectors>
    <_>
      0.188830778 -3.25941706 -0.00471754372 -0.0372495465
      -0.000149253319 -0.0099989241 -0.000352353556 -0.00140346447
      -2.32132447e-06 -1.25360357e-05 -2.93725918e-07 -8.28042612e-05
      -0.000262862246 -0.000166559752 5.33398294 1.41868579
      -0.00200818782 1.41199946 -0.000138787844 -0.000884850277
      -0.000541028974 -0.0032843533 0.14025864 -1.08508148e-05
      0.787586272 2.59852242 -1.23139262e-05 -4.80315684e-05
      -1.33057374e-05 -0.000739089097 -0.000161267584 -0.00526030455
      -0.000990913482 -8.82174645e-05 -0.000667718647 -0.000244496361
      -4.94417764e-05 -0.00732770888 -0.00017173159 -0.000111558846
      -0.000504098891 -0.0012024286 -0.00033124449 -0.00230895611
      -0.00149871374 -0.000331349787 2.74959016 0.559395671
      -0.0170095898 -0.00144806795 0.102195859 -2.83997906e-06
      -0.0074412832 2.80257511 -0.0173867811 -0.0433297195
      -0.00271812407 0.215641141 -0.00346472743 -0.000678648881
      -0.00040132826 -0.000635663047 2.40544248 -0.011250101
      -3.63016661e-05 -2.61732603e-05 -2.05574979e-05 -0.00350521947
      -0.00130351644 -0.00063277944 3.79423428 -0.00145780144
      -6.8663765e-05 -2.98328837e-06 -0.000972097332 -1.69881623e-05
      0.866280854 3.39032221 -0.00129104895 -8.85339159e-06
      -4.19443637e-07 -0.000227696437 1.82296324 -0.0321910717
      -0.000476885354 -0.00183359138 0.485217392 -5.54618055e-06
      -0.00610845676 -0.00478114607 -0.000350774004 -0.00393615849
      -0.00530145178 3.90172982 -0.0171830561 -0.000644208922
      -0.0119395684 -0.00435498357 -0.00181824923 -5.15918146e-05
      -0.00658164266 2.95447612 -1.21528922e-06 -8.48835116e-05
      -0.000908524496 4.06770515 -9.95626906e-05 -2.90076187e-05
      -0.000357581244 -0.00227692537 -0.00138831697 -0.00224555819
      -1.2707158e-05 -4.04026941e-05 -0.000525247015 -8.14239797e-07
      -1.82460553e-06 -0.000135477327 -3.46372799e-05 -0.00647061691
      -7.23528319e-06 -0.00514594559 -0.000524624425 -0.00035132459
      -0.00869576167 -0.0021536143 -0.0188562274 -0.0146151492
      -0.00231922069 0.068864055 0.155069053 -7.68376849e-05
      -6.39941718e-05 -0.000688271481 0.268056303 0.179686233
      -0.000183141732 0.545367002 -3.12959355e-06 0.295279205
      0.0366872326 -0.000211373903 0.53134948 -0.00267470442
      -0.000724924495 -2.49573623e-05 -0.000179675422 -3.14065892e-06
      -3.24394887e-06 0.0423533693 0.051044587 -0.00295662461
      0.0198578946 -1.39904557e-06 0.00930701941 -4.5801703e-06
      0.0511997491 0.528336287 0.0237601176 0.171104446 -0.000782234885
      0.14343977 0.199741945 -3.79786252e-05 -0.000346837507
      0.0594920442 0.157569259 -8.97769205e-05 -0.000221403912
      0.232122362 0.157850519 0.260942578 -0.00166782213 -0.000407930493
      -0.00124993315 0.21936214 -0.00114778057 -1.63754903e-05
      -0.00265819998 0.0664574429 -0.00305355061 -0.00243736268
      -0.000111724134 -3.50712276e-06 0.0475146361 -4.99005182e-07
      0.0579865426 0.129485503 -0.000209173144 -0.000418629963
      0.31492877 -0.000150130363 -9.47650478e-05 0.263704091
      0.0092157647 -0.000142890349 -3.95962306e-05 -3.58112156e-05
      -2.2166445e-05 -0.00024765596 -1.56756851e-05 -0.00010748778
      0.0820812434 -0.000676412776 0.0457275584 0.264944911
      -0.000119962548 -5.16343277e-07 -0.000193758475 -5.15467291e-05
      0.301154643 0.556667566 -2.44900384e-05 -0.000122231024
      -9.13733966e-05 -4.20384749e-05 -0.000481549068 0.00163196586
      0.062558122 -0.000267693802 -0.000190312596 -0.000231026541</_>
    <_>
      0.188830778 -3.25941706 -0.00471754372 -0.0372495465
      -0.000149253319 -0.0099989241 -0.000352353556 -0.00140346447
      -2.32132447e-06 -1.25360357e-05 -2.93725918e-07 -8.28042612e-05
      -0.000262862246 -0.000166559752 5.33398294 1.41868579
      -0.00200818782 1.41199946 -0.000138787844 -0.000884850277
      -0.000541028974 -0.0032843533 0.14025864 -1.08508148e-05
      0.787586272 2.59852242 -1.23139262e-05 -4.80315684e-05
      -1.33057374e-05 -0.000739089097 -0.000161267584 -0.00526030455
      -0.000990913482 -8.82174645e-05 -0.000667718647 -0.000244496361
      -4.94417764e-05 -0.00732770888 -0.00017173159 -0.000111558846
      -0.000504098891 -0.0012024286 -0.00033124449 -0.00230895611
      -0.00149871374 -0.000331349787 2.74959016 0.559395671
      -0.0170095898 -0.00144806795 0.102195859 -2.83997906e-06
      -0.0074412832 2.80257511 -0.0173867811 -0.0433297195
      -0.00271812407 0.215641141 -0.00346472743 -0.000678648881
      -0.00040132826 -0.000635663047 2.40544248 -0.011250101
      -3.63016661e-05 -2.61732603e-05 -2.05574979e-05 -0.00350521947
      -0.00130351644 -0.00063277944 3.79423428 -0.00145780144
      -6.8663765e-05 -2.98328837e-06 -0.000972097332 -1.69881623e-05
      0.866280854 3.39032221 -0.00129104895 -8.85339159e-06
      -4.19443637e-07 -0.000227696437 1.82296324 -0.0321910717
      -0.000476885354 -0.00183359138 0.485217392 -5.54618055e-06
      -0.00610845676 -0.00478114607 -0.000350774004 -0.00393615849
      -0.00530145178 3.90172982 -0.0171830561 -0.000644208922
      -0.0119395684 -0.00435498357 -0.00181824923 -5.15918146e-05
      -0.00658164266 2.95447612 -1.21528922e-06 -8.48835116e-05
      -0.000908524496 4.06770515 -9.95626906e-05 -2.90076187e-05
      -0.000357581244 -0.00227692537 -0.00138831697 -0.00224555819
      -1.2707158e-05 -4.04026941e-05 -0.000525247015 -8.14239797e-07
      -1.82460553e-06 -0.000135477327 -3.46372799e-05 -0.00647061691
      -7.23528319e-06 -0.00514594559 -0.000524624425 -0.00035132459
      -0.00869576167 -0.0021536143 -0.0188562274 -0.0146151492
      -0.00231922069 0.068864055 0.155069053 -7.68376849e-05
      -6.39941718e-05 -0.000688271481 0.268056303 0.179686233
      -0.000183141732 0.545367002 -3.12959355e-06 0.295279205
      0.0366872326 -0.000211373903 0.53134948 -0.00267470442
      -0.000724924495 -2.49573623e-05 -0.000179675422 -3.14065892e-06
      -3.24394887e-06 0.0423533693 0.051044587 -0.00295662461
      0.0198578946 -1.39904557e-06 0.00930701941 -4.5801703e-06
      0.0511997491 0.528336287 0.0237601176 0.171104446 -0.000782234885
      0.14343977 0.199741945 -3.79786252e-05 -0.000346837507
      0.0594920442 0.157569259 -8.97769205e-05 -0.000221403912
      0.232122362 0.157850519 0.260942578 -0.00166782213 -0.000407930493
      -0.00124993315 0.21936214 -0.00114778057 -1.63754903e-05
      -0.00265819998 0.0664574429 -0.00305355061 -0.00243736268
      -0.000111724134 -3.50712276e-06 0.0475146361 -4.99005182e-07
      0.0579865426 0.129485503 -0.000209173144 -0.000418629963
      0.31492877 -0.000150130363 -9.47650478e-05 0.263704091
      0.0092157647 -0.000142890349 -3.95962306e-05 -3.58112156e-05
      -2.2166445e-05 -0.00024765596 -1.56756851e-05 -0.00010748778
      0.0820812434 -0.000676412776 0.0457275584 0.264944911
      -0.000119962548 -5.16343277e-07 -0.000193758475 -5.15467291e-05
      0.301154643 0.556667566 -2.44900384e-05 -0.000122231024
      -9.13733966e-05 -4.20384749e-05 -0.000481549068 0.00163196586
      0.062558122 -0.000267693802 -0.000190312596 -0.000231026541</_>
    <_>
      0.338270485 -3.28302383 -0.00481613958 -0.040532425
      -0.000165777499 -0.0100823222 -0.000385288731 -0.00142597582
      -2.60905017e-06 -1.31160423e-05 -2.8829794e-07 -8.57575214e-05
      -0.000276939158 -0.000167310805 5.67061758 1.29134762
      -0.00209566415 1.54914069 -0.000146247578 -0.000903339533
      -0.000566611707 -0.00343918963 0.0938827842 -1.18577773e-05
      0.636044562 2.49278831 -1.27478743e-05 -4.8381964e-05
      -1.42500503e-05 -0.000345197419 -0.00016658481 -0.0057702302
      -0.000974673661 -8.92251555e-05 -0.000685652078 -0.000241735848
      -5.11791077e-05 -0.00802990701 -0.000180424555 -0.000122396654
      -0.000559163513 -0.00123603025 -0.000327254238 -0.00289416476
      -0.00165797072 -0.000327780843 2.68897176 0.476500303
      -0.0191321261 -0.00150881079 0.107487768 -3.28085298e-06
      -0.00766389165 3.00614643 -0.0179182533 -0.0477104038
      -0.00273260195 0.181892544 -0.00355929555 -0.000711501983
      -0.000444603822 -0.000702739577 2.32086873 -0.0125379562
      -3.53990035e-05 -2.77893396e-05 -2.19529775e-05 -0.00350586744
      -0.00129516027 -0.000637791236 3.87240219 -0.0014839482
      -7.41094336e-05 -3.6057379e-06 -0.000961275829 -1.74654906e-05
      0.810768783 3.7723577 -0.00135590835 -9.3652834e-06
      -4.37919653e-07 -0.000251073972 1.88613868 -0.0351385325
      -0.000528770906 -0.00313541829 0.501616478 -5.82519806e-06
      -0.0062503037 -0.00497727282 -0.000365887041 -0.00422996329
      -0.00548880734 3.71415257 -0.0175013579 -0.000632828334
      -0.0130049288 -0.00448386557 -0.00185541285 -5.4470489e-05
      -0.00689151138 2.82073069 -1.28836496e-06 -8.93155811e-05
      -0.000921231811 4.1276145 -0.000106795604 -2.94921538e-05
      -0.000365811429 -0.00379181281 -0.00152042415 -0.000824508897
      -1.37417155e-05 -4.18279087e-05 -0.000530709105 -8.06216008e-07
      -1.88441823e-06 -0.000134523754 -3.60921513e-05 -0.00648001907
      -7.11567282e-06 -0.00538426684 -0.000523951952 -0.00165730412
      -0.00881123263 -0.00227864971 -0.0184766315 -0.0156855434
      -0.00263095903 0.0500394031 0.174658179 -7.63242424e-05
      -6.28290727e-05 -0.000512461353 0.313666105 0.144400641
      -0.000190845429 0.561856866 -3.04822515e-06 0.324787557
      -0.000167504477 -0.000221683265 0.571496665 -0.00268982304
      -0.00109707844 -2.46719028e-05 -0.000186240723 -3.1090899e-06
      -3.20591676e-06 0.0376645699 0.0915896744 -0.0029813454
      0.0208815895 -1.36984659e-06 0.0221963003 -4.46069907e-06
      0.081231989 0.521256328 0.0278327093 0.222335249 -0.000861191947
      0.14694567 0.202325448 -3.77964752e-05 -0.000357167824
      0.0754153877 0.191182226 0.0244533382 -0.000226502743 0.229176402
      0.169161439 0.229439378 -0.0019261163 -0.00057053077
      -0.00158846611 0.25200367 -0.00120036781 -1.62821834e-05
      -0.00275342306 0.0324142352 -0.00289836735 -0.00253870594
      -0.000115193681 -3.42555654e-06 0.0320914313 -4.87375416e-07
      0.0421695858 0.124747097 -0.000209167032 -0.000418937387
      0.315108538 -0.00015012022 -9.47575681e-05 0.263962418
      0.00943701714 -0.000142883378 -3.95918105e-05 -3.68229303e-05
      -2.37347922e-05 -0.000247687567 -1.3060383e-05 -0.000107517219
      0.0823065788 -0.000676974538 0.0451901592 0.265143096
      -0.000119953402 -5.29063414e-07 -0.000193769854 -5.11704748e-05
      0.302078038 0.557548285 -2.44860767e-05 -0.000129316075
      -9.13627082e-05 -4.20341858e-05 -0.000481853291 0.00180135854
      0.0626578331 -0.000267786498 -0.000190306513 -0.000231901795</_>
    <_>
      0.426336348 -3.24202967 -0.00486929202 -0.0398979783
      -0.000168320417 -0.0100831212 -0.000387180859 -0.0014556729
      -2.45746514e-06 -1.31911502e-05 -2.93495503e-07 -8.36390027e-05
      -0.000270842545 -0.000166012833 5.71319532 0.997748077
      -0.00210464676 1.76811361 -0.000148138322 -0.000895381381
      -0.000568483956 -0.00349580217 0.032134749 -1.14456852e-05
      0.356099695 2.18443084 -1.23773125e-05 -4.85487217e-05
      -1.40536304e-05 0.154277951 -0.000172802931 -0.00784434751
      -0.000962520717 -8.66968621e-05 -0.000704829174 -0.000244695984
      -4.90996099e-05 -0.00840323046 -0.000166007041 -0.000128732107
      -0.000580607622 -0.00120216224 -0.000338207203 -0.00244100229
      -0.00173186092 -0.000310892006 2.99823308 0.327935696
      -0.0199926533 -0.00146873773 0.0957093835 -3.23207587e-06
      -0.00776224537 3.06831527 -0.0182763766 -0.0468870811
      -0.00274507329 0.221402407 -0.00361820357 -0.000735783542
      -0.000403394399 -0.00071204995 2.10975266 -0.0152015835
      -3.65152555e-05 -2.72602483e-05 -2.12756186e-05 -0.00360131823
      -0.0012631336 -0.000668227556 3.96800113 -0.00147011143
      -7.67107558e-05 -3.66530458e-06 -0.000992884045 -1.73455992e-05
      0.553344309 3.64037251 -0.00139431388 -9.08911261e-06
      -3.73473796e-07 -0.00026039622 1.92683673 -0.0346006714
      -0.000540100562 -0.00378114264 0.531186223 -5.8951664e-06
      -0.0063409009 -0.00524572609 -0.000361643877 -0.0044032
      -0.00569210853 3.27589297 -0.0173882041 -0.000601663371
      -0.0129902968 -0.00453622825 -0.00188006158 -4.99447015e-05
      -0.00676143635 2.54931974 -1.20215861e-06 -8.44842652e-05
      -0.000953933573 4.46165133 -0.000102943355 -3.00336906e-05
      -0.000354717224 -0.00131433457 -0.00154633878 -3.70456837e-05
      -1.35866012e-05 -3.85193998e-05 -0.00049825391 -7.57815997e-07
      -1.77477568e-06 -0.000128774554 -3.70740527e-05 -0.00636570994
      -6.9597686e-06 -0.00555876968 -0.000492115505 -0.0045075384
      -0.00888668187 -0.00223055226 -0.0187665559 -0.0181011893
      -0.00268647773 0.0543315932 0.193429515 -7.56874506e-05
      -6.57346536e-05 -0.000787505182 0.347749829 0.132538632
      -0.000187672224 0.551415324 -2.96933831e-06 0.313393027
      0.0261744931 -0.000221951763 0.559486091 -0.00240825326
      -0.001369062 -2.48612232e-05 -0.000179575087 -3.04745049e-06
      -3.16727687e-06 0.0543417707 0.0713401139 -0.00235771807
      0.0208365135 -1.38078985e-06 0.00782846659 -4.50536982e-06
      0.0951753855 0.540372729 0.0311571881 0.236550674 -0.00079870125
      0.157600358 0.241704926 -3.63890395e-05 -0.000356175442
      0.0684813112 0.175457969 0.0256977044 -0.000221934111 0.246754646
      0.150504559 0.226911873 -0.0019454601 -0.000541740854
      -0.00205414509 0.279420912 -0.00119174575 -1.64553749e-05
      -0.00270323548 0.050727196 -0.00245266175 -0.00251311646
      -0.00011371883 -3.42659382e-06 0.020482488 -4.93469827e-07
      -1.40643115e-05 0.109123603 -0.000209170961 -0.000418681564
      0.314985156 -0.00015012869 -9.47638764e-05 0.263758421
      0.00923737139 -0.000142889185 -3.95955431e-05 -3.62515457e-05
      -2.26018565e-05 -0.000247658609 -1.58262628e-05 -0.000107492604
      0.0821064562 -0.000676494383 0.0456859097 0.264998972
      -0.000119961049 -5.18886338e-07 -0.000193758882 -5.19076348e-05
      0.301260948 0.556803823 -2.44894272e-05 -0.000123022575
      -9.13717304e-05 -4.20378201e-05 -0.000481587456 0.00164859742
      0.0625770614 -0.000267706433 -0.000190310646 -0.000231137528</_>
    <_>
      0.226185843 -3.11858034 -0.00478804251 -0.0376256481
      -0.000170019979 -0.0101598175 -0.000384158397 -0.00140692713
      -2.44558146e-06 -1.29788987e-05 -2.92130125e-07 -8.38477208e-05
      -0.000269373064 -0.000169105042 5.45404959 1.18308365
      -0.00207581744 1.7456342 -0.000146034232 -0.000909394177
      -0.0005659663 -0.00341692846 0.0871680826 -1.15968642e-05
      0.570967257 2.34946513 -1.2745546e-05 -4.77276444e-05
      -1.42559829e-05 0.171828389 -0.000175004796 -0.00591484644
      -0.000991244102 -9.07856374e-05 -0.000680293364 -0.000247162476
      -4.95139539e-05 -0.00789179932 -0.000178735398 -0.000119220909
      -0.000579997781 -0.00124430645 -0.000355267897 -0.00230292068
      -0.00167044601 -0.00031704604 2.81734586 0.476655632 -0.0186954662
      -0.00150267163 0.0870043635 -3.26708823e-06 -0.00755531341
      2.74652338 -0.0179796163 -0.0439463742 -0.00277400343 0.286597967
      -0.00358703686 -0.000730893866 -0.00044628809 -0.000688752218
      2.21565127 -0.0126921078 -3.72829782e-05 -2.8556e-05
      -2.04334774e-05 -0.00364506501 -0.00127961114 -0.000648861052
      3.77613711 -0.0014529808 -7.39558163e-05 -3.73113744e-06
      -0.000992496032 -1.75755158e-05 0.762776196 3.35416484
      -0.00138375338 -8.88471277e-06 -4.7032546e-07 -0.000260664092
      1.81913078 -0.0329120979 -0.000519452209 -0.00208912836
      0.826497793 -5.67167308e-06 -0.00634202827 -0.00511350762
      -0.00036807172 -0.0043098703 -0.00549701927 3.55110359
      -0.0176586341 -0.0006224924 -0.0120135909 -0.00457694521
      -0.00186957978 -5.347962e-05 -0.00696628541 2.71232486
      -1.22332574e-06 -8.62573725e-05 -0.000936560158 4.21192312
      -0.000102655838 -3.0292249e-05 -0.000360080594 -0.0018611463
      -0.00153225404 -0.000289832766 -1.37188863e-05 -4.55345253e-05
      -0.000545038085 -8.51501795e-07 -1.76853382e-06 -0.000140499324
      -3.69479931e-05 -0.00639472343 -7.21213291e-06 -0.00538397534
      -0.000510953018 -0.00251353765 -0.00859620888 -0.00226538256
      -0.018628031 -0.015619522 -0.00270286342 0.0521485806 0.196717814
      -7.50100153e-05 -6.42088635e-05 -0.00084409758 0.351446956
      0.114867382 -0.000188995298 0.56013 -2.91117203e-06 0.325821519
      0.0245896652 -0.000225072406 0.562469244 -0.0023788726
      -0.00147794629 -2.49277e-05 -0.000179899725 -3.02157127e-06
      -3.1813147e-06 0.0414701328 0.0690496564 -0.00235683378
      0.0204901211 -1.38359837e-06 0.00202441961 -4.50932112e-06
      0.112535119 0.53117466 0.0293277577 0.244510502 -0.000761407311
      0.153352171 0.245165974 -3.59550722e-05 -0.000353991665
      0.0631073862 0.170988381 0.0309768803 -0.000220139264 0.245931908
      0.138948739 0.219110638 -0.00200882857 -0.000549128221
      -0.00216303789 0.285043091 -0.00119883241 -1.65348174e-05
      -0.00270108762 0.0468448475 -0.00244771107 -0.00253347564
      -0.000113300623 -3.42560929e-06 -1.32014602e-05 -4.95360496e-07
      -0.000110034642 0.111922964 -0.000209168677 -0.00041881224
      0.315054297 -0.000150124368 -9.4760675e-05 0.263865262
      0.00933585688 -0.000142886216 -3.95936513e-05 -3.66072345e-05
      -2.32217462e-05 -0.000247672782 -1.45492695e-05 -0.00010750517
      0.0822058916 -0.000676736527 0.0454436503 0.265077442
      -0.000119957149 -5.24178574e-07 -0.000193764135 -5.16296532e-05
      0.301667452 0.557181716 -2.44877301e-05 -0.000126149127
      -9.13671538e-05 -4.20359793e-05 -0.000481720257 0.00172397681
      0.0626189038 -0.000267746655 -0.000190308318 -0.000231519909</_>
    <_>
      0.508093059 -3.69723654 -0.00469887163 -0.0425067358
      -0.000164938901 -0.0101214554 -0.000360014208 -0.00142732414
      -2.48611991e-06 -1.26355826e-05 -2.94518401e-07 -8.56075421e-05
      -0.000275610422 -0.000167926701 5.77865505 1.53999364
      -0.00199193414 1.45702672 -0.000145544662 -0.000878769613
      -0.000551508449 -0.00327380351 0.190315992 -1.15809889e-05
      0.836233139 2.75123096 -1.2960516e-05 -4.91512983e-05
      -1.36081035e-05 -0.00046273417 -0.000165360529 -0.00420728233
      -0.000997825875 -8.85794725e-05 -0.000674067473 -0.000246645999
      -5.00547685e-05 -0.00869627856 -0.00017439331 -0.000115332004
      -0.000550039462 -0.001193512 -0.000340056053 -0.00254137744
      -0.00159279536 -0.000318532286 2.58735847 0.412223905 -0.019331364
      -0.00147718051 0.137159437 -3.05975391e-06 -0.00741719222
      3.24053478 -0.0180908907 -0.0470537543 -0.00273450208 0.211100399
      -0.00344959064 -0.000697465381 -0.000394834758 -0.000646816159
      2.53071666 -0.0107303923 -3.66029562e-05 -2.57495049e-05
      -2.19021313e-05 -0.00339813414 -0.00131452747 -0.000642255472
      3.95005393 -0.00143721595 -6.86411004e-05 -3.38730024e-06
      -0.00100215385 -1.72004802e-05 1.06854701 3.72189212
      -0.00129471999 -9.1791735e-06 -4.36404463e-07 -0.000230417674
      2.05928087 -0.0376999974 -0.000499801594 -0.0030141233 0.760362089
      -5.57810563e-06 -0.0063099321 -0.00500361528 -0.000355557422
      -0.00403371407 -0.0054974854 4.11536884 -0.0177417435
      -0.000629323418 -0.0141545283 -0.00437886128 -0.00184646272
      -5.43023998e-05 -0.0068540806 3.08094192 -1.28608781e-06
      -8.29737182e-05 -0.000934365089 4.25469351 -0.000101780272
      -2.99112216e-05 -0.000360870938 -0.00494798878 -0.00144638517
      -0.00150122307 -1.28475886e-05 -3.92102629e-05 -0.000507429417
      -8.02147611e-07 -1.81348719e-06 -0.000137148934 -3.50389055e-05
      -0.00655676657 -7.11329449e-06 -0.00526038511 -0.000529640587
      0.0434497595 -0.00876428466 -0.00224572886 -0.0189666133
      -0.0147022093 -0.00269339001 0.0715486184 0.166483849
      -7.72312633e-05 -6.51202135e-05 -0.000856465078 0.305621713
      0.139644235 -0.000185676952 0.566181183 -3.12444263e-06
      0.307652473 0.0234143361 -0.000214528787 0.571251392
      -0.00276074046 -0.000718669558 -2.46856307e-05 -0.0001797609
      -3.06916513e-06 -3.1726604e-06 0.0360763595 0.0691856295
      -0.00298938202 0.0478537641 -1.37097663e-06 0.0121077299
      -4.49837444e-06 0.0423857197 0.54540211 0.0108971968 0.187283799
      -0.000847603311 0.103596121 0.255224973 -3.74898664e-05
      -0.000361393904 0.0681984276 0.176837727 0.0166145824
      -0.000220711838 0.257705599 0.119886093 0.275090247 -0.00170732557
      -7.41328622e-05 -0.00189561688 0.262090623 -0.00118410937
      -1.62796568e-05 -0.00275871903 0.066238068 -0.00313860551
      -0.00253459206 -0.000113192255 -3.45467652e-06 0.0750807673
      -4.89241359e-07 0.0358818099 0.143589213 -0.000209168953
      -0.000418722571 0.315037072 -0.000150127365 -9.47629524e-05
      0.263804138 0.0092497617 -0.000142888239 -3.95950119e-05
      -3.66705644e-05 -2.29897341e-05 -0.000247660064 -1.61132957e-05
      -0.000107496351 0.082122393 -0.000676556199 0.0456676409
      0.265047461 -0.00011995987 -5.21026095e-07 -0.000193758824
      -5.23099661e-05 0.301329941 0.556907415 -2.44889543e-05
      -0.000123523103 -9.13704425e-05 -4.20373144e-05 -0.000481614697
      0.00165816769 0.0625923648 -0.000267715717 -0.000190308856
      -0.000231214362</_>
    <_>
      0.471147835 -3.8758688 -0.00470409077 -0.0424127318
      -0.000166889688 -0.0101905651 -0.000351392257 -0.00143481628
      -2.40344548e-06 -1.26215828e-05 -2.97868297e-07 -8.62882662e-05
      -0.00027962387 -0.000170634856 5.75336981 1.77792823
      -0.00198048772 1.3220737 -0.000146762875 -0.00089808926
      -0.000554058061 -0.00326294475 0.236150026 -1.14519498e-05
      1.06470084 3.01274562 -1.34782149e-05 -4.93587213e-05
      -1.33740577e-05 -0.000695885974 -0.000165376478 -0.00305241346
      -0.00102143909 -8.89917355e-05 -0.000668490422 -0.00025238964
      -5.10962127e-05 -0.00866625085 -0.000176929956 -0.000113205286
      -0.000564026705 -0.00120188924 -0.000342611602 -0.00261510047
      -0.00155734317 -0.000324459223 2.5018146 0.474637389 -0.0191644635
      -0.00148597814 0.141878083 -2.98735745e-06 -0.00741004292
      3.20375085 -0.0185206998 -0.0465062559 -0.00276955171 0.234912217
      -0.00344984815 -0.000668000022 -0.000384616025 -0.000630486058
      2.73050356 -0.00874551851 -3.69299341e-05 -2.52616028e-05
      -2.20418679e-05 -0.00340478215 -0.00136005855 -0.000643684703
      3.97225165 -0.00143825007 -6.76675918e-05 -3.37549909e-06
      -0.00101318362 -1.81504129e-05 1.29007244 3.70498919 -0.0012789194
      -9.36551714e-06 -4.14028676e-07 -0.000219524736 2.03440189
      -0.037720833 -0.000503796153 -0.00257027918 0.791260481
      -5.54268854e-06 -0.00631237123 -0.00488423323 -0.000357870827
      -0.00401313836 -0.00554718962 4.50884533 -0.0181510393
      -0.000642043364 -0.0142030912 -0.00436056871 -0.00186393049
      -5.40482652e-05 -0.00704821572 3.33988833 -1.2840402e-06
      -8.41169895e-05 -0.000943044259 4.15867758 -0.000103551516
      -3.03019133e-05 -0.000367006229 -0.0049255928 -0.00143234886
      -0.00211812416 -1.26913446e-05 -3.84536397e-05 -0.000513207808
      -8.23070081e-07 -1.83575264e-06 -0.000141463635 -3.48560752e-05
      -0.00673806528 -7.25973132e-06 -0.00520484848 -0.000549412624
      0.234492809 -0.00883121789 -0.00232551619 -0.0190757252
      -0.013202046 -0.00277758436 0.0680748224 0.146611258
      -7.80180053e-05 -6.35239921e-05 -0.000898166851 0.258587599
      0.166472346 -0.000187882819 0.571309686 -3.20365143e-06
      0.307170302 0.00338125974 -0.000215414984 0.54830575 -0.0029775165
      -0.000545902411 -2.45902665e-05 -0.000186647841 -3.12152952e-06
      -3.19994956e-06 0.0324870422 0.0702360421 -0.00344385696
      0.0391403101 -1.35949267e-06 0.0217025056 -4.45264914e-06
      0.0519906059 0.546394229 -8.63333771e-05 0.170864329
      -0.000865551876 0.122073844 0.208067641 -3.86533429e-05
      -0.000363406667 0.0572503693 0.173702687 0.0208845101
      -0.000226226854 0.243611425 0.161982059 0.289017856 -0.0017808564
      -0.00025394815 -0.00117292244 0.228263825 -0.00118224951
      -1.6060656e-05 -0.00280768098 0.0888111815 -0.00351340044
      -0.00255500968 -0.000115083414 -3.44951059e-06 0.0689458847
      -4.82882797e-07 0.0628316179 0.149216577 -0.000209170699
      -0.000418645883 0.314987004 -0.000150129898 -9.47648077e-05
      0.263737381 0.00919735059 -0.000142889985 -3.95960997e-05
      -3.63635991e-05 -2.25628155e-05 -0.00024765273 -1.6653501e-05
      -0.000107488995 0.082068339 -0.000676418771 0.0457929038
      0.264993906 -0.00011996214 -5.17775732e-07 -0.000193756277
      -5.23212184e-05 0.301108152 0.556689322 -2.44899329e-05
      -0.000121824814 -9.1373091e-05 -4.20383694e-05 -0.000481541327
      0.00161801465 0.0625669137 -0.000267693133 -0.000190310573
      -0.000231002268</_>
    <_>
      0.468067825 -3.73545265 -0.00474082679 -0.0425570682
      -0.000167667458 -0.0102245817 -0.000354737655 -0.00143277389
      -2.42164492e-06 -1.26328687e-05 -2.97885691e-07 -8.60913278e-05
      -0.000275786035 -0.000170198953 5.77872038 1.62315488
      -0.00198802608 1.4269191 -0.000145857906 -0.000881810614
      -0.00055623916 -0.00329582137 0.225007355 -1.14794966e-05
      0.925633848 2.85339308 -1.31088709e-05 -4.92769323e-05
      -1.33919484e-05 -0.000438145944 -0.000166925805 -0.00363115454
      -0.00101524242 -8.88469513e-05 -0.000673780101 -0.000249801727
      -5.04612253e-05 -0.00888322294 -0.000175320849 -0.000114907314
      -0.000557758671 -0.00120881852 -0.000340094732 -0.002603231
      -0.0015738958 -0.000322858803 2.58674932 0.427484393 -0.0196524002
      -0.00149209797 0.144275606 -3.00038755e-06 -0.00744155981
      3.19690561 -0.0182213895 -0.0469190255 -0.00277893152 0.22354129
      -0.00348151429 -0.000676040712 -0.000391499838 -0.000641746214
      2.60951495 -0.00986733567 -3.65660817e-05 -2.52115788e-05
      -2.17331035e-05 -0.00342466845 -0.00134035305 -0.000636759156
      3.97859144 -0.00144452229 -6.82545578e-05 -3.39653661e-06
      -0.00100564945 -1.75111254e-05 1.15410745 3.71311975
      -0.00129660266 -9.25729182e-06 -4.13602748e-07 -0.000226875054
      2.04794812 -0.0377902798 -0.000505506643 -0.00281006307
      0.802001595 -5.6108388e-06 -0.00634293351 -0.00495785568
      -0.000359536614 -0.004047981 -0.00551083079 4.25623989
      -0.0179855656 -0.000638098689 -0.0142956935 -0.00439678552
      -0.00186079647 -5.37362212e-05 -0.00700066378 3.17170954
      -1.26430962e-06 -8.29768542e-05 -0.000940509955 4.23531485
      -0.000103217717 -2.99192161e-05 -0.000367352186 -0.00538425008
      -0.00145040231 -0.00180036202 -1.25970046e-05 -3.82089493e-05
      -0.000511135499 -8.06052753e-07 -1.81716177e-06 -0.000138842355
      -3.52421594e-05 -0.00666969176 -7.26253938e-06 -0.00528375246
      -0.00054165133 0.126339912 -0.0088107083 -0.00231287559
      -0.0189631153 -0.0141285677 -0.00269287522 0.0749177337
      0.163668171 -7.7472243e-05 -6.49537251e-05 -0.000855329912
      0.294027269 0.146498889 -0.000185141704 0.566093624
      -3.14566591e-06 0.312710345 0.0244643912 -0.00021482259
      0.562901258 -0.00277146511 -0.000708042935 -2.46892196e-05
      -0.000180702162 -3.08587914e-06 -3.17004151e-06 0.0414298698
      0.070133552 -0.00305402838 0.0555313341 -1.37105087e-06
      0.0115974396 -4.4956746e-06 0.0453071557 0.545689225 0.0094018355
      0.18443425 -0.000856149534 0.10269013 0.245763257 -3.77167926e-05
      -0.000360723527 0.0671695173 0.175906777 0.0204049759
      -0.000222388087 0.252098024 0.127949089 0.278995395 -0.00172964646
      -8.16405154e-05 -0.00176474592 0.260147721 -0.00118437514
      -1.62972519e-05 -0.00275387336 0.0740992501 -0.00314534549
      -0.00253110402 -0.000113295871 -3.46069805e-06 0.0779382586
      -4.88791045e-07 0.0371638685 0.151022777 -0.000209168953
      -0.000418722571 0.315037072 -0.000150127365 -9.47629524e-05
      0.263804138 0.0092497617 -0.000142888239 -3.95950119e-05
      -3.66705644e-05 -2.29897341e-05 -0.000247660064 -1.61132957e-05
      -0.000107496351 0.082122393 -0.000676556199 0.0456676409
      0.265047461 -0.00011995987 -5.21026095e-07 -0.000193758824
      -5.23099661e-05 0.301329941 0.556907415 -2.44889543e-05
      -0.000123523103 -9.13704425e-05 -4.20373144e-05 -0.000481614697
      0.00165816769 0.0625923648 -0.000267715717 -0.000190308856
      -0.000231214362</_>
    <_>
      0.566689312 -3.88452101 -0.00469469279 -0.0421288274
      -0.000163084522 -0.0100716483 -0.000352632836 -0.00144454173
      -2.38644998e-06 -1.26419682e-05 -2.97321918e-07 -8.54626851e-05
      -0.000275311497 -0.000167881706 5.73181772 1.66608369
      -0.00198199274 1.47393441 -0.000146114922 -0.000902738131
      -0.000554155908 -0.00328329671 0.203532636 -1.14020086e-05
      0.9636994 2.89347386 -1.30522303e-05 -4.96814428e-05
      -1.35837845e-05 0.0817727745 -0.000164229976 -0.00401778705
      -0.000993193942 -8.77455022e-05 -0.00067288999 -0.00025129944
      -5.02331786e-05 -0.00883119553 -0.00017419325 -0.000115700452
      -0.000557339576 -0.001176683 -0.000345067907 -0.00260049035
      -0.00157492934 -0.000325911999 2.60301495 0.429963142
      -0.0189229492 -0.00145655544 0.132102683 -2.9525379e-06
      -0.00741053047 3.28685308 -0.0185653884 -0.0462918431
      -0.00273310556 0.225868851 -0.00343261752 -0.000673138711
      -0.000390752655 -0.000637461431 2.64311147 -0.00975526217
      -3.65496198e-05 -2.54465704e-05 -2.17419129e-05 -0.00338234147
      -0.00133344135 -0.000650400529 3.99926782 -0.00143227167
      -6.88941e-05 -3.36400626e-06 -0.00100859092 -1.78198843e-05
      1.17312455 3.66214919 -0.00128630514 -9.3392855e-06
      -4.24762504e-07 -0.00022383171 2.10164642 -0.0376296602
      -0.000501609407 -0.00267026038 0.734222353 -5.54195867e-06
      -0.0062329853 -0.00489981193 -0.000352744741 -0.00403101137
      -0.00556288054 4.33312988 -0.0178988427 -0.000642530678
      -0.0141898785 -0.00435588462 -0.00185859308 -5.32235608e-05
      -0.00690736715 3.24008083 -1.30152023e-06 -8.2345563e-05
      -0.000933714735 4.27474165 -0.000101207726 -3.04036621e-05
      -0.000359617174 -0.0032716617 -0.00143063127 -0.00204526121
      -1.2970484e-05 -3.88284352e-05 -0.000503040734 -8.03374405e-07
      -1.85557928e-06 -0.000138300966 -3.49225629e-05 -0.00656534918
      -7.11086705e-06 -0.00522739021 -0.000533340848 0.133207753
      -0.00882597733 -0.00228131842 -0.0187954362 -0.0139605794
      -0.00272802729 0.0838543773 0.143997818 -7.82744391e-05
      -6.34560565e-05 -0.000690893212 0.260586113 0.182908058
      -0.000185841971 0.578240395 -3.23477775e-06 0.302018404
      0.038662605 -0.000215327731 0.553369641 -0.00307409512
      -0.000423424091 -2.44051625e-05 -0.000185856232 -3.11724602e-06
      -3.17974786e-06 0.0343793556 0.0725627095 -0.00339464121
      0.0363402925 -1.34962227e-06 0.0273126736 -4.42546252e-06
      0.0366806164 0.565545082 -0.0001544845 0.166143075 -0.00084270176
      0.117792234 0.20148395 -3.87271757e-05 -0.000363711384
      0.0540162474 0.177185237 -8.56903571e-05 -0.00022433167
      0.232175604 0.162049666 0.28510341 -0.00178133196 -0.000203126852
      -0.00117490592 0.214657322 -0.00117950491 -1.59397823e-05
      -0.00284537673 0.0992171988 -0.00353596266 -0.00258012582
      -0.000115729883 -3.42987619e-06 0.0662691742 -4.79159951e-07
      0.0813485011 0.139678806 -0.000209170699 -0.000418645883
      0.314987004 -0.000150129898 -9.47648077e-05 0.263737381
      0.00919735059 -0.000142889985 -3.95960997e-05 -3.63635991e-05
      -2.25628155e-05 -0.00024765273 -1.6653501e-05 -0.000107488995
      0.082068339 -0.000676418771 0.0457929038 0.264993906
      -0.00011996214 -5.17775732e-07 -0.000193756277 -5.23212184e-05
      0.301108152 0.556689322 -2.44899329e-05 -0.000121824814
      -9.1373091e-05 -4.20383694e-05 -0.000481541327 0.00161801465
      0.0625669137 -0.000267693133 -0.000190310573 -0.000231002268</_>
    <_>
      0.643202841 -4.08234453 -0.00464176387 -0.0426010974
      -0.00016128931 -0.010039066 -0.000350876478 -0.00145413575
      -2.38739972e-06 -1.25702436e-05 -2.97010843e-07 -8.4756146e-05
      -0.000278083869 -0.000166890735 5.78087091 1.76058757
      -0.00196265057 1.41552258 -0.000148484018 -0.000901371299
      -0.000553355261 -0.00321200327 0.217687994 -1.13849792e-05
      1.04241204 2.97274733 -1.33917765e-05 -4.94381311e-05
      -1.35398304e-05 0.0937176943 -0.000164202778 -0.00326759368
      -0.00099879317 -8.8491106e-05 -0.00067311828 -0.000251187623
      -4.99089874e-05 -0.00761254784 -0.000169883147 -0.000113701069
      -0.000563811627 -0.00117176503 -0.000346229441 -0.002367693
      -0.00157113699 -0.000315297802 2.47642183 0.427743465
      -0.0181390364 -0.00144314847 0.124370679 -3.04546029e-06
      -0.00733703049 3.36908054 -0.0185384378 -0.0455248542
      -0.00272892765 0.343343168 -0.00339138648 -0.000694358198
      -0.000362309307 -0.000626033812 2.71816707 -0.0090454556
      -3.80067395e-05 -2.52269419e-05 -2.15754371e-05 -0.00338544603
      -0.00134007039 -0.00066377956 4.03917074 -0.00143933308
      -6.7559864e-05 -3.36502558e-06 -0.00103278714 -1.80698426e-05
      1.25490534 3.638551 -0.00127113261 -9.25711083e-06 -4.17615979e-07
      -0.000220954302 2.21395445 -0.038791202 -0.000506683893
      -0.00227472233 0.764508426 -5.51664198e-06 -0.006105443
      -0.00493956218 -0.000351168739 -0.0040138266 -0.00560463872
      4.47450352 -0.0179965291 -0.000626035267 -0.0146567449
      -0.00430631824 -0.00185053505 -5.32171216e-05 -0.00682967808
      3.32980561 -1.30380943e-06 -8.24320887e-05 -0.000948414323
      4.28128958 -0.0001008545 -3.05982721e-05 -0.00035402819
      -0.00205422984 -0.0014197526 -0.00177969423 -1.29096115e-05
      -3.80030724e-05 -0.000495660875 -8.22406037e-07 -1.81964549e-06
      -0.000138102769 -3.44634063e-05 -0.00655138586 -7.05738785e-06
      -0.00523952069 -0.000524823146 0.195695043 -0.00876231212
      -0.00223556673 -0.0190239418 -0.0136613389 -0.00282148644
      0.0823369473 0.141845673 -7.84773947e-05 -6.41277293e-05
      -0.000805123709 0.258025348 0.18833071 -0.000185432771 0.584278643
      -3.23986455e-06 0.298786759 0.0361725762 -0.000214330154
      0.548295021 -0.00313037005 -0.000319622894 -2.44036128e-05
      -0.000185040975 -3.10438463e-06 -3.1783502e-06 0.0314006731
      0.0706878304 -0.00344982254 0.0390988551 -1.34958213e-06
      0.0244816765 -4.43000454e-06 0.0349381268 0.569284141
      -0.000170768195 0.162429422 -0.000843241578 0.106322065
      0.208658233 -3.88075132e-05 -0.000365430082 0.0516688898
      0.173524112 -9.24799588e-06 -0.000223824114 0.246143907
      0.161085486 0.290438533 -0.00170486653 -8.52491285e-05
      -0.00124607026 0.216159254 -0.00117051997 -1.59256178e-05
      -0.00285436958 0.105354182 -0.00365025154 -0.00258848909
      -0.000115354487 -3.43314832e-06 0.0801370367 -4.79090488e-07
      0.0807614252 0.142751157 -0.000209170699 -0.000418645883
      0.314987004 -0.000150129898 -9.47648077e-05 0.263737381
      0.00919735059 -0.000142889985 -3.95960997e-05 -3.63635991e-05
      -2.25628155e-05 -0.00024765273 -1.6653501e-05 -0.000107488995
      0.082068339 -0.000676418771 0.0457929038 0.264993906
      -0.00011996214 -5.17775732e-07 -0.000193756277 -5.23212184e-05
      0.301108152 0.556689322 -2.44899329e-05 -0.000121824814
      -9.1373091e-05 -4.20383694e-05 -0.000481541327 0.00161801465
      0.0625669137 -0.000267693133 -0.000190310573 -0.000231002268</_>
    <_>
      0.734719932 -3.61540198 -0.0045339209 -0.0430173017
      -0.000152906578 -0.00981248915 -0.000375248521 -0.00138392032
      -2.67255905e-06 -1.32815203e-05 -2.97114241e-07 -8.29763012e-05
      -0.000274379971 -0.000155809772 5.73668432 1.13380182
      -0.00200426159 1.97055984 -0.000141718832 -0.000907606038
      -0.000532065111 -0.00325856684 0.112916276 -1.17217442e-05
      0.496990234 2.36764646 -1.22823785e-05 -4.76870955e-05
      -1.37460256e-05 0.255099624 -0.000157144008 -0.0056828591
      -0.00095649081 -8.73190584e-05 -0.000679649937 -0.000250231387
      -4.98391855e-05 -0.00801631529 -0.000173630557 -0.000114499875
      -0.000518677058 -0.00118372124 -0.000321608764 -0.00255673728
      -0.00166836556 -0.000321898755 3.13224077 0.214319527
      -0.0178803112 -0.00142534799 0.126670837 -3.20141044e-06
      -0.00742076989 3.32367086 -0.0172513649 -0.0467728265
      -0.00261442666 0.143807739 -0.00340875192 -0.00068835041
      -0.000385542953 -0.000671608199 2.24586463 -0.0140294367
      -3.81147984e-05 -2.59895241e-05 -2.14365336e-05 -0.00343453791
      -0.00124371308 -0.000690848217 4.06059647 -0.00149170903
      -7.07429426e-05 -3.01961609e-06 -0.001003257 -1.77467682e-05
      0.690102875 3.58780909 -0.00130872184 -9.1321017e-06
      -4.23847609e-07 -0.000236257532 2.23427963 -0.0377737209
      -0.000501377915 -0.00341068627 0.581216872 -5.5103701e-06
      -0.00613147346 -0.00507602934 -0.000340738072 -0.00396834314
      -0.00558716524 3.53543735 -0.0167740062 -0.000660978083
      -0.0143869705 -0.00441345433 -0.00177478814 -5.45579569e-05
      -0.00665074913 2.71957612 -1.33515698e-06 -8.96040438e-05
      -0.000920080172 4.60041475 -0.000102132231 -3.01109612e-05
      -0.000348116737 -0.00134133396 -0.00143788999 -0.00192502211
      -1.37158268e-05 -3.80218662e-05 -0.000511527003 -8.00307134e-07
      -1.8629072e-06 -0.000128101587 -3.38841164e-05 -0.00618346035
      -6.89378567e-06 -0.00533589255 -0.000502651092 -0.00266853627
      -0.0090508908 -0.00198947405 -0.0188755505 -0.0171349123
      -0.00233638217 0.0626296699 0.14428708 -7.69089529e-05
      -6.41457809e-05 -0.000596839469 0.285481006 0.194352925
      -0.000189831146 0.57108438 -3.09328721e-06 0.294772536
      0.0423489884 -0.00021557424 0.553168356 -0.00273102615
      -0.000877715938 -2.46068448e-05 -0.000182999313 -3.15798275e-06
      -3.21442985e-06 0.0296953693 0.0553948842 -0.00304542901
      0.00468135253 -1.36912706e-06 0.00616107136 -4.47706725e-06
      0.060122408 0.540839195 0.0262604877 0.182985827 -0.000909049355
      0.150416657 0.200538591 -3.83429651e-05 -0.000359649042
      0.046168305 0.174516901 0.00155806914 -0.000222727365 0.235599518
      0.160493553 0.253399909 -0.00179935864 -0.000565061171
      -0.00130415382 0.208096579 -0.00118115731 -1.60909931e-05
      -0.00278158858 0.0581105426 -0.00327779935 -0.00255345879
      -0.00011504475 -3.43051101e-06 0.0245625935 -4.8671825e-07
      0.0621418431 0.112356037 -0.000209173872 -0.000418573356
      0.314904392 -0.000150132255 -9.47664594e-05 0.263660252
      0.00916995481 -0.000142891644 -3.95970601e-05 -3.57159952e-05
      -2.1935999e-05 -0.000247649237 -1.63523473e-05 -0.000107482338
      0.0820356756 -0.000676304975 0.0458423756 0.264915347
      -0.000119964243 -5.14135479e-07 -0.00019375587 -5.17572807e-05
      0.300968796 0.556501806 -2.4490786e-05 -0.000120798126
      -9.1375412e-05 -4.20392862e-05 -0.000481488765 0.00159692205
      0.062540561 -0.000267675729 -0.000190313411 -0.000230853708</_>
    <_>
      0.366908252 -3.93707538 -0.0045805038 -0.0395665392
      -0.000164072029 -0.00985231809 -0.000327687187 -0.00144745142
      -2.28674935e-06 -1.20859813e-05 -2.89383763e-07 -8.40588837e-05
      -0.000274473801 -0.000166693382 5.46054983 1.8907181
      -0.00190178514 1.14016318 -0.000145686296 -0.000880521664
      -0.000556391373 -0.0031431471 0.210309058 -1.13082569e-05
      1.21765745 3.04699016 -1.30766775e-05 -4.92744402e-05
      -1.36328854e-05 -0.00018525566 -0.000161084667 -0.00206495053
      -0.000995477312 -8.88848663e-05 -0.000655231532 -0.000245656091
      -4.98472327e-05 -0.00824903417 -0.000173847744 -0.000109885332
      -0.000564452377 -0.00115368015 -0.000370000518 -0.00222840789
      -0.00147600053 -0.000315847166 2.30230284 0.588096857
      -0.0172568616 -0.00143066421 0.0928003639 -2.82363499e-06
      -0.00708752312 3.02808571 -0.01856637 -0.0426200256 -0.00271135778
      0.369722933 -0.00335439108 -0.000674439303 -0.000341150153
      -0.000601829728 2.76988935 -0.00701613165 -3.72433788e-05
      -2.49612513e-05 -2.20355869e-05 -0.00337327505 -0.00135232788
      -0.000640512677 3.82211304 -0.00141154684 -6.56493503e-05
      -3.41727878e-06 -0.00101572124 -1.80835796e-05 1.40437281
      3.39909315 -0.00124180701 -9.14803786e-06 -4.57396368e-07
      -0.000208354439 1.98926115 -0.0356727839 -0.000509245321
      -0.00112658914 0.669857681 -5.36985863e-06 -0.00588137424
      -0.00459524151 -0.000348760921 -0.00393876946 -0.00548958778
      4.6307888 -0.017914027 -0.000617665995 -0.0132287238
      -0.00416655373 -0.0018505078 -5.3355172e-05 -0.00653030956
      3.42630744 -1.24605617e-06 -8.07134129e-05 -0.000950324233
      3.96682096 -0.000100690377 -3.02350145e-05 -0.00035459394
      -0.00232696114 -0.00138843013 -0.00201607845 -1.30115768e-05
      -4.00958052e-05 -0.000500887225 -7.93430729e-07 -1.80591417e-06
      -0.000142924386 -3.37712263e-05 -0.0065430603 -7.09358483e-06
      -0.00497813104 -0.000539938279 0.332535207 -0.00838222075
      -0.00234292424 -0.0189660843 -0.0116354991 -0.00290895742
      0.085106656 0.164117217 -7.82728821e-05 -6.35939432e-05
      -0.000490202277 0.271822989 0.172374576 -0.000186587276
      0.571588874 -3.23452332e-06 0.304788888 0.01739382 -0.000218535875
      0.559977531 -0.00283947727 -0.000606500194 -2.44825005e-05
      -0.000188513688 -3.1349216e-06 -3.18207822e-06 0.054799512
      0.0836419463 -0.00329932827 0.0417864732 -1.35441178e-06
      0.0365842357 -4.43038152e-06 0.0421575084 0.555429041
      -2.07565722e-06 0.170765236 -0.000843204267 0.130647182
      0.204442695 -3.89274755e-05 -0.000360236096 0.0650424808
      0.19331938 -6.72608949e-05 -0.000227243276 0.22918357 0.162172407
      0.26927951 -0.00183173374 -0.000269389042 -0.00134089589
      0.216420755 -0.00118384662 -1.59956235e-05 -0.00280720252
      0.0715089962 -0.00344246137 -0.00256218598 -0.000116825635
      -3.4438624e-06 0.0664452761 -4.80424944e-07 0.0762349218
      0.126075804 -0.00020916533 -0.000418987591 0.315154552
      -0.000150118576 -9.47563967e-05 0.264011145 0.00946275517
      -0.000142882243 -3.95911229e-05 -3.71556707e-05 -2.4095476e-05
      -0.000247691147 -1.30143017e-05 -0.000107521897 0.082334727
      -0.000677058764 0.0451347753 0.265188575 -0.000119951925
      -5.31409171e-07 -0.000193770786 -5.13784944e-05 0.302195817
      0.557683349 -2.44854618e-05 -0.00013020105 -9.13610347e-05
      -4.20335309e-05 -0.000481895113 0.0018211063 0.0626751855
      -0.000267799827 -0.000190304941 -0.000232020408</_>
    <_>
      0.475590169 -3.85364532 -0.00480319327 -0.0420945771
      -0.000168888088 -0.0102107022 -0.000340305647 -0.00146387995
      -2.31408808e-06 -1.23151331e-05 -2.96262897e-07 -8.60602377e-05
      -0.000274901657 -0.000173760345 5.87348413 1.61403453
      -0.00197156845 1.23101997 -0.000147612896 -0.000864540343
      -0.000574972888 -0.00329470844 0.190876722 -1.10822184e-05
      0.899321735 2.78047395 -1.25979404e-05 -4.96367757e-05
      -1.35552009e-05 -0.00102338032 -0.000168578292 -0.00472423434
      -0.00102505321 -9.09067603e-05 -0.000683460152 -0.000249128963
      -4.97508081e-05 -0.00911598466 -0.000175272813 -0.000114010683
      -0.000564677233 -0.00120932178 -0.000372078037 -0.00201733876
      -0.00149985694 -0.000323358719 2.4469347 0.410839766 -0.0196511336
      -0.00147992559 0.106494024 -2.79504025e-06 -0.00745154079
      3.22895098 -0.0186329093 -0.0459925681 -0.00282551232 0.275159121
      -0.00353835756 -0.00069833477 -0.000373791787 -0.000631080766
      2.60503244 -0.0104560023 -3.76266071e-05 -2.52758e-05
      -2.19434532e-05 -0.00344947539 -0.00136971544 -0.000645848631
      4.06254578 -0.00143309787 -6.97647556e-05 -3.53606561e-06
      -0.00100332208 -1.75332279e-05 1.14695585 3.63271022
      -0.00129274826 -9.10016206e-06 -4.60310986e-07 -0.000223983472
      2.01297045 -0.0378049351 -0.000515406544 -0.00268886937 0.6676386
      -5.65675055e-06 -0.00617189612 -0.00485973572 -0.000360247155
      -0.0040438259 -0.00555483112 4.2201519 -0.0180917569
      -0.000640653132 -0.0146795986 -0.00434788922 -0.00188814581
      -5.34897663e-05 -0.0065232669 3.19242167 -1.23500388e-06
      -8.1999955e-05 -0.000952245493 4.22717237 -0.000101085534
      -2.97395363e-05 -0.000374460535 -0.00272909668 -0.00142476789
      -0.00148969376 -1.29099835e-05 -4.08811029e-05 -0.000521266251
      -7.74001933e-07 -1.81283292e-06 -0.000142518271 -3.51366216e-05
      -0.00663748663 -7.26763028e-06 -0.00524035189 -0.000547491014
      0.064145647 -0.00866919849 -0.00238289242 -0.0194298159
      -0.014225075 -0.00283948472 0.0631357133 0.18605864 -7.7489065e-05
      -6.1266117e-05 -0.000489412108 0.273785532 0.154751763
      -0.000185744793 0.560151219 -3.18790148e-06 0.323628068
      -0.000307608454 -0.000221139853 0.57872957 -0.00281506521
      -0.000811803329 -2.45610681e-05 -0.000190808205 -3.14596446e-06
      -3.1810871e-06 0.0560564399 0.0987139195 -0.00326263835
      0.0388356112 -1.36089466e-06 0.033671625 -4.43438512e-06
      0.0577830151 0.53656143 0.00655839592 0.172983631 -0.000855933351
      0.131548792 0.205569789 -3.81354293e-05 -0.000354231452
      0.0876013637 0.199194223 0.00700521842 -0.000231326456 0.230159879
      0.166488588 0.249606788 -0.00193803664 -0.000391086825
      -0.00146210368 0.252126962 -0.00119069952 -1.61419903e-05
      -0.00278322119 0.0341098681 -0.00329669518 -0.0025448387
      -0.00011592485 -3.43849115e-06 0.0675052553 -4.82953965e-07
      0.0600910261 0.12273477 -0.000209159945 -0.000419329357
      0.315322042 -0.000150107255 -9.47479857e-05 0.264284968
      0.00972814858 -0.000142874516 -3.95861462e-05 -3.79477424e-05
      -2.56282092e-05 -0.000247729535 -9.37517689e-06 -0.000107554799
      0.0826011002 -0.000677698757 0.0444766581 0.265383184
      -0.000119941717 -5.45042553e-07 -0.000193785294 -5.04358468e-05
      0.303283453 0.558677435 -2.44809908e-05 -0.000138577292
      -9.13489857e-05 -4.20286888e-05 -0.000482248957 0.00202419423
      0.0627834573 -0.000267906493 -0.000190299295 -0.000233038532</_>
    <_>
      0.648085654 -3.86244297 -0.00456040632 -0.0449714363 -0.0001585016
      -0.00989493541 -0.000350929738 -0.00143189041 -2.35546554e-06
      -1.22773772e-05 -2.92006149e-07 -8.24704402e-05 -0.000276190054
      -0.000161385353 6.00030565 1.42987096 -0.00193292019 1.45482993
      -0.000145404323 -0.000875305792 -0.000545177434 -0.00315056322
      0.199724972 -1.071115e-05 0.693426073 2.64703488 -1.24844246e-05
      -4.67007594e-05 -1.3009284e-05 -0.000181931595 -0.000160788841
      -0.00481515843 -0.000985476188 -8.74440157e-05 -0.000675836869
      -0.000242793045 -4.77713838e-05 -0.00717444532 -0.000160510797
      -0.000110701243 -0.000524313946 -0.00118435989 -0.000310363655
      -0.00178278296 -0.00152877474 -0.000302804343 2.71560001
      0.243635103 -0.0177667737 -0.00141044206 0.122332007
      -3.11228814e-06 -0.00726248324 3.40371752 -0.0178436153
      -0.0468683392 -0.00268747588 0.199319869 -0.00339146331
      -0.000699486933 -0.000341737177 -0.000622858002 2.48726106
      -0.0123536028 -3.72178911e-05 -2.40342015e-05 -2.03431991e-05
      -0.00338683953 -0.00130290387 -0.000646846951 4.17508793
      -0.00143893412 -6.71099187e-05 -3.32953596e-06 -0.000979298144
      -1.71950778e-05 0.952734172 3.7472496 -0.00124369294
      -8.87400802e-06 -3.50861598e-07 -0.000224582807 2.34852386
      -0.0405178666 -0.000514691928 -0.00336674554 0.538948596
      -5.58385045e-06 -0.00589996064 -0.0049103857 -0.000343710592
      -0.00391851366 -0.00546928635 3.96416068 -0.0172578525
      -0.000607553637 -0.0160626806 -0.00424255012 -0.00178455003
      -4.9645063e-05 -0.00657239044 3.02347684 -1.22959023e-06
      -8.5434287e-05 -0.000930326176 4.3820281 -0.000100065365
      -2.87983858e-05 -0.000355794386 -0.00298014819 -0.00139711984
      -0.00194271491 -1.28281536e-05 -3.32931086e-05 -0.000497859844
      -7.5201126e-07 -1.75506159e-06 -0.000126338709 -3.29668073e-05
      -0.00631426973 -6.86005842e-06 -0.00524218148 -0.000503597839
      -0.000480962306 -0.0086702602 -0.00210030237 -0.0189152826
      -0.016121408 -0.00260517537 0.109177127 0.179085463
      -7.94603839e-05 -6.553821e-05 -0.00086544198 0.263395131
      0.176285684 -0.000180024494 0.592592359 -3.34311903e-06
      0.287835389 0.0537351444 -0.000211224105 0.56000948 -0.00302694668
      -0.00034748434 -2.43656705e-05 -0.000183010212 -3.12322186e-06
      -3.09202164e-06 0.0539709032 0.0680500716 -0.00330729596
      0.0743182003 -1.34546792e-06 0.0213792175 -4.43299587e-06
      0.0114264209 0.598342538 -8.86902926e-05 0.167051315
      -0.000876171805 0.066089198 0.23545064 -3.78421828e-05
      -0.000366578752 0.0574698374 0.180143386 0.00370277837
      -0.000225925774 0.259032309 0.129567325 0.323297948 -0.00179501472
      0.0404686593 -0.00167796819 0.263554513 -0.00116672041
      -1.60158452e-05 -0.00285030389 0.0906406268 -0.00338710658
      -0.00258264411 -0.000114514558 -3.45301191e-06 0.124953412
      -4.77946514e-07 0.0552257672 0.150407791 -0.000209159916
      -0.000419368444 0.315326631 -0.000150105945 -9.47469816e-05
      0.264310718 0.00976790115 -0.000142873629 -3.95855495e-05
      -3.78932054e-05 -2.57139654e-05 -0.000247735326 -8.62140223e-06
      -0.000107558721 0.0826394856 -0.000677778327 0.0443722233
      0.265393972 -0.000119940523 -5.46362685e-07 -0.000193787768
      -5.00912574e-05 0.303437859 0.558799505 -2.44804542e-05
      -0.000139783398 -9.13475451e-05 -4.20280958e-05 -0.000482296222
      0.00205458514 0.0627950579 -0.000267920317 -0.000190299164
      -0.000233177183</_>
    <_>
      0.581167698 -3.49708128 -0.00446981099 -0.0424061567
      -0.000151053566 -0.0096421279 -0.000349465088 -0.00137280044
      -2.20448851e-06 -1.20796885e-05 -2.88618793e-07 -7.86830278e-05
      -0.000260808505 -0.000155380272 5.67413473 1.17616498
      -0.00189365796 1.68719149 -0.000140236443 -0.000847964955
      -0.000527054246 -0.00311332522 0.162391543 -1.04329129e-05
      0.524574459 2.37068319 -1.22597594e-05 -4.51666237e-05
      -1.26229279e-05 0.164374635 -0.000159328309 -0.00510219764
      -0.000933965843 -8.44727547e-05 -0.000663986139 -0.000242744965
      -4.49952386e-05 -0.00716398098 -0.000150907013 -0.000111887639
      -0.000514337444 -0.00113677175 -0.00031032064 -0.00201150379
      -0.00152705715 -0.000287809467 2.84807873 0.285358071
      -0.0178618561 -0.00135024614 0.124569908 -3.03454431e-06
      -0.00720062898 3.18567085 -0.0171258748 -0.0446166173
      -0.00259731291 0.25435257 -0.00331616635 -0.000674624927
      -0.000365420536 -0.000619255181 2.24659061 -0.0132148741
      -3.73099792e-05 -2.37290005e-05 -1.89968632e-05 -0.00333463284
      -0.00122199673 -0.000645520224 3.97532439 -0.00140903273
      -6.68408757e-05 -3.24326697e-06 -0.000967259984 -1.64959911e-05
      0.709929407 3.51651597 -0.0012370625 -8.52879384e-06
      -3.27249637e-07 -0.000229814716 2.17425895 -0.0376772471
      -0.000496145978 -0.00280126929 0.667253673 -5.42316411e-06
      -0.00588297332 -0.00493322592 -0.000330997398 -0.00388530898
      -0.00541887991 3.54829502 -0.0165859386 -0.000601302716
      -0.0145475222 -0.00417462923 -0.00173335371 -4.69553379e-05
      -0.00637043174 2.71831083 -1.17635773e-06 -8.1838225e-05
      -0.000922892941 4.42174578 -9.57645243e-05 -2.8256487e-05
      -0.000338673999 -0.00278782565 -0.00137986057 -0.00140050345
      -1.25717252e-05 -3.27102316e-05 -0.00047453458 -7.25545874e-07
      -1.68127792e-06 -0.000119859891 -3.26733243e-05 -0.00606576679
      -6.59384796e-06 -0.00519910129 -0.000469285063 -0.00221030787
      -0.00861842092 -0.00196071737 -0.0186189823 -0.0167757981
      -0.00245096767 0.0652180538 0.215756193 -7.55419096e-05
      -6.31582589e-05 -0.000666990585 0.33679685 0.124710932
      -0.000185113342 0.567050099 -2.95193763e-06 0.327727437
      0.0178388134 -0.000225905285 0.568584979 -0.0024386521
      -0.0013275966 -2.48179804e-05 -0.000181747339 -2.99625231e-06
      -3.13955024e-06 0.0576069057 0.0783711672 -0.00266669388
      0.0346309207 -1.37448092e-06 0.00402664393 -4.47954608e-06
      0.0990771502 0.538738728 0.0188656226 0.223065838 -0.000773745589
      0.127116352 0.249080196 -3.56114688e-05 -0.000352517498
      0.0742505938 0.181074008 0.0252467208 -0.000224761141 0.256124526
      0.142195538 0.238878295 -0.00190831989 -0.000394127856
      -0.00229282351 0.300628841 -0.00119695708 -1.64795256e-05
      -0.00273883017 0.0399717763 -0.00268368958 -0.00254852092
      -0.00011374765 -3.4063039e-06 0.0315560028 -4.90964453e-07
      0.00410819054 0.114418566 -0.000209160833 -0.000419338379
      0.315301836 -0.000150106935 -9.47476874e-05 0.264282584
      0.00975077972 -0.000142874313 -3.95859643e-05 -3.77212455e-05
      -2.55149589e-05 -0.00024773294 -8.71140492e-06 -0.000107555898
      0.0826212019 -0.000677726755 0.0444107205 0.265368938
      -0.000119941411 -5.45003559e-07 -0.000193787069 -5.00107162e-05
      0.303361923 0.558717191 -2.44808252e-05 -0.000139208511
      -9.13485492e-05 -4.20284996e-05 -0.000482269912 0.0020414535
      0.0627848357 -0.000267912052 -0.000190300008 -0.000233102168</_>
    <_>
      0.275796711 -3.56830978 -0.00459171552 -0.039188318
      -0.000162634955 -0.00987017062 -0.000340768078 -0.00148772087
      -2.27608098e-06 -1.17144273e-05 -2.77613509e-07 -8.23993614e-05
      -0.000270801247 -0.000164817873 5.58392143 1.57168376
      -0.00193467794 1.18175709 -0.000139380791 -0.000847261806
      -0.000535497675 -0.00316169974 0.201293588 -1.09970397e-05
      0.899928868 2.71855283 -1.22791434e-05 -4.76152891e-05
      -1.3245678e-05 -0.000917713915 -0.000165578997 -0.00322693191
      -0.000966795953 -8.66384216e-05 -0.000661857193 -0.00023360108
      -4.79346454e-05 -0.00697259046 -0.000167954058 -0.000110776251
      -0.000536760141 -0.00114512281 -0.000346776302 -0.00244471361
      -0.00149909081 -0.000307752605 2.24409199 0.538830042
      -0.0186264757 -0.00142539886 0.111582994 -2.94134065e-06
      -0.00720322039 2.96663952 -0.0175464805 -0.043469537
      -0.00268297992 0.253979772 -0.0033632603 -0.000740132469
      -0.000385337364 -0.000611104362 2.51031375 -0.00945122726
      -3.53512005e-05 -2.52549398e-05 -2.05920915e-05 -0.00337388297
      -0.00129347946 -0.000588626601 3.86028528 -0.00137612468
      -6.61359445e-05 -3.43177089e-06 -0.000953330542 -1.62443885e-05
      1.07977688 3.56037283 -0.00126168283 -8.70747226e-06
      -4.31479606e-07 -0.000222210394 1.84151661 -0.0352893397
      -0.000504422875 -0.00188492739 0.754198372 -5.42077169e-06
      -0.00604005577 -0.00482444325 -0.000348476286 -0.00398127176
      -0.00521571375 4.09162998 -0.0174322315 -0.000595144345
      -0.0130429612 -0.00420080964 -0.00181270135 -5.07464902e-05
      -0.00657516206 3.04422402 -1.19509843e-06 -7.79079419e-05
      -0.000904803979 3.9116168 -9.60375837e-05 -2.85830483e-05
      -0.000346797169 -0.00480361795 -0.0013979791 -0.00117349066
      -1.21788844e-05 -3.96853102e-05 -0.000489022699 -7.89585215e-07
      -1.67615383e-06 -0.000135321548 -3.42828898e-05 -0.00639522821
      -6.9463681e-06 -0.00507078506 -0.00051101495 0.114355713
      -0.00831243768 -0.00218501175 -0.0183812156 -0.0136872455
      -0.00266603311 0.0887128338 0.173163414 -7.76969609e-05
      -6.48945497e-05 -0.000830039382 0.298957407 0.141132787
      -0.000182343152 0.564048767 -3.16213527e-06 0.313258588
      0.0194160119 -0.000214865024 0.568954945 -0.00277013215
      -0.000724404876 -2.47404441e-05 -0.000180608884 -3.093337e-06
      -3.15527541e-06 0.0485103168 0.0836086273 -0.00286207045
      0.0740118623 -1.37382972e-06 0.00865225494 -4.5028869e-06
      0.0396554619 0.546682835 0.00373209268 0.183957174 -0.000858391868
      0.0902111381 0.25485158 -3.73205039e-05 -0.000358753168
      0.0794101655 0.191955954 0.020660948 -0.000222561619 0.267204851
      0.107386917 0.259304166 -0.00175027573 -4.78516886e-05
      -0.00192293373 0.292586684 -0.00117127108 -1.63548393e-05
      -0.0027427082 0.0614527687 -0.00297468062 -0.00252141058
      -0.000112728289 -3.4730715e-06 0.0982309282 -4.90307798e-07
      0.0329661667 0.137288913 -0.00020915817 -0.000419406075 0.31537205
      -0.000150104723 -9.47461376e-05 0.264351726 0.00978056341
      -0.00014287277 -3.95850548e-05 -3.82547078e-05 -2.60552006e-05
      -0.000247736898 -8.83500979e-06 -0.000107562155 0.0826551467
      -0.000677836244 0.0443513952 0.265436769 -0.000119939446
      -5.4829286e-07 -0.000193787841 -5.04246709e-05 0.303505272
      0.558895528 -2.44800158e-05 -0.000140275733 -9.13463518e-05
      -4.20276301e-05 -0.000482322328 0.0020643454 0.0628089011
      -0.000267929048 -0.000190297607 -0.00023325067</_>
    <_>
      0.352521658 -3.2122612 -0.0045175273 -0.0357210562 -0.00016402443
      -0.00960763451 -0.000361213228 -0.00135343126 -2.18898981e-06
      -1.22941756e-05 -2.8208143e-07 -7.81343842e-05 -0.000261477602
      -0.000160703785 5.19706774 1.1768645 -0.00194429106 1.79909623
      -0.000142655699 -0.000882615452 -0.000544294133 -0.00319498405
      0.0591474026 -1.0878126e-05 0.600025892 2.2904563 -1.27518115e-05
      -4.58696813e-05 -1.36970866e-05 0.388467342 -0.000167447346
      -0.00623360602 -0.000921765168 -8.74484322e-05 -0.000659096288
      -0.000243811301 -4.61068375e-05 -0.00718946429 -0.00016614885
      -0.000112636364 -0.000577726867 -0.00114488194 -0.00036914213
      -0.00224718056 -0.00158857927 -0.000295345497 2.81727004
      0.48688072 -0.0178114586 -0.00137881772 0.0785262585
      -3.08963263e-06 -0.00724267866 2.73311186 -0.0176988076
      -0.0403708108 -0.00261013536 0.468095005 -0.00338293565
      -0.000719328295 -0.00042897879 -0.000637735415 2.17202663
      -0.0121056112 -3.7632366e-05 -2.69977281e-05 -1.96401652e-05
      -0.00342085096 -0.00122626172 -0.00064855133 3.62576628
      -0.00137557846 -7.07366635e-05 -3.67569578e-06 -0.000976954354
      -1.71246375e-05 0.734022975 3.11561871 -0.0012978767
      -8.63670084e-06 -4.69326068e-07 -0.000243807095 1.86837196
      -0.0317173675 -0.000511276128 -0.00127204589 0.903246582
      -5.25789892e-06 -0.00596536044 -0.00494275801 -0.000342769315
      -0.00408903835 -0.00546976924 3.5226109 -0.0169562101
      -0.000613439886 -0.0116479024 -0.00424736505 -0.00177640526
      -4.99833914e-05 -0.00653980346 2.68526793 -1.21103369e-06
      -8.36853942e-05 -0.000941550883 4.24678135 -9.59532481e-05
      -2.97368188e-05 -0.000337491074 -0.000374820607 -0.00143577764
      -0.00012259504 -1.35413829e-05 -4.44233374e-05 -0.000495473971
      -7.946241e-07 -1.66904147e-06 -0.000135112728 -3.45140579e-05
      -0.00606453838 -6.70501822e-06 -0.00510539534 -0.0004692683
      -0.0027426125 -0.00837289356 -0.00208675559 -0.0184100401
      -0.0152061097 -0.00268466352 0.0370274857 0.179305077
      -7.58071765e-05 -6.19945567e-05 -0.000680544064 0.325255871
      0.125304312 -0.00019465982 0.556386352 -2.99672683e-06 0.332612187
      -0.000303865003 -0.000225827869 0.558532894 -0.0024695727
      -0.00153607992 -2.49198056e-05 -0.000188303515 -3.15194802e-06
      -3.26010149e-06 0.0145859793 0.0959934145 -0.00258775195
      0.0110136233 -1.38592816e-06 0.0102675483 -4.4987496e-06
      0.112746172 0.491364568 0.0469265021 0.222416282 -0.000905555265
      0.152138859 0.192302734 -3.79539015e-05 -0.000354556629
      0.0601475015 0.188771456 0.0618008785 -0.000226261604 0.226293892
      0.14476949 0.189209998 -0.00203090929 -0.000743827783
      -0.00184420287 0.262127221 -0.00118328701 -1.6400847e-05
      -0.00269513577 -0.000259073742 -0.00278799818 -0.00251367083
      -0.000115136747 -3.45682724e-06 0.00505592301 -4.9406583e-07
      0.0120099597 0.0729054958 -0.0002091637 -0.000419119722
      0.315208554 -0.000150114181 -9.4753108e-05 0.264112711
      0.00957201049 -0.00014287926 -3.95891766e-05 -3.73524417e-05
      -2.46193249e-05 -0.000247707037 -1.13612041e-05 -0.000107534695
      0.0824432075 -0.000677311269 0.0448595956 0.265255302
      -0.000119947967 -5.36509333e-07 -0.000193776999 -5.08391458e-05
      0.302637398 0.558073163 -2.44837138e-05 -0.000133612528
      -9.13563272e-05 -4.20316283e-05 -0.000482037081 0.00190468691
      0.0627162904 -0.000267842261 -0.000190303137 -0.000232429593</_>
    <_>
      0.257640928 -1.07020783 -0.00600179052 0.868141174 -0.000155138463
      -0.0105064446 -0.000484860589 -0.00137965835 -3.18057414e-06
      -1.43735306e-05 -3.40287187e-07 -8.79080981e-05 -0.000209129488
      -0.000197288638 0.958235502 0.285956323 -0.00256568613 1.91818583
      -0.000125012855 -0.000983785023 -0.000696185976 -0.00441805972
      -0.00537547097 -1.36296949e-05 0.335098267 1.17195189
      -1.01339519e-05 -5.00391143e-05 -1.62701308e-05 0.0017853193
      -0.000165931022 -0.0148733919 -0.000980473356 -0.00010389497
      -0.000712453329 -0.000229627069 -6.06254944e-05 -0.0109429071
      -0.000265392184 -0.000124759274 -0.000500570226 -0.00152139657
      -0.000442386401 -0.0034339081 -0.00138916308 -0.000462800032
      3.47250175 1.85920727 -0.00834303536 -0.00179527712 -0.00207957346
      -2.34675304e-06 -0.00807439443 -0.0182493832 -0.0139485113
      -0.0189738628 -0.00308882142 0.261886686 -0.00478071859
      -0.00060056959 -0.00066284166 -0.000845127332 1.14093924
      -0.013396549 -3.10040195e-05 -3.67273387e-05 -2.52300306e-05
      -0.00468834816 -0.00146819069 -0.000569977215 1.76532042
      -0.00173736969 -0.000102637612 -2.65409199e-06 -0.000911560841
      -1.61793123e-05 -0.00250851572 1.018659 -0.00158454955
      -9.04059561e-06 -9.41621749e-07 -0.000333135395 -0.00143727357
      1.55159235 -0.000507263991 0.418062508 -0.00706385169
      -7.37545361e-06 -0.00711351307 -0.0025401616 -0.000425850973
      -0.00446551805 -0.00490137376 1.88680124 -0.0158977341
      -0.000935969234 1.2742871 -0.00550539419 -0.0021825619
      -7.43153651e-05 -0.00536869513 1.50017142 -1.24074245e-06
      -0.000107425585 -0.000882324413 2.04216003 -0.000125492632
      -2.87713574e-05 -0.000435035268 -0.00175143324 -0.00161407271
      -0.00173771242 -1.73594199e-05 -8.16575121e-05 -0.00093661662
      -6.32339209e-07 -2.66328266e-06 -0.000177646274 -4.45364822e-05
      -0.00675589731 -9.67099822e-06 -0.00414520316 -0.000692741305
      -0.0072044665 -0.00784671307 -0.00287963683 -0.0164633263
      -0.00881882943 -0.00152228517 0.0654097646 0.19930765
      -7.29340827e-05 -6.41543666e-05 -0.000542733062 0.351823032
      0.0807134584 -0.000192298627 0.521636784 -2.6864243e-06
      0.364778876 0.0599143878 -0.000224603151 0.450291157
      -0.00109936506 -0.0019741361 -2.59679e-05 -0.00017250044
      -2.92781738e-06 -3.31892102e-06 0.0593743399 0.0559636243
      -0.00202011014 0.0892861336 -1.45960075e-06 -0.000599696825
      -4.74789385e-06 0.135749832 0.392608404 0.0895026177 0.253417164
      -0.000702903082 0.129861027 0.24612166 -3.51193848e-05
      -0.000334809243 0.0562632605 0.138531178 0.112604186
      -0.000213879175 0.210112929 0.127385348 0.210178271 -0.00161763304
      -0.000476818852 -0.00231178966 0.282981724 -0.00120040018
      -1.7435721e-05 -0.00239468669 0.0541475192 -0.00258124573
      -0.00234530703 -0.000108791421 -3.55869156e-06 -0.000169799765
      -5.2745844e-07 -0.000329834351 0.0841790289 -0.000209163874
      -0.000419036136 0.315194696 -0.00015011699 -9.47552544e-05
      0.264056504 0.00949021056 -0.000142881137 -3.95904462e-05
      -3.74331321e-05 -2.4416222e-05 -0.000247695018 -1.28728152e-05
      -0.000107526444 0.0823640376 -0.000677142176 0.0450732037
      0.265229106 -0.000119950499 -5.33608215e-07 -0.000193771935
      -5.15100728e-05 0.302317739 0.55781585 -2.44848579e-05
      -0.000131122535 -9.13594049e-05 -4.20328797e-05 -0.000481937663
      0.00184216164 0.062691614 -0.000267813157 -0.000190303559
      -0.000232141101</_>
    <_>
      0.821022034 -1.13428593 -0.00607630005 1.21122169 -0.000160026917
      -0.0104793282 -0.000489586731 -0.00136261876 -3.39773237e-06
      -1.49518937e-05 -3.53385076e-07 -9.07358481e-05 -0.000218898494
      -0.000203418502 0.612498581 0.329561353 -0.00260347337 1.80623662
      -0.000126906496 -0.0010283232 -0.000693265698 -0.0044325823
      -0.00609928556 -1.4174735e-05 0.391132891 1.19182527
      -1.09461444e-05 -5.07175027e-05 -1.67663748e-05 -0.000541698071
      -0.000165699661 -0.0168451779 -0.00100233557 -0.000104786879
      -0.00072312681 -0.000229636003 -6.2573381e-05 -0.0099996943
      -0.000266086485 -0.000131034598 -0.000495929504 -0.00153566373
      -0.000451020664 -0.00351401092 -0.0014447358 -0.000456396025
      3.4231329 1.96228004 -0.00664587412 -0.00181096233 -0.00223530573
      -2.34714526e-06 -0.00815539621 -0.0213721823 -0.0141863758
      -0.0172561537 -0.00306868227 0.264313906 -0.00482748542
      -0.000624691369 -0.000659016368 -0.000846181996 1.10594964
      -0.0131195793 -3.14645586e-05 -3.70993184e-05 -2.64432838e-05
      -0.0047164876 -0.00146782689 -0.000591452874 1.66471612
      -0.0017577667 -0.000105653424 -2.46048398e-06 -0.000895260717
      -1.66649806e-05 -0.0026385379 0.901149929 -0.00158559112
      -9.20270941e-06 -9.68202357e-07 -0.000332432042 -0.00180677942
      1.9237988 -0.000497652043 0.461420417 -0.00877577253
      -7.56191412e-06 -0.00714562181 -0.00244791037 -0.000424806378
      -0.00452911528 -0.00506550306 1.93185878 -0.0157119036
      -0.000928086985 1.54596198 -0.00554049294 -0.00219790335
      -7.60196854e-05 -0.00538675021 1.52823639 -1.31058289e-06
      -0.000106079766 -0.0009103833 1.74521863 -0.000130144981
      -2.94353613e-05 -0.000437151553 -0.000689029926 -0.00160737836
      -0.00205717166 -1.75616642e-05 -8.22220536e-05 -0.000979261124
      -6.40609642e-07 -2.74695935e-06 -0.000181771815 -4.49573672e-05
      -0.00682109781 -9.76248703e-06 -0.00395907415 -0.000713655725
      -0.00730861863 -0.00788052566 -0.00284688757 -0.0165925529
      -0.00806796178 -0.00162248325 0.0501614511 0.191896558
      -7.16675859e-05 -6.32113006e-05 -0.000354589138 0.378203958
      0.0734591782 -0.00019741508 0.510754526 -2.54125939e-06
      0.373582542 0.0348681733 -0.000227276381 0.456996977
      -0.000899371866 -0.00224292092 -2.60290872e-05 -0.000172553337
      -2.89649756e-06 -3.33585808e-06 0.0596499667 0.0616767071
      -0.00185019046 0.089567095 -1.46227444e-06 -0.000665681262
      -4.74406897e-06 0.157672554 0.360769212 0.0935672373 0.260070354
      -0.000745644502 0.150695667 0.250621974 -3.45525477e-05
      -0.000335583783 0.0683406591 0.147034377 0.133838132
      -0.000214289073 0.199799716 0.138687596 0.190824598 -0.00165001629
      -0.000852178491 -0.0022631546 0.295837492 -0.00122604729
      -1.75930363e-05 -0.00238771108 0.0336191729 -0.00247155502
      -0.00235599 -0.000109335306 -3.5284238e-06 -0.000360294362
      -5.29543627e-07 -0.000473022228 0.0646599382 -0.000209164369
      -0.000419005926 0.315179348 -0.00015011798 -9.47559893e-05
      0.264032006 0.00946694985 -0.000142881836 -3.95908901e-05
      -3.73572111e-05 -2.42765236e-05 -0.000247691671 -1.31842862e-05
      -0.000107523527 0.082340613 -0.000677085947 0.0451307148
      0.265211463 -0.000119951401 -5.32396371e-07 -0.000193770669
      -5.15853244e-05 0.302222133 0.557727933 -2.44852527e-05
      -0.000130386426 -9.13604672e-05 -4.20333054e-05 -0.000481906667
      0.00182435848 0.0626819432 -0.000267803785 -0.000190304083
      -0.00023205149</_>
    <_>
      0.775921702 -1.01988602 -0.00636623241 1.31387544 -0.000168919752
      -0.0107863583 -0.000525888987 -0.00141587004 -3.66524841e-06
      -1.53434885e-05 -3.42062947e-07 -9.52058253e-05 -0.000227335579
      -0.000208612561 0.77803117 0.0844155103 -0.00275968155 1.88370383
      -0.000133481008 -0.00102931086 -0.000710148481 -0.00468657678
      -0.00679749344 -1.47049568e-05 0.194696367 0.976243675
      -1.11167119e-05 -5.36419029e-05 -1.83555803e-05 0.0790762901
      -0.000178947506 -0.0176749993 -0.000989914523 -0.000105310268
      -0.000756894529 -0.000227178374 -6.39637292e-05 -0.0103280824
      -0.0002791351 -0.000142671866 -0.000539012835 -0.00153767795
      -0.000450424443 -0.0037716846 -0.0015698456 -0.000467384758
      3.30370569 1.9317925 -0.00918728672 -0.00185942138 -0.00243473961
      -2.62901222e-06 -0.00866168924 -0.0206573848 -0.0145044476
      -0.0193336345 -0.00310335262 0.194525808 -0.0050323396
      -0.000750278588 -0.000713053974 -0.00091697101 0.975551486
      -0.0156771354 -2.98098275e-05 -4.06579711e-05 -2.74561589e-05
      -0.00478865113 -0.00146003044 -0.000574289705 1.68476737
      -0.00175028457 -0.000111784058 -2.86348745e-06 -0.00089715881
      -1.58178245e-05 -0.00485711731 1.01540935 -0.00169903622
      -9.27544897e-06 -1.07294079e-06 -0.000367180648 -0.00396889402
      2.01032281 -0.000516957894 0.382190347 -0.00799411908
      -7.85830434e-06 -0.00748530682 -0.00291846949 -0.000444126053
      -0.00477268221 -0.00494991709 1.61770058 -0.0160831325
      -0.000889053277 1.55263865 -0.0057325759 -0.00230185315
      -8.05414165e-05 -0.00571030006 1.31965888 -1.36091296e-06
      -0.000105669526 -0.000908801332 1.79230869 -0.00013000668
      -2.99341009e-05 -0.000442764198 -0.000726364029 -0.00169370184
      -0.00114686124 -1.83907814e-05 -9.01116509e-05 -0.000939622929
      -7.05847185e-07 -2.71293038e-06 -0.000185697936 -4.78293041e-05
      -0.00692740921 -9.76676711e-06 -0.00428351853 -0.000701719953
      -0.00970221683 -0.00791569054 -0.00290258811 -0.0163336061
      -0.0100613954 -0.00157358544 0.0536556616 0.203332812
      -7.19158052e-05 -6.22813677e-05 -0.000432542409 0.369824231
      0.0701658875 -0.000194920896 0.510126352 -2.58602313e-06
      0.375963986 0.0329025462 -0.000227095486 0.458058983
      -0.000979428645 -0.00224646274 -2.60469405e-05 -0.000174026267
      -2.92566369e-06 -3.32212858e-06 0.0596787818 0.0692027211
      -0.00184818171 0.096390456 -1.46387913e-06 -0.000692181929
      -4.74674334e-06 0.162308484 0.363425612 0.0961365625 0.25385496
      -0.00073644123 0.140393525 0.250477433 -3.44424188e-05
      -0.000333370408 0.0750808641 0.152717263 0.134881303
      -0.000216899411 0.200912118 0.128069878 0.18446973 -0.00166679919
      -0.000868733972 -0.00225788704 0.305617899 -0.00121535186
      -1.76238227e-05 -0.00237772986 0.02476082 -0.0023778691
      -0.00234415988 -0.000108532717 -3.54191138e-06 -0.000267021125
      -5.29921579e-07 -0.000517085718 0.0686169416 -0.000209164937
      -0.000419012591 0.31516701 -0.000150117747 -9.47557855e-05
      0.264031172 0.00948186591 -0.000142881676 -3.95907591e-05
      -3.72149043e-05 -2.42079041e-05 -0.000247693941 -1.27555795e-05
      -0.000107524291 0.0823539048 -0.000677105621 0.0450875424
      0.265202969 -0.000119951175 -5.32412685e-07 -0.000193771848
      -5.13136001e-05 0.302274287 0.55775553 -2.44851362e-05
      -0.000130804256 -9.13601543e-05 -4.20331708e-05 -0.000481920986
      0.00183573179 0.062683031 -0.000267807598 -0.000190304519
      -0.000232094142</_>
    <_>
      0.794935822 -0.976438582 -0.00646612886 1.33114457 -0.000171371023
      -0.0109329177 -0.000536895881 -0.00144842442 -3.65541996e-06
      -1.55706603e-05 -3.4794499e-07 -9.52039045e-05 -0.000228034929
      -0.000209373597 0.752811134 0.0223240852 -0.00281346496 2.04129791
      -0.000134510818 -0.00105857418 -0.000723717501 -0.00477510551
      -0.00713898148 -1.48591334e-05 0.141275048 0.934581697
      -1.11538975e-05 -5.40751935e-05 -1.88270387e-05 0.18677403
      -0.00018170134 -0.0179996509 -0.000986812171 -0.000106730011
      -0.000769297709 -0.000230975027 -6.38245619e-05 -0.0102253342
      -0.000280448963 -0.000146059261 -0.000550008146 -0.00155468727
      -0.000452645996 -0.00389261357 -0.00161174359 -0.000474470551
      3.46390438 1.95690346 -0.00950838067 -0.00187775446 -0.00250945403
      -2.70440796e-06 -0.0087976791 -0.0207871217 -0.0148149813
      -0.018883694 -0.00313872658 0.19139877 -0.00510442303
      -0.000771279098 -0.000741150638 -0.00093681697 0.933881581
      -0.0165320076 -3.00878328e-05 -4.15784343e-05 -2.71780227e-05
      -0.00489183282 -0.00146639778 -0.000581419328 1.68635118
      -0.00178070588 -0.000113808157 -2.98685745e-06 -0.000912529184
      -1.58445673e-05 -0.00561203295 0.99634248 -0.00173597003
      -9.34239051e-06 -1.07820836e-06 -0.000379965495 -0.0038367738
      2.03470993 -0.000524831412 0.393858701 -0.00817403104
      -7.99194004e-06 -0.00753589394 -0.00300503732 -0.00045043783
      -0.00488893688 -0.00502445223 1.56612098 -0.0162543301
      -0.000901702268 1.5711472 -0.00582704647 -0.002332184
      -8.0419748e-05 -0.00576925464 1.28183579 -1.3832539e-06
      -0.000106562875 -0.000924666354 1.88823247 -0.000131268825
      -3.0593088e-05 -0.000445174373 -0.000244644209 -0.00173148524
      -0.00106735714 -1.88239337e-05 -9.14901975e-05 -0.000950847694
      -7.10981396e-07 -2.75168941e-06 -0.000186362638 -4.89501508e-05
      -0.0069483635 -9.85877523e-06 -0.00437689852 -0.00069658563
      -0.0104578007 -0.00809330959 -0.00291402009 -0.0165311992
      -0.0107599627 -0.00158054137 0.0546828881 0.19314003
      -7.21575416e-05 -6.26809851e-05 -0.000358876365 0.374966621
      0.0802889019 -0.000196406691 0.519932389 -2.59587478e-06
      0.38096863 0.0424493477 -0.000227413097 0.459194899
      -0.000990027678 -0.00219844328 -2.59837361e-05 -0.000173761116
      -2.9201251e-06 -3.31822957e-06 0.0592240356 0.0665566474
      -0.00187847402 0.0967082977 -1.45818467e-06 -0.000674419454
      -4.73164937e-06 0.1535694 0.373493731 0.101138629 0.263187289
      -0.000761233678 0.14288862 0.241215274 -3.46343404e-05
      -0.000337191887 0.0688942745 0.157160893 0.136797667
      -0.000214050524 0.199801102 0.13094303 0.1895127 -0.00169582583
      -0.00077545346 -0.00226496137 0.302740216 -0.00120969571
      -1.75720943e-05 -0.00239348784 0.0354093388 -0.0024394861
      -0.00236251554 -0.000109655164 -3.53353312e-06 -0.000264389586
      -5.27401539e-07 -0.000498410605 0.071360901 -0.000209164937
      -0.000419012591 0.31516701 -0.000150117747 -9.47557855e-05
      0.264031172 0.00948186591 -0.000142881676 -3.95907591e-05
      -3.72149043e-05 -2.42079041e-05 -0.000247693941 -1.27555795e-05
      -0.000107524291 0.0823539048 -0.000677105621 0.0450875424
      0.265202969 -0.000119951175 -5.32412685e-07 -0.000193771848
      -5.13136001e-05 0.302274287 0.55775553 -2.44851362e-05
      -0.000130804256 -9.13601543e-05 -4.20331708e-05 -0.000481920986
      0.00183573179 0.062683031 -0.000267807598 -0.000190304519
      -0.000232094142</_>
    <_>
      0.0173057653 -1.25286222 -0.00642837165 0.769824564
      -0.000182809745 -0.0111669814 -0.000524319999 -0.00150276721
      -3.77909555e-06 -1.52294151e-05 -3.45671765e-07 -9.87696621e-05
      -0.000242109483 -0.0002118704 1.20643067 0.449466109
      -0.00273587694 1.83265138 -0.000140904507 -0.00107047334
      -0.00076581043 -0.00478135096 -0.00594503107 -1.55713515e-05
      0.458003253 1.38836217 -1.14441464e-05 -5.62910864e-05
      -1.84133769e-05 -0.000467716629 -0.000181939089 -0.0148216747
      -0.00105007109 -0.000114574897 -0.000764484925 -0.000246464071
      -6.97814321e-05 -0.0140502788 -0.000309098628 -0.000135729846
      -0.000564321817 -0.00163509196 -0.000512790226 -0.00383386458
      -0.00155026419 -0.000492681749 3.30528116 1.84673476 -0.0109463865
      -0.00201334758 -0.00246526767 -2.63080483e-06 -0.00853511225
      -0.0193005167 -0.0158150252 -0.0190435406 -0.0033010873
      0.126328588 -0.00504841143 -0.000737254741 -0.000713908812
      -0.000935167423 1.32684493 -0.0128234662 -3.16988771e-05
      -4.25920116e-05 -2.95227874e-05 -0.00505892187 -0.00159155414
      -0.000589289062 1.79260325 -0.00178095384 -0.000111074354
      -3.26351801e-06 -0.00100990781 -1.7575474e-05 -0.000477480615
      1.22854948 -0.00173063797 -1.00488587e-05 -1.21845801e-06
      -0.000355648808 -0.0027740139 1.57797146 -0.000570926815
      0.309187084 -0.00688251527 -7.68079462e-06 -0.00764515856
      -0.00268268841 -0.000476999267 -0.00486712996 -0.00512156077
      2.26270556 -0.0175833199 -0.000971753208 1.2173084 -0.00591347739
      -0.00239635631 -8.75385158e-05 -0.00603004731 1.74966764
      -1.45945967e-06 -0.000117885291 -0.000957296637 2.04394841
      -0.000133639114 -3.28622991e-05 -0.000474530185 -0.00368974381
      -0.00179726223 -0.000802852621 -1.88454869e-05 -9.66734151e-05
      -0.00100734632 -7.52743176e-07 -2.84329599e-06 -0.000206271929
      -4.80532872e-05 -0.00734155625 -1.02633949e-05 -0.00442385068
      -0.000768124242 -0.00658312207 -0.00843355805 -0.00351504376
      -0.0178386644 -0.00832748413 -0.00191384961 0.0863654241
      0.198842078 -7.53231361e-05 -6.88866276e-05 -0.000896409445
      0.314712346 0.103656262 -0.00019031897 0.545095086 -2.85700071e-06
      0.338521272 0.109806605 -0.000219223191 0.453381747 -0.0012664583
      -0.00170713954 -2.57323554e-05 -0.000172956919 -3.00788747e-06
      -3.24050211e-06 0.0743055046 0.0413191803 -0.00228736876
      0.106834173 -1.43645286e-06 -0.000621592742 -4.69241695e-06
      0.105280347 0.427387714 0.103818282 0.246205628 -0.000733537483
      0.10960567 0.263784379 -3.67738576e-05 -0.000350175484
      0.0290752277 0.136443123 0.12141484 -0.000220404356 0.20804289
      0.107896395 0.271187067 -0.00142951694 -0.000327622023
      -0.00218933402 0.23970601 -0.0012259424 -1.71927804e-05
      -0.00246520108 0.0860476866 -0.00285383686 -0.00238576531
      -0.000109225053 -3.56261876e-06 0.0251953229 -5.16086686e-07
      -0.000285791437 0.130069539 -0.00020916728 -0.000418843963
      0.315091193 -0.000150123349 -9.47599547e-05 0.263898849
      0.00934677199 -0.000142885503 -3.95932329e-05 -3.6894231e-05
      -2.34959261e-05 -0.000247674325 -1.47064029e-05 -0.000107508007
      0.0822190791 -0.000676786411 0.045425199 0.265112311
      -0.000119956232 -5.25790938e-07 -0.000193764281 -5.18896049e-05
      0.301724553 0.557261765 -2.44873554e-05 -0.000126564424
      -9.13661424e-05 -4.20355791e-05 -0.000481743045 0.00173237361
      0.0626301318 -0.000267754192 -0.000190307066 -0.000231582104</_>
    <_>
      0.455661237 -1.09348464 -0.00655017979 1.08864546 -0.000189607556
      -0.0110058878 -0.000554418715 -0.00154038018 -3.93187838e-06
      -1.56930146e-05 -3.43823729e-07 -9.94080474e-05 -0.000243907198
      -0.000210455793 1.01931548 0.218788654 -0.00282152742 1.88224244
      -0.000139638636 -0.00107894093 -0.000779195689 -0.00491685513
      -0.00692299288 -1.57408303e-05 0.271187127 1.13099396
      -1.15038592e-05 -5.69430595e-05 -1.88005451e-05 -1.42705812e-05
      -0.000185620389 -0.0171241332 -0.00100900652 -0.000114589871
      -0.000783667027 -0.000238574314 -7.0365495e-05 -0.0134644937
      -0.000308616553 -0.000142267076 -0.000571223907 -0.00163157156
      -0.000520420086 -0.00359595288 -0.00167239062 -0.000493849046
      3.26224852 1.86325359 -0.00998828933 -0.0020192829 -0.00276118983
      -2.83430586e-06 -0.00876072887 -0.0216727369 -0.0156543367
      -0.0189507958 -0.00328493374 0.197110429 -0.00513343699
      -0.000784770818 -0.000733462861 -0.000980898738 1.08675385
      -0.0141745973 -3.2520642e-05 -4.48748324e-05 -3.028024e-05
      -0.00525967404 -0.00156042771 -0.000601432985 1.64078212
      -0.00179073052 -0.000117952251 -3.32739842e-06 -0.00101661123
      -1.79497183e-05 -0.00246577244 1.16724145 -0.00178465142
      -1.00017496e-05 -1.23933057e-06 -0.000376636628 -0.0038284855
      1.90450704 -0.00059979962 0.329417646 -0.00854262896
      -7.82121788e-06 -0.00767133525 -0.00292921741 -0.000482424744
      -0.00513106911 -0.00519368984 1.88415384 -0.0171952695
      -0.000934043608 1.38082445 -0.00602149637 -0.00244741607
      -8.7816974e-05 -0.00589358434 1.51319778 -1.44560931e-06
      -0.000118794094 -0.000980766723 1.91362309 -0.000132096247
      -3.31738484e-05 -0.000470437662 -0.00188959658 -0.0018479795
      0.0352931619 -1.93865326e-05 -9.94953734e-05 -0.00101869437
      -7.58040414e-07 -2.90104322e-06 -0.00020734861 -4.95948552e-05
      -0.00725472067 -1.01793303e-05 -0.00454760669 -0.000739578507
      -0.00861377455 -0.00822038576 -0.00354692666 -0.0178598985
      -0.00875383802 -0.00202717562 0.0657467395 0.213032275
      -7.29939493e-05 -6.40043436e-05 -0.000457826245 0.361767203
      0.100115635 -0.000198199894 0.547929406 -2.62824051e-06
      0.363162756 0.0849922523 -0.000226941906 0.499415785
      -0.000787418569 -0.00224305945 -2.57083029e-05 -0.000175470515
      -2.86653631e-06 -3.26687859e-06 0.0768904686 0.0502978303
      -0.00215297076 0.107193112 -1.43404554e-06 -0.000750207342
      -4.67451628e-06 0.131947458 0.404131979 0.13272047 0.27223593
      -0.000768559461 0.128777638 0.266668737 -3.48023823e-05
      -0.000347704568 0.035150893 0.152797431 0.129940718
      -0.000208616155 0.183848441 0.097997658 0.241774634 -0.00158988801
      -0.000432651228 -0.0024487148 0.267701387 -0.00126545841
      -1.73644203e-05 -0.00248780404 0.0656064227 -0.00291302684
      -0.00243799109 -0.000111294219 -3.5046105e-06 -0.000189169572
      -5.1800339e-07 -0.000409879227 0.113682419 -0.000209164078
      -0.000418933691 0.315177083 -0.000150120424 -9.47578665e-05
      0.26398766 0.00939071923 -0.000142883451 -3.95920069e-05
      -3.75285745e-05 -2.41663311e-05 -0.000247680291 -1.47058809e-05
      -0.000107516367 0.0822677612 -0.000676935015 0.0453326777
      0.265196562 -0.000119953613 -5.30037767e-07 -0.000193765736
      -5.23215895e-05 0.301928699 0.557501912 -2.44862622e-05
      -0.000128095067 -9.13631884e-05 -4.20344113e-05 -0.000481815921
      0.00176611729 0.0626615435 -0.000267777563 -0.000190304097
      -0.00023178944</_>
    <_>
      -0.0821180344 -1.25877833 -0.00664350018 0.748770654
      -0.000190187944 -0.0112447096 -0.000549447956 -0.00153658143
      -3.95399411e-06 -1.55268426e-05 -3.42181806e-07 -0.00010244947
      -0.000247842923 -0.000217831301 1.39685667 0.403799236
      -0.00282944366 1.67662406 -0.000146594291 -0.00106255652
      -0.000787417172 -0.00493060797 -0.00615005242 -1.59554402e-05
      0.353225023 1.34112799 -1.14580089e-05 -5.75141166e-05
      -1.87298865e-05 -0.00176135451 -0.000187254933 -0.0164399855
      -0.00107992801 -0.000115140072 -0.000784849748 -0.000239671164
      -7.18150332e-05 -0.0140206311 -0.000310270232 -0.000141912591
      -0.000571160053 -0.00169248891 -0.000501527044 -0.00326508284
      -0.00163421454 -0.000490104896 3.05349135 1.77700281 -0.0117499623
      -0.00207716553 -0.00253637508 -2.86476688e-06 -0.0087541109
      -0.0186767373 -0.0159963798 -0.0222865343 -0.00336740795
      0.0746788383 -0.00514857657 -0.000763077172 -0.000715033908
      -0.00097651442 1.2956717 -0.0138725769 -3.13756464e-05
      -4.39189607e-05 -3.04094337e-05 -0.0052396399 -0.00160101906
      -0.000580361579 1.84081256 -0.0017965869 -0.000117700198
      -3.43418446e-06 -0.0010279417 -1.80661536e-05 -0.000946531247
      1.34694839 -0.00177245715 -1.0080721e-05 -1.1867254e-06
      -0.00037044147 -0.00302018994 1.57860374 -0.000599848747
      0.22320354 -0.00853990857 -7.96608219e-06 -0.0076550818
      -0.0030087824 -0.00049096474 -0.00506423693 -0.00508402148
      2.15962625 -0.0176662132 -0.000918360194 1.1518451 -0.00602550665
      -0.00246720645 -8.78427745e-05 -0.00605333596 1.72629678
      -1.42216447e-06 -0.000120980287 -0.000975221104 1.99029505
      -0.000136334202 -3.29254544e-05 -0.000486168137 -0.00377470395
      -0.00185851497 -0.000222386167 -1.90955598e-05 -9.59868339e-05
      -0.00104165997 -7.59845534e-07 -2.9237151e-06 -0.000208284328
      -4.95215463e-05 -0.00745103694 -1.0304685e-05 -0.00460311072
      -0.000783653173 -0.00718622981 -0.00820866786 -0.00362989679
      -0.0179522671 -0.00879736431 -0.00206715614 0.0724177435
      0.213391215 -7.30761385e-05 -6.35062024e-05 -0.000415467453
      0.368761957 0.0960456133 -0.000196080728 0.549800038
      -2.65128301e-06 0.385245085 0.0718991086 -0.000228737845
      0.497165173 -0.000925377652 -0.00221817079 -2.56901385e-05
      -0.00017649497 -2.87754301e-06 -3.24620123e-06 0.0678839535
      0.0632614642 -0.00213843072 0.112366512 -1.43206285e-06
      -0.000704379752 -4.66008078e-06 0.13632299 0.409717143 0.11088378
      0.279010832 -0.000779942609 0.112008885 0.251567304 -3.4644494e-05
      -0.000345984881 0.0468322262 0.160953969 0.128037706
      -0.000211494975 0.182762116 0.110594667 0.235289037 -0.00163115363
      -0.000428689586 -0.00255106762 0.284484088 -0.00124967925
      -1.74013876e-05 -0.00248542731 0.054105185 -0.00273761642
      -0.0024265477 -0.000111757494 -3.49690231e-06 -0.000138548392
      -5.16533134e-07 -0.000384116167 0.117819071 -0.000209164078
      -0.000418933691 0.315177083 -0.000150120424 -9.47578665e-05
      0.26398766 0.00939071923 -0.000142883451 -3.95920069e-05
      -3.75285745e-05 -2.41663311e-05 -0.000247680291 -1.47058809e-05
      -0.000107516367 0.0822677612 -0.000676935015 0.0453326777
      0.265196562 -0.000119953613 -5.30037767e-07 -0.000193765736
      -5.23215895e-05 0.301928699 0.557501912 -2.44862622e-05
      -0.000128095067 -9.13631884e-05 -4.20344113e-05 -0.000481815921
      0.00176611729 0.0626615435 -0.000267777563 -0.000190304097
      -0.00023178944</_>
    <_>
      -0.320282996 -1.35284543 -0.0064000194 0.55262816 -0.000168972416
      -0.0109957894 -0.000502194569 -0.00143690454 -3.43548822e-06
      -1.46213815e-05 -3.33705856e-07 -9.73575807e-05 -0.000227545606
      -0.000214283151 1.48636818 0.541646838 -0.00270369346 1.53395498
      -0.000144812147 -0.000988294254 -0.000744614052 -0.00459535513
      -0.00441419892 -1.43110019e-05 0.536973417 1.47072804
      -1.02351478e-05 -5.32782433e-05 -1.71017255e-05 -0.00238238019
      -0.000176816335 -0.0151444776 -0.00111817243 -0.000110450266
      -0.000748088409 -0.000226288263 -6.57130586e-05 -0.0118669523
      -0.000281818415 -0.000129567939 -0.000532603648 -0.00165491691
      -0.000428973726 -0.00254809321 -0.00135110109 -0.000468075013
      3.05751014 1.83192348 -0.0107687199 -0.00195655902 -0.00220023491
      -2.62173626e-06 -0.00828072801 -0.0168551933 -0.0148741882
      -0.025711285 -0.00328486669 0.0739611685 -0.00500399992
      -0.000631517381 -0.000633423915 -0.000869181531 1.42609406
      -0.0125825079 -3.00166466e-05 -3.7865957e-05 -2.7068425e-05
      -0.0048719258 -0.00160032755 -0.000550287252 2.01327586
      -0.00175603188 -0.000106457119 -3.08545395e-06 -0.000965032435
      -1.71465617e-05 0.0214669369 1.40547645 -0.00162874802
      -9.20012371e-06 -9.56428494e-07 -0.000344608445 -0.00171688374
      1.31104589 -0.000537203101 0.315279216 -0.00824223366
      -7.9514657e-06 -0.00706961751 -0.00268225092 -0.000460884941
      -0.00459397864 -0.00466503017 2.296767 -0.0168849993
      -0.000890014169 1.06037915 -0.00558535242 -0.00233284617
      -7.86666569e-05 -0.0057135378 1.83447695 -1.24110784e-06
      -0.000111886286 -0.000916654011 1.95754409 -0.000134173926
      -2.97979186e-05 -0.000473366556 -0.00399400294 -0.00165901554
      -0.00130710076 -1.76015092e-05 -8.29048149e-05 -0.000984614366
      -6.55407632e-07 -2.71461568e-06 -0.000190804509 -4.63345204e-05
      -0.00727256993 -1.01728292e-05 -0.00434780447 -0.000780974689
      -0.00508783013 -0.00761174085 -0.00319450488 -0.0168046355
      -0.00802108366 -0.00180346216 0.0732738674 0.197422981
      -7.48693856e-05 -6.49242938e-05 -0.000812511425 0.334375978
      0.0976494104 -0.000195448956 0.552723408 -2.82401902e-06 0.3657673
      0.0531827882 -0.000226155098 0.500814795 -0.00151415973
      -0.00201861071 -2.54085662e-05 -0.000182441872 -3.001094e-06
      -3.25016458e-06 0.0578185841 0.0679717511 -0.00236400915
      0.121568605 -1.41628311e-06 -0.000529303332 -4.59894136e-06
      0.110673957 0.429270238 0.0838717222 0.2582829 -0.000907649752
      0.115607068 0.227318794 -3.67629546e-05 -0.000354187301
      0.0386152416 0.167614967 0.101726346 -0.000219003356 0.172878549
      0.123232335 0.232909352 -0.00177805626 -0.000431464927
      -0.00199829065 0.257355183 -0.00122983253 -1.70143066e-05
      -0.00254239049 0.0605615899 -0.0029434578 -0.00241566356
      -0.00011238271 -3.49753304e-06 0.00777067617 -5.07926643e-07
      -0.000110107881 0.105393663 -0.000209164282 -0.000419001939
      0.315181404 -0.000150118125 -9.47560984e-05 0.264030159
      0.00946096703 -0.000142881909 -3.95909556e-05 -3.73862676e-05
      -2.42811439e-05 -0.000247690885 -1.33239846e-05 -0.000107523068
      0.0823349804 -0.000677076867 0.0451472737 0.265212327
      -0.000119951525 -5.3230616e-07 -0.000193770305 -5.16623622e-05
      0.302200019 0.55771327 -2.44853127e-05 -0.000130209839
      -9.13606273e-05 -4.20333708e-05 -0.000481900701 0.00181978382
      0.0626807287 -0.000267802097 -0.000190304025 -0.000232032602</_>
    <_>
      -0.545829952 -1.13204026 -0.00633997889 0.35776782 -0.000163265999
      -0.010823926 -0.000503200106 -0.0014180725 -3.34649212e-06
      -1.42426134e-05 -3.19125434e-07 -9.47753724e-05 -0.000216731263
      -0.000207577905 1.69226778 0.263150096 -0.00267518405 1.62886477
      -0.00014253454 -0.000945849111 -0.000735047157 -0.00456435326
      -0.00448781718 -1.37782172e-05 0.318629473 1.20251596
      -9.21328774e-06 -5.27543598e-05 -1.67645903e-05 -0.00117637287
      -0.000176678543 -0.014879684 -0.00106457726 -0.000107689775
      -0.000748016755 -0.000216705899 -6.25786633e-05 -0.012305066
      -0.000274622114 -0.00012736526 -0.000519663678 -0.00160136423
      -0.000425708102 -0.00253481744 -0.00136645033 -0.000466917583
      3.07061052 1.66765094 -0.012748044 -0.00190437771 -0.00220973184
      -2.55751729e-06 -0.00827452261 -0.0152743058 -0.0141702741
      -0.0265212059 -0.0032205584 0.0287294537 -0.00493819453
      -0.000688185275 -0.000627493253 -0.000872629927 1.23083639
      -0.0143656628 -2.94113779e-05 -3.79031189e-05 -2.58577711e-05
      -0.00478618685 -0.00153412356 -0.000541914313 2.07346344
      -0.00172710209 -0.000104803708 -3.06186121e-06 -0.000950765272
      -1.59697411e-05 -0.00163405831 1.50932932 -0.00165235845
      -8.68917323e-06 -9.89146656e-07 -0.000355307042 -0.00216438179
      1.21009505 -0.000532144972 0.20748654 -0.00736441463
      -7.83185078e-06 -0.00688968413 -0.0028761893 -0.000451625994
      -0.00454512471 -0.00443550618 1.88495529 -0.016221663
      -0.000856112572 0.945339918 -0.0054861824 -0.00228887633
      -7.73245192e-05 -0.00551898871 1.57266879 -1.19177582e-06
      -0.000108067812 -0.000881638378 2.20070171 -0.000125199309
      -2.91136093e-05 -0.000456756126 -0.00442967424 -0.00163042312
      -0.000102153397 -1.72098808e-05 -8.48616546e-05 -0.000927900779
      -5.9928368e-07 -2.55574969e-06 -0.000184733886 -4.60498122e-05
      -0.00695328461 -9.88182819e-06 -0.00455207238 -0.000727267237
      -0.00672342116 -0.00744837662 -0.00299686892 -0.0163419358
      -0.00977378711 -0.00147540937 0.101450868 0.228392616
      -7.58814786e-05 -6.67665081e-05 -0.000667371613 0.357242793
      0.11090745 -0.000192997992 0.575180411 -2.90577532e-06 0.354663134
      0.0905065611 -0.000226592514 0.514837027 -0.00133439538
      -0.00198968523 -2.51991714e-05 -0.000181241383 -2.98332907e-06
      -3.1658401e-06 0.0685672909 0.0746390224 -0.0023509094 0.119933024
      -1.39748124e-06 -0.000470855157 -4.55325562e-06 0.0947900712
      0.468191415 0.0969704539 0.272987008 -0.000846623094 0.0792919546
      0.253553689 -3.63044528e-05 -0.000360002334 0.0301027521
      0.183009624 0.120136008 -0.00021690171 0.199110985 0.0859483331
      0.250305355 -0.00170555233 -0.00014970098 -0.00263921521
      0.280895114 -0.00123916904 -1.68968054e-05 -0.0025996964
      0.0424317643 -0.00286956714 -0.00248203916 -0.00011383526
      -3.47827108e-06 0.0328960456 -5.0035419e-07 -0.000118537173
      0.110195428 -0.000209162507 -0.000419078657 0.315231442
      -0.000150115593 -9.47542503e-05 0.264096946 0.00951337814
      -0.000142880177 -3.95898642e-05 -3.76933058e-05 -2.47082116e-05
      -0.000247698248 -1.27838921e-05 -0.000107530417 0.0823890269
      -0.000677214412 0.0450220108 0.265265882 -0.000119949247
      -5.35557035e-07 -0.000193772838 -5.16511864e-05 0.302421808
      0.557931364 -2.44843341e-05 -0.00013190828 -9.13579934e-05
      -4.20323158e-05 -0.000481974013 0.00185993128 0.0627061799
      -0.000267824682 -0.000190302322 -0.00023224474</_>
    <_>
      -0.333042383 -1.08013582 -0.00668638851 0.586336136
      -0.000182734613 -0.011260285 -0.000566803326 -0.0014782619
      -4.08031428e-06 -1.59446481e-05 -3.38409194e-07 -0.000103931874
      -0.000245688658 -0.000213085674 1.52556109 0.200503081
      -0.00293208263 1.7983259 -0.00015115735 -0.0010459522
      -0.000776038098 -0.00494304672 -0.00621412275 -1.59673164e-05
      0.163068578 1.16828358 -1.06097514e-05 -5.67985626e-05
      -1.93416417e-05 -0.00145231676 -0.000185015699 -0.0169614982
      -0.00108423084 -0.000111764086 -0.000786758494 -0.000224683841
      -7.04409103e-05 -0.0118028503 -0.000306744594 -0.000144378515
      -0.000557779451 -0.0016919045 -0.000437309471 -0.00318055972
      -0.00170051749 -0.000494981534 3.09874535 1.71103346 -0.0117038852
      -0.00206318498 -0.00246139662 -3.15057446e-06 -0.00889466982
      -0.0163780916 -0.0152472192 -0.0255024564 -0.00328853098
      -0.000661894155 -0.00518753892 -0.0008315327 -0.00072295859
      -0.00099432352 1.17638206 -0.0162643585 -2.92857621e-05
      -4.38857714e-05 -2.95413447e-05 -0.0051421891 -0.00156473077
      -0.000576463761 1.98067582 -0.00181728031 -0.000119675955
      -3.29132627e-06 -0.000998482574 -1.73886965e-05 -0.00304198195
      1.58602226 -0.00178302161 -9.86303894e-06 -1.11595637e-06
      -0.000391715643 -0.00253239949 1.37034774 -0.00058354286
      0.112617992 -0.00928049628 -8.23513074e-06 -0.00754328957
      -0.00334110344 -0.000485155353 -0.00502087455 -0.0049261963
      1.83600736 -0.0169828441 -0.000885975314 1.09036207 -0.00603357377
      -0.00243205996 -8.72270539e-05 -0.00624396559 1.55068207
      -1.411987e-06 -0.000119392527 -0.000935176911 2.10907221
      -0.000140519609 -3.14424178e-05 -0.000475643668 -0.0042331228
      -0.00184163533 0.0460311174 -1.9326264e-05 -9.38514058e-05
      -0.00100736402 -7.33093032e-07 -2.91890228e-06 -0.000197743226
      -4.97755573e-05 -0.00729050627 -1.01784763e-05 -0.00478582922
      -0.00077338866 -0.008749214 -0.00804319885 -0.00328707695
      -0.0167852212 -0.0107420301 -0.00186851597 0.106481463 0.215549886
      -7.67731617e-05 -6.78323267e-05 -0.000846537179 0.331630617
      0.120771065 -0.000191110157 0.579187632 -2.99128328e-06
      0.343767345 0.098739408 -0.000223517156 0.503941536 -0.00152250461
      -0.00175414106 -2.52269001e-05 -0.00018021818 -3.01840919e-06
      -3.18414459e-06 0.0677876547 0.0768307447 -0.00241311756
      0.12188524 -1.40164127e-06 -0.000447768049 -4.57387341e-06
      0.0822991431 0.475881398 0.0919221491 0.2624439 -0.000847517804
      0.0787259191 0.243523493 -3.7200236e-05 -0.000359870173
      0.0226574317 0.179125875 0.105762616 -0.000217540801 0.20512262
      0.0823858902 0.262318492 -0.00162470073 0.00486325845
      -0.00241637602 0.26218766 -0.00121664931 -1.6811844e-05
      -0.00258822506 0.0646139458 -0.00294888066 -0.00246765628
      -0.000113262926 -3.51186918e-06 0.0440426171 -5.01378452e-07
      -1.82779495e-05 0.112184823 -0.000209160833 -0.000419212796
      0.315286696 -0.00015011114 -9.47509252e-05 0.264200419
      0.00962433591 -0.00014287715 -3.95878851e-05 -3.78997611e-05
      -2.5245472e-05 -0.000247714284 -1.11118325e-05 -0.000107543448
      0.0824993104 -0.000677470234 0.0447426252 0.26533404
      -0.000119945231 -5.40736949e-07 -0.000193779109 -5.11105718e-05
      0.302870482 0.558327734 -2.44825605e-05 -0.000135375638
      -9.13532058e-05 -4.20303913e-05 -0.000482117845 0.00194481947
      0.0627481267 -0.000267867697 -0.00019030046 -0.000232660372</_>
    <_>
      -0.0340565406 -1.07919538 -0.00636925129 0.722685039
      -0.000178730668 -0.0108577907 -0.000521476613 -0.00147990487
      -3.63806225e-06 -1.50550122e-05 -3.4287001e-07 -9.67388987e-05
      -0.000231295257 -0.000207246412 1.27526796 0.23896718
      -0.00268857763 1.89318597 -0.00013990952 -0.00104494591
      -0.000755797315 -0.00469888514 -0.0062878835 -1.5002769e-05
      0.254041106 1.17771935 -1.10753654e-05 -5.56424493e-05
      -1.79637118e-05 -0.000286160008 -0.000180217874 -0.0164322555
      -0.00100910186 -0.000110431116 -0.000766544079 -0.000239518806
      -6.60915539e-05 -0.0136775114 -0.000287013536 -0.000139261261
      -0.000553426507 -0.00157715078 -0.000493444502 -0.00321863918
      -0.00154826278 -0.00046585573 3.32105589 1.78465557 -0.0115259821
      -0.00192010636 -0.00234041992 -2.55987516e-06 -0.00848573633
      -0.0185890924 -0.0155639462 -0.021959085 -0.00320622046
      0.140443712 -0.00495445495 -0.000755530375 -0.000689328241
      -0.000926927547 1.15269279 -0.0150275845 -3.12268203e-05
      -4.15214454e-05 -2.83907866e-05 -0.00504815392 -0.00151353725
      -0.000583807123 1.7637645 -0.00175882678 -0.000112886155
      -3.19149399e-06 -0.000984412502 -1.7099459e-05 -0.00257819262
      1.2585541 -0.0017038309 -9.5338346e-06 -1.14180716e-06
      -0.000362163351 -0.00258646929 1.5105629 -0.000567137904
      0.280348182 -0.00763848238 -7.59492968e-06 -0.00740146125
      -0.00301357242 -0.000459300383 -0.00485518854 -0.00505831931
      1.91647387 -0.0167711191 -0.000902869448 1.16229665 -0.0057232813
      -0.00236497028 -8.25973766e-05 -0.00563261518 1.55807471
      -1.35787661e-06 -0.00011293235 -0.000956378586 2.08964968
      -0.000129424297 -3.24751927e-05 -0.000454900059 -0.00363353454
      -0.00175776286 -0.000324782042 -1.85605604e-05 -9.21892424e-05
      -0.000974911149 -6.78823426e-07 -2.79432766e-06 -0.000196600769
      -4.71692365e-05 -0.00704356609 -9.74777322e-06 -0.00444885017
      -0.000719598902 -0.00840210356 -0.00804938376 -0.00328012649
      -0.0175401978 -0.00986784697 -0.00187664537 0.0570403561
      0.231685847 -7.24071724e-05 -6.19133425e-05 -0.000299777166
      0.380245447 0.0921261907 -0.000195116285 0.543585777
      -2.6161531e-06 0.368462861 0.0423864797 -0.000230561229
      0.480026484 -0.000995832263 -0.0023299586 -2.57707979e-05
      -0.000176708476 -2.88306387e-06 -3.24858729e-06 0.069668591
      0.0597988851 -0.00211052317 0.0979916751 -1.44052342e-06
      -0.000714829948 -4.67404197e-06 0.148355067 0.401995927 0.11047443
      0.271355152 -0.000791772502 0.125024676 0.23484461 -3.37915844e-05
      -0.000339761667 0.0504835248 0.155271679 0.133913293
      -0.000215605032 0.195849612 0.129904583 0.22471945 -0.00175978453
      -0.000440648961 -0.00247474387 0.320315093 -0.00122122455
      -1.74757915e-05 -0.00246441364 0.0142769888 -0.00257030223
      -0.00240770495 -0.000110765424 -3.49121433e-06 -0.000175790861
      -5.19700961e-07 -0.00045805535 0.0804538876 -0.000209158694
      -0.000419275457 0.315344632 -0.000150109088 -9.47494482e-05
      0.264261484 0.00965611637 -0.000142875724 -3.95870302e-05
