<?xml version="1.0"?>
<opencv_storage>
<opencv_ml_svm>
  <format>3</format>
  <svmType>EPS_SVR</svmType>
  <kernel>
    <type>RBF</type>
    <gamma>0.01</gamma></kernel>
  <C>1.</C>
  <p>0.001</p>
  <term_criteria><epsilon>0.001</epsilon>
    <iterations>3000</iterations></term_criteria>
  <var_count>222</var_count>
  <sv_total>309</sv_total>
  <support_vectors>
    <_>
      0.188830778 -3.25941706 -0.00471754372 -0.0372495465
      -0.000149253319 -0.0099989241 -0.000352353556 -0.00140346447
      -2.32132447e-06 -1.25360357e-05 -2.93725918e-07 -8.28042612e-05
      -0.000262862246 -0.000166559752 5.33398294 1.41868579
      -0.00200818782 1.41199946 -0.000138787844 -0.000884850277
      -0.000541028974 -0.0032843533 0.14025864 -1.08508148e-05
      0.787586272 2.59852242 -1.23139262e-05 -4.80315684e-05
      -1.33057374e-05 -0.000739089097 -0.000161267584 -0.00526030455
      -0.000990913482 -8.82174645e-05 -0.000667718647 -0.000244496361
      -4.94417764e-05 -0.00732770888 -0.00017173159 -0.000111558846
      -0.000504098891 -0.0012024286 -0.00033124449 -0.00230895611
      -0.00149871374 -0.000331349787 2.74959016 0.559395671
      -0.0170095898 -0.00144806795 0.102195859 -2.83997906e-06
      -0.0074412832 2.80257511 -0.0173867811 -0.0433297195
      -0.00271812407 0.215641141 -0.00346472743 -0.000678648881
      -0.00040132826 -0.000635663047 2.40544248 -0.011250101
      -3.63016661e-05 -2.61732603e-05 -2.05574979e-05 -0.00350521947
      -0.00130351644 -0.00063277944 3.79423428 -0.00145780144
      -6.8663765e-05 -2.98328837e-06 -0.000972097332 -1.69881623e-05
      0.866280854 3.39032221 -0.00129104895 -8.85339159e-06
      -4.19443637e-07 -0.000227696437 1.82296324 -0.0321910717
      -0.000476885354 -0.00183359138 0.485217392 -5.54618055e-06
      -0.00610845676 -0.00478114607 -0.000350774004 -0.00393615849
      -0.00530145178 3.90172982 -0.0171830561 -0.000644208922
      -0.0119395684 -0.00435498357 -0.00181824923 -5.15918146e-05
      -0.00658164266 2.95447612 -1.21528922e-06 -8.48835116e-05
      -0.000908524496 4.06770515 -9.95626906e-05 -2.90076187e-05
      -0.000357581244 -0.00227692537 -0.00138831697 -0.00224555819
      -1.2707158e-05 -4.04026941e-05 -0.000525247015 -8.14239797e-07
      -1.82460553e-06 -0.000135477327 -3.46372799e-05 -0.00647061691
      -7.23528319e-06 -0.00514594559 -0.000524624425 -0.00035132459
      -0.00869576167 -0.0021536143 -0.0188562274 -0.0146151492
      -0.00231922069 0.068864055 0.155069053 -7.68376849e-05
      -6.39941718e-05 -0.000688271481 0.268056303 0.179686233
      -0.000183141732 0.545367002 -3.12959355e-06 0.295279205
      0.0366872326 -0.000211373903 0.53134948 -0.00267470442
      -0.000724924495 -2.49573623e-05 -0.000179675422 -3.14065892e-06
      -3.24394887e-06 0.0423533693 0.051044587 -0.00295662461
      0.0198578946 -1.39904557e-06 0.00930701941 -4.5801703e-06
      0.0511997491 0.528336287 0.0237601176 0.171104446 -0.000782234885
      0.14343977 0.199741945 -3.79786252e-05 -0.000346837507
      0.0594920442 0.157569259 -8.97769205e-05 -0.000221403912
      0.232122362 0.157850519 0.260942578 -0.00166782213 -0.000407930493
      -0.00124993315 0.21936214 -0.00114778057 -1.63754903e-05
      -0.00265819998 0.0664574429 -0.00305355061 -0.00243736268
      -0.000111724134 -3.50712276e-06 0.0475146361 -4.99005182e-07
      0.0579865426 0.129485503 -0.000209173144 -0.000418629963
      0.31492877 -0.000150130363 -9.47650478e-05 0.263704091
      0.0092157647 -0.000142890349 -3.95962306e-05 -3.58112156e-05
      -2.2166445e-05 -0.00024765596 -1.56756851e-05 -0.00010748778
      0.0820812434 -0.000676412776 0.0457275584 0.264944911
      -0.000119962548 -5.16343277e-07 -0.000193758475 -5.15467291e-05
      0.301154643 0.556667566 -2.44900384e-05 -0.000122231024
      -9.13733966e-05 -4.20384749e-05 -0.000481549068 0.00163196586
      0.062558122 -0.000267693802 -0.000190312596 -0.000231026541</_>
    <_>
      0.548020661 -3.42732811 -0.00455266004 -0.0412152745
      -0.000153877598 -0.00977840088 -0.00036155383 -0.00137003732
      -2.4756157e-06 -1.27267285e-05 -2.95211322e-07 -8.15103849e-05
      -0.000266929157 -0.000157173359 5.55023575 1.24254525
      -0.00197354518 1.71577442 -0.000139385869 -0.000884658366
      -0.000532547361 -0.00320460135 0.1164428 -1.116568e-05 0.598597348
      2.43472958 -1.2254447e-05 -4.72387474e-05 -1.34936226e-05
      0.125823677 -0.000159121992 -0.00539951539 -0.000948179106
      -8.64557514e-05 -0.000665817468 -0.000243873539 -4.80462586e-05
      -0.00729626324 -0.000165209465 -0.000114027192 -0.000510789338
      -0.00117213302 -0.000325794041 -0.00237681856 -0.00162078917
      -0.000308389252 2.8605175 0.363085657 -0.0171927884 -0.00141214265
      0.109340817 -3.15987768e-06 -0.00730681885 3.12750554
      -0.0171883553 -0.0447261073 -0.0026047409 0.235205919
      -0.00335204438 -0.000703868573 -0.000395835377 -0.000650028174
      2.26594377 -0.012816797 -3.76315074e-05 -2.60290799e-05
      -2.03325544e-05 -0.00344133098 -0.00122879772 -0.000662398001
      3.8452003 -0.00145198428 -6.90816742e-05 -3.14430918e-06
      -0.000998515286 -1.70489457e-05 0.762633741 3.53401399
      -0.00128504389 -8.93120796e-06 -4.12333094e-07 -0.000235901214
      2.07375956 -0.0361087471 -0.000497016532 -0.0025847042 0.59874326
      -5.45893045e-06 -0.00598994503 -0.00498748664 -0.000340481492
      -0.00397385517 -0.00550749991 3.65041423 -0.0167218279
      -0.000624102831 -0.0134698488 -0.00430860464 -0.00176352763
      -5.16544351e-05 -0.00649443688 2.78128004 -1.26175098e-06
      -8.38129636e-05 -0.000926711597 4.36382389 -9.93640206e-05
      -2.96291382e-05 -0.000343269814 -0.00226871716 -0.00141609833
      -0.0012710467 -1.32685755e-05 -3.81819773e-05 -0.000506003853
      -7.99322777e-07 -1.83588907e-06 -0.000127823238 -3.39672515e-05
      -0.00612729043 -6.83487724e-06 -0.00522877602 -0.000487094017
      -0.00180930283 -0.00867752638 -0.00201074709 -0.018940147
      -0.0162591524 -0.00245327433 0.0526781529 0.180951297
      -7.62230557e-05 -6.15332101e-05 -0.000567936455 0.316137671
      0.131860763 -0.000189516883 0.549178898 -3.0854203e-06 0.330426514
      -0.000169170424 -0.00022234596 0.564469516 -0.00264498265
      -0.00111059588 -2.47889802e-05 -0.000187777987 -3.13586429e-06
      -3.21904599e-06 0.0270918533 0.094104439 -0.00282056932
      0.0111148916 -1.37762947e-06 0.0235599056 -4.4858989e-06
      0.0903336033 0.523478985 0.0329009295 0.209459245 -0.000836733845
      0.145456284 0.197902575 -3.76173848e-05 -0.000352041126
      0.0758578777 0.194991097 0.0249018408 -0.000226498276 0.229464531
      0.159704208 0.209775448 -0.00201634201 -0.000660442107
      -0.0017123291 0.256522328 -0.00118005951 -1.63205968e-05
      -0.00271608564 0.00974807888 -0.00274206209 -0.00250025513
      -0.000115119052 -3.45161334e-06 0.0272487812 -4.90494074e-07
      0.0308516398 0.111423105 -0.000209172009 -0.00041862065
      0.314953536 -0.000150130712 -9.4765368e-05 0.263708621
      0.00919073448 -0.000142890553 -3.95964271e-05 -3.60901649e-05
      -2.23144143e-05 -0.000247651973 -1.64408611e-05 -0.00010748671
      0.0820593834 -0.000676381402 0.0458010435 0.264962852
      -0.000119962868 -5.16434682e-07 -0.000193756408 -5.20482281e-05
      0.301068872 0.556626439 -2.44902185e-05 -0.000121543031
      -9.13738695e-05 -4.2038675e-05 -0.00048152532 0.00161289796
      0.0625574142 -0.000267687632 -0.000190311723 -0.00023095739</_>
    <_>
      0.344575465 -3.26829934 -0.00487351371 -0.0416774452
      -0.00017525829 -0.0102026761 -0.000389842055 -0.00144981325
      -2.7821352e-06 -1.3230203e-05 -2.92731983e-07 -8.80957014e-05
      -0.000280189124 -0.000168768122 5.74098825 1.27401316
      -0.00209739106 1.54847443 -0.000147397601 -0.000902381085
      -0.000578805397 -0.00347725325 0.0856737643 -1.21407384e-05
      0.605773449 2.46873927 -1.28036254e-05 -4.95820896e-05
      -1.44371834e-05 -0.00078594638 -0.000168866274 -0.00627466664
      -0.000982102938 -9.1478003e-05 -0.000699029188 -0.000244237017
      -5.24728348e-05 -0.00893561915 -0.000184452132 -0.000123023201
      -0.00056575035 -0.00125095749 -0.000339692575 -0.00281626754
      -0.00166506192 -0.000329055008 2.71494198 0.411353499 -0.020167768
      -0.00154173165 0.105447814 -3.25906717e-06 -0.00767301861
      3.01526213 -0.0180422273 -0.0484181829 -0.00277968869 0.148353875
      -0.00362256332 -0.00074611028 -0.000426495593 -0.000713517133
      2.31239915 -0.0130851306 -3.59149235e-05 -2.79867036e-05
      -2.30491987e-05 -0.00353733124 -0.00131149276 -0.000635452801
      3.88206577 -0.00150348933 -7.44261924e-05 -3.60446188e-06
      -0.000984203536 -1.72696182e-05 0.815597594 3.84952283
      -0.00138112647 -9.3685876e-06 -5.04280706e-07 -0.000255124469
      1.91273904 -0.0358678065 -0.000536548439 -0.00371726067
      0.529382885 -5.89321053e-06 -0.00631729467 -0.00500393612
      -0.000372146576 -0.00426245388 -0.00549200503 3.68445706
      -0.0176150352 -0.000632483105 -0.0134560689 -0.00453012809
      -0.00189010496 -5.78529944e-05 -0.00681306235 2.79489923
      -1.31452441e-06 -8.89824005e-05 -0.00094172667 4.1632843
      -0.000107840737 -2.99131298e-05 -0.000371344329 -0.00478094816
      -0.00153917947 -0.000588764146 -1.36282288e-05 -4.40260155e-05
      -0.000533922517 -8.09034304e-07 -1.86626517e-06 -0.000139027732
      -3.65476153e-05 -0.00653884374 -7.27715633e-06 -0.00543940999
      -0.000532539969 -0.00172994158 -0.00876023807 -0.00236131996
      -0.0187831521 -0.0161540657 -0.00258274283 0.0538861156
      0.192579955 -7.59901814e-05 -6.4459331e-05 -0.000705582323
      0.332657158 0.125598133 -0.000186850069 0.559517264
      -3.00389479e-06 0.338287711 -0.00010824568 -0.000222215502
      0.585144103 -0.00263638259 -0.00119687198 -2.46934469e-05
      -0.000182438773 -3.05634876e-06 -3.14205386e-06 0.0489960946
      0.0942806453 -0.00272876699 0.046537932 -1.36962308e-06
      0.00466582924 -4.46434569e-06 0.0797905847 0.533406794
      0.0337949395 0.229524955 -0.000867363997 0.128491461 0.2433559
      -3.64949956e-05 -0.000358235498 0.083865121 0.195419371
      0.0324627496 -0.000225374883 0.247652829 0.141351312 0.230175704
      -0.00193401182 -0.000410696899 -0.00210503279 0.301431835
      -0.00120686227 -1.64243811e-05 -0.00274927844 0.0342227444
      -0.00264083617 -0.00254659657 -0.000113738708 -3.40849442e-06
      0.0493916124 -4.88176681e-07 0.0119825937 0.135367036
      -0.000209165271 -0.000419014075 0.315158606 -0.000150117688
      -9.47557201e-05 0.264029205 0.00948943198 -0.000142881647
      -3.95907227e-05 -3.71299684e-05 -2.416186e-05 -0.00024769493
      -1.25202905e-05 -0.000107524582 0.0823606253 -0.000677112024
      0.0450648963 0.265196651 -0.000119951124 -5.32314289e-07
      -0.000193772401 -5.11592989e-05 0.302299857 0.557766438
      -2.4485098e-05 -0.000131014502 -9.13600597e-05 -4.20331344e-05
      -0.000481926632 0.00184150971 0.0626832843 -0.000267809053
      -0.000190304796 -0.000232113933</_>
    <_>
      0.580531538 -3.66185713 -0.00444826018 -0.0408748426
      -0.000148345309 -0.00966916513 -0.000353855779 -0.00135054463
      -2.3983539e-06 -1.248438e-05 -2.92470418e-07 -7.97607427e-05
      -0.000268491829 -0.000156256167 5.51839781 1.40839183
      -0.00194311514 1.58834088 -0.00014106826 -0.00088538829
      -0.000524721574 -0.00311249797 0.153906658 -1.10469628e-05
      0.756799638 2.60939765 -1.25418355e-05 -4.59946205e-05
      -1.30242524e-05 0.109939426 -0.000153976871 -0.00441541709
      -0.000960269128 -8.5262378e-05 -0.000651104725 -0.000243170885
      -4.82493451e-05 -0.00668753963 -0.000164267331 -0.000109099405
      -0.000512599305 -0.00116279267 -0.000310465606 -0.00236441032
      -0.00157435157 -0.000306622445 2.75961566 0.387123793
      -0.0157191679 -0.00139298628 0.109675571 -3.18299135e-06
      -0.00714489026 3.18801451 -0.0172913279 -0.043680653
      -0.00257771066 0.29444328 -0.00328655657 -0.000665631727
      -0.000363632513 -0.000624837878 2.41171002 -0.0111019416
      -3.75510572e-05 -2.4760684e-05 -2.05180841e-05 -0.00335971732
      -0.00126123009 -0.000673331902 3.87384629 -0.00143981562
      -6.60721489e-05 -3.11557983e-06 -0.000996698043 -1.76131325e-05
      0.926775277 3.46352077 -0.00122891925 -9.07884078e-06
      -3.53720623e-07 -0.000220101821 2.13617134 -0.0361548625
      -0.000485440309 -0.00234496919 0.525245965 -5.39976327e-06
      -0.00590597605 -0.00479078619 -0.000335729681 -0.00385586196
      -0.00547295669 3.92596698 -0.0168684069 -0.000619739236
      -0.0136979371 -0.00420710305 -0.00173653942 -5.02893672e-05
      -0.00656069629 2.95669889 -1.25309293e-06 -8.62949819e-05
      -0.000923167448 4.27242279 -0.000100129393 -2.95875961e-05
      -0.000342759071 -0.00139571365 -0.00137335865 -0.00207520113
      -1.31283841e-05 -3.42912135e-05 -0.000496244407 -7.88470402e-07
      -1.84207704e-06 -0.000125657229 -3.27759662e-05 -0.0062149195
      -6.74152852e-06 -0.0050939424 -0.000499617774 -0.00041634962
      -0.00865370594 -0.00200716942 -0.018954413 -0.0149932392
      -0.00256966916 0.0749233738 0.148250207 -7.77875321e-05
      -6.4713844e-05 -0.000651988841 0.267091155 0.20112431
      -0.000185365745 0.562148452 -3.18032039e-06 0.295346648
      0.0113881603 -0.00021320644 0.533796191 -0.0027453932
      -0.000711992674 -2.47035059e-05 -0.000185311743 -3.16077376e-06
      -3.20768868e-06 0.0374772623 0.0611091666 -0.00326272752
      0.0284819119 -1.37545021e-06 0.0116637275 -4.49840491e-06
      0.0558767095 0.536183476 0.00770106167 0.180637866 -0.000857494888
      0.116566226 0.188831493 -3.84438681e-05 -0.000357348763
      0.0590231605 0.172884166 0.00969706848 -0.000227091761 0.247054249
      0.169838414 0.270917088 -0.00164418714 -0.000432717672
      -0.00121936947 0.224327356 -0.0011622539 -1.61567586e-05
      -0.00274592638 0.0557871237 -0.00327302399 -0.00249373261
      -0.000113981027 -3.46702041e-06 0.0613254011 -4.88275248e-07
      0.0786678791 0.139878914 -0.000209173872 -0.000418573356
      0.314904392 -0.000150132255 -9.47664594e-05 0.263660252
      0.00916995481 -0.000142891644 -3.95970601e-05 -3.57159952e-05
      -2.1935999e-05 -0.000247649237 -1.63523473e-05 -0.000107482338
      0.0820356756 -0.000676304975 0.0458423756 0.264915347
      -0.000119964243 -5.14135479e-07 -0.00019375587 -5.17572807e-05
      0.300968796 0.556501806 -2.4490786e-05 -0.000120798126
      -9.1375412e-05 -4.20392862e-05 -0.000481488765 0.00159692205
      0.062540561 -0.000267675729 -0.000190313411 -0.000230853708</_>
    <_>
      0.426336348 -3.24202967 -0.00486929202 -0.0398979783
      -0.000168320417 -0.0100831212 -0.000387180859 -0.0014556729
      -2.45746514e-06 -1.31911502e-05 -2.93495503e-07 -8.36390027e-05
      -0.000270842545 -0.000166012833 5.71319532 0.997748077
      -0.00210464676 1.76811361 -0.000148138322 -0.000895381381
      -0.000568483956 -0.00349580217 0.032134749 -1.14456852e-05
      0.356099695 2.18443084 -1.23773125e-05 -4.85487217e-05
      -1.40536304e-05 0.154277951 -0.000172802931 -0.00784434751
      -0.000962520717 -8.66968621e-05 -0.000704829174 -0.000244695984
      -4.90996099e-05 -0.00840323046 -0.000166007041 -0.000128732107
      -0.000580607622 -0.00120216224 -0.000338207203 -0.00244100229
      -0.00173186092 -0.000310892006 2.99823308 0.327935696
      -0.0199926533 -0.00146873773 0.0957093835 -3.23207587e-06
      -0.00776224537 3.06831527 -0.0182763766 -0.0468870811
      -0.00274507329 0.221402407 -0.00361820357 -0.000735783542
      -0.000403394399 -0.00071204995 2.10975266 -0.0152015835
      -3.65152555e-05 -2.72602483e-05 -2.12756186e-05 -0.00360131823
      -0.0012631336 -0.000668227556 3.96800113 -0.00147011143
      -7.67107558e-05 -3.66530458e-06 -0.000992884045 -1.73455992e-05
      0.553344309 3.64037251 -0.00139431388 -9.08911261e-06
      -3.73473796e-07 -0.00026039622 1.92683673 -0.0346006714
      -0.000540100562 -0.00378114264 0.531186223 -5.8951664e-06
      -0.0063409009 -0.00524572609 -0.000361643877 -0.0044032
      -0.00569210853 3.27589297 -0.0173882041 -0.000601663371
      -0.0129902968 -0.00453622825 -0.00188006158 -4.99447015e-05
      -0.00676143635 2.54931974 -1.20215861e-06 -8.44842652e-05
      -0.000953933573 4.46165133 -0.000102943355 -3.00336906e-05
      -0.000354717224 -0.00131433457 -0.00154633878 -3.70456837e-05
      -1.35866012e-05 -3.85193998e-05 -0.00049825391 -7.57815997e-07
      -1.77477568e-06 -0.000128774554 -3.70740527e-05 -0.00636570994
      -6.9597686e-06 -0.00555876968 -0.000492115505 -0.0045075384
      -0.00888668187 -0.00223055226 -0.0187665559 -0.0181011893
      -0.00268647773 0.0543315932 0.193429515 -7.56874506e-05
      -6.57346536e-05 -0.000787505182 0.347749829 0.132538632
      -0.000187672224 0.551415324 -2.96933831e-06 0.313393027
      0.0261744931 -0.000221951763 0.559486091 -0.00240825326
      -0.001369062 -2.48612232e-05 -0.000179575087 -3.04745049e-06
      -3.16727687e-06 0.0543417707 0.0713401139 -0.00235771807
      0.0208365135 -1.38078985e-06 0.00782846659 -4.50536982e-06
      0.0951753855 0.540372729 0.0311571881 0.236550674 -0.00079870125
      0.157600358 0.241704926 -3.63890395e-05 -0.000356175442
      0.0684813112 0.175457969 0.0256977044 -0.000221934111 0.246754646
      0.150504559 0.226911873 -0.0019454601 -0.000541740854
      -0.00205414509 0.279420912 -0.00119174575 -1.64553749e-05
      -0.00270323548 0.050727196 -0.00245266175 -0.00251311646
      -0.00011371883 -3.42659382e-06 0.020482488 -4.93469827e-07
      -1.40643115e-05 0.109123603 -0.000209170961 -0.000418681564
      0.314985156 -0.00015012869 -9.47638764e-05 0.263758421
      0.00923737139 -0.000142889185 -3.95955431e-05 -3.62515457e-05
      -2.26018565e-05 -0.000247658609 -1.58262628e-05 -0.000107492604
      0.0821064562 -0.000676494383 0.0456859097 0.264998972
      -0.000119961049 -5.18886338e-07 -0.000193758882 -5.19076348e-05
      0.301260948 0.556803823 -2.44894272e-05 -0.000123022575
      -9.13717304e-05 -4.20378201e-05 -0.000481587456 0.00164859742
      0.0625770614 -0.000267706433 -0.000190310646 -0.000231137528</_>
    <_>
      0.503120303 -3.25142813 -0.00465568807 -0.0417597815
      -0.000154975831 -0.0100090168 -0.000375234056 -0.00136150338
      -2.59663966e-06 -1.31828629e-05 -2.99451216e-07 -8.28265474e-05
      -0.000266329822 -0.000159768213 5.66598082 1.01238143
      -0.00205217116 1.88285446 -0.000141310273 -0.000883078785
      -0.000534310937 -0.00331279356 0.0998667926 -1.17296095e-05
      0.378307998 2.22763419 -1.1826126e-05 -4.74059307e-05
      -1.36273056e-05 0.0743803829 -0.00016183588 -0.00638870662
      -0.000977138523 -8.63465903e-05 -0.000673549308 -0.000243906674
      -4.95878885e-05 -0.00750018936 -0.000170287734 -0.000118375705
      -0.000507081219 -0.00122143561 -0.000299511594 -0.00252145529
      -0.00168313435 -0.000316886493 3.10621691 0.293991745
      -0.0179001521 -0.00146191882 0.127526298 -3.28640886e-06
      -0.00748693757 3.11702585 -0.0168646481 -0.0462155826
      -0.00265178015 0.135153115 -0.00344548514 -0.000706947234
      -0.000415347575 -0.000678531535 2.11467671 -0.0145564275
      -3.66184104e-05 -2.64929331e-05 -2.06512814e-05 -0.00349249505
      -0.0012307663 -0.000663645566 3.9073081 -0.0014932804
      -7.10067252e-05 -3.12275324e-06 -0.000977188814 -1.67543876e-05
      0.567497969 3.639117 -0.00132731977 -9.10770359e-06
      -3.74079178e-07 -0.000244795316 2.07294297 -0.0363338254
      -0.000490971201 -0.00333452923 0.542411327 -5.69891517e-06
      -0.00618267665 -0.00519541837 -0.000348613248 -0.00405702041
      -0.00551455002 3.30157828 -0.0167677049 -0.000639318197
      -0.0136759887 -0.0044886088 -0.00177722401 -5.18596062e-05
      -0.00673313905 2.54628968 -1.26966779e-06 -8.6126478e-05
      -0.000911576441 4.52111769 -0.000103882543 -2.92860532e-05
      -0.000354182557 -0.00324849389 -0.00145970297 -0.00100686343
      -1.33456715e-05 -3.62263272e-05 -0.000525968848 -7.9341487e-07
      -1.85936426e-06 -0.000124713144 -3.49200818e-05 -0.00621661777
      -6.99180282e-06 -0.00539925788 -0.000508270459 -0.00349214277
      -0.00898554083 -0.00199482986 -0.0189573225 -0.0176787879
      -0.00231481879 0.0543315932 0.193429515 -7.56874506e-05
      -6.57346536e-05 -0.000787505182 0.347749829 0.132538632
      -0.000187672224 0.551415324 -2.96933831e-06 0.313393027
      0.0261744931 -0.000221951763 0.559486091 -0.00240825326
      -0.001369062 -2.48612232e-05 -0.000179575087 -3.04745049e-06
      -3.16727687e-06 0.0543417707 0.0713401139 -0.00235771807
      0.0208365135 -1.38078985e-06 0.00782846659 -4.50536982e-06
      0.0951753855 0.540372729 0.0311571881 0.236550674 -0.00079870125
      0.157600358 0.241704926 -3.63890395e-05 -0.000356175442
      0.0684813112 0.175457969 0.0256977044 -0.000221934111 0.246754646
      0.150504559 0.226911873 -0.0019454601 -0.000541740854
      -0.00205414509 0.279420912 -0.00119174575 -1.64553749e-05
      -0.00270323548 0.050727196 -0.00245266175 -0.00251311646
      -0.00011371883 -3.42659382e-06 0.020482488 -4.93469827e-07
      -1.40643115e-05 0.109123603 -0.000209171601 -0.000418654905
      0.314966828 -0.000150129577 -9.47645167e-05 0.263734996
      0.009219978 -0.000142889781 -3.95959178e-05 -3.6136953e-05
      -2.24494179e-05 -0.000247656106 -1.59896899e-05 -0.000107490079
      0.0820884407 -0.000676446711 0.0457269698 0.264979601
      -0.000119961842 -5.17736737e-07 -0.000193758038 -5.18960114e-05
      0.301186591 0.556729078 -2.44897674e-05 -0.000122455735
      -9.13726544e-05 -4.20381875e-05 -0.000481562311 0.00163527578
      0.062568292 -0.000267698691 -0.000190311272 -0.00023106586</_>
    <_>
      0.395883858 -3.52416611 -0.00461478811 -0.0408318602
      -0.000165294929 -0.0100067919 -0.000344574044 -0.00138358795
      -2.36937535e-06 -1.24912785e-05 -2.95208935e-07 -8.37983171e-05
      -0.000268732489 -0.000165648162 5.52702713 1.5313977
      -0.00193690916 1.48188329 -0.000141414901 -0.000861262961
      -0.000541059242 -0.00319006969 0.186693996 -1.14140175e-05
      0.866358161 2.71782446 -1.2864105e-05 -4.88371625e-05
      -1.32874975e-05 -0.000163423087 -0.000163604651 -0.00429075491
      -0.000988856191 -8.84331748e-05 -0.000661493686 -0.000249640609
      -4.93869775e-05 -0.00899305847 -0.00017253602 -0.000111645888
      -0.000547239848 -0.0011695351 -0.000352726842 -0.00263963314
      -0.00153578504 -0.000311952928 2.65165424 0.465787441
      -0.0192651283 -0.00145009917 0.145885244 -2.90080493e-06
      -0.00726677617 3.05141163 -0.0178502817 -0.0446527526
      -0.0027009109 0.268400341 -0.00337669277 -0.000690747693
      -0.000398013653 -0.000620310602 2.48343992 -0.0100066634
      -3.70434573e-05 -2.5275127e-05 -2.13712628e-05 -0.00335879624
      -0.00129873655 -0.000640150451 3.77234507 -0.00141599518
      -6.63729152e-05 -3.2684809e-06 -0.000999669428 -1.72539039e-05
      1.05481195 3.53382635 -0.00127071154 -9.04591707e-06
      -4.53307109e-07 -0.000221974813 1.91230118 -0.0358238965
      -0.000482517353 -0.00233101472 0.92527926 -5.37365895e-06
      -0.00626563793 -0.00493651442 -0.00034914905 -0.00396608142
      -0.00548279937 4.08180094 -0.0174709 -0.000641341961 -0.0132367546
      -0.00427859463 -0.00181751058 -5.36694461e-05 -0.00672089448
      3.03250408 -1.26262103e-06 -7.99448026e-05 -0.000938664947
      4.24976349 -9.93965659e-05 -2.98683899e-05 -0.000354508782
      -0.0052102278 -0.00140587427 -0.00143348949 -1.24232092e-05
      -4.01347534e-05 -0.000503325486 -8.03505657e-07 -1.76027243e-06
      -0.000138999429 -3.43493084e-05 -0.00648183329 -7.11128587e-06
      -0.00512713287 -0.000527855358 0.0562849939 -0.0087391641
      -0.00220778515 -0.019053394 -0.0141762933 -0.00265244325
      0.0422727764 0.207772464 -7.41880067e-05 -6.25039975e-05
      -0.000759855786 0.352178097 0.103079438 -0.00018995523 0.555686951
      -2.86764703e-06 0.340124846 -3.70403359e-05 -0.000227887955
      0.548622966 -0.00231049163 -0.00158722873 -2.50709782e-05
      -0.000182003016 -3.02223771e-06 -3.19605579e-06 0.0277988762
      0.0677477121 -0.00246407045 0.0133364759 -1.39455972e-06
      -1.44505493e-05 -4.53402754e-06 0.138268948 0.512022316
      0.0363805033 0.248130471 -0.000762777927 0.145311087 0.228547394
      -3.54484873e-05 -0.00034757657 0.0645980835 0.171866924
      0.0493053459 -0.000223463154 0.238352716 0.157466903 0.216868907
      -0.002025116 -0.000674734707 -0.00218886486 0.292033821
      -0.00118818844 -1.66964819e-05 -0.00266036717 0.01066681
      -0.00242933934 -0.00249877665 -0.000113001523 -3.43090255e-06
      -0.000143011508 -4.99094256e-07 -0.00015515789 0.110470638
      -0.000209169855 -0.000418692507 0.315012217 -0.000150128355
      -9.47636727e-05 0.263776004 0.00923264027 -0.000142888923
      -3.95954266e-05 -3.64986045e-05 -2.27906548e-05 -0.000247657677
      -1.62033739e-05 -0.000107493528 0.0821041018 -0.000676504686
      0.045706138 0.265022397 -0.00011996075 -5.19667481e-07
      -0.000193758126 -5.22295013e-05 0.301253974 0.556825101
      -2.44893272e-05 -0.000122948215 -9.13714612e-05 -4.20377146e-05
      -0.000481588388 0.0016450379 0.0625821352 -0.000267707452
      -0.000190309715 -0.000231139362</_>
    <_>
      0.471147835 -3.8758688 -0.00470409077 -0.0424127318
      -0.000166889688 -0.0101905651 -0.000351392257 -0.00143481628
      -2.40344548e-06 -1.26215828e-05 -2.97868297e-07 -8.62882662e-05
      -0.00027962387 -0.000170634856 5.75336981 1.77792823
      -0.00198048772 1.3220737 -0.000146762875 -0.00089808926
      -0.000554058061 -0.00326294475 0.236150026 -1.14519498e-05
      1.06470084 3.01274562 -1.34782149e-05 -4.93587213e-05
      -1.33740577e-05 -0.000695885974 -0.000165376478 -0.00305241346
      -0.00102143909 -8.89917355e-05 -0.000668490422 -0.00025238964
      -5.10962127e-05 -0.00866625085 -0.000176929956 -0.000113205286
      -0.000564026705 -0.00120188924 -0.000342611602 -0.00261510047
      -0.00155734317 -0.000324459223 2.5018146 0.474637389 -0.0191644635
      -0.00148597814 0.141878083 -2.98735745e-06 -0.00741004292
      3.20375085 -0.0185206998 -0.0465062559 -0.00276955171 0.234912217
      -0.00344984815 -0.000668000022 -0.000384616025 -0.000630486058
      2.73050356 -0.00874551851 -3.69299341e-05 -2.52616028e-05
      -2.20418679e-05 -0.00340478215 -0.00136005855 -0.000643684703
      3.97225165 -0.00143825007 -6.76675918e-05 -3.37549909e-06
      -0.00101318362 -1.81504129e-05 1.29007244 3.70498919 -0.0012789194
      -9.36551714e-06 -4.14028676e-07 -0.000219524736 2.03440189
      -0.037720833 -0.000503796153 -0.00257027918 0.791260481
      -5.54268854e-06 -0.00631237123 -0.00488423323 -0.000357870827
      -0.00401313836 -0.00554718962 4.50884533 -0.0181510393
      -0.000642043364 -0.0142030912 -0.00436056871 -0.00186393049
      -5.40482652e-05 -0.00704821572 3.33988833 -1.2840402e-06
      -8.41169895e-05 -0.000943044259 4.15867758 -0.000103551516
      -3.03019133e-05 -0.000367006229 -0.0049255928 -0.00143234886
      -0.00211812416 -1.26913446e-05 -3.84536397e-05 -0.000513207808
      -8.23070081e-07 -1.83575264e-06 -0.000141463635 -3.48560752e-05
      -0.00673806528 -7.25973132e-06 -0.00520484848 -0.000549412624
      0.234492809 -0.00883121789 -0.00232551619 -0.0190757252
      -0.013202046 -0.00277758436 0.0680748224 0.146611258
      -7.80180053e-05 -6.35239921e-05 -0.000898166851 0.258587599
      0.166472346 -0.000187882819 0.571309686 -3.20365143e-06
      0.307170302 0.00338125974 -0.000215414984 0.54830575 -0.0029775165
      -0.000545902411 -2.45902665e-05 -0.000186647841 -3.12152952e-06
      -3.19994956e-06 0.0324870422 0.0702360421 -0.00344385696
      0.0391403101 -1.35949267e-06 0.0217025056 -4.45264914e-06
      0.0519906059 0.546394229 -8.63333771e-05 0.170864329
      -0.000865551876 0.122073844 0.208067641 -3.86533429e-05
      -0.000363406667 0.0572503693 0.173702687 0.0208845101
      -0.000226226854 0.243611425 0.161982059 0.289017856 -0.0017808564
      -0.00025394815 -0.00117292244 0.228263825 -0.00118224951
      -1.6060656e-05 -0.00280768098 0.0888111815 -0.00351340044
      -0.00255500968 -0.000115083414 -3.44951059e-06 0.0689458847
      -4.82882797e-07 0.0628316179 0.149216577 -0.000209170699
      -0.000418645883 0.314987004 -0.000150129898 -9.47648077e-05
      0.263737381 0.00919735059 -0.000142889985 -3.95960997e-05
      -3.63635991e-05 -2.25628155e-05 -0.00024765273 -1.6653501e-05
      -0.000107488995 0.082068339 -0.000676418771 0.0457929038
      0.264993906 -0.00011996214 -5.17775732e-07 -0.000193756277
      -5.23212184e-05 0.301108152 0.556689322 -2.44899329e-05
      -0.000121824814 -9.1373091e-05 -4.20383694e-05 -0.000481541327
      0.00161801465 0.0625669137 -0.000267693133 -0.000190310573
      -0.000231002268</_>
    <_>
      0.468067825 -3.73545265 -0.00474082679 -0.0425570682
      -0.000167667458 -0.0102245817 -0.000354737655 -0.00143277389
      -2.42164492e-06 -1.26328687e-05 -2.97885691e-07 -8.60913278e-05
      -0.000275786035 -0.000170198953 5.77872038 1.62315488
      -0.00198802608 1.4269191 -0.000145857906 -0.000881810614
      -0.00055623916 -0.00329582137 0.225007355 -1.14794966e-05
      0.925633848 2.85339308 -1.31088709e-05 -4.92769323e-05
      -1.33919484e-05 -0.000438145944 -0.000166925805 -0.00363115454
      -0.00101524242 -8.88469513e-05 -0.000673780101 -0.000249801727
      -5.04612253e-05 -0.00888322294 -0.000175320849 -0.000114907314
      -0.000557758671 -0.00120881852 -0.000340094732 -0.002603231
      -0.0015738958 -0.000322858803 2.58674932 0.427484393 -0.0196524002
      -0.00149209797 0.144275606 -3.00038755e-06 -0.00744155981
      3.19690561 -0.0182213895 -0.0469190255 -0.00277893152 0.22354129
      -0.00348151429 -0.000676040712 -0.000391499838 -0.000641746214
      2.60951495 -0.00986733567 -3.65660817e-05 -2.52115788e-05
      -2.17331035e-05 -0.00342466845 -0.00134035305 -0.000636759156
      3.97859144 -0.00144452229 -6.82545578e-05 -3.39653661e-06
      -0.00100564945 -1.75111254e-05 1.15410745 3.71311975
      -0.00129660266 -9.25729182e-06 -4.13602748e-07 -0.000226875054
      2.04794812 -0.0377902798 -0.000505506643 -0.00281006307
      0.802001595 -5.6108388e-06 -0.00634293351 -0.00495785568
      -0.000359536614 -0.004047981 -0.00551083079 4.25623989
      -0.0179855656 -0.000638098689 -0.0142956935 -0.00439678552
      -0.00186079647 -5.37362212e-05 -0.00700066378 3.17170954
      -1.26430962e-06 -8.29768542e-05 -0.000940509955 4.23531485
      -0.000103217717 -2.99192161e-05 -0.000367352186 -0.00538425008
      -0.00145040231 -0.00180036202 -1.25970046e-05 -3.82089493e-05
      -0.000511135499 -8.06052753e-07 -1.81716177e-06 -0.000138842355
      -3.52421594e-05 -0.00666969176 -7.26253938e-06 -0.00528375246
      -0.00054165133 0.126339912 -0.0088107083 -0.00231287559
      -0.0189631153 -0.0141285677 -0.00269287522 0.0749177337
      0.163668171 -7.7472243e-05 -6.49537251e-05 -0.000855329912
      0.294027269 0.146498889 -0.000185141704 0.566093624
      -3.14566591e-06 0.312710345 0.0244643912 -0.00021482259
      0.562901258 -0.00277146511 -0.000708042935 -2.46892196e-05
      -0.000180702162 -3.08587914e-06 -3.17004151e-06 0.0414298698
      0.070133552 -0.00305402838 0.0555313341 -1.37105087e-06
      0.0115974396 -4.4956746e-06 0.0453071557 0.545689225 0.0094018355
      0.18443425 -0.000856149534 0.10269013 0.245763257 -3.77167926e-05
      -0.000360723527 0.0671695173 0.175906777 0.0204049759
      -0.000222388087 0.252098024 0.127949089 0.278995395 -0.00172964646
      -8.16405154e-05 -0.00176474592 0.260147721 -0.00118437514
      -1.62972519e-05 -0.00275387336 0.0740992501 -0.00314534549
      -0.00253110402 -0.000113295871 -3.46069805e-06 0.0779382586
      -4.88791045e-07 0.0371638685 0.151022777 -0.000209168953
      -0.000418722571 0.315037072 -0.000150127365 -9.47629524e-05
      0.263804138 0.0092497617 -0.000142888239 -3.95950119e-05
      -3.66705644e-05 -2.29897341e-05 -0.000247660064 -1.61132957e-05
      -0.000107496351 0.082122393 -0.000676556199 0.0456676409
      0.265047461 -0.00011995987 -5.21026095e-07 -0.000193758824
      -5.23099661e-05 0.301329941 0.556907415 -2.44889543e-05
      -0.000123523103 -9.13704425e-05 -4.20373144e-05 -0.000481614697
      0.00165816769 0.0625923648 -0.000267715717 -0.000190308856
      -0.000231214362</_>
    <_>
      0.566689312 -3.88452101 -0.00469469279 -0.0421288274
      -0.000163084522 -0.0100716483 -0.000352632836 -0.00144454173
      -2.38644998e-06 -1.26419682e-05 -2.97321918e-07 -8.54626851e-05
      -0.000275311497 -0.000167881706 5.73181772 1.66608369
      -0.00198199274 1.47393441 -0.000146114922 -0.000902738131
      -0.000554155908 -0.00328329671 0.203532636 -1.14020086e-05
      0.9636994 2.89347386 -1.30522303e-05 -4.96814428e-05
      -1.35837845e-05 0.0817727745 -0.000164229976 -0.00401778705
      -0.000993193942 -8.77455022e-05 -0.00067288999 -0.00025129944
      -5.02331786e-05 -0.00883119553 -0.00017419325 -0.000115700452
      -0.000557339576 -0.001176683 -0.000345067907 -0.00260049035
      -0.00157492934 -0.000325911999 2.60301495 0.429963142
      -0.0189229492 -0.00145655544 0.132102683 -2.9525379e-06
      -0.00741053047 3.28685308 -0.0185653884 -0.0462918431
      -0.00273310556 0.225868851 -0.00343261752 -0.000673138711
      -0.000390752655 -0.000637461431 2.64311147 -0.00975526217
      -3.65496198e-05 -2.54465704e-05 -2.17419129e-05 -0.00338234147
      -0.00133344135 -0.000650400529 3.99926782 -0.00143227167
      -6.88941e-05 -3.36400626e-06 -0.00100859092 -1.78198843e-05
      1.17312455 3.66214919 -0.00128630514 -9.3392855e-06
      -4.24762504e-07 -0.00022383171 2.10164642 -0.0376296602
      -0.000501609407 -0.00267026038 0.734222353 -5.54195867e-06
      -0.0062329853 -0.00489981193 -0.000352744741 -0.00403101137
      -0.00556288054 4.33312988 -0.0178988427 -0.000642530678
      -0.0141898785 -0.00435588462 -0.00185859308 -5.32235608e-05
      -0.00690736715 3.24008083 -1.30152023e-06 -8.2345563e-05
      -0.000933714735 4.27474165 -0.000101207726 -3.04036621e-05
      -0.000359617174 -0.0032716617 -0.00143063127 -0.00204526121
      -1.2970484e-05 -3.88284352e-05 -0.000503040734 -8.03374405e-07
      -1.85557928e-06 -0.000138300966 -3.49225629e-05 -0.00656534918
      -7.11086705e-06 -0.00522739021 -0.000533340848 0.133207753
      -0.00882597733 -0.00228131842 -0.0187954362 -0.0139605794
      -0.00272802729 0.0838543773 0.143997818 -7.82744391e-05
      -6.34560565e-05 -0.000690893212 0.260586113 0.182908058
      -0.000185841971 0.578240395 -3.23477775e-06 0.302018404
      0.038662605 -0.000215327731 0.553369641 -0.00307409512
      -0.000423424091 -2.44051625e-05 -0.000185856232 -3.11724602e-06
      -3.17974786e-06 0.0343793556 0.0725627095 -0.00339464121
      0.0363402925 -1.34962227e-06 0.0273126736 -4.42546252e-06
      0.0366806164 0.565545082 -0.0001544845 0.166143075 -0.00084270176
      0.117792234 0.20148395 -3.87271757e-05 -0.000363711384
      0.0540162474 0.177185237 -8.56903571e-05 -0.00022433167
      0.232175604 0.162049666 0.28510341 -0.00178133196 -0.000203126852
      -0.00117490592 0.214657322 -0.00117950491 -1.59397823e-05
      -0.00284537673 0.0992171988 -0.00353596266 -0.00258012582
      -0.000115729883 -3.42987619e-06 0.0662691742 -4.79159951e-07
      0.0813485011 0.139678806 -0.000209170699 -0.000418645883
      0.314987004 -0.000150129898 -9.47648077e-05 0.263737381
      0.00919735059 -0.000142889985 -3.95960997e-05 -3.63635991e-05
      -2.25628155e-05 -0.00024765273 -1.6653501e-05 -0.000107488995
      0.082068339 -0.000676418771 0.0457929038 0.264993906
      -0.00011996214 -5.17775732e-07 -0.000193756277 -5.23212184e-05
      0.301108152 0.556689322 -2.44899329e-05 -0.000121824814
      -9.1373091e-05 -4.20383694e-05 -0.000481541327 0.00161801465
      0.0625669137 -0.000267693133 -0.000190310573 -0.000231002268</_>
    <_>
      0.643202841 -4.08234453 -0.00464176387 -0.0426010974
      -0.00016128931 -0.010039066 -0.000350876478 -0.00145413575
      -2.38739972e-06 -1.25702436e-05 -2.97010843e-07 -8.4756146e-05
      -0.000278083869 -0.000166890735 5.78087091 1.76058757
      -0.00196265057 1.41552258 -0.000148484018 -0.000901371299
      -0.000553355261 -0.00321200327 0.217687994 -1.13849792e-05
      1.04241204 2.97274733 -1.33917765e-05 -4.94381311e-05
      -1.35398304e-05 0.0937176943 -0.000164202778 -0.00326759368
      -0.00099879317 -8.8491106e-05 -0.00067311828 -0.000251187623
      -4.99089874e-05 -0.00761254784 -0.000169883147 -0.000113701069
      -0.000563811627 -0.00117176503 -0.000346229441 -0.002367693
      -0.00157113699 -0.000315297802 2.47642183 0.427743465
      -0.0181390364 -0.00144314847 0.124370679 -3.04546029e-06
      -0.00733703049 3.36908054 -0.0185384378 -0.0455248542
      -0.00272892765 0.343343168 -0.00339138648 -0.000694358198
      -0.000362309307 -0.000626033812 2.71816707 -0.0090454556
      -3.80067395e-05 -2.52269419e-05 -2.15754371e-05 -0.00338544603
      -0.00134007039 -0.00066377956 4.03917074 -0.00143933308
      -6.7559864e-05 -3.36502558e-06 -0.00103278714 -1.80698426e-05
      1.25490534 3.638551 -0.00127113261 -9.25711083e-06 -4.17615979e-07
      -0.000220954302 2.21395445 -0.038791202 -0.000506683893
      -0.00227472233 0.764508426 -5.51664198e-06 -0.006105443
      -0.00493956218 -0.000351168739 -0.0040138266 -0.00560463872
      4.47450352 -0.0179965291 -0.000626035267 -0.0146567449
      -0.00430631824 -0.00185053505 -5.32171216e-05 -0.00682967808
      3.32980561 -1.30380943e-06 -8.24320887e-05 -0.000948414323
      4.28128958 -0.0001008545 -3.05982721e-05 -0.00035402819
      -0.00205422984 -0.0014197526 -0.00177969423 -1.29096115e-05
      -3.80030724e-05 -0.000495660875 -8.22406037e-07 -1.81964549e-06
      -0.000138102769 -3.44634063e-05 -0.00655138586 -7.05738785e-06
      -0.00523952069 -0.000524823146 0.195695043 -0.00876231212
      -0.00223556673 -0.0190239418 -0.0136613389 -0.00282148644
      0.0823369473 0.141845673 -7.84773947e-05 -6.41277293e-05
      -0.000805123709 0.258025348 0.18833071 -0.000185432771 0.584278643
      -3.23986455e-06 0.298786759 0.0361725762 -0.000214330154
      0.548295021 -0.00313037005 -0.000319622894 -2.44036128e-05
      -0.000185040975 -3.10438463e-06 -3.1783502e-06 0.0314006731
      0.0706878304 -0.00344982254 0.0390988551 -1.34958213e-06
      0.0244816765 -4.43000454e-06 0.0349381268 0.569284141
      -0.000170768195 0.162429422 -0.000843241578 0.106322065
      0.208658233 -3.88075132e-05 -0.000365430082 0.0516688898
      0.173524112 -9.24799588e-06 -0.000223824114 0.246143907
      0.161085486 0.290438533 -0.00170486653 -8.52491285e-05
      -0.00124607026 0.216159254 -0.00117051997 -1.59256178e-05
      -0.00285436958 0.105354182 -0.00365025154 -0.00258848909
      -0.000115354487 -3.43314832e-06 0.0801370367 -4.79090488e-07
      0.0807614252 0.142751157 -0.000209170699 -0.000418645883
      0.314987004 -0.000150129898 -9.47648077e-05 0.263737381
      0.00919735059 -0.000142889985 -3.95960997e-05 -3.63635991e-05
      -2.25628155e-05 -0.00024765273 -1.6653501e-05 -0.000107488995
      0.082068339 -0.000676418771 0.0457929038 0.264993906
      -0.00011996214 -5.17775732e-07 -0.000193756277 -5.23212184e-05
      0.301108152 0.556689322 -2.44899329e-05 -0.000121824814
      -9.1373091e-05 -4.20383694e-05 -0.000481541327 0.00161801465
      0.0625669137 -0.000267693133 -0.000190310573 -0.000231002268</_>
    <_>
      0.734719932 -3.61540198 -0.0045339209 -0.0430173017
      -0.000152906578 -0.00981248915 -0.000375248521 -0.00138392032
      -2.67255905e-06 -1.32815203e-05 -2.97114241e-07 -8.29763012e-05
      -0.000274379971 -0.000155809772 5.73668432 1.13380182
      -0.00200426159 1.97055984 -0.000141718832 -0.000907606038
      -0.000532065111 -0.00325856684 0.112916276 -1.17217442e-05
      0.496990234 2.36764646 -1.22823785e-05 -4.76870955e-05
      -1.37460256e-05 0.255099624 -0.000157144008 -0.0056828591
      -0.00095649081 -8.73190584e-05 -0.000679649937 -0.000250231387
      -4.98391855e-05 -0.00801631529 -0.000173630557 -0.000114499875
      -0.000518677058 -0.00118372124 -0.000321608764 -0.00255673728
      -0.00166836556 -0.000321898755 3.13224077 0.214319527
      -0.0178803112 -0.00142534799 0.126670837 -3.20141044e-06
      -0.00742076989 3.32367086 -0.0172513649 -0.0467728265
      -0.00261442666 0.143807739 -0.00340875192 -0.00068835041
      -0.000385542953 -0.000671608199 2.24586463 -0.0140294367
      -3.81147984e-05 -2.59895241e-05 -2.14365336e-05 -0.00343453791
      -0.00124371308 -0.000690848217 4.06059647 -0.00149170903
      -7.07429426e-05 -3.01961609e-06 -0.001003257 -1.77467682e-05
      0.690102875 3.58780909 -0.00130872184 -9.1321017e-06
      -4.23847609e-07 -0.000236257532 2.23427963 -0.0377737209
      -0.000501377915 -0.00341068627 0.581216872 -5.5103701e-06
      -0.00613147346 -0.00507602934 -0.000340738072 -0.00396834314
      -0.00558716524 3.53543735 -0.0167740062 -0.000660978083
      -0.0143869705 -0.00441345433 -0.00177478814 -5.45579569e-05
      -0.00665074913 2.71957612 -1.33515698e-06 -8.96040438e-05
      -0.000920080172 4.60041475 -0.000102132231 -3.01109612e-05
      -0.000348116737 -0.00134133396 -0.00143788999 -0.00192502211
      -1.37158268e-05 -3.80218662e-05 -0.000511527003 -8.00307134e-07
      -1.8629072e-06 -0.000128101587 -3.38841164e-05 -0.00618346035
      -6.89378567e-06 -0.00533589255 -0.000502651092 -0.00266853627
      -0.0090508908 -0.00198947405 -0.0188755505 -0.0171349123
      -0.00233638217 0.0626296699 0.14428708 -7.69089529e-05
      -6.41457809e-05 -0.000596839469 0.285481006 0.194352925
      -0.000189831146 0.57108438 -3.09328721e-06 0.294772536
      0.0423489884 -0.00021557424 0.553168356 -0.00273102615
      -0.000877715938 -2.46068448e-05 -0.000182999313 -3.15798275e-06
      -3.21442985e-06 0.0296953693 0.0553948842 -0.00304542901
      0.00468135253 -1.36912706e-06 0.00616107136 -4.47706725e-06
      0.060122408 0.540839195 0.0262604877 0.182985827 -0.000909049355
      0.150416657 0.200538591 -3.83429651e-05 -0.000359649042
      0.046168305 0.174516901 0.00155806914 -0.000222727365 0.235599518
      0.160493553 0.253399909 -0.00179935864 -0.000565061171
      -0.00130415382 0.208096579 -0.00118115731 -1.60909931e-05
      -0.00278158858 0.0581105426 -0.00327779935 -0.00255345879
      -0.00011504475 -3.43051101e-06 0.0245625935 -4.8671825e-07
      0.0621418431 0.112356037 -0.000209173872 -0.000418573356
      0.314904392 -0.000150132255 -9.47664594e-05 0.263660252
      0.00916995481 -0.000142891644 -3.95970601e-05 -3.57159952e-05
      -2.1935999e-05 -0.000247649237 -1.63523473e-05 -0.000107482338
      0.0820356756 -0.000676304975 0.0458423756 0.264915347
      -0.000119964243 -5.14135479e-07 -0.00019375587 -5.17572807e-05
      0.300968796 0.556501806 -2.4490786e-05 -0.000120798126
      -9.1375412e-05 -4.20392862e-05 -0.000481488765 0.00159692205
      0.062540561 -0.000267675729 -0.000190313411 -0.000230853708</_>
    <_>
      0.554454267 -3.30165792 -0.00456887996 -0.0401018895
      -0.000155261907 -0.00972205214 -0.0003779041 -0.00135404349
      -2.61441528e-06 -1.3121984e-05 -3.00554063e-07 -8.21933208e-05
      -0.000267462194 -0.000156863389 5.36629438 1.1404413
      -0.00200087321 1.96480012 -0.000142600984 -0.00090276252
      -0.00054097781 -0.00326409144 0.0640264601 -1.16591518e-05
      0.547759771 2.34762645 -1.28138799e-05 -4.7571215e-05
      -1.37735769e-05 0.332477957 -0.000157398608 -0.0060897693
      -0.000941829756 -8.78201608e-05 -0.000676148164 -0.000248638622
      -4.95027198e-05 -0.00770147843 -0.000172136046 -0.000115435825
      -0.000527464494 -0.00118324801 -0.000322580541 -0.0027055305
      -0.00164171413 -0.0003102599 3.11855698 0.37525627 -0.0169263948
      -0.00142261665 0.105008185 -3.26331929e-06 -0.0073354831
      2.99786711 -0.0172588974 -0.0444096513 -0.00259869313 0.215810776
      -0.00340386829 -0.000699771394 -0.000401014608 -0.000670734327
      2.20016718 -0.0135116 -3.80078709e-05 -2.64855134e-05
      -2.11240185e-05 -0.00346221402 -0.00123482756 -0.00068079232
      3.7869029 -0.00148785708 -7.07863801e-05 -3.18701973e-06
      -0.00101845979 -1.77937982e-05 0.66129148 3.40089059
      -0.00130207743 -9.06974674e-06 -4.41863648e-07 -0.000242779293
      2.1292541 -0.0349251069 -0.000510198413 -0.00252100243 0.591019928
      -5.53654445e-06 -0.00603946391 -0.0050046253 -0.000342626037
      -0.00398274697 -0.0055793277 3.52018929 -0.0166262668
      -0.00064798427 -0.0127832973 -0.00436342461 -0.00177908048
      -5.42759662e-05 -0.00652450556 2.68051457 -1.32108994e-06
      -8.81968881e-05 -0.00094165717 4.43980026 -0.00010277309
      -3.02363769e-05 -0.000345368637 -0.00200651144 -0.00143618009
      -0.00153594569 -1.38865498e-05 -3.94061135e-05 -0.000519668101
      -7.90096522e-07 -1.872192e-06 -0.000127899926 -3.40903644e-05
      -0.00616266346 -6.8405302e-06 -0.00520585524 -0.000498208741
      -0.00262765819 -0.008821344 -0.00202177162 -0.0188344382
      -0.0164610352 -0.00234806188 0.0359044969 0.165449113
      -7.63174467e-05 -6.21798608e-05 -0.000852136582 0.283893943
      0.135797888 -0.00018963583 0.546268344 -3.09112329e-06 0.321256995
      -5.36527477e-05 -0.000221239374 0.542991817 -0.00272736186
      -0.00101932732 -2.49077057e-05 -0.000186063757 -3.14497925e-06
      -3.24560096e-06 0.027349256 0.0790608525 -0.00298277289
      0.00672962889 -1.38796395e-06 0.0105837509 -4.52579707e-06
      0.0834470317 0.51726979 0.0310308263 0.183572963 -0.000837621046
      0.164215684 0.191044345 -3.78905825e-05 -0.000351740571
      0.0510022342 0.164238721 0.0246638097 -0.000225412368 0.219570458
      0.163326025 0.243864492 -0.00194834254 -0.000483997632
      -0.00142060698 0.230347604 -0.00115912454 -1.6365997e-05
      -0.00268539065 0.0523309633 -0.00304845022 -0.00248913513
      -0.000114157083 -3.47822606e-06 0.0154752135 -4.94573442e-07
      0.0229366384 0.115735471 -0.000209172009 -0.00041862065
      0.314953536 -0.000150130712 -9.4765368e-05 0.263708621
      0.00919073448 -0.000142890553 -3.95964271e-05 -3.60901649e-05
      -2.23144143e-05 -0.000247651973 -1.64408611e-05 -0.00010748671
      0.0820593834 -0.000676381402 0.0458010435 0.264962852
      -0.000119962868 -5.16434682e-07 -0.000193756408 -5.20482281e-05
      0.301068872 0.556626439 -2.44902185e-05 -0.000121543031
      -9.13738695e-05 -4.2038675e-05 -0.00048152532 0.00161289796
      0.0625574142 -0.000267687632 -0.000190311723 -0.00023095739</_>
    <_>
      0.554454267 -3.30165792 -0.00456887996 -0.0401018895
      -0.000155261907 -0.00972205214 -0.0003779041 -0.00135404349
      -2.61441528e-06 -1.3121984e-05 -3.00554063e-07 -8.21933208e-05
      -0.000267462194 -0.000156863389 5.36629438 1.1404413
      -0.00200087321 1.96480012 -0.000142600984 -0.00090276252
      -0.00054097781 -0.00326409144 0.0640264601 -1.16591518e-05
      0.547759771 2.34762645 -1.28138799e-05 -4.7571215e-05
      -1.37735769e-05 0.332477957 -0.000157398608 -0.0060897693
      -0.000941829756 -8.78201608e-05 -0.000676148164 -0.000248638622
      -4.95027198e-05 -0.00770147843 -0.000172136046 -0.000115435825
      -0.000527464494 -0.00118324801 -0.000322580541 -0.0027055305
      -0.00164171413 -0.0003102599 3.11855698 0.37525627 -0.0169263948
      -0.00142261665 0.105008185 -3.26331929e-06 -0.0073354831
      2.99786711 -0.0172588974 -0.0444096513 -0.00259869313 0.215810776
      -0.00340386829 -0.000699771394 -0.000401014608 -0.000670734327
      2.20016718 -0.0135116 -3.80078709e-05 -2.64855134e-05
      -2.11240185e-05 -0.00346221402 -0.00123482756 -0.00068079232
      3.7869029 -0.00148785708 -7.07863801e-05 -3.18701973e-06
      -0.00101845979 -1.77937982e-05 0.66129148 3.40089059
      -0.00130207743 -9.06974674e-06 -4.41863648e-07 -0.000242779293
      2.1292541 -0.0349251069 -0.000510198413 -0.00252100243 0.591019928
      -5.53654445e-06 -0.00603946391 -0.0050046253 -0.000342626037
      -0.00398274697 -0.0055793277 3.52018929 -0.0166262668
      -0.00064798427 -0.0127832973 -0.00436342461 -0.00177908048
      -5.42759662e-05 -0.00652450556 2.68051457 -1.32108994e-06
      -8.81968881e-05 -0.00094165717 4.43980026 -0.00010277309
      -3.02363769e-05 -0.000345368637 -0.00200651144 -0.00143618009
      -0.00153594569 -1.38865498e-05 -3.94061135e-05 -0.000519668101
      -7.90096522e-07 -1.872192e-06 -0.000127899926 -3.40903644e-05
      -0.00616266346 -6.8405302e-06 -0.00520585524 -0.000498208741
      -0.00262765819 -0.008821344 -0.00202177162 -0.0188344382
      -0.0164610352 -0.00234806188 0.0359044969 0.165449113
      -7.63174467e-05 -6.21798608e-05 -0.000852136582 0.283893943
      0.135797888 -0.00018963583 0.546268344 -3.09112329e-06 0.321256995
      -5.36527477e-05 -0.000221239374 0.542991817 -0.00272736186
      -0.00101932732 -2.49077057e-05 -0.000186063757 -3.14497925e-06
      -3.24560096e-06 0.027349256 0.0790608525 -0.00298277289
      0.00672962889 -1.38796395e-06 0.0105837509 -4.52579707e-06
      0.0834470317 0.51726979 0.0310308263 0.183572963 -0.000837621046
      0.164215684 0.191044345 -3.78905825e-05 -0.000351740571
      0.0510022342 0.164238721 0.0246638097 -0.000225412368 0.219570458
      0.163326025 0.243864492 -0.00194834254 -0.000483997632
      -0.00142060698 0.230347604 -0.00115912454 -1.6365997e-05
      -0.00268539065 0.0523309633 -0.00304845022 -0.00248913513
      -0.000114157083 -3.47822606e-06 0.0154752135 -4.94573442e-07
      0.0229366384 0.115735471 -0.000209172009 -0.00041862065
      0.314953536 -0.000150130712 -9.4765368e-05 0.263708621
      0.00919073448 -0.000142890553 -3.95964271e-05 -3.60901649e-05
      -2.23144143e-05 -0.000247651973 -1.64408611e-05 -0.00010748671
      0.0820593834 -0.000676381402 0.0458010435 0.264962852
      -0.000119962868 -5.16434682e-07 -0.000193756408 -5.20482281e-05
      0.301068872 0.556626439 -2.44902185e-05 -0.000121543031
      -9.13738695e-05 -4.2038675e-05 -0.00048152532 0.00161289796
      0.0625574142 -0.000267687632 -0.000190311723 -0.00023095739</_>
    <_>
      0.305594623 -3.66529393 -0.00477103377 -0.0402209088
      -0.000174290908 -0.0102013387 -0.000335568475 -0.00146705715
      -2.39016367e-06 -1.25785728e-05 -2.96983075e-07 -8.6938504e-05
      -0.0002802331 -0.000172886692 5.60045242 1.77649868 -0.00196862919
      1.29235995 -0.000145978789 -0.000913970463 -0.000573617523
      -0.00332610868 0.17432189 -1.15793828e-05 1.087901 2.94872594
      -1.31709485e-05 -5.0563518e-05 -1.41697001e-05 -0.0010270332
      -0.000166074125 -0.00331761385 -0.00102602236 -9.25716085e-05
      -0.000675123825 -0.000256460218 -5.20778704e-05 -0.00952597614
      -0.000183229626 -0.000114322189 -0.000574980222 -0.00121024891
      -0.000380040088 -0.00246681436 -0.00150265719 -0.000334500393
      2.63195086 0.58225584 -0.0189785324 -0.00149594259 0.0969194919
      -2.7779522e-06 -0.00741241686 2.9827342 -0.0191527102
      -0.0449097715 -0.00281471107 0.20714882 -0.00350162759
      -0.000693775539 -0.000389420456 -0.000633212447 2.68950963
      -0.00905606989 -3.70135749e-05 -2.62965095e-05 -2.28431636e-05
      -0.00347745139 -0.00137678813 -0.000636535697 3.85822535
      -0.00144925341 -6.92583199e-05 -3.42167664e-06 -0.00100558542
      -1.81814139e-05 1.27130449 3.53669572 -0.00130238035
      -9.36821289e-06 -5.09557992e-07 -0.000218504138 1.90428519
      -0.0354426578 -0.00051766762 -0.00189625588 0.613020539
      -5.54785402e-06 -0.00620854739 -0.0047360207 -0.000361627492
      -0.00403612899 -0.00557758566 4.49228764 -0.0182630941
      -0.000662923441 -0.0131381676 -0.00438339356 -0.00189381628
      -5.60270419e-05 -0.00669558207 3.33749938 -1.28034742e-06
      -8.3838524e-05 -0.000959623314 4.06591606 -0.000103657476
      -3.06732727e-05 -0.000377668621 -0.00334901898 -0.00144137093
      -0.00214913068 -1.33507438e-05 -4.45051337e-05 -0.000539676112
      -7.99147756e-07 -1.8636739e-06 -0.000149382715 -3.52104544e-05
      -0.00673669018 -7.39166035e-06 -0.00511861034 -0.000560918823
      0.200699627 -0.00877907407 -0.00248792954 -0.0195509754
      -0.0128670763 -0.00275260629 0.0594217852 0.164454401
      -7.70560582e-05 -6.21910294e-05 -0.000700402539 0.279006749
      0.155646473 -0.000188933715 0.557885826 -3.13019109e-06
      0.326180339 -1.46768243e-05 -0.000218870671 0.553614259
      -0.00274388702 -0.000889677671 -2.47089047e-05 -0.000186566103
      -3.11397116e-06 -3.21552102e-06 0.039849095 0.0780299604
      -0.00320479902 0.0262750648 -1.37176096e-06 0.0160518065
      -4.48107949e-06 0.0651460961 0.529183149 0.0058959052 0.179929018
      -0.00086248829 0.141981363 0.199103221 -3.82764301e-05
      -0.000355768163 0.0639315993 0.1774607 0.0149435736
      -0.000225288473 0.217482716 0.170816392 0.269178212 -0.00187186385
      -0.000428006519 -0.00129180669 0.221948922 -0.00118458236
      -1.62315209e-05 -0.00274738576 0.0640581921 -0.00328470813
      -0.00251868833 -0.000115507231 -3.45429453e-06 0.043851614
      -4.87946352e-07 0.0517844483 0.130665883 -0.00020916533
      -0.000418987591 0.315154552 -0.000150118576 -9.47563967e-05
      0.264011145 0.00946275517 -0.000142882243 -3.95911229e-05
      -3.71556707e-05 -2.4095476e-05 -0.000247691147 -1.30143017e-05
      -0.000107521897 0.082334727 -0.000677058764 0.0451347753
      0.265188575 -0.000119951925 -5.31409171e-07 -0.000193770786
      -5.13784944e-05 0.302195817 0.557683349 -2.44854618e-05
      -0.00013020105 -9.13610347e-05 -4.20335309e-05 -0.000481895113
      0.0018211063 0.0626751855 -0.000267799827 -0.000190304941
      -0.000232020408</_>
    <_>
      0.366908252 -3.93707538 -0.0045805038 -0.0395665392
      -0.000164072029 -0.00985231809 -0.000327687187 -0.00144745142
      -2.28674935e-06 -1.20859813e-05 -2.89383763e-07 -8.40588837e-05
      -0.000274473801 -0.000166693382 5.46054983 1.8907181
      -0.00190178514 1.14016318 -0.000145686296 -0.000880521664
      -0.000556391373 -0.0031431471 0.210309058 -1.13082569e-05
      1.21765745 3.04699016 -1.30766775e-05 -4.92744402e-05
      -1.36328854e-05 -0.00018525566 -0.000161084667 -0.00206495053
      -0.000995477312 -8.88848663e-05 -0.000655231532 -0.000245656091
      -4.98472327e-05 -0.00824903417 -0.000173847744 -0.000109885332
      -0.000564452377 -0.00115368015 -0.000370000518 -0.00222840789
      -0.00147600053 -0.000315847166 2.30230284 0.588096857
      -0.0172568616 -0.00143066421 0.0928003639 -2.82363499e-06
      -0.00708752312 3.02808571 -0.01856637 -0.0426200256 -0.00271135778
      0.369722933 -0.00335439108 -0.000674439303 -0.000341150153
      -0.000601829728 2.76988935 -0.00701613165 -3.72433788e-05
      -2.49612513e-05 -2.20355869e-05 -0.00337327505 -0.00135232788
      -0.000640512677 3.82211304 -0.00141154684 -6.56493503e-05
      -3.41727878e-06 -0.00101572124 -1.80835796e-05 1.40437281
      3.39909315 -0.00124180701 -9.14803786e-06 -4.57396368e-07
      -0.000208354439 1.98926115 -0.0356727839 -0.000509245321
      -0.00112658914 0.669857681 -5.36985863e-06 -0.00588137424
      -0.00459524151 -0.000348760921 -0.00393876946 -0.00548958778
      4.6307888 -0.017914027 -0.000617665995 -0.0132287238
      -0.00416655373 -0.0018505078 -5.3355172e-05 -0.00653030956
      3.42630744 -1.24605617e-06 -8.07134129e-05 -0.000950324233
      3.96682096 -0.000100690377 -3.02350145e-05 -0.00035459394
      -0.00232696114 -0.00138843013 -0.00201607845 -1.30115768e-05
      -4.00958052e-05 -0.000500887225 -7.93430729e-07 -1.80591417e-06
      -0.000142924386 -3.37712263e-05 -0.0065430603 -7.09358483e-06
      -0.00497813104 -0.000539938279 0.332535207 -0.00838222075
      -0.00234292424 -0.0189660843 -0.0116354991 -0.00290895742
      0.085106656 0.164117217 -7.82728821e-05 -6.35939432e-05
      -0.000490202277 0.271822989 0.172374576 -0.000186587276
      0.571588874 -3.23452332e-06 0.304788888 0.01739382 -0.000218535875
      0.559977531 -0.00283947727 -0.000606500194 -2.44825005e-05
      -0.000188513688 -3.1349216e-06 -3.18207822e-06 0.054799512
      0.0836419463 -0.00329932827 0.0417864732 -1.35441178e-06
      0.0365842357 -4.43038152e-06 0.0421575084 0.555429041
      -2.07565722e-06 0.170765236 -0.000843204267 0.130647182
      0.204442695 -3.89274755e-05 -0.000360236096 0.0650424808
      0.19331938 -6.72608949e-05 -0.000227243276 0.22918357 0.162172407
      0.26927951 -0.00183173374 -0.000269389042 -0.00134089589
      0.216420755 -0.00118384662 -1.59956235e-05 -0.00280720252
      0.0715089962 -0.00344246137 -0.00256218598 -0.000116825635
      -3.4438624e-06 0.0664452761 -4.80424944e-07 0.0762349218
      0.126075804 -0.00020916533 -0.000418987591 0.315154552
      -0.000150118576 -9.47563967e-05 0.264011145 0.00946275517
      -0.000142882243 -3.95911229e-05 -3.71556707e-05 -2.4095476e-05
      -0.000247691147 -1.30143017e-05 -0.000107521897 0.082334727
      -0.000677058764 0.0451347753 0.265188575 -0.000119951925
      -5.31409171e-07 -0.000193770786 -5.13784944e-05 0.302195817
      0.557683349 -2.44854618e-05 -0.00013020105 -9.13610347e-05
      -4.20335309e-05 -0.000481895113 0.0018211063 0.0626751855
      -0.000267799827 -0.000190304941 -0.000232020408</_>
    <_>
      0.475590169 -3.85364532 -0.00480319327 -0.0420945771
      -0.000168888088 -0.0102107022 -0.000340305647 -0.00146387995
      -2.31408808e-06 -1.23151331e-05 -2.96262897e-07 -8.60602377e-05
      -0.000274901657 -0.000173760345 5.87348413 1.61403453
      -0.00197156845 1.23101997 -0.000147612896 -0.000864540343
      -0.000574972888 -0.00329470844 0.190876722 -1.10822184e-05
      0.899321735 2.78047395 -1.25979404e-05 -4.96367757e-05
      -1.35552009e-05 -0.00102338032 -0.000168578292 -0.00472423434
      -0.00102505321 -9.09067603e-05 -0.000683460152 -0.000249128963
      -4.97508081e-05 -0.00911598466 -0.000175272813 -0.000114010683
      -0.000564677233 -0.00120932178 -0.000372078037 -0.00201733876
      -0.00149985694 -0.000323358719 2.4469347 0.410839766 -0.0196511336
      -0.00147992559 0.106494024 -2.79504025e-06 -0.00745154079
      3.22895098 -0.0186329093 -0.0459925681 -0.00282551232 0.275159121
      -0.00353835756 -0.00069833477 -0.000373791787 -0.000631080766
      2.60503244 -0.0104560023 -3.76266071e-05 -2.52758e-05
      -2.19434532e-05 -0.00344947539 -0.00136971544 -0.000645848631
      4.06254578 -0.00143309787 -6.97647556e-05 -3.53606561e-06
      -0.00100332208 -1.75332279e-05 1.14695585 3.63271022
      -0.00129274826 -9.10016206e-06 -4.60310986e-07 -0.000223983472
      2.01297045 -0.0378049351 -0.000515406544 -0.00268886937 0.6676386
      -5.65675055e-06 -0.00617189612 -0.00485973572 -0.000360247155
      -0.0040438259 -0.00555483112 4.2201519 -0.0180917569
      -0.000640653132 -0.0146795986 -0.00434788922 -0.00188814581
      -5.34897663e-05 -0.0065232669 3.19242167 -1.23500388e-06
      -8.1999955e-05 -0.000952245493 4.22717237 -0.000101085534
      -2.97395363e-05 -0.000374460535 -0.00272909668 -0.00142476789
      -0.00148969376 -1.29099835e-05 -4.08811029e-05 -0.000521266251
      -7.74001933e-07 -1.81283292e-06 -0.000142518271 -3.51366216e-05
      -0.00663748663 -7.26763028e-06 -0.00524035189 -0.000547491014
      0.064145647 -0.00866919849 -0.00238289242 -0.0194298159
      -0.014225075 -0.00283948472 0.0631357133 0.18605864 -7.7489065e-05
      -6.1266117e-05 -0.000489412108 0.273785532 0.154751763
      -0.000185744793 0.560151219 -3.18790148e-06 0.323628068
      -0.000307608454 -0.000221139853 0.57872957 -0.00281506521
      -0.000811803329 -2.45610681e-05 -0.000190808205 -3.14596446e-06
      -3.1810871e-06 0.0560564399 0.0987139195 -0.00326263835
      0.0388356112 -1.36089466e-06 0.033671625 -4.43438512e-06
      0.0577830151 0.53656143 0.00655839592 0.172983631 -0.000855933351
      0.131548792 0.205569789 -3.81354293e-05 -0.000354231452
      0.0876013637 0.199194223 0.00700521842 -0.000231326456 0.230159879
      0.166488588 0.249606788 -0.00193803664 -0.000391086825
      -0.00146210368 0.252126962 -0.00119069952 -1.61419903e-05
      -0.00278322119 0.0341098681 -0.00329669518 -0.0025448387
      -0.00011592485 -3.43849115e-06 0.0675052553 -4.82953965e-07
      0.0600910261 0.12273477 -0.000209159945 -0.000419329357
      0.315322042 -0.000150107255 -9.47479857e-05 0.264284968
      0.00972814858 -0.000142874516 -3.95861462e-05 -3.79477424e-05
      -2.56282092e-05 -0.000247729535 -9.37517689e-06 -0.000107554799
      0.0826011002 -0.000677698757 0.0444766581 0.265383184
      -0.000119941717 -5.45042553e-07 -0.000193785294 -5.04358468e-05
      0.303283453 0.558677435 -2.44809908e-05 -0.000138577292
      -9.13489857e-05 -4.20286888e-05 -0.000482248957 0.00202419423
      0.0627834573 -0.000267906493 -0.000190299295 -0.000233038532</_>
    <_>
      0.559402883 -3.83163166 -0.00453929324 -0.0415007286 -0.0001642891
      -0.00966409221 -0.000343079708 -0.00139142328 -2.31801641e-06
      -1.21409812e-05 -2.80526734e-07 -8.3287181e-05 -0.000271663885
      -0.000160714684 5.71548414 1.55019367 -0.00192252931 1.29536963
      -0.000142416597 -0.000834054081 -0.000548231474 -0.00313150696
      0.189009696 -1.0947826e-05 0.834670603 2.69381809 -1.28815027e-05
      -4.81868301e-05 -1.3304706e-05 0.0437520854 -0.000159459116
      -0.00517928228 -0.000955868047 -8.63848618e-05 -0.000655275653
      -0.000236250227 -4.8746635e-05 -0.00798359886 -0.000168894825
      -0.000111094188 -0.000554136408 -0.00114442292 -0.000346002344
      -0.00244785519 -0.00153107243 -0.000303382432 2.43660355
      0.338226974 -0.0181817915 -0.00141174125 0.131086662
      -3.02154149e-06 -0.00717708888 3.25637031 -0.0180870984
      -0.045200441 -0.00263401237 0.363165706 -0.00330444379
      -0.000670368259 -0.000392300281 -0.000623516738 2.50955701
      -0.0098729413 -3.55452648e-05 -2.51144775e-05 -2.16485641e-05
      -0.00325252977 -0.00130124472 -0.000633582764 3.97088623
      -0.00136893464 -6.77409116e-05 -3.56000555e-06 -0.000954389689
      -1.72503242e-05 1.05541515 3.65626502 -0.00122925779
      -9.16161753e-06 -4.22801236e-07 -0.000222965507 2.06514764
      -0.0377711467 -0.000513150415 -0.00290745846 0.70259732
      -5.40449219e-06 -0.00594674563 -0.00475774705 -0.000344651606
      -0.00398578914 -0.00550922006 4.0336237 -0.0172511265
      -0.000611947267 -0.0149153862 -0.0041031125 -0.00178850919
      -5.14627136e-05 -0.00666348031 3.06831908 -1.2203235e-06
      -8.17574546e-05 -0.000936983794 4.19661474 -0.000100724035
      -2.87059138e-05 -0.000349883165 -0.00302224769 -0.00139584066
      -0.00112298341 -1.27716312e-05 -3.8327089e-05 -0.000479020207
      -7.82773498e-07 -1.80517941e-06 -0.000133027585 -3.32958116e-05
      -0.00634512771 -6.76294667e-06 -0.00510276854 -0.00051271246
      0.0307515264 -0.00839459244 -0.00221702736 -0.018371867
      -0.014177124 -0.00286026462 0.0631357133 0.18605864 -7.7489065e-05
      -6.1266117e-05 -0.000489412108 0.273785532 0.154751763
      -0.000185744793 0.560151219 -3.18790148e-06 0.323628068
      -0.000307608454 -0.000221139853 0.57872957 -0.00281506521
      -0.000811803329 -2.45610681e-05 -0.000190808205 -3.14596446e-06
      -3.1810871e-06 0.0560564399 0.0987139195 -0.00326263835
      0.0388356112 -1.36089466e-06 0.033671625 -4.43438512e-06
      0.0577830151 0.53656143 0.00655839592 0.172983631 -0.000855933351
      0.131548792 0.205569789 -3.81354293e-05 -0.000354231452
      0.0876013637 0.199194223 0.00700521842 -0.000231326456 0.230159879
      0.166488588 0.249606788 -0.00193803664 -0.000391086825
      -0.00146210368 0.252126962 -0.00119069952 -1.61419903e-05
      -0.00278322119 0.0341098681 -0.00329669518 -0.0025448387
      -0.00011592485 -3.43849115e-06 0.0675052553 -4.82953965e-07
      0.0600910261 0.12273477 -0.000209161633 -0.000419279095
      0.315276086 -0.000150108899 -9.47491644e-05 0.264236212
      0.00970241427 -0.000142875651 -3.95868337e-05 -3.76150019e-05
      -2.52675254e-05 -0.000247725984 -9.42122188e-06 -0.000107550128
      0.0825729594 -0.000677614589 0.0445320308 0.265337735
      -0.000119943186 -5.42697364e-07 -0.000193784363 -5.02278272e-05
      0.303165704 0.558542371 -2.44816056e-05 -0.000137692463
      -9.13506519e-05 -4.20293436e-05 -0.000482207106 0.00200445019
      0.0627661124 -0.000267893192 -0.000190300882 -0.000232919934</_>
    <_>
      0.548572004 -3.8410573 -0.00453683129 -0.0411416367 -0.00016068168
      -0.00969080627 -0.000331658666 -0.00146394654 -2.18361356e-06
      -1.18150501e-05 -2.85514545e-07 -8.16063766e-05 -0.000268081174
      -0.000161435644 5.66143274 1.58966506 -0.00188390666 1.35306036
      -0.000143814803 -0.000859685882 -0.00054841215 -0.0031185043
      0.183685362 -1.06446869e-05 0.91301614 2.73573041 -1.26041368e-05
      -4.80861236e-05 -1.32089908e-05 0.0994572639 -0.000160510288
      -0.00386640476 -0.000947921188 -8.6794782e-05 -0.000663975254
      -0.000242376133 -4.68653525e-05 -0.00820576306 -0.000162997181
      -0.000110164066 -0.00055184908 -0.00111605052 -0.000363409461
      -0.00211729249 -0.00148407393 -0.000307382783 2.45646405
      0.448734611 -0.0180517975 -0.00137399381 0.101339251
      -2.81643543e-06 -0.00713556912 3.2286129 -0.0181984212
      -0.0438890606 -0.00265559717 0.356551826 -0.0033377409
      -0.00067341706 -0.000355580036 -0.000602551387 2.55795074
      -0.0100494595 -3.74664669e-05 -2.430323e-05 -2.1195101e-05
      -0.00329138432 -0.0013054756 -0.000638028025 3.93919325
      -0.00138520426 -6.6286615e-05 -3.44298223e-06 -0.000992445159
      -1.70848343e-05 1.0980289 3.51952672 -0.00123033742 -8.8577508e-06
      -4.32098091e-07 -0.000216385379 2.09870195 -0.0374428257
      -0.000510352722 -0.00199491368 0.668219388 -5.35089339e-06
      -0.00584895117 -0.00472493982 -0.000338588288 -0.00390197919
      -0.00544285821 4.1595335 -0.0173212625 -0.000617587473
      -0.0142344153 -0.00410222914 -0.00181560905 -5.06685756e-05
      -0.00622576894 3.12852764 -1.22643587e-06 -7.95229207e-05
      -0.00093604211 4.20749044 -9.56983567e-05 -2.92508848e-05
      -0.000345440436 -0.00250534131 -0.00136469794 -0.00130675174
      -1.26570112e-05 -3.82812068e-05 -0.000469204242 -7.51737161e-07
      -1.72094326e-06 -0.000134091519 -3.32563795e-05 -0.00631144131
      -6.78220977e-06 -0.00504998397 -0.000500525464 0.0722993091
      -0.00841426849 -0.00220549502 -0.0187793504 -0.0139811747
      -0.00275874627 0.0753767639 0.178170577 -7.82773641e-05
      -6.14005767e-05 -0.000535805535 0.266447574 0.165643156
      -0.00018503418 0.573510051 -3.23930226e-06 0.323677301
      -0.000106872692 -0.000220648042 0.584043026 -0.00295861973
      -0.000703751575 -2.43903924e-05 -0.000191263069 -3.145439e-06
      -3.15864509e-06 0.0457575396 0.101874352 -0.00333409128
      0.0433792584 -1.34709751e-06 0.032675527 -4.39457062e-06
      0.0501904003 0.552591443 -4.14573406e-05 0.167752251
      -0.000877498882 0.108438715 0.209292904 -3.84967716e-05
      -0.000360537611 0.083446607 0.205100998 0.00589857623
      -0.000231348706 0.23908478 0.152959168 0.260689437 -0.00190113124
      -0.00034412177 -0.00144097896 0.250049829 -0.00119588233
      -1.59973315e-05 -0.0028382868 0.0394490138 -0.0034400383
      -0.00258299336 -0.000116331386 -3.42083217e-06 0.0803830624
      -4.77331412e-07 0.0719250813 0.129135892 -0.000209159945
      -0.000419329357 0.315322042 -0.000150107255 -9.47479857e-05
      0.264284968 0.00972814858 -0.000142874516 -3.95861462e-05
      -3.79477424e-05 -2.56282092e-05 -0.000247729535 -9.37517689e-06
      -0.000107554799 0.0826011002 -0.000677698757 0.0444766581
      0.265383184 -0.000119941717 -5.45042553e-07 -0.000193785294
      -5.04358468e-05 0.303283453 0.558677435 -2.44809908e-05
      -0.000138577292 -9.13489857e-05 -4.20286888e-05 -0.000482248957
      0.00202419423 0.0627834573 -0.000267906493 -0.000190299295
      -0.000233038532</_>
    <_>
      0.582841575 -3.71639681 -0.00476225046 -0.0447797775
      -0.00017005096 -0.0102011394 -0.000366239285 -0.00145353004
      -2.69904035e-06 -1.28216143e-05 -3.02510387e-07 -8.81262167e-05
      -0.00028093814 -0.000169160587 6.02310181 1.491745 -0.00201568659
      1.45296311 -0.000152275388 -0.000908823393 -0.000575737446
      -0.00333682774 0.177583501 -1.17819727e-05 0.742876232 2.73017359
      -1.28358115e-05 -4.95880231e-05 -1.3581438e-05 -0.00147390552
      -0.000164116558 -0.00564027298 -0.00103107328 -9.08160582e-05
      -0.000693979324 -0.000248001248 -5.17634944e-05 -0.00856323075
      -0.000174553745 -0.000116960495 -0.000536922133 -0.00126001902
      -0.000305742928 -0.00169071986 -0.00156358734 -0.000323083921
      2.73487329 0.321361214 -0.0187795162 -0.0015079875 0.119630173
      -3.2119342e-06 -0.00743176974 3.28000593 -0.0182585195
      -0.0503658317 -0.00280260434 0.11896091 -0.0035780021
      -0.000695532304 -0.000323024869 -0.00066850509 2.55881906
      -0.0126317926 -3.70846901e-05 -2.49050154e-05 -2.27914916e-05
      -0.00348437205 -0.00136338966 -0.000644874235 4.11420536
      -0.00151514634 -7.09902597e-05 -3.39766893e-06 -0.00100011833
      -1.7459628e-05 1.01375413 3.89929628 -0.00129429775
      -9.38496487e-06 -3.90983729e-07 -0.000233215833 2.31822586
      -0.0400088094 -0.000540301087 -0.00365918805 0.385130942
      -5.92751121e-06 -0.00604643114 -0.00490249647 -0.00036181364
      -0.00398430927 -0.00549393659 4.04732704 -0.0177804846
      -0.000620739651 -0.0159994643 -0.00444266386 -0.00186940038
      -5.5047869e-05 -0.00659860112 3.07588363 -1.31063177e-06
      -9.05716151e-05 -0.000945130887 4.29357958 -0.000109939268
      -2.95270384e-05 -0.000379318168 -0.00474074716 -0.00146699452
      -0.00154456345 -1.37141751e-05 -3.44590699e-05 -0.000531574537
      -7.65368384e-07 -1.90434946e-06 -0.000130700646 -3.43044849e-05
      -0.00659334287 -7.23077892e-06 -0.00537329772 -0.000556930667
      -2.47447933e-05 -0.00874022488 -0.00231340737 -0.0192080904
      -0.0157984179 -0.00261846138 0.0757910162 0.17136848
      -7.89836995e-05 -6.39676073e-05 -0.000941787614 0.232297897
      0.164114505 -0.000182213102 0.568890035 -3.29848513e-06
      0.313222289 -5.13864288e-05 -0.000216876229 0.563425541
      -0.00311760115 -0.000444859557 -2.44087842e-05 -0.000188859151
      -3.15905459e-06 -3.13988244e-06 0.0553495511 0.0947637111
      -0.00354875741 0.0609162711 -1.35034782e-06 0.0207565576
      -4.41966995e-06 0.0298245698 0.561424375 -0.000174653454
      0.144901589 -0.000893706747 0.100714728 0.215945944 -3.860793e-05
      -0.000363303407 0.0660432056 0.180814773 0.00924180821
      -0.000233078186 0.243432313 0.157983661 0.307914466 -0.00185374706
      0.00324411318 -0.00130058161 0.240032658 -0.00118092692
      -1.60124346e-05 -0.00283239619 0.0887631401 -0.00361869088
      -0.00257656327 -0.000114814764 -3.44478485e-06 0.106127568
      -4.78491813e-07 0.0660399497 0.152735487 -0.000209161692
      -0.000419291697 0.315276623 -0.000150108463 -9.4748837e-05
      0.264243931 0.00971549377 -0.00014287536 -3.95866373e-05
      -3.75862401e-05 -2.52870468e-05 -0.000247727992 -9.16149475e-06
      -0.000107551365 0.0825854391 -0.000677640841 0.0444974788
      0.265340447 -0.000119942808 -5.43112378e-07 -0.000193785221
      -5.01024333e-05 0.30321607 0.558581352 -2.4481431e-05
      -0.000138084957 -9.1350179e-05 -4.20291544e-05 -0.00048222288
      0.00201443769 0.0627696142 -0.000267897762 -0.000190300867
      -0.000232965089</_>
    <_>
      0.614577353 -3.50283861 -0.00446431199 -0.0415307283
      -0.000150348584 -0.00958086364 -0.00035528763 -0.001368433
      -2.26156203e-06 -1.22184683e-05 -2.89027128e-07 -7.89282567e-05
      -0.000262233865 -0.000153279791 5.57839298 1.19186485
      -0.00191220641 1.71341765 -0.000141416487 -0.00086012244
      -0.000529743964 -0.00313253375 0.136442959 -1.07393817e-05
      0.549104691 2.37530947 -1.2323464e-05 -4.53224347e-05
      -1.28739321e-05 0.21639964 -0.000157612842 -0.00518129813
      -0.000918582664 -8.46865005e-05 -0.000665777712 -0.000242023132
      -4.57080641e-05 -0.00690595992 -0.000152428038 -0.000113661699
      -0.000515885476 -0.00113265216 -0.000313302793 -0.00214853836
      -0.00155737996 -0.000288341602 2.85593677 0.311166584
      -0.0175042432 -0.00135287829 0.116295338 -3.1137256e-06
      -0.00716909114 3.18682957 -0.0171754863 -0.0441897996
      -0.00256913714 0.293596834 -0.00330555253 -0.000684861618
      -0.000369051326 -0.000628669688 2.22817206 -0.0129412496
      -3.73786133e-05 -2.4223742e-05 -1.93337819e-05 -0.00336622377
      -0.00121668831 -0.000655315293 3.89165354 -0.0014184959
      -6.77051721e-05 -3.27377256e-06 -0.000979518867 -1.65914807e-05
      0.71713388 3.49146271 -0.0012462684 -8.65958646e-06
      -3.34714713e-07 -0.000232798309 2.17718959 -0.0369404927
      -0.000503505406 -0.0026540237 0.61429733 -5.4574607e-06
      -0.00583961373 -0.00494196592 -0.000331119489 -0.00393202715
      -0.00544683542 3.56728911 -0.0165151972 -0.000601623731
      -0.0139772259 -0.00416650949 -0.00173808716 -4.74633234e-05
      -0.0063772141 2.71628642 -1.17953948e-06 -8.22399015e-05
      -0.000933436793 4.39516115 -9.67715387e-05 -2.88875344e-05
      -0.000334166631 -0.00188940461 -0.00138782035 -0.00131632457
      -1.28400043e-05 -3.33550815e-05 -0.000478130009 -7.24968515e-07
      -1.73665796e-06 -0.000120528413 -3.2939075e-05 -0.00603831979
      -6.55784152e-06 -0.00518686511 -0.000467321312 -0.00215322943
      -0.00858486537 -0.00196768437 -0.0186990835 -0.0165662281
      -0.00245485385 0.0644965246 0.211908579 -7.57322923e-05
      -6.40270227e-05 -0.00071859028 0.336920381 0.126355678
      -0.000185046345 0.563057005 -2.97599513e-06 0.323367417
      0.0126731321 -0.000224417017 0.571999371 -0.00243197335
      -0.00127815048 -2.48188917e-05 -0.000181808267 -3.01836849e-06
      -3.14413273e-06 0.0535158962 0.0814819485 -0.00264429254
      0.0310818218 -1.37608322e-06 0.00536828488 -4.48750779e-06
      0.093258664 0.540148258 0.0170308873 0.220239997 -0.000784005155
      0.12263824 0.248097971 -3.58838806e-05 -0.000353322393 0.070522584
      0.179668218 0.0206328519 -0.00022492533 0.252493113 0.140858859
      0.241823062 -0.00186575856 -0.000336622034 -0.00232735206
      0.291897893 -0.00118870533 -1.64584762e-05 -0.00273187249
      0.0338545218 -0.00268859626 -0.00253661559 -0.000113863047
      -3.41606233e-06 0.035158962 -4.91430853e-07 0.00857651234
      0.114475906 -0.000209160833 -0.000419338379 0.315301836
      -0.000150106935 -9.47476874e-05 0.264282584 0.00975077972
      -0.000142874313 -3.95859643e-05 -3.77212455e-05 -2.55149589e-05
      -0.00024773294 -8.71140492e-06 -0.000107555898 0.0826212019
      -0.000677726755 0.0444107205 0.265368938 -0.000119941411
      -5.45003559e-07 -0.000193787069 -5.00107162e-05 0.303361923
      0.558717191 -2.44808252e-05 -0.000139208511 -9.13485492e-05
      -4.20284996e-05 -0.000482269912 0.0020414535 0.0627848357
      -0.000267912052 -0.000190300008 -0.000233102168</_>
    <_>
      0.577897012 -3.44336128 -0.00456584245 -0.0416720398
      -0.000153674482 -0.00973679405 -0.000353812939 -0.00138721406
      -2.22033691e-06 -1.21080166e-05 -2.91089577e-07 -7.92533247e-05
      -0.00026126072 -0.000156868438 5.62945747 1.17120695
      -0.00193116686 1.71645343 -0.000140181233 -0.000858041341
      -0.000532387174 -0.00319753471 0.123512045 -1.05357858e-05
      0.531002641 2.35056829 -1.22147221e-05 -4.58777795e-05
      -1.28654647e-05 0.174123496 -0.000160361582 -0.005635384
      -0.000937214412 -8.51436198e-05 -0.000672514958 -0.000243055169
      -4.54736219e-05 -0.00754171424 -0.000153297151 -0.000114339644
      -0.000511499238 -0.00115589297 -0.000322734064 -0.00234588538
      -0.00157378637 -0.000296027458 2.89771819 0.306413502
      -0.0184641257 -0.00137779082 0.120957583 -3.03121783e-06
      -0.00725325197 3.16586161 -0.0171288457 -0.044822 -0.00262102298
      0.274807364 -0.00338251353 -0.000687159481 -0.000379829842
      -0.000634512282 2.20505548 -0.0132946884 -3.6887981e-05
      -2.41697326e-05 -1.9281606e-05 -0.00341558899 -0.00122704986
      -0.00064627867 3.8532238 -0.00142427429 -6.75905976e-05
      -3.31122078e-06 -0.000977350399 -1.62291453e-05 0.696497262
      3.52791572 -0.0012641598 -8.65829134e-06 -3.35978143e-07
      -0.000235907544 2.13472915 -0.0367587097 -0.000510954007
      -0.00287422002 0.638444662 -5.52129904e-06 -0.00596446963
      -0.00500453636 -0.000337609818 -0.00395234395 -0.00543961395
      3.53299117 -0.0166400522 -0.00060618826 -0.0138242561
      -0.00420814473 -0.00175069831 -4.70254854e-05 -0.00636936584
      2.67515945 -1.15986222e-06 -8.17244727e-05 -0.000940090569
      4.39948368 -9.70167021e-05 -2.87465027e-05 -0.00034367363
      -0.00335710216 -0.00140381232 -0.000999302953 -1.26375253e-05
      -3.38749414e-05 -0.000481796393 -7.37092591e-07 -1.73883359e-06
      -0.000120989382 -3.3728229e-05 -0.00612064218 -6.71851194e-06
      -0.00520464033 -0.00047265258 -0.00234110001 -0.00852636714
      -0.00202746713 -0.0187439397 -0.0168666486 -0.00237119291
      0.0647761747 0.212567523 -7.60350013e-05 -6.41551596e-05
      -0.000906481699 0.328829229 0.119717985 -0.000183406592 0.5715729
      -3.01097339e-06 0.321439505 0.00464702398 -0.000223251685
      0.568771064 -0.00267496915 -0.00117640093 -2.47607568e-05
      -0.000181376861 -3.01814612e-06 -3.12549605e-06 0.0451435074
      0.0830989331 -0.00274969428 0.0325553678 -1.37185248e-06
      0.0030830577 -4.47745288e-06 0.0896099061 0.550195754 0.0104701519
      0.213128552 -0.000816492946 0.115377381 0.24808307 -3.59124169e-05
      -0.000354422198 0.0722322538 0.178683668 0.0245655887
      -0.000227040189 0.261748224 0.140689 0.254464328 -0.00187424629
      -0.000289011339 -0.00227366504 0.302560508 -0.00118388899
      -1.64266803e-05 -0.0027579735 0.0304040238 -0.00268126628
      -0.00254227268 -0.000113017857 -3.41123427e-06 0.0550034754
      -4.89475326e-07 0.00487717241 0.118640408 -0.000209160833
      -0.000419338379 0.315301836 -0.000150106935 -9.47476874e-05
      0.264282584 0.00975077972 -0.000142874313 -3.95859643e-05
      -3.77212455e-05 -2.55149589e-05 -0.00024773294 -8.71140492e-06
      -0.000107555898 0.0826212019 -0.000677726755 0.0444107205
      0.265368938 -0.000119941411 -5.45003559e-07 -0.000193787069
      -5.00107162e-05 0.303361923 0.558717191 -2.44808252e-05
      -0.000139208511 -9.13485492e-05 -4.20284996e-05 -0.000482269912
      0.0020414535 0.0627848357 -0.000267912052 -0.000190300008
      -0.000233102168</_>
    <_>
      0.321392119 -3.73418427 -0.00452655973 -0.0392324924
      -0.000160486801 -0.00977811031 -0.000336366735 -0.00148475834
      -2.23937172e-06 -1.16974288e-05 -2.76908224e-07 -8.20059431e-05
      -0.000272964069 -0.000163663572 5.57122803 1.68091524
      -0.00191809773 1.11578202 -0.000139340147 -0.000858598505
      -0.000529771147 -0.00311350403 0.210032791 -1.08818895e-05
      0.99421376 2.83032393 -1.24699272e-05 -4.73654727e-05
      -1.3134837e-05 -0.000921567203 -0.000162996555 -0.00288447761
      -0.000963961706 -8.60907603e-05 -0.000654766744 -0.00023497238
      -4.80367125e-05 -0.00667143334 -0.000167263337 -0.000108896791
      -0.000539508823 -0.00112927007 -0.00034687508 -0.00243383273
      -0.00148473948 -0.000306586764 2.17864633 0.550866365
      -0.0179155469 -0.00140687835 0.110050395 -2.92859272e-06
      -0.00714617828 3.01554918 -0.0177213177 -0.0430292785
      -0.00265313103 0.273598105 -0.00331063848 -0.000725264254
      -0.000377249089 -0.000598716142 2.59531999 -0.00864798762
      -3.57227145e-05 -2.51225756e-05 -2.06763598e-05 -0.00333604659
      -0.00129947765 -0.000599213992 3.87413883 -0.00136509771
      -6.54725882e-05 -3.37994447e-06 -0.00095555291 -1.67667167e-05
      1.17606235 3.55283284 -0.00123855821 -8.79403979e-06
      -4.21292015e-07 -0.000214855245 1.85435486 -0.0354297385
      -0.000499773887 -0.00178228528 0.728024185 -5.32550666e-06
      -0.00598877529 -0.00474874023 -0.000344126223 -0.00393807935
      -0.00525565958 4.2697258 -0.01745997 -0.000597202335 -0.0130825527
      -0.00414752075 -0.00180292269 -5.03670963e-05 -0.00658268295
      3.16942239 -1.20762309e-06 -7.83202559e-05 -0.00090470782
      3.86776042 -9.5692696e-05 -2.88563733e-05 -0.000343072519
      -0.00399512984 -0.00137410965 -0.00149777555 -1.22292649e-05
      -3.92116381e-05 -0.000485216529 -7.97730934e-07 -1.69166822e-06
      -0.000136005488 -3.37010606e-05 -0.00639518956 -6.87118381e-06
      -0.00499379775 -0.000511218852 0.187952489 -0.00833015796
      -0.00216887961 -0.0184487924 -0.0130437482 -0.00272809714
      0.0854636878 0.16310887 -7.84938675e-05 -6.34193784e-05
      -0.00079730642 0.264038295 0.166489214 -0.000183586002 0.568292856
      -3.24314942e-06 0.308502734 -8.49092758e-05 -0.000217698675
      0.555245578 -0.00297397329 -0.000658499892 -2.46363834e-05
      -0.000188705002 -3.16286878e-06 -3.18338539e-06 0.0390774384
      0.0931961387 -0.00318497862 0.0668345541 -1.36647805e-06
      0.0230780169 -4.46245986e-06 0.0537955016 0.53927052
      -7.24104029e-05 0.170488819 -0.00087679713 0.0993966311 0.2118963
      -3.85536696e-05 -0.000358760648 0.0750033706 0.196992636
      0.0246271826 -0.000229230893 0.257311851 0.133412778 0.248607576
      -0.0017510152 -0.000344186468 -0.00138894853 0.264632881
      -0.00116694486 -1.61759162e-05 -0.00277133938 0.0536694303
      -0.00328331604 -0.00252268184 -0.000114120819 -3.47323885e-06
      0.0930215716 -4.85315297e-07 0.0609304979 0.133627355
      -0.000209159945 -0.000419329357 0.315322042 -0.000150107255
      -9.47479857e-05 0.264284968 0.00972814858 -0.000142874516
      -3.95861462e-05 -3.79477424e-05 -2.56282092e-05 -0.000247729535
      -9.37517689e-06 -0.000107554799 0.0826011002 -0.000677698757
      0.0444766581 0.265383184 -0.000119941717 -5.45042553e-07
      -0.000193785294 -5.04358468e-05 0.303283453 0.558677435
      -2.44809908e-05 -0.000138577292 -9.13489857e-05 -4.20286888e-05
      -0.000482248957 0.00202419423 0.0627834573 -0.000267906493
      -0.000190299295 -0.000233038532</_>
    <_>
      0.275796711 -3.56830978 -0.00459171552 -0.039188318
      -0.000162634955 -0.00987017062 -0.000340768078 -0.00148772087
      -2.27608098e-06 -1.17144273e-05 -2.77613509e-07 -8.23993614e-05
      -0.000270801247 -0.000164817873 5.58392143 1.57168376
      -0.00193467794 1.18175709 -0.000139380791 -0.000847261806
      -0.000535497675 -0.00316169974 0.201293588 -1.09970397e-05
      0.899928868 2.71855283 -1.22791434e-05 -4.76152891e-05
      -1.3245678e-05 -0.000917713915 -0.000165578997 -0.00322693191
      -0.000966795953 -8.66384216e-05 -0.000661857193 -0.00023360108
      -4.79346454e-05 -0.00697259046 -0.000167954058 -0.000110776251
      -0.000536760141 -0.00114512281 -0.000346776302 -0.00244471361
      -0.00149909081 -0.000307752605 2.24409199 0.538830042
      -0.0186264757 -0.00142539886 0.111582994 -2.94134065e-06
      -0.00720322039 2.96663952 -0.0175464805 -0.043469537
      -0.00268297992 0.253979772 -0.0033632603 -0.000740132469
      -0.000385337364 -0.000611104362 2.51031375 -0.00945122726
      -3.53512005e-05 -2.52549398e-05 -2.05920915e-05 -0.00337388297
      -0.00129347946 -0.000588626601 3.86028528 -0.00137612468
      -6.61359445e-05 -3.43177089e-06 -0.000953330542 -1.62443885e-05
      1.07977688 3.56037283 -0.00126168283 -8.70747226e-06
      -4.31479606e-07 -0.000222210394 1.84151661 -0.0352893397
      -0.000504422875 -0.00188492739 0.754198372 -5.42077169e-06
      -0.00604005577 -0.00482444325 -0.000348476286 -0.00398127176
      -0.00521571375 4.09162998 -0.0174322315 -0.000595144345
      -0.0130429612 -0.00420080964 -0.00181270135 -5.07464902e-05
      -0.00657516206 3.04422402 -1.19509843e-06 -7.79079419e-05
      -0.000904803979 3.9116168 -9.60375837e-05 -2.85830483e-05
      -0.000346797169 -0.00480361795 -0.0013979791 -0.00117349066
      -1.21788844e-05 -3.96853102e-05 -0.000489022699 -7.89585215e-07
      -1.67615383e-06 -0.000135321548 -3.42828898e-05 -0.00639522821
      -6.9463681e-06 -0.00507078506 -0.00051101495 0.114355713
      -0.00831243768 -0.00218501175 -0.0183812156 -0.0136872455
      -0.00266603311 0.0887128338 0.173163414 -7.76969609e-05
      -6.48945497e-05 -0.000830039382 0.298957407 0.141132787
      -0.000182343152 0.564048767 -3.16213527e-06 0.313258588
      0.0194160119 -0.000214865024 0.568954945 -0.00277013215
      -0.000724404876 -2.47404441e-05 -0.000180608884 -3.093337e-06
      -3.15527541e-06 0.0485103168 0.0836086273 -0.00286207045
      0.0740118623 -1.37382972e-06 0.00865225494 -4.5028869e-06
      0.0396554619 0.546682835 0.00373209268 0.183957174 -0.000858391868
      0.0902111381 0.25485158 -3.73205039e-05 -0.000358753168
      0.0794101655 0.191955954 0.020660948 -0.000222561619 0.267204851
      0.107386917 0.259304166 -0.00175027573 -4.78516886e-05
      -0.00192293373 0.292586684 -0.00117127108 -1.63548393e-05
      -0.0027427082 0.0614527687 -0.00297468062 -0.00252141058
      -0.000112728289 -3.4730715e-06 0.0982309282 -4.90307798e-07
      0.0329661667 0.137288913 -0.00020915817 -0.000419406075 0.31537205
      -0.000150104723 -9.47461376e-05 0.264351726 0.00978056341
      -0.00014287277 -3.95850548e-05 -3.82547078e-05 -2.60552006e-05
      -0.000247736898 -8.83500979e-06 -0.000107562155 0.0826551467
      -0.000677836244 0.0443513952 0.265436769 -0.000119939446
      -5.4829286e-07 -0.000193787841 -5.04246709e-05 0.303505272
      0.558895528 -2.44800158e-05 -0.000140275733 -9.13463518e-05
      -4.20276301e-05 -0.000482322328 0.0020643454 0.0628089011
      -0.000267929048 -0.000190297607 -0.00023325067</_>
    <_>
      0.596386492 -3.37457538 -0.00438579684 -0.0416681282
      -0.000149253479 -0.00954167265 -0.000343027728 -0.00134250836
      -2.17734919e-06 -1.21369349e-05 -2.96372889e-07 -7.68280224e-05
      -0.00025687262 -0.000151251908 5.56480455 1.10067379
      -0.00189314317 1.84775376 -0.000136377872 -0.00085716974
      -0.000505515956 -0.00306907413 0.141080797 -1.04773617e-05
      0.483909935 2.29021025 -1.19388833e-05 -4.58095928e-05
      -1.24592607e-05 0.201734573 -0.000157017799 -0.00563666318
      -0.00090831815 -8.16192842e-05 -0.000649938709 -0.000244762021
      -4.47901148e-05 -0.00685980171 -0.000147080369 -0.000112493588
      -0.000492470921 -0.00110904174 -0.0003146081 -0.00225556316
      -0.0015923446 -0.000292448065 2.99853015 0.33496815 -0.0178105999
      -0.00131762098 0.141258672 -3.00516081e-06 -0.00716925738
      3.16720772 -0.0167552643 -0.0432916209 -0.00251662871 0.263371587
      -0.00322702341 -0.000708899985 -0.000379864912 -0.000609003706
      2.15973163 -0.0133528085 -3.75440104e-05 -2.37610184e-05
      -1.9091729e-05 -0.00332190725 -0.0011834068 -0.000644541054
      3.83774066 -0.00141028711 -6.59416473e-05 -3.03543698e-06
      -0.000962706166 -1.60176132e-05 0.631656587 3.47169328
      -0.00123703526 -8.69688847e-06 -3.27158119e-07 -0.000224601521
      2.11561823 -0.03667216 -0.000485018158 -0.00230965181 0.716595829
      -5.24081406e-06 -0.00585382944 -0.00510050775 -0.000320411345
      -0.00387233659 -0.00545465993 3.4118166 -0.0162147805
      -0.000612812757 -0.0138243567 -0.00413302751 -0.00169764506
      -4.57406313e-05 -0.00630297279 2.60715938 -1.19153776e-06
      -8.00863563e-05 -0.000922863605 4.53678513 -9.45804059e-05
      -2.86944178e-05 -0.000326387701 -0.00353771565 -0.00135669159
      -0.000792861392 -1.23728087e-05 -3.24924549e-05 -0.000458545052
      -7.22665561e-07 -1.6961626e-06 -0.000118206903 -3.25779729e-05
      -0.00594916195 -6.52006975e-06 -0.00516016409 -0.000449358107
      -0.00260486058 -0.0087252995 -0.0018443357 -0.0188743584
      -0.0170884468 -0.00236601825 0.0575019941 0.190377772
      -7.58451424e-05 -6.3654843e-05 -0.0008335897 0.330970466
      0.119165152 -0.000188670077 0.567622662 -2.97191878e-06
      0.345247537 -0.000140364544 -0.000223273746 0.573919773
      -0.0024634013 -0.00143773435 -2.48658253e-05 -0.000182436619
      -3.06219181e-06 -3.18329626e-06 0.0308452174 0.0892639309
      -0.00261748512 0.0410283469 -1.38137591e-06 -9.17686484e-05
      -4.49917115e-06 0.0936574191 0.513944387 0.0386258513 0.223229513
      -0.000900044921 0.123525441 0.231138617 -3.67581852e-05
      -0.000356042699 0.0714138672 0.185305759 0.0490984879
      -0.000223702329 0.242395192 0.126248181 0.228589028 -0.00195551431
      -0.000487837213 -0.00215709955 0.292672992 -0.00119778537
      -1.65239544e-05 -0.00271555781 -1.61456319e-05 -0.00268691895
      -0.00252934219 -0.000113015376 -3.4377008e-06 0.0448170751
      -4.93222046e-07 -7.58543592e-07 0.111288175 -0.000209164878
      -0.000419039134 0.315171063 -0.000150116859 -9.47551016e-05
      0.264049202 0.00950854644 -0.000142881079 -3.95903553e-05
      -3.71892747e-05 -2.42742153e-05 -0.000247697724 -1.22616066e-05
      -0.000107526961 0.0823798105 -0.000677158823 0.0450176597
      0.265211046 -0.000119950375 -5.33318371e-07 -0.000193773449
      -5.10944046e-05 0.302378327 0.557838619 -2.44847724e-05
      -0.000131617853 -9.13591866e-05 -4.20327742e-05 -0.000481952506
      0.0018561352 0.0626911297 -0.000267816882 -0.000190304389
      -0.000232187638</_>
    <_>
      0.352521658 -3.2122612 -0.0045175273 -0.0357210562 -0.00016402443
      -0.00960763451 -0.000361213228 -0.00135343126 -2.18898981e-06
      -1.22941756e-05 -2.8208143e-07 -7.81343842e-05 -0.000261477602
      -0.000160703785 5.19706774 1.1768645 -0.00194429106 1.79909623
      -0.000142655699 -0.000882615452 -0.000544294133 -0.00319498405
      0.0591474026 -1.0878126e-05 0.600025892 2.2904563 -1.27518115e-05
      -4.58696813e-05 -1.36970866e-05 0.388467342 -0.000167447346
      -0.00623360602 -0.000921765168 -8.74484322e-05 -0.000659096288
      -0.000243811301 -4.61068375e-05 -0.00718946429 -0.00016614885
      -0.000112636364 -0.000577726867 -0.00114488194 -0.00036914213
      -0.00224718056 -0.00158857927 -0.000295345497 2.81727004
      0.48688072 -0.0178114586 -0.00137881772 0.0785262585
      -3.08963263e-06 -0.00724267866 2.73311186 -0.0176988076
      -0.0403708108 -0.00261013536 0.468095005 -0.00338293565
      -0.000719328295 -0.00042897879 -0.000637735415 2.17202663
      -0.0121056112 -3.7632366e-05 -2.69977281e-05 -1.96401652e-05
      -0.00342085096 -0.00122626172 -0.00064855133 3.62576628
      -0.00137557846 -7.07366635e-05 -3.67569578e-06 -0.000976954354
      -1.71246375e-05 0.734022975 3.11561871 -0.0012978767
      -8.63670084e-06 -4.69326068e-07 -0.000243807095 1.86837196
      -0.0317173675 -0.000511276128 -0.00127204589 0.903246582
      -5.25789892e-06 -0.00596536044 -0.00494275801 -0.000342769315
      -0.00408903835 -0.00546976924 3.5226109 -0.0169562101
      -0.000613439886 -0.0116479024 -0.00424736505 -0.00177640526
      -4.99833914e-05 -0.00653980346 2.68526793 -1.21103369e-06
      -8.36853942e-05 -0.000941550883 4.24678135 -9.59532481e-05
      -2.97368188e-05 -0.000337491074 -0.000374820607 -0.00143577764
      -0.00012259504 -1.35413829e-05 -4.44233374e-05 -0.000495473971
      -7.946241e-07 -1.66904147e-06 -0.000135112728 -3.45140579e-05
      -0.00606453838 -6.70501822e-06 -0.00510539534 -0.0004692683
      -0.0027426125 -0.00837289356 -0.00208675559 -0.0184100401
      -0.0152061097 -0.00268466352 0.0370274857 0.179305077
      -7.58071765e-05 -6.19945567e-05 -0.000680544064 0.325255871
      0.125304312 -0.00019465982 0.556386352 -2.99672683e-06 0.332612187
      -0.000303865003 -0.000225827869 0.558532894 -0.0024695727
      -0.00153607992 -2.49198056e-05 -0.000188303515 -3.15194802e-06
      -3.26010149e-06 0.0145859793 0.0959934145 -0.00258775195
      0.0110136233 -1.38592816e-06 0.0102675483 -4.4987496e-06
      0.112746172 0.491364568 0.0469265021 0.222416282 -0.000905555265
      0.152138859 0.192302734 -3.79539015e-05 -0.000354556629
      0.0601475015 0.188771456 0.0618008785 -0.000226261604 0.226293892
      0.14476949 0.189209998 -0.00203090929 -0.000743827783
      -0.00184420287 0.262127221 -0.00118328701 -1.6400847e-05
      -0.00269513577 -0.000259073742 -0.00278799818 -0.00251367083
      -0.000115136747 -3.45682724e-06 0.00505592301 -4.9406583e-07
      0.0120099597 0.0729054958 -0.0002091637 -0.000419119722
      0.315208554 -0.000150114181 -9.4753108e-05 0.264112711
      0.00957201049 -0.00014287926 -3.95891766e-05 -3.73524417e-05
      -2.46193249e-05 -0.000247707037 -1.13612041e-05 -0.000107534695
      0.0824432075 -0.000677311269 0.0448595956 0.265255302
      -0.000119947967 -5.36509333e-07 -0.000193776999 -5.08391458e-05
      0.302637398 0.558073163 -2.44837138e-05 -0.000133612528
      -9.13563272e-05 -4.20316283e-05 -0.000482037081 0.00190468691
      0.0627162904 -0.000267842261 -0.000190303137 -0.000232429593</_>
    <_>
      0.544882357 -3.4870615 -0.00485029165 -0.0419452786
      -0.000174322195 -0.0100578582 -0.000388787565 -0.00151930354
      -2.4570013e-06 -1.31706747e-05 -2.88917988e-07 -8.4526182e-05
      -0.00028490246 -0.000166569313 6.02311134 1.1480639 -0.00210784376
      1.67613363 -0.000151948174 -0.000950203685 -0.00057850749
      -0.00350224902 0.0517162234 -1.13857823e-05 0.437949359 2.35468578
      -1.26910099e-05 -4.85689598e-05 -1.41998316e-05 0.12251994
      -0.000173366789 -0.0082973931 -0.000964448962 -8.72935125e-05
      -0.000713378831 -0.000245826755 -4.9409151e-05 -0.00796033349
      -0.000166108599 -0.000129207707 -0.000603477063 -0.00120583468
      -0.000336020283 -0.00189715461 -0.001736618 -0.000313979865
      2.92393517 0.302845418 -0.0206763651 -0.00147207745 0.0842950046
      -3.29991144e-06 -0.00781328324 3.26417851 -0.0191453863
      -0.0492362157 -0.00276446482 0.175805956 -0.00364991347
      -0.000745511614 -0.000369479618 -0.000715032278 2.27441287
      -0.0154315075 -3.67514367e-05 -2.73396654e-05 -2.16728622e-05
      -0.00360481464 -0.00129963353 -0.000667039363 4.1519928
      -0.00147089676 -7.85217708e-05 -3.8817916e-06 -0.000984361628
      -1.77968122e-05 0.687423587 3.87144709 -0.00139273459
      -9.33544379e-06 -3.5319519e-07 -0.000258510961 2.06086993
      -0.0369649939 -0.000573457859 -0.00412917091 0.370337546
      -5.9043673e-06 -0.0061883661 -0.00522894273 -0.000364685286
      -0.00444516493 -0.00571512152 3.52446103 -0.017720541
      -0.000589909207 -0.0144811757 -0.00451423088 -0.00190491253
      -4.91208375e-05 -0.00677904254 2.76255083 -1.22662277e-06
      -8.86470589e-05 -0.000957203214 4.37816954 -0.000104099614
      -3.03648521e-05 -0.000357382116 -0.000247834978 -0.00156418933
      0.00172608532 -1.41241981e-05 -3.80076854e-05 -0.000498133537
      -7.57858061e-07 -1.78756329e-06 -0.000130472006 -3.6829977e-05
      -0.00644214498 -6.90459137e-06 -0.00560102938 -0.000489674218
      -0.00378896552 -0.00891437009 -0.00230838894 -0.0187890008
      -0.0180882849 -0.00288203685 0.081304647 0.146324798
      -7.88018297e-05 -6.53115858e-05 -0.000852556783 0.276563555
      0.173447192 -0.000186377438 0.563937664 -3.27695466e-06
      0.291496933 0.0204673931 -0.000212100174 0.546854794
      -0.00287589431 -0.000513638835 -2.46375894e-05 -0.000184611024
      -3.16534147e-06 -3.22380652e-06 0.0288779065 0.0751718432
      -0.00308486377 0.0363285802 -1.36951371e-06 0.0279803425
      -4.49348408e-06 0.0293253176 0.548877001 -5.83103283e-05
      0.159213543 -0.000875987753 0.115086049 0.211237922 -3.9313778e-05
      -0.000362266059 0.0515650585 0.17686832 0.00197677687
      -0.000223236842 0.252322316 0.133243486 0.271653473 -0.00168577069
      -0.000127665728 -0.00143330661 0.221880212 -0.00114833948
      -1.60029249e-05 -0.00276142941 0.061617665 -0.00340429065
      -0.00251727109 -0.000115066054 -3.4917764e-06 0.0836809203
      -4.8695432e-07 0.0707291886 0.113251701 -0.000209166436
      -0.000418976648 0.315127432 -0.000150118911 -9.47566004e-05
      0.263993561 0.00946748629 -0.000142882505 -3.95912393e-05
      -3.69086119e-05 -2.39066776e-05 -0.000247692078 -1.26372279e-05
      -0.000107520973 0.0823370814 -0.000677048462 0.045114547
      0.26516515 -0.000119952223 -5.30628597e-07 -0.000193771542
      -5.10566315e-05 0.302202791 0.55766207 -2.44855619e-05
      -0.000130275715 -9.13613185e-05 -4.20336328e-05 -0.00048189424
      0.0018246714 0.0626701117 -0.000267798809 -0.000190305873
      -0.000232018603</_>
    <_>
      0.257640928 -1.07020783 -0.00600179052 0.868141174 -0.000155138463
      -0.0105064446 -0.000484860589 -0.00137965835 -3.18057414e-06
      -1.43735306e-05 -3.40287187e-07 -8.79080981e-05 -0.000209129488
      -0.000197288638 0.958235502 0.285956323 -0.00256568613 1.91818583
      -0.000125012855 -0.000983785023 -0.000696185976 -0.00441805972
      -0.00537547097 -1.36296949e-05 0.335098267 1.17195189
      -1.01339519e-05 -5.00391143e-05 -1.62701308e-05 0.0017853193
      -0.000165931022 -0.0148733919 -0.000980473356 -0.00010389497
      -0.000712453329 -0.000229627069 -6.06254944e-05 -0.0109429071
      -0.000265392184 -0.000124759274 -0.000500570226 -0.00152139657
      -0.000442386401 -0.0034339081 -0.00138916308 -0.000462800032
      3.47250175 1.85920727 -0.00834303536 -0.00179527712 -0.00207957346
      -2.34675304e-06 -0.00807439443 -0.0182493832 -0.0139485113
      -0.0189738628 -0.00308882142 0.261886686 -0.00478071859
      -0.00060056959 -0.00066284166 -0.000845127332 1.14093924
      -0.013396549 -3.10040195e-05 -3.67273387e-05 -2.52300306e-05
      -0.00468834816 -0.00146819069 -0.000569977215 1.76532042
      -0.00173736969 -0.000102637612 -2.65409199e-06 -0.000911560841
      -1.61793123e-05 -0.00250851572 1.018659 -0.00158454955
      -9.04059561e-06 -9.41621749e-07 -0.000333135395 -0.00143727357
      1.55159235 -0.000507263991 0.418062508 -0.00706385169
      -7.37545361e-06 -0.00711351307 -0.0025401616 -0.000425850973
      -0.00446551805 -0.00490137376 1.88680124 -0.0158977341
      -0.000935969234 1.2742871 -0.00550539419 -0.0021825619
      -7.43153651e-05 -0.00536869513 1.50017142 -1.24074245e-06
      -0.000107425585 -0.000882324413 2.04216003 -0.000125492632
      -2.87713574e-05 -0.000435035268 -0.00175143324 -0.00161407271
      -0.00173771242 -1.73594199e-05 -8.16575121e-05 -0.00093661662
      -6.32339209e-07 -2.66328266e-06 -0.000177646274 -4.45364822e-05
      -0.00675589731 -9.67099822e-06 -0.00414520316 -0.000692741305
      -0.0072044665 -0.00784671307 -0.00287963683 -0.0164633263
      -0.00881882943 -0.00152228517 0.0654097646 0.19930765
      -7.29340827e-05 -6.41543666e-05 -0.000542733062 0.351823032
      0.0807134584 -0.000192298627 0.521636784 -2.6864243e-06
      0.364778876 0.0599143878 -0.000224603151 0.450291157
      -0.00109936506 -0.0019741361 -2.59679e-05 -0.00017250044
      -2.92781738e-06 -3.31892102e-06 0.0593743399 0.0559636243
      -0.00202011014 0.0892861336 -1.45960075e-06 -0.000599696825
      -4.74789385e-06 0.135749832 0.392608404 0.0895026177 0.253417164
      -0.000702903082 0.129861027 0.24612166 -3.51193848e-05
      -0.000334809243 0.0562632605 0.138531178 0.112604186
      -0.000213879175 0.210112929 0.127385348 0.210178271 -0.00161763304
      -0.000476818852 -0.00231178966 0.282981724 -0.00120040018
      -1.7435721e-05 -0.00239468669 0.0541475192 -0.00258124573
      -0.00234530703 -0.000108791421 -3.55869156e-06 -0.000169799765
      -5.2745844e-07 -0.000329834351 0.0841790289 -0.000209163874
      -0.000419036136 0.315194696 -0.00015011699 -9.47552544e-05
      0.264056504 0.00949021056 -0.000142881137 -3.95904462e-05
      -3.74331321e-05 -2.4416222e-05 -0.000247695018 -1.28728152e-05
      -0.000107526444 0.0823640376 -0.000677142176 0.0450732037
