<?xml version="1.0"?>
<opencv_storage>
<opencv_ml_svm>
  <format>3</format>
  <svmType>EPS_SVR</svmType>
  <kernel>
    <type>RBF</type>
    <gamma>0.01</gamma></kernel>
  <C>1.</C>
  <p>0.001</p>
  <term_criteria><epsilon>0.001</epsilon>
    <iterations>3000</iterations></term_criteria>
  <var_count>221</var_count>
  <sv_total>124</sv_total>
  <support_vectors>
    <_>
      -0.424162447 -3.99201107 -0.00379351457 -0.0208656862
      -0.000112190421 -0.00764090568 -0.00028230442 -0.00133977912
      -1.50125413e-06 -1.13197075e-05 -2.46161278e-07 -5.98011211e-05
      -0.000222592105 -0.000120295495 3.38650775 2.48099542
      -0.00176133937 2.31455541 -0.000103707374 -0.00102322176
      -0.000426995859 -0.0028198834 0.128100395 -1.05871759e-05 2.060004
      3.63699079 -1.40903012e-05 -3.99097407e-05 -1.48552781e-05
      1.23273885 -0.000111310284 0.432788551 -0.000651594135
      -7.12958499e-05 -0.000545510149 -0.000263510417 -4.31273402e-05
      -0.00150525267 -0.000131771114 -0.000107950313 -0.000606967777
      -0.000819516776 -0.000313853205 -0.00310650701 -0.00136981963
      -0.000301074499 3.02002168 1.70565844 -0.00771972304
      -0.000950206129 0.0169597045 -2.42279521e-06 -0.00665938016
      2.02451849 -0.0183846466 -0.0293737445 -0.00194715185 0.519299328
      -0.00270061661 -0.000529528712 -0.000476135727 -0.000541749061
      3.05079055 -0.000182912714 -3.61642342e-05 -2.79185588e-05
      -1.92704974e-05 -0.00271207094 -0.00099424168 -0.000649013033
      2.83379364 -0.00117619906 -6.63484316e-05 -1.75784623e-06
      -0.000915217388 -1.95088669e-05 1.50536835 2.29107332
      -0.00108390825 -8.90538558e-06 -3.63964006e-07 -0.000186067904
      1.27913833 -0.0201682914 -0.000328823808 0.654058099 0.324715376
      -4.14677061e-06 -0.00456771581 -0.00404388644 -0.000246632611
      -0.00338214985 -0.00528375711 5.64422894 -0.0146703897
      -0.000732642424 -0.00324634789 -0.00361904874 -0.00148058555
      -3.97683471e-05 -0.00571584143 4.02963924 -1.49460925e-06
      -7.77251335e-05 -0.000856129569 3.8458066 -8.71222801e-05
      -3.13181918e-05 -0.000269437936 0.715087116 -0.00118484232
      -0.00269326125 -1.36236613e-05 -4.40523399e-05 -0.000386756728
      -7.15503973e-07 -1.91571485e-06 -0.000126091283 -2.99099156e-05
      -0.00554173766 -5.11317785e-06 -0.00412258785 -0.00035198353
      0.768291295 -0.00847688969 -0.00157930912 -0.0164759643
      -0.0040158527 -0.00223142304 0.0939285904 0.479921848
      -7.37649389e-05 -0.000115217343 -0.000259870576 0.490500838
      0.271475255 -0.000203613148 0.500532031 -2.08583083e-06
      0.053563416 -0.000951473485 -0.000231720129 0.48053816
      -0.00200521504 -0.000505115546 -2.13908625e-05 -0.000200842915
      -2.62939602e-06 -2.32882599e-06 0.359515667 -0.00279747625
      -0.0018415472 0.00801054761 -1.06631444e-06 -0.00101773033
      -3.6492786e-06 -0.00281130685 0.608332455 0.303982019 0.627779067
      -0.00182715664 0.238127157 0.293372065 -3.16512924e-05
      -0.000496027526 -0.00049105339 0.152225673 0.308938384
      -0.000404646678 0.231779665 0.817627072 0.377728254 -0.00371793238
      -0.00617717253 -0.000909331196 0.101146787 -0.00230452465
      -1.37311008e-05 -0.0039437497 -0.00189655484 -0.00334126409
      -0.00252629397 -0.000107475178 -2.53147118e-06 0.564217448
      -2.69837273e-07 -3.55950533e-07 0.065441817 0.46250245
      -0.000428961124 0.318374097 -0.000149760192 -9.44884814e-05
      0.270484686 0.016966898 -0.000142634337 -3.94363196e-05
      -3.04803252e-05 -4.55569461e-05 -0.000248980097 0.011548331
      -0.000108528038 0.0894900113 -0.000698460557 0.0262909532
      0.269505203 -0.000119628989 -9.385368e-07 -0.000194213164
      0.000435765833 0.332270384 0.58437258 -2.43446684e-05
      -0.000354329997 -9.09771625e-05 -4.18807103e-05 -0.0004934647
      0.00744581409 0.0650248602 -0.000270964578 -0.000262130692</_>
    <_>
      -0.730256975 -3.76553226 -0.00355121633 -0.0187371038
      -0.000124177852 -0.00732662482 -0.0002722762 -0.00126618124
      -1.64834341e-06 -1.10747742e-05 -2.45287708e-07 -6.08207192e-05
      -0.000226620818 -0.000119909579 3.0512991 2.46887517
      -0.00169159821 2.27579331 -0.000100721714 -0.00104316161
      -0.000397856551 -0.00269278302 0.115080565 -1.06630305e-05
      2.09771991 3.59325814 -1.4565936e-05 -4.00886674e-05
      -1.53163637e-05 1.25604355 -0.000107493535 0.55322063
      -0.000618039106 -7.1444505e-05 -0.000520176836 -0.000263138849
      -4.4301727e-05 -0.00143747788 -0.000142003744 -0.000104806597
      -0.000585748989 -0.000778296322 -0.00032878443 -0.00434800191
      -0.00138185592 -0.000296161656 2.91912651 1.81212831
      -0.00723247696 -0.000953172275 0.0236585736 -2.4401163e-06
      -0.00638455432 1.63785875 -0.0183009319 -0.02707587 -0.00181958452
      0.505902231 -0.00244621444 -0.000519628229 -0.000522182323
      -0.000521583075 2.9405582 0.18289417 -3.44451037e-05
      -2.81158591e-05 -2.0507634e-05 -0.00242531649 -0.000952373957
      -0.00061833614 2.60003853 -0.00113101164 -6.24644017e-05
      -1.8433509e-06 -0.000874354097 -1.89413495e-05 1.53795111
      2.22897315 -0.00102888164 -8.85170266e-06 -4.54226893e-07
      -0.00017288464 0.997466922 -0.0167653095 -0.000321351545
      0.68730545 0.423971057 -3.84674649e-06 -0.00450887205
      -0.00370891462 -0.00023516464 -0.00322040264 -0.00522763794
      5.59631062 -0.014384442 -0.000741239695 -0.00159832579
      -0.00343351089 -0.0014099835 -4.35963739e-05 -0.00583045511
      3.93266249 -1.56247302e-06 -7.63486969e-05 -0.000865337555
      3.54446912 -8.87796996e-05 -3.10586511e-05 -0.000262510381
      0.330551714 -0.0011472411 -0.00258288556 -1.33364956e-05
      -4.80706476e-05 -0.000385196647 -7.60681417e-07 -1.90912897e-06
      -0.000129659951 -2.84588004e-05 -0.0054577319 -4.89177091e-06
      -0.00375468959 -0.000368072244 0.816320956 -0.0084578041
      -0.00158191239 -0.0169456545 -0.00248481054 -0.002246822
      0.0864707977 0.469519168 -7.34421992e-05 -0.000114139817
      -0.000188239515 0.504189253 0.260371387 -0.000206255427 0.50535059
      -2.03781747e-06 0.0589684248 -0.000885192945 -0.000231297105
      0.488918394 -0.00190508808 -0.000615927856 -2.14176198e-05
      -0.000199367641 -2.60813158e-06 -2.34959225e-06 0.346566141
      -0.00276519824 -0.00179682462 0.0080245398 -1.07061703e-06
      -0.000981171615 -3.65655637e-06 -0.00281846477 0.610733628
      0.313127816 0.633722603 -0.00182702311 0.224654958 0.310342014
      -3.17117556e-05 -0.000498228066 -0.000453752931 0.158521742
      0.314630806 -0.000398753269 0.239462212 0.807269931 0.366015136
      -0.00376135902 -0.00613211608 -0.00102425925 0.101286918
      -0.0023072334 -1.375996e-05 -0.0039353813 -0.00196810509
      -0.00327038113 -0.00253084186 -0.000107906671 -2.53006351e-06
      0.549746275 -2.70268174e-07 -3.58243199e-07 0.0637936816
      0.455178976 -0.000428966538 0.318333149 -0.000149759566
      -9.44880012e-05 0.270463675 0.0169873461 -0.000142633886
      -3.94360723e-05 -2.9905661e-05 -4.51721971e-05 -0.000248983881
      0.0116388239 -0.00010853065 0.0895033479 -0.000698515621
      0.0262287706 0.269473732 -0.000119628428 -9.38460573e-07
      -0.000194214474 0.000511292368 0.332327574 0.5843817
      -2.43444265e-05 -0.000354715652 -9.09764203e-05 -4.18804339e-05
      -0.000493496249 0.00745969824 0.0650171712 -0.000270968827
      -0.000262204558</_>
    <_>
      -0.730256975 -3.76553226 -0.00355121633 -0.0187371038
      -0.000124177852 -0.00732662482 -0.0002722762 -0.00126618124
      -1.64834341e-06 -1.10747742e-05 -2.45287708e-07 -6.08207192e-05
      -0.000226620818 -0.000119909579 3.0512991 2.46887517
      -0.00169159821 2.27579331 -0.000100721714 -0.00104316161
      -0.000397856551 -0.00269278302 0.115080565 -1.06630305e-05
      2.09771991 3.59325814 -1.4565936e-05 -4.00886674e-05
      -1.53163637e-05 1.25604355 -0.000107493535 0.55322063
      -0.000618039106 -7.1444505e-05 -0.000520176836 -0.000263138849
      -4.4301727e-05 -0.00143747788 -0.000142003744 -0.000104806597
      -0.000585748989 -0.000778296322 -0.00032878443 -0.00434800191
      -0.00138185592 -0.000296161656 2.91912651 1.81212831
      -0.00723247696 -0.000953172275 0.0236585736 -2.4401163e-06
      -0.00638455432 1.63785875 -0.0183009319 -0.02707587 -0.00181958452
      0.505902231 -0.00244621444 -0.000519628229 -0.000522182323
      -0.000521583075 2.9405582 0.18289417 -3.44451037e-05
      -2.81158591e-05 -2.0507634e-05 -0.00242531649 -0.000952373957
      -0.00061833614 2.60003853 -0.00113101164 -6.24644017e-05
      -1.8433509e-06 -0.000874354097 -1.89413495e-05 1.53795111
      2.22897315 -0.00102888164 -8.85170266e-06 -4.54226893e-07
      -0.00017288464 0.997466922 -0.0167653095 -0.000321351545
      0.68730545 0.423971057 -3.84674649e-06 -0.00450887205
      -0.00370891462 -0.00023516464 -0.00322040264 -0.00522763794
      5.59631062 -0.014384442 -0.000741239695 -0.00159832579
      -0.00343351089 -0.0014099835 -4.35963739e-05 -0.00583045511
      3.93266249 -1.56247302e-06 -7.63486969e-05 -0.000865337555
      3.54446912 -8.87796996e-05 -3.10586511e-05 -0.000262510381
      0.330551714 -0.0011472411 -0.00258288556 -1.33364956e-05
      -4.80706476e-05 -0.000385196647 -7.60681417e-07 -1.90912897e-06
      -0.000129659951 -2.84588004e-05 -0.0054577319 -4.89177091e-06
      -0.00375468959 -0.000368072244 0.816320956 -0.0084578041
      -0.00158191239 -0.0169456545 -0.00248481054 -0.002246822
      0.0864707977 0.469519168 -7.34421992e-05 -0.000114139817
      -0.000188239515 0.504189253 0.260371387 -0.000206255427 0.50535059
      -2.03781747e-06 0.0589684248 -0.000885192945 -0.000231297105
      0.488918394 -0.00190508808 -0.000615927856 -2.14176198e-05
      -0.000199367641 -2.60813158e-06 -2.34959225e-06 0.346566141
      -0.00276519824 -0.00179682462 0.0080245398 -1.07061703e-06
      -0.000981171615 -3.65655637e-06 -0.00281846477 0.610733628
      0.313127816 0.633722603 -0.00182702311 0.224654958 0.310342014
      -3.17117556e-05 -0.000498228066 -0.000453752931 0.158521742
      0.314630806 -0.000398753269 0.239462212 0.807269931 0.366015136
      -0.00376135902 -0.00613211608 -0.00102425925 0.101286918
      -0.0023072334 -1.375996e-05 -0.0039353813 -0.00196810509
      -0.00327038113 -0.00253084186 -0.000107906671 -2.53006351e-06
      0.549746275 -2.70268174e-07 -3.58243199e-07 0.0637936816
      0.455178976 -0.000428966538 0.318333149 -0.000149759566
      -9.44880012e-05 0.270463675 0.0169873461 -0.000142633886
      -3.94360723e-05 -2.9905661e-05 -4.51721971e-05 -0.000248983881
      0.0116388239 -0.00010853065 0.0895033479 -0.000698515621
      0.0262287706 0.269473732 -0.000119628428 -9.38460573e-07
      -0.000194214474 0.000511292368 0.332327574 0.5843817
      -2.43444265e-05 -0.000354715652 -9.09764203e-05 -4.18804339e-05
      -0.000493496249 0.00745969824 0.0650171712 -0.000270968827
      -0.000262204558</_>
    <_>
      -0.686540127 -3.53652024 -0.00345931528 -0.0177618098
      -0.000113270289 -0.00715689454 -0.000272187928 -0.00125900283
      -1.59813976e-06 -1.10552273e-05 -2.40163757e-07 -5.86517526e-05
      -0.000226052522 -0.000114939859 2.95838428 2.35002208
      -0.00168351736 2.40984035 -9.80697369e-05 -0.00102589827
      -0.000390073692 -0.00264193886 0.0994105861 -1.03718576e-05
      2.00570774 3.46548581 -1.45561535e-05 -3.85525163e-05
      -1.52291741e-05 1.37446105 -0.000104998886 0.533221364
      -0.000586542068 -6.98403965e-05 -0.000516748405 -0.000256212836
      -4.21856093e-05 -0.000746399281 -0.000139019074 -0.000102753736
      -0.000579738291 -0.000748512219 -0.000319471437 -0.00420493074
      -0.00138407527 -0.000293894613 2.98933792 1.82011604
      -0.00613343157 -0.000913066557 0.014874666 -2.51677579e-06
      -0.0063598305 1.64178801 -0.0178529732 -0.0262450594 -0.001747931
      0.560895145 -0.00240456522 -0.000499311602 -0.000520070025
      -0.000519288296 2.84439254 0.109507926 -3.48177273e-05
      -2.78295229e-05 -1.95166958e-05 -0.00237989868 -0.000924036489
      -0.000628336449 2.5806756 -0.00111895159 -6.16712496e-05
      -1.81325197e-06 -0.000877667568 -1.87779624e-05 1.41690958
      2.12985563 -0.00102005794 -8.64642607e-06 -4.32914419e-07
      -0.000175993759 1.04622519 -0.016443124 -0.000314784644
      0.713207066 0.422410846 -3.7360594e-06 -0.00439000735
      -0.00367639028 -0.000228573525 -0.00318148197 -0.00521362666
      5.39856911 -0.0139381886 -0.000727248553 -0.00134096364
      -0.00339265703 -0.00138542557 -4.24667269e-05 -0.00571195129
      3.81409144 -1.5486462e-06 -7.61589326e-05 -0.000849504664
      3.58579683 -8.55914404e-05 -3.03890301e-05 -0.000248816563
      0.465630144 -0.00111912587 -0.00266916561 -1.35323417e-05
      -4.71035164e-05 -0.000361086131 -7.45330624e-07 -1.86129205e-06
      -0.000124712664 -2.79436281e-05 -0.00529873837 -4.71648218e-06
      -0.00376486778 -0.000342964195 0.721407473 -0.00829747505
      -0.00145659246 -0.0166188814 -0.00299058668 -0.00216123345
      0.0865639001 0.472375423 -7.35284339e-05 -0.000114016279
      -0.000190051869 0.499624014 0.267935216 -0.000205100441
      0.513166308 -2.05489755e-06 0.0591153949 -0.000955867989
      -0.00023236881 0.488531142 -0.00196265453 -0.000674466311
      -2.14013562e-05 -0.000200762341 -2.60808383e-06 -2.33187825e-06
      0.347058505 -0.00274453405 -0.00185641041 0.00754955038
      -1.06793243e-06 -0.00103659171 -3.64349398e-06 -0.00275776698
      0.61457181 0.305568695 0.633820713 -0.00182662322 0.216826826
      0.304036528 -3.16685037e-05 -0.000497786386 -0.00048126615
      0.15835619 0.310619533 -0.000400622695 0.237302616 0.80649972
      0.371703118 -0.00374936475 -0.00609054836 -0.00106996053
      0.10661912 -0.00230221543 -1.37444049e-05 -0.0039435518
      -0.00200029812 -0.00329244509 -0.0025384766 -0.000108257336
      -2.52800987e-06 0.545086384 -2.69183914e-07 -3.5665056e-07
      0.0679534078 0.453822047 -0.000428966538 0.318333149
      -0.000149759566 -9.44880012e-05 0.270463675 0.0169873461
      -0.000142633886 -3.94360723e-05 -2.9905661e-05 -4.51721971e-05
      -0.000248983881 0.0116388239 -0.00010853065 0.0895033479
      -0.000698515621 0.0262287706 0.269473732 -0.000119628428
      -9.38460573e-07 -0.000194214474 0.000511292368 0.332327574
      0.5843817 -2.43444265e-05 -0.000354715652 -9.09764203e-05
      -4.18804339e-05 -0.000493496249 0.00745969824 0.0650171712
      -0.000270968827 -0.000262204558</_>
    <_>
      -0.576690197 -3.69233155 -0.00359837245 -0.0192031786
      -0.000121103767 -0.00746158324 -0.000280990935 -0.00130132609
      -1.63021627e-06 -1.12861962e-05 -2.50965684e-07 -6.08999726e-05
      -0.000232526203 -0.000119025302 3.12715554 2.45663142
      -0.00172945322 2.41230893 -0.000101149068 -0.0010685256
      -0.000404851162 -0.00272971229 0.114792496 -1.07757869e-05
      2.07919002 3.59949398 -1.47915725e-05 -4.04267157e-05
      -1.55506532e-05 1.36822951 -0.000109247274 0.550329566
      -0.000621357176 -7.13000118e-05 -0.000533318729 -0.000266405928
      -4.39448595e-05 -0.00107806502 -0.000139331925 -0.000107285043
      -0.000590104435 -0.000780640228 -0.000329843606 -0.00403428823
      -0.00141367363 -0.000300364743 3.04508448 1.81523347
      -0.00689809257 -0.000945881009 0.0189113989 -2.57031434e-06
      -0.00654246844 1.79052675 -0.0185450073 -0.0276593268
      -0.00183881179 0.511998236 -0.00249564648 -0.000522151182
      -0.000515503925 -0.000531042751 2.96481919 0.100542754
      -3.58448451e-05 -2.8426095e-05 -2.02399387e-05 -0.00251718936
      -0.000959397759 -0.000637815509 2.66378999 -0.00116617733
      -6.35910255e-05 -1.88264278e-06 -0.00089753163 -1.92351308e-05
      1.50396669 2.19780564 -0.00105233188 -9.00892246e-06
      -4.11790097e-07 -0.000180225106 1.1536032 -0.0178970825
      -0.000322352542 0.715799212 0.403177261 -3.92286029e-06
      -0.00444410369 -0.00384360296 -0.000236418797 -0.00329453452
      -0.0053699445 5.59811592 -0.0145426523 -0.000734424801
      -0.00210039178 -0.00351870968 -0.0014418537 -4.24199716e-05
      -0.00584722823 3.9525249 -1.56404883e-06 -7.75946683e-05
      -0.000873687852 3.70313644 -8.97859645e-05 -3.17008198e-05
      -0.000258995598 0.469268888 -0.00115725154 -0.0026587164
      -1.38375626e-05 -4.65339181e-05 -0.000376543729 -7.62694185e-07
      -1.93920778e-06 -0.000128722095 -2.90453954e-05 -0.00549509097
      -4.90484535e-06 -0.00391238742 -0.000360456324 0.777617633
      -0.00856529735 -0.0015425263 -0.017027488 -0.00324258907
      -0.00229682191 0.0865442008 0.468344361 -7.37212104e-05
      -0.000114496572 -0.000337093923 0.493371546 0.266367733
      -0.000203607604 0.499559075 -2.09278278e-06 0.0648683608
      -0.00103602081 -0.000233377505 0.48499766 -0.00205315766
      -0.000504457217 -2.14603951e-05 -0.00020201919 -2.63737866e-06
      -2.3311768e-06 0.350545168 -0.00284597208 -0.00184114603
      0.00604785606 -1.06604307e-06 -0.000989308464 -3.6405329e-06
      -0.00270289415 0.616232157 0.301788777 0.61853838 -0.00181564316
      0.228720263 0.294757336 -3.18486236e-05 -0.000496688706
      -0.000525126816 0.159754395 0.316449642 -0.000404568564
      0.234744549 0.808276892 0.375191301 -0.00373809296 -0.00610209582
      -0.00102639012 0.110347509 -0.00228792662 -1.37186762e-05
      -0.00394514855 -0.00206713052 -0.0033044219 -0.00253472151
      -0.000108235588 -2.53853477e-06 0.548348606 -2.6987459e-07
      -3.55370133e-07 0.0610538945 0.457151294 -0.000428966538
      0.318333149 -0.000149759566 -9.44880012e-05 0.270463675
      0.0169873461 -0.000142633886 -3.94360723e-05 -2.9905661e-05
      -4.51721971e-05 -0.000248983881 0.0116388239 -0.00010853065
      0.0895033479 -0.000698515621 0.0262287706 0.269473732
      -0.000119628428 -9.38460573e-07 -0.000194214474 0.000511292368
      0.332327574 0.5843817 -2.43444265e-05 -0.000354715652
      -9.09764203e-05 -4.18804339e-05 -0.000493496249 0.00745969824
      0.0650171712 -0.000270968827 -0.000262204558</_>
    <_>
      -0.566710234 -3.43191481 -0.00356005807 -0.0201265253
      -0.000121369441 -0.00738413399 -0.000276168779 -0.00129286048
      -1.68721306e-06 -1.11417876e-05 -2.45727591e-07 -6.09460003e-05
      -0.000231409867 -0.000118451389 3.22963643 2.35559392
      -0.00169919129 2.46388698 -0.000100611993 -0.00103369739
      -0.000402474048 -0.00270703482 0.110134184 -1.06696862e-05
      1.96285141 3.48454404 -1.43591924e-05 -3.98381235e-05
      -1.54363388e-05 1.33847988 -0.000109557426 0.480224699
      -0.000613579701 -7.09819069e-05 -0.000533795857 -0.000258735381
      -4.31908084e-05 -0.00137548207 -0.000136182265 -0.000108106295
      -0.000582020846 -0.000776871748 -0.000315402489 -0.00400228612
      -0.00141493557 -0.00029238651 3.09662032 1.75201356 -0.00745014939
      -0.000946022396 0.0288796872 -2.60658589e-06 -0.00642292388
      1.79025602 -0.0182420071 -0.0291948579 -0.00182730821 0.451082677
      -0.00247094408 -0.000524336414 -0.000502733281 -0.000531258818
      2.8834548 0.00587988645 -3.46709639e-05 -2.75183738e-05
      -1.99944006e-05 -0.00243337313 -0.000940605532 -0.000616389792
      2.68170214 -0.00115157454 -6.2447747e-05 -1.901681e-06
      -0.000870161573 -1.82573585e-05 1.41602242 2.29690027
      -0.00104012177 -8.79487561e-06 -4.01869329e-07 -0.000181533818
      1.20488155 -0.0186905432 -0.000324748369 0.651780367 0.396063983
      -3.94568406e-06 -0.00441119121 -0.00386377028 -0.000235571075
      -0.00325383409 -0.00528264651 5.39711285 -0.0143301962
      -0.00071524363 -0.00268781488 -0.00347860437 -0.0014126607
      -4.21754557e-05 -0.00572072063 3.81851029 -1.55798102e-06
      -7.57169546e-05 -0.000859581982 3.69522452 -8.89233197e-05
      -3.07513983e-05 -0.000259555585 0.304723382 -0.00116943964
      -0.00228974735 -1.34388356e-05 -4.45306905e-05 -0.00037109034
      -7.33465697e-07 -1.91082131e-06 -0.000123922975 -2.86376035e-05
      -0.00537663884 -4.80382596e-06 -0.00389932562 -0.000355863041
      0.710424602 -0.00837786216 -0.00156357535 -0.0167466365
      -0.00384030747 -0.0022462206 0.0960709453 0.46196577
      -7.40493197e-05 -0.000114374714 -0.000849574513 0.456895947
      0.243843928 -0.000200663315 0.522282481 -2.15932528e-06
      0.0845146179 -0.00111637299 -0.000241073212 0.50814569
      -0.00217957213 -0.000377974793 -2.13871481e-05 -0.000206683864
      -2.6485975e-06 -2.27827172e-06 0.314872324 -0.00269446452
      -0.00172900315 -0.000114019698 -1.04810715e-06 -0.00113949901
      -3.59499791e-06 -0.00279210415 0.636174083 0.252183527 0.626604736
      -0.00186324283 0.173618764 0.304761499 -3.15146463e-05
      -0.000500471157 -0.000740894 0.146224141 0.349511951
      -0.000415423798 0.232114807 0.758875847 0.39735508 -0.00392817985
      -0.0065061138 -0.00142645987 0.144439369 -0.00232187263
      -1.37102488e-05 -0.00400006725 -0.0020229544 -0.00340089318
      -0.00254739216 -0.000108527762 -2.55335681e-06 0.57424438
      -2.63794931e-07 -3.49214304e-07 0.0321241096 0.493957818
      -0.000428972184 0.318387568 -0.000149759901 -9.44882631e-05
      0.270496845 0.0169703998 -0.000142634133 -3.94361814e-05
      -3.05969988e-05 -4.56637863e-05 -0.000248980912 0.0115417782
      -0.00010852862 0.0894945711 -0.0006984754 0.0262850448 0.269517779
      -0.000119628705 -9.39079882e-07 -0.000194213411 0.000425089151
      0.332290232 0.584400773 -2.43445484e-05 -0.00035447962
      -9.09768496e-05 -4.18805794e-05 -0.000493471976 0.00744871236
      0.0650289953 -0.000270967488 -0.000262148213</_>
    <_>
      -0.548817456 -3.67616749 -0.00360645074 -0.0203264765
      -0.000120282661 -0.00747328205 -0.000282963214 -0.00129929394
      -1.69113707e-06 -1.13531732e-05 -2.49399108e-07 -6.14201053e-05
      -0.000233479179 -0.000120044228 3.2537415 2.45060921
      -0.00172568497 2.40136886 -0.000102877035 -0.00105172023
      -0.000407426152 -0.00274289399 0.119767278 -1.07612186e-05
      2.04887938 3.59631562 -1.47431701e-05 -4.01064171e-05
      -1.55221314e-05 1.33237135 -0.000110379042 0.520953119
      -0.000625903369 -7.15095593e-05 -0.000536577892 -0.000263328286
      -4.39568721e-05 -0.00112423941 -0.000138043164 -0.000108320084
      -0.000593998528 -0.0007906963 -0.000313881843 -0.00404299377
      -0.00142882438 -0.0002950216 3.01329327 1.77216101 -0.00741190603
      -0.000957193028 0.0289253555 -2.6463988e-06 -0.00652271928
      1.84885418 -0.0184648447 -0.0291439947 -0.00185254763 0.487051308
      -0.00250913668 -0.000514519808 -0.000508912024 -0.00053859438
      2.97283316 0.0714965835 -3.56481578e-05 -2.80247696e-05
      -2.02731117e-05 -0.00247371127 -0.000957101409 -0.000634798605
      2.71873999 -0.0011695585 -6.37329358e-05 -1.91760114e-06
      -0.000888343435 -1.89011371e-05 1.50440872 2.29743266
      -0.00105153979 -8.98820053e-06 -3.96323372e-07 -0.000181115101
      1.17267942 -0.01889202 -0.000327869784 0.66642487 0.408069551
      -3.98518159e-06 -0.00445978949 -0.00386646972 -0.000238976572
      -0.00330717745 -0.00534498459 5.57147121 -0.0145880552
      -0.000724556798 -0.00276911841 -0.00352219772 -0.00143515505
      -4.26325023e-05 -0.00586741557 3.94162774 -1.5753966e-06
      -7.79192123e-05 -0.000866420858 3.70482445 -9.03908585e-05
      -3.11996955e-05 -0.000262900838 0.40373531 -0.00117730396
      -0.00245690299 -1.37164743e-05 -4.49646686e-05 -0.000374394847
      -7.58761587e-07 -1.94636527e-06 -0.000125798353 -2.89595755e-05
      -0.00547106564 -4.87528268e-06 -0.0039510061 -0.000361023878
      0.767727077 -0.00850060582 -0.00158211181 -0.0169496443
      -0.00342326704 -0.00232701702 0.0891905203 0.473341733
      -7.38595045e-05 -0.00011423001 -0.000288014096 0.502910614
      0.265093207 -0.000204719006 0.506798506 -2.10304256e-06
      0.0679284632 -0.00110052573 -0.00023379433 0.490853429
      -0.00200598896 -0.000564528862 -2.13592702e-05 -0.000203275617
      -2.63213701e-06 -2.32040156e-06 0.347013533 -0.00269966456
      -0.00188896386 0.00677568838 -1.06086793e-06 -0.000956872595
      -3.62087758e-06 -0.00268599694 0.617396951 0.298076153 0.622034311
      -0.00183914683 0.221563041 0.298555225 -3.18992352e-05
      -0.00049814902 -0.000484299118 0.16534096 0.318299145
      -0.000404206658 0.231750652 0.809094548 0.373712778 -0.00373872998
      -0.0061325375 -0.00112952176 0.111721978 -0.00229898212
      -1.36977897e-05 -0.00395950815 -0.0021146785 -0.00332926144
      -0.00254428433 -0.000109285153 -2.52229029e-06 0.554005682
      -2.68425339e-07 -3.53207213e-07 0.0619942769 0.454518139
      -0.000428966538 0.318333149 -0.000149759566 -9.44880012e-05
      0.270463675 0.0169873461 -0.000142633886 -3.94360723e-05
      -2.9905661e-05 -4.51721971e-05 -0.000248983881 0.0116388239
      -0.00010853065 0.0895033479 -0.000698515621 0.0262287706
      0.269473732 -0.000119628428 -9.38460573e-07 -0.000194214474
      0.000511292368 0.332327574 0.5843817 -2.43444265e-05
      -0.000354715652 -9.09764203e-05 -4.18804339e-05 -0.000493496249
      0.00745969824 0.0650171712 -0.000270968827 -0.000262204558</_>
    <_>
      -0.672478259 -3.44202232 -0.00353426742 -0.018751068
      -0.000125495164 -0.00731548946 -0.000272421981 -0.00129061297
      -1.62295237e-06 -1.10859328e-05 -2.45888003e-07 -6.03613989e-05
      -0.000229438054 -0.000117579388 3.03733993 2.39998937
      -0.00170284684 2.50598812 -9.92583446e-05 -0.00105046341
      -0.00039793062 -0.00269240094 0.0893776193 -1.0614368e-05
      2.03502035 3.51506591 -1.45739559e-05 -3.96597206e-05
      -1.54633872e-05 1.38601303 -0.000108146152 0.544642866
      -0.000596070138 -7.14773414e-05 -0.000531191879 -0.000260981993
      -4.30689288e-05 -0.00116512401 -0.000138815245 -0.000106870611
      -0.000587374729 -0.000768300262 -0.000323546526 -0.0042115692
      -0.00139904022 -0.000295619073 3.14311028 1.85146499
      -0.00735903531 -0.000938186946 0.0185267478 -2.548981e-06
      -0.00639872719 1.63164568 -0.0182036906 -0.0276058167
      -0.00180084538 0.469873101 -0.00246282457 -0.00053100381
      -0.000519957335 -0.000524447474 2.88335013 0.0774135068
      -3.44002183e-05 -2.79901651e-05 -1.98886046e-05 -0.00245297467
      -0.000938761223 -0.000607773138 2.54874086 -0.00113888155
      -6.188931e-05 -1.90734193e-06 -0.000869304815 -1.83280954e-05
      1.44222784 2.22710538 -0.00104004133 -8.7266526e-06
      -4.28748962e-07 -0.000182661708 1.13166785 -0.0172413681
      -0.000318898325 0.704960108 0.41901958 -3.85972953e-06
      -0.00435707159 -0.00381870614 -0.000233368526 -0.00323750498
      -0.00527798384 5.47003269 -0.0141871916 -0.000724420766
      -0.00164133706 -0.00345119834 -0.00141013681 -4.26060142e-05
      -0.00569091318 3.84561706 -1.56593751e-06 -7.56717927e-05
      -0.000871306635 3.62013531 -8.84705878e-05 -3.12307384e-05
      -0.000257406035 0.279335588 -0.00115780102 -0.00211774814
      -1.35035552e-05 -4.70647246e-05 -0.000374681869 -7.38835809e-07
      -1.8820358e-06 -0.000126670304 -2.86703489e-05 -0.00537186209
      -4.82648784e-06 -0.00380901247 -0.000352721458 0.750184119
      -0.00837204047 -0.00152311102 -0.0167068001 -0.00314432383
      -0.00215442013 0.0957074687 0.472289711 -7.39032257e-05
      -0.000114406997 -0.000846103707 0.452249229 0.238718018
      -0.00019998163 0.517776608 -2.15196428e-06 0.0746596307
      -0.00109204033 -0.000240744514 0.499721438 -0.00221454445
      -0.00039743245 -2.14502634e-05 -0.000206021286 -2.65131052e-06
      -2.28069234e-06 0.323340565 -0.00275338488 -0.00172720279
      -8.33794838e-05 -1.05403535e-06 -0.00118352985 -3.61607954e-06
      -0.00279389881 0.628773034 0.255696118 0.628946602 -0.00181799789
      0.175399661 0.300859958 -3.13040946e-05 -0.000498072186
      -0.000732730085 0.142835349 0.350046515 -0.000416987692
      0.230643421 0.758455753 0.400402039 -0.0039058968 -0.0064691701
      -0.00135912211 0.142197967 -0.00231896644 -1.37664938e-05
      -0.00397774111 -0.00199148478 -0.00335894688 -0.00252924883
      -0.000107179527 -2.56882572e-06 0.571867824 -2.64329458e-07
      -3.51786468e-07 0.032496959 0.49360165 -0.000428972184 0.318387568
      -0.000149759901 -9.44882631e-05 0.270496845 0.0169703998
      -0.000142634133 -3.94361814e-05 -3.05969988e-05 -4.56637863e-05
      -0.000248980912 0.0115417782 -0.00010852862 0.0894945711
      -0.0006984754 0.0262850448 0.269517779 -0.000119628705
      -9.39079882e-07 -0.000194213411 0.000425089151 0.332290232
      0.584400773 -2.43445484e-05 -0.00035447962 -9.09768496e-05
      -4.18805794e-05 -0.000493471976 0.00744871236 0.0650289953
      -0.000270967488 -0.000262148213</_>
    <_>
      -0.60473901 -3.40326071 -0.00341722928 -0.0190049075
      -0.000117805008 -0.00715438509 -0.000261670066 -0.00127521751
      -1.54737791e-06 -1.08096874e-05 -2.40439221e-07 -5.77750943e-05
      -0.000224472169 -0.000111372065 3.06027722 2.31006074
      -0.00165850041 2.46926641 -9.46359723e-05 -0.0010298331
      -0.000383918348 -0.00260272506 0.118413746 -1.02279855e-05
      1.95764661 3.42378211 -1.4220207e-05 -3.81255413e-05
      -1.54069385e-05 1.36970842 -0.000105582163 0.58205688
      -0.000569860975 -6.93691763e-05 -0.000517665758 -0.000255449966
      -4.11504225e-05 -0.00098080677 -0.00013337667 -0.000104008272
      -0.000571187411 -0.000735825044 -0.000320519262 -0.00412063813
      -0.00139335124 -0.000290593773 3.04415202 1.79613638
      -0.00687124394 -0.000894906872 0.0314585455 -2.51365145e-06
      -0.00628934428 1.73535681 -0.0177601539 -0.0271770451
      -0.00174346066 0.514933646 -0.00237211562 -0.000511373102
      -0.00051723572 -0.00051331718 2.81574059 0.0683204606
      -3.39312101e-05 -2.72189209e-05 -1.90858191e-05 -0.00240348279
      -0.000907146779 -0.000604709727 2.58203077 -0.00111015385
      -6.0321785e-05 -1.83727286e-06 -0.000846929848 -1.80389852e-05
      1.38998377 2.20224595 -0.0010164734 -8.53121492e-06
      -4.09512353e-07 -0.000179721901 1.14332247 -0.0176482666
      -0.000310064701 0.699973702 0.48918575 -3.69525014e-06
      -0.00436164206 -0.00373426522 -0.000225744836 -0.00319111929
      -0.00519211637 5.3206234 -0.0138484333 -0.000717280956
      -0.00203756988 -0.00338167278 -0.00137342478 -4.07661064e-05
      -0.00563989161 3.75289989 -1.52582493e-06 -7.25429491e-05
      -0.000845420174 3.61268163 -8.5529522e-05 -3.0395975e-05
      -0.000243428251 0.295804828 -0.001122121 -0.00227258191
      -1.32058422e-05 -4.53413777e-05 -0.000345237349 -7.35643198e-07
      -1.80019458e-06 -0.000121864607 -2.79009437e-05 -0.00518633705
      -4.64321056e-06 -0.00382689876 -0.000327822956 0.697689712
      -0.00829275325 -0.00142353156 -0.0162905902 -0.00347713218
      -0.00212165317 0.0889402702 0.470746011 -7.39661118e-05
      -0.00011464463 -0.000843940943 0.464036942 0.239242718
      -0.000202124153 0.525850415 -2.13698877e-06 0.0738271773
      -0.00101166288 -0.000239781919 0.503421187 -0.00222348049
      -0.000477980357 -2.13958228e-05 -0.00020580698 -2.64078494e-06
      -2.2780705e-06 0.316770703 -0.00277069537 -0.00175956695
      -9.65443614e-05 -1.04978767e-06 -0.00115434767 -3.59736327e-06
      -0.00278848573 0.636272252 0.262731642 0.635770082 -0.00184524234
      0.173101053 0.306615233 -3.14904792e-05 -0.000502057082
      -0.00077202532 0.143166721 0.351353824 -0.000414838491 0.231300026
      0.761008382 0.398490638 -0.00391250942 -0.00643925043
      -0.00141010969 0.138284385 -0.00232326053 -1.36993494e-05
      -0.00399533939 -0.00198585354 -0.00336462958 -0.0025463705
      -0.000107928157 -2.55173245e-06 0.561418414 -2.64771984e-07
      -3.49752014e-07 0.0333793536 0.489789069 -0.000428972184
      0.318387568 -0.000149759901 -9.44882631e-05 0.270496845
      0.0169703998 -0.000142634133 -3.94361814e-05 -3.05969988e-05
      -4.56637863e-05 -0.000248980912 0.0115417782 -0.00010852862
      0.0894945711 -0.0006984754 0.0262850448 0.269517779
      -0.000119628705 -9.39079882e-07 -0.000194213411 0.000425089151
      0.332290232 0.584400773 -2.43445484e-05 -0.00035447962
      -9.09768496e-05 -4.18805794e-05 -0.000493471976 0.00744871236
      0.0650289953 -0.000270967488 -0.000262148213</_>
    <_>
      -0.740376592 -3.81558084 -0.00355426874 -0.0181106571
      -0.000118936383 -0.00737633742 -0.000273274636 -0.00128057937
      -1.56508668e-06 -1.10131841e-05 -2.48786648e-07 -5.92704382e-05
      -0.000226636039 -0.000119515949 2.96745658 2.49706864
      -0.00170476281 2.31914306 -9.93476569e-05 -0.0010570084
      -0.000393605704 -0.00268943096 0.106450804 -1.05722984e-05
      2.14349508 3.6191318 -1.46850625e-05 -3.94672534e-05
      -1.53846868e-05 1.33403504 -0.000108272216 0.636673927
      -0.000607322378 -7.1004506e-05 -0.0005219577 -0.000266298041
      -4.36642913e-05 -0.000855303078 -0.000139765441 -0.000105761457
      -0.000588777359 -0.000768478436 -0.000333117845 -0.00435457146
      -0.00139213062 -0.000294854079 2.89419079 1.87220609
      -0.00721347472 -0.000931746443 0.017335128 -2.51300798e-06
      -0.00645157974 1.61122203 -0.0180927645 -0.0261298642
      -0.0018134428 0.517548501 -0.00245868368 -0.000519004359
      -0.000538373541 -0.00051943626 2.9701159 0.219965219
      -3.54510339e-05 -2.85578226e-05 -2.00743434e-05 -0.00245380681
      -0.000940209371 -0.000624246313 2.57906055 -0.00114530837
      -6.2222316e-05 -1.85150839e-06 -0.000873956131 -1.89518396e-05
      1.56322777 2.15538573 -0.00103576994 -8.81631695e-06
      -4.36999358e-07 -0.000176816946 0.982134342 -0.0162072554
      -0.000307991169 0.736651182 0.469462276 -3.83652286e-06
      -0.00440158043 -0.00374606089 -0.000232262217 -0.00325095886
      -0.00530530559 5.64826202 -0.014428501 -0.000741750642
      -0.00130683952 -0.00344889704 -0.00141488574 -4.28049643e-05
      -0.0058055371 3.96412492 -1.57227726e-06 -7.61662523e-05
      -0.000865108974 3.57859707 -8.79232102e-05 -3.15236139e-05
      -0.000258132495 0.378930598 -0.00113881053 -0.00235718256
      -1.34616967e-05 -4.80529343e-05 -0.000370839989 -7.78268145e-07
      -1.91524873e-06 -0.000128849104 -2.87910807e-05 -0.00544199208
      -4.85563351e-06 -0.00377497938 -0.000353658048 0.830607474
      -0.00853777956 -0.00151876279 -0.0169367734 -0.00220513693
      -0.00229364284 0.0868423507 0.474967271 -7.37667069e-05
      -0.000114798153 -0.000291541801 0.507126868 0.263723731
      -0.000205771794 0.501137733 -2.08770825e-06 0.0658207983
      -0.000981728896 -0.000231961938 0.485648841 -0.00194758922
      -0.000580615713 -2.13701533e-05 -0.000201395931 -2.63617289e-06
      -2.33576156e-06 0.352006376 -0.00266761053 -0.00187826715
      0.00996175036 -1.06634877e-06 -0.000952911738 -3.63845174e-06
      -0.00272790692 0.610361397 0.306027472 0.622432292 -0.00183722272
      0.234329775 0.302524596 -3.19370047e-05 -0.000497916539
      -0.000492013758 0.162158012 0.3134363 -0.000401374738 0.232562572
      0.81036377 0.367396295 -0.00369763724 -0.00611648709
      -0.00108277425 0.105700605 -0.00229347497 -1.37095185e-05
      -0.00393701112 -0.00193897216 -0.00331552862 -0.00254070922
      -0.000108812208 -2.52293967e-06 0.550247729 -2.70239184e-07
      -3.55700109e-07 0.063905932 0.445693105 -0.000428966538
      0.318333149 -0.000149759566 -9.44880012e-05 0.270463675
      0.0169873461 -0.000142633886 -3.94360723e-05 -2.9905661e-05
      -4.51721971e-05 -0.000248983881 0.0116388239 -0.00010853065
      0.0895033479 -0.000698515621 0.0262287706 0.269473732
      -0.000119628428 -9.38460573e-07 -0.000194214474 0.000511292368
      0.332327574 0.5843817 -2.43444265e-05 -0.000354715652
      -9.09764203e-05 -4.18804339e-05 -0.000493496249 0.00745969824
      0.0650171712 -0.000270968827 -0.000262204558</_>
    <_>
      -0.768094599 -3.43771172 -0.00351150334 -0.0178239252
      -0.000120490869 -0.00732462667 -0.00026570441 -0.0012832334
      -1.57428201e-06 -1.08688355e-05 -2.44410302e-07 -5.86693532e-05
      -0.000225164098 -0.000116467418 2.95706892 2.31282353
      -0.00169290835 2.41186142 -9.60777688e-05 -0.00103231275
      -0.000387416221 -0.00264312257 0.0844410062 -1.03360444e-05
      1.97849035 3.41848874 -1.43141515e-05 -3.86995198e-05
      -1.53729161e-05 1.34079349 -0.000108682521 0.570648372
      -0.000590935582 -7.08205262e-05 -0.00052170956 -0.00025735714
      -4.18302843e-05 -0.000846635667 -0.000139591633 -0.000104225757
      -0.000567519804 -0.000756849709 -0.000328141439 -0.00442598946
      -0.00141044974 -0.000296363956 2.98015213 1.86711431
      -0.00725921756 -0.00092807546 0.0193732809 -2.49737718e-06
      -0.00638693618 1.57179451 -0.0175729338 -0.0261899494
      -0.00178307807 0.495988905 -0.00243283017 -0.000539461209
      -0.000543957169 -0.000518927816 2.81833148 0.0863748863
      -3.45725566e-05 -2.8025177e-05 -1.93010892e-05 -0.00242396398
      -0.000920055492 -0.000606928486 2.5331893 -0.00113130838
      -6.03050394e-05 -1.88062791e-06 -0.0008626575 -1.81358337e-05
      1.39720166 2.1752038 -0.00103770802 -8.47873616e-06
      -4.55421201e-07 -0.000182026371 1.01126075 -0.0158074908
      -0.000310476084 0.714321733 0.496346712 -3.77773245e-06
      -0.00441968953 -0.00376137346 -0.000231543367 -0.00321952044
      -0.00523592951 5.33275795 -0.0140535366 -0.000736058399
      -0.0010558744 -0.00341578806 -0.00139577535 -4.27316299e-05
      -0.00564182876 3.75401449 -1.56121018e-06 -7.34179484e-05
      -0.000847992953 3.56969547 -8.52959856e-05 -3.04561709e-05
      -0.000251327059 0.25476855 -0.00112845632 -0.00201854669
      -1.32253672e-05 -4.82042415e-05 -0.000361092767 -7.6151963e-07
      -1.82503379e-06 -0.000125523875 -2.85963688e-05 -0.00531314407
      -4.81996722e-06 -0.00378838601 -0.000340053288 0.700091481
      -0.00838538166 -0.00144436595 -0.0166021734 -0.00316178007
      -0.00216197805 0.0923339352 0.459574968 -7.39012467e-05
      -0.000115282535 -0.000948135101 0.452661484 0.249331668
      -0.000201178642 0.514170051 -2.1308017e-06 0.0768468529
      -0.00104751647 -0.000239403147 0.494569033 -0.00210588053
      -0.000388119515 -2.14651009e-05 -0.000205014512 -2.64021469e-06
      -2.28620911e-06 0.325784266 -0.00287872902 -0.00176226557
      7.231161e-05 -1.05240122e-06 -0.00121214136 -3.61149318e-06
      -0.00276007177 0.625971854 0.268191338 0.624433637 -0.00186562492
      0.196833402 0.307865888 -3.13197525e-05 -0.000501415401
      -0.0007787738 0.135883689 0.349473655 -0.000413746893 0.243294671
      0.767279267 0.400765479 -0.00389893563 -0.00645570224
      -0.00120292767 0.140333503 -0.00232112245 -1.37248144e-05
      -0.00399065949 -0.00180656731 -0.00341779366 -0.0025539964
      -0.000107378204 -2.55277337e-06 0.569918156 -2.6592997e-07
      -3.51027296e-07 0.0283744186 0.49884364 -0.000428972184
      0.318387568 -0.000149759901 -9.44882631e-05 0.270496845
      0.0169703998 -0.000142634133 -3.94361814e-05 -3.05969988e-05
      -4.56637863e-05 -0.000248980912 0.0115417782 -0.00010852862
      0.0894945711 -0.0006984754 0.0262850448 0.269517779
      -0.000119628705 -9.39079882e-07 -0.000194213411 0.000425089151
      0.332290232 0.584400773 -2.43445484e-05 -0.00035447962
      -9.09768496e-05 -4.18805794e-05 -0.000493471976 0.00744871236
      0.0650289953 -0.000270967488 -0.000262148213</_>
    <_>
      -0.729214013 -3.40168762 -0.00349882874 -0.0181859229
      -0.000117207797 -0.00730154198 -0.000262828253 -0.00128512259
      -1.5546666e-06 -1.07269416e-05 -2.42290866e-07 -5.81927634e-05
      -0.000223023366 -0.000115506547 3.01092434 2.27693868
      -0.00168177625 2.39623618 -9.42376428e-05 -0.00101945887
      -0.000382835336 -0.00262139831 0.0843552053 -1.02806334e-05
      1.94760454 3.38116026 -1.40336842e-05 -3.8679209e-05
      -1.51093845e-05 1.33395445 -0.000108017055 0.588465691
      -0.00058781181 -6.98959266e-05 -0.000519545458 -0.000253388193
      -4.14430397e-05 -0.000674370094 -0.000136463103 -0.000104046369
      -0.000559049251 -0.000748667633 -0.000331502612 -0.00444123847
      -0.00139971462 -0.000295558042 2.96360493 1.82852507
      -0.00737779308 -0.000912535412 0.028261885 -2.44960825e-06
      -0.00638105534 1.60083687 -0.017288778 -0.0264206361
      -0.00177245925 0.499607444 -0.00240898645 -0.000535259256
      -0.000544028066 -0.000513333536 2.78647876 0.070585981
      -3.45832741e-05 -2.7649101e-05 -1.91251274e-05 -0.0024453043
      -0.000910586154 -0.000605695706 2.52574682 -0.00113634742
      -5.95619858e-05 -1.79363838e-06 -0.000852905912 -1.79375893e-05
      1.37402308 2.20739365 -0.00102911622 -8.37085554e-06
      -4.44378145e-07 -0.000179513852 1.03681827 -0.0162196252
      -0.000305580848 0.702070236 0.491301239 -3.77631704e-06
      -0.00436604628 -0.00379160303 -0.000227720637 -0.00318783149
      -0.00521704787 5.27138424 -0.0139087588 -0.000733135152
      -0.00125516963 -0.00337476516 -0.00138223555 -4.17929223e-05
      -0.00556948176 3.71218133 -1.52716655e-06 -7.25496793e-05
      -0.000839861401 3.61105227 -8.43937523e-05 -3.01511445e-05
      -0.000249947159 0.247809201 -0.00111256901 -0.00182088523
      -1.29565497e-05 -4.71819258e-05 -0.000355131546 -7.45683053e-07
      -1.82820975e-06 -0.000123392514 -2.84098242e-05 -0.00527069438
      -4.80675544e-06 -0.00380120007 -0.000333196076 0.686221421
      -0.00832702406 -0.0014064674 -0.0166879073 -0.00327841286
      -0.00209814729 0.0877668709 0.469522506 -7.37468145e-05
      -0.000115042138 -0.00084133551 0.46295011 0.242831692
      -0.000201916075 0.520696878 -2.11416409e-06 0.0745084733
      -0.000978818629 -0.000239282075 0.507605791 -0.00214013597
      -0.000430823711 -2.13434469e-05 -0.000204842348 -2.64728897e-06
      -2.28173235e-06 0.326817542 -0.00278222864 -0.00171716837
      -9.2761853e-05 -1.05087929e-06 -0.00117458066 -3.60418926e-06
      -0.00283855107 0.630697489 0.265935004 0.644894302 -0.00184802932
      0.181180805 0.315135539 -3.13333039e-05 -0.000500944094
      -0.000730425934 0.141660213 0.351650596 -0.000414535549
      0.227208033 0.76446712 0.395779371 -0.0039355671 -0.0065781856
      -0.00129279192 0.138970226 -0.00234302576 -1.37529878e-05
      -0.0039901156 -0.00180863671 -0.00337032788 -0.00254065497
      -0.000107256928 -2.54879842e-06 0.569639325 -2.65207461e-07
      -3.50779374e-07 0.031860888 0.505882084 -0.000428972184
      0.318387568 -0.000149759901 -9.44882631e-05 0.270496845
      0.0169703998 -0.000142634133 -3.94361814e-05 -3.05969988e-05
      -4.56637863e-05 -0.000248980912 0.0115417782 -0.00010852862
      0.0894945711 -0.0006984754 0.0262850448 0.269517779
      -0.000119628705 -9.39079882e-07 -0.000194213411 0.000425089151
      0.332290232 0.584400773 -2.43445484e-05 -0.00035447962
      -9.09768496e-05 -4.18805794e-05 -0.000493471976 0.00744871236
      0.0650289953 -0.000270967488 -0.000262148213</_>
    <_>
      -0.82221359 -4.0052824 -0.00356255728 -0.0173068084
      -0.000115941082 -0.00740759308 -0.000270329387 -0.00127131247
      -1.63640789e-06 -1.10123692e-05 -2.46508392e-07 -6.01094871e-05
      -0.000228168574 -0.000121462821 2.9311502 2.56671262
      -0.00171302131 2.20151305 -0.000100746482 -0.00104429468
      -0.000394286762 -0.00264805648 0.110747322 -1.0730113e-05
      2.21850348 3.68233037 -1.47556384e-05 -3.9407536e-05
      -1.53814617e-05 1.23245203 -0.000107170112 0.659144759
      -0.000634073687 -7.19996024e-05 -0.000514406711 -0.000260728528
      -4.40092081e-05 -0.000588649069 -0.000143362471 -0.00010314714
      -0.000579709827 -0.000788646983 -0.000324313994 -0.00430978695
      -0.00137803715 -0.0003005623 2.7609098 1.93524206 -0.00671958737
      -0.000956535048 0.0109893521 -2.52473342e-06 -0.00638500974
      1.50278234 -0.0179029983 -0.0259445906 -0.00181836635 0.53285104
      -0.00243904046 -0.000524190778 -0.000533060636 -0.000511513324
      3.00300598 0.286661744 -3.52807801e-05 -2.83039735e-05
      -2.01544572e-05 -0.00246894476 -0.000963213446 -0.000622564461
      2.50003934 -0.00114656938 -6.06138383e-05 -1.81789642e-06
      -0.000888823939 -1.93048254e-05 1.62594092 2.16741896
      -0.00102675706 -8.73039244e-06 -4.57996606e-07 -0.000172566783
      0.957137704 -0.0154530061 -0.000313226163 0.75904274 0.439431548
      -3.90293098e-06 -0.00435745995 -0.00370119046 -0.000234048959
      -0.00319905323 -0.00523213902 5.75599957 -0.0144450217
      -0.000735835114 -0.000693552778 -0.00342050334 -0.00141252449
      -4.41501543e-05 -0.00575609319 4.02451801 -1.56625447e-06
      -7.61605625e-05 -0.000861040549 3.45010567 -8.89529256e-05
      -3.12818665e-05 -0.000262452464 0.35267663 -0.00112481497
      -0.00242098747 -1.34715501e-05 -4.83934818e-05 -0.000395698589
      -7.87172098e-07 -1.92628227e-06 -0.000130684653 -2.85647038e-05
      -0.00550325634 -4.9865007e-06 -0.0036908607 -0.000370870781
      0.895343244 -0.00835570041 -0.0014875863 -0.0170257054
      -0.00147505745 -0.0022766476 0.0787482485 0.467549264
      -7.34881542e-05 -0.000114845025 -0.000353849144 0.497998357
      0.259714305 -0.000205655655 0.504414201 -2.07174548e-06
      0.0630006343 -0.000950942398 -0.000231202182 0.476919979
      -0.00199683849 -0.000564860122 -2.14324373e-05 -0.000200046285
      -2.65873291e-06 -2.34645154e-06 0.344225675 -0.00280974898
      -0.00191321992 0.00160905346 -1.07184906e-06 -0.00103360962
      -3.65741835e-06 -0.0026873895 0.606194615 0.310055256 0.630005181
      -0.00182622322 0.231443837 0.294061035 -3.17592348e-05
      -0.000496685912 -0.000546458294 0.153772205 0.321622789
      -0.000402113626 0.229674429 0.806650519 0.377626389 -0.00372134219
      -0.00615395233 -0.000958820805 0.11070583 -0.00228171842
      -1.37795141e-05 -0.00392193301 -0.00199393905 -0.00329076406
      -0.0025321818 -0.000107356893 -2.5378763e-06 0.539367378
      -2.71796011e-07 -3.58137072e-07 0.0595824979 0.449590981
      -0.000428966538 0.318333149 -0.000149759566 -9.44880012e-05
      0.270463675 0.0169873461 -0.000142633886 -3.94360723e-05
      -2.9905661e-05 -4.51721971e-05 -0.000248983881 0.0116388239
      -0.00010853065 0.0895033479 -0.000698515621 0.0262287706
      0.269473732 -0.000119628428 -9.38460573e-07 -0.000194214474
      0.000511292368 0.332327574 0.5843817 -2.43444265e-05
      -0.000354715652 -9.09764203e-05 -4.18804339e-05 -0.000493496249
      0.00745969824 0.0650171712 -0.000270968827 -0.000262204558</_>
    <_>
      -0.657494426 -3.62413359 -0.00352044124 -0.0187121537
      -0.000118711629 -0.00734880008 -0.000271855097 -0.00128660584
      -1.59448371e-06 -1.11210747e-05 -2.46635523e-07 -5.94440098e-05
      -0.000226651653 -0.000115466086 3.10447836 2.41918826
      -0.00170210772 2.41471601 -9.87491367e-05 -0.00105781213
      -0.000391216745 -0.00266434927 0.111808136 -1.0579879e-05
      2.06536579 3.55042577 -1.45408821e-05 -3.94637027e-05
      -1.54801437e-05 1.34143865 -0.000107804131 0.604680896
      -0.000601546315 -7.03855912e-05 -0.000522572373 -0.000263664726
      -4.27578525e-05 -0.000875277969 -0.000137984913 -0.000104817635
      -0.000582258566 -0.000762980257 -0.000329403585 -0.00424425909
      -0.00141255255 -0.000298684259 2.99901104 1.84901643
      -0.00727759534 -0.000921378261 0.027992608 -2.49254822e-06
      -0.00643860735 1.72431159 -0.0181106795 -0.0271152388
      -0.00179335312 0.515997052 -0.00243725209 -0.000525064708
      -0.0005259834 -0.000521955371 2.928864 0.130385146 -3.52934258e-05
      -2.79766173e-05 -1.96469246e-05 -0.00247042463 -0.000936808879
      -0.000625183573 2.62057471 -0.00114069809 -6.16690522e-05
      -1.79846393e-06 -0.000874495658 -1.90194223e-05 1.4913305
      2.2114234 -0.00104122958 -8.72430701e-06 -4.3686677e-07
      -0.000178039962 1.07775259 -0.0171125308 -0.000314444595
      0.727385402 0.507969439 -3.79686708e-06 -0.00444012415
      -0.00382225914 -0.00023048911 -0.0032345478 -0.00530016748
      5.52742195 -0.0142966649 -0.000738413364 -0.00158690289
      -0.00345108914 -0.0014069092 -4.24916798e-05 -0.0058204052
      3.89547539 -1.56761973e-06 -7.57109883e-05 -0.000855675491
      3.66057134 -8.69000578e-05 -3.11870972e-05 -0.000253319799
      0.367966115 -0.00113830983 -0.00233193114 -1.3461673e-05
      -4.70818959e-05 -0.00036371118 -7.70061433e-07 -1.86000364e-06
      -0.000125787337 -2.84683319e-05 -0.0053440379 -4.84286556e-06
      -0.00384290935 -0.00034364991 0.769501448 -0.0085403854
      -0.00145627302 -0.0167143345 -0.00295823929 -0.00217889715
      0.0834472701 0.469998807 -7.34657515e-05 -0.000114675742
      -0.000369728863 0.504457295 0.268566668 -0.000206021825
      0.497641236 -2.06054483e-06 0.0584303737 -0.000979356817
      -0.000230565842 0.480586261 -0.00197677198 -0.000689991983
      -2.14642623e-05 -0.000200136405 -2.63263178e-06 -2.35639936e-06
      0.345396191 -0.00284908293 -0.00185639353 0.00395814702
      -1.07517042e-06 -0.0010392277 -3.67468215e-06 -0.00266965991
      0.605729878 0.309092402 0.62726444 -0.00184087316 0.232384041
      0.296338648 -3.1722986e-05 -0.000496263325 -0.000552055601
      0.153398603 0.318906665 -0.000399692188 0.232119694 0.806839585
      0.380514324 -0.00363866403 -0.00602503121 -0.000961921993
      0.104426265 -0.00228974642 -1.38022097e-05 -0.00391312409
      -0.00200341549 -0.0033037602 -0.00251064776 -0.000107846288
      -2.53787948e-06 0.539477944 -2.71493178e-07 -3.59583282e-07
      0.0616739541 0.460142851 -0.000428966538 0.318333149
      -0.000149759566 -9.44880012e-05 0.270463675 0.0169873461
      -0.000142633886 -3.94360723e-05 -2.9905661e-05 -4.51721971e-05
      -0.000248983881 0.0116388239 -0.00010853065 0.0895033479
      -0.000698515621 0.0262287706 0.269473732 -0.000119628428
      -9.38460573e-07 -0.000194214474 0.000511292368 0.332327574
      0.5843817 -2.43444265e-05 -0.000354715652 -9.09764203e-05
      -4.18804339e-05 -0.000493496249 0.00745969824 0.0650171712
      -0.000270968827 -0.000262204558</_>
    <_>
      -0.657494426 -3.62413359 -0.00352044124 -0.0187121537
      -0.000118711629 -0.00734880008 -0.000271855097 -0.00128660584
      -1.59448371e-06 -1.11210747e-05 -2.46635523e-07 -5.94440098e-05
      -0.000226651653 -0.000115466086 3.10447836 2.41918826
      -0.00170210772 2.41471601 -9.87491367e-05 -0.00105781213
      -0.000391216745 -0.00266434927 0.111808136 -1.0579879e-05
      2.06536579 3.55042577 -1.45408821e-05 -3.94637027e-05
      -1.54801437e-05 1.34143865 -0.000107804131 0.604680896
      -0.000601546315 -7.03855912e-05 -0.000522572373 -0.000263664726
      -4.27578525e-05 -0.000875277969 -0.000137984913 -0.000104817635
      -0.000582258566 -0.000762980257 -0.000329403585 -0.00424425909
      -0.00141255255 -0.000298684259 2.99901104 1.84901643
      -0.00727759534 -0.000921378261 0.027992608 -2.49254822e-06
      -0.00643860735 1.72431159 -0.0181106795 -0.0271152388
      -0.00179335312 0.515997052 -0.00243725209 -0.000525064708
      -0.0005259834 -0.000521955371 2.928864 0.130385146 -3.52934258e-05
      -2.79766173e-05 -1.96469246e-05 -0.00247042463 -0.000936808879
      -0.000625183573 2.62057471 -0.00114069809 -6.16690522e-05
      -1.79846393e-06 -0.000874495658 -1.90194223e-05 1.4913305
      2.2114234 -0.00104122958 -8.72430701e-06 -4.3686677e-07
      -0.000178039962 1.07775259 -0.0171125308 -0.000314444595
      0.727385402 0.507969439 -3.79686708e-06 -0.00444012415
      -0.00382225914 -0.00023048911 -0.0032345478 -0.00530016748
      5.52742195 -0.0142966649 -0.000738413364 -0.00158690289
      -0.00345108914 -0.0014069092 -4.24916798e-05 -0.0058204052
      3.89547539 -1.56761973e-06 -7.57109883e-05 -0.000855675491
      3.66057134 -8.69000578e-05 -3.11870972e-05 -0.000253319799
      0.367966115 -0.00113830983 -0.00233193114 -1.3461673e-05
      -4.70818959e-05 -0.00036371118 -7.70061433e-07 -1.86000364e-06
      -0.000125787337 -2.84683319e-05 -0.0053440379 -4.84286556e-06
      -0.00384290935 -0.00034364991 0.769501448 -0.0085403854
      -0.00145627302 -0.0167143345 -0.00295823929 -0.00217889715
      0.0834472701 0.469998807 -7.34657515e-05 -0.000114675742
      -0.000369728863 0.504457295 0.268566668 -0.000206021825
      0.497641236 -2.06054483e-06 0.0584303737 -0.000979356817
      -0.000230565842 0.480586261 -0.00197677198 -0.000689991983
      -2.14642623e-05 -0.000200136405 -2.63263178e-06 -2.35639936e-06
      0.345396191 -0.00284908293 -0.00185639353 0.00395814702
      -1.07517042e-06 -0.0010392277 -3.67468215e-06 -0.00266965991
      0.605729878 0.309092402 0.62726444 -0.00184087316 0.232384041
      0.296338648 -3.1722986e-05 -0.000496263325 -0.000552055601
      0.153398603 0.318906665 -0.000399692188 0.232119694 0.806839585
      0.380514324 -0.00363866403 -0.00602503121 -0.000961921993
      0.104426265 -0.00228974642 -1.38022097e-05 -0.00391312409
      -0.00200341549 -0.0033037602 -0.00251064776 -0.000107846288
      -2.53787948e-06 0.539477944 -2.71493178e-07 -3.59583282e-07
      0.0616739541 0.460142851 -0.000428966538 0.318333149
      -0.000149759566 -9.44880012e-05 0.270463675 0.0169873461
      -0.000142633886 -3.94360723e-05 -2.9905661e-05 -4.51721971e-05
      -0.000248983881 0.0116388239 -0.00010853065 0.0895033479
      -0.000698515621 0.0262287706 0.269473732 -0.000119628428
      -9.38460573e-07 -0.000194214474 0.000511292368 0.332327574
      0.5843817 -2.43444265e-05 -0.000354715652 -9.09764203e-05
      -4.18804339e-05 -0.000493496249 0.00745969824 0.0650171712
      -0.000270968827 -0.000262204558</_>
    <_>
      -0.727127254 -3.44718027 -0.00354162231 -0.0181909315
      -0.000117377385 -0.00730934832 -0.000273538753 -0.00127079559
      -1.57582451e-06 -1.10174797e-05 -2.46934405e-07 -5.88097864e-05
      -0.000225050724 -0.000116484211 3.03806233 2.38539767
      -0.00170942314 2.50917578 -9.71266636e-05 -0.00106313883
      -0.000393339695 -0.00268618925 0.111825362 -1.05161344e-05
      2.04677606 3.52077317 -1.43383231e-05 -3.97013428e-05
      -1.54720165e-05 1.39126015 -0.000106997664 0.622892737
      -0.000598373881 -7.01340614e-05 -0.000523157418 -0.000261569017
      -4.25282851e-05 -0.000996387098 -0.000135683076 -0.000107504842
      -0.000565608556 -0.000765843724 -0.000329501519 -0.00399803463
      -0.00140103709 -0.00030035383 3.15104485 1.92180705 -0.00668591959
      -0.000920440827 0.0125890812 -2.51763458e-06 -0.00637665391
      1.58430064 -0.0180902053 -0.0273378324 -0.00179102027 0.480542243
      -0.00245169271 -0.000523793511 -0.000522342219 -0.000521085807
      2.89270043 0.0686370358 -3.48431895e-05 -2.79686647e-05
      -1.94866261e-05 -0.00252663856 -0.000926117413 -0.000612069969
      2.5113306 -0.00113709387 -6.19188431e-05 -1.75721937e-06
      -0.00088143436 -1.84019264e-05 1.42942393 2.18597388
      -0.00104137661 -8.68519146e-06 -4.18969989e-07 -0.000183235956
      1.09587276 -0.0168019775 -0.000311246171 0.773559153 0.361623228
      -3.86325064e-06 -0.00431451621 -0.00382657256 -0.000230337071
      -0.00323130121 -0.00522062648 5.4620142 -0.0140927332
      -0.000730773434 -0.00133265299 -0.00345812575 -0.00140486355
      -4.15299182e-05 -0.00564745301 3.84563971 -1.53353619e-06
      -7.51903717e-05 -0.000859922904 3.62387228 -8.78915162e-05
      -3.14283498e-05 -0.000252885453 0.306022972 -0.00113739632
      -0.00234474125 -1.35045775e-05 -4.64533296e-05 -0.000374069874
      -7.35538663e-07 -1.89055265e-06 -0.000126027095 -2.88132687e-05
      -0.00533187855 -4.82444921e-06 -0.0038223532 -0.000345021865
      0.77059561 -0.00834203232 -0.00148659956 -0.0166272093
      -0.00323242717 -0.00214392296 0.0923133641 0.461883605
      -7.38003291e-05 -0.000114497314 -0.000976693933 0.453324795
      0.240591452 -0.000200335038 0.514305115 -2.13656608e-06
      0.0772261769 -0.000999069656 -0.000240347945 0.499943733
      -0.00220095064 -0.000418630982 -2.1517988e-05 -0.000204422773
      -2.65107451e-06 -2.30157139e-06 0.315354764 -0.00283603207
      -0.00169626973 -6.27406334e-05 -1.05996321e-06 -0.00117052812
      -3.63627419e-06 -0.00272834883 0.630889177 0.259429306 0.617144406
      -0.00185188313 0.180681437 0.303388178 -3.12706507e-05
      -0.00049743749 -0.000813501538 0.137298971 0.34843421
      -0.000413301517 0.241249785 0.746305346 0.405229717 -0.00383981899
      -0.00633563381 -0.00134199054 0.151058972 -0.00229846081
      -1.38037976e-05 -0.00396244926 -0.00198585563 -0.00335233193
      -0.00253386842 -0.000106984036 -2.57207239e-06 0.560358882
      -2.65470675e-07 -3.54511286e-07 0.0276158936 0.49089095
      -0.000428972184 0.318387568 -0.000149759901 -9.44882631e-05
      0.270496845 0.0169703998 -0.000142634133 -3.94361814e-05
      -3.05969988e-05 -4.56637863e-05 -0.000248980912 0.0115417782
      -0.00010852862 0.0894945711 -0.0006984754 0.0262850448 0.269517779
      -0.000119628705 -9.39079882e-07 -0.000194213411 0.000425089151
      0.332290232 0.584400773 -2.43445484e-05 -0.00035447962
      -9.09768496e-05 -4.18805794e-05 -0.000493471976 0.00744871236
      0.0650289953 -0.000270967488 -0.000262148213</_>
    <_>
      -0.79179877 -3.3252089 -0.0035938283 -0.0171587113 -0.000118841221
      -0.00729858968 -0.000285221409 -0.00130148465 -1.64857408e-06
      -1.11149993e-05 -2.45292597e-07 -5.91444368e-05 -0.000226226926
      -0.000113882576 2.99727249 2.27963471 -0.00175072637 2.45648146
      -9.64815772e-05 -0.00105253991 -0.000403398299 -0.00277406815
      0.072291851 -1.07076112e-05 1.96276319 3.41003728 -1.40463289e-05
      -3.99821147e-05 -1.57501945e-05 1.34222448 -0.000107552623
      0.549811363 -0.000583618996 -7.05561761e-05 -0.000531548343
      -0.00025798846 -4.34287031e-05 -0.00149768987 -0.000141002107
      -0.000107803586 -0.000565298484 -0.000774205953 -0.000338035374
      -0.0040184469 -0.00140900328 -0.000310861826 3.13089466 1.92093015
      -0.0064372709 -0.000932266237 -1.63525983e-05 -2.55469286e-06
      -0.00648450479 1.50322986 -0.0181344282 -0.0270961002
      -0.00178972608 0.495080024 -0.00252207625 -0.000538266555
      -0.000536343898 -0.000542303722 2.79509091 0.00999989361
      -3.44191067e-05 -2.90416647e-05 -2.01422499e-05 -0.00259164651
      -0.000928405963 -0.000612742442 2.45721436 -0.0011431711
      -6.41191218e-05 -1.821056e-06 -0.000881896645 -1.85294193e-05
      1.33579147 2.1442349 -0.00106812641 -8.81696269e-06
      -4.49464636e-07 -0.000189670231 1.03756261 -0.0157135278
      -0.000318287202 0.760354638 0.280885637 -3.91568392e-06
      -0.00441692118 -0.00378553709 -0.000234865758 -0.00331132277
      -0.00517111551 5.29136467 -0.0139986873 -0.000737772847
      -0.000711049419 -0.00350084691 -0.00142418616 -4.25657345e-05
      -0.00556426728 3.73879886 -1.52212067e-06 -7.69532635e-05
      -0.00085331127 3.62780809 -8.6928696e-05 -3.14604222e-05
      -0.000253315317 0.333542615 -0.00115123147 -0.0023314266
      -1.38371943e-05 -4.89582635e-05 -0.000374994386 -7.2330306e-07
      -1.92258153e-06 -0.000127683961 -2.92511395e-05 -0.00534579158
      -4.87696116e-06 -0.00387677015 -0.00034247397 0.695578575
      -0.00824564509 -0.00153726793 -0.0166800413 -0.00346447527
      -0.00212374725 0.0948518515 0.453264356 -7.40766991e-05
      -0.000115179937 -0.00102689932 0.439226747 0.238615587
      -0.000198989772 0.514598608 -2.18702598e-06 0.0779680163
      -0.000967874716 -0.000238957582 0.496772289 -0.00228065089
      -0.000250243989 -2.15477739e-05 -0.000203796197 -2.68536587e-06
      -2.31752119e-06 0.310406327 -0.00285535725 -0.0016040334
      -6.2204781e-05 -1.06454127e-06 -0.00113704498 -3.65704977e-06
      -0.00281991274 0.629259646 0.256255507 0.615786016 -0.00184105348
      0.185093731 0.293420821 -3.16736987e-05 -0.000494916982
      -0.00083213544 0.134339571 0.335950732 -0.000412955822 0.232417598
      0.743590474 0.404998183 -0.00385517534 -0.00634134794
      -0.00125542365 0.141389281 -0.00228215987 -1.38114392e-05
      -0.00394304376 -0.00191767327 -0.00337442639 -0.00251906319
      -0.000106267595 -2.60254046e-06 0.56833756 -2.67481028e-07
      -3.56407526e-07 0.029656671 0.486901969 -0.000428972184
      0.318387568 -0.000149759901 -9.44882631e-05 0.270496845
      0.0169703998 -0.000142634133 -3.94361814e-05 -3.05969988e-05
      -4.56637863e-05 -0.000248980912 0.0115417782 -0.00010852862
      0.0894945711 -0.0006984754 0.0262850448 0.269517779
      -0.000119628705 -9.39079882e-07 -0.000194213411 0.000425089151
      0.332290232 0.584400773 -2.43445484e-05 -0.00035447962
      -9.09768496e-05 -4.18805794e-05 -0.000493471976 0.00744871236
      0.0650289953 -0.000270967488 -0.000262148213</_>
    <_>
      -0.777111113 -3.20707154 -0.00361879379 -0.0167776346
      -0.000116860734 -0.00739529589 -0.000297501625 -0.00130518642
      -1.67224994e-06 -1.13153492e-05 -2.4474059e-07 -5.92682554e-05
      -0.000230649384 -0.000114777766 2.94584966 2.20211339
      -0.00179899333 2.57025743 -9.74813665e-05 -0.00105337438
      -0.000405051425 -0.00280949264 0.0457506776 -1.05772569e-05
      1.90064108 3.34580302 -1.44033938e-05 -3.97521981e-05
      -1.61105927e-05 1.44352782 -0.00011072401 0.537484348
      -0.000579980551 -7.22516997e-05 -0.000544052979 -0.000255865714
      -4.25602193e-05 -0.00104521599 -0.000147237006 -0.000107004802
      -0.000566361006 -0.000780150178 -0.000336944824 -0.00428305147
      -0.00146639696 -0.000317213999 3.20408392 1.93189704
      -0.00611908222 -0.000949522597 -0.000107692373 -2.63809943e-06
      -0.00660671061 1.53354037 -0.0179140233 -0.0263297465
      -0.00179997867 0.544666946 -0.00256423675 -0.000548592012
      -0.00056708866 -0.000557518506 2.74746394 -0.000393681577
      -3.53245632e-05 -2.98671621e-05 -1.95618322e-05 -0.00262274919
      -0.000930808485 -0.000631362316 2.47966528 -0.00115652615
      -6.43532767e-05 -1.93308347e-06 -0.000906337402 -1.85254485e-05
      1.26378393 2.10941529 -0.00110121106 -8.66353821e-06
      -4.84515454e-07 -0.000200876806 1.02913082 -0.0152128777
      -0.000328057242 0.757321358 0.343401253 -3.89865454e-06
      -0.00455790805 -0.00380074698 -0.000241071684 -0.00338058104
      -0.0052398718 5.21419239 -0.0139625929 -0.00075578189
      -0.000247965887 -0.00357845379 -0.00144631427 -4.39813157e-05
      -0.00564525276 3.69494891 -1.55165355e-06 -7.83810101e-05
      -0.000857298262 3.70158815 -8.5810374e-05 -3.12188895e-05
      -0.000249392586 0.416171402 -0.00115786225 -0.00233617844
      -1.42207236e-05 -5.18474953e-05 -0.000369026646 -7.5773994e-07
      -1.87672583e-06 -0.000128407191 -2.98835585e-05 -0.00536850933
      -4.95133736e-06 -0.00396352541 -0.000333784934 0.614582479
      -0.0082775848 -0.001497588 -0.016845379 -0.00392177049
      -0.00206178264 0.0872890502 0.465288311 -7.3683339e-05
      -0.000114699396 -0.000372457202 0.493285835 0.267585218
      -0.000205041055 0.511522233 -2.0805885e-06 0.051263079
      -0.00089171133 -0.000231054379 0.478936821 -0.00204636599
      -0.000586903247 -2.152446e-05 -0.000199105765 -2.62670392e-06
      -2.35656262e-06 0.340679795 -0.00283134985 -0.00183252187
      0.00930583104 -1.07764151e-06 -0.00100980699 -3.68135557e-06
      -0.00271404861 0.613275886 0.301145911 0.62236321 -0.00182447047
      0.224744752 0.296535581 -3.18039456e-05 -0.000495131477
      -0.000607930939 0.152351677 0.313561559 -0.000397955358
      0.239628524 0.79253304 0.382166862 -0.00363796763 -0.00592920929
      -0.00101094774 0.11122521 -0.00226785243 -1.38105161e-05
      -0.0039096782 -0.00191231933 -0.00333697442 -0.00252450933
      -0.000107664237 -2.55767986e-06 0.540124118 -2.70966581e-07
      -3.60779921e-07 0.0609901175 0.442908585 -0.000428966538
      0.318333149 -0.000149759566 -9.44880012e-05 0.270463675
      0.0169873461 -0.000142633886 -3.94360723e-05 -2.9905661e-05
      -4.51721971e-05 -0.000248983881 0.0116388239 -0.00010853065
      0.0895033479 -0.000698515621 0.0262287706 0.269473732
      -0.000119628428 -9.38460573e-07 -0.000194214474 0.000511292368
      0.332327574 0.5843817 -2.43444265e-05 -0.000354715652
      -9.09764203e-05 -4.18804339e-05 -0.000493496249 0.00745969824
      0.0650171712 -0.000270968827 -0.000262204558</_>
    <_>
      -0.802992105 -3.28765583 -0.00368597195 -0.0181553885
      -0.000125746286 -0.00756638264 -0.000279809406 -0.00130221224
      -1.63188474e-06 -1.11033105e-05 -2.50352883e-07 -6.10226489e-05
      -0.000226999735 -0.000119345459 3.15097356 2.26767635
      -0.00177220046 2.45866752 -9.53199706e-05 -0.0010455416
      -0.00040453751 -0.00279534492 0.119074285 -1.06229872e-05
      1.93173277 3.40754008 -1.35922146e-05 -4.148687e-05
      -1.55242251e-05 1.23632061 -0.000111989291 0.557109714
      -0.000621917134 -7.10577806e-05 -0.000534351624 -0.000257130829
      -4.31707595e-05 -0.00168295263 -0.000141779441 -0.000107335924
      -0.000548034324 -0.000800656446 -0.00034546238 -0.00391087076
      -0.00141459401 -0.000326029549 3.19684744 1.89521575
      -0.00694371993 -0.000965193613 0.00713406643 -2.42461056e-06
      -0.00655689742 1.5423739 -0.0179655012 -0.0283251368
      -0.00186994323 0.442178398 -0.00257991953 -0.000561318418
      -0.000544690585 -0.000534352032 2.81460452 -0.00019006498
      -3.42908461e-05 -2.84018242e-05 -1.98088437e-05 -0.00264567998
      -0.000960896316 -0.000598364335 2.54346943 -0.00116450607
      -6.26093679e-05 -1.71848058e-06 -0.000871050928 -1.81860887e-05
      1.32353652 2.25530028 -0.00108367833 -8.72711462e-06
      -4.56307902e-07 -0.00019008579 1.07778919 -0.0166813675
      -0.000316527672 0.7577703 0.283078372 -3.99939108e-06
      -0.00447382731 -0.00383423804 -0.000240604058 -0.00333141675
      -0.00510966778 5.2556076 -0.0141833536 -0.000736311078
      -0.00154330174 -0.00356079335 -0.00145091722 -4.26551051e-05
      -0.00567463646 3.73587894 -1.47566618e-06 -7.58202077e-05
      -0.00085264974 3.72274017 -8.82839377e-05 -3.10149517e-05
      -0.00026298649 0.247784942 -0.00114507042 -0.00235639815
      -1.33723088e-05 -4.91415121e-05 -0.000390114961 -7.21851791e-07
      -1.88899048e-06 -0.000131202323 -2.97998522e-05 -0.00546135288
      -5.14988642e-06 -0.00395956216 -0.0003599833 0.710001767
      -0.00823281612 -0.00155072496 -0.0169253089 -0.00394217251
      -0.00200819178 0.0931832045 0.456506282 -7.40853284e-05
      -0.000115673196 -0.00110390305 0.441956669 0.234992817
      -0.000201069677 0.522772908 -2.17228603e-06 0.081039235
      -0.000983562088 -0.000239517423 0.504969716 -0.00222654734
      -0.000350875402 -2.14516785e-05 -0.000204139404 -2.69941756e-06
      -2.299578e-06 0.300248563 -0.00271031167 -0.00168590865
      -0.000210307713 -1.05690094e-06 -0.00119226531 -3.63175104e-06
      -0.00280600367 0.629753232 0.246981263 0.632717013 -0.00186930236
      0.174667984 0.300295562 -3.14805147e-05 -0.000500388676
      -0.000955759315 0.13479045 0.359466136 -0.0004147609 0.229489595
      0.732414842 0.414041042 -0.00386596913 -0.00654578861
      -0.00136333646 0.151016563 -0.00230414327 -1.37800298e-05
      -0.00396691356 -0.00196018396 -0.00339819607 -0.00253729825
      -0.000106979365 -2.57735724e-06 0.565773487 -2.66878402e-07
      -3.53583943e-07 0.0250298232 0.491800785 -0.000428972184
      0.318387568 -0.000149759901 -9.44882631e-05 0.270496845
      0.0169703998 -0.000142634133 -3.94361814e-05 -3.05969988e-05
      -4.56637863e-05 -0.000248980912 0.0115417782 -0.00010852862
      0.0894945711 -0.0006984754 0.0262850448 0.269517779
      -0.000119628705 -9.39079882e-07 -0.000194213411 0.000425089151
      0.332290232 0.584400773 -2.43445484e-05 -0.00035447962
      -9.09768496e-05 -4.18805794e-05 -0.000493471976 0.00744871236
      0.0650289953 -0.000270967488 -0.000262148213</_>
    <_>
      -0.802992105 -3.28765583 -0.00368597195 -0.0181553885
      -0.000125746286 -0.00756638264 -0.000279809406 -0.00130221224
      -1.63188474e-06 -1.11033105e-05 -2.50352883e-07 -6.10226489e-05
      -0.000226999735 -0.000119345459 3.15097356 2.26767635
      -0.00177220046 2.45866752 -9.53199706e-05 -0.0010455416
      -0.00040453751 -0.00279534492 0.119074285 -1.06229872e-05
      1.93173277 3.40754008 -1.35922146e-05 -4.148687e-05
      -1.55242251e-05 1.23632061 -0.000111989291 0.557109714
      -0.000621917134 -7.10577806e-05 -0.000534351624 -0.000257130829
      -4.31707595e-05 -0.00168295263 -0.000141779441 -0.000107335924
      -0.000548034324 -0.000800656446 -0.00034546238 -0.00391087076
      -0.00141459401 -0.000326029549 3.19684744 1.89521575
      -0.00694371993 -0.000965193613 0.00713406643 -2.42461056e-06
      -0.00655689742 1.5423739 -0.0179655012 -0.0283251368
      -0.00186994323 0.442178398 -0.00257991953 -0.000561318418
      -0.000544690585 -0.000534352032 2.81460452 -0.00019006498
      -3.42908461e-05 -2.84018242e-05 -1.98088437e-05 -0.00264567998
      -0.000960896316 -0.000598364335 2.54346943 -0.00116450607
      -6.26093679e-05 -1.71848058e-06 -0.000871050928 -1.81860887e-05
      1.32353652 2.25530028 -0.00108367833 -8.72711462e-06
      -4.56307902e-07 -0.00019008579 1.07778919 -0.0166813675
      -0.000316527672 0.7577703 0.283078372 -3.99939108e-06
      -0.00447382731 -0.00383423804 -0.000240604058 -0.00333141675
      -0.00510966778 5.2556076 -0.0141833536 -0.000736311078
      -0.00154330174 -0.00356079335 -0.00145091722 -4.26551051e-05
      -0.00567463646 3.73587894 -1.47566618e-06 -7.58202077e-05
      -0.00085264974 3.72274017 -8.82839377e-05 -3.10149517e-05
      -0.00026298649 0.247784942 -0.00114507042 -0.00235639815
      -1.33723088e-05 -4.91415121e-05 -0.000390114961 -7.21851791e-07
      -1.88899048e-06 -0.000131202323 -2.97998522e-05 -0.00546135288
      -5.14988642e-06 -0.00395956216 -0.0003599833 0.710001767
      -0.00823281612 -0.00155072496 -0.0169253089 -0.00394217251
      -0.00200819178 0.0931832045 0.456506282 -7.40853284e-05
      -0.000115673196 -0.00110390305 0.441956669 0.234992817
      -0.000201069677 0.522772908 -2.17228603e-06 0.081039235
      -0.000983562088 -0.000239517423 0.504969716 -0.00222654734
      -0.000350875402 -2.14516785e-05 -0.000204139404 -2.69941756e-06
      -2.299578e-06 0.300248563 -0.00271031167 -0.00168590865
      -0.000210307713 -1.05690094e-06 -0.00119226531 -3.63175104e-06
      -0.00280600367 0.629753232 0.246981263 0.632717013 -0.00186930236
      0.174667984 0.300295562 -3.14805147e-05 -0.000500388676
      -0.000955759315 0.13479045 0.359466136 -0.0004147609 0.229489595
      0.732414842 0.414041042 -0.00386596913 -0.00654578861
      -0.00136333646 0.151016563 -0.00230414327 -1.37800298e-05
      -0.00396691356 -0.00196018396 -0.00339819607 -0.00253729825
      -0.000106979365 -2.57735724e-06 0.565773487 -2.66878402e-07
      -3.53583943e-07 0.0250298232 0.491800785 -0.000428972184
      0.318387568 -0.000149759901 -9.44882631e-05 0.270496845
      0.0169703998 -0.000142634133 -3.94361814e-05 -3.05969988e-05
      -4.56637863e-05 -0.000248980912 0.0115417782 -0.00010852862
      0.0894945711 -0.0006984754 0.0262850448 0.269517779
      -0.000119628705 -9.39079882e-07 -0.000194213411 0.000425089151
      0.332290232 0.584400773 -2.43445484e-05 -0.00035447962
      -9.09768496e-05 -4.18805794e-05 -0.000493471976 0.00744871236
      0.0650289953 -0.000270967488 -0.000262148213</_>
    <_>
      -0.735261559 -3.17442155 -0.003561266 -0.0185319185
      -0.000123068821 -0.00735696359 -0.000269573386 -0.00129162369
      -1.56651015e-06 -1.0825046e-05 -2.44027746e-07 -5.92524812e-05
      -0.000224513977 -0.000113965027 3.20327687 2.18249965
      -0.00171908946 2.39152026 -9.15113196e-05 -0.00101577351
      -0.00039069372 -0.00271414337 0.135237902 -1.02540534e-05
      1.84314883 3.29497838 -1.34653037e-05 -4.04078783e-05
      -1.52335751e-05 1.13294089 -0.000109422028 0.490303248
      -0.000596246682 -6.88602668e-05 -0.000521519338 -0.000249730132
      -4.15338982e-05 -0.00196946133 -0.000136042043 -0.000104429535
      -0.000529315672 -0.000773598731 -0.000343062362 -0.00359404879
      -0.00138317491 -0.00032063789 3.16630602 1.84525299 -0.00680899387
      -0.000928993628 0.0256349631 -2.36504684e-06 -0.006438829
      1.63959265 -0.017522322 -0.0287170261 -0.00181640161 0.471290439
      -0.00250473386 -0.000548111275 -0.000524352421 -0.000521626323
      2.71491408 -0.00049114693 -3.2982527e-05 -2.74048143e-05
      -1.9369556e-05 -0.00258704787 -0.000935028482 -0.000579087588
      2.49084282 -0.00111809897 -6.1095423e-05 -1.64198923e-06
      -0.000849701581 -1.78435948e-05 1.26588261 2.30165744
      -0.00106016721 -8.50635934e-06 -4.40204076e-07 -0.000183312091
      1.10849416 -0.017476473 -0.000310271862 0.729015172 0.322228193
      -3.79274275e-06 -0.00443238486 -0.00382909994 -0.000233599334
      -0.00324599445 -0.00497957924 5.0794363 -0.0137244249
      -0.000722815166 -0.00195140019 -0.00347457547 -0.00141174789
      -4.10925313e-05 -0.00551576959 3.60596347 -1.41442342e-06
      -7.40258038e-05 -0.000826456991 3.6839962 -8.49861754e-05
      -3.00842421e-05 -0.000252273079 0.136487186 -0.0011184141
      -0.00213086535 -1.28494739e-05 -4.7542846e-05 -0.000361565559
      -7.17425678e-07 -1.79478411e-06 -0.000127420164 -2.88905267e-05
      -0.00532450667 -5.03360798e-06 -0.00397640467 -0.000336945232
      0.667378247 -0.00802019425 -0.00150185928 -0.0164217912
      -0.00424261438 -0.00189763587 0.0631434247 0.471499562
      -7.42793563e-05 -0.000110711138 -0.000881631044 0.423036098
      0.195197687 -0.00020139727 0.534866691 -2.31400531e-06 0.100589097
      -0.000958272431 -0.000242610127 0.533592463 -0.00196126965
      0.00950407982 -2.11066708e-05 -0.000208381505 -2.78383754e-06
      -2.2424706e-06 0.294216603 -0.00213582558 -0.00178691081
      -0.000363669271 -1.04049468e-06 -0.00102175982 -3.55957241e-06
      -0.00307479105 0.628632724 0.244432122 0.661259592 -0.00180279871
      0.136101365 0.328368038 -3.15134203e-05 -0.000500834489
      -0.000657009718 0.138694882 0.388893425 -0.000424915255
      0.167660311 0.734518647 0.400833786 -0.00428706501 -0.00743185077
      -0.0012719467 0.160966992 -0.0023600345 -1.38069499e-05
      -0.00398401124 -0.00150045007 -0.00345761422 -0.00254961802
      -0.000106359585 -2.59362741e-06 0.617057383 -2.57268312e-07
      -3.47979153e-07 0.0096825026 0.500936568 -0.000428989209
      0.318387806 -0.000149759217 -9.44877465e-05 0.270503968
      0.0169838853 -0.000142633668 -3.9435894e-05 -3.05038684e-05
      -4.56394991e-05 -0.000248983619 0.0115721896 -0.000108530519
      0.0895063728 -0.000698518823 0.0262503251 0.269520879
      -0.000119628094 -9.39767915e-07 -0.000194214284 0.000443536788
      0.332341343 0.584442198 -2.43442828e-05 -0.000354845281
      -9.09761147e-05 -4.18802883e-05 -0.000493495318 0.00745856948
      0.0650311634 -0.000270973163 -0.000262203481</_>
    <_>
      -0.951972783 -3.11260271 -0.00354637648 -0.0161211733
      -0.00013040354 -0.00726249442 -0.000258303306 -0.00129602698
      -1.49862228e-06 -1.06561192e-05 -2.45053542e-07 -5.7988982e-05
      -0.000216095679 -0.000113280541 2.93389916 2.21467853
      -0.00168014225 2.45341754 -9.04469998e-05 -0.00103637436
      -0.000390353554 -0.00272462727 0.108802967 -1.02839795e-05
      1.921049 3.31782818 -1.33897802e-05 -4.08556989e-05
      -1.55544549e-05 1.21237302 -0.000108781271 0.502519369
      -0.000579595449 -6.90958332e-05 -0.00051310932 -0.000256800209
      -4.14958231e-05 -0.00253488659 -0.000135541632 -0.000105803978
      -0.000529203797 -0.000756325433 -0.000362796854 -0.00361724547
      -0.00134218135 -0.000319106883 3.28107977 1.99408746
      -0.00661787717 -0.000907910173 0.00719021633 -2.2066663e-06
      -0.00629443349 1.34639609 -0.0179015398 -0.0266615488
      -0.00179992965 0.461350799 -0.00249615335 -0.000571224315
      -0.000522650254 -0.000513315317 2.72612309 0.00128067285
      -3.22673877e-05 -2.7690985e-05 -1.97263307e-05 -0.00264197681
      -0.000921646191 -0.000564045506 2.32913542 -0.00109058723
      -6.13540251e-05 -1.62121444e-06 -0.000843068177 -1.77246802e-05
      1.27280295 2.15133214 -0.0010566999 -8.55955841e-06
      -4.83248471e-07 -0.000183737473 0.980422616 -0.014998991
      -0.000310499279 0.829992771 0.295994043 -3.70146472e-06
      -0.00445858669 -0.0037435242 -0.000231191778 -0.00323193194
      -0.00492993277 5.13913727 -0.0137801096 -0.000738955045
      -0.000426198239 -0.00344583648 -0.00141289213 -4.10853681e-05
      -0.00535021955 3.62668204 -1.4242238e-06 -7.24042548e-05
      -0.00083433633 3.60484648 -8.48644704e-05 -3.08505987e-05
      -0.000250003301 0.0760518387 -0.00111558416 -0.00228764233
      -1.30322733e-05 -5.02603107e-05 -0.00036424576 -6.97335793e-07
      -1.795863e-06 -0.000130652988 -2.86990653e-05 -0.00524813449
      -4.96753501e-06 -0.00382042816 -0.000333392323 0.704933703
      -0.00800424814 -0.0015690088 -0.0165432096 -0.00349712255
      -0.00188413716 0.066368416 0.472188562 -7.40892719e-05
      -0.000110729969 -0.00089613063 0.425136089 0.1879531
      -0.000200797222 0.535608709 -2.29849911e-06 0.105450332
      -0.00095612352 -0.000243531627 0.534656465 -0.0019848079
      0.00914482772 -2.1127742e-05 -0.000208710058 -2.78239304e-06
      -2.23658117e-06 0.286967397 -0.00206085737 -0.00179272832
      -0.000456584268 -1.03990772e-06 -0.00111221033 -3.55535576e-06
      -0.00305153546 0.631306231 0.239113897 0.655164123 -0.00180681865
      0.130554274 0.323015302 -3.13816272e-05 -0.000500291993
      -0.000671037473 0.140528202 0.392386675 -0.000426877959
      0.169884652 0.728862762 0.399767309 -0.00429251138 -0.00743414229
      -0.00146892213 0.164069131 -0.00235260651 -1.3824475e-05
      -0.00398823339 -0.00156361749 -0.00343109504 -0.00255136238
      -0.000106359184 -2.58915065e-06 0.614307165 -2.57343544e-07
      -3.47607198e-07 0.00778170303 0.500642776 -0.000428989209
      0.318387806 -0.000149759217 -9.44877465e-05 0.270503968
      0.0169838853 -0.000142633668 -3.9435894e-05 -3.05038684e-05
      -4.56394991e-05 -0.000248983619 0.0115721896 -0.000108530519
      0.0895063728 -0.000698518823 0.0262503251 0.269520879
      -0.000119628094 -9.39767915e-07 -0.000194214284 0.000443536788
      0.332341343 0.584442198 -2.43442828e-05 -0.000354845281
      -9.09761147e-05 -4.18802883e-05 -0.000493495318 0.00745856948
      0.0650311634 -0.000270973163 -0.000262203481</_>
    <_>
      -0.809240043 -2.80119777 -0.00348869595 -0.0174214002
      -0.000120799843 -0.00717045227 -0.000261316774 -0.00128122838
      -1.47480728e-06 -1.06404059e-05 -2.42230129e-07 -5.69596268e-05
      -0.000215913125 -0.000109039443 3.06177068 2.02505422
      -0.00168088928 2.60946012 -8.90579977e-05 -0.00101133483
      -0.000380689336 -0.00269358815 0.0981330052 -9.89501223e-06
      1.74958897 3.12878227 -1.32982968e-05 -4.00280769e-05
      -1.53538585e-05 1.29852378 -0.000108308275 0.453708619
      -0.00054726185 -6.75744377e-05 -0.000517044624 -0.000252041616
      -3.87621949e-05 -0.00247730454 -0.000131415887 -0.000105125771
      -0.000521640875 -0.000729380467 -0.000357459852 -0.00356905395
      -0.00137442502 -0.000319392304 3.34988642 1.93814301
      -0.00664611161 -0.000873689656 0.016337147 -2.2117581e-06
      -0.00636073714 1.51556134 -0.0174522195 -0.0276592206
      -0.00174566254 0.531270564 -0.00247218413 -0.000566490809
      -0.000526102667 -0.000522093673 2.6006248 -0.00162802718
      -3.27020862e-05 -2.71717054e-05 -1.88191771e-05 -0.00256069866
      -0.00089060067 -0.000571962853 2.39054871 -0.00108325679
      -6.07382717e-05 -1.62196602e-06 -0.000841048488 -1.70776366e-05
      1.09486485 2.19495988 -0.00106216455 -8.36443905e-06
      -4.76282963e-07 -0.000190667095 1.08502448 -0.0163204968
      -0.000304274377 0.81721735 0.361432731 -3.58296779e-06
      -0.00442679832 -0.00383206992 -0.000224594027 -0.00319862785
      -0.00491347769 4.83107758 -0.013329179 -0.000725113496
      -0.00114640663 -0.00341173005 -0.00139287533 -4.01406105e-05
      -0.00528449146 3.43732572 -1.41496741e-06 -7.19556119e-05
      -0.000822186179 3.76013184 -8.12763828e-05 -3.0024712e-05
      -0.000238162262 0.135886669 -0.00110774057 -0.00192671118
      -1.30288718e-05 -4.95721251e-05 -0.000336366706 -6.74315118e-07
      -1.71414399e-06 -0.000124457089 -2.83802692e-05 -0.005097738
      -4.83215172e-06 -0.00393936131 -0.000300024927 0.548545718
      -0.00794384908 -0.00142653612 -0.0163697321 -0.00494746864
      -0.00174324529 0.061789833 0.467100531 -7.38768649e-05
      -0.000111392379 -0.000935088086 0.427991867 0.183368549
      -0.000201405099 0.53942585 -2.27641362e-06 0.102595657
      -0.00089042238 -0.000242380644 0.535174131 -0.00199138466
      0.00587901473 -2.11266306e-05 -0.000206725774 -2.79271035e-06
      -2.24520295e-06 0.281175584 -0.0021130091 -0.00177232351
      -0.000525397074 -1.04445269e-06 -0.00117789651 -3.56925989e-06
      -0.00308781606 0.631229877 0.240859509 0.658022583 -0.0018239452
      0.133116528 0.318120778 -3.12736447e-05 -0.000499679707
      -0.000767743622 0.134695262 0.387198865 -0.000425509119
      0.163177103 0.724169016 0.412466913 -0.00432172557 -0.00744112674
      -0.00143972633 0.161501259 -0.00234600902 -1.38607293e-05
      -0.00397914089 -0.00160069577 -0.00337898196 -0.00255247857
      -0.000105474144 -2.59357944e-06 0.605662107 -2.59416794e-07
      -3.49674508e-07 0.00942600518 0.495725751 -0.000428989209
      0.318387806 -0.000149759217 -9.44877465e-05 0.270503968
      0.0169838853 -0.000142633668 -3.9435894e-05 -3.05038684e-05
      -4.56394991e-05 -0.000248983619 0.0115721896 -0.000108530519
      0.0895063728 -0.000698518823 0.0262503251 0.269520879
      -0.000119628094 -9.39767915e-07 -0.000194214284 0.000443536788
      0.332341343 0.584442198 -2.43442828e-05 -0.000354845281
      -9.09761147e-05 -4.18802883e-05 -0.000493495318 0.00745856948
      0.0650311634 -0.000270973163 -0.000262203481</_>
    <_>
      -0.806342781 -2.90582013 -0.00336758466 -0.0172175169
      -0.000120702447 -0.00698983902 -0.000250129815 -0.00127679086
      -1.38999769e-06 -1.04129231e-05 -2.39166496e-07 -5.51333069e-05
      -0.000214538799 -0.000106064137 3.0331459 2.10655379
      -0.00162259012 2.57445598 -8.76400882e-05 -0.00102225877
      -0.000368716079 -0.00259939162 0.109978452 -9.785781e-06
      1.81972039 3.20926929 -1.33071862e-05 -3.95144925e-05
      -1.5048593e-05 1.28634846 -0.000104292012 0.539777994
      -0.000533992134 -6.60358564e-05 -0.000504586322 -0.00025316645
      -3.83125916e-05 -0.0022954226 -0.000127019957 -0.000101940204
      -0.000509823323 -0.00069767423 -0.000359235884 -0.00356881483
      -0.00133631227 -0.000313398981 3.34494781 1.96727717 -0.0067454949
      -0.000836893101 0.0237555876 -2.12295436e-06 -0.00621064007
      1.50636435 -0.0175171178 -0.0273895394 -0.00169940933 0.540761709
      -0.00237812451 -0.000542887428 -0.000513853447 -0.000497526198
      2.63957763 -0.000996677787 -3.25474066e-05 -2.63926522e-05
      -1.87672504e-05 -0.00251743547 -0.000877295039 -0.00056393526
      2.31897736 -0.00105577183 -5.88981093e-05 -1.55563532e-06
      -0.000835607119 -1.72327673e-05 1.1591028 2.18443179
      -0.00102137425 -8.29290184e-06 -4.53575922e-07 -0.000178107075
      1.08964849 -0.016258955 -0.00029981113 0.846973062 0.351611078
      -3.44748196e-06 -0.00432999711 -0.00375898322 -0.000215694788
      -0.00310573028 -0.00485277502 4.96961498 -0.0132399602
      -0.000725676597 -0.000980966026 -0.00330346543 -0.00135559065
      -3.87677464e-05 -0.00519452617 3.5077908 -1.39999202e-06
      -7.09171218e-05 -0.000816972519 3.72093987 -7.99989793e-05
      -3.0008121e-05 -0.000231247672 0.0731406882 -0.00106460764
      -0.00205606432 -1.28166457e-05 -4.78852962e-05 -0.000323314802
      -6.68455357e-07 -1.66656741e-06 -0.000123579041 -2.73219739e-05
      -0.00504082954 -4.68239114e-06 -0.00381870079 -0.000296781538
      0.6146819 -0.00797186419 -0.00138926529 -0.0162705649
      -0.00436501298 -0.00175269647 0.0684121251 0.473614752
      -7.3903153e-05 -0.000110580106 -0.000930775364 0.432413757
      0.188243821 -0.000199860733 0.534302354 -2.28700924e-06
      0.103361845 -0.00102799747 -0.000243562754 0.532343507
      -0.0020977119 -4.58717341e-06 -2.11810893e-05 -0.000208860292
      -2.78405491e-06 -2.24297128e-06 0.288631499 -0.00215511746
      -0.00176832022 -0.000459489995 -1.04589162e-06 -0.00118063157
      -3.57373665e-06 -0.00303139212 0.632885873 0.232806414 0.647082329
      -0.00179379061 0.128435388 0.311461776 -3.13010714e-05
      -0.000496628636 -0.000704463921 0.142188281 0.381493747
      -0.000426501327 0.165295586 0.731352448 0.404932857 -0.00427313941
      -0.00725900289 -0.00149544142 0.160612673 -0.00233394466
      -1.38813139e-05 -0.00397404609 -0.00169735367 -0.00336625637
      -0.00253264303 -0.000106184474 -2.60198158e-06 0.603688121
      -2.58264549e-07 -3.49778304e-07 0.0116466954 0.492994189
      -0.000428989209 0.318387806 -0.000149759217 -9.44877465e-05
      0.270503968 0.0169838853 -0.000142633668 -3.9435894e-05
      -3.05038684e-05 -4.56394991e-05 -0.000248983619 0.0115721896
      -0.000108530519 0.0895063728 -0.000698518823 0.0262503251
      0.269520879 -0.000119628094 -9.39767915e-07 -0.000194214284
      0.000443536788 0.332341343 0.584442198 -2.43442828e-05
      -0.000354845281 -9.09761147e-05 -4.18802883e-05 -0.000493495318
      0.00745856948 0.0650311634 -0.000270973163 -0.000262203481</_>
    <_>
      -0.307194948 -3.45058918 -0.00358092366 -0.0196789 -0.000108315689
      -0.00728933513 -0.000278324151 -0.0013107222 -1.34665515e-06
      -1.06935977e-05 -2.45578349e-07 -5.54207872e-05 -0.000211459919
      -0.00011237523 3.18349051 2.10895658 -0.00168268976 2.56402564
      -9.81371704e-05 -0.00101182808 -0.000394972478 -0.00272426126
      0.0871459991 -9.87834119e-06 1.76012373 3.24237227 -1.33327558e-05
      -3.91016692e-05 -1.43524012e-05 1.40887463 -0.000110220317
      0.360664159 -0.000567733427 -6.49020367e-05 -0.000530243327
      -0.000259352615 -3.76754142e-05 -0.00185756152 -0.000116499607
      -0.000110481829 -0.000545062241 -0.000733498251 -0.000332601659
      -0.00313327624 -0.00137034233 -0.00029887259 3.19331121 1.65365064
      -0.00748212961 -0.000838867796 0.0159324389 -2.30111709e-06
      -0.00650936412 1.98314714 -0.0176388621 -0.0288055763
      -0.00179451774 0.513833523 -0.00254107174 -0.000497887377
      -0.000468597427 -0.000532865466 2.70384169 -0.0023244943
      -3.47550595e-05 -2.57403717e-05 -1.73730259e-05 -0.00267256307
      -0.00090587436 -0.00061178644 2.69811821 -0.00112065033
      -6.31825314e-05 -1.6883514e-06 -0.000862483459 -1.71836473e-05
      1.19141829 2.13724256 -0.00105829025 -8.33486683e-06
      -3.27515409e-07 -0.000194605032 1.38117599 -0.0187133793
      -0.000316194637 0.64902705 0.333427608 -3.81315363e-06
      -0.00444778474 -0.00395115558 -0.000223462615 -0.00323471311
      -0.0051701474 5.04755211 -0.0137041472 -0.000693235779
      -0.0023711652 -0.00351426331 -0.00140647916 -3.53261203e-05
      -0.00526360935 3.59758496 -1.37866368e-06 -7.53364075e-05
      -0.000845734263 3.86553764 -8.29605924e-05 -3.03378274e-05
      -0.000238443594 0.570329607 -0.00114402862 -0.00223988318
      -1.33306394e-05 -4.08201377e-05 -0.000326938462 -6.33702996e-07
      -1.77857089e-06 -0.000112772686 -2.85481856e-05 -0.00504927151
      -4.63169999e-06 -0.00413984805 -0.000287534931 0.528948307
      -0.00816966966 -0.00137373875 -0.0158961955 -0.00558752334
      -0.00181468762 0.0696390718 0.467729568 -7.42156117e-05
      -0.000111711895 -0.000968756678 0.421465158 0.205994233
      -0.000199429865 0.532290161 -2.31261151e-06 0.0976109803
      -0.000997804105 -0.000240930443 0.524336576 -0.0021177365
      0.0070875138 -2.11569059e-05 -0.000207560501 -2.81037251e-06
      -2.25118015e-06 0.294467837 -0.00216033333 -0.00181409623
      -0.000464865734 -1.0486998e-06 -0.00114594155 -3.5886419e-06
      -0.00305953249 0.632413864 0.231716186 0.65228194 -0.00179750496
      0.142561659 0.306005061 -3.14387871e-05 -0.000496177527
      -0.000735233189 0.139411807 0.377022594 -0.000424204976
      0.169103637 0.736449718 0.409237921 -0.00421758555 -0.00731090829
      -0.00123150367 0.156897455 -0.00232914463 -1.38713021e-05
      -0.00396249956 -0.00152090425 -0.00336955534 -0.00252774032
      -0.000105886007 -2.60747083e-06 0.607387662 -2.60366676e-07
      -3.50877059e-07 0.0187281333 0.499605894 -0.000428723171
      0.318393111 -0.000149769941 -9.44958229e-05 0.270399272
      0.0167716667 -0.000142641162 -3.94404378e-05 -3.20918843e-05
      -4.61161144e-05 -0.00024894072 0.0110826548 -0.000108500477
      0.0893222988 -0.000697828713 0.0267980024 0.269479692
      -0.000119637734 -9.2904429e-07 -0.000194200387 0.000140685588
      0.331542134 0.583800972 -2.43484828e-05 -0.000349148584
      -9.09877563e-05 -4.18848613e-05 -0.000493124186 0.00730397366
      0.065000236 -0.000270884018 -0.000261332578</_>
    <_>
      -0.523118377 -3.36512232 -0.00342557812 -0.0187961422
      -0.000113511727 -0.00714958832 -0.00025127441 -0.00127497502
      -1.29686123e-06 -1.03222928e-05 -2.38648624e-07 -5.43233e-05
      -0.000210169848 -0.000110854511 3.03640771 2.25338817
      -0.00157763856 2.40524888 -9.65039944e-05 -0.000989797292
      -0.00038102176 -0.00256605493 0.107713066 -9.64044921e-06
      1.92713082 3.34585118 -1.35745759e-05 -3.77730794e-05
      -1.4236879e-05 1.33146691 -0.000107691332 0.529830813
      -0.000577560335 -6.71358212e-05 -0.000514533313 -0.000256242696
      -3.66473396e-05 -0.00183209521 -0.000117214484 -0.000104152728
      -0.000543549773 -0.000720333832 -0.000326140522 -0.00317671034
      -0.00127980858 -0.000282814988 2.98359108 1.79409337
      -0.00790533796 -0.0008331922 0.019139614 -2.16183957e-06
      -0.00616723951 1.76725829 -0.0173760355 -0.0267699827
      -0.00175890944 0.556702554 -0.00243334682 -0.000522702467
      -0.000448695151 -0.000489055121 2.76052165 -0.000273179787
      -3.40744882e-05 -2.45246792e-05 -1.72779364e-05 -0.00253889477
      -0.0008970325 -0.000584844965 2.48381162 -0.0010740658
      -5.78436957e-05 -1.68592408e-06 -0.000858052343 -1.70162057e-05
      1.33679688 2.08007598 -0.00100871106 -7.94204425e-06
      -3.81466378e-07 -0.000179710871 1.22710729 -0.0177575815
      -0.000308649382 0.739158869 0.502227366 -3.60220724e-06
      -0.00429816125 -0.00377318286 -0.00021827656 -0.00306262425
      -0.00496855797 5.24943447 -0.0136844916 -0.0006927207
      -0.00155016675 -0.00334122498 -0.00135733129 -3.6592297e-05
      -0.00510564633 3.67422366 -1.39433587e-06 -7.04841368e-05
      -0.000826245232 3.66677475 -7.91819766e-05 -2.96046946e-05
      -0.000237861779 0.388435185 -0.00108897046 -0.00205778424
      -1.27433223e-05 -4.25837497e-05 -0.000333994365 -6.41018175e-07
      -1.63389268e-06 -0.000116975098 -2.70506316e-05 -0.00500650797
      -4.64260938e-06 -0.00383162126 -0.000299567153 0.683095753
      -0.00794381369 -0.00134430255 -0.0158171952 -0.00393063109
      -0.00178960245 0.062212728 0.460406333 -7.40498217e-05
      -0.000111506437 -0.00100564957 0.428533077 0.189836189
      -0.000200400289 0.521332741 -2.29208945e-06 0.107915133
      -0.000994508504 -0.000244092007 0.519822061 -0.00209556357
      -9.33216506e-05 -2.12757841e-05 -0.000209221616 -2.80903009e-06
      -2.25871531e-06 0.29610011 -0.00228499412 -0.00174814044
      -0.0004805832 -1.05021616e-06 -0.00114745845 -3.58411557e-06
      -0.0029896046 0.625838161 0.233294994 0.638766646 -0.00178677065
      0.150234625 0.307458371 -3.15730649e-05 -0.000496771245
      -0.000789539423 0.141529471 0.388116688 -0.000426123181
      0.164867595 0.726375341 0.406800538 -0.00429032696 -0.00737090549
      -0.00135099166 0.159300417 -0.0023340662 -1.38820715e-05
      -0.00394537207 -0.00166337611 -0.00330043002 -0.0025227787
      -0.000106470812 -2.61567197e-06 0.581247747 -2.61163791e-07
      -3.5094817e-07 0.00675309822 0.494343042 -0.000428723171
      0.318393111 -0.000149769941 -9.44958229e-05 0.270399272
      0.0167716667 -0.000142641162 -3.94404378e-05 -3.20918843e-05
      -4.61161144e-05 -0.00024894072 0.0110826548 -0.000108500477
      0.0893222988 -0.000697828713 0.0267980024 0.269479692
      -0.000119637734 -9.2904429e-07 -0.000194200387 0.000140685588
      0.331542134 0.583800972 -2.43484828e-05 -0.000349148584
      -9.09877563e-05 -4.18848613e-05 -0.000493124186 0.00730397366
      0.065000236 -0.000270884018 -0.000261332578</_>
    <_>
      -0.490532279 -3.17969728 -0.00328105176 -0.0179097839
      -0.000105222687 -0.00687408214 -0.000247300079 -0.00127510272
      -1.20049003e-06 -1.00361103e-05 -2.31864377e-07 -5.09536949e-05
      -0.000206892597 -0.000104787214 2.88411736 2.11820817
      -0.00153415732 2.60177398 -9.23153202e-05 -0.000979763689
      -0.000363861938 -0.00248001725 0.0868968368 -9.08859147e-06
      1.84717929 3.20652485 -1.3685828e-05 -3.6190344e-05
      -1.38414889e-05 1.52291393 -0.000103160804 0.548170924
      -0.000527698314 -6.50133443e-05 -0.00050771673 -0.000254146027
      -3.38764585e-05 -0.00194601889 -0.000112693757 -0.000100981051
      -0.00052768481 -0.000664053368 -0.000330250215 -0.0032707646
      -0.00125899143 -0.00027845212 3.13386488 1.80776811 -0.00671216333
      -0.000768544152 0.0121005569 -2.08680126e-06 -0.00607209234
      1.72540426 -0.0170570929 -0.0254107844 -0.00166018109 0.630503774
      -0.00236900523 -0.000498719921 -0.000444461883 -0.000475133944
      2.63702607 -0.00103612326 -3.39198377e-05 -2.34861436e-05
      -1.65152669e-05 -0.00245853956 -0.000862440327 -0.000589261588
      2.40376806 -0.00103373185 -5.53095051e-05 -1.60616469e-06
      -0.000861393055 -1.68830575e-05 1.19948065 1.92894232
      -0.000980064506 -7.68346308e-06 -3.81672635e-07 -0.000178757487
      1.28116584 -0.0170447063 -0.000296083192 0.779517889 0.528759897
      -3.39013013e-06 -0.00426288834 -0.00366000668 -0.000205457909
      -0.00294019445 -0.00492114155 5.06479073 -0.0129998662
      -0.000688315893 -0.000868596137 -0.00321670412 -0.00131551758
      -3.52824973e-05 -0.00495226029 3.53892899 -1.37923064e-06
      -6.9517293e-05 -0.000823589333 3.70517302 -7.4243595e-05
      -2.92887253e-05 -0.000222412564 0.434903175 -0.00103759998
      -0.00258969888 -1.26373461e-05 -4.21310469e-05 -0.000302112865
      -5.84554812e-07 -1.53215683e-06 -0.000112653361 -2.6105412e-05
      -0.00483466173 -4.41007296e-06 -0.00373695302 -0.000269877462
      0.59292388 -0.00783738215 -0.00121282123 -0.0155389411
      -0.00443326542 -0.00162384659 0.0706821457 0.467009991
      -7.41772092e-05 -0.000112160087 -0.00110097148 0.424430192
      0.194729403 -0.000198922149 0.509917378 -2.29124294e-06
      0.106852934 -0.00102487719 -0.000243793183 0.528263152
      -0.0021514073 -4.58657742e-05 -2.12642735e-05 -0.000209517486
      -2.7988176e-06 -2.24121004e-06 0.297325134 -0.00238625216
      -0.00168386044 -0.00040680755 -1.04546973e-06 -0.00114034826
      -3.581795e-06 -0.00302838697 0.632416904 0.234546065 0.63368535
      -0.00181292545 0.151150137 0.314483672 -3.13415694e-05
      -0.000498437148 -0.000786428223 0.136112362 0.385686517
      -0.000428569183 0.176581174 0.73365283 0.412356019 -0.00424599322
      -0.00731604686 -0.00134473678 0.158054233 -0.00235142675
      -1.38641362e-05 -0.00396881951 -0.00171424029 -0.00329504604
      -0.00251807505 -0.00010626189 -2.60230604e-06 0.600069165
      -2.61439652e-07 -3.49044768e-07 0.00260260701 0.525016189
      -0.000428723171 0.318393111 -0.000149769941 -9.44958229e-05
      0.270399272 0.0167716667 -0.000142641162 -3.94404378e-05
      -3.20918843e-05 -4.61161144e-05 -0.00024894072 0.0110826548
      -0.000108500477 0.0893222988 -0.000697828713 0.0267980024
      0.269479692 -0.000119637734 -9.2904429e-07 -0.000194200387
      0.000140685588 0.331542134 0.583800972 -2.43484828e-05
      -0.000349148584 -9.09877563e-05 -4.18848613e-05 -0.000493124186
      0.00730397366 0.065000236 -0.000270884018 -0.000261332578</_>
    <_>
      -0.490532279 -3.17969728 -0.00328105176 -0.0179097839
      -0.000105222687 -0.00687408214 -0.000247300079 -0.00127510272
      -1.20049003e-06 -1.00361103e-05 -2.31864377e-07 -5.09536949e-05
      -0.000206892597 -0.000104787214 2.88411736 2.11820817
      -0.00153415732 2.60177398 -9.23153202e-05 -0.000979763689
      -0.000363861938 -0.00248001725 0.0868968368 -9.08859147e-06
      1.84717929 3.20652485 -1.3685828e-05 -3.6190344e-05
      -1.38414889e-05 1.52291393 -0.000103160804 0.548170924
      -0.000527698314 -6.50133443e-05 -0.00050771673 -0.000254146027
      -3.38764585e-05 -0.00194601889 -0.000112693757 -0.000100981051
      -0.00052768481 -0.000664053368 -0.000330250215 -0.0032707646
      -0.00125899143 -0.00027845212 3.13386488 1.80776811 -0.00671216333
      -0.000768544152 0.0121005569 -2.08680126e-06 -0.00607209234
      1.72540426 -0.0170570929 -0.0254107844 -0.00166018109 0.630503774
      -0.00236900523 -0.000498719921 -0.000444461883 -0.000475133944
      2.63702607 -0.00103612326 -3.39198377e-05 -2.34861436e-05
      -1.65152669e-05 -0.00245853956 -0.000862440327 -0.000589261588
      2.40376806 -0.00103373185 -5.53095051e-05 -1.60616469e-06
      -0.000861393055 -1.68830575e-05 1.19948065 1.92894232
      -0.000980064506 -7.68346308e-06 -3.81672635e-07 -0.000178757487
      1.28116584 -0.0170447063 -0.000296083192 0.779517889 0.528759897
      -3.39013013e-06 -0.00426288834 -0.00366000668 -0.000205457909
      -0.00294019445 -0.00492114155 5.06479073 -0.0129998662
      -0.000688315893 -0.000868596137 -0.00321670412 -0.00131551758
      -3.52824973e-05 -0.00495226029 3.53892899 -1.37923064e-06
      -6.9517293e-05 -0.000823589333 3.70517302 -7.4243595e-05
      -2.92887253e-05 -0.000222412564 0.434903175 -0.00103759998
      -0.00258969888 -1.26373461e-05 -4.21310469e-05 -0.000302112865
      -5.84554812e-07 -1.53215683e-06 -0.000112653361 -2.6105412e-05
      -0.00483466173 -4.41007296e-06 -0.00373695302 -0.000269877462
      0.59292388 -0.00783738215 -0.00121282123 -0.0155389411
      -0.00443326542 -0.00162384659 0.0706821457 0.467009991
      -7.41772092e-05 -0.000112160087 -0.00110097148 0.424430192
      0.194729403 -0.000198922149 0.509917378 -2.29124294e-06
      0.106852934 -0.00102487719 -0.000243793183 0.528263152
      -0.0021514073 -4.58657742e-05 -2.12642735e-05 -0.000209517486
      -2.7988176e-06 -2.24121004e-06 0.297325134 -0.00238625216
      -0.00168386044 -0.00040680755 -1.04546973e-06 -0.00114034826
      -3.581795e-06 -0.00302838697 0.632416904 0.234546065 0.63368535
      -0.00181292545 0.151150137 0.314483672 -3.13415694e-05
      -0.000498437148 -0.000786428223 0.136112362 0.385686517
      -0.000428569183 0.176581174 0.73365283 0.412356019 -0.00424599322
      -0.00731604686 -0.00134473678 0.158054233 -0.00235142675
      -1.38641362e-05 -0.00396881951 -0.00171424029 -0.00329504604
      -0.00251807505 -0.00010626189 -2.60230604e-06 0.600069165
      -2.61439652e-07 -3.49044768e-07 0.00260260701 0.525016189
      -0.000428723171 0.318393111 -0.000149769941 -9.44958229e-05
      0.270399272 0.0167716667 -0.000142641162 -3.94404378e-05
      -3.20918843e-05 -4.61161144e-05 -0.00024894072 0.0110826548
      -0.000108500477 0.0893222988 -0.000697828713 0.0267980024
      0.269479692 -0.000119637734 -9.2904429e-07 -0.000194200387
      0.000140685588 0.331542134 0.583800972 -2.43484828e-05
      -0.000349148584 -9.09877563e-05 -4.18848613e-05 -0.000493124186
      0.00730397366 0.065000236 -0.000270884018 -0.000261332578</_>
    <_>
      -0.416494787 -3.15777922 -0.00325634703 -0.0187198482
      -0.000104802573 -0.00686350279 -0.000247696269 -0.00126538367
      -1.20351694e-06 -1.00712195e-05 -2.35689413e-07 -5.07925906e-05
      -0.000206464902 -0.00010275688 2.96643472 2.07944131
      -0.00151179114 2.69789052 -9.1477581e-05 -0.000982259517
