<?xml version="1.0"?>
<opencv_storage>
<opencv_ml_svm>
  <format>3</format>
  <svmType>EPS_SVR</svmType>
  <kernel>
    <type>RBF</type>
    <gamma>0.01</gamma></kernel>
  <C>1.</C>
  <p>0.001</p>
  <term_criteria><epsilon>0.001</epsilon>
    <iterations>3000</iterations></term_criteria>
  <var_count>221</var_count>
  <sv_total>134</sv_total>
  <support_vectors>
    <_>
      -0.424162447 -3.99201107 -0.00379351457 -0.0208656862
      -0.000112190421 -0.00764090568 -0.00028230442 -0.00133977912
      -1.50125413e-06 -1.13197075e-05 -2.46161278e-07 -5.98011211e-05
      -0.000222592105 -0.000120295495 3.38650775 2.48099542
      -0.00176133937 2.31455541 -0.000103707374 -0.00102322176
      -0.000426995859 -0.0028198834 0.128100395 -1.05871759e-05 2.060004
      3.63699079 -1.40903012e-05 -3.99097407e-05 -1.48552781e-05
      1.23273885 -0.000111310284 0.432788551 -0.000651594135
      -7.12958499e-05 -0.000545510149 -0.000263510417 -4.31273402e-05
      -0.00150525267 -0.000131771114 -0.000107950313 -0.000606967777
      -0.000819516776 -0.000313853205 -0.00310650701 -0.00136981963
      -0.000301074499 3.02002168 1.70565844 -0.00771972304
      -0.000950206129 0.0169597045 -2.42279521e-06 -0.00665938016
      2.02451849 -0.0183846466 -0.0293737445 -0.00194715185 0.519299328
      -0.00270061661 -0.000529528712 -0.000476135727 -0.000541749061
      3.05079055 -0.000182912714 -3.61642342e-05 -2.79185588e-05
      -1.92704974e-05 -0.00271207094 -0.00099424168 -0.000649013033
      2.83379364 -0.00117619906 -6.63484316e-05 -1.75784623e-06
      -0.000915217388 -1.95088669e-05 1.50536835 2.29107332
      -0.00108390825 -8.90538558e-06 -3.63964006e-07 -0.000186067904
      1.27913833 -0.0201682914 -0.000328823808 0.654058099 0.324715376
      -4.14677061e-06 -0.00456771581 -0.00404388644 -0.000246632611
      -0.00338214985 -0.00528375711 5.64422894 -0.0146703897
      -0.000732642424 -0.00324634789 -0.00361904874 -0.00148058555
      -3.97683471e-05 -0.00571584143 4.02963924 -1.49460925e-06
      -7.77251335e-05 -0.000856129569 3.8458066 -8.71222801e-05
      -3.13181918e-05 -0.000269437936 0.715087116 -0.00118484232
      -0.00269326125 -1.36236613e-05 -4.40523399e-05 -0.000386756728
      -7.15503973e-07 -1.91571485e-06 -0.000126091283 -2.99099156e-05
      -0.00554173766 -5.11317785e-06 -0.00412258785 -0.00035198353
      0.768291295 -0.00847688969 -0.00157930912 -0.0164759643
      -0.0040158527 -0.00223142304 0.0939285904 0.479921848
      -7.37649389e-05 -0.000115217343 -0.000259870576 0.490500838
      0.271475255 -0.000203613148 0.500532031 -2.08583083e-06
      0.053563416 -0.000951473485 -0.000231720129 0.48053816
      -0.00200521504 -0.000505115546 -2.13908625e-05 -0.000200842915
      -2.62939602e-06 -2.32882599e-06 0.359515667 -0.00279747625
      -0.0018415472 0.00801054761 -1.06631444e-06 -0.00101773033
      -3.6492786e-06 -0.00281130685 0.608332455 0.303982019 0.627779067
      -0.00182715664 0.238127157 0.293372065 -3.16512924e-05
      -0.000496027526 -0.00049105339 0.152225673 0.308938384
      -0.000404646678 0.231779665 0.817627072 0.377728254 -0.00371793238
      -0.00617717253 -0.000909331196 0.101146787 -0.00230452465
      -1.37311008e-05 -0.0039437497 -0.00189655484 -0.00334126409
      -0.00252629397 -0.000107475178 -2.53147118e-06 0.564217448
      -2.69837273e-07 -3.55950533e-07 0.065441817 0.46250245
      -0.000428961124 0.318374097 -0.000149760192 -9.44884814e-05
      0.270484686 0.016966898 -0.000142634337 -3.94363196e-05
      -3.04803252e-05 -4.55569461e-05 -0.000248980097 0.011548331
      -0.000108528038 0.0894900113 -0.000698460557 0.0262909532
      0.269505203 -0.000119628989 -9.385368e-07 -0.000194213164
      0.000435765833 0.332270384 0.58437258 -2.43446684e-05
      -0.000354329997 -9.09771625e-05 -4.18807103e-05 -0.0004934647
      0.00744581409 0.0650248602 -0.000270964578 -0.000262130692</_>
    <_>
      -0.459636986 -3.99030876 -0.00378052564 -0.0202684663
      -0.000112481495 -0.00762255816 -0.000283461908 -0.00133456092
      -1.53109954e-06 -1.12893067e-05 -2.46691343e-07 -6.03059889e-05
      -0.000223255294 -0.000121888581 3.29012322 2.51538825
      -0.00175642723 2.29883647 -0.000105423285 -0.00102784066
      -0.000429489941 -0.00279271021 0.141019791 -1.07137403e-05
      2.09448195 3.66956544 -1.42113795e-05 -4.00247009e-05
      -1.49251355e-05 1.22844803 -0.000110499757 0.463970751
      -0.000659401761 -7.18289521e-05 -0.000544076203 -0.000262241781
      -4.34309477e-05 -0.00130166695 -0.000134777642 -0.000107774482
      -0.000605545996 -0.000826867588 -0.000314287288 -0.00307917478
      -0.00135898229 -0.000301905908 2.94956732 1.7442534 -0.00750280404
      -0.000958516554 0.0156900007 -2.46165064e-06 -0.00660632597
      1.97386193 -0.0183997899 -0.0287668444 -0.00194893102 0.52929461
      -0.00269447733 -0.000536258798 -0.000474303612 -0.000538712542
      3.06682014 0.0143740848 -3.58742982e-05 -2.79333344e-05
      -1.91243689e-05 -0.00272151735 -0.00100614061 -0.000642255996
      2.79852176 -0.00118495652 -6.58667414e-05 -1.82180645e-06
      -0.000917753729 -1.95957673e-05 1.53347886 2.22121978
      -0.00107489945 -8.86884209e-06 -3.81319239e-07 -0.000185813784
      1.29308009 -0.019542167 -0.000331615272 0.682003975 0.35430932
      -4.15992781e-06 -0.00452082139 -0.00396663742 -0.000248010852
      -0.00335562043 -0.005267689 5.69328499 -0.0146183129
      -0.000729825697 -0.00302994787 -0.00359981554 -0.0014813483
      -4.0698993e-05 -0.00571319461 4.05882072 -1.51233644e-06
      -7.89854457e-05 -0.000860340428 3.76235342 -8.8547924e-05
      -3.133668e-05 -0.000270800083 0.676788032 -0.00118280633
      -0.00288306735 -1.36808358e-05 -4.4596778e-05 -0.000395625888
      -7.17022886e-07 -1.93626829e-06 -0.000127063206 -2.96834496e-05
      -0.00554410787 -5.15286274e-06 -0.00406224653 -0.000359916274
      0.805392802 -0.00847462472 -0.00156745652 -0.0164453033
      -0.00372912409 -0.00226104772 0.0915033743 0.478101671
      -7.3530573e-05 -0.000115361028 -0.000191663057 0.501906037
      0.277185261 -0.000204670243 0.511183679 -2.0478119e-06
      0.0499781519 -0.000992250047 -0.000231281199 0.486940891
      -0.00197885744 -0.000512244995 -2.13374478e-05 -0.000199341317
      -2.61080845e-06 -2.32935145e-06 0.359812319 -0.00270786439
      -0.00188130734 0.01028971 -1.06670439e-06 -0.00102734508
      -3.64797597e-06 -0.00277988659 0.609744608 0.308619052 0.637875915
      -0.00184244523 0.233190551 0.300470829 -3.15098405e-05
      -0.000497019908 -0.000463269127 0.15908891 0.310408473
      -0.000401887519 0.238957971 0.816710234 0.375661463 -0.00365399173
      -0.00608233782 -0.000960136531 0.110727206 -0.00229953276
      -1.37627258e-05 -0.00395317608 -0.00189756067 -0.00334447366
      -0.00254766247 -0.00010753017 -2.51658048e-06 0.567350924
      -2.69739019e-07 -3.56463914e-07 0.0692839324 0.457948744
      -0.000428961124 0.318374097 -0.000149760192 -9.44884814e-05
      0.270484686 0.016966898 -0.000142634337 -3.94363196e-05
      -3.04803252e-05 -4.55569461e-05 -0.000248980097 0.011548331
      -0.000108528038 0.0894900113 -0.000698460557 0.0262909532
      0.269505203 -0.000119628989 -9.385368e-07 -0.000194213164
      0.000435765833 0.332270384 0.58437258 -2.43446684e-05
      -0.000354329997 -9.09771625e-05 -4.18807103e-05 -0.0004934647
      0.00744581409 0.0650248602 -0.000270964578 -0.000262130692</_>
    <_>
      -0.469329834 -3.96977997 -0.00378999067 -0.0199310016
      -0.000112963753 -0.00763606001 -0.000279537169 -0.00135020888
      -1.47052992e-06 -1.12490443e-05 -2.46889869e-07 -5.9364651e-05
      -0.000222407762 -0.000122837708 3.29039931 2.51540136
      -0.00174744392 2.33414435 -0.000105497391 -0.00102672982
      -0.000429256819 -0.00280972477 0.119404003 -1.05851423e-05
      2.10676098 3.66616225 -1.42790595e-05 -4.01842044e-05
      -1.49207253e-05 1.28184354 -0.000110819288 0.486988068
      -0.000651775568 -7.18473966e-05 -0.0005477019 -0.000264731381
      -4.26581246e-05 -0.00157904532 -0.000132439134 -0.000108446176
      -0.000599618477 -0.000819402689 -0.000319435523 -0.0030215655
      -0.00134891178 -0.000300262182 2.9987793 1.78937912 -0.0077616428
      -0.00094520743 0.00884920172 -2.39766541e-06 -0.00661868276
      1.9557128 -0.0183741339 -0.0290180035 -0.00195660419 0.538253546
      -0.00271476642 -0.000523437338 -0.000468307175 -0.000538301188
      3.06882811 0.0129290596 -3.66412132e-05 -2.77050385e-05
      -1.90485698e-05 -0.00270953029 -0.000996675924 -0.000646816101
      2.76768851 -0.00119201432 -6.58661083e-05 -1.81975372e-06
      -0.000917688187 -1.91335439e-05 1.53516877 2.18982911
      -0.00107866817 -8.86116231e-06 -3.71741606e-07 -0.000184426681
      1.25990617 -0.0189740304 -0.000329052476 0.703698874 0.334485948
      -4.12750751e-06 -0.00452920236 -0.00392484525 -0.00024660182
      -0.0033523601 -0.00524162035 5.69700146 -0.0146495104
      -0.000739103416 -0.00277826888 -0.00359944324 -0.00148691679
      -3.99545024e-05 -0.00555631379 4.05491781 -1.51090251e-06
      -7.88045727e-05 -0.000854876591 3.81812859 -8.7184897e-05
      -3.13190649e-05 -0.000269349082 0.702956975 -0.00117975916
      -0.00272938609 -1.3849758e-05 -4.45677979e-05 -0.00038891958
      -7.01397596e-07 -1.90053049e-06 -0.000125941893 -2.976004e-05
      -0.00554041332 -5.12902534e-06 -0.00406591361 -0.000353163254
      0.800021946 -0.00845301989 -0.00158364023 -0.0165724438
      -0.00365300709 -0.00225962955 0.0877821818 0.473181367
      -7.36248039e-05 -0.000114747374 -0.00015400126 0.503892839
      0.268056035 -0.000205758566 0.514138818 -2.06234836e-06
      0.0587784797 -0.00092276145 -0.000231833459 0.488604337
      -0.00196397444 -0.000530466263 -2.1354188e-05 -0.000200040042
      -2.6079706e-06 -2.33912738e-06 0.355639905 -0.00269509037
      -0.00185040769 0.0095850043 -1.0652825e-06 -0.000955810887
      -3.63854224e-06 -0.00280778413 0.612676382 0.303108931 0.635600507
      -0.00183669513 0.231672049 0.302674443 -3.18770144e-05
      -0.000497107918 -0.000466612342 0.160166591 0.30756709
      -0.000400071294 0.229463905 0.810443163 0.368962467 -0.00371825905
      -0.00613151258 -0.00102622912 0.107924886 -0.00229746802
      -1.37218713e-05 -0.00394910015 -0.00185558107 -0.00336775673
      -0.00255011185 -0.000108534834 -2.52581776e-06 0.555385172
      -2.68758725e-07 -3.55914551e-07 0.0692204833 0.444369107
      -0.000428961124 0.318374097 -0.000149760192 -9.44884814e-05
      0.270484686 0.016966898 -0.000142634337 -3.94363196e-05
      -3.04803252e-05 -4.55569461e-05 -0.000248980097 0.011548331
      -0.000108528038 0.0894900113 -0.000698460557 0.0262909532
      0.269505203 -0.000119628989 -9.385368e-07 -0.000194213164
      0.000435765833 0.332270384 0.58437258 -2.43446684e-05
      -0.000354329997 -9.09771625e-05 -4.18807103e-05 -0.0004934647
      0.00744581409 0.0650248602 -0.000270964578 -0.000262130692</_>
    <_>
      -0.46494323 -3.84903288 -0.00379700889 -0.0194105692
      -0.000111266287 -0.00765709439 -0.000287704694 -0.00133294158
      -1.53590702e-06 -1.14320283e-05 -2.48104101e-07 -6.01737665e-05
      -0.000223557392 -0.000122423939 3.26400447 2.45711589
      -0.00177608128 2.40531731 -0.000105237988 -0.00102573039
      -0.00043034702 -0.00283508888 0.111587733 -1.06977122e-05
      2.04622602 3.60528541 -1.42913623e-05 -4.04616258e-05
      -1.51505501e-05 1.30847228 -0.00011060969 0.41720745
      -0.000650600356 -7.22090044e-05 -0.000547561154 -0.00026305925
      -4.28901039e-05 -0.00146549521 -0.000135712893 -0.000108659668
      -0.000600208936 -0.000829642464 -0.000315876707 -0.00313232257
      -0.00139376672 -0.000303016743 3.05077648 1.77434993
      -0.00714375405 -0.000960557431 0.00877435319 -2.51089887e-06
      -0.00665467186 1.92963576 -0.0183232091 -0.0284425821
      -0.00194455124 0.550376952 -0.00272507872 -0.000533654995
      -0.000484416058 -0.000550679048 3.01806545 -0.000410315755
      -3.65131491e-05 -2.81791345e-05 -1.91175168e-05 -0.00271535222
      -0.00099129451 -0.000649224152 2.75312519 -0.00119858386
      -6.60515725e-05 -1.81779387e-06 -0.000920886232 -1.92011084e-05
      1.46377718 2.19637752 -0.00109205651 -8.93272772e-06
      -3.83555346e-07 -0.000190324747 1.27984369 -0.0188239329
      -0.000333745906 0.693665266 0.309725225 -4.1655785e-06
      -0.00456247991 -0.00397311989 -0.000249467033 -0.00337902177
      -0.00527658314 5.59353161 -0.0145687079 -0.000736747577
      -0.00278142933 -0.00363850757 -0.00148402713 -4.07749831e-05
      -0.00568118133 3.9868381 -1.51578251e-06 -8.03470975e-05
      -0.000862284331 3.81240606 -8.88972354e-05 -3.12236407e-05
      -0.000269497046 0.694390953 -0.00119007064 -0.00268565444
      -1.40225993e-05 -4.54351029e-05 -0.0003908941 -7.16680233e-07
      -1.94136032e-06 -0.000126195286 -2.99756848e-05 -0.00555127626
      -5.14925659e-06 -0.00411583064 -0.000354965334 0.746130884
      -0.00843663886 -0.00156821706 -0.0165265184 -0.00407249853
      -0.00221952889 0.0861614794 0.46942547 -7.35729554e-05
      -0.000114134695 -0.000205198376 0.502370059 0.258165419
      -0.000205546574 0.510587573 -2.0653556e-06 0.0642337799
      -0.000927863934 -0.000232650229 0.487352937 -0.00199186523
      -0.000534870604 -2.14029369e-05 -0.000200634444 -2.61316177e-06
      -2.34112485e-06 0.347868949 -0.0027296585 -0.00182325207
      0.00692160055 -1.06673758e-06 -0.000961615471 -3.64302059e-06
      -0.0028128922 0.614797831 0.302504241 0.629648745 -0.00181872991
      0.223114222 0.302017987 -3.18899147e-05 -0.000497092609
      -0.000470925646 0.158497006 0.312345773 -0.000401075173 0.22957626
      0.807648778 0.369137883 -0.00376275973 -0.00612578401
      -0.00109442836 0.105245955 -0.00229733251 -1.37426459e-05
      -0.00394220464 -0.00195054314 -0.00331468042 -0.00253668195
      -0.000108477892 -2.53509597e-06 0.551217079 -2.6907685e-07
      -3.56421225e-07 0.0629959255 0.449103951 -0.000428961124
      0.318374097 -0.000149760192 -9.44884814e-05 0.270484686
      0.016966898 -0.000142634337 -3.94363196e-05 -3.04803252e-05
      -4.55569461e-05 -0.000248980097 0.011548331 -0.000108528038
      0.0894900113 -0.000698460557 0.0262909532 0.269505203
      -0.000119628989 -9.385368e-07 -0.000194213164 0.000435765833
      0.332270384 0.58437258 -2.43446684e-05 -0.000354329997
      -9.09771625e-05 -4.18807103e-05 -0.0004934647 0.00744581409
      0.0650248602 -0.000270964578 -0.000262130692</_>
    <_>
      -0.730256975 -3.76553226 -0.00355121633 -0.0187371038
      -0.000124177852 -0.00732662482 -0.0002722762 -0.00126618124
      -1.64834341e-06 -1.10747742e-05 -2.45287708e-07 -6.08207192e-05
      -0.000226620818 -0.000119909579 3.0512991 2.46887517
      -0.00169159821 2.27579331 -0.000100721714 -0.00104316161
      -0.000397856551 -0.00269278302 0.115080565 -1.06630305e-05
      2.09771991 3.59325814 -1.4565936e-05 -4.00886674e-05
      -1.53163637e-05 1.25604355 -0.000107493535 0.55322063
      -0.000618039106 -7.1444505e-05 -0.000520176836 -0.000263138849
      -4.4301727e-05 -0.00143747788 -0.000142003744 -0.000104806597
      -0.000585748989 -0.000778296322 -0.00032878443 -0.00434800191
      -0.00138185592 -0.000296161656 2.91912651 1.81212831
      -0.00723247696 -0.000953172275 0.0236585736 -2.4401163e-06
      -0.00638455432 1.63785875 -0.0183009319 -0.02707587 -0.00181958452
      0.505902231 -0.00244621444 -0.000519628229 -0.000522182323
      -0.000521583075 2.9405582 0.18289417 -3.44451037e-05
      -2.81158591e-05 -2.0507634e-05 -0.00242531649 -0.000952373957
      -0.00061833614 2.60003853 -0.00113101164 -6.24644017e-05
      -1.8433509e-06 -0.000874354097 -1.89413495e-05 1.53795111
      2.22897315 -0.00102888164 -8.85170266e-06 -4.54226893e-07
      -0.00017288464 0.997466922 -0.0167653095 -0.000321351545
      0.68730545 0.423971057 -3.84674649e-06 -0.00450887205
      -0.00370891462 -0.00023516464 -0.00322040264 -0.00522763794
      5.59631062 -0.014384442 -0.000741239695 -0.00159832579
      -0.00343351089 -0.0014099835 -4.35963739e-05 -0.00583045511
      3.93266249 -1.56247302e-06 -7.63486969e-05 -0.000865337555
      3.54446912 -8.87796996e-05 -3.10586511e-05 -0.000262510381
      0.330551714 -0.0011472411 -0.00258288556 -1.33364956e-05
      -4.80706476e-05 -0.000385196647 -7.60681417e-07 -1.90912897e-06
      -0.000129659951 -2.84588004e-05 -0.0054577319 -4.89177091e-06
      -0.00375468959 -0.000368072244 0.816320956 -0.0084578041
      -0.00158191239 -0.0169456545 -0.00248481054 -0.002246822
      0.0864707977 0.469519168 -7.34421992e-05 -0.000114139817
      -0.000188239515 0.504189253 0.260371387 -0.000206255427 0.50535059
      -2.03781747e-06 0.0589684248 -0.000885192945 -0.000231297105
      0.488918394 -0.00190508808 -0.000615927856 -2.14176198e-05
      -0.000199367641 -2.60813158e-06 -2.34959225e-06 0.346566141
      -0.00276519824 -0.00179682462 0.0080245398 -1.07061703e-06
      -0.000981171615 -3.65655637e-06 -0.00281846477 0.610733628
      0.313127816 0.633722603 -0.00182702311 0.224654958 0.310342014
      -3.17117556e-05 -0.000498228066 -0.000453752931 0.158521742
      0.314630806 -0.000398753269 0.239462212 0.807269931 0.366015136
      -0.00376135902 -0.00613211608 -0.00102425925 0.101286918
      -0.0023072334 -1.375996e-05 -0.0039353813 -0.00196810509
      -0.00327038113 -0.00253084186 -0.000107906671 -2.53006351e-06
      0.549746275 -2.70268174e-07 -3.58243199e-07 0.0637936816
      0.455178976 -0.000428966538 0.318333149 -0.000149759566
      -9.44880012e-05 0.270463675 0.0169873461 -0.000142633886
      -3.94360723e-05 -2.9905661e-05 -4.51721971e-05 -0.000248983881
      0.0116388239 -0.00010853065 0.0895033479 -0.000698515621
      0.0262287706 0.269473732 -0.000119628428 -9.38460573e-07
      -0.000194214474 0.000511292368 0.332327574 0.5843817
      -2.43444265e-05 -0.000354715652 -9.09764203e-05 -4.18804339e-05
      -0.000493496249 0.00745969824 0.0650171712 -0.000270968827
      -0.000262204558</_>
    <_>
      -0.730256975 -3.76553226 -0.00355121633 -0.0187371038
      -0.000124177852 -0.00732662482 -0.0002722762 -0.00126618124
      -1.64834341e-06 -1.10747742e-05 -2.45287708e-07 -6.08207192e-05
      -0.000226620818 -0.000119909579 3.0512991 2.46887517
      -0.00169159821 2.27579331 -0.000100721714 -0.00104316161
      -0.000397856551 -0.00269278302 0.115080565 -1.06630305e-05
      2.09771991 3.59325814 -1.4565936e-05 -4.00886674e-05
      -1.53163637e-05 1.25604355 -0.000107493535 0.55322063
      -0.000618039106 -7.1444505e-05 -0.000520176836 -0.000263138849
      -4.4301727e-05 -0.00143747788 -0.000142003744 -0.000104806597
      -0.000585748989 -0.000778296322 -0.00032878443 -0.00434800191
      -0.00138185592 -0.000296161656 2.91912651 1.81212831
      -0.00723247696 -0.000953172275 0.0236585736 -2.4401163e-06
      -0.00638455432 1.63785875 -0.0183009319 -0.02707587 -0.00181958452
      0.505902231 -0.00244621444 -0.000519628229 -0.000522182323
      -0.000521583075 2.9405582 0.18289417 -3.44451037e-05
      -2.81158591e-05 -2.0507634e-05 -0.00242531649 -0.000952373957
      -0.00061833614 2.60003853 -0.00113101164 -6.24644017e-05
      -1.8433509e-06 -0.000874354097 -1.89413495e-05 1.53795111
      2.22897315 -0.00102888164 -8.85170266e-06 -4.54226893e-07
      -0.00017288464 0.997466922 -0.0167653095 -0.000321351545
      0.68730545 0.423971057 -3.84674649e-06 -0.00450887205
      -0.00370891462 -0.00023516464 -0.00322040264 -0.00522763794
      5.59631062 -0.014384442 -0.000741239695 -0.00159832579
      -0.00343351089 -0.0014099835 -4.35963739e-05 -0.00583045511
      3.93266249 -1.56247302e-06 -7.63486969e-05 -0.000865337555
      3.54446912 -8.87796996e-05 -3.10586511e-05 -0.000262510381
      0.330551714 -0.0011472411 -0.00258288556 -1.33364956e-05
      -4.80706476e-05 -0.000385196647 -7.60681417e-07 -1.90912897e-06
      -0.000129659951 -2.84588004e-05 -0.0054577319 -4.89177091e-06
      -0.00375468959 -0.000368072244 0.816320956 -0.0084578041
      -0.00158191239 -0.0169456545 -0.00248481054 -0.002246822
      0.0864707977 0.469519168 -7.34421992e-05 -0.000114139817
      -0.000188239515 0.504189253 0.260371387 -0.000206255427 0.50535059
      -2.03781747e-06 0.0589684248 -0.000885192945 -0.000231297105
      0.488918394 -0.00190508808 -0.000615927856 -2.14176198e-05
      -0.000199367641 -2.60813158e-06 -2.34959225e-06 0.346566141
      -0.00276519824 -0.00179682462 0.0080245398 -1.07061703e-06
      -0.000981171615 -3.65655637e-06 -0.00281846477 0.610733628
      0.313127816 0.633722603 -0.00182702311 0.224654958 0.310342014
      -3.17117556e-05 -0.000498228066 -0.000453752931 0.158521742
      0.314630806 -0.000398753269 0.239462212 0.807269931 0.366015136
      -0.00376135902 -0.00613211608 -0.00102425925 0.101286918
      -0.0023072334 -1.375996e-05 -0.0039353813 -0.00196810509
      -0.00327038113 -0.00253084186 -0.000107906671 -2.53006351e-06
      0.549746275 -2.70268174e-07 -3.58243199e-07 0.0637936816
      0.455178976 -0.000428966538 0.318333149 -0.000149759566
      -9.44880012e-05 0.270463675 0.0169873461 -0.000142633886
      -3.94360723e-05 -2.9905661e-05 -4.51721971e-05 -0.000248983881
      0.0116388239 -0.00010853065 0.0895033479 -0.000698515621
      0.0262287706 0.269473732 -0.000119628428 -9.38460573e-07
      -0.000194214474 0.000511292368 0.332327574 0.5843817
      -2.43444265e-05 -0.000354715652 -9.09764203e-05 -4.18804339e-05
      -0.000493496249 0.00745969824 0.0650171712 -0.000270968827
      -0.000262204558</_>
    <_>
      -0.686540127 -3.53652024 -0.00345931528 -0.0177618098
      -0.000113270289 -0.00715689454 -0.000272187928 -0.00125900283
      -1.59813976e-06 -1.10552273e-05 -2.40163757e-07 -5.86517526e-05
      -0.000226052522 -0.000114939859 2.95838428 2.35002208
      -0.00168351736 2.40984035 -9.80697369e-05 -0.00102589827
      -0.000390073692 -0.00264193886 0.0994105861 -1.03718576e-05
      2.00570774 3.46548581 -1.45561535e-05 -3.85525163e-05
      -1.52291741e-05 1.37446105 -0.000104998886 0.533221364
      -0.000586542068 -6.98403965e-05 -0.000516748405 -0.000256212836
      -4.21856093e-05 -0.000746399281 -0.000139019074 -0.000102753736
      -0.000579738291 -0.000748512219 -0.000319471437 -0.00420493074
      -0.00138407527 -0.000293894613 2.98933792 1.82011604
      -0.00613343157 -0.000913066557 0.014874666 -2.51677579e-06
      -0.0063598305 1.64178801 -0.0178529732 -0.0262450594 -0.001747931
      0.560895145 -0.00240456522 -0.000499311602 -0.000520070025
      -0.000519288296 2.84439254 0.109507926 -3.48177273e-05
      -2.78295229e-05 -1.95166958e-05 -0.00237989868 -0.000924036489
      -0.000628336449 2.5806756 -0.00111895159 -6.16712496e-05
      -1.81325197e-06 -0.000877667568 -1.87779624e-05 1.41690958
      2.12985563 -0.00102005794 -8.64642607e-06 -4.32914419e-07
      -0.000175993759 1.04622519 -0.016443124 -0.000314784644
      0.713207066 0.422410846 -3.7360594e-06 -0.00439000735
      -0.00367639028 -0.000228573525 -0.00318148197 -0.00521362666
      5.39856911 -0.0139381886 -0.000727248553 -0.00134096364
      -0.00339265703 -0.00138542557 -4.24667269e-05 -0.00571195129
      3.81409144 -1.5486462e-06 -7.61589326e-05 -0.000849504664
      3.58579683 -8.55914404e-05 -3.03890301e-05 -0.000248816563
      0.465630144 -0.00111912587 -0.00266916561 -1.35323417e-05
      -4.71035164e-05 -0.000361086131 -7.45330624e-07 -1.86129205e-06
      -0.000124712664 -2.79436281e-05 -0.00529873837 -4.71648218e-06
      -0.00376486778 -0.000342964195 0.721407473 -0.00829747505
      -0.00145659246 -0.0166188814 -0.00299058668 -0.00216123345
      0.0865639001 0.472375423 -7.35284339e-05 -0.000114016279
      -0.000190051869 0.499624014 0.267935216 -0.000205100441
      0.513166308 -2.05489755e-06 0.0591153949 -0.000955867989
      -0.00023236881 0.488531142 -0.00196265453 -0.000674466311
      -2.14013562e-05 -0.000200762341 -2.60808383e-06 -2.33187825e-06
      0.347058505 -0.00274453405 -0.00185641041 0.00754955038
      -1.06793243e-06 -0.00103659171 -3.64349398e-06 -0.00275776698
      0.61457181 0.305568695 0.633820713 -0.00182662322 0.216826826
      0.304036528 -3.16685037e-05 -0.000497786386 -0.00048126615
      0.15835619 0.310619533 -0.000400622695 0.237302616 0.80649972
      0.371703118 -0.00374936475 -0.00609054836 -0.00106996053
      0.10661912 -0.00230221543 -1.37444049e-05 -0.0039435518
      -0.00200029812 -0.00329244509 -0.0025384766 -0.000108257336
      -2.52800987e-06 0.545086384 -2.69183914e-07 -3.5665056e-07
      0.0679534078 0.453822047 -0.000428966538 0.318333149
      -0.000149759566 -9.44880012e-05 0.270463675 0.0169873461
      -0.000142633886 -3.94360723e-05 -2.9905661e-05 -4.51721971e-05
      -0.000248983881 0.0116388239 -0.00010853065 0.0895033479
      -0.000698515621 0.0262287706 0.269473732 -0.000119628428
      -9.38460573e-07 -0.000194214474 0.000511292368 0.332327574
      0.5843817 -2.43444265e-05 -0.000354715652 -9.09764203e-05
      -4.18804339e-05 -0.000493496249 0.00745969824 0.0650171712
      -0.000270968827 -0.000262204558</_>
    <_>
      -0.781309605 -3.53049374 -0.00356913707 -0.017345015
      -0.000125570354 -0.00737301772 -0.00028102324 -0.00130243017
      -1.67915096e-06 -1.12641701e-05 -2.4434425e-07 -6.12111617e-05
      -0.000232036909 -0.000118633165 2.94030547 2.39258552
      -0.00172534795 2.4296267 -9.99155818e-05 -0.00105505052
      -0.000400094868 -0.00273341034 0.0847536922 -1.07698079e-05
      2.04953814 3.5177958 -1.48363679e-05 -4.01574689e-05
      -1.56442857e-05 1.38075078 -0.000110560948 0.517908454
      -0.000607587281 -7.21352044e-05 -0.00053064595 -0.000261567387
      -4.43085773e-05 -0.00134355831 -0.000144480815 -0.000106841624
      -0.000593775767 -0.000775328022 -0.000334180804 -0.00427024579
      -0.00141226337 -0.00029759985 3.09362888 1.87679601 -0.00709171686
      -0.000954935851 0.00871385634 -2.56409112e-06 -0.00649653701
      1.55403614 -0.0182557181 -0.0263889637 -0.00181724411 0.501115561
      -0.00249680178 -0.000539145025 -0.000527957978 -0.000532203121
      2.90110564 0.109236017 -3.50426781e-05 -2.89928139e-05
      -2.05716879e-05 -0.00248699961 -0.00094985764 -0.000623583794
      2.58774161 -0.00114163116 -6.35855176e-05 -1.88447223e-06
      -0.00088830333 -1.90646551e-05 1.45121419 2.14174414
      -0.00105848932 -8.86080306e-06 -4.62804962e-07 -0.000182318036
      0.990794182 -0.0156736765 -0.000325199537 0.719841123 0.413039684
      -3.82922599e-06 -0.00451853918 -0.00377153652 -0.000238140856
      -0.00329565583 -0.00529731344 5.49059296 -0.0143629592
      -0.000736634654 -0.000990068889 -0.00349622336 -0.00144107989
      -4.43180179e-05 -0.0058240653 3.87202954 -1.57314651e-06
      -7.76665111e-05 -0.00086542085 3.61017132 -8.77462153e-05
      -3.13197597e-05 -0.00025727661 0.39695859 -0.00115713105
      -0.00256874203 -1.3645913e-05 -4.96031571e-05 -0.000378283818
      -7.59012323e-07 -1.89008949e-06 -0.000131340581 -2.91067263e-05
      -0.00547785498 -4.92539493e-06 -0.00382044795 -0.000360561302
      0.746500909 -0.00839927699 -0.00158259389 -0.0169306621
      -0.00287578464 -0.00224232255 0.0882220343 0.471804172
      -7.3633375e-05 -0.000113850736 -0.000298784813 0.493564129
      0.2571401 -0.000204223601 0.502227604 -2.08446704e-06 0.062679559
      -0.000947022927 -0.000232096121 0.485743642 -0.00198213779
      -0.000582012523 -2.14490447e-05 -0.000201024639 -2.64256346e-06
      -2.34115214e-06 0.343340993 -0.00282486156 -0.00183857197
      0.0105874352 -1.07099333e-06 -0.000989593333 -3.65578103e-06
      -0.00272838934 0.612589836 0.302804023 0.618861616 -0.00182056229
      0.222719967 0.299424559 -3.1668249e-05 -0.00049529667
      -0.000487240613 0.152857929 0.308525145 -0.000401743106
      0.235644817 0.801918983 0.375957608 -0.00377274328 -0.00608843891
      -0.0010119155 0.108399712 -0.00228954433 -1.37729867e-05
      -0.00392854493 -0.00205723406 -0.00327130849 -0.00252932776
      -0.000107526444 -2.54422184e-06 0.545639813 -2.693059e-07
      -3.58033049e-07 0.061489895 0.454933733 -0.000428966538
      0.318333149 -0.000149759566 -9.44880012e-05 0.270463675
      0.0169873461 -0.000142633886 -3.94360723e-05 -2.9905661e-05
      -4.51721971e-05 -0.000248983881 0.0116388239 -0.00010853065
      0.0895033479 -0.000698515621 0.0262287706 0.269473732
      -0.000119628428 -9.38460573e-07 -0.000194214474 0.000511292368
      0.332327574 0.5843817 -2.43444265e-05 -0.000354715652
      -9.09764203e-05 -4.18804339e-05 -0.000493496249 0.00745969824
      0.0650171712 -0.000270968827 -0.000262204558</_>
    <_>
      -0.576690197 -3.69233155 -0.00359837245 -0.0192031786
      -0.000121103767 -0.00746158324 -0.000280990935 -0.00130132609
      -1.63021627e-06 -1.12861962e-05 -2.50965684e-07 -6.08999726e-05
      -0.000232526203 -0.000119025302 3.12715554 2.45663142
      -0.00172945322 2.41230893 -0.000101149068 -0.0010685256
      -0.000404851162 -0.00272971229 0.114792496 -1.07757869e-05
      2.07919002 3.59949398 -1.47915725e-05 -4.04267157e-05
      -1.55506532e-05 1.36822951 -0.000109247274 0.550329566
      -0.000621357176 -7.13000118e-05 -0.000533318729 -0.000266405928
      -4.39448595e-05 -0.00107806502 -0.000139331925 -0.000107285043
      -0.000590104435 -0.000780640228 -0.000329843606 -0.00403428823
      -0.00141367363 -0.000300364743 3.04508448 1.81523347
      -0.00689809257 -0.000945881009 0.0189113989 -2.57031434e-06
      -0.00654246844 1.79052675 -0.0185450073 -0.0276593268
      -0.00183881179 0.511998236 -0.00249564648 -0.000522151182
      -0.000515503925 -0.000531042751 2.96481919 0.100542754
      -3.58448451e-05 -2.8426095e-05 -2.02399387e-05 -0.00251718936
      -0.000959397759 -0.000637815509 2.66378999 -0.00116617733
      -6.35910255e-05 -1.88264278e-06 -0.00089753163 -1.92351308e-05
      1.50396669 2.19780564 -0.00105233188 -9.00892246e-06
      -4.11790097e-07 -0.000180225106 1.1536032 -0.0178970825
      -0.000322352542 0.715799212 0.403177261 -3.92286029e-06
      -0.00444410369 -0.00384360296 -0.000236418797 -0.00329453452
      -0.0053699445 5.59811592 -0.0145426523 -0.000734424801
      -0.00210039178 -0.00351870968 -0.0014418537 -4.24199716e-05
      -0.00584722823 3.9525249 -1.56404883e-06 -7.75946683e-05
      -0.000873687852 3.70313644 -8.97859645e-05 -3.17008198e-05
      -0.000258995598 0.469268888 -0.00115725154 -0.0026587164
      -1.38375626e-05 -4.65339181e-05 -0.000376543729 -7.62694185e-07
      -1.93920778e-06 -0.000128722095 -2.90453954e-05 -0.00549509097
      -4.90484535e-06 -0.00391238742 -0.000360456324 0.777617633
      -0.00856529735 -0.0015425263 -0.017027488 -0.00324258907
      -0.00229682191 0.0865442008 0.468344361 -7.37212104e-05
      -0.000114496572 -0.000337093923 0.493371546 0.266367733
      -0.000203607604 0.499559075 -2.09278278e-06 0.0648683608
      -0.00103602081 -0.000233377505 0.48499766 -0.00205315766
      -0.000504457217 -2.14603951e-05 -0.00020201919 -2.63737866e-06
      -2.3311768e-06 0.350545168 -0.00284597208 -0.00184114603
      0.00604785606 -1.06604307e-06 -0.000989308464 -3.6405329e-06
      -0.00270289415 0.616232157 0.301788777 0.61853838 -0.00181564316
      0.228720263 0.294757336 -3.18486236e-05 -0.000496688706
      -0.000525126816 0.159754395 0.316449642 -0.000404568564
      0.234744549 0.808276892 0.375191301 -0.00373809296 -0.00610209582
      -0.00102639012 0.110347509 -0.00228792662 -1.37186762e-05
      -0.00394514855 -0.00206713052 -0.0033044219 -0.00253472151
      -0.000108235588 -2.53853477e-06 0.548348606 -2.6987459e-07
      -3.55370133e-07 0.0610538945 0.457151294 -0.000428966538
      0.318333149 -0.000149759566 -9.44880012e-05 0.270463675
      0.0169873461 -0.000142633886 -3.94360723e-05 -2.9905661e-05
      -4.51721971e-05 -0.000248983881 0.0116388239 -0.00010853065
      0.0895033479 -0.000698515621 0.0262287706 0.269473732
      -0.000119628428 -9.38460573e-07 -0.000194214474 0.000511292368
      0.332327574 0.5843817 -2.43444265e-05 -0.000354715652
      -9.09764203e-05 -4.18804339e-05 -0.000493496249 0.00745969824
      0.0650171712 -0.000270968827 -0.000262204558</_>
    <_>
      -0.566710234 -3.43191481 -0.00356005807 -0.0201265253
      -0.000121369441 -0.00738413399 -0.000276168779 -0.00129286048
      -1.68721306e-06 -1.11417876e-05 -2.45727591e-07 -6.09460003e-05
      -0.000231409867 -0.000118451389 3.22963643 2.35559392
      -0.00169919129 2.46388698 -0.000100611993 -0.00103369739
      -0.000402474048 -0.00270703482 0.110134184 -1.06696862e-05
      1.96285141 3.48454404 -1.43591924e-05 -3.98381235e-05
      -1.54363388e-05 1.33847988 -0.000109557426 0.480224699
      -0.000613579701 -7.09819069e-05 -0.000533795857 -0.000258735381
      -4.31908084e-05 -0.00137548207 -0.000136182265 -0.000108106295
      -0.000582020846 -0.000776871748 -0.000315402489 -0.00400228612
      -0.00141493557 -0.00029238651 3.09662032 1.75201356 -0.00745014939
      -0.000946022396 0.0288796872 -2.60658589e-06 -0.00642292388
      1.79025602 -0.0182420071 -0.0291948579 -0.00182730821 0.451082677
      -0.00247094408 -0.000524336414 -0.000502733281 -0.000531258818
      2.8834548 0.00587988645 -3.46709639e-05 -2.75183738e-05
      -1.99944006e-05 -0.00243337313 -0.000940605532 -0.000616389792
      2.68170214 -0.00115157454 -6.2447747e-05 -1.901681e-06
      -0.000870161573 -1.82573585e-05 1.41602242 2.29690027
      -0.00104012177 -8.79487561e-06 -4.01869329e-07 -0.000181533818
      1.20488155 -0.0186905432 -0.000324748369 0.651780367 0.396063983
      -3.94568406e-06 -0.00441119121 -0.00386377028 -0.000235571075
      -0.00325383409 -0.00528264651 5.39711285 -0.0143301962
      -0.00071524363 -0.00268781488 -0.00347860437 -0.0014126607
      -4.21754557e-05 -0.00572072063 3.81851029 -1.55798102e-06
      -7.57169546e-05 -0.000859581982 3.69522452 -8.89233197e-05
      -3.07513983e-05 -0.000259555585 0.304723382 -0.00116943964
      -0.00228974735 -1.34388356e-05 -4.45306905e-05 -0.00037109034
      -7.33465697e-07 -1.91082131e-06 -0.000123922975 -2.86376035e-05
      -0.00537663884 -4.80382596e-06 -0.00389932562 -0.000355863041
      0.710424602 -0.00837786216 -0.00156357535 -0.0167466365
      -0.00384030747 -0.0022462206 0.0960709453 0.46196577
      -7.40493197e-05 -0.000114374714 -0.000849574513 0.456895947
      0.243843928 -0.000200663315 0.522282481 -2.15932528e-06
      0.0845146179 -0.00111637299 -0.000241073212 0.50814569
      -0.00217957213 -0.000377974793 -2.13871481e-05 -0.000206683864
      -2.6485975e-06 -2.27827172e-06 0.314872324 -0.00269446452
      -0.00172900315 -0.000114019698 -1.04810715e-06 -0.00113949901
      -3.59499791e-06 -0.00279210415 0.636174083 0.252183527 0.626604736
      -0.00186324283 0.173618764 0.304761499 -3.15146463e-05
      -0.000500471157 -0.000740894 0.146224141 0.349511951
      -0.000415423798 0.232114807 0.758875847 0.39735508 -0.00392817985
      -0.0065061138 -0.00142645987 0.144439369 -0.00232187263
      -1.37102488e-05 -0.00400006725 -0.0020229544 -0.00340089318
      -0.00254739216 -0.000108527762 -2.55335681e-06 0.57424438
      -2.63794931e-07 -3.49214304e-07 0.0321241096 0.493957818
      -0.000428972184 0.318387568 -0.000149759901 -9.44882631e-05
      0.270496845 0.0169703998 -0.000142634133 -3.94361814e-05
      -3.05969988e-05 -4.56637863e-05 -0.000248980912 0.0115417782
      -0.00010852862 0.0894945711 -0.0006984754 0.0262850448 0.269517779
      -0.000119628705 -9.39079882e-07 -0.000194213411 0.000425089151
      0.332290232 0.584400773 -2.43445484e-05 -0.00035447962
      -9.09768496e-05 -4.18805794e-05 -0.000493471976 0.00744871236
      0.0650289953 -0.000270967488 -0.000262148213</_>
    <_>
      -0.548817456 -3.67616749 -0.00360645074 -0.0203264765
      -0.000120282661 -0.00747328205 -0.000282963214 -0.00129929394
      -1.69113707e-06 -1.13531732e-05 -2.49399108e-07 -6.14201053e-05
      -0.000233479179 -0.000120044228 3.2537415 2.45060921
      -0.00172568497 2.40136886 -0.000102877035 -0.00105172023
      -0.000407426152 -0.00274289399 0.119767278 -1.07612186e-05
      2.04887938 3.59631562 -1.47431701e-05 -4.01064171e-05
      -1.55221314e-05 1.33237135 -0.000110379042 0.520953119
      -0.000625903369 -7.15095593e-05 -0.000536577892 -0.000263328286
      -4.39568721e-05 -0.00112423941 -0.000138043164 -0.000108320084
      -0.000593998528 -0.0007906963 -0.000313881843 -0.00404299377
      -0.00142882438 -0.0002950216 3.01329327 1.77216101 -0.00741190603
      -0.000957193028 0.0289253555 -2.6463988e-06 -0.00652271928
      1.84885418 -0.0184648447 -0.0291439947 -0.00185254763 0.487051308
      -0.00250913668 -0.000514519808 -0.000508912024 -0.00053859438
      2.97283316 0.0714965835 -3.56481578e-05 -2.80247696e-05
      -2.02731117e-05 -0.00247371127 -0.000957101409 -0.000634798605
      2.71873999 -0.0011695585 -6.37329358e-05 -1.91760114e-06
      -0.000888343435 -1.89011371e-05 1.50440872 2.29743266
      -0.00105153979 -8.98820053e-06 -3.96323372e-07 -0.000181115101
      1.17267942 -0.01889202 -0.000327869784 0.66642487 0.408069551
      -3.98518159e-06 -0.00445978949 -0.00386646972 -0.000238976572
      -0.00330717745 -0.00534498459 5.57147121 -0.0145880552
      -0.000724556798 -0.00276911841 -0.00352219772 -0.00143515505
      -4.26325023e-05 -0.00586741557 3.94162774 -1.5753966e-06
      -7.79192123e-05 -0.000866420858 3.70482445 -9.03908585e-05
      -3.11996955e-05 -0.000262900838 0.40373531 -0.00117730396
      -0.00245690299 -1.37164743e-05 -4.49646686e-05 -0.000374394847
      -7.58761587e-07 -1.94636527e-06 -0.000125798353 -2.89595755e-05
      -0.00547106564 -4.87528268e-06 -0.0039510061 -0.000361023878
      0.767727077 -0.00850060582 -0.00158211181 -0.0169496443
      -0.00342326704 -0.00232701702 0.0891905203 0.473341733
      -7.38595045e-05 -0.00011423001 -0.000288014096 0.502910614
      0.265093207 -0.000204719006 0.506798506 -2.10304256e-06
      0.0679284632 -0.00110052573 -0.00023379433 0.490853429
      -0.00200598896 -0.000564528862 -2.13592702e-05 -0.000203275617
      -2.63213701e-06 -2.32040156e-06 0.347013533 -0.00269966456
      -0.00188896386 0.00677568838 -1.06086793e-06 -0.000956872595
      -3.62087758e-06 -0.00268599694 0.617396951 0.298076153 0.622034311
      -0.00183914683 0.221563041 0.298555225 -3.18992352e-05
      -0.00049814902 -0.000484299118 0.16534096 0.318299145
      -0.000404206658 0.231750652 0.809094548 0.373712778 -0.00373872998
      -0.0061325375 -0.00112952176 0.111721978 -0.00229898212
      -1.36977897e-05 -0.00395950815 -0.0021146785 -0.00332926144
      -0.00254428433 -0.000109285153 -2.52229029e-06 0.554005682
      -2.68425339e-07 -3.53207213e-07 0.0619942769 0.454518139
      -0.000428966538 0.318333149 -0.000149759566 -9.44880012e-05
      0.270463675 0.0169873461 -0.000142633886 -3.94360723e-05
      -2.9905661e-05 -4.51721971e-05 -0.000248983881 0.0116388239
      -0.00010853065 0.0895033479 -0.000698515621 0.0262287706
      0.269473732 -0.000119628428 -9.38460573e-07 -0.000194214474
      0.000511292368 0.332327574 0.5843817 -2.43444265e-05
      -0.000354715652 -9.09764203e-05 -4.18804339e-05 -0.000493496249
      0.00745969824 0.0650171712 -0.000270968827 -0.000262204558</_>
    <_>
      -0.672478259 -3.44202232 -0.00353426742 -0.018751068
      -0.000125495164 -0.00731548946 -0.000272421981 -0.00129061297
      -1.62295237e-06 -1.10859328e-05 -2.45888003e-07 -6.03613989e-05
      -0.000229438054 -0.000117579388 3.03733993 2.39998937
      -0.00170284684 2.50598812 -9.92583446e-05 -0.00105046341
      -0.00039793062 -0.00269240094 0.0893776193 -1.0614368e-05
      2.03502035 3.51506591 -1.45739559e-05 -3.96597206e-05
      -1.54633872e-05 1.38601303 -0.000108146152 0.544642866
      -0.000596070138 -7.14773414e-05 -0.000531191879 -0.000260981993
      -4.30689288e-05 -0.00116512401 -0.000138815245 -0.000106870611
      -0.000587374729 -0.000768300262 -0.000323546526 -0.0042115692
      -0.00139904022 -0.000295619073 3.14311028 1.85146499
      -0.00735903531 -0.000938186946 0.0185267478 -2.548981e-06
      -0.00639872719 1.63164568 -0.0182036906 -0.0276058167
      -0.00180084538 0.469873101 -0.00246282457 -0.00053100381
      -0.000519957335 -0.000524447474 2.88335013 0.0774135068
      -3.44002183e-05 -2.79901651e-05 -1.98886046e-05 -0.00245297467
      -0.000938761223 -0.000607773138 2.54874086 -0.00113888155
      -6.188931e-05 -1.90734193e-06 -0.000869304815 -1.83280954e-05
      1.44222784 2.22710538 -0.00104004133 -8.7266526e-06
      -4.28748962e-07 -0.000182661708 1.13166785 -0.0172413681
      -0.000318898325 0.704960108 0.41901958 -3.85972953e-06
      -0.00435707159 -0.00381870614 -0.000233368526 -0.00323750498
      -0.00527798384 5.47003269 -0.0141871916 -0.000724420766
      -0.00164133706 -0.00345119834 -0.00141013681 -4.26060142e-05
      -0.00569091318 3.84561706 -1.56593751e-06 -7.56717927e-05
      -0.000871306635 3.62013531 -8.84705878e-05 -3.12307384e-05
      -0.000257406035 0.279335588 -0.00115780102 -0.00211774814
      -1.35035552e-05 -4.70647246e-05 -0.000374681869 -7.38835809e-07
      -1.8820358e-06 -0.000126670304 -2.86703489e-05 -0.00537186209
      -4.82648784e-06 -0.00380901247 -0.000352721458 0.750184119
      -0.00837204047 -0.00152311102 -0.0167068001 -0.00314432383
      -0.00215442013 0.0957074687 0.472289711 -7.39032257e-05
      -0.000114406997 -0.000846103707 0.452249229 0.238718018
      -0.00019998163 0.517776608 -2.15196428e-06 0.0746596307
      -0.00109204033 -0.000240744514 0.499721438 -0.00221454445
      -0.00039743245 -2.14502634e-05 -0.000206021286 -2.65131052e-06
      -2.28069234e-06 0.323340565 -0.00275338488 -0.00172720279
      -8.33794838e-05 -1.05403535e-06 -0.00118352985 -3.61607954e-06
      -0.00279389881 0.628773034 0.255696118 0.628946602 -0.00181799789
      0.175399661 0.300859958 -3.13040946e-05 -0.000498072186
      -0.000732730085 0.142835349 0.350046515 -0.000416987692
      0.230643421 0.758455753 0.400402039 -0.0039058968 -0.0064691701
      -0.00135912211 0.142197967 -0.00231896644 -1.37664938e-05
      -0.00397774111 -0.00199148478 -0.00335894688 -0.00252924883
      -0.000107179527 -2.56882572e-06 0.571867824 -2.64329458e-07
      -3.51786468e-07 0.032496959 0.49360165 -0.000428972184 0.318387568
      -0.000149759901 -9.44882631e-05 0.270496845 0.0169703998
      -0.000142634133 -3.94361814e-05 -3.05969988e-05 -4.56637863e-05
      -0.000248980912 0.0115417782 -0.00010852862 0.0894945711
      -0.0006984754 0.0262850448 0.269517779 -0.000119628705
      -9.39079882e-07 -0.000194213411 0.000425089151 0.332290232
      0.584400773 -2.43445484e-05 -0.00035447962 -9.09768496e-05
      -4.18805794e-05 -0.000493471976 0.00744871236 0.0650289953
      -0.000270967488 -0.000262148213</_>
    <_>
      -0.661091864 -3.92991924 -0.00358729111 -0.0190065373
      -0.000125366132 -0.00741143385 -0.000276137958 -0.00130274321
      -1.64230528e-06 -1.12830103e-05 -2.50122611e-07 -6.13031443e-05
      -0.000232427483 -0.000120449709 3.07571816 2.59551597
      -0.00172914902 2.32235122 -0.000101338381 -0.00108191487
      -0.000400448334 -0.00271866075 0.125416324 -1.07745927e-05
      2.20748377 3.74212909 -1.50542319e-05 -4.03766317e-05
      -1.56382284e-05 1.30816066 -0.000108365239 0.608909845
      -0.000621460669 -7.17042712e-05 -0.000530713238 -0.000267904514
      -4.46220947e-05 -0.000817494816 -0.000140509466 -0.000107209584
      -0.000594542013 -0.000781777722 -0.000328805967 -0.00411903206
      -0.00141016603 -0.000301690015 2.9557476 1.89298999 -0.00698624877
      -0.000948605535 0.0180076994 -2.54094198e-06 -0.00648440514
      1.71092176 -0.0185211208 -0.0279073194 -0.00183033478 0.489639014
      -0.00247598323 -0.000509659818 -0.000526738586 -0.000528180331
      3.06363153 0.211156458 -3.5411078e-05 -2.87377461e-05
      -2.0646301e-05 -0.00250881864 -0.000964349543 -0.000625635381
      2.60984802 -0.00115358236 -6.36662226e-05 -1.83041027e-06
      -0.000892261043 -1.93074484e-05 1.62199593 2.24538875
      -0.00104195101 -9.02823012e-06 -4.25475264e-07 -0.000177255119
      1.0755868 -0.0175165795 -0.000319164916 0.734151781 0.382927418
      -3.90970854e-06 -0.00440487126 -0.00377847068 -0.000235900763
      -0.00327384821 -0.00531207537 5.81443977 -0.0145771597
      -0.00073744246 -0.00184130087 -0.00348635879 -0.00143981702
      -4.32134148e-05 -0.00585393794 4.08948612 -1.58430919e-06
      -7.77872046e-05 -0.000873862125 3.56523728 -9.17942962e-05
      -3.2017535e-05 -0.000260537054 0.392898709 -0.00115420041
      -0.00269998773 -1.3802347e-05 -4.73846922e-05 -0.000380092213
      -7.80539153e-07 -1.94067866e-06 -0.000130464861 -2.89082072e-05
      -0.00552560063 -4.92124445e-06 -0.00383979338 -0.000365702232
      0.893289089 -0.00848341174 -0.00156421168 -0.0169132799
      -0.00216904376 -0.00227773911 0.0890945271 0.478078276
      -7.35581925e-05 -0.000114074712 -0.000203807198 0.50061065
      0.263754547 -0.000205059172 0.504849672 -2.07384983e-06
      0.0586397648 -0.00101904327 -0.000231924234 0.476763159
      -0.00203841692 -0.000614595541 -2.14642187e-05 -0.000201452553
      -2.61595346e-06 -2.33709397e-06 0.352121413 -0.00282239751
      -0.00191278418 0.0107755475 -1.0700054e-06 -0.00102426996
      -3.65375126e-06 -0.00268379599 0.607359886 0.305449665 0.623488724
      -0.00179505092 0.226463988 0.294685066 -3.17399063e-05
      -0.000495219661 -0.000469185179 0.159820765 0.314715594
      -0.000401939673 0.232745111 0.812716126 0.373480767 -0.00368514261
      -0.00603436399 -0.00104918482 0.104062185 -0.00229104306
      -1.37648613e-05 -0.0039305049 -0.00203506043 -0.00334550231
      -0.00252597919 -0.000108129389 -2.53876283e-06 0.545268774
      -2.69486435e-07 -3.57088851e-07 0.0661772043 0.449489325
      -0.000428966538 0.318333149 -0.000149759566 -9.44880012e-05
      0.270463675 0.0169873461 -0.000142633886 -3.94360723e-05
      -2.9905661e-05 -4.51721971e-05 -0.000248983881 0.0116388239
      -0.00010853065 0.0895033479 -0.000698515621 0.0262287706
      0.269473732 -0.000119628428 -9.38460573e-07 -0.000194214474
      0.000511292368 0.332327574 0.5843817 -2.43444265e-05
      -0.000354715652 -9.09764203e-05 -4.18804339e-05 -0.000493496249
      0.00745969824 0.0650171712 -0.000270968827 -0.000262204558</_>
    <_>
      -0.598938704 -3.76585555 -0.00354890455 -0.019981673
      -0.000116138224 -0.00739355246 -0.000277556392 -0.00129755191
      -1.59269678e-06 -1.10256242e-05 -2.44352037e-07 -5.95525635e-05
      -0.000230078513 -0.000118474163 3.18329477 2.4363687 -0.0017031926
      2.28607106 -9.94757429e-05 -0.00103059213 -0.000397202035
      -0.00267193979 0.113875493 -1.04108567e-05 2.04722309 3.56726241
      -1.47532701e-05 -3.8568829e-05 -1.51821196e-05 1.28036499
      -0.000108756067 0.542692065 -0.000613710668 -7.0907925e-05
      -0.000526426709 -0.000260015775 -4.26562437e-05 -0.000917258963
      -0.000137290379 -0.000104495695 -0.000586205977 -0.000772927713
      -0.00032106787 -0.0041463878 -0.00140145048 -0.000290937867
      2.87435889 1.76441431 -0.0072473567 -0.000936281285 0.0343164913
      -2.55829332e-06 -0.00648830459 1.8142736 -0.0180135239
      -0.0277666077 -0.00182148023 0.552264392 -0.00245160772
      -0.000510036887 -0.000527581549 -0.00052487629 2.93527341
      0.117371462 -3.53485339e-05 -2.7971626e-05 -1.96619621e-05
      -0.00244716788 -0.000946679967 -0.000634622236 2.6699338
      -0.00113879063 -6.20048813e-05 -1.9163474e-06 -0.000886108901
      -1.88107879e-05 1.51049423 2.2582562 -0.00103463035
      -8.70062377e-06 -4.14953519e-07 -0.000178250033 1.09063315
      -0.0181080475 -0.000316496182 0.660975397 0.508191645
      -3.84766417e-06 -0.00448037637 -0.00380411814 -0.000234580642
      -0.00325204013 -0.00533215981 5.55036926 -0.0143921757
      -0.000724504527 -0.00225615571 -0.00344886514 -0.00141337828
      -4.21104851e-05 -0.0058016805 3.91900921 -1.55004614e-06
      -7.6135686e-05 -0.000853389385 3.65221977 -8.66064147e-05
      -3.07420996e-05 -0.000255905063 0.43716684 -0.00113993254
      -0.0023869439 -1.3407699e-05 -4.61249911e-05 -0.000365157553
      -7.69004828e-07 -1.86233865e-06 -0.000125639068 -2.85868591e-05
      -0.00542470207 -4.8412553e-06 -0.00387558364 -0.000346427667
      0.760851324 -0.00843551476 -0.00149675645 -0.016842369
      -0.00312565151 -0.00229239627 0.0863075256 0.469741553
      -7.37499722e-05 -0.000115116723 -0.000284584239 0.503947258
      0.269205332 -0.000205719916 0.503253937 -2.08641654e-06
      0.0609418154 -0.000943611783 -0.000231165875 0.480681896
      -0.00196775282 -0.000529516605 -2.13270796e-05 -0.000200564449
      -2.64345522e-06 -2.33897708e-06 0.351586878 -0.00279955124
      -0.00189047388 0.00911102816 -1.06533889e-06 -0.000959227269
      -3.63701474e-06 -0.00275333063 0.612545252 0.312662393 0.623217046
      -0.00184621674 0.239718974 0.296910822 -3.19607389e-05
      -0.000497974979 -0.000496540451 0.159236163 0.30939275
      -0.000401048514 0.235519886 0.81651926 0.370133907 -0.00374296098
      -0.00614435552 -0.000935742923 0.102809176 -0.00229282165
      -1.36748013e-05 -0.00394807616 -0.00196781219 -0.0033315022
      -0.00254853489 -0.000108059277 -2.52093332e-06 0.550542355
      -2.71012851e-07 -3.55337932e-07 0.0676992461 0.442681015
      -0.000428966538 0.318333149 -0.000149759566 -9.44880012e-05
      0.270463675 0.0169873461 -0.000142633886 -3.94360723e-05
      -2.9905661e-05 -4.51721971e-05 -0.000248983881 0.0116388239
      -0.00010853065 0.0895033479 -0.000698515621 0.0262287706
      0.269473732 -0.000119628428 -9.38460573e-07 -0.000194214474
      0.000511292368 0.332327574 0.5843817 -2.43444265e-05
      -0.000354715652 -9.09764203e-05 -4.18804339e-05 -0.000493496249
      0.00745969824 0.0650171712 -0.000270968827 -0.000262204558</_>
    <_>
      -0.740376592 -3.81558084 -0.00355426874 -0.0181106571
      -0.000118936383 -0.00737633742 -0.000273274636 -0.00128057937
      -1.56508668e-06 -1.10131841e-05 -2.48786648e-07 -5.92704382e-05
      -0.000226636039 -0.000119515949 2.96745658 2.49706864
      -0.00170476281 2.31914306 -9.93476569e-05 -0.0010570084
      -0.000393605704 -0.00268943096 0.106450804 -1.05722984e-05
      2.14349508 3.6191318 -1.46850625e-05 -3.94672534e-05
      -1.53846868e-05 1.33403504 -0.000108272216 0.636673927
      -0.000607322378 -7.1004506e-05 -0.0005219577 -0.000266298041
      -4.36642913e-05 -0.000855303078 -0.000139765441 -0.000105761457
      -0.000588777359 -0.000768478436 -0.000333117845 -0.00435457146
      -0.00139213062 -0.000294854079 2.89419079 1.87220609
      -0.00721347472 -0.000931746443 0.017335128 -2.51300798e-06
      -0.00645157974 1.61122203 -0.0180927645 -0.0261298642
      -0.0018134428 0.517548501 -0.00245868368 -0.000519004359
      -0.000538373541 -0.00051943626 2.9701159 0.219965219
      -3.54510339e-05 -2.85578226e-05 -2.00743434e-05 -0.00245380681
      -0.000940209371 -0.000624246313 2.57906055 -0.00114530837
      -6.2222316e-05 -1.85150839e-06 -0.000873956131 -1.89518396e-05
      1.56322777 2.15538573 -0.00103576994 -8.81631695e-06
      -4.36999358e-07 -0.000176816946 0.982134342 -0.0162072554
      -0.000307991169 0.736651182 0.469462276 -3.83652286e-06
      -0.00440158043 -0.00374606089 -0.000232262217 -0.00325095886
      -0.00530530559 5.64826202 -0.014428501 -0.000741750642
      -0.00130683952 -0.00344889704 -0.00141488574 -4.28049643e-05
      -0.0058055371 3.96412492 -1.57227726e-06 -7.61662523e-05
      -0.000865108974 3.57859707 -8.79232102e-05 -3.15236139e-05
      -0.000258132495 0.378930598 -0.00113881053 -0.00235718256
      -1.34616967e-05 -4.80529343e-05 -0.000370839989 -7.78268145e-07
      -1.91524873e-06 -0.000128849104 -2.87910807e-05 -0.00544199208
      -4.85563351e-06 -0.00377497938 -0.000353658048 0.830607474
      -0.00853777956 -0.00151876279 -0.0169367734 -0.00220513693
      -0.00229364284 0.0868423507 0.474967271 -7.37667069e-05
      -0.000114798153 -0.000291541801 0.507126868 0.263723731
      -0.000205771794 0.501137733 -2.08770825e-06 0.0658207983
      -0.000981728896 -0.000231961938 0.485648841 -0.00194758922
      -0.000580615713 -2.13701533e-05 -0.000201395931 -2.63617289e-06
      -2.33576156e-06 0.352006376 -0.00266761053 -0.00187826715
      0.00996175036 -1.06634877e-06 -0.000952911738 -3.63845174e-06
      -0.00272790692 0.610361397 0.306027472 0.622432292 -0.00183722272
      0.234329775 0.302524596 -3.19370047e-05 -0.000497916539
      -0.000492013758 0.162158012 0.3134363 -0.000401374738 0.232562572
      0.81036377 0.367396295 -0.00369763724 -0.00611648709
      -0.00108277425 0.105700605 -0.00229347497 -1.37095185e-05
      -0.00393701112 -0.00193897216 -0.00331552862 -0.00254070922
      -0.000108812208 -2.52293967e-06 0.550247729 -2.70239184e-07
      -3.55700109e-07 0.063905932 0.445693105 -0.000428966538
      0.318333149 -0.000149759566 -9.44880012e-05 0.270463675
      0.0169873461 -0.000142633886 -3.94360723e-05 -2.9905661e-05
      -4.51721971e-05 -0.000248983881 0.0116388239 -0.00010853065
      0.0895033479 -0.000698515621 0.0262287706 0.269473732
      -0.000119628428 -9.38460573e-07 -0.000194214474 0.000511292368
      0.332327574 0.5843817 -2.43444265e-05 -0.000354715652
      -9.09764203e-05 -4.18804339e-05 -0.000493496249 0.00745969824
      0.0650171712 -0.000270968827 -0.000262204558</_>
    <_>
      -0.740376592 -3.81558084 -0.00355426874 -0.0181106571
      -0.000118936383 -0.00737633742 -0.000273274636 -0.00128057937
      -1.56508668e-06 -1.10131841e-05 -2.48786648e-07 -5.92704382e-05
      -0.000226636039 -0.000119515949 2.96745658 2.49706864
      -0.00170476281 2.31914306 -9.93476569e-05 -0.0010570084
      -0.000393605704 -0.00268943096 0.106450804 -1.05722984e-05
      2.14349508 3.6191318 -1.46850625e-05 -3.94672534e-05
      -1.53846868e-05 1.33403504 -0.000108272216 0.636673927
      -0.000607322378 -7.1004506e-05 -0.0005219577 -0.000266298041
      -4.36642913e-05 -0.000855303078 -0.000139765441 -0.000105761457
      -0.000588777359 -0.000768478436 -0.000333117845 -0.00435457146
      -0.00139213062 -0.000294854079 2.89419079 1.87220609
      -0.00721347472 -0.000931746443 0.017335128 -2.51300798e-06
      -0.00645157974 1.61122203 -0.0180927645 -0.0261298642
      -0.0018134428 0.517548501 -0.00245868368 -0.000519004359
      -0.000538373541 -0.00051943626 2.9701159 0.219965219
      -3.54510339e-05 -2.85578226e-05 -2.00743434e-05 -0.00245380681
      -0.000940209371 -0.000624246313 2.57906055 -0.00114530837
      -6.2222316e-05 -1.85150839e-06 -0.000873956131 -1.89518396e-05
      1.56322777 2.15538573 -0.00103576994 -8.81631695e-06
      -4.36999358e-07 -0.000176816946 0.982134342 -0.0162072554
      -0.000307991169 0.736651182 0.469462276 -3.83652286e-06
      -0.00440158043 -0.00374606089 -0.000232262217 -0.00325095886
      -0.00530530559 5.64826202 -0.014428501 -0.000741750642
      -0.00130683952 -0.00344889704 -0.00141488574 -4.28049643e-05
      -0.0058055371 3.96412492 -1.57227726e-06 -7.61662523e-05
      -0.000865108974 3.57859707 -8.79232102e-05 -3.15236139e-05
      -0.000258132495 0.378930598 -0.00113881053 -0.00235718256
      -1.34616967e-05 -4.80529343e-05 -0.000370839989 -7.78268145e-07
      -1.91524873e-06 -0.000128849104 -2.87910807e-05 -0.00544199208
      -4.85563351e-06 -0.00377497938 -0.000353658048 0.830607474
      -0.00853777956 -0.00151876279 -0.0169367734 -0.00220513693
      -0.00229364284 0.0868423507 0.474967271 -7.37667069e-05
      -0.000114798153 -0.000291541801 0.507126868 0.263723731
      -0.000205771794 0.501137733 -2.08770825e-06 0.0658207983
      -0.000981728896 -0.000231961938 0.485648841 -0.00194758922
      -0.000580615713 -2.13701533e-05 -0.000201395931 -2.63617289e-06
      -2.33576156e-06 0.352006376 -0.00266761053 -0.00187826715
      0.00996175036 -1.06634877e-06 -0.000952911738 -3.63845174e-06
      -0.00272790692 0.610361397 0.306027472 0.622432292 -0.00183722272
      0.234329775 0.302524596 -3.19370047e-05 -0.000497916539
      -0.000492013758 0.162158012 0.3134363 -0.000401374738 0.232562572
      0.81036377 0.367396295 -0.00369763724 -0.00611648709
      -0.00108277425 0.105700605 -0.00229347497 -1.37095185e-05
      -0.00393701112 -0.00193897216 -0.00331552862 -0.00254070922
      -0.000108812208 -2.52293967e-06 0.550247729 -2.70239184e-07
      -3.55700109e-07 0.063905932 0.445693105 -0.000428966538
      0.318333149 -0.000149759566 -9.44880012e-05 0.270463675
      0.0169873461 -0.000142633886 -3.94360723e-05 -2.9905661e-05
      -4.51721971e-05 -0.000248983881 0.0116388239 -0.00010853065
      0.0895033479 -0.000698515621 0.0262287706 0.269473732
      -0.000119628428 -9.38460573e-07 -0.000194214474 0.000511292368
      0.332327574 0.5843817 -2.43444265e-05 -0.000354715652
      -9.09764203e-05 -4.18804339e-05 -0.000493496249 0.00745969824
      0.0650171712 -0.000270968827 -0.000262204558</_>
    <_>
      -0.768094599 -3.43771172 -0.00351150334 -0.0178239252
      -0.000120490869 -0.00732462667 -0.00026570441 -0.0012832334
      -1.57428201e-06 -1.08688355e-05 -2.44410302e-07 -5.86693532e-05
      -0.000225164098 -0.000116467418 2.95706892 2.31282353
      -0.00169290835 2.41186142 -9.60777688e-05 -0.00103231275
      -0.000387416221 -0.00264312257 0.0844410062 -1.03360444e-05
      1.97849035 3.41848874 -1.43141515e-05 -3.86995198e-05
      -1.53729161e-05 1.34079349 -0.000108682521 0.570648372
      -0.000590935582 -7.08205262e-05 -0.00052170956 -0.00025735714
      -4.18302843e-05 -0.000846635667 -0.000139591633 -0.000104225757
      -0.000567519804 -0.000756849709 -0.000328141439 -0.00442598946
      -0.00141044974 -0.000296363956 2.98015213 1.86711431
      -0.00725921756 -0.00092807546 0.0193732809 -2.49737718e-06
      -0.00638693618 1.57179451 -0.0175729338 -0.0261899494
      -0.00178307807 0.495988905 -0.00243283017 -0.000539461209
      -0.000543957169 -0.000518927816 2.81833148 0.0863748863
      -3.45725566e-05 -2.8025177e-05 -1.93010892e-05 -0.00242396398
      -0.000920055492 -0.000606928486 2.5331893 -0.00113130838
      -6.03050394e-05 -1.88062791e-06 -0.0008626575 -1.81358337e-05
      1.39720166 2.1752038 -0.00103770802 -8.47873616e-06
      -4.55421201e-07 -0.000182026371 1.01126075 -0.0158074908
      -0.000310476084 0.714321733 0.496346712 -3.77773245e-06
      -0.00441968953 -0.00376137346 -0.000231543367 -0.00321952044
      -0.00523592951 5.33275795 -0.0140535366 -0.000736058399
      -0.0010558744 -0.00341578806 -0.00139577535 -4.27316299e-05
      -0.00564182876 3.75401449 -1.56121018e-06 -7.34179484e-05
      -0.000847992953 3.56969547 -8.52959856e-05 -3.04561709e-05
      -0.000251327059 0.25476855 -0.00112845632 -0.00201854669
      -1.32253672e-05 -4.82042415e-05 -0.000361092767 -7.6151963e-07
      -1.82503379e-06 -0.000125523875 -2.85963688e-05 -0.00531314407
      -4.81996722e-06 -0.00378838601 -0.000340053288 0.700091481
      -0.00838538166 -0.00144436595 -0.0166021734 -0.00316178007
      -0.00216197805 0.0923339352 0.459574968 -7.39012467e-05
      -0.000115282535 -0.000948135101 0.452661484 0.249331668
      -0.000201178642 0.514170051 -2.1308017e-06 0.0768468529
      -0.00104751647 -0.000239403147 0.494569033 -0.00210588053
      -0.000388119515 -2.14651009e-05 -0.000205014512 -2.64021469e-06
      -2.28620911e-06 0.325784266 -0.00287872902 -0.00176226557
      7.231161e-05 -1.05240122e-06 -0.00121214136 -3.61149318e-06
      -0.00276007177 0.625971854 0.268191338 0.624433637 -0.00186562492
      0.196833402 0.307865888 -3.13197525e-05 -0.000501415401
      -0.0007787738 0.135883689 0.349473655 -0.000413746893 0.243294671
      0.767279267 0.400765479 -0.00389893563 -0.00645570224
      -0.00120292767 0.140333503 -0.00232112245 -1.37248144e-05
      -0.00399065949 -0.00180656731 -0.00341779366 -0.0025539964
      -0.000107378204 -2.55277337e-06 0.569918156 -2.6592997e-07
      -3.51027296e-07 0.0283744186 0.49884364 -0.000428972184
      0.318387568 -0.000149759901 -9.44882631e-05 0.270496845
      0.0169703998 -0.000142634133 -3.94361814e-05 -3.05969988e-05
      -4.56637863e-05 -0.000248980912 0.0115417782 -0.00010852862
      0.0894945711 -0.0006984754 0.0262850448 0.269517779
      -0.000119628705 -9.39079882e-07 -0.000194213411 0.000425089151
      0.332290232 0.584400773 -2.43445484e-05 -0.00035447962
      -9.09768496e-05 -4.18805794e-05 -0.000493471976 0.00744871236
      0.0650289953 -0.000270967488 -0.000262148213</_>
    <_>
      -0.82221359 -4.0052824 -0.00356255728 -0.0173068084
      -0.000115941082 -0.00740759308 -0.000270329387 -0.00127131247
      -1.63640789e-06 -1.10123692e-05 -2.46508392e-07 -6.01094871e-05
      -0.000228168574 -0.000121462821 2.9311502 2.56671262
      -0.00171302131 2.20151305 -0.000100746482 -0.00104429468
      -0.000394286762 -0.00264805648 0.110747322 -1.0730113e-05
      2.21850348 3.68233037 -1.47556384e-05 -3.9407536e-05
      -1.53814617e-05 1.23245203 -0.000107170112 0.659144759
      -0.000634073687 -7.19996024e-05 -0.000514406711 -0.000260728528
      -4.40092081e-05 -0.000588649069 -0.000143362471 -0.00010314714
      -0.000579709827 -0.000788646983 -0.000324313994 -0.00430978695
      -0.00137803715 -0.0003005623 2.7609098 1.93524206 -0.00671958737
      -0.000956535048 0.0109893521 -2.52473342e-06 -0.00638500974
      1.50278234 -0.0179029983 -0.0259445906 -0.00181836635 0.53285104
      -0.00243904046 -0.000524190778 -0.000533060636 -0.000511513324
      3.00300598 0.286661744 -3.52807801e-05 -2.83039735e-05
      -2.01544572e-05 -0.00246894476 -0.000963213446 -0.000622564461
      2.50003934 -0.00114656938 -6.06138383e-05 -1.81789642e-06
      -0.000888823939 -1.93048254e-05 1.62594092 2.16741896
      -0.00102675706 -8.73039244e-06 -4.57996606e-07 -0.000172566783
      0.957137704 -0.0154530061 -0.000313226163 0.75904274 0.439431548
      -3.90293098e-06 -0.00435745995 -0.00370119046 -0.000234048959
      -0.00319905323 -0.00523213902 5.75599957 -0.0144450217
      -0.000735835114 -0.000693552778 -0.00342050334 -0.00141252449
      -4.41501543e-05 -0.00575609319 4.02451801 -1.56625447e-06
      -7.61605625e-05 -0.000861040549 3.45010567 -8.89529256e-05
      -3.12818665e-05 -0.000262452464 0.35267663 -0.00112481497
      -0.00242098747 -1.34715501e-05 -4.83934818e-05 -0.000395698589
      -7.87172098e-07 -1.92628227e-06 -0.000130684653 -2.85647038e-05
      -0.00550325634 -4.9865007e-06 -0.0036908607 -0.000370870781
      0.895343244 -0.00835570041 -0.0014875863 -0.0170257054
      -0.00147505745 -0.0022766476 0.0787482485 0.467549264
      -7.34881542e-05 -0.000114845025 -0.000353849144 0.497998357
      0.259714305 -0.000205655655 0.504414201 -2.07174548e-06
      0.0630006343 -0.000950942398 -0.000231202182 0.476919979
      -0.00199683849 -0.000564860122 -2.14324373e-05 -0.000200046285
      -2.65873291e-06 -2.34645154e-06 0.344225675 -0.00280974898
      -0.00191321992 0.00160905346 -1.07184906e-06 -0.00103360962
      -3.65741835e-06 -0.0026873895 0.606194615 0.310055256 0.630005181
      -0.00182622322 0.231443837 0.294061035 -3.17592348e-05
      -0.000496685912 -0.000546458294 0.153772205 0.321622789
      -0.000402113626 0.229674429 0.806650519 0.377626389 -0.00372134219
      -0.00615395233 -0.000958820805 0.11070583 -0.00228171842
      -1.37795141e-05 -0.00392193301 -0.00199393905 -0.00329076406
      -0.0025321818 -0.000107356893 -2.5378763e-06 0.539367378
      -2.71796011e-07 -3.58137072e-07 0.0595824979 0.449590981
      -0.000428966538 0.318333149 -0.000149759566 -9.44880012e-05
      0.270463675 0.0169873461 -0.000142633886 -3.94360723e-05
      -2.9905661e-05 -4.51721971e-05 -0.000248983881 0.0116388239
      -0.00010853065 0.0895033479 -0.000698515621 0.0262287706
      0.269473732 -0.000119628428 -9.38460573e-07 -0.000194214474
      0.000511292368 0.332327574 0.5843817 -2.43444265e-05
      -0.000354715652 -9.09764203e-05 -4.18804339e-05 -0.000493496249
      0.00745969824 0.0650171712 -0.000270968827 -0.000262204558</_>
    <_>
      -0.657494426 -3.62413359 -0.00352044124 -0.0187121537
      -0.000118711629 -0.00734880008 -0.000271855097 -0.00128660584
      -1.59448371e-06 -1.11210747e-05 -2.46635523e-07 -5.94440098e-05
      -0.000226651653 -0.000115466086 3.10447836 2.41918826
      -0.00170210772 2.41471601 -9.87491367e-05 -0.00105781213
      -0.000391216745 -0.00266434927 0.111808136 -1.0579879e-05
      2.06536579 3.55042577 -1.45408821e-05 -3.94637027e-05
      -1.54801437e-05 1.34143865 -0.000107804131 0.604680896
      -0.000601546315 -7.03855912e-05 -0.000522572373 -0.000263664726
      -4.27578525e-05 -0.000875277969 -0.000137984913 -0.000104817635
      -0.000582258566 -0.000762980257 -0.000329403585 -0.00424425909
      -0.00141255255 -0.000298684259 2.99901104 1.84901643
      -0.00727759534 -0.000921378261 0.027992608 -2.49254822e-06
      -0.00643860735 1.72431159 -0.0181106795 -0.0271152388
      -0.00179335312 0.515997052 -0.00243725209 -0.000525064708
      -0.0005259834 -0.000521955371 2.928864 0.130385146 -3.52934258e-05
      -2.79766173e-05 -1.96469246e-05 -0.00247042463 -0.000936808879
      -0.000625183573 2.62057471 -0.00114069809 -6.16690522e-05
      -1.79846393e-06 -0.000874495658 -1.90194223e-05 1.4913305
      2.2114234 -0.00104122958 -8.72430701e-06 -4.3686677e-07
      -0.000178039962 1.07775259 -0.0171125308 -0.000314444595
      0.727385402 0.507969439 -3.79686708e-06 -0.00444012415
      -0.00382225914 -0.00023048911 -0.0032345478 -0.00530016748
      5.52742195 -0.0142966649 -0.000738413364 -0.00158690289
      -0.00345108914 -0.0014069092 -4.24916798e-05 -0.0058204052
      3.89547539 -1.56761973e-06 -7.57109883e-05 -0.000855675491
      3.66057134 -8.69000578e-05 -3.11870972e-05 -0.000253319799
      0.367966115 -0.00113830983 -0.00233193114 -1.3461673e-05
      -4.70818959e-05 -0.00036371118 -7.70061433e-07 -1.86000364e-06
      -0.000125787337 -2.84683319e-05 -0.0053440379 -4.84286556e-06
      -0.00384290935 -0.00034364991 0.769501448 -0.0085403854
      -0.00145627302 -0.0167143345 -0.00295823929 -0.00217889715
      0.0834472701 0.469998807 -7.34657515e-05 -0.000114675742
      -0.000369728863 0.504457295 0.268566668 -0.000206021825
      0.497641236 -2.06054483e-06 0.0584303737 -0.000979356817
      -0.000230565842 0.480586261 -0.00197677198 -0.000689991983
      -2.14642623e-05 -0.000200136405 -2.63263178e-06 -2.35639936e-06
      0.345396191 -0.00284908293 -0.00185639353 0.00395814702
      -1.07517042e-06 -0.0010392277 -3.67468215e-06 -0.00266965991
      0.605729878 0.309092402 0.62726444 -0.00184087316 0.232384041
      0.296338648 -3.1722986e-05 -0.000496263325 -0.000552055601
      0.153398603 0.318906665 -0.000399692188 0.232119694 0.806839585
      0.380514324 -0.00363866403 -0.00602503121 -0.000961921993
      0.104426265 -0.00228974642 -1.38022097e-05 -0.00391312409
      -0.00200341549 -0.0033037602 -0.00251064776 -0.000107846288
      -2.53787948e-06 0.539477944 -2.71493178e-07 -3.59583282e-07
      0.0616739541 0.460142851 -0.000428966538 0.318333149
      -0.000149759566 -9.44880012e-05 0.270463675 0.0169873461
      -0.000142633886 -3.94360723e-05 -2.9905661e-05 -4.51721971e-05
      -0.000248983881 0.0116388239 -0.00010853065 0.0895033479
      -0.000698515621 0.0262287706 0.269473732 -0.000119628428
      -9.38460573e-07 -0.000194214474 0.000511292368 0.332327574
      0.5843817 -2.43444265e-05 -0.000354715652 -9.09764203e-05
      -4.18804339e-05 -0.000493496249 0.00745969824 0.0650171712
      -0.000270968827 -0.000262204558</_>
    <_>
      -0.657494426 -3.62413359 -0.00352044124 -0.0187121537
      -0.000118711629 -0.00734880008 -0.000271855097 -0.00128660584
      -1.59448371e-06 -1.11210747e-05 -2.46635523e-07 -5.94440098e-05
      -0.000226651653 -0.000115466086 3.10447836 2.41918826
      -0.00170210772 2.41471601 -9.87491367e-05 -0.00105781213
      -0.000391216745 -0.00266434927 0.111808136 -1.0579879e-05
      2.06536579 3.55042577 -1.45408821e-05 -3.94637027e-05
      -1.54801437e-05 1.34143865 -0.000107804131 0.604680896
      -0.000601546315 -7.03855912e-05 -0.000522572373 -0.000263664726
      -4.27578525e-05 -0.000875277969 -0.000137984913 -0.000104817635
      -0.000582258566 -0.000762980257 -0.000329403585 -0.00424425909
      -0.00141255255 -0.000298684259 2.99901104 1.84901643
      -0.00727759534 -0.000921378261 0.027992608 -2.49254822e-06
      -0.00643860735 1.72431159 -0.0181106795 -0.0271152388
      -0.00179335312 0.515997052 -0.00243725209 -0.000525064708
      -0.0005259834 -0.000521955371 2.928864 0.130385146 -3.52934258e-05
      -2.79766173e-05 -1.96469246e-05 -0.00247042463 -0.000936808879
      -0.000625183573 2.62057471 -0.00114069809 -6.16690522e-05
      -1.79846393e-06 -0.000874495658 -1.90194223e-05 1.4913305
      2.2114234 -0.00104122958 -8.72430701e-06 -4.3686677e-07
      -0.000178039962 1.07775259 -0.0171125308 -0.000314444595
      0.727385402 0.507969439 -3.79686708e-06 -0.00444012415
      -0.00382225914 -0.00023048911 -0.0032345478 -0.00530016748
      5.52742195 -0.0142966649 -0.000738413364 -0.00158690289
      -0.00345108914 -0.0014069092 -4.24916798e-05 -0.0058204052
      3.89547539 -1.56761973e-06 -7.57109883e-05 -0.000855675491
      3.66057134 -8.69000578e-05 -3.11870972e-05 -0.000253319799
      0.367966115 -0.00113830983 -0.00233193114 -1.3461673e-05
      -4.70818959e-05 -0.00036371118 -7.70061433e-07 -1.86000364e-06
      -0.000125787337 -2.84683319e-05 -0.0053440379 -4.84286556e-06
      -0.00384290935 -0.00034364991 0.769501448 -0.0085403854
      -0.00145627302 -0.0167143345 -0.00295823929 -0.00217889715
      0.0834472701 0.469998807 -7.34657515e-05 -0.000114675742
      -0.000369728863 0.504457295 0.268566668 -0.000206021825
      0.497641236 -2.06054483e-06 0.0584303737 -0.000979356817
      -0.000230565842 0.480586261 -0.00197677198 -0.000689991983
      -2.14642623e-05 -0.000200136405 -2.63263178e-06 -2.35639936e-06
      0.345396191 -0.00284908293 -0.00185639353 0.00395814702
      -1.07517042e-06 -0.0010392277 -3.67468215e-06 -0.00266965991
      0.605729878 0.309092402 0.62726444 -0.00184087316 0.232384041
      0.296338648 -3.1722986e-05 -0.000496263325 -0.000552055601
      0.153398603 0.318906665 -0.000399692188 0.232119694 0.806839585
      0.380514324 -0.00363866403 -0.00602503121 -0.000961921993
      0.104426265 -0.00228974642 -1.38022097e-05 -0.00391312409
      -0.00200341549 -0.0033037602 -0.00251064776 -0.000107846288
      -2.53787948e-06 0.539477944 -2.71493178e-07 -3.59583282e-07
      0.0616739541 0.460142851 -0.000428966538 0.318333149
      -0.000149759566 -9.44880012e-05 0.270463675 0.0169873461
      -0.000142633886 -3.94360723e-05 -2.9905661e-05 -4.51721971e-05
      -0.000248983881 0.0116388239 -0.00010853065 0.0895033479
      -0.000698515621 0.0262287706 0.269473732 -0.000119628428
      -9.38460573e-07 -0.000194214474 0.000511292368 0.332327574
      0.5843817 -2.43444265e-05 -0.000354715652 -9.09764203e-05
      -4.18804339e-05 -0.000493496249 0.00745969824 0.0650171712
      -0.000270968827 -0.000262204558</_>
    <_>
      -0.766170382 -3.62853336 -0.00352711161 -0.0174129345
      -0.000120820223 -0.0073076468 -0.000266620249 -0.00128783146
      -1.5855569e-06 -1.09130988e-05 -2.44416356e-07 -5.95995261e-05
      -0.000224345902 -0.000118422991 2.94919229 2.44277167
      -0.00168783765 2.38217425 -9.78541357e-05 -0.00104287034
      -0.000396847259 -0.0026620205 0.102816314 -1.05528143e-05
      2.1016829 3.55866623 -1.42700992e-05 -3.96572177e-05
      -1.55519665e-05 1.32557476 -0.000107024542 0.632955492
      -0.000606444548 -7.11407411e-05 -0.000518124376 -0.000259170774
      -4.29703905e-05 -0.000948954956 -0.000139252035 -0.000104976018
      -0.000573797035 -0.000767934369 -0.000326734415 -0.00406031171
      -0.00136916502 -0.000298471889 3.00433493 1.90594316
      -0.00654881168 -0.000929060858 0.00928128883 -2.50099197e-06
      -0.00630455697 1.52357244 -0.0179963466 -0.026550971
      -0.00179910555 0.47481814 -0.00243310211 -0.000523398223
      -0.000521466951 -0.000512284227 2.91189981 0.171140492
      -3.44769178e-05 -2.79552296e-05 -1.97111112e-05 -0.00245969673
      -0.000943194318 -0.00060237525 2.5105691 -0.0011324177
      -6.08967384e-05 -1.82834128e-06 -0.000866610906 -1.83870179e-05
      1.50987113 2.1496141 -0.00102637173 -8.59010288e-06
      -4.46602343e-07 -0.000178250615 1.06201863 -0.0159243532
      -0.000313389814 0.755020916 0.410081744 -3.85578869e-06
      -0.00431268848 -0.003738211 -0.000231498547 -0.00319190859
      -0.0052135 5.54314327 -0.0142469155 -0.000728550309
      -0.000960078673 -0.00343268411 -0.00140056456 -4.28638959e-05
      -0.00562579976 3.89395142 -1.55359078e-06 -7.48325474e-05
      -0.000857738371 3.53343177 -8.72090313e-05 -3.11234071e-05
      -0.000257734471 0.30502817 -0.00113858539 -0.00251385407
      -1.3415779e-05 -4.76514433e-05 -0.000380470185 -7.46784394e-07
      -1.89544255e-06 -0.000127761145 -2.84258531e-05 -0.00534407003
      -4.83726035e-06 -0.00372227863 -0.000354864693 0.812271118
      -0.00827956852 -0.00151467707 -0.0167009216 -0.0023412127
      -0.00217677373 0.0919712856 0.459771603 -7.37043083e-05
      -0.000115025141 -0.000915673969 0.459316224 0.245032564
      -0.000201854287 0.522898972 -2.11972952e-06 0.0677644908
      -0.00100792863 -0.000238351407 0.503162086 -0.00215207902
      -0.000421374425 -2.14331048e-05 -0.000203118092 -2.64662549e-06
      -2.30958676e-06 0.312728465 -0.00279933563 -0.00166461105
      -0.000129971246 -1.05964284e-06 -0.00118334801 -3.63763888e-06
      -0.00279982388 0.628126681 0.265847653 0.635491312 -0.00187463814
      0.182875961 0.304804116 -3.14112731e-05 -0.000499082904
      -0.000787400815 0.137532502 0.343816608 -0.000411514775
      0.235928461 0.756821632 0.402045995 -0.00387191772 -0.00639238721
      -0.00126436469 0.137920767 -0.00231334148 -1.37826619e-05
      -0.00397096202 -0.00195324584 -0.0033690834 -0.0025316726
      -0.000106776453 -2.56432963e-06 0.56948483 -2.66505594e-07
      -3.54657459e-07 0.0323183164 0.489098221 -0.000428972184
      0.318387568 -0.000149759901 -9.44882631e-05 0.270496845
      0.0169703998 -0.000142634133 -3.94361814e-05 -3.05969988e-05
      -4.56637863e-05 -0.000248980912 0.0115417782 -0.00010852862
      0.0894945711 -0.0006984754 0.0262850448 0.269517779
      -0.000119628705 -9.39079882e-07 -0.000194213411 0.000425089151
      0.332290232 0.584400773 -2.43445484e-05 -0.00035447962
      -9.09768496e-05 -4.18805794e-05 -0.000493471976 0.00744871236
      0.0650289953 -0.000270967488 -0.000262148213</_>
    <_>
      -0.727127254 -3.44718027 -0.00354162231 -0.0181909315
      -0.000117377385 -0.00730934832 -0.000273538753 -0.00127079559
      -1.57582451e-06 -1.10174797e-05 -2.46934405e-07 -5.88097864e-05
      -0.000225050724 -0.000116484211 3.03806233 2.38539767
      -0.00170942314 2.50917578 -9.71266636e-05 -0.00106313883
      -0.000393339695 -0.00268618925 0.111825362 -1.05161344e-05
      2.04677606 3.52077317 -1.43383231e-05 -3.97013428e-05
      -1.54720165e-05 1.39126015 -0.000106997664 0.622892737
      -0.000598373881 -7.01340614e-05 -0.000523157418 -0.000261569017
      -4.25282851e-05 -0.000996387098 -0.000135683076 -0.000107504842
      -0.000565608556 -0.000765843724 -0.000329501519 -0.00399803463
      -0.00140103709 -0.00030035383 3.15104485 1.92180705 -0.00668591959
      -0.000920440827 0.0125890812 -2.51763458e-06 -0.00637665391
      1.58430064 -0.0180902053 -0.0273378324 -0.00179102027 0.480542243
      -0.00245169271 -0.000523793511 -0.000522342219 -0.000521085807
      2.89270043 0.0686370358 -3.48431895e-05 -2.79686647e-05
      -1.94866261e-05 -0.00252663856 -0.000926117413 -0.000612069969
      2.5113306 -0.00113709387 -6.19188431e-05 -1.75721937e-06
      -0.00088143436 -1.84019264e-05 1.42942393 2.18597388
      -0.00104137661 -8.68519146e-06 -4.18969989e-07 -0.000183235956
      1.09587276 -0.0168019775 -0.000311246171 0.773559153 0.361623228
      -3.86325064e-06 -0.00431451621 -0.00382657256 -0.000230337071
      -0.00323130121 -0.00522062648 5.4620142 -0.0140927332
      -0.000730773434 -0.00133265299 -0.00345812575 -0.00140486355
      -4.15299182e-05 -0.00564745301 3.84563971 -1.53353619e-06
      -7.51903717e-05 -0.000859922904 3.62387228 -8.78915162e-05
      -3.14283498e-05 -0.000252885453 0.306022972 -0.00113739632
      -0.00234474125 -1.35045775e-05 -4.64533296e-05 -0.000374069874
      -7.35538663e-07 -1.89055265e-06 -0.000126027095 -2.88132687e-05
      -0.00533187855 -4.82444921e-06 -0.0038223532 -0.000345021865
      0.77059561 -0.00834203232 -0.00148659956 -0.0166272093
      -0.00323242717 -0.00214392296 0.0923133641 0.461883605
      -7.38003291e-05 -0.000114497314 -0.000976693933 0.453324795
      0.240591452 -0.000200335038 0.514305115 -2.13656608e-06
      0.0772261769 -0.000999069656 -0.000240347945 0.499943733
      -0.00220095064 -0.000418630982 -2.1517988e-05 -0.000204422773
      -2.65107451e-06 -2.30157139e-06 0.315354764 -0.00283603207
      -0.00169626973 -6.27406334e-05 -1.05996321e-06 -0.00117052812
      -3.63627419e-06 -0.00272834883 0.630889177 0.259429306 0.617144406
      -0.00185188313 0.180681437 0.303388178 -3.12706507e-05
      -0.00049743749 -0.000813501538 0.137298971 0.34843421
      -0.000413301517 0.241249785 0.746305346 0.405229717 -0.00383981899
      -0.00633563381 -0.00134199054 0.151058972 -0.00229846081
      -1.38037976e-05 -0.00396244926 -0.00198585563 -0.00335233193
      -0.00253386842 -0.000106984036 -2.57207239e-06 0.560358882
      -2.65470675e-07 -3.54511286e-07 0.0276158936 0.49089095
      -0.000428972184 0.318387568 -0.000149759901 -9.44882631e-05
      0.270496845 0.0169703998 -0.000142634133 -3.94361814e-05
      -3.05969988e-05 -4.56637863e-05 -0.000248980912 0.0115417782
      -0.00010852862 0.0894945711 -0.0006984754 0.0262850448 0.269517779
      -0.000119628705 -9.39079882e-07 -0.000194213411 0.000425089151
      0.332290232 0.584400773 -2.43445484e-05 -0.00035447962
      -9.09768496e-05 -4.18805794e-05 -0.000493471976 0.00744871236
      0.0650289953 -0.000270967488 -0.000262148213</_>
    <_>
      -0.650911391 -3.35326767 -0.00355518423 -0.0184000079
      -0.000114022077 -0.00727064814 -0.00028675262 -0.0012955179
      -1.63103027e-06 -1.13246087e-05 -2.45780143e-07 -5.92052274e-05
      -0.000226609307 -0.00011246089 3.12549567 2.26039219
      -0.00174393714 2.52166724 -9.80682307e-05 -0.00106275675
      -0.00039654228 -0.00274944468 0.0903798044 -1.06897332e-05
      1.92815089 3.40652871 -1.43720163e-05 -3.95420248e-05
      -1.55180715e-05 1.40975893 -0.000107792053 0.534117222
      -0.000581427768 -6.94889677e-05 -0.000528816076 -0.000260883739
      -4.33911264e-05 -0.00140426005 -0.000138555813 -0.000108531327
      -0.000579739921 -0.000765666133 -0.000323373068 -0.00415262673
      -0.00144365511 -0.000302771165 3.14965081 1.82868075
      -0.00684465468 -0.000921018538 0.0150009589 -2.58517389e-06
      -0.00650454639 1.70221686 -0.0182457007 -0.0274415202
      -0.00177353015 0.503010392 -0.00249960739 -0.000522281392
      -0.000526438176 -0.000544027193 2.8132844 -0.000167338323
      -3.49251532e-05 -2.8716735e-05 -1.99041642e-05 -0.0025530702
      -0.000921811676 -0.000632778683 2.59749675 -0.00113679224
      -6.43199237e-05 -1.79021868e-06 -0.000877111393 -1.87714722e-05
      1.33449447 2.21978164 -0.00106643408 -8.8804436e-06 -4.2083002e-07
      -0.000187090933 1.07982028 -0.0169875994 -0.000320806605
      0.70652324 0.366378367 -3.86618512e-06 -0.00448677922
      -0.00386303687 -0.000233209954 -0.00333516044 -0.00524887769
      5.2800808 -0.0139873791 -0.000740353949 -0.00159075984
      -0.00350236264 -0.00141851604 -4.20197466e-05 -0.00578633184
      3.744205 -1.53392989e-06 -7.74116343e-05 -0.000853792415
      3.70837283 -8.70456061e-05 -3.15264551e-05 -0.000249791803
      0.41791144 -0.0011583016 -0.00242707157 -1.38061559e-05
      -4.72783904e-05 -0.000363206025 -7.37357652e-07 -1.89329819e-06
      -0.000125020146 -2.90234584e-05 -0.00529077742 -4.80429071e-06
      -0.00392586412 -0.000335557386 0.662220061 -0.00840732828
      -0.00149936497 -0.0164960362 -0.00404677493 -0.0021558532
      0.0840763226 0.47162956 -7.36742586e-05 -0.000114237104
      -0.000354771619 0.498515964 0.264920533 -0.000204474258 0.5097875
      -2.10050257e-06 0.0503594428 -0.000979471137 -0.000229980666
      0.481075615 -0.00216304557 -0.000574165431 -2.14159554e-05
      -0.00020007338 -2.64760092e-06 -2.36049596e-06 0.336523145
      -0.00287254574 -0.00184461381 0.00161513314 -1.07666915e-06
      -0.000952983857 -3.67635653e-06 -0.0027244885 0.615956306
      0.306220412 0.625290215 -0.00182235532 0.219781876 0.28960216
      -3.1983247e-05 -0.000493155618 -0.000503663905 0.157200247
      0.306887448 -0.000400068588 0.233009398 0.803958416 0.374759823
      -0.00369469542 -0.00601380086 -0.000957403972 0.103865206
      -0.00227470114 -1.3763306e-05 -0.00391584495 -0.00212273723
      -0.00328820036 -0.0025058405 -0.000106828855 -2.55589202e-06
      0.545672596 -2.71034509e-07 -3.59993749e-07 0.0685541555
      0.443873167 -0.000428966538 0.318333149 -0.000149759566
      -9.44880012e-05 0.270463675 0.0169873461 -0.000142633886
      -3.94360723e-05 -2.9905661e-05 -4.51721971e-05 -0.000248983881
      0.0116388239 -0.00010853065 0.0895033479 -0.000698515621
      0.0262287706 0.269473732 -0.000119628428 -9.38460573e-07
      -0.000194214474 0.000511292368 0.332327574 0.5843817
      -2.43444265e-05 -0.000354715652 -9.09764203e-05 -4.18804339e-05
      -0.000493496249 0.00745969824 0.0650171712 -0.000270968827
      -0.000262204558</_>
    <_>
      -0.777111113 -3.20707154 -0.00361879379 -0.0167776346
      -0.000116860734 -0.00739529589 -0.000297501625 -0.00130518642
      -1.67224994e-06 -1.13153492e-05 -2.4474059e-07 -5.92682554e-05
      -0.000230649384 -0.000114777766 2.94584966 2.20211339
      -0.00179899333 2.57025743 -9.74813665e-05 -0.00105337438
      -0.000405051425 -0.00280949264 0.0457506776 -1.05772569e-05
      1.90064108 3.34580302 -1.44033938e-05 -3.97521981e-05
      -1.61105927e-05 1.44352782 -0.00011072401 0.537484348
      -0.000579980551 -7.22516997e-05 -0.000544052979 -0.000255865714
      -4.25602193e-05 -0.00104521599 -0.000147237006 -0.000107004802
      -0.000566361006 -0.000780150178 -0.000336944824 -0.00428305147
      -0.00146639696 -0.000317213999 3.20408392 1.93189704
      -0.00611908222 -0.000949522597 -0.000107692373 -2.63809943e-06
      -0.00660671061 1.53354037 -0.0179140233 -0.0263297465
      -0.00179997867 0.544666946 -0.00256423675 -0.000548592012
      -0.00056708866 -0.000557518506 2.74746394 -0.000393681577
      -3.53245632e-05 -2.98671621e-05 -1.95618322e-05 -0.00262274919
      -0.000930808485 -0.000631362316 2.47966528 -0.00115652615
      -6.43532767e-05 -1.93308347e-06 -0.000906337402 -1.85254485e-05
      1.26378393 2.10941529 -0.00110121106 -8.66353821e-06
      -4.84515454e-07 -0.000200876806 1.02913082 -0.0152128777
      -0.000328057242 0.757321358 0.343401253 -3.89865454e-06
      -0.00455790805 -0.00380074698 -0.000241071684 -0.00338058104
      -0.0052398718 5.21419239 -0.0139625929 -0.00075578189
      -0.000247965887 -0.00357845379 -0.00144631427 -4.39813157e-05
      -0.00564525276 3.69494891 -1.55165355e-06 -7.83810101e-05
      -0.000857298262 3.70158815 -8.5810374e-05 -3.12188895e-05
      -0.000249392586 0.416171402 -0.00115786225 -0.00233617844
      -1.42207236e-05 -5.18474953e-05 -0.000369026646 -7.5773994e-07
      -1.87672583e-06 -0.000128407191 -2.98835585e-05 -0.00536850933
      -4.95133736e-06 -0.00396352541 -0.000333784934 0.614582479
      -0.0082775848 -0.001497588 -0.016845379 -0.00392177049
      -0.00206178264 0.0872890502 0.465288311 -7.3683339e-05
      -0.000114699396 -0.000372457202 0.493285835 0.267585218
      -0.000205041055 0.511522233 -2.0805885e-06 0.051263079
      -0.00089171133 -0.000231054379 0.478936821 -0.00204636599
      -0.000586903247 -2.152446e-05 -0.000199105765 -2.62670392e-06
      -2.35656262e-06 0.340679795 -0.00283134985 -0.00183252187
      0.00930583104 -1.07764151e-06 -0.00100980699 -3.68135557e-06
      -0.00271404861 0.613275886 0.301145911 0.62236321 -0.00182447047
      0.224744752 0.296535581 -3.18039456e-05 -0.000495131477
      -0.000607930939 0.152351677 0.313561559 -0.000397955358
      0.239628524 0.79253304 0.382166862 -0.00363796763 -0.00592920929
      -0.00101094774 0.11122521 -0.00226785243 -1.38105161e-05
      -0.0039096782 -0.00191231933 -0.00333697442 -0.00252450933
      -0.000107664237 -2.55767986e-06 0.540124118 -2.70966581e-07
      -3.60779921e-07 0.0609901175 0.442908585 -0.000428966538
      0.318333149 -0.000149759566 -9.44880012e-05 0.270463675
      0.0169873461 -0.000142633886 -3.94360723e-05 -2.9905661e-05
      -4.51721971e-05 -0.000248983881 0.0116388239 -0.00010853065
      0.0895033479 -0.000698515621 0.0262287706 0.269473732
      -0.000119628428 -9.38460573e-07 -0.000194214474 0.000511292368
      0.332327574 0.5843817 -2.43444265e-05 -0.000354715652
      -9.09764203e-05 -4.18804339e-05 -0.000493496249 0.00745969824
      0.0650171712 -0.000270968827 -0.000262204558</_>
    <_>
      -0.802992105 -3.28765583 -0.00368597195 -0.0181553885
      -0.000125746286 -0.00756638264 -0.000279809406 -0.00130221224
      -1.63188474e-06 -1.11033105e-05 -2.50352883e-07 -6.10226489e-05
      -0.000226999735 -0.000119345459 3.15097356 2.26767635
      -0.00177220046 2.45866752 -9.53199706e-05 -0.0010455416
      -0.00040453751 -0.00279534492 0.119074285 -1.06229872e-05
      1.93173277 3.40754008 -1.35922146e-05 -4.148687e-05
      -1.55242251e-05 1.23632061 -0.000111989291 0.557109714
      -0.000621917134 -7.10577806e-05 -0.000534351624 -0.000257130829
      -4.31707595e-05 -0.00168295263 -0.000141779441 -0.000107335924
      -0.000548034324 -0.000800656446 -0.00034546238 -0.00391087076
      -0.00141459401 -0.000326029549 3.19684744 1.89521575
      -0.00694371993 -0.000965193613 0.00713406643 -2.42461056e-06
      -0.00655689742 1.5423739 -0.0179655012 -0.0283251368
      -0.00186994323 0.442178398 -0.00257991953 -0.000561318418
      -0.000544690585 -0.000534352032 2.81460452 -0.00019006498
      -3.42908461e-05 -2.84018242e-05 -1.98088437e-05 -0.00264567998
      -0.000960896316 -0.000598364335 2.54346943 -0.00116450607
      -6.26093679e-05 -1.71848058e-06 -0.000871050928 -1.81860887e-05
      1.32353652 2.25530028 -0.00108367833 -8.72711462e-06
      -4.56307902e-07 -0.00019008579 1.07778919 -0.0166813675
      -0.000316527672 0.7577703 0.283078372 -3.99939108e-06
      -0.00447382731 -0.00383423804 -0.000240604058 -0.00333141675
      -0.00510966778 5.2556076 -0.0141833536 -0.000736311078
      -0.00154330174 -0.00356079335 -0.00145091722 -4.26551051e-05
      -0.00567463646 3.73587894 -1.47566618e-06 -7.58202077e-05
      -0.00085264974 3.72274017 -8.82839377e-05 -3.10149517e-05
      -0.00026298649 0.247784942 -0.00114507042 -0.00235639815
      -1.33723088e-05 -4.91415121e-05 -0.000390114961 -7.21851791e-07
      -1.88899048e-06 -0.000131202323 -2.97998522e-05 -0.00546135288
      -5.14988642e-06 -0.00395956216 -0.0003599833 0.710001767
      -0.00823281612 -0.00155072496 -0.0169253089 -0.00394217251
      -0.00200819178 0.0931832045 0.456506282 -7.40853284e-05
      -0.000115673196 -0.00110390305 0.441956669 0.234992817
      -0.000201069677 0.522772908 -2.17228603e-06 0.081039235
      -0.000983562088 -0.000239517423 0.504969716 -0.00222654734
      -0.000350875402 -2.14516785e-05 -0.000204139404 -2.69941756e-06
      -2.299578e-06 0.300248563 -0.00271031167 -0.00168590865
      -0.000210307713 -1.05690094e-06 -0.00119226531 -3.63175104e-06
      -0.00280600367 0.629753232 0.246981263 0.632717013 -0.00186930236
      0.174667984 0.300295562 -3.14805147e-05 -0.000500388676
      -0.000955759315 0.13479045 0.359466136 -0.0004147609 0.229489595
      0.732414842 0.414041042 -0.00386596913 -0.00654578861
      -0.00136333646 0.151016563 -0.00230414327 -1.37800298e-05
      -0.00396691356 -0.00196018396 -0.00339819607 -0.00253729825
      -0.000106979365 -2.57735724e-06 0.565773487 -2.66878402e-07
      -3.53583943e-07 0.0250298232 0.491800785 -0.000428972184
      0.318387568 -0.000149759901 -9.44882631e-05 0.270496845
      0.0169703998 -0.000142634133 -3.94361814e-05 -3.05969988e-05
      -4.56637863e-05 -0.000248980912 0.0115417782 -0.00010852862
      0.0894945711 -0.0006984754 0.0262850448 0.269517779
      -0.000119628705 -9.39079882e-07 -0.000194213411 0.000425089151
      0.332290232 0.584400773 -2.43445484e-05 -0.00035447962
      -9.09768496e-05 -4.18805794e-05 -0.000493471976 0.00744871236
      0.0650289953 -0.000270967488 -0.000262148213</_>
    <_>
      -0.735261559 -3.17442155 -0.003561266 -0.0185319185
      -0.000123068821 -0.00735696359 -0.000269573386 -0.00129162369
      -1.56651015e-06 -1.0825046e-05 -2.44027746e-07 -5.92524812e-05
      -0.000224513977 -0.000113965027 3.20327687 2.18249965
      -0.00171908946 2.39152026 -9.15113196e-05 -0.00101577351
      -0.00039069372 -0.00271414337 0.135237902 -1.02540534e-05
      1.84314883 3.29497838 -1.34653037e-05 -4.04078783e-05
      -1.52335751e-05 1.13294089 -0.000109422028 0.490303248
      -0.000596246682 -6.88602668e-05 -0.000521519338 -0.000249730132
      -4.15338982e-05 -0.00196946133 -0.000136042043 -0.000104429535
      -0.000529315672 -0.000773598731 -0.000343062362 -0.00359404879
      -0.00138317491 -0.00032063789 3.16630602 1.84525299 -0.00680899387
      -0.000928993628 0.0256349631 -2.36504684e-06 -0.006438829
      1.63959265 -0.017522322 -0.0287170261 -0.00181640161 0.471290439
      -0.00250473386 -0.000548111275 -0.000524352421 -0.000521626323
      2.71491408 -0.00049114693 -3.2982527e-05 -2.74048143e-05
      -1.9369556e-05 -0.00258704787 -0.000935028482 -0.000579087588
      2.49084282 -0.00111809897 -6.1095423e-05 -1.64198923e-06
      -0.000849701581 -1.78435948e-05 1.26588261 2.30165744
      -0.00106016721 -8.50635934e-06 -4.40204076e-07 -0.000183312091
      1.10849416 -0.017476473 -0.000310271862 0.729015172 0.322228193
      -3.79274275e-06 -0.00443238486 -0.00382909994 -0.000233599334
      -0.00324599445 -0.00497957924 5.0794363 -0.0137244249
      -0.000722815166 -0.00195140019 -0.00347457547 -0.00141174789
      -4.10925313e-05 -0.00551576959 3.60596347 -1.41442342e-06
      -7.40258038e-05 -0.000826456991 3.6839962 -8.49861754e-05
      -3.00842421e-05 -0.000252273079 0.136487186 -0.0011184141
      -0.00213086535 -1.28494739e-05 -4.7542846e-05 -0.000361565559
      -7.17425678e-07 -1.79478411e-06 -0.000127420164 -2.88905267e-05
      -0.00532450667 -5.03360798e-06 -0.00397640467 -0.000336945232
      0.667378247 -0.00802019425 -0.00150185928 -0.0164217912
      -0.00424261438 -0.00189763587 0.0631434247 0.471499562
      -7.42793563e-05 -0.000110711138 -0.000881631044 0.423036098
      0.195197687 -0.00020139727 0.534866691 -2.31400531e-06 0.100589097
      -0.000958272431 -0.000242610127 0.533592463 -0.00196126965
      0.00950407982 -2.11066708e-05 -0.000208381505 -2.78383754e-06
      -2.2424706e-06 0.294216603 -0.00213582558 -0.00178691081
      -0.000363669271 -1.04049468e-06 -0.00102175982 -3.55957241e-06
      -0.00307479105 0.628632724 0.244432122 0.661259592 -0.00180279871
      0.136101365 0.328368038 -3.15134203e-05 -0.000500834489
      -0.000657009718 0.138694882 0.388893425 -0.000424915255
      0.167660311 0.734518647 0.400833786 -0.00428706501 -0.00743185077
      -0.0012719467 0.160966992 -0.0023600345 -1.38069499e-05
      -0.00398401124 -0.00150045007 -0.00345761422 -0.00254961802
      -0.000106359585 -2.59362741e-06 0.617057383 -2.57268312e-07
      -3.47979153e-07 0.0096825026 0.500936568 -0.000428989209
      0.318387806 -0.000149759217 -9.44877465e-05 0.270503968
      0.0169838853 -0.000142633668 -3.9435894e-05 -3.05038684e-05
      -4.56394991e-05 -0.000248983619 0.0115721896 -0.000108530519
      0.0895063728 -0.000698518823 0.0262503251 0.269520879
      -0.000119628094 -9.39767915e-07 -0.000194214284 0.000443536788
      0.332341343 0.584442198 -2.43442828e-05 -0.000354845281
      -9.09761147e-05 -4.18802883e-05 -0.000493495318 0.00745856948
      0.0650311634 -0.000270973163 -0.000262203481</_>
    <_>
      -0.951972783 -3.11260271 -0.00354637648 -0.0161211733
      -0.00013040354 -0.00726249442 -0.000258303306 -0.00129602698
      -1.49862228e-06 -1.06561192e-05 -2.45053542e-07 -5.7988982e-05
      -0.000216095679 -0.000113280541 2.93389916 2.21467853
      -0.00168014225 2.45341754 -9.04469998e-05 -0.00103637436
      -0.000390353554 -0.00272462727 0.108802967 -1.02839795e-05
      1.921049 3.31782818 -1.33897802e-05 -4.08556989e-05
      -1.55544549e-05 1.21237302 -0.000108781271 0.502519369
      -0.000579595449 -6.90958332e-05 -0.00051310932 -0.000256800209
      -4.14958231e-05 -0.00253488659 -0.000135541632 -0.000105803978
      -0.000529203797 -0.000756325433 -0.000362796854 -0.00361724547
      -0.00134218135 -0.000319106883 3.28107977 1.99408746
      -0.00661787717 -0.000907910173 0.00719021633 -2.2066663e-06
      -0.00629443349 1.34639609 -0.0179015398 -0.0266615488
      -0.00179992965 0.461350799 -0.00249615335 -0.000571224315
      -0.000522650254 -0.000513315317 2.72612309 0.00128067285
      -3.22673877e-05 -2.7690985e-05 -1.97263307e-05 -0.00264197681
      -0.000921646191 -0.000564045506 2.32913542 -0.00109058723
      -6.13540251e-05 -1.62121444e-06 -0.000843068177 -1.77246802e-05
      1.27280295 2.15133214 -0.0010566999 -8.55955841e-06
      -4.83248471e-07 -0.000183737473 0.980422616 -0.014998991
      -0.000310499279 0.829992771 0.295994043 -3.70146472e-06
      -0.00445858669 -0.0037435242 -0.000231191778 -0.00323193194
      -0.00492993277 5.13913727 -0.0137801096 -0.000738955045
      -0.000426198239 -0.00344583648 -0.00141289213 -4.10853681e-05
      -0.00535021955 3.62668204 -1.4242238e-06 -7.24042548e-05
      -0.00083433633 3.60484648 -8.48644704e-05 -3.08505987e-05
      -0.000250003301 0.0760518387 -0.00111558416 -0.00228764233
      -1.30322733e-05 -5.02603107e-05 -0.00036424576 -6.97335793e-07
      -1.795863e-06 -0.000130652988 -2.86990653e-05 -0.00524813449
      -4.96753501e-06 -0.00382042816 -0.000333392323 0.704933703
      -0.00800424814 -0.0015690088 -0.0165432096 -0.00349712255
      -0.00188413716 0.066368416 0.472188562 -7.40892719e-05
      -0.000110729969 -0.00089613063 0.425136089 0.1879531
      -0.000200797222 0.535608709 -2.29849911e-06 0.105450332
      -0.00095612352 -0.000243531627 0.534656465 -0.0019848079
      0.00914482772 -2.1127742e-05 -0.000208710058 -2.78239304e-06
      -2.23658117e-06 0.286967397 -0.00206085737 -0.00179272832
      -0.000456584268 -1.03990772e-06 -0.00111221033 -3.55535576e-06
      -0.00305153546 0.631306231 0.239113897 0.655164123 -0.00180681865
      0.130554274 0.323015302 -3.13816272e-05 -0.000500291993
      -0.000671037473 0.140528202 0.392386675 -0.000426877959
      0.169884652 0.728862762 0.399767309 -0.00429251138 -0.00743414229
      -0.00146892213 0.164069131 -0.00235260651 -1.3824475e-05
      -0.00398823339 -0.00156361749 -0.00343109504 -0.00255136238
      -0.000106359184 -2.58915065e-06 0.614307165 -2.57343544e-07
      -3.47607198e-07 0.00778170303 0.500642776 -0.000428989209
      0.318387806 -0.000149759217 -9.44877465e-05 0.270503968
      0.0169838853 -0.000142633668 -3.9435894e-05 -3.05038684e-05
      -4.56394991e-05 -0.000248983619 0.0115721896 -0.000108530519
      0.0895063728 -0.000698518823 0.0262503251 0.269520879
      -0.000119628094 -9.39767915e-07 -0.000194214284 0.000443536788
      0.332341343 0.584442198 -2.43442828e-05 -0.000354845281
      -9.09761147e-05 -4.18802883e-05 -0.000493495318 0.00745856948
      0.0650311634 -0.000270973163 -0.000262203481</_>
    <_>
      -0.809240043 -2.80119777 -0.00348869595 -0.0174214002
      -0.000120799843 -0.00717045227 -0.000261316774 -0.00128122838
      -1.47480728e-06 -1.06404059e-05 -2.42230129e-07 -5.69596268e-05
      -0.000215913125 -0.000109039443 3.06177068 2.02505422
      -0.00168088928 2.60946012 -8.90579977e-05 -0.00101133483
      -0.000380689336 -0.00269358815 0.0981330052 -9.89501223e-06
      1.74958897 3.12878227 -1.32982968e-05 -4.00280769e-05
      -1.53538585e-05 1.29852378 -0.000108308275 0.453708619
      -0.00054726185 -6.75744377e-05 -0.000517044624 -0.000252041616
      -3.87621949e-05 -0.00247730454 -0.000131415887 -0.000105125771
      -0.000521640875 -0.000729380467 -0.000357459852 -0.00356905395
      -0.00137442502 -0.000319392304 3.34988642 1.93814301
      -0.00664611161 -0.000873689656 0.016337147 -2.2117581e-06
      -0.00636073714 1.51556134 -0.0174522195 -0.0276592206
      -0.00174566254 0.531270564 -0.00247218413 -0.000566490809
      -0.000526102667 -0.000522093673 2.6006248 -0.00162802718
      -3.27020862e-05 -2.71717054e-05 -1.88191771e-05 -0.00256069866
      -0.00089060067 -0.000571962853 2.39054871 -0.00108325679
      -6.07382717e-05 -1.62196602e-06 -0.000841048488 -1.70776366e-05
      1.09486485 2.19495988 -0.00106216455 -8.36443905e-06
      -4.76282963e-07 -0.000190667095 1.08502448 -0.0163204968
      -0.000304274377 0.81721735 0.361432731 -3.58296779e-06
      -0.00442679832 -0.00383206992 -0.000224594027 -0.00319862785
      -0.00491347769 4.83107758 -0.013329179 -0.000725113496
      -0.00114640663 -0.00341173005 -0.00139287533 -4.01406105e-05
      -0.00528449146 3.43732572 -1.41496741e-06 -7.19556119e-05
      -0.000822186179 3.76013184 -8.12763828e-05 -3.0024712e-05
      -0.000238162262 0.135886669 -0.00110774057 -0.00192671118
      -1.30288718e-05 -4.95721251e-05 -0.000336366706 -6.74315118e-07
      -1.71414399e-06 -0.000124457089 -2.83802692e-05 -0.005097738
      -4.83215172e-06 -0.00393936131 -0.000300024927 0.548545718
      -0.00794384908 -0.00142653612 -0.0163697321 -0.00494746864
      -0.00174324529 0.061789833 0.467100531 -7.38768649e-05
      -0.000111392379 -0.000935088086 0.427991867 0.183368549
      -0.000201405099 0.53942585 -2.27641362e-06 0.102595657
      -0.00089042238 -0.000242380644 0.535174131 -0.00199138466
      0.00587901473 -2.11266306e-05 -0.000206725774 -2.79271035e-06
      -2.24520295e-06 0.281175584 -0.0021130091 -0.00177232351
      -0.000525397074 -1.04445269e-06 -0.00117789651 -3.56925989e-06
      -0.00308781606 0.631229877 0.240859509 0.658022583 -0.0018239452
      0.133116528 0.318120778 -3.12736447e-05 -0.000499679707
      -0.000767743622 0.134695262 0.387198865 -0.000425509119
      0.163177103 0.724169016 0.412466913 -0.00432172557 -0.00744112674
      -0.00143972633 0.161501259 -0.00234600902 -1.38607293e-05
      -0.00397914089 -0.00160069577 -0.00337898196 -0.00255247857
      -0.000105474144 -2.59357944e-06 0.605662107 -2.59416794e-07
      -3.49674508e-07 0.00942600518 0.495725751 -0.000428989209
      0.318387806 -0.000149759217 -9.44877465e-05 0.270503968
      0.0169838853 -0.000142633668 -3.9435894e-05 -3.05038684e-05
      -4.56394991e-05 -0.000248983619 0.0115721896 -0.000108530519
      0.0895063728 -0.000698518823 0.0262503251 0.269520879
      -0.000119628094 -9.39767915e-07 -0.000194214284 0.000443536788
      0.332341343 0.584442198 -2.43442828e-05 -0.000354845281
      -9.09761147e-05 -4.18802883e-05 -0.000493495318 0.00745856948
      0.0650311634 -0.000270973163 -0.000262203481</_>
    <_>
      -0.46229136 -3.21365833 -0.00361885014 -0.019122025 -0.00011908458
      -0.00726339361 -0.000275683502 -0.00132004707 -1.43131001e-06
      -1.0891873e-05 -2.48085428e-07 -5.73977268e-05 -0.000208835481
      -0.000113067239 3.15486813 2.13943505 -0.00169303617 2.62354302
      -9.76161464e-05 -0.00103069341 -0.000401114114 -0.00277425046
