<?xml version="1.0"?>
<opencv_storage>
<opencv_ml_svm>
  <format>3</format>
  <svmType>EPS_SVR</svmType>
  <kernel>
    <type>RBF</type>
    <gamma>0.01</gamma></kernel>
  <C>1.</C>
  <p>0.001</p>
  <term_criteria><epsilon>0.001</epsilon>
    <iterations>3000</iterations></term_criteria>
  <var_count>227</var_count>
  <sv_total>235</sv_total>
  <support_vectors>
    <_>
      0.567103803 -4.31795216 -0.00715880329 -0.052587416
      -0.000180434436 -0.0133409249 -0.000516507891 -0.00190718321
      -4.78867059e-06 -1.74119887e-05 -3.24583141e-07 -0.000126634812
      -0.000356831239 -0.000234870982 8.28940773 1.36154902
      -0.00310102105 -0.00101667526 -0.000186823861 -0.00109150924
      -0.000816421933 -0.00497922394 0.00835684687 -1.74254419e-05
      0.44167006 2.73476624 -9.80363166e-06 -6.85731648e-05
      -1.93457017e-05 -0.0197991412 -0.000204607044 -0.0153208375
      -0.00151778385 -0.000107084954 -0.000880114094 -0.000225087395
      -8.21479334e-05 -0.0123756742 -0.000283063768 -0.000144120131
      -0.000589491741 -0.0019738921 -0.000279689324 0.00266607106
      -0.00177645148 -0.000543157104 2.05512857 0.354563445
      -0.0228259899 -0.00227029528 0.00967075489 -4.06577146e-06
      -0.0103819594 4.00404406 -0.0206376277 -0.0811046138
      -0.00390389352 -0.00682706898 -0.00544459093 -0.0010106616
      -0.000322220847 -0.00100159994 2.77580976 -0.0233508013
      -3.38859536e-05 -3.81988611e-05 -3.59880505e-05 -0.0050584483
      -0.00196582009 -0.000604915665 5.2186017 -0.00200891565
      -0.000120126344 -3.86024522e-06 -0.000973567541 -2.3258337e-05
      0.969256401 5.54737186 -0.00183583179 -1.27337662e-05
      -6.05633886e-07 -0.000318799197 2.69915628 -0.0487378836
      -0.000702253135 -0.00795402471 -0.0143082105 -9.22354411e-06
      -0.00730301533 -0.00647186255 -0.000525027106 -0.00526321819
      -0.00525611918 3.99557829 -0.0223854259 -0.000694858318
      -0.0196261797 -0.00626053102 -0.0025855368 -7.95633168e-05
      -0.00738901738 3.34685063 -1.38152689e-06 -0.000126712883
      -0.000914956385 4.35979843 -0.000155400005 -3.18155144e-05
      -0.000583792862 -0.00809605513 -0.00195100077 -0.00017476124
      -1.88568065e-05 -5.04249729e-05 -0.000946423097 -8.31470516e-07
      -3.18694879e-06 -0.000180162824 -4.98038135e-05 -0.00884303171
      -1.07503975e-05 -0.00710157678 -0.000876375067 -0.00185835955
      -0.00917707849 -0.00333096134 -0.0213898253 -0.0199666042
      -0.00262172357 0.351843327 0.3407543 -9.5189891e-05
      -8.26367686e-05 0.0478722304 0.0392256454 0.144989505
      -0.00014363529 0.255682558 -4.83331269e-06 -0.000335673394
      0.168524176 -0.000202885916 0.693291247 -0.00528063299 0.390916169
      -2.24895848e-05 -0.000222774062 -3.4011623e-06 -2.61499531e-06
      0.0159353763 -0.000698410091 -0.00365234492 0.528307557
      -1.14625061e-06 0.665325463 -3.83047745e-06 -0.00107907737
      0.971826553 -0.00139644917 -0.000448445935 0.0307489187
      -0.000597131671 0.293942899 -4.04285165e-05 -0.000385530875
      -6.52308008e-05 -0.0009260652 -0.0028421008 -0.000285695627
      0.0940416828 0.145642757 0.571208358 -0.00217675767 0.019261267
      -0.00248349621 0.0537233278 -0.001299717 -1.30882972e-05
      -0.00337228854 0.0560460612 -0.00441908417 -0.00260132318
      -0.000120177552 -3.31357455e-06 0.248396575 -2.10485396e-07
      -3.78223916e-07 0.199584857 0.638527155 -1.49100979e-05
      -1.87561782e-05 -0.000209410427 -0.000411167799 0.310136795
      -0.000150389315 -9.49447131e-05 0.256743401 -1.94849199e-05
      0.00333435088 -0.000143070181 -3.97022814e-05 -3.01301475e-06
      0.00241408497 -0.000247088698 -8.04678712e-05 -0.000106459003
      0.0759179965 -0.000663288229 0.0601700544 0.259727716
      -0.000120195546 -2.12970761e-07 -0.00019357109 -5.59417531e-05
      0.276640326 0.533498168 -2.45839256e-05 0.00700509548
      -9.16358913e-05 -4.21404329e-05 -0.000474544126 -2.83588834e-05
      0.0597018525 -0.000265562208 -0.000190539591 -2.95588889e-05
      -0.000207418329</_>
    <_>
      0.823093116 -4.8256259 -0.00648972392 -0.0523974411
      -0.000171529275 -0.0126612736 -0.000434671121 -0.00180285855
      -3.81027394e-06 -1.55323123e-05 -3.08034572e-07 -0.000112958631
      -0.000334960321 -0.000215454638 8.0933857 1.60441196
      -0.00278433249 -0.0025744373 -0.000170061583 -0.00103223708
      -0.000742213568 -0.00443834672 0.0879381448 -1.48620884e-05
      0.70840317 2.93575072 -9.5550713e-06 -6.27773552e-05
      -1.79058497e-05 -0.0161719006 -0.000197805566 -0.0125119872
      -0.00141382671 -9.9012148e-05 -0.000795736967 -0.000226620134
      -7.24504571e-05 -0.0090590883 -0.000244739029 -0.000125874867
      -0.000570940669 -0.00174956198 -0.000307443872 0.00290917605
      -0.00164476247 -0.000497187953 1.85252798 0.274944067
      -0.0202357136 -0.00201487588 0.0207191464 -3.68642964e-06
      -0.00961093605 4.25252676 -0.0206696577 -0.0711528361
      -0.00363061693 -0.00301355263 -0.00484930817 -0.00097733445
      -0.000319223473 -0.000845869712 2.85418391 -0.0187456012
      -3.62094142e-05 -3.43456559e-05 -3.14243189e-05 -0.00464369217
      -0.00184707262 -0.000620667182 5.11456585 -0.00179073052
      -0.000103536266 -3.49434254e-06 -0.000946114014 -2.21352129e-05
      1.27073526 5.26049328 -0.00165217661 -1.19635533e-05
      -4.99585212e-07 -0.000276846287 2.72608137 -0.0493272729
      -0.000625421409 -0.00620707497 -0.00994237792 -8.07512606e-06
      -0.00688312016 -0.00623933086 -0.00047584789 -0.00493429694
      -0.00520012015 4.40656185 -0.0220413823 -0.000632595271
      -0.0200934783 -0.00572704943 -0.00235774694 -6.63020837e-05
      -0.00735585904 3.54864383 -1.20604273e-06 -0.000108399465
      -0.00091803883 4.49008036 -0.000132483736 -3.09152019e-05
      -0.000530304213 -0.00210465188 -0.00173441111 -0.000736918824
      -1.65228048e-05 -4.53937246e-05 -0.000789224636 -8.14890939e-07
      -2.75296179e-06 -0.00016941491 -4.57803108e-05 -0.00829988625
      -9.75961666e-06 -0.00672737742 -0.00076079875 0.0154890791
      -0.00899472181 -0.00302429916 -0.0215788335 -0.0179449599
      -0.00278590014 0.351843327 0.3407543 -9.5189891e-05
      -8.26367686e-05 0.0478722304 0.0392256454 0.144989505
      -0.00014363529 0.255682558 -4.83331269e-06 -0.000335673394
      0.168524176 -0.000202885916 0.693291247 -0.00528063299 0.390916169
      -2.24895848e-05 -0.000222774062 -3.4011623e-06 -2.61499531e-06
      0.0159353763 -0.000698410091 -0.00365234492 0.528307557
      -1.14625061e-06 0.665325463 -3.83047745e-06 -0.00107907737
      0.971826553 -0.00139644917 -0.000448445935 0.0307489187
      -0.000597131671 0.293942899 -4.04285165e-05 -0.000385530875
      -6.52308008e-05 -0.0009260652 -0.0028421008 -0.000285695627
      0.0940416828 0.145642757 0.571208358 -0.00217675767 0.019261267
      -0.00248349621 0.0537233278 -0.001299717 -1.30882972e-05
      -0.00337228854 0.0560460612 -0.00441908417 -0.00260132318
      -0.000120177552 -3.31357455e-06 0.248396575 -2.10485396e-07
      -3.78223916e-07 0.199584857 0.638527155 -1.49129255e-05
      -1.8758783e-05 -0.000209422535 -0.000410868408 0.309948742
      -0.000150400287 -9.49519381e-05 0.256446183 -1.9487481e-05
      0.00306649506 -0.000143077879 -3.97065378e-05 -1.59643582e-06
      0.00261762738 -0.000247071934 -8.35764004e-05 -0.000106404499
      0.0756342635 -0.000662769831 0.0608415902 0.259519756
      -0.000120205426 -2.01320503e-07 -0.000193566171 -5.62712157e-05
      0.275538385 0.532489896 -2.4587649e-05 0.00788523257
      -9.16466815e-05 -4.21445002e-05 -0.000474267261 -3.03794059e-05
      0.0595723689 -0.000265479146 -0.000190551262 -2.95616883e-05
      -0.000206346842</_>
    <_>
      0.409723103 -4.01444626 -0.00719712256 -0.0508251376
      -0.000178804839 -0.0132362135 -0.000527226191 -0.00190695026
      -4.88110072e-06 -1.75860987e-05 -3.23632321e-07 -0.000127171792
      -0.000353738054 -0.000233433937 8.20894337 1.14991415
      -0.0031341284 -7.54279608e-05 -0.000184751741 -0.00109845737
      -0.000813579711 -0.0050603617 -0.000470142142 -1.75162368e-05
      0.252303451 2.52041817 -9.42748466e-06 -6.90549059e-05
      -1.95669545e-05 -0.0196776856 -0.000204902492 -0.0163997989
      -0.00148789154 -0.000105049163 -0.00088452606 -0.000222721239
      -8.21355789e-05 -0.0128182834 -0.000280868117 -0.000148658844
      -0.000579396205 -0.00197293423 -0.000274178688 -8.50129509e-05
      -0.00184508786 -0.000545808114 2.10181618 0.351663917
      -0.0232849661 -0.00226813275 0.00107192993 -4.04562343e-06
      -0.0104729543 3.8416996 -0.0204539746 -0.0821836963 -0.00387026509
      -0.0079036383 -0.00547083048 -0.00103202008 -0.000332254713
      -0.00102713681 2.62511444 -0.0251100454 -3.250187e-05
      -3.87940745e-05 -3.60793929e-05 -0.00504772458 -0.00192547124
      -0.000586874492 5.23424673 -0.002011484 -0.000123431266
      -3.84009309e-06 -0.000943135063 -2.25059102e-05 0.747035682
      5.52987099 -0.00186619454 -1.26832438e-05 -6.09477524e-07
      -0.000328403752 2.5582521 -0.0470688343 -0.000714006834
      -0.00832920801 -0.0150745688 -9.31645354e-06 -0.00734741986
      -0.00659749378 -0.000525196316 -0.00532921683 -0.0052365046
      3.64083672 -0.0220761392 -0.000687051448 -0.0188245066
      -0.00631300267 -0.0025801349 -7.94131411e-05 -0.00729395729
      3.12774634 -1.37997188e-06 -0.000126304905 -0.000899331935
      4.29416227 -0.000155375674 -3.1491858e-05 -0.000579257554
      -0.00846392568 -0.00199069455 0.0258207191 -1.90219271e-05
      -5.08155244e-05 -0.000948453962 -8.12063718e-07 -3.22058895e-06
      -0.000177375114 -5.04240707e-05 -0.00871987641 -1.06418793e-05
      -0.00711897016 -0.000865156238 -0.00349893351 -0.00909986533
      -0.00332914223 -0.0210183971 -0.0209795255 -0.00249856454
      0.359796613 0.346658885 -9.57607917e-05 -8.3037492e-05
      0.0366964564 0.0235899016 0.143045262 -0.000143837722 0.269405991
      -4.86418048e-06 -0.000354302669 0.174701333 -0.000203439849
      0.695966184 -0.00539478706 0.399276048 -2.24485611e-05
      -0.000223861411 -3.38742757e-06 -2.58519299e-06 0.0141862035
      -0.000775114575 -0.00385872344 0.534758091 -1.13170347e-06
      0.663587868 -3.78532695e-06 -0.00106099329 0.989514112
      -0.00148368266 -0.000441982324 0.027729217 -0.000635528122
      0.293622851 -4.05367282e-05 -0.000391016976 -0.000248307217
      -0.00105697662 -0.0027779818 -0.000288564857 0.0931449383
      0.150116295 0.602665901 -0.00218333816 0.0381452851 -0.00258061849
      0.0517397523 -0.00130655034 -1.29505806e-05 -0.00342840236
      0.0760886893 -0.00463329302 -0.00264228368 -0.000121549441
      -3.29430372e-06 0.250908643 -2.07850661e-07 -3.71670836e-07
      0.196364418 0.650574505 -1.49100979e-05 -1.87561782e-05
      -0.000209410427 -0.000411167799 0.310136795 -0.000150389315
      -9.49447131e-05 0.256743401 -1.94849199e-05 0.00333435088
      -0.000143070181 -3.97022814e-05 -3.01301475e-06 0.00241408497
      -0.000247088698 -8.04678712e-05 -0.000106459003 0.0759179965
      -0.000663288229 0.0601700544 0.259727716 -0.000120195546
      -2.12970761e-07 -0.00019357109 -5.59417531e-05 0.276640326
      0.533498168 -2.45839256e-05 0.00700509548 -9.16358913e-05
      -4.21404329e-05 -0.000474544126 -2.83588834e-05 0.0597018525
      -0.000265562208 -0.000190539591 -2.95588889e-05 -0.000207418329</_>
    <_>
      0.669602334 -4.88916969 -0.00699586514 -0.0538047887
      -0.000184393852 -0.0133890482 -0.000496126304 -0.00186483143
      -4.81687312e-06 -1.72235177e-05 -3.19586491e-07 -0.000128454485
      -0.000367409753 -0.000238881446 8.44356155 1.79323852
      -0.00304645416 -0.00536268856 -0.000186774239 -0.00110481202
      -0.000799721514 -0.0048542968 0.0887188315 -1.75349323e-05
      0.744296849 3.15595937 -1.00089483e-05 -6.69322035e-05
      -1.9379162e-05 -0.0217270087 -0.000203036339 -0.0137298321
      -0.00156464602 -0.000107084306 -0.000845753471 -0.000227437195
      -8.40307839e-05 -0.011257696 -0.000289063551 -0.000135923081
      -0.000592416385 -0.00197644578 -0.000264015252 -0.000108267181
      -0.00178874971 -0.000538168184 1.68307364 0.206143826
      -0.0219019167 -0.00231028814 0.0180578157 -4.19357184e-06
      -0.0101006906 4.11987686 -0.0213499796 -0.0788515583
      -0.00388558535 -0.00765012205 -0.00525976392 -0.00100376364
      -0.000344204251 -0.000960442354 3.08223128 -0.0197196417
      -3.34596189e-05 -3.81905775e-05 -3.62110804e-05 -0.00489433575
      -0.00197723042 -0.000601475942 5.35520935 -0.00193511881
      -0.000115019204 -3.84665191e-06 -0.000945510401 -2.32929378e-05
      1.39917123 5.69503975 -0.00176968868 -1.3016951e-05
      -6.10875645e-07 -0.000300741231 2.64241886 -0.0493892506
      -0.000685036532 -0.00899859704 -0.0137441289 -9.01610565e-06
      -0.00742769241 -0.00629182439 -0.000526655116 -0.00519477902
      -0.00529794628 4.64004612 -0.0231583789 -0.000675993622
      -0.0207565799 -0.00623223698 -0.00250957673 -8.02794748e-05
      -0.00792789366 3.79818296 -1.42588578e-06 -0.000123346137
      -0.000926512992 4.12677431 -0.000156431794 -3.22052256e-05
      -0.000595290563 -0.00707156351 -0.00192222779 -0.00158122252
      -1.83831307e-05 -5.09249185e-05 -0.000945069769 -8.71231521e-07
      -3.15543161e-06 -0.00018622879 -4.89526101e-05 -0.0090251565
      -1.05527379e-05 -0.00686310697 -0.000904839835 0.12491972
      -0.00928973872 -0.003440473 -0.0219279788 -0.017433038
      -0.00296122814 0.360908955 0.343699843 -9.54550269e-05
      -8.08011755e-05 0.0183173344 0.0603549406 0.134926826
      -0.000142341101 0.259514838 -4.94239475e-06 -0.000283825852
      0.127872497 -0.000206601675 0.683824241 -0.00569200376 0.385527432
      -2.23075549e-05 -0.000229576297 -3.44358659e-06 -2.58159616e-06
      -0.000230460384 -0.000528942153 -0.0036328705 0.543394685
      -1.13045689e-06 0.6956442 -3.77359333e-06 -0.000954746793
      0.985598803 -0.00174081232 -0.000446412567 0.0413303711
      -0.000788541569 0.259146422 -4.06809777e-05 -0.000387603621
      0.00582375377 -0.000826351985 -0.00292076333 -0.000296327664
      0.0931964666 0.131480515 0.531376302 -0.00241682609
      -0.000335700694 -0.00244595017 0.0999997258 -0.00127532019
      -1.29233576e-05 -0.00340524362 -8.3532701e-05 -0.0041773445
      -0.0025966817 -0.00012109938 -3.30559442e-06 0.261973351
      -2.05392453e-07 -3.71256675e-07 0.197364956 0.613423169
      -1.49135176e-05 -1.87594105e-05 -0.000209421851 -0.000410809618
      0.309946895 -0.000150402208 -9.49534733e-05 0.256413221
      -1.94880431e-05 0.00300914422 -0.00014307916 -3.97074509e-05
      -1.75945456e-06 0.00262314826 -0.000247061835 -8.47439078e-05
      -0.000106400374 0.0755805671 -0.000662644801 0.0609925203
      0.259508282 -0.00012020718 -1.99322812e-07 -0.000193561864
      -5.68567593e-05 0.275317609 0.532317758 -2.45884821e-05
      0.00805496424 -9.16488716e-05 -4.21454097e-05 -0.00047419226
      -3.0819363e-05 0.05955825 -0.000265457376 -0.000190550956
      -2.9562294e-05 -0.000206150071</_>
    <_>
      0.711779654 -5.35493374 -0.00676464848 -0.0537743121
      -0.000188911596 -0.0134201162 -0.000451415835 -0.00182602555
      -4.47054981e-06 -1.63479981e-05 -3.18026451e-07 -0.000126427462
      -0.000365728716 -0.000239555724 8.33453178 2.25015473
      -0.00288695842 -0.00904117338 -0.00018355473 -0.00106965657
      -0.000783314521 -0.00459946459 0.21194014 -1.68200422e-05
      1.17094767 3.60881591 -1.05489862e-05 -6.57679338e-05
      -1.84108849e-05 -0.0221768953 -0.000203513031 -0.0120770596
      -0.00159816304 -0.000106962827 -0.000802510709 -0.000228279067
      -8.29139535e-05 -0.00983892102 -0.000283050933 -0.000125185805
      -0.000587108661 -0.00193364685 -0.000277071464 -0.000219189329
      -0.00165300607 -0.000522581802 1.47977543 0.318010092
      -0.0205759369 -0.00228813756 0.0429385006 -4.02397336e-06
      -0.00963012874 4.13498735 -0.0217452683 -0.0748737678
      -0.0038935903 -0.00624878146 -0.00503399177 -0.00101360166
      -0.000317442871 -0.000866241637 3.38285756 -0.0145674245
      -3.34929064e-05 -3.57068639e-05 -3.51513299e-05 -0.00474532833
      -0.00201658835 -0.000580398482 5.23248386 -0.00186019775
      -0.000104791652 -3.77905985e-06 -0.000945873733 -2.36757242e-05
      1.84540534 5.63660908 -0.00167379261 -1.29365635e-05
      -5.75206627e-07 -0.000266132876 2.63224101 -0.0500291437
      -0.000665943895 -0.007479975 -0.0111436695 -8.59211286e-06
      -0.00731827738 -0.00608206401 -0.000523252646 -0.0050337268
      -0.00524240918 5.31644917 -0.0238892883 -0.000645028951
      -0.0212731436 -0.00603503734 -0.00245274836 -7.71381383e-05
      -0.00825810805 4.1996603 -1.36364963e-06 -0.000115179886
      -0.00093068555 4.01154518 -0.000151596483 -3.17246595e-05
      -0.000589284056 -0.00751759112 -0.00183033478 -0.00203599478
      -1.69413961e-05 -4.83860094e-05 -0.000905999215 -9.03221689e-07
      -3.02639182e-06 -0.00019160677 -4.7341804e-05 -0.00916011725
      -1.05754734e-05 -0.00662388979 -0.000918258098 0.523959458
      -0.00910643209 -0.00353562878 -0.0219585933 -0.0143246111
      -0.00320833107 0.354035437 0.32540524 -9.51396869e-05
      -8.18318658e-05 0.00881695002 0.0392920747 0.135405004
      -0.000143435653 0.266786486 -4.87169518e-06 -0.000343834603
      0.143854111 -0.00020342051 0.673174024 -0.005377369 0.406461596
      -2.26026659e-05 -0.000223921976 -3.39901408e-06 -2.61352216e-06
      -4.3522341e-05 -0.000619527069 -0.00376287871 0.54881978
      -1.14575892e-06 0.680515349 -3.83068664e-06 -0.000869082054
      0.973287344 -0.00159852172 -0.000470402534 0.0444252193
      -0.000518925604 0.282013118 -4.07163425e-05 -0.0003887036
      -0.000128345855 -0.000936856784 -0.00281370105 -0.000287680392
      0.110020928 0.127148122 0.552900553 -0.00223774929 0.00314896926
      -0.00230572 0.0855346173 -0.00128585787 -1.30824847e-05
      -0.0033627057 0.0479697809 -0.00439106859 -0.00260274578
      -0.000120906305 -3.32130753e-06 0.256233394 -2.09528324e-07
      -3.78212263e-07 0.183933586 0.632220447 -1.49168527e-05
      -1.87622991e-05 -0.000209443431 -0.000410447305 0.309642881
      -0.000150416032 -9.49619425e-05 0.255995542 -1.94910062e-05
      0.00269143656 -0.000143089012 -3.97124277e-05 9.39667225e-05
      0.00294751674 -0.00024705712 -8.73453537e-05 -0.000106318992
      0.0752281547 -0.000662070524 0.0617748722 0.259192139
      -0.000120219593 -1.84653317e-07 -0.000193563421 -5.61287598e-05
      0.273978561 0.531031072 -2.45927586e-05 0.00914076716
      -9.1661801e-05 -4.21500881e-05 -0.000473903259 -3.31997289e-05
      0.0593747273 -0.000265368988 -0.000190570951 -2.95655536e-05
      -0.000204810349</_>
    <_>
      0.571479976 -4.78319597 -0.00658856425 -0.0502872542
      -0.000186576537 -0.0127207357 -0.000439314841 -0.0018439698
      -3.99893952e-06 -1.55356211e-05 -3.02435495e-07 -0.000117569376
      -0.000344724132 -0.000223922354 8.02969551 1.80319428
      -0.00281841122 -0.00487684878 -0.000175184643 -0.00102873729
      -0.000761374657 -0.00453093182 0.119205981 -1.51638587e-05
      0.858921409 3.12368751 -9.83867449e-06 -6.36745754e-05
      -1.81110481e-05 -0.017632762 -0.000198715628 -0.0133631015
      -0.00145039335 -9.99830809e-05 -0.000800366281 -0.000220324117
      -7.56150112e-05 -0.0105508519 -0.000256790459 -0.000130487635
      -0.000591975229 -0.00177883485 -0.000304809684 -2.92239711e-05
      -0.00167408318 -0.000498857175 1.67923093 0.379360527
      -0.0215041973 -0.00210705539 0.0163794588 -3.70429188e-06
      -0.00960333832 3.98937368 -0.0212505553 -0.072099708
      -0.00370695256 -0.00469354214 -0.00493720453 -0.000993174617
      -0.000297487772 -0.000861322216 3.0162847 -0.0178616233
      -3.33444113e-05 -3.44639593e-05 -3.32057934e-05 -0.00462641101
      -0.00189712958 -0.00057362084 5.10144329 -0.00178312405
      -0.000104976389 -3.80755364e-06 -0.000943052291 -2.21847604e-05
      1.39618242 5.31938267 -0.00166682713 -1.21078083e-05
      -5.20176911e-07 -0.000274303253 2.51408243 -0.046938207
      -0.000672457216 -0.00637423061 -0.0110149253 -8.31831949e-06
      -0.00697218161 -0.00606371788 -0.000490924169 -0.00501920609
      -0.00520107616 4.63518143 -0.0223728456 -0.000605392677
      -0.0195682645 -0.00575551391 -0.00240107276 -6.9241818e-05
      -0.00752864918 3.7188828 -1.2212613e-06 -0.000109027089
      -0.00092445832 4.15082216 -0.000138959251 -3.0674204e-05
      -0.000544075563 -0.00529360212 -0.00179799751 -0.00120565377
      -1.64705525e-05 -4.66599631e-05 -0.000810431084 -7.90025581e-07
      -2.83026247e-06 -0.000178388087 -4.64917939e-05 -0.00856370665
      -9.92611422e-06 -0.00656946423 -0.000819618115 0.16331476
      -0.00881703198 -0.00328045874 -0.0211205315 -0.0169270113
      -0.00300810416 0.36045754 0.316363931 -9.57332886e-05
      -8.11676218e-05 -5.84499539e-05 -0.000374943018 0.115856014
      -0.000142494304 0.294389576 -4.96387565e-06 0.0174156949
      0.144828528 -0.000209874997 0.648492098 -0.00592688145 0.427688241
      -2.22846229e-05 -0.000231283659 -3.38808923e-06 -2.5157417e-06
      -8.7699962e-05 -0.000740866642 -0.0044627781 0.525392652
      -1.09783241e-06 0.634260237 -3.67848361e-06 -0.00078568951
      1.00819898 -0.00208893768 -0.000508977508 0.0210834425
      -0.000768409809 0.245235696 -4.08882588e-05 -0.000399359444
      -0.000303792709 -0.00109489879 -0.0023641712 -0.000304828107
      0.0915570185 0.174522191 0.629556179 -0.00244061486 0.00792915747
      -0.00237371773 0.0883672833 -0.00133401121 -1.2677202e-05
      -0.00352542521 0.10589581 -0.00486847013 -0.00268841907
      -0.000123457037 -3.24797838e-06 0.267080069 -2.01423688e-07
      -3.57047981e-07 0.199033424 0.66558814 -1.49186035e-05
      -1.87638689e-05 -0.000209452599 -0.000410259818 0.309509218
      -0.000150423031 -9.49664027e-05 0.255795866 -1.94925797e-05
      0.00252281874 -0.000143093959 -3.97150543e-05 0.000204443932
      0.00309287012 -0.000247050251 -8.90812662e-05 -0.000106281041
      0.0750459731 -0.000661758182 0.0621954426 0.259048253
      -0.000120225894 -1.77271431e-07 -0.000193562024 -5.6105815e-05
      0.273278832 0.53038007 -2.45950414e-05 0.00970406085
      -9.16685312e-05 -4.21525838e-05 -0.000473740045 -3.44682121e-05
      0.0592868477 -0.000265319628 -0.000190579609 -2.95672762e-05
      -0.0002041228</_>
    <_>
      0.500323474 -5.00760031 -0.00686912751 -0.0512957424
      -0.000197597954 -0.0132154524 -0.000465873018 -0.00183796103
      -4.5385741e-06 -1.64631292e-05 -3.10195901e-07 -0.000126906161
      -0.000367355708 -0.000239116474 8.21443558 2.0448699
      -0.00294163846 -0.00781766605 -0.00018596329 -0.0010616784
      -0.000799723377 -0.00473596295 0.146257743 -1.66396239e-05
      1.00825346 3.378721 -1.04977353e-05 -6.62635139e-05
      -1.88964259e-05 -0.0216698684 -0.00020113276 -0.0140510052
      -0.00156613311 -0.000106189844 -0.000818884291 -0.000223850191
      -8.3271465e-05 -0.0118558155 -0.000287186413 -0.000135251015
      -0.000611366937 -0.00192621199 -0.000290059746 -0.000175038687
      -0.00172615261 -0.000520295871 1.48696339 0.327930987
      -0.0221869648 -0.00231032562 0.022884842 -3.95794405e-06
      -0.00979885086 3.90404844 -0.0217650384 -0.0755057856
      -0.00389408157 -0.0065838187 -0.00514400285 -0.000994516187
      -0.000301355176 -0.000920587219 3.21736598 -0.0168374423
      -3.1956919e-05 -3.61521488e-05 -3.60992417e-05 -0.0047500967
      -0.00199868809 -0.000569732219 5.21710205 -0.00186775846
      -0.00010925081 -4.04124603e-06 -0.000969419023 -2.33638675e-05
      1.61776173 5.5949316 -0.0017211535 -1.28246093e-05 -5.83655208e-07
      -0.00027902078 2.45340014 -0.0472858958 -0.000712866604
      -0.00793009903 -0.01232774 -8.77986349e-06 -0.00731873745
      -0.00595811708 -0.000528245931 -0.00516600115 -0.00527492631
      4.97280407 -0.0232998896 -0.000640702667 -0.0200215615
      -0.00603441754 -0.00249220408 -7.75942462e-05 -0.00806294288
      3.95500517 -1.34691493e-06 -0.000118240998 -0.000942572253
      3.8841064 -0.000155056317 -3.14358876e-05 -0.000587280781
      -0.0080824066 -0.00192040124 -0.00207557832 -1.7206934e-05
      -4.95433196e-05 -0.000902156811 -8.4555063e-07 -3.08188055e-06
      -0.000190618463 -4.82632458e-05 -0.00911668409 -1.05682884e-05
      -0.00663312525 -0.000923683983 0.342302591 -0.00906351209
      -0.00365259917 -0.0212497748 -0.0156826302 -0.00325195398
      0.36045754 0.316363931 -9.57332886e-05 -8.11676218e-05
      -5.84499539e-05 -0.000374943018 0.115856014 -0.000142494304
      0.294389576 -4.96387565e-06 0.0174156949 0.144828528
      -0.000209874997 0.648492098 -0.00592688145 0.427688241
      -2.22846229e-05 -0.000231283659 -3.38808923e-06 -2.5157417e-06
      -8.7699962e-05 -0.000740866642 -0.0044627781 0.525392652
      -1.09783241e-06 0.634260237 -3.67848361e-06 -0.00078568951
      1.00819898 -0.00208893768 -0.000508977508 0.0210834425
      -0.000768409809 0.245235696 -4.08882588e-05 -0.000399359444
      -0.000303792709 -0.00109489879 -0.0023641712 -0.000304828107
      0.0915570185 0.174522191 0.629556179 -0.00244061486 0.00792915747
      -0.00237371773 0.0883672833 -0.00133401121 -1.2677202e-05
      -0.00352542521 0.10589581 -0.00486847013 -0.00268841907
      -0.000123457037 -3.24797838e-06 0.267080069 -2.01423688e-07
      -3.57047981e-07 0.199033424 0.66558814 -1.49164553e-05
      -1.87619135e-05 -0.000209442485 -0.000410488487 0.309659481
      -0.000150414577 -9.49609239e-05 0.2560305 -1.94906406e-05
      0.00273072347 -0.000143088007 -3.97118201e-05 8.54879618e-05
      0.0029277578 -0.000247061049 -8.67536291e-05 -0.00010632506
      0.0752680525 -0.0006621473 0.0616740435 0.25921309 -0.000120218276
      -1.86162069e-07 -0.000193564905 -5.59426444e-05 0.274135888
      0.531166077 -2.45922238e-05 0.00901630521 -9.16602876e-05
      -4.21495024e-05 -0.000473946537 -3.29014656e-05 0.0593901984
      -0.000265381794 -0.000190569961 -2.95651553e-05 -0.000204958124</_>
    <_>
      0.621235311 -5.15413237 -0.00658819126 -0.0513006486
      -0.000186107645 -0.0129043562 -0.000429532025 -0.00183326006
      -4.13742237e-06 -1.57784707e-05 -3.02593378e-07 -0.000121282057
      -0.000359172875 -0.000229452475 8.09257507 2.14238358
      -0.00281632785 -0.00742540834 -0.000177263544 -0.00104916201
      -0.000762433687 -0.00452584401 0.183812559 -1.55765429e-05
      1.12773907 3.46444416 -1.06915677e-05 -6.38149359e-05
      -1.83638367e-05 -0.0201911088 -0.000194666922 -0.0117004653
      -0.0015010176 -0.00010356187 -0.000796962762 -0.000227622731
      -7.89853075e-05 -0.0110498965 -0.000272756501 -0.000127089908
      -0.000596999424 -0.00182054518 -0.000303370965 -0.000617253187
      -0.00164948218 -0.000502403534 1.54170787 0.399598449
      -0.0212078597 -0.00218722946 0.0395140387 -3.71684109e-06
      -0.00954651833 4.04987335 -0.0218435619 -0.0733275115
      -0.00374608114 -0.00485234521 -0.00489914836 -0.000944600382
      -0.000317091675 -0.000858535757 3.26096845 -0.0148352394
      -3.26459376e-05 -3.44654509e-05 -3.45284679e-05 -0.00456056092
      -0.00195134571 -0.000589008967 5.1534152 -0.00178508949
      -0.000102442733 -3.81635391e-06 -0.000939126767 -2.30402238e-05
      1.70002353 5.46153164 -0.00164157746 -1.25079459e-05
      -5.41003942e-07 -0.000259460066 2.45559335 -0.0478966758
      -0.000663020241 -0.00680839783 -0.0110075362 -8.28612338e-06
      -0.00719556911 -0.00587512739 -0.000502682233 -0.00496530067
      -0.00528398016 5.14171219 -0.0230031945 -0.000654062314
      -0.0200438108 -0.00576630142 -0.0023987079 -7.28917003e-05
      -0.0079832226 4.0492754 -1.319121e-06 -0.000109806395
      -0.000945938053 3.92674685 -0.000145694023 -3.13975361e-05
      -0.000566090457 -0.00653081108 -0.00180124363 -0.0022416166
      -1.64470675e-05 -4.73101973e-05 -0.000841982197 -8.4854463e-07
      -2.94462939e-06 -0.000184949706 -4.62440912e-05 -0.00892684795
      -1.01005471e-05 -0.00644382928 -0.000874680059 0.405728787
      -0.00914802868 -0.00346073136 -0.0215771403 -0.0148076881
      -0.00317302276 0.356909275 0.310014158 -9.44315034e-05
      -8.15441235e-05 0.00788012147 0.0241361819 0.124047592
      -0.000143355457 0.271446347 -4.85701275e-06 0.00102624297
      0.131031513 -0.000206783952 0.635471642 -0.00562875718 0.387390971
      -2.26737229e-05 -0.000226000207 -3.38867176e-06 -2.60562274e-06
      -0.000278585037 -0.000625608081 -0.00368357869 0.543086231
      -1.14380236e-06 0.656167269 -3.822287e-06 -0.000752029649
      0.957755625 -0.00176644884 -0.000247175165 0.0415085144
      -0.000585956092 0.246036291 -4.06993822e-05 -0.000389741734
      -1.26528739e-05 -0.000900504354 -0.00255634473 -0.000291952776
      0.107981756 0.150320917 0.518702686 -0.00237091212 -0.000281915243
      -0.00235056016 0.10443335 -0.00128557021 -1.30941107e-05
      -0.00335304532 0.0461525545 -0.00432105223 -0.00257714023
      -0.000121066281 -3.32148443e-06 0.255000412 -2.10179735e-07
      -3.77265678e-07 0.184945315 0.607674778 -1.49194511e-05
      -1.87646565e-05 -0.000209455917 -0.000410170323 0.309457928
      -0.000150426291 -9.49685709e-05 0.25570938 -1.94933509e-05
      0.00244027004 -0.000143096244 -3.97163349e-05 0.00024163723
      0.00315021724 -0.000247044605 -9.01139138e-05 -0.000106265179
      0.0749593079 -0.000661601138 0.0624040514 0.258990049
      -0.000120228833 -1.73859291e-07 -0.00019356019 -5.62818714e-05
      0.272941887 0.530077636 -2.45961637e-05 0.00997312367
      -9.16717763e-05 -4.21538098e-05 -0.000473654916 -3.50918053e-05
      0.0592487343 -0.000265294162 -0.000190582825 -2.95681202e-05
      -0.000203798292</_>
    <_>
      0.602821171 -5.02303839 -0.00672705518 -0.0518012382
      -0.000183823446 -0.013091824 -0.00046031407 -0.00185120665
      -4.61115678e-06 -1.64144822e-05 -3.09735242e-07 -0.000125620747
      -0.000365950225 -0.000230908685 8.17823982 2.08001924
      -0.00290879654 -0.00590318069 -0.000181190742 -0.00107989716
      -0.000775905093 -0.00467650639 0.165072069 -1.67773851e-05
      1.04729521 3.43709254 -1.06238485e-05 -6.61015656e-05
      -1.86974685e-05 -0.0210233945 -0.000194191089 -0.0121297082
      -0.00153206463 -0.000105033047 -0.000814484258 -0.000228620018
      -8.30678691e-05 -0.0121287387 -0.000287007395 -0.000132384259
      -0.000589586212 -0.0018878167 -0.000281226152 -0.000523174065
      -0.00169957022 -0.000522360962 1.73071122 0.336166859
      -0.0213396568 -0.00225827377 0.0345519036 -3.97287022e-06
      -0.00972726103 4.01373911 -0.0214647315 -0.0754629672
      -0.00378653547 -0.00692602387 -0.00504158949 -0.000959944387
      -0.000309597846 -0.000910508446 3.25624919 -0.016183909
      -3.1860247e-05 -3.58070392e-05 -3.66167624e-05 -0.00464750826
      -0.00196721405 -0.000584864581 5.21111298 -0.00186373456
      -0.00010620823 -3.67603138e-06 -0.000951070921 -2.31250833e-05
      1.63542271 5.60492373 -0.00168762787 -1.28820166e-05
      -5.95225572e-07 -0.000271712721 2.58005428 -0.0479927287
      -0.000672867638 -0.00797113683 -0.01307231 -8.61309218e-06
      -0.0073238411 -0.00593723962 -0.000512261584 -0.00497922394
      -0.00527230371 5.06971931 -0.0229849722 -0.000679200515
      -0.0202967301 -0.00597301964 -0.00244436855 -7.87368408e-05
      -0.00794931967 4.0137372 -1.41653879e-06 -0.000117912299
      -0.000936528959 3.98430824 -0.0001546196 -3.18535167e-05
      -0.000582889421 -0.00874902587 -0.00185522146 -0.0024598001
      -1.73304725e-05 -4.83768854e-05 -0.000875735714 -8.5418111e-07
      -3.1041659e-06 -0.000185001787 -4.70240739e-05 -0.00903253537
      -1.03579196e-05 -0.00657657953 -0.000907383743 0.376038402
      -0.00928505138 -0.00350263016 -0.0215088595 -0.0153667396
      -0.00299455691 0.356322736 0.311444104 -9.47428271e-05
      -8.20875357e-05 -0.000143992598 -7.17252915e-05 0.108678952
      -0.000142738107 0.281838268 -4.90244338e-06 0.0299441069
      0.126097143 -0.000210950326 0.625311673 -0.0059059998 0.394636184
      -2.25140575e-05 -0.00022976927 -3.36252447e-06 -2.55983878e-06
      -0.000228383156 -0.000721293793 -0.00393997086 0.523201108
      -1.11942916e-06 0.632459879 -3.74849014e-06 -0.000770171697
      0.973532021 -0.00197427231 -0.000277554325 0.0270625073
      -0.000593995908 0.231219441 -4.08501073e-05 -0.000395503477
      -7.89036567e-05 -0.000925076369 -0.00231466978 -0.000301199092
      0.106785037 0.1722022 0.552087188 -0.00249805115 -0.000239300018
      -0.00243714289 0.100836456 -0.00131825916 -1.2834721e-05
      -0.00343883201 0.0725956187 -0.00446635578 -0.00261757965
      -0.000121842459 -3.28836632e-06 0.264691591 -2.06152009e-07
      -3.66689193e-07 0.187370658 0.620050848 -1.49194511e-05
      -1.87646565e-05 -0.000209455917 -0.000410170323 0.309457928
      -0.000150426291 -9.49685709e-05 0.25570938 -1.94933509e-05
      0.00244027004 -0.000143096244 -3.97163349e-05 0.00024163723
      0.00315021724 -0.000247044605 -9.01139138e-05 -0.000106265179
      0.0749593079 -0.000661601138 0.0624040514 0.258990049
      -0.000120228833 -1.73859291e-07 -0.00019356019 -5.62818714e-05
      0.272941887 0.530077636 -2.45961637e-05 0.00997312367
      -9.16717763e-05 -4.21538098e-05 -0.000473654916 -3.50918053e-05
      0.0592487343 -0.000265294162 -0.000190582825 -2.95681202e-05
      -0.000203798292</_>
    <_>
      0.598613441 -5.0485158 -0.00696697319 -0.0536415838
      -0.000197740752 -0.013697817 -0.000481474097 -0.00186017097
      -4.69567976e-06 -1.68705283e-05 -3.30001512e-07 -0.000129796885
      -0.000369344169 -0.000242717433 8.41565514 2.05810881
      -0.00297052087 -0.00575867482 -0.000190274077 -0.00108202384
      -0.000803656119 -0.00480448268 0.196195781 -1.7444383e-05
      1.0029211 3.42154074 -1.08809454e-05 -6.75211631e-05
      -1.88411923e-05 -0.0219174735 -0.000208815763 -0.0127761113
      -0.00160591176 -0.000110869012 -0.000842160196 -0.000235052794
      -8.43735397e-05 -0.0116663715 -0.000287824339 -0.000136797535
      -0.000607833557 -0.00199926901 -0.000283754023 -0.000146059203
      -0.0017438319 -0.000531267317 1.6730715 0.316159904 -0.0225101374
      -0.00235602655 0.0542265549 -4.05617038e-06 -0.00994984619
      4.04471779 -0.0216970481 -0.0759611949 -0.00398934865
      -0.00704492396 -0.00524560735 -0.00100952783 -0.000313335535
      -0.000933613512 3.28430676 -0.0167452265 -3.29541836e-05
      -3.63045547e-05 -3.60788144e-05 -0.004924329 -0.00201970222
      -0.000572582649 5.23521996 -0.00194222236 -0.000108564753
      -3.88994613e-06 -0.000983866863 -2.29280413e-05 1.65465677
      5.63065004 -0.00176383473 -1.28939446e-05 -6.00576527e-07
      -0.000286165188 2.66376066 -0.0504046232 -0.000691608409
      -0.00786021911 -0.0109643145 -8.89680996e-06 -0.00757750869
      -0.00622893358 -0.000536981854 -0.00520981057 -0.00530262338
      4.99498653 -0.0238681789 -0.000671826361 -0.0213661008
      -0.00623603072 -0.0025439267 -8.03087169e-05 -0.00828314293
      3.95928121 -1.40240934e-06 -0.000121925274 -0.000942683488
      4.0687542 -0.00016014486 -3.24854082e-05 -0.000600867206
      -0.00999245234 -0.00193652732 -0.0013741639 -1.74785855e-05
      -4.9341761e-05 -0.000925077649 -9.06044477e-07 -3.09300344e-06
      -0.0001913835 -4.90527091e-05 -0.0092572961 -1.09488674e-05
      -0.00692028739 -0.00092968042 0.360670179 -0.00924664736
      -0.0036399716 -0.0217663739 -0.0159910396 -0.00307743624
      0.340920448 0.296565294 -9.57226948e-05 -8.25200477e-05
      0.00874449313 -0.00041035391 0.129500732 -0.000142952136
      0.284410149 -4.91942365e-06 0.0522588789 0.158467263
      -0.000209395512 0.670640886 -0.00560047152 0.447057694
      -2.22479957e-05 -0.000225061842 -3.34894298e-06 -2.50679659e-06
      0.0347553566 -0.000534728868 -0.00453969557 0.501928329
      -1.095161e-06 0.603941441 -3.67011921e-06 -0.00113693194
      0.989349604 -0.00166776474 -0.000467537408 -3.5914607e-05
      -0.000542986207 0.301709622 -3.99938217e-05 -0.000406549574
      -0.000226868753 -0.000824390387 -0.00209336216 -0.000298455765
      0.120289281 0.177729726 0.654628634 -0.00232229917 0.0370757394
      -0.00254095555 0.105659477 -0.00135659368 -1.26054656e-05
      -0.00354168238 0.172654182 -0.00490197958 -0.00275772857
      -0.000123365797 -3.21233779e-06 0.289003104 -2.01360564e-07
      -3.56426312e-07 0.190408185 0.669835627 -1.49208518e-05
      -1.8765877e-05 -0.00020946475 -0.000410018431 0.309332192
      -0.000150432068 -9.49721289e-05 0.255536169 -1.94945969e-05
      0.00230783597 -0.000143100347 -3.97184267e-05 0.000352099538
      0.00328380615 -0.00024704216 -9.12179385e-05 -0.000106231651
      0.074812822 -0.000661358645 0.0627301559 0.258859038
      -0.000120234021 -1.67709075e-07 -0.000193560627 -5.59994951e-05
      0.272384077 0.529542029 -2.45979627e-05 0.0104247183
      -9.16771969e-05 -4.21557816e-05 -0.000473532506 -3.6084446e-05
      0.0591728836 -0.000265256764 -0.000190591032 -2.95694917e-05
      -0.000203240692</_>
    <_>
      0.349425018 -4.26666403 -0.00714385323 -0.0519239828
      -0.000201261486 -0.013523967 -0.000533723563 -0.00193555886
      -5.09040092e-06 -1.77040347e-05 -3.25257389e-07 -0.000132114568
      -0.000372994022 -0.00024118289 8.10457802 1.58053041
      -0.00309135136 -0.000757188653 -0.000194915861 -0.00112308422
      -0.000839395041 -0.00505203474 0.0403294712 -1.84336059e-05
      0.62816447 2.94121242 -1.07105443e-05 -6.80332378e-05
      -1.94970034e-05 -0.0204276722 -0.000210269223 -0.0147225587
      -0.00156034809 -0.000113881048 -0.000893847842 -0.000231439582
      -8.67220951e-05 -0.0136236232 -0.000301657128 -0.000144658101
      -0.000625727989 -0.00205081352 -0.000273180049 -0.000224866832
      -0.00177046971 -0.000528660428 2.06066942 0.36193651 -0.0239222758
      -0.00240098219 0.0204291418 -4.22482708e-06 -0.0101872422
      3.68295813 -0.0212633703 -0.0809180886 -0.00400697766
      -0.00804291666 -0.00554204313 -0.000970359484 -0.000304017711
      -0.00101374835 2.93299818 -0.0210473537 -3.32118507e-05
      -3.86493484e-05 -3.74471274e-05 -0.00509782135 -0.00203006738
      -0.000585295726 5.09193802 -0.00201549428 -0.00012018803
      -4.14754913e-06 -0.00100586633 -2.31857412e-05 1.23120129
      5.55316448 -0.00184334826 -1.28103648e-05 -6.37898154e-07
      -0.000318951759 2.55837989 -0.0476169512 -0.000730525993
      -0.00845000148 -0.0129978545 -9.26995108e-06 -0.00757400505
      -0.00617089309 -0.000549659191 -0.00533623807 -0.00528814318
      4.27775574 -0.0230533835 -0.00069846824 -0.0195035078
      -0.00637433119 -0.00263959169 -8.60734508e-05 -0.00776110683
      3.49301887 -1.47127844e-06 -0.000131533117 -0.000938540092
      4.13128614 -0.000164750643 -3.21471234e-05 -0.000605083827
      -0.011678854 -0.00202079397 -7.56946029e-05 -1.8947243e-05
      -5.243122e-05 -0.00098264229 -8.69006669e-07 -3.22305095e-06
      -0.000194544453 -5.03691699e-05 -0.009140715 -1.10507553e-05
      -0.00695805438 -0.000949640758 0.00338213146 -0.00904543232
      -0.0037289958 -0.0213566758 -0.0176833291 -0.00287819235
      0.342379481 0.297334999 -9.49391033e-05 -8.10671845e-05
      0.00507608056 -0.000595525547 0.114528835 -0.000142595891
      0.302681297 -4.92276013e-06 0.0636662766 0.139081389
      -0.000213741761 0.636711538 -0.0060407077 0.427924991
      -2.21647279e-05 -0.000229549478 -3.3217907e-06 -2.49285586e-06
      0.00349265337 -0.000519145222 -0.00466721971 0.496278793
      -1.09121925e-06 0.598243237 -3.65424307e-06 -0.000873943325
      0.988088906 -0.00205872743 -0.000397629658 0.00104683125
      -0.000780854374 0.256716937 -4.0258321e-05 -0.000401814206
      -0.000138087198 -0.000933907984 -0.00213935273 -0.000304943707
      0.0974942893 0.202397153 0.640992284 -0.0023875942 0.00987432525
      -0.00248905923 0.102684073 -0.00135812513 -1.26270124e-05
      -0.00354655762 0.15279758 -0.00490415981 -0.00272356882
      -0.000123253514 -3.20414597e-06 0.277442575 -2.00672332e-07
      -3.54560569e-07 0.206337273 0.656262219 -1.49213465e-05
      -1.87662899e-05 -0.000209468519 -0.000409964006 0.309280932
      -0.000150434178 -9.49733876e-05 0.255468965 -1.94950317e-05
      0.00226022676 -0.000143101861 -3.97191616e-05 0.000400021672
      0.00333847851 -0.000247042626 -9.15288547e-05 -0.000106218205
      0.0747588128 -0.000661276572 0.0628464594 0.258806825
      -0.000120235913 -1.65469245e-07 -0.000193561427 -5.58089087e-05
      0.272181243 0.529343009 -2.45985902e-05 0.0105905458
      -9.16791323e-05 -4.21564655e-05 -0.000473492575 -3.64399493e-05
      0.0591431744 -0.000265244395 -0.000190594466 -2.95699701e-05
      -0.000203035059</_>
    <_>
      0.547161043 -5.23469496 -0.00681706052 -0.0534529276
      -0.000228791192 -0.0132908206 -0.000487617683 -0.00194450107
      -4.6330897e-06 -1.69015384e-05 -3.1535248e-07 -0.000131324399
      -0.000393247086 -0.000240113513 8.36770344 2.24993253
      -0.00291202962 -0.00532436557 -0.000198514885 -0.00110268546
      -0.000836578896 -0.00481923344 0.135306597 -1.74421693e-05
      1.13924658 3.58198309 -1.23669879e-05 -6.85856721e-05
      -2.00111444e-05 -0.019570658 -0.000212205996 -0.0128526092
      -0.0015267923 -0.000112465321 -0.000849954376 -0.00023886282
      -8.56905972e-05 -0.0123644536 -0.000288676907 -0.000146510225
      -0.000705954502 -0.00189687766 -0.000335322169 -0.00020365107
      -0.00186839839 -0.000492050312 1.67509913 0.350257576
      -0.0246611405 -0.00233282545 0.0276679471 -4.18722948e-06
      -0.009855574 4.04313135 -0.0238761548 -0.0759884045 -0.00393567933
      -0.00522527285 -0.0051451507 -0.00106015685 -0.000290546042
      -0.000950612477 3.41053462 -0.0157272462 -3.4075525e-05
      -3.84830164e-05 -3.78641962e-05 -0.0048057721 -0.00201688427
      -0.000613150594 5.29300022 -0.00186201185 -0.000114059563
      -4.87660236e-06 -0.00103278854 -2.41184025e-05 1.81304634
      5.57106733 -0.00177412061 -1.33282902e-05 -6.36378161e-07
      -0.000287260424 2.48491693 -0.0494856723 -0.000799130241
      -0.00777696585 -0.0104572829 -8.73960471e-06 -0.00750535121
      -0.00616906397 -0.000542800932 -0.00557117909 -0.00572545687
      5.30420589 -0.0243180078 -0.000629383896 -0.0212380476
      -0.00604757247 -0.00258917664 -8.05096861e-05 -0.00838303007
      4.18428516 -1.43696627e-06 -0.000120964636 -0.00102820899
      4.01098776 -0.000156315786 -3.4451823e-05 -0.00058165763
      -0.00691657839 -0.00203197123 -0.00126770826 -1.82139611e-05
      -5.44065661e-05 -0.000871736847 -8.99587974e-07 -3.03828438e-06
      -0.000203984135 -4.97802757e-05 -0.00934524555 -1.03680377e-05
      -0.00681868754 -0.000903890701 0.377679616 -0.00937586371
      -0.00405061524 -0.0225740355 -0.0154346125 -0.00397626916
      0.338766932 0.290292919 -9.47741137e-05 -8.06220123e-05
      0.00310696661 -0.000701842713 0.116166994 -0.00014252268
      0.313474149 -4.91832043e-06 0.0790760368 0.131881654
      -0.000215161999 0.641106308 -0.00619893055 0.43274346
      -2.20563034e-05 -0.00023047674 -3.30705984e-06 -2.45722526e-06
      -8.09455669e-05 -0.000501973438 -0.00484473957 0.474621296
      -1.07750668e-06 0.575737476 -3.60939885e-06 -0.000828181626
      1.00646138 -0.00220068707 -0.000446540915 -0.000103140694
      -0.000881524524 0.238362983 -4.00198769e-05 -0.000404618448
      -0.000192181396 -0.000934828713 -0.00200459245 -0.000309370516
      0.095855765 0.217451796 0.668110967 -0.00243617431 0.0147799216
      -0.00260137045 0.111522153 -0.00135947997 -1.25409006e-05
      -0.00360462116 0.155262083 -0.00499304477 -0.00274989707
      -0.000124225277 -3.16586988e-06 0.278365672 -1.99042816e-07
      -3.48397464e-07 0.20853439 0.660190284 -1.49224734e-05
      -1.87673668e-05 -0.000209471822 -0.000409846456 0.309225917
      -0.000150438398 -9.49762762e-05 0.255363941 -1.94960649e-05
      0.00214958191 -0.000143104786 -3.97208714e-05 0.000433601439
      0.00340204686 -0.000247032876 -9.30889291e-05 -0.000106199543
      0.0746450573 -0.000661062135 0.0631286949 0.258740604
      -0.000120239718 -1.61093197e-07 -0.000193557862 -5.62249479e-05
      0.271735042 0.528953433 -2.46000982e-05 0.0109447166
      -9.16834033e-05 -4.21581135e-05 -0.000473373482 -3.72783288e-05
      0.0590968169 -0.000265209004 -0.000190597842 -2.95710961e-05
      -0.0002026117</_>
    <_>
      0.414487302 -4.96451235 -0.00729644299 -0.0525152758
      -0.000221057155 -0.0138419978 -0.000545291346 -0.00190480065
      -5.17503167e-06 -1.78354858e-05 -3.23888344e-07 -0.00013842617
      -0.000393662369 -0.000254529412 8.49771976 1.97378385
      -0.0031447846 -0.00675878674 -0.000210053346 -0.00108896964
      -0.000878283987 -0.00512928842 0.0943180472 -1.86892466e-05
      0.86208123 3.31236458 -1.16990077e-05 -7.08025837e-05
      -2.02445026e-05 -0.0229053888 -0.000217965178 -0.0159676317
      -0.00163406634 -0.000115976203 -0.000889524876 -0.000227355617
      -9.00511586e-05 -0.0128242848 -0.000310346921 -0.000154244917
      -0.000678737299 -0.00208322634 -0.000283067493 0.0578798205
      -0.00190789916 -0.000522042159 1.42640424 0.271616518
      -0.0249533076 -0.00251587317 0.00979066268 -4.45271553e-06
      -0.0103131086 3.86101294 -0.0226679724 -0.0799423754
      -0.00415734481 -0.00753544737 -0.00556434458 -0.00106522301
      -0.000277836225 -0.00104609434 3.25990987 -0.0193202831
      -3.20124054e-05 -4.0457955e-05 -3.88376138e-05 -0.00512257218
      -0.00208726083 -0.000580888533 5.3253727 -0.00199583848
      -0.000122593017 -4.99690168e-06 -0.00105740875 -2.38520952e-05
      1.54850209 5.634902 -0.00188173645 -1.33399735e-05 -6.56763007e-07
      -0.00032199925 2.50070381 -0.0487779751 -0.000824479503
      -0.0090405792 -0.0129442988 -9.56697204e-06 -0.00774766412
      -0.00632375758 -0.000577818661 -0.00566210458 -0.0054864944
      4.81779099 -0.0243100598 -0.000624479027 -0.0209795572
      -0.00647969544 -0.00271871034 -8.7137334e-05 -0.00832234137
      3.89216876 -1.44259639e-06 -0.000132196335 -0.000975830539
      3.81971169 -0.000169349529 -3.33052849e-05 -0.000615534664
      -0.0092931632 -0.00216808426 -0.00104254705 -1.93413853e-05
      -5.54870348e-05 -0.000984789571 -9.24508754e-07 -3.26283475e-06
      -0.000205788427 -5.24548668e-05 -0.00956571102 -1.11546424e-05
      -0.00710663293 -0.000981663819 0.202845722 -0.00909502432
      -0.00410827948 -0.0213878937 -0.0171584263 -0.00370228314
      0.335047394 0.286566347 -9.53978524e-05 -8.17728651e-05
      0.0382326171 -0.000737962779 0.136686653 -0.000143395402
      0.30235827 -4.88056548e-06 0.0771561712 0.190753996
      -0.000209352773 0.674036145 -0.00559503818 0.461096078
      -2.20978163e-05 -0.00022079084 -3.29316435e-06 -2.48396032e-06
      0.0475811809 -0.000421011413 -0.00486496836 0.462312996
      -1.08667814e-06 0.557013869 -3.64691255e-06 -0.0011844039
      1.00162673 -0.00172401872 -0.00049363455 -0.000206491663
      -0.00054145616 0.300679415 -3.95675197e-05 -0.000407499727
      -0.000281566143 -0.000813546241 -0.00185600005 -0.000293529767
      0.122630224 0.200803667 0.708374381 -0.00219080318 0.0835501254
      -0.00265346421 0.0917287096 -0.00138128572 -1.25797751e-05
      -0.00359287928 0.248356849 -0.00520078046 -0.0028171395
      -0.000124018334 -3.16485875e-06 0.285753965 -1.9959532e-07
      -3.53497086e-07 0.208309352 0.679080188 -1.49214229e-05
      -1.87663682e-05 -0.000209468577 -0.000409956207 0.30927819
      -0.000150434455 -9.49735841e-05 0.255463302 -1.94951044e-05
      0.00225371495 -0.00014310205 -3.9719278e-05 0.000400528312
      0.00334107131 -0.000247041637 -9.16338322e-05 -0.000106217405
      0.07475245 -0.000661261089 0.0628629476 0.258803308
      -0.000120236153 -1.65171215e-07 -0.000193561049 -5.58479478e-05
      0.272155166 0.5293203 -2.45986939e-05 0.010610573 -9.16794088e-05
      -4.21565819e-05 -0.000473483815 -3.64895895e-05 0.0591409244
      -0.000265241863 -0.000190594583 -2.95700484e-05 -0.000203010553</_>
    <_>
      0.505919635 -4.8565526 -0.00714777084 -0.05230546 -0.000208096579
      -0.0136327278 -0.000503156683 -0.00187325804 -4.70017267e-06
      -1.71504871e-05 -3.29894561e-07 -0.000131492619 -0.000372000824
      -0.00024764752 8.25154114 1.98525846 -0.00304392329 -0.00444280915
      -0.000196406545 -0.00109945307 -0.000836090709 -0.00497507071
      0.133041337 -1.77389575e-05 0.961417675 3.33055449 -1.08890981e-05
      -6.9450638e-05 -1.92961706e-05 -0.0212288033 -0.000213680163
      -0.0139226317 -0.00159771333 -0.000112322756 -0.000866546587
      -0.000235050655 -8.56736297e-05 -0.0124171972 -0.000288959709
      -0.000144892852 -0.000639152015 -0.00201625633 -0.000298167375
      0.0399725027 -0.00177353376 -0.000528081378 1.69368935 0.392281711
      -0.024114117 -0.00237513473 0.0213871207 -4.06405843e-06
      -0.0100906845 3.88554096 -0.0221974868 -0.0777356625
      -0.00405603554 -0.00674846582 -0.00541876676 -0.000985766295
      -0.000287394039 -0.000968529843 3.23085952 -0.0179854836
      -3.40130828e-05 -3.8160455e-05 -3.68589208e-05 -0.00508630462
      -0.00204942538 -0.000588715018 5.10619831 -0.00195479067
      -0.000117254182 -4.24177051e-06 -0.0010393277 -2.33760456e-05
      1.60298669 5.5066843 -0.00181543082 -1.29307264e-05
      -5.96970096e-07 -0.000301982538 2.55002642 -0.048599124
      -0.0007431829 -0.0076268469 -0.0122249844 -9.11673578e-06
      -0.00744041195 -0.00623595202 -0.000546069001 -0.00539079495
      -0.00529365987 4.88397884 -0.0237472095 -0.000657786499
      -0.0205163769 -0.00627564313 -0.00264759315 -8.08611658e-05
      -0.0079191681 3.89175057 -1.35192386e-06 -0.000125581893
      -0.000961976475 4.00770807 -0.000160841766 -3.33449643e-05
      -0.000599045248 -0.00866719801 -0.00199951534 -0.000665083237
      -1.82979766e-05 -5.17575681e-05 -0.000955550931 -8.91330671e-07
      -3.12805673e-06 -0.000199397036 -5.07034456e-05 -0.00929738767
      -1.10459496e-05 -0.00694986852 -0.000934767828 0.302184165
      -0.00901531056 -0.00383362221 -0.022062514 -0.0163408257
      -0.0032766643 0.335586667 0.278726637 -9.40115642e-05
      -8.268073e-05 -0.000165482386 -0.000613629061 0.121083923
      -0.000143686877 0.308424026 -4.83768054e-06 0.0867181569
      0.124015577 -0.000216510089 0.622260749 -0.00606656354 0.420855045
      -2.22828148e-05 -0.00022904505 -3.30284911e-06 -2.4809051e-06
      -0.00016806327 -0.000547122443 -0.0044961758 0.47349453
      -1.09170196e-06 0.566667557 -3.65251435e-06 -0.000587840215
      0.986843467 -0.00215678243 -0.000261220121 -1.64883531e-05
      -0.000728781335 0.233461544 -4.03001577e-05 -0.00040447581
      -0.000251505291 -0.00085864967 -0.00180265319 -0.000308243412
      0.109507248 0.217498928 0.622686505 -0.00239493814 -0.000139124124
      -0.00260420772 0.111197017 -0.00136566989 -1.26922678e-05
      -0.0035515069 0.144636065 -0.00481571583 -0.00272034691
      -0.000123716804 -3.1845218e-06 0.266411066 -2.066447e-07
      -3.54266888e-07 0.196715787 0.64938271 -1.49246243e-05
      -1.87691767e-05 -0.000209487815 -0.000409610249 0.309005082
      -0.000150447551 -9.49817259e-05 0.255075693 -1.94979602e-05
      0.00194616988 -0.000143111349 -3.97240656e-05 0.000637710094
      0.00363529474 -0.000247034157 -9.44163985e-05 -0.000106142412
      0.0744147524 -0.00066070247 0.0636246279 0.258515626
      -0.000120247925 -1.51335257e-07 -0.000193560991 -5.54123872e-05
      0.270867318 0.528099597 -2.46028249e-05 0.0116523877
      -9.16917852e-05 -4.21610966e-05 -0.000473198277 -3.87975015e-05
      0.0589702129 -0.0002651549 -0.000190612496 -2.95731861e-05
      -0.000201731731</_>
    <_>
      0.399277031 -4.88698053 -0.00737201096 -0.052422896
      -0.000220547794 -0.0139767593 -0.000524449453 -0.00194758561
      -4.87262423e-06 -1.73401622e-05 -3.29138231e-07 -0.000135982889
      -0.000381727587 -0.000255977124 8.43213081 2.01131392
      -0.00311095826 -0.00561775919 -0.000202712297 -0.00109228713
      -0.000877374143 -0.00511810509 0.139445275 -1.80268653e-05
      0.943879604 3.3458333 -1.09651764e-05 -7.08603329e-05
      -1.9572055e-05 -0.0226830095 -0.000221368085 -0.0147851463
      -0.00164305524 -0.000115504758 -0.00089317566 -0.000233358965
      -8.77756975e-05 -0.0138360057 -0.000299384526 -0.000150367676
      -0.000670850684 -0.0020752016 -0.000297997496 0.0807167366
      -0.00178632012 -0.000530115038 1.63345075 0.404163957
      -0.0262027588 -0.00247277599 0.0247566551 -4.07791413e-06
      -0.0102794347 3.8647275 -0.022785157 -0.080369316 -0.00421114732
      -0.00750966184 -0.00561099639 -0.0010159068 -0.000267366413
      -0.000999700045 3.29820514 -0.0189476386 -3.29803515e-05
      -3.85486637e-05 -3.78219993e-05 -0.00515847933 -0.00212193211
      -0.00056213123 5.22294235 -0.00199481682 -0.000120375975
      -4.66537222e-06 -0.00106262579 -2.32111652e-05 1.60422516
      5.56790638 -0.00186974287 -1.29235905e-05 -6.20396179e-07
      -0.000313364028 2.51224899 -0.0489533544 -0.000781665556
      -0.00800071098 -0.0121147381 -9.50959202e-06 -0.00759456819
      -0.00629130285 -0.000568550022 -0.0055539147 -0.00539384456
      4.88516808 -0.0243129302 -0.000637583784 -0.0209322665
      -0.00642615324 -0.00274254428 -8.41621586e-05 -0.00800208375
      3.91506076 -1.36082713e-06 -0.000127094798 -0.000976245676
      3.97992277 -0.000164613462 -3.27132875e-05 -0.000617463782
      -0.0105154775 -0.00208373088 -0.00045638546 -1.84899909e-05
      -5.30409852e-05 -0.000978645636 -8.80956918e-07 -3.15645684e-06
      -0.000206722572 -5.24480456e-05 -0.00957744382 -1.13866163e-05
      -0.00707128504 -0.000977731426 0.270518541 -0.00900149066
      -0.00406255992 -0.0219008084 -0.0168925729 -0.00345375319
      0.32868588 0.281326979 -9.51016918e-05 -8.06945827e-05
      0.0355655253 -0.000786138 0.126974314 -0.000142891193 0.315445215
      -4.90817274e-06 0.0958384201 0.182861358 -0.000210351238
      0.675408185 -0.00569288712 0.467829496 -2.1916605e-05
      -0.000222327144 -3.32293826e-06 -2.45666706e-06 0.0443542972
      -0.000311868294 -0.00519939186 0.438916028 -1.0770226e-06
      0.537766516 -3.6144736e-06 -0.00121302041 1.01089001
      -0.00184717029 -0.000588864321 -0.000291960489 -0.000617459242
      0.281331986 -3.93698319e-05 -0.000407050975 -0.000272359466
      -0.000739706215 -0.0018722543 -0.000298871862 0.106635958
      0.204961792 0.733488917 -0.00227070437 0.0750561208 -0.00264564366
      0.105246 -0.00137555134 -1.25626566e-05 -0.00361841056 0.24674347
      -0.00528246025 -0.00282351975 -0.000124371596 -3.13813916e-06
      0.284254372 -1.97681828e-07 -3.49557297e-07 0.213895053
      0.676472306 -1.49235711e-05 -1.87683236e-05 -0.000209478691
      -0.000409727509 0.309127927 -0.000150442924 -9.49790701e-05
      0.255228668 -1.94970435e-05 0.0020458065 -0.000143108002
      -3.97225085e-05 0.000519484282 0.00350617617 -0.000247030839
      -9.39614329e-05 -0.000106173378 0.074530378 -0.00066087197
      0.0633843392 0.258638442 -0.000120243771 -1.56280578e-07
      -0.000193558139 -5.6011264e-05 0.27129814 0.528534353
      -2.46015097e-05 0.0112983212 -9.16876525e-05 -4.21596596e-05
      -0.000473277323 -3.80562997e-05 0.0590375736 -0.000265179668
      -0.000190604216 -2.95721711e-05 -0.000202175244</_>
    <_>
      0.235307142 -4.77830172 -0.00734687084 -0.0502415262
      -0.00021523457 -0.0139415264 -0.000513249834 -0.00191627012
      -4.73289811e-06 -1.69217001e-05 -3.27538828e-07 -0.000133907015
      -0.00037295057 -0.00025627992 8.21917439 2.04549098 -0.00307110953
      -0.00641444372 -0.000199968475 -0.0010766075 -0.000868045958
      -0.00507663703 0.14499411 -1.76195572e-05 1.00800586 3.36427832
      -1.0766712e-05 -6.92459944e-05 -1.91565978e-05 -0.0234313998
      -0.000218563728 -0.0140922796 -0.00165490853 -0.000115358642
      -0.000881157001 -0.000232730992 -8.67414856e-05 -0.0140836406
      -0.000298604282 -0.000146609484 -0.000652047805 -0.0020766689
      -0.000292706711 0.0773535371 -0.00169569196 -0.00052930502
      1.5855844 0.484135479 -0.0257129837 -0.00246589165 0.0203962214
      -3.90521291e-06 -0.0101031875 3.62910175 -0.0223866962
      -0.0791291669 -0.00421686145 -0.00735377101 -0.00559522724
      -0.000969962159 -0.000268183852 -0.000979731907 3.30152678
      -0.0178998318 -3.21086518e-05 -3.7768772e-05 -3.69188965e-05
      -0.00513382535 -0.00212409417 -0.000546013878 5.10543537
      -0.00198183279 -0.000117586947 -4.541821e-06 -0.00104515674
      -2.26654392e-05 1.62660694 5.4302187 -0.00183530652
      -1.26649275e-05 -6.01301963e-07 -0.000306296541 2.37366843
      -0.0466786511 -0.000755698653 -0.00753516518 -0.0122771738
      -9.45385727e-06 -0.00759427063 -0.00607585395 -0.000566622068
      -0.00540751452 -0.00524301361 4.92200089 -0.0242968872
      -0.000646473083 -0.0200178828 -0.00637435121 -0.00270692632
      -8.27377007e-05 -0.00793004595 3.92471766 -1.32199489e-06
      -0.000125902894 -0.000960185425 3.83442259 -0.000163523757
      -3.23695531e-05 -0.00062168244 -0.0112038571 -0.00204835972
      -0.00096377742 -1.80559273e-05 -5.19811438e-05 -0.000985837542
      -8.78170169e-07 -3.15872103e-06 -0.000204360709 -5.18730521e-05
      -0.00959242415 -1.14570594e-05 -0.00688397978 -0.000988160842
      0.323605627 -0.00887094438 -0.00408595568 -0.0216542073
      -0.0156550556 -0.00336219859 0.322228312 0.27803117
      -9.48035959e-05 -8.06251046e-05 0.0328829437 -0.000785978627
      0.12398243 -0.000143115307 0.31744054 -4.88410888e-06 0.105971321
      0.177344263 -0.000211179256 0.670636594 -0.00577185443 0.464136153
      -2.19541689e-05 -0.000222276925 -3.3050751e-06 -2.45063393e-06
      0.0401536822 -0.000304732122 -0.00511840917 0.434544504
      -1.07611743e-06 0.530012012 -3.61148909e-06 -0.00115906389
      1.00700665 -0.00185924431 -0.00048229337 -0.000329951494
      -0.000655790383 0.279367775 -3.91626454e-05 -0.000408002059
      -0.000230753794 -0.000706306484 -0.00174504693 -0.000299808657
      0.108854234 0.211997718 0.729367256 -0.00227162708 0.0734267086
      -0.00269755023 0.116738111 -0.0013778616 -1.25756251e-05
      -0.00362029369 0.246244401 -0.00521433586 -0.00282064243
      -0.00012444923 -3.13161809e-06 0.286245704 -1.97653634e-07
      -3.49235705e-07 0.207074299 0.671493113 -1.49235711e-05
      -1.87683236e-05 -0.000209478691 -0.000409727509 0.309127927
      -0.000150442924 -9.49790701e-05 0.255228668 -1.94970435e-05
      0.0020458065 -0.000143108002 -3.97225085e-05 0.000519484282
      0.00350617617 -0.000247030839 -9.39614329e-05 -0.000106173378
      0.074530378 -0.00066087197 0.0633843392 0.258638442
      -0.000120243771 -1.56280578e-07 -0.000193558139 -5.6011264e-05
      0.27129814 0.528534353 -2.46015097e-05 0.0112983212
      -9.16876525e-05 -4.21596596e-05 -0.000473277323 -3.80562997e-05
      0.0590375736 -0.000265179668 -0.000190604216 -2.95721711e-05
      -0.000202175244</_>
    <_>
      0.390956461 -4.66658783 -0.00728535093 -0.051776994 -0.00020536728
      -0.01373199 -0.000520470669 -0.00194526545 -4.78529773e-06
      -1.72110904e-05 -3.2446286e-07 -0.00013206467 -0.000371856091
      -0.000248703029 8.3629303 1.84134972 -0.00308984239 -0.00477834279
      -0.000196294262 -0.00109713327 -0.00085335254 -0.00509236008
      0.0815433562 -1.7590035e-05 0.802624643 3.18445611 -1.04299861e-05
      -6.89105582e-05 -1.93523956e-05 -0.0224740691 -0.000215151988
      -0.0151944188 -0.00159232598 -0.000112161004 -0.000885418558
      -0.000231679194 -8.59189313e-05 -0.013919197 -0.000293319521
      -0.000147738727 -0.000637669407 -0.0020300129 -0.000285892078
      0.0520292036 -0.0017462211 -0.000530879886 1.74996781 0.379999518
      -0.0255419314 -0.00240551517 0.0150470547 -4.00651834e-06
      -0.0102443974 3.82915783 -0.0222474784 -0.0808133557
      -0.00410824222 -0.00750898384 -0.00556211453 -0.00099548744
      -0.000284201029 -0.00099910493 3.15072894 -0.0201293137
      -3.25317669e-05 -3.86193569e-05 -3.69797526e-05 -0.005091995
      -0.0020656127 -0.000570704462 5.20743465 -0.00197209045
      -0.000119784228 -4.39703717e-06 -0.00101343193 -2.26839766e-05
      1.42430151 5.54688454 -0.00184453232 -1.28220599e-05
      -6.0548939e-07 -0.00031237441 2.45546198 -0.0477234982
      -0.00073708361 -0.00837057829 -0.0131943095 -9.35848766e-06
      -0.00761783822 -0.00623393757 -0.000555104984 -0.0054299105
      -0.00530424481 4.66292477 -0.0238377638 -0.000651434297
      -0.0203948878 -0.00636689691 -0.00266654906 -8.1659673e-05
      -0.007819511 3.77752852 -1.36479014e-06 -0.000126066487
      -0.000953192997 4.02535343 -0.000159079733 -3.25949768e-05
      -0.000609559414 -0.0100075556 -0.00204402371 -0.000768792175
      -1.83356133e-05 -5.2338517e-05 -0.000956212869 -8.64024628e-07
      -3.20583081e-06 -0.000197548128 -5.13878949e-05 -0.00934587326
      -1.10788314e-05 -0.0069804308 -0.000942726329 0.135178044
      -0.00905614998 -0.00391493971 -0.021738179 -0.0173884872
      -0.00321533345 0.348512173 0.291146576 -9.52279152e-05
      -8.43322341e-05 -0.000124177852 -0.000325553323 0.1287615
      -0.000143278521 0.288454175 -4.90269031e-06 0.0509104803
      0.137170494 -0.000211760023 0.642397285 -0.00576205738 0.433890641
      -2.22618019e-05 -0.000226600649 -3.35381242e-06 -2.51597612e-06
      0.00932963192 -0.00057107117 -0.00424106978 0.518701196
      -1.10037104e-06 0.611888051 -3.68698466e-06 -0.00100987626
      0.980962396 -0.00178941281 -0.000265657378 0.00688447477
      -0.000560376502 0.278894395 -4.04286147e-05 -0.000405281025
      -0.000237995002 -0.000893336895 -0.00203339453 -0.000300713407
      0.114550218 0.181525901 0.601041555 -0.00242663641 -7.25287537e-05
      -0.00256529707 0.112306558 -0.0013483715 -1.26655978e-05
      -0.00351615367 0.14409548 -0.00478575286 -0.00272168336
      -0.000122485857 -3.23102745e-06 0.294489741 -2.05439321e-07
      -3.58639795e-07 0.185262918 0.645739734 -1.49233529e-05
      -1.87681599e-05 -0.000209476275 -0.000409752422 0.309159875
      -0.000150441891 -9.49785172e-05 0.255265087 -1.94968561e-05
      0.00206574425 -0.00014310726 -3.9722192e-05 0.000487290323
      0.00347334892 -0.000247029093 -9.39634047e-05 -0.000106180931
      0.0745547563 -0.000660904334 0.0633377135 0.258669376
      -0.000120242861 -1.57385358e-07 -0.000193557033 -5.6225992e-05
      0.271387249 0.528629839 -2.4601246e-05 0.0112241432
      -9.16867866e-05 -4.21593686e-05 -0.000473290827 -3.79093181e-05
      0.0590535253 -0.000265184062 -0.000190602048 -2.95719638e-05
      -0.000202270254</_>
    <_>
      0.390956461 -4.66658783 -0.00728535093 -0.051776994 -0.00020536728
      -0.01373199 -0.000520470669 -0.00194526545 -4.78529773e-06
      -1.72110904e-05 -3.2446286e-07 -0.00013206467 -0.000371856091
      -0.000248703029 8.3629303 1.84134972 -0.00308984239 -0.00477834279
      -0.000196294262 -0.00109713327 -0.00085335254 -0.00509236008
      0.0815433562 -1.7590035e-05 0.802624643 3.18445611 -1.04299861e-05
      -6.89105582e-05 -1.93523956e-05 -0.0224740691 -0.000215151988
      -0.0151944188 -0.00159232598 -0.000112161004 -0.000885418558
      -0.000231679194 -8.59189313e-05 -0.013919197 -0.000293319521
      -0.000147738727 -0.000637669407 -0.0020300129 -0.000285892078
      0.0520292036 -0.0017462211 -0.000530879886 1.74996781 0.379999518
      -0.0255419314 -0.00240551517 0.0150470547 -4.00651834e-06
      -0.0102443974 3.82915783 -0.0222474784 -0.0808133557
      -0.00410824222 -0.00750898384 -0.00556211453 -0.00099548744
      -0.000284201029 -0.00099910493 3.15072894 -0.0201293137
      -3.25317669e-05 -3.86193569e-05 -3.69797526e-05 -0.005091995
      -0.0020656127 -0.000570704462 5.20743465 -0.00197209045
      -0.000119784228 -4.39703717e-06 -0.00101343193 -2.26839766e-05
      1.42430151 5.54688454 -0.00184453232 -1.28220599e-05
      -6.0548939e-07 -0.00031237441 2.45546198 -0.0477234982
      -0.00073708361 -0.00837057829 -0.0131943095 -9.35848766e-06
      -0.00761783822 -0.00623393757 -0.000555104984 -0.0054299105
      -0.00530424481 4.66292477 -0.0238377638 -0.000651434297
      -0.0203948878 -0.00636689691 -0.00266654906 -8.1659673e-05
      -0.007819511 3.77752852 -1.36479014e-06 -0.000126066487
      -0.000953192997 4.02535343 -0.000159079733 -3.25949768e-05
      -0.000609559414 -0.0100075556 -0.00204402371 -0.000768792175
      -1.83356133e-05 -5.2338517e-05 -0.000956212869 -8.64024628e-07
      -3.20583081e-06 -0.000197548128 -5.13878949e-05 -0.00934587326
      -1.10788314e-05 -0.0069804308 -0.000942726329 0.135178044
      -0.00905614998 -0.00391493971 -0.021738179 -0.0173884872
      -0.00321533345 0.348512173 0.291146576 -9.52279152e-05
      -8.43322341e-05 -0.000124177852 -0.000325553323 0.1287615
      -0.000143278521 0.288454175 -4.90269031e-06 0.0509104803
      0.137170494 -0.000211760023 0.642397285 -0.00576205738 0.433890641
      -2.22618019e-05 -0.000226600649 -3.35381242e-06 -2.51597612e-06
      0.00932963192 -0.00057107117 -0.00424106978 0.518701196
      -1.10037104e-06 0.611888051 -3.68698466e-06 -0.00100987626
      0.980962396 -0.00178941281 -0.000265657378 0.00688447477
      -0.000560376502 0.278894395 -4.04286147e-05 -0.000405281025
      -0.000237995002 -0.000893336895 -0.00203339453 -0.000300713407
      0.114550218 0.181525901 0.601041555 -0.00242663641 -7.25287537e-05
      -0.00256529707 0.112306558 -0.0013483715 -1.26655978e-05
      -0.00351615367 0.14409548 -0.00478575286 -0.00272168336
      -0.000122485857 -3.23102745e-06 0.294489741 -2.05439321e-07
      -3.58639795e-07 0.185262918 0.645739734 -1.49233529e-05
      -1.87681599e-05 -0.000209476275 -0.000409752422 0.309159875
      -0.000150441891 -9.49785172e-05 0.255265087 -1.94968561e-05
      0.00206574425 -0.00014310726 -3.9722192e-05 0.000487290323
      0.00347334892 -0.000247029093 -9.39634047e-05 -0.000106180931
      0.0745547563 -0.000660904334 0.0633377135 0.258669376
      -0.000120242861 -1.57385358e-07 -0.000193557033 -5.6225992e-05
      0.271387249 0.528629839 -2.4601246e-05 0.0112241432
      -9.16867866e-05 -4.21593686e-05 -0.000473290827 -3.79093181e-05
      0.0590535253 -0.000265184062 -0.000190602048 -2.95719638e-05
      -0.000202270254</_>
    <_>
      0.325071633 -4.32669544 -0.00708736526 -0.0494512543
      -0.000197285408 -0.0132643552 -0.000516150147 -0.00187640777
      -4.6843852e-06 -1.70167077e-05 -3.21800314e-07 -0.000127632098
      -0.000356742967 -0.000237373853 7.95533466 1.62084568
      -0.00304770144 -0.002182825 -0.00018795309 -0.00107889751
      -0.000828108634 -0.00499964273 0.0421809405 -1.72398068e-05
      0.694879115 2.96682811 -1.03540306e-05 -6.79874211e-05
      -1.92574771e-05 -0.0190631691 -0.000209606456 -0.014999778
      -0.00150737236 -0.000107707288 -0.000867148105 -0.000226464719
      -8.3182138e-05 -0.0127224633 -0.000282913941 -0.000146734674
      -0.000623232336 -0.00195645518 -0.000284363836 0.0172354653
      -0.00175697089 -0.000523890136 1.89964843 0.403732687
      -0.0233391859 -0.00230490649 0.00413931347 -4.0431255e-06
      -0.0101245064 3.6689868 -0.0212479327 -0.0774856359 -0.00394090964
      -0.00674680388 -0.00540608913 -0.000976917916 -0.000296917424
      -0.000990926055 2.92983031 -0.0202595275 -3.28626593e-05
      -3.80897545e-05 -3.59297846e-05 -0.00503442623 -0.00197161175
      -0.000577952014 5.01139975 -0.00194348977 -0.000118837634
      -4.12259806e-06 -0.0009984317 -2.27788787e-05 1.24635518
      5.33297968 -0.00182383589 -1.2595001e-05 -5.89159924e-07
      -0.000317793456 2.44662046 -0.045578979 -0.000716403243
      -0.00757901138 -0.0126402462 -9.06154492e-06 -0.00736926543
      -0.00622818572 -0.000533615064 -0.00535557512 -0.00521459104
      4.31731796 -0.0227523837 -0.000644891639 -0.0187563561
      -0.00625566393 -0.00260231434 -7.92326391e-05 -0.00759644248
      3.51318574 -1.33290314e-06 -0.000123263555 -0.000940343423
      4.01177454 -0.000155225964 -3.21927619e-05 -0.000579842948
      -0.00838855561 -0.00199486921 -0.000486300502 -1.82703607e-05
      -5.11157414e-05 -0.000914537581 -8.48587547e-07 -3.09502593e-06
      -0.000187483689 -5.05129428e-05 -0.00896995794 -1.07014721e-05
      -0.00696657179 -0.000889176852 0.0359596089 -0.00883750618
      -0.00367550063 -0.0210333411 -0.0175767653 -0.00292979321
      0.34084633 0.279207826 -9.50116082e-05 -8.34409148e-05
      -0.000220675458 -0.00073221518 0.121273167 -0.000142605306
      0.295968443 -4.90316461e-06 0.0779705346 0.124252029
      -0.000213278676 0.629085362 -0.00603215862 0.451257318
      -2.22152466e-05 -0.000227717959 -3.29909108e-06 -2.49419713e-06
      0.00639268011 -0.000616242236 -0.00464096386 0.505405962
      -1.08903021e-06 0.58528465 -3.65447772e-06 -0.00099905231
      0.985247076 -0.00196593069 -0.000385539897 -6.86541171e-05
      -0.000635749544 0.26897487 -4.01298967e-05 -0.000406694395
      -0.000254417129 -0.000985284219 -0.00188136159 -0.000304385147
      0.110549629 0.212210864 0.643719852 -0.00244146935 0.00470570847
      -0.00251742336 0.108399019 -0.00136121211 -1.25679107e-05
      -0.00356751005 0.181635052 -0.00505863177 -0.00273714098
      -0.000122708807 -3.20086428e-06 0.302963018 -2.02796798e-07
      -3.53437059e-07 0.19128567 0.665954053 -1.4923161e-05
      -1.87679452e-05 -0.000209477032 -0.000409770815 0.309153259
      -0.000150441323 -9.49780151e-05 0.255271107 -1.94966706e-05
      0.00208603963 -0.000143106896 -3.97218901e-05 0.000500679016
      0.00347770005 -0.000247033429 -9.34644777e-05 -0.000106181251
      0.0745727569 -0.000660947524 0.0632826537 0.258667052
      -0.000120242345 -1.57931353e-07 -0.000193558983 -5.59323635e-05
      0.27146247 0.528681993 -2.46009695e-05 0.0111668482
      -9.16860881e-05 -4.21590667e-05 -0.000473318214 -3.77524811e-05
      0.059056364 -0.00026519192 -0.000190602586 -2.95717637e-05
      -0.0002023337</_>
    <_>
      0.388565004 -4.48318434 -0.00710991723 -0.0506478809
      -0.000200195078 -0.0133586014 -0.000511508493 -0.00185812765
      -4.69683164e-06 -1.70981384e-05 -3.21833141e-07 -0.000129465261
      -0.000360474427 -0.000240483452 8.08439255 1.70964587
      -0.00305197318 -0.00325153349 -0.000190439067 -0.00106943888
      -0.000827547745 -0.0049882168 0.0760167763 -1.73339831e-05
      0.756341755 3.04725337 -1.05067702e-05 -6.85281702e-05
      -1.91906747e-05 -0.0200046655 -0.000210360711 -0.0147151202
      -0.00154176936 -0.000108732129 -0.000866929768 -0.000227309807
      -8.3634266e-05 -0.0126940459 -0.000286413037 -0.00014581914
      -0.000626208785 -0.00198039529 -0.000286301249 0.0192042664
      -0.00175908534 -0.000524690957 1.79837775 0.381475836 -0.023524398
      -0.00233025057 0.0134912478 -4.0170371e-06 -0.0101241227
      3.76957536 -0.0213200487 -0.0784912705 -0.00396989798
      -0.00665952777 -0.00541785592 -0.00098182552 -0.000297235238
      -0.000983453239 3.00859571 -0.0197045859 -3.29433969e-05
      -3.77533906e-05 -3.60892882e-05 -0.00501453737 -0.00199215603
      -0.000578773848 5.08720112 -0.00194524438 -0.000118283664
      -4.12610689e-06 -0.00100084417 -2.30653532e-05 1.32354629
      5.4373908 -0.00182006892 -1.26158093e-05 -5.91791661e-07
      -0.000312611228 2.47033167 -0.0469384417 -0.000726224331
      -0.00758931274 -0.0120688975 -9.06799869e-06 -0.00736868847
      -0.00627817679 -0.000536581443 -0.00533470325 -0.00523089524
      4.42919445 -0.0229113866 -0.000650280155 -0.0192617942
      -0.00625833776 -0.00261020358 -8.02750437e-05 -0.00768902758
      3.60140109 -1.33443109e-06 -0.000123340535 -0.000942297687
      4.01150751 -0.00015704424 -3.18854727e-05 -0.000587417337
      -0.00846725889 -0.00199533347 -0.000461761345 -1.81319028e-05
      -5.11889484e-05 -0.000931789691 -8.61405908e-07 -3.10077098e-06
      -0.000190652339 -5.0463681e-05 -0.00905254856 -1.0812144e-05
      -0.00695797801 -0.000910364615 0.0995888188 -0.0088216858
      -0.0036843163 -0.0211451054 -0.0173253547 -0.002988555 0.342542708
      0.285812944 -9.49856694e-05 -8.3247709e-05 -0.000141492405
      -0.000619021477 0.116850182 -0.000142677047 0.301356375
      -4.91064611e-06 0.076169908 0.124030836 -0.00021393002 0.639788985
      -0.00599697046 0.446445793 -2.21018763e-05 -0.000228281089
      -3.30833882e-06 -2.47940875e-06 0.0114150122 -0.000535284984
      -0.00472306553 0.499551743 -1.08413701e-06 0.585449159
      -3.63542813e-06 -0.00100432034 0.990581155 -0.00199346337
      -0.00041437702 -6.46074259e-05 -0.000614262943 0.265371203
      -4.01263569e-05 -0.000406831561 -0.000206185054 -0.000917641562
      -0.00198761886 -0.000306313508 0.107946306 0.206933662 0.64911139
      -0.00245253323 0.00310358033 -0.00259814179 0.109566443
      -0.00136407069 -1.25498718e-05 -0.00358061283 0.175887406
      -0.00502821244 -0.00275171152 -0.00012295715 -3.18645152e-06
      0.298430234 -2.01926994e-07 -3.51614716e-07 0.196803972
      0.661461771 -1.4923161e-05 -1.87679452e-05 -0.000209477032
      -0.000409770815 0.309153259 -0.000150441323 -9.49780151e-05
      0.255271107 -1.94966706e-05 0.00208603963 -0.000143106896
      -3.97218901e-05 0.000500679016 0.00347770005 -0.000247033429
      -9.34644777e-05 -0.000106181251 0.0745727569 -0.000660947524
      0.0632826537 0.258667052 -0.000120242345 -1.57931353e-07
      -0.000193558983 -5.59323635e-05 0.27146247 0.528681993
      -2.46009695e-05 0.0111668482 -9.16860881e-05 -4.21590667e-05
      -0.000473318214 -3.77524811e-05 0.059056364 -0.00026519192
      -0.000190602586 -2.95717637e-05 -0.0002023337</_>
    <_>
      0.447516382 -4.50150299 -0.00715630734 -0.0511582494
      -0.000198343463 -0.0133835245 -0.000519423629 -0.00187276315
      -4.78476841e-06 -1.72359632e-05 -3.2262804e-07 -0.000130194821
      -0.000361534883 -0.00024054441 8.16452789 1.67492354
      -0.00307386066 -0.00284518604 -0.0001906869 -0.00107353122
      -0.000830379489 -0.00502819708 0.0633509383 -1.75627902e-05
      0.716011465 3.02464604 -1.05355402e-05 -6.94798582e-05
      -1.94083204e-05 -0.0199045874 -0.000211105697 -0.0150267789
      -0.00153582962 -0.000108240783 -0.000871296215 -0.000227833851
      -8.42417357e-05 -0.0129011534 -0.000285680377 -0.000148149775
      -0.000626258668 -0.00198085979 -0.000284672074 0.0199176483
      -0.00177567417 -0.000528049481 1.82278848 0.368948787
      -0.0238043852 -0.0023323216 0.0140625723 -4.05432093e-06
      -0.0102224983 3.85285115 -0.0214106869 -0.0793419927
      -0.00397360278 -0.00706666382 -0.00543707842 -0.00100677914
      -0.000297199062 -0.000995666487 2.99522424 -0.0203797054
      -3.30806179e-05 -3.8134538e-05 -3.65221713e-05 -0.00502968859
      -0.00199045381 -0.000580839696 5.10317993 -0.00195421977
      -0.000119659599 -4.08544201e-06 -0.00100594992 -2.30005026e-05
      1.28508723 5.48538303 -0.00183566601 -1.26738614e-05
      -6.02047521e-07 -0.000316845835 2.52151155 -0.0476902612
      -0.000723733043 -0.0078070825 -0.0124365818 -9.14249449e-06
      -0.00738964044 -0.00641436689 -0.000537482032 -0.00537028583
      -0.00523348665 4.39056492 -0.022931112 -0.000645715336
      -0.0195836462 -0.00629302254 -0.00262248283 -8.07824326e-05
      -0.0076495111 3.57248116 -1.34885966e-06 -0.000123333564
      -0.000939935853 4.06598282 -0.000157240269 -3.21189546e-05
      -0.000587906921 -0.00841979589 -0.00200542156 -0.000259967783
      -1.8228855e-05 -5.11713188e-05 -0.000932146271 -8.62058982e-07
      -3.12935526e-06 -0.00018986217 -5.08615594e-05 -0.00907479133
      -1.08240883e-05 -0.00703100068 -0.000907329086 0.0698242486
      -0.00885878131 -0.00368779362 -0.0212312639 -0.0178611353
      -0.00293986592 0.342936099 0.279050171 -9.50757021e-05
      -8.29503915e-05 -0.000146669292 -0.000793967745 0.119766437
      -0.000142251651 0.302102536 -4.92268919e-06 0.0780707449
      0.123685069 -0.000213837804 0.628982365 -0.00609114021 0.449376196
      -2.21764712e-05 -0.000228704885 -3.30436569e-06 -2.48850483e-06
      0.00513700396 -0.000600767846 -0.00469210278 0.50406307
      -1.08620418e-06 0.585830033 -3.64349034e-06 -0.000957582262
      0.988745451 -0.00197144574 -0.000406905019 -6.50103902e-05
      -0.000656211516 0.262654692 -4.02781297e-05 -0.000406481617
      -0.000212558429 -0.000952636183 -0.00199647015 -0.000305469614
      0.110840619 0.211803913 0.643805146 -0.00248618517 0.00360777602
      -0.00249819667 0.104271255 -0.00136202096 -1.25315537e-05
      -0.00357339904 0.174351931 -0.00506177405 -0.00274179387
      -0.000122860962 -3.19741548e-06 0.297931254 -2.02221813e-07
      -3.52094162e-07 0.196623847 0.663413227 -1.4923161e-05
      -1.87679452e-05 -0.000209477032 -0.000409770815 0.309153259
      -0.000150441323 -9.49780151e-05 0.255271107 -1.94966706e-05
      0.00208603963 -0.000143106896 -3.97218901e-05 0.000500679016
      0.00347770005 -0.000247033429 -9.34644777e-05 -0.000106181251
      0.0745727569 -0.000660947524 0.0632826537 0.258667052
      -0.000120242345 -1.57931353e-07 -0.000193558983 -5.59323635e-05
      0.27146247 0.528681993 -2.46009695e-05 0.0111668482
      -9.16860881e-05 -4.21590667e-05 -0.000473318214 -3.77524811e-05
      0.059056364 -0.00026519192 -0.000190602586 -2.95717637e-05
      -0.0002023337</_>
    <_>
      0.460265577 -4.34743071 -0.00675013848 -0.0494636446
      -0.000188673206 -0.0127976965 -0.000473923836 -0.00183396181
      -4.15860995e-06 -1.61205462e-05 -3.11448559e-07 -0.000119496523
      -0.000337850768 -0.000225087191 7.87201357 1.55559886
      -0.00288722059 -0.000682401995 -0.000177944152 -0.00102767744
      -0.000780138944 -0.00470093964 0.0814015269 -1.58836137e-05
      0.695830941 2.87197685 -9.95548089e-06 -6.54888936e-05
      -1.82366075e-05 -0.0166663285 -0.000205752527 -0.0133799789
      -0.00142915465 -0.000101994643 -0.000833229802 -0.000225915981
      -7.63286371e-05 -0.0113204122 -0.0002562429 -0.000138107091
      -0.000607934606 -0.00182233355 -0.000299775624 0.0304885879
      -0.00166044151 -0.000498510723 1.9583894 0.461525947 -0.0226310734
      -0.00211898563 0.0184267238 -3.73297735e-06 -0.0098156305
      3.83541965 -0.0208282731 -0.0744135231 -0.00374846905
      -0.00444441149 -0.00512992078 -0.000972575624 -0.000288191979
      -0.000905201014 2.85723758 -0.019544648 -3.4566212e-05
      -3.5425528e-05 -3.32791642e-05 -0.0047927266 -0.0018904563
      -0.000586281414 4.92918777 -0.00183625543 -0.000111861875
      -3.80368397e-06 -0.00097726204 -2.20633319e-05 1.18863118
      5.16514874 -0.00173397735 -1.19307842e-05 -5.30675209e-07
      -0.000298242841 2.49681163 -0.0465835333 -0.000665450178
      -0.00581861846 -0.00996687822 -8.48520631e-06 -0.00700830901
      -0.00630482938 -0.00049599621 -0.0051111686 -0.00512388861
      4.21096897 -0.0219905935 -0.000622345891 -0.0186895542
      -0.0058985427 -0.00248945924 -7.19815871e-05 -0.00721854297
      3.41860557 -1.22404265e-06 -0.000113051858 -0.000922236301
      4.22287607 -0.000141095938 -3.11810327e-05 -0.000543808565
      -0.00599666638 -0.00184270099 0.0316355228 -1.70949352e-05
      -4.76241439e-05 -0.000839683693 -8.06449748e-07 -2.81232974e-06
      -0.000179390045 -4.79509617e-05 -0.00852495339 -1.01288661e-05
      -0.00679404009 -0.000815595966 0.00801451504 -0.00864077173
      -0.00330348406 -0.0211529229 -0.0178319942 -0.00277034729
      0.344492912 0.274082243 -9.49163223e-05 -8.43624366e-05
      -0.000210571874 -0.000757423113 0.126262695 -0.000142414239
      0.300877929 -4.89805234e-06 0.0744893253 0.113327332
      -0.000214048661 0.626249433 -0.00596367521 0.440371662
      -2.22388626e-05 -0.000227748824 -3.30693001e-06 -2.49965933e-06
      0.00642863661 -0.000605740352 -0.00464789942 0.495768487
      -1.09163989e-06 0.578511298 -3.66086647e-06 -0.00100562931
      0.982557178 -0.00196762173 -0.000358027202 -9.47806184e-05
      -0.000559554552 0.25376749 -4.03079612e-05 -0.00040646983
      -0.000264029426 -0.000965370738 -0.00192503631 -0.000305498455
      0.117147774 0.209653854 0.636520803 -0.0024917312 -4.03273862e-06
      -0.0025529596 0.109459437 -0.00135357084 -1.25509723e-05
      -0.00355640403 0.168950886 -0.00504448684 -0.00272717816
      -0.000122687939 -3.20527352e-06 0.298906952 -2.04021916e-07
      -3.54309975e-07 0.193880901 0.649187624 -1.49253092e-05
      -1.87698988e-05 -0.000209487131 -0.000409542088 0.309002936
      -0.000150449792 -9.49835012e-05 0.255036443 -1.94986096e-05
      0.00187813118 -0.000143112848 -3.97251242e-05 0.000619634986
      0.00364280492 -0.000247022661 -9.57921511e-05 -0.000106137224
      0.0743506849 -0.000660558406 0.0638040453 0.258502185
      -0.000120249962 -1.49041881e-07 -0.000193556101 -5.60956069e-05
      0.270605445 0.527895987 -2.46037871e-05 0.0118545964
      -9.16943318e-05 -4.21621444e-05 -0.000473111722 -3.93191913e-05
      0.058953017 -0.000265129755 -0.000190612234 -2.95738864e-05
      -0.000201498391</_>
    <_>
      0.423338473 -4.52046299 -0.00707154721 -0.0505040362
      -0.000199516042 -0.0133010168 -0.000503914547 -0.00187116407
      -4.63200786e-06 -1.69917257e-05 -3.20450056e-07 -0.000128972475
      -0.000358291523 -0.000239737274 8.02234459 1.74651659
      -0.00302015292 -0.00268525002 -0.000187654994 -0.00107037823
      -0.000819687673 -0.00496675633 0.085303247 -1.72034543e-05
      0.790048182 3.08068204 -1.04848214e-05 -6.84933475e-05
      -1.90206101e-05 -0.0194115154 -0.00020985266 -0.0141431997
      -0.00152953935 -0.000107855587 -0.000861300679 -0.000228750476
      -8.33740269e-05 -0.0128702326 -0.00028330597 -0.000145416852
      -0.000621996121 -0.00195582001 -0.000284479203 0.00565752387
      -0.0017303034 -0.000523859169 1.86008644 0.373764753 -0.0234060287
      -0.00230720663 0.0203913301 -3.92804941e-06 -0.0100706145
      3.79657173 -0.0214562751 -0.0779227763 -0.00395218562
      -0.00706241652 -0.00537642883 -0.000966217893 -0.000302323926
      -0.000969969842 3.02827907 -0.0192000866 -3.28750466e-05
      -3.74088049e-05 -3.5895966e-05 -0.00496768393 -0.00198540348
      -0.00057563989 5.05341101 -0.00192667311 -0.000117048308
      -4.0113573e-06 -0.000994047849 -2.29067591e-05 1.35727835
      5.39268112 -0.00180506927 -1.25535644e-05 -5.83959945e-07
      -0.000307090522 2.46918297 -0.0468570739 -0.000706524763
      -0.00759528717 -0.0118329292 -8.97581049e-06 -0.00737712486
      -0.00619777804 -0.000532749516 -0.0053077531 -0.00520338165
      4.48420525 -0.0229226593 -0.000654419069 -0.019285189
      -0.00623089168 -0.0025996475 -7.93695508e-05 -0.00771474326
      3.63400292 -1.33181584e-06 -0.00012147089 -0.000936233962
      4.02767801 -0.000155247151 -3.19026076e-05 -0.000583974121
      -0.00835274719 -0.0019711121 -0.00080936309 -1.78283499e-05
      -5.06858414e-05 -0.000919819577 -8.61354181e-07 -3.09042548e-06
      -0.000190896884 -5.01843897e-05 -0.00904279575 -1.07528012e-05
      -0.00688899495 -0.000906578789 0.143109679 -0.00886923447
      -0.00370956655 -0.0212023985 -0.0170649476 -0.00293951365
      0.345917106 0.279418707 -9.48065572e-05 -8.36132604e-05
      -2.63608981e-05 -0.000567092968 0.126923501 -0.000142719
      0.303548008 -4.89732929e-06 0.082477212 0.120086886
      -0.000215757798 0.644051194 -0.00598229934 0.428491712
      -2.21293813e-05 -0.000228656136 -3.31436331e-06 -2.47954085e-06
      0.0014815554 -0.000440756034 -0.00454166299 0.484527975
      -1.08538984e-06 0.573463738 -3.63562299e-06 -0.000978527474
      0.988765955 -0.00189129915 -0.000242270296 -0.000115543582
      -0.000671302492 0.249424264 -4.01563593e-05 -0.000407967193
      -0.00014142938 -0.000745448517 -0.00194355007 -0.000306411559
      0.113728195 0.205559969 0.626879156 -0.00250320905 -1.78933515e-05
      -0.00270200032 0.11045073 -0.0013507813 -1.25383185e-05
      -0.00357532618 0.155186027 -0.00489746034 -0.00274478435
      -0.000123204431 -3.1879365e-06 0.291205674 -2.02887108e-07
      -3.51825292e-07 0.199502453 0.644427121 -1.4923161e-05
      -1.87679452e-05 -0.000209477032 -0.000409770815 0.309153259
      -0.000150441323 -9.49780151e-05 0.255271107 -1.94966706e-05
      0.00208603963 -0.000143106896 -3.97218901e-05 0.000500679016
      0.00347770005 -0.000247033429 -9.34644777e-05 -0.000106181251
      0.0745727569 -0.000660947524 0.0632826537 0.258667052
      -0.000120242345 -1.57931353e-07 -0.000193558983 -5.59323635e-05
      0.27146247 0.528681993 -2.46009695e-05 0.0111668482
      -9.16860881e-05 -4.21590667e-05 -0.000473318214 -3.77524811e-05
      0.059056364 -0.00026519192 -0.000190602586 -2.95717637e-05
      -0.0002023337</_>
    <_>
      0.358873904 -4.21890068 -0.00675964216 -0.048386123
      -0.000188485224 -0.0127384327 -0.000473429449 -0.00184752967
      -4.12665486e-06 -1.61272164e-05 -3.11692304e-07 -0.000119567252
      -0.000337766483 -0.000225358526 7.74595308 1.53840816
      -0.00288075861 -0.000229207872 -0.000175621317 -0.00103274698
      -0.00077969447 -0.00472551025 0.0737921596 -1.59015926e-05
      0.691272557 2.84326363 -9.80870391e-06 -6.54632458e-05
      -1.81928208e-05 -0.0166196041 -0.000205020217 -0.013162504
      -0.00142565824 -0.00010250842 -0.000834155071 -0.000225471289
      -7.68629325e-05 -0.0115790535 -0.000256599655 -0.000139449534
      -0.000603088178 -0.00182183692 -0.000299149629 0.0211419947
      -0.00165674102 -0.000500532449 2.01253128 0.518774509
      -0.0224923324 -0.00212150416 0.0141862454 -3.65591836e-06
      -0.00980131701 3.71576786 -0.020774262 -0.0740607902
      -0.00375559716 -0.00488809729 -0.00513105188 -0.000955383701
      -0.000296971324 -0.000903406297 2.83732939 -0.0194019713
      -3.39838989e-05 -3.5514644e-05 -3.32632808e-05 -0.00480265496
      -0.00188389583 -0.000576278777 4.88848925 -0.00183874485
      -0.00011289712 -3.72643512e-06 -0.000961507438 -2.15550299e-05
      1.15663552 5.11717272 -0.0017356124 -1.18944345e-05
      -5.23608207e-07 -0.000296010985 2.40691042 -0.0453456901
      -0.000669897883 -0.00560600637 -0.0105008408 -8.48196214e-06
      -0.00698239543 -0.00621503498 -0.00049620599 -0.00511771115
      -0.00510187959 4.15677929 -0.0218226165 -0.000635207049
      -0.0180961657 -0.00590807013 -0.00249317731 -7.17989969e-05
      -0.00713666296 3.3928144 -1.20886489e-06 -0.000112598602
      -0.000913723663 4.17712116 -0.000141703975 -3.09357092e-05
      -0.000543121481 -0.00646987138 -0.00184468471 0.0165706147
      -1.70669773e-05 -4.79138871e-05 -0.00085641141 -7.96497829e-07
      -2.84776502e-06 -0.000181615542 -4.80005401e-05 -0.00850556698
      -1.01726137e-05 -0.00672423607 -0.000825133233 0.0150563791
      -0.00860432349 -0.00335783605 -0.0210641865 -0.0175222661
      -0.00272194552 0.350048184 0.275674671 -9.47762601e-05
      -8.37221014e-05 0.00146915019 -0.000560693152 0.127272025
      -0.000142598379 0.306152791 -4.90557159e-06 0.0789367408
      0.114784993 -0.000216649743 0.641090333 -0.0058898842 0.41906023
      -2.21156879e-05 -0.000229619807 -3.32886293e-06 -2.47941898e-06
      0.00503835827 -0.000402779086 -0.0045253397 0.478655159
      -1.08523079e-06 0.568570197 -3.63440836e-06 -0.000971818168
      0.987436175 -0.00199825363 -0.000207671139 -0.000123999213
      -0.000651841576 0.235087439 -4.02686819e-05 -0.00040848853
      -0.000102451515 -0.000713180343 -0.00192056736 -0.00030869263
      0.116282254 0.199516028 0.622779906 -0.00253967452 -6.20487699e-05
      -0.00270061148 0.117121808 -0.00135074311 -1.25327178e-05
      -0.00356854778 0.149319082 -0.00484061893 -0.0027358376
      -0.000123343372 -3.19217474e-06 0.291122466 -2.02033661e-07
      -3.52173885e-07 0.203793079 0.633112013 -1.49253092e-05
      -1.87698988e-05 -0.000209487131 -0.000409542088 0.309002936
      -0.000150449792 -9.49835012e-05 0.255036443 -1.94986096e-05
      0.00187813118 -0.000143112848 -3.97251242e-05 0.000619634986
      0.00364280492 -0.000247022661 -9.57921511e-05 -0.000106137224
      0.0743506849 -0.000660558406 0.0638040453 0.258502185
      -0.000120249962 -1.49041881e-07 -0.000193556101 -5.60956069e-05
      0.270605445 0.527895987 -2.46037871e-05 0.0118545964
      -9.16943318e-05 -4.21621444e-05 -0.000473111722 -3.93191913e-05
      0.058953017 -0.000265129755 -0.000190612234 -2.95738864e-05
      -0.000201498391</_>
    <_>
      0.448247969 -0.657350719 -0.00699246023 1.26317358 -0.000154084788
      -0.0113330437 -0.000617022568 -0.00146522641 -4.04673801e-06
      -1.64653447e-05 -3.38611898e-07 -9.72998096e-05 -0.000212929212
      -0.000212274696 1.29323387 -0.0076821926 -0.00314369006 2.29636574
      -0.000142841804 -0.000990692526 -0.000735252455 -0.00528068375
      -0.0083026858 -1.55108319e-05 -0.00523949554 0.234491557
      -9.61916248e-06 -5.5893699e-05 -1.95874945e-05 0.205906779
      -0.000196891808 -0.0180000942 -0.000989834545 -0.000102002843
      -0.000818526198 -0.000210798971 -6.4134867e-05 -0.00957556907
      -0.000280600361 -0.000162986122 -0.000545569987 -0.00165262457
      -0.000385930121 -0.00410149945 -0.00185119594 -0.000496897788
      3.53842926 1.89986897 -0.0141369514 -0.00194953464 -0.00265535503
      -3.22953929e-06 -0.00986255147 -0.018996479 -0.0130324494
      -0.0270367824 -0.00320493034 -0.00135913724 -0.00551219145
      -0.000942410203 -0.000821522379 -0.00107305811 0.449719399
      -0.0229458809 -2.7557182e-05 -4.52407003e-05 -2.66748357e-05
      -0.00515002199 -0.00137331651 -0.000549395278 1.85861456
      -0.00190566084 -0.000128157961 -3.13410465e-06 -0.000885988236
      -1.38183996e-05 -0.0128719024 1.40257072 -0.00194910727
      -9.0540434e-06 -1.01737328e-06 -0.000452404376 -0.0066656149
      1.98928165 -0.000541154703 0.18071264 -0.00939063914
      -8.80052448e-06 -0.00776736578 -0.00448950706 -0.000470581057
      -0.00524275424 -0.00474896096 0.399151891 -0.0157091189
      -0.000864272646 1.61639059 -0.00624232879 -0.00238477858
      -8.05211967e-05 -0.00571902003 0.562254071 -1.26470286e-06
      -0.000111311354 -0.000830386358 2.39364982 -0.000135577648
      -2.95356058e-05 -0.00045589637 -0.00151240639 -0.00187023357
      0.211738899 -1.98180278e-05 -9.08793008e-05 -0.000959582336
      -6.86039925e-07 -2.84360794e-06 -0.000172020591 -5.3802356e-05
      -0.0069491528 -1.0093011e-05 -0.00526358839 -0.000682372658
      -0.0161113422 -0.0077952072 -0.00264063478 -0.0152024878
      -0.0152196046 -0.000933983014 0.103310756 0.275852889
      -7.23303456e-05 -7.12326364e-05 -3.32899399e-05 0.32599932
      0.129044667 -0.000180535179 0.467532843 -2.60787601e-06
      0.436043262 0.151735991 -0.000238586988 0.563876152 -0.00056288176
      -0.00168838829 -2.52391528e-05 -0.000170729414 -3.02549756e-06
      -3.05274443e-06 0.106160998 0.131682619 -0.00152490498 0.050899487
      -1.39663075e-06 -0.00101682893 -4.54534165e-06 0.127604946
      0.453973144 0.0941730887 0.388505846 -0.000930112787 0.0421339869
      0.207030341 -3.11777658e-05 -0.000351269497 0.0512640551
      0.267531067 0.236472279 -0.000244588795 0.150745571 0.0507247597
      0.270573676 -0.00165513658 -0.0017789118 -0.00321824639
      0.433946908 -0.00125256297 -1.72850305e-05 -0.00255603576
      -0.000101963204 -0.00220472366 -0.00240831147 -0.000107959451
      -3.35258551e-06 0.0572383404 -2.24325092e-07 -5.02845637e-07
      0.00523835421 0.134233579 -1.49488978e-05 -1.87911501e-05
      -0.000209606893 -0.000407019659 0.307245612 -0.000150543739
      -9.50436443e-05 0.252380431 -1.95198354e-05 -3.94843528e-06
      -0.000143179117 -3.97605618e-05 0.00205378234 0.00555726141
      -0.000246922136 -0.00011978473 -0.000105634746 0.0719032735
      -0.000656329619 0.0694816634 0.256600946 -0.000120334473
      -5.00684827e-08 -0.000193533371 -5.6394525e-05 0.261190444
      0.519170582 -2.46345735e-05 0.0194259062 -9.17850339e-05
      -4.21958175e-05 -0.000470891653 -5.64267648e-05 0.0577844456
      -0.000264459261 -0.000190725579 -2.95971422e-05 -0.00019226897</_>
    <_>
      0.856631219 -0.673270345 -0.00712109683 1.61725545 -0.000156415917
      -0.0114755509 -0.000621761603 -0.0014439025 -4.04912635e-06
      -1.67187372e-05 -3.4405133e-07 -9.82920246e-05 -0.000211435516
      -0.000216568777 0.970673561 -0.00778231025 -0.00320895878
      2.27831841 -0.000141172088 -0.00100075011 -0.0007426886
      -0.00538344262 -0.00865237974 -1.56298611e-05 -0.00504512014
      0.211549267 -9.67336928e-06 -5.66054368e-05 -1.98456728e-05
      0.199941725 -0.00019904894 -0.0184886381 -0.00100074918
      -0.000102302765 -0.000822236121 -0.000212399958 -6.48335554e-05
      -0.00925803836 -0.000286469207 -0.000164467769 -0.000549737364
      -0.00167804852 -0.000391052366 -0.00433921255 -0.00187536166
      -0.000506312179 3.54311371 2.01647115 -0.0132340714 -0.0019768069
      -0.0027810391 -3.2251653e-06 -0.0100124264 -0.0212030653
      -0.0130138649 -0.0254460666 -0.00324349361 -0.00109765283
      -0.00562070776 -0.000941081846 -0.000847347605 -0.00108708325
      0.40620178 -0.022725977 -2.74185513e-05 -4.57720598e-05
      -2.67421201e-05 -0.00523179816 -0.00139561901 -0.000546975003
      1.73665845 -0.00191742403 -0.000130573098 -3.09662278e-06
      -0.000886455586 -1.40048851e-05 -0.013336054 1.21542716
      -0.00197479106 -9.0766016e-06 -1.01745184e-06 -0.000459678093
      -0.00786368269 2.28457308 -0.000543924107 0.25973767
      -0.00951945595 -8.93238848e-06 -0.00796211231 -0.00445011538
      -0.000477863679 -0.00533099147 -0.00480087427 0.364495635
      -0.0158676244 -0.000885613845 1.79415774 -0.00638170866
      -0.00241155596 -8.10392157e-05 -0.00586063415 0.519357383
      -1.25883309e-06 -0.000111315916 -0.000837448519 2.22957134
      -0.000138108648 -2.93501271e-05 -0.00046308586 -0.001258409
      -0.00189823355 0.187120497 -2.00022678e-05 -9.22637846e-05
      -0.000977103948 -7.13306406e-07 -2.91788388e-06 -0.000174911649
      -5.51064768e-05 -0.00707156444 -1.03043576e-05 -0.00523747364
      -0.000696683303 -0.0162754748 -0.00779683748 -0.00271163997
      -0.0151167689 -0.0147617031 -0.000982188736 0.0986412317
      0.281867534 -7.1239454e-05 -7.06063365e-05 0.016652178 0.384182572
      0.159771666 -0.000186363424 0.48623094 -2.42435772e-06 0.449258745
      0.169804007 -0.000239176443 0.579622328 -3.56828423e-05
      -0.00210496411 -2.54352599e-05 -0.000168263534 -2.89251534e-06
      -3.09309075e-06 0.118366875 0.133388028 -0.000939897785
      0.0593413971 -1.40333157e-06 -0.00108157599 -4.56994758e-06
      0.143037543 0.43176353 0.11178124 0.440439373 -0.000864172762
      0.0403437465 0.237246826 -3.08781746e-05 -0.000352735748
      0.0580551624 0.282090366 0.264821768 -0.000229864308 0.152777672
      0.03113693 0.213415354 -0.00141510519 -0.00186882657
      -0.00359979342 0.450211465 -0.00127447036 -1.74792949e-05
      -0.00254015392 -3.19860874e-06 -0.0020769774 -0.00243650423
      -0.000109756038 -3.35675986e-06 0.0481845774 -2.21050456e-07
      -5.08131052e-07 -4.95867425e-05 0.112979665 -1.49483067e-05
      -1.87906626e-05 -0.000209602164 -0.000407084968 0.307309449
      -0.000150541178 -9.50421454e-05 0.252462685 -1.95193188e-05
      -3.38166956e-06 -0.000143177283 -3.97596887e-05 0.00199338794
      0.00548944622 -0.000246921089 -0.000119450757 -0.000105651292
      0.0719680637 -0.000656426768 0.0693437606 0.256665587
      -0.000120332181 -5.27792139e-08 -0.000193532192 -5.66586459e-05
      0.261433095 0.519410789 -2.46338313e-05 0.019227162
      -9.17827128e-05 -4.2194999e-05 -0.000470938307 -5.60040571e-05
      0.0578207821 -0.000264473725 -0.000190721286 -2.9596571e-05
      -0.000192516178</_>
    <_>
      0.863445759 -0.689912796 -0.00719035976 1.66388106 -0.000165767109
      -0.011605558 -0.00063442206 -0.00151065376 -4.18616992e-06
      -1.69603973e-05 -3.48582091e-07 -0.000100399768 -0.000220065485
      -0.000221688737 1.01608181 -0.00723192515 -0.00322426669 2.2312429
      -0.000144074307 -0.00102868991 -0.000769309816 -0.00544038229
      -0.00890596397 -1.61153457e-05 -0.0046558422 0.268759161
      -1.0061839e-05 -5.68700998e-05 -2.03699637e-05 0.2294451
      -0.000202161347 -0.0194522552 -0.000999060227 -0.000105888234
      -0.000838360516 -0.000215396227 -6.68519715e-05 -0.0097820349
      -0.000297756982 -0.000167681457 -0.000573089579 -0.00170236151
      -0.000411474321 -0.0043808925 -0.0019011948 -0.000506868586
      3.48840857 2.04332733 -0.0138281379 -0.00202879193 -0.00284990668
      -3.28024225e-06 -0.0100239897 -0.0213401988 -0.0137463314
      -0.0248844326 -0.00330890832 -0.000877354818 -0.00570290023
      -0.000938563258 -0.000854853424 -0.00110746757 0.459750414
      -0.0223809406 -2.71278805e-05 -4.70091763e-05 -2.77711188e-05
      -0.00525282603 -0.00143211766 -0.000545629882 1.76489043
      -0.00193268387 -0.000132334346 -3.48266644e-06 -0.00088722806
      -1.39198446e-05 -0.0127985273 1.20342934 -0.00200099079
      -9.27249584e-06 -1.08913889e-06 -0.00046605416 -0.00763350213
      2.30252743 -0.000568061543 0.268776387 -0.00968688261
      -9.1080783e-06 -0.00803335011 -0.00430419995 -0.000490060193
      -0.00545997964 -0.00492743962 0.473176032 -0.0163455587
      -0.00090114004 1.78931296 -0.00644162111 -0.00246946025
      -8.40571302e-05 -0.00589229027 0.591610074 -1.3319675e-06
      -0.000113370712 -0.000854478334 2.15329528 -0.000139844997
      -2.99597705e-05 -0.000472165237 -0.00127532776 -0.00194095983
      0.165037557 -2.04317621e-05 -9.58111414e-05 -0.00100423233
      -7.35772346e-07 -2.99810222e-06 -0.000181678086 -5.59412947e-05
      -0.00715082977 -1.03867114e-05 -0.00522341579 -0.000710157794
      -0.0162246395 -0.00789227989 -0.00287110498 -0.0151681751
      -0.0144485235 -0.00119486905 0.0991869941 0.280704975
      -7.12515393e-05 -6.98258445e-05 0.00956867635 0.36413765
      0.15984717 -0.00018598992 0.493388385 -2.42199758e-06 0.44812876
      0.173639193 -0.000237834654 0.564193308 -1.72660493e-05
      -0.00206556893 -2.55484119e-05 -0.000166678758 -2.87769831e-06
      -3.11226313e-06 0.115765795 0.121583357 -0.00103222334
      0.0641540438 -1.4126698e-06 -0.00115140143 -4.60578758e-06
      0.142485425 0.420280397 0.12195985 0.432098985 -0.00086600217
      0.0373839885 0.236883849 -3.08615927e-05 -0.000351189228
      0.0519457236 0.269939542 0.271988332 -0.000228562159 0.15629223
      0.0272008777 0.22920531 -0.00134868978 -0.00174992497
      -0.00338751986 0.449225307 -0.00127071887 -1.75595178e-05
      -0.00251382613 0.00242463499 -0.00222206861 -0.00241977139
      -0.000107839143 -3.37932784e-06 0.0554427244 -2.20376307e-07
      -5.12149541e-07 -9.95770097e-05 0.118545383 -1.49478547e-05
      -1.87902733e-05 -0.000209599151 -0.000407134183 0.307351857
      -0.000150539301 -9.50410031e-05 0.252520114 -1.95189168e-05
      -2.95314931e-06 -0.00014317593 -3.9759012e-05 0.00195538998
      0.00544438511 -0.000246921525 -0.000119117161 -0.000105662511
      0.0720158219 -0.000656504009 0.0692384988 0.256709427
      -0.0001203305 -5.47803936e-08 -0.000193531901 -5.67745046e-05
      0.261614293 0.519585967 -2.46332529e-05 0.0190800652
      -9.17809593e-05 -4.21943696e-05 -0.000470976869 -5.56832529e-05
      0.0578460023 -0.00026448557 -0.000190718492 -2.9596129e-05
      -0.000192698019</_>
    <_>
      1.162763 -0.794580281 -0.0071415375 1.88182402 -0.000162169308
      -0.0115730902 -0.000613056298 -0.00145441236 -4.18858554e-06
      -1.66507107e-05 -3.4540372e-07 -0.000100894067 -0.000220987407
      -0.0002267862 0.739792824 -0.00435868744 -0.00318977889 1.90628481
      -0.00014336672 -0.00100924075 -0.000751148444 -0.00532998377
      -0.0085420059 -1.61529133e-05 -0.00183210755 0.510308325
      -1.0337325e-05 -5.75074955e-05 -1.99805145e-05 0.0761796236
      -0.000197374204 -0.0180751551 -0.00105019426 -0.000105108207
