<?xml version="1.0"?>
<opencv_storage>
<opencv_ml_svm>
  <format>3</format>
  <svmType>EPS_SVR</svmType>
  <kernel>
    <type>RBF</type>
    <gamma>0.01</gamma></kernel>
  <C>1.</C>
  <p>0.001</p>
  <term_criteria><epsilon>0.001</epsilon>
    <iterations>3000</iterations></term_criteria>
  <var_count>235</var_count>
  <sv_total>107</sv_total>
  <support_vectors>
    <_>
      0.812060058 -5.61018419 -0.00745838508 -0.0557133742
      -6.70869582e-08 -0.000190577019 -0.0139134489 -0.000475456531
      -0.00220843079 -3.14495605e-06 -1.64990779e-05 -3.17780092e-07
      -0.000114858747 -0.00035880637 -0.000242955473 8.81208897
      1.74036229 -0.00313670235 -0.000935419754 -0.000179462164
      -0.0012345718 -0.00088216021 -0.00519795343 0.0136960782
      -1.31803645e-05 0.785523295 3.29068494 -8.95233279e-06
      -5.91425851e-05 -1.92091175e-05 -0.0130446777 -0.000222655421
      -0.0120558245 -0.00150473393 -0.000110665387 -0.000911801355
      -0.00024785439 -7.47236481e-05 -0.0110559603 -0.000270485732
      -0.000128992062 -0.000687742839 -0.00188949564 -0.000393718103
      -0.000437940151 -0.00170420879 -0.000574024394 2.14940071
      0.261428952 -0.0223310459 -0.00216623023 -0.000677769014
      -3.25868223e-06 -0.0107622128 4.64015055 -0.0253468845
      -0.082116276 -0.00415368192 -0.00220185774 -0.00562646659
      -0.000810386497 -0.000457835064 -0.000913736294 3.1369555
      -0.0210611057 -4.01538091e-05 -3.77580036e-05 -2.95260706e-05
      -0.00535087381 -0.00216419995 -0.000732229906 5.93408442
      -0.00185785722 -0.000120944016 -4.70326086e-06 -0.00103904668
      -2.57308657e-05 1.4492209 5.58591986 -0.00184126198
      -1.24185017e-05 -4.12638315e-07 -0.00032800177 2.79415321
      -0.0519458726 -0.000703769561 -0.00812578108 -0.0133669442
      -9.13791337e-06 -0.007773377 -0.0062360093 -0.000544483832
      -0.00572430016 -0.00609179074 5.03538418 -0.0252262261
      -0.000795191852 -0.0209172983 -0.00645277137 -0.00267012301
      -6.10960706e-05 -0.00822138693 4.15501022 -1.13938836e-06
      -0.000119818222 -0.00102360791 4.98375559 -0.000130368993
      -3.30926014e-05 -0.000586762908 0.26555565 -0.00190774351
      -0.00212949072 -1.90610317e-05 -5.33765015e-05 -0.000857801118
      -7.05373793e-07 -2.99390899e-06 -0.000197707166 -5.30516008e-05
      -0.00923232175 -1.06098596e-05 -0.00726158591 -0.000807140081
      -0.000867909694 -0.00994013157 -0.00383376749 -0.0229987893
      -0.0186945144 -0.00314188469 0.358294547 0.280801624
      -9.67564192e-05 -8.26191317e-05 0.0500361249 0.116362683
      0.467336476 -0.000140675271 -0.000981607824 -4.90087132e-06
      -1.58021329e-08 0.12286602 -0.00115440076 -0.000184895689
      0.670681894 -0.00346122216 0.471035331 -2.35644075e-05
      -0.000255174848 -3.80013125e-06 -2.82105225e-06 0.226293132
      0.08625561 -0.00223858887 0.738806248 -1.19882145e-06 0.794968784
      -3.99149621e-06 0.0126477536 0.847545505 0.203073919
      -0.00064793526 0.0684864298 0.167316988 0.33728525 -4.37991584e-05
      -0.000385738531 0.186837986 0.282125354 -0.00180000276
      -0.000290780037 0.177272364 0.227729544 -0.000729381747
      -0.00262659695 -0.0038712211 0.121654183 0.111308947
      -0.00125538581 -1.32500199e-05 -0.00305626588 -0.00196704385
      -0.00246429653 -0.00221755961 -0.000127498468 -3.39718304e-06
      0.404577881 -2.29746675e-07 -3.8964788e-07 0.147714034 0.860189557
      -1.46646025e-05 -1.84849687e-05 -0.000209719699 -0.000433327281
      0.308558702 -0.000149553554 -9.42858824e-05 0.264562786
      -1.92494426e-05 0.0211722478 -0.000142495817 -3.93259143e-05
      -1.59529445e-05 0.013464734 -7.79789116e-06 0.00726819038
      -0.000251112273 0.0342293717 -0.000108268949 0.0910222977
      -0.000720193726 0.014459677 0.262073874 -1.68946906e-06
      -0.000119452532 -3.50714595e-06 -1.08369454e-06 -0.000195022774
      -3.62634069e-06 0.0204793699 0.342730463 0.585625052
      -2.4235027e-05 -0.000400413031 -9.07049034e-05 -4.17615847e-05
      -0.000506041863 0.0103828926 0.0618682057 -0.000273431098
      -0.000190570499 -2.930958e-05 -0.000277134095 -6.20737501e-06</_>
    <_>
      0.800941408 -5.19651556 -0.00745365163 -0.0575834885
      -6.68999647e-08 -0.000194809923 -0.0139482832 -0.000491813465
      -0.0022346382 -3.53163068e-06 -1.68217884e-05 -3.17909581e-07
      -0.000116444193 -0.000372606068 -0.000240654626 9.07386017
      1.63163459 -0.00316346157 0.0541809797 -0.000179450712
      -0.00126711768 -0.000887012808 -0.00525452429 -0.000132548885
      -1.40700104e-05 0.653614938 3.20289588 -8.74728084e-06
      -5.90323652e-05 -1.947274e-05 -0.0143450135 -0.000219720489
      -0.0120343687 -0.00149745133 -0.00011206718 -0.00093287148
      -0.000243442686 -7.67090824e-05 -0.0124062533 -0.000280194537
      -0.000130723492 -0.000694418617 -0.0018914598 -0.000377991557
      -0.000970235909 -0.0017498472 -0.000581415778 2.39976811
      0.211635798 -0.0237860717 -0.00220164517 -0.000576042978
      -3.46631236e-06 -0.0108300336 4.67916632 -0.0252283979
      -0.0863779634 -0.00413515372 -0.00424455805 -0.00567088928
      -0.000835293613 -0.00046596126 -0.00094239926 3.02741551
      -0.0232065339 -3.94006893e-05 -3.76498283e-05 -3.08751296e-05
      -0.00536589511 -0.00216863095 -0.000721927849 5.90472412
      -0.00188532448 -0.000120784338 -4.76464766e-06 -0.00104634766
      -2.54629485e-05 1.31347167 5.94313431 -0.00185397966
      -1.27014209e-05 -4.58178476e-07 -0.000333367469 2.81365299
      -0.0531252474 -0.000738994742 -0.00963258278 -0.0145314205
      -9.28718509e-06 -0.00800208282 -0.00618549157 -0.000550410419
      -0.00572007662 -0.00613501016 4.9022007 -0.0251831003
      -0.000818917586 -0.0210276544 -0.00652576005 -0.00265425746
      -6.55560507e-05 -0.00824665464 4.03072834 -1.26175041e-06
      -0.000122723737 -0.00103894179 5.02814245 -0.000137474315
      -3.32253949e-05 -0.000599763647 -0.00181618507 -0.00194400409
      -0.00192541501 -1.9838144e-05 -5.32733866e-05 -0.000850394077
      -6.87645297e-07 -3.00138868e-06 -0.000194921886 -5.26936929e-05
      -0.0093324203 -1.05843774e-05 -0.00729703531 -0.000830492412
      -0.00181929558 -0.00998788141 -0.00391285541 -0.0229515433
      -0.0198930595 -0.00289766537 0.35436812 0.307698578
      -9.85083316e-05 -8.26959949e-05 0.0167904943 0.121865608
      0.41835314 -0.000136074901 -0.000866269809 -5.13103714e-06
      -1.43682719e-08 0.129056856 -0.00134753878 -0.000183175871
      0.712697625 -0.00376751949 0.478715062 -2.30727474e-05
      -0.000259947672 -3.9238821e-06 -2.7255137e-06 0.219351679
      0.117113039 -0.00251900405 0.732510686 -1.17140166e-06 0.791280329
      -3.89047227e-06 -8.48469281e-05 0.887643695 0.162081003
      -0.000835850369 0.0537060499 0.146823853 0.338005871
      -4.3543736e-05 -0.000392045011 0.19970277 0.287440866
      -0.00197724998 -0.000300801243 0.176937103 0.202711627
      -9.32733674e-05 -0.00285909208 -0.00357802468 0.0937297568
      0.13450326 -0.00125336496 -1.30184635e-05 -0.00313925464
      -0.00181455701 -0.00225411961 -0.00227026199 -0.000126957457
      -3.37157712e-06 0.420585901 -2.24111318e-07 -3.78102186e-07
      0.152036533 0.87410295 -1.46683897e-05 -1.84895016e-05
      -0.000209704434 -0.000433018577 0.308724165 -0.000149565705
      -9.42963161e-05 0.264586985 -1.92531752e-05 0.0209434517
      -0.000142504097 -3.93317678e-05 -1.59561969e-05 0.0130450465
      -7.79915899e-06 0.00701152533 -0.000251031859 0.0334655792
      -0.000108259912 0.0908693075 -0.000719217816 0.0150511488
      0.262162745 -1.6873305e-06 -0.000119463184 -3.50885807e-06
      -1.0713469e-06 -0.000194993496 -3.62720425e-06 0.0198965035
      0.341967136 0.585113764 -2.4240604e-05 -0.000395664189
      -9.07192516e-05 -4.17676238e-05 -0.000505498203 0.0102168377
      0.0619084649 -0.000273306825 -0.000190562496 -2.9313469e-05
      -0.000276234379 -6.20864648e-06</_>
    <_>
      0.906779706 -5.49973726 -0.00730892783 -0.0576934889
      -6.52956302e-08 -0.000195023487 -0.0137785608 -0.000458287075
      -0.00219732593 -3.28844453e-06 -1.63072509e-05 -3.13815946e-07
      -0.000116050818 -0.000368990877 -0.000241183297 9.00366879
      1.77494717 -0.00309597002 -0.00146152533 -0.000176127927
      -0.00122606941 -0.00086349278 -0.00506359525 0.0412451513
      -1.34069514e-05 0.785267532 3.28205681 -8.66038499e-06
      -5.91569515e-05 -1.9258121e-05 -0.0146549726 -0.000217871071
      -0.0115690948 -0.00150930556 -0.000109955377 -0.000901001797
      -0.000244902621 -7.50851686e-05 -0.0110369958 -0.000270461431
      -0.000126111132 -0.000671012152 -0.00187454163 -0.000391587673
      -0.000360470061 -0.00169956277 -0.00056977116 2.1563611
      0.216281131 -0.0224331524 -0.00215607602 -0.000543453556
      -3.29398972e-06 -0.0106266877 4.77311182 -0.0251274463
      -0.0839721784 -0.00408253167 -0.00333600841 -0.00550221
      -0.000843287213 -0.000436250964 -0.000890571333 3.12502837
      -0.0212594364 -4.02408077e-05 -3.68124383e-05 -3.05085559e-05
      -0.00523083145 -0.00215956848 -0.000713200541 5.9437151
      -0.00183534517 -0.000117701427 -4.5905299e-06 -0.00102368358
      -2.54063743e-05 1.47343814 5.77024364 -0.0017979464
      -1.25141532e-05 -4.32122249e-07 -0.000313237368 2.8582201
      -0.0539801046 -0.000703895465 -0.00844126008 -0.0132317171
      -9.03151522e-06 -0.0076314155 -0.00623979606 -0.000534230145
      -0.00558836758 -0.00606555445 5.04059982 -0.0249649193
      -0.000781074807 -0.0217685774 -0.00634649489 -0.00261905463
      -6.25958419e-05 -0.00809850171 4.13682556 -1.18698847e-06
      -0.000118760159 -0.00102533225 4.98285341 -0.000131654218
      -3.26979934e-05 -0.000586326933 0.0677404478 -0.00187662942
      -0.00193721463 -1.8802677e-05 -5.25175055e-05 -0.000858808286
      -6.91281969e-07 -2.94941765e-06 -0.000198228459 -5.18278939e-05
      -0.00920585264 -1.04673982e-05 -0.00713150483 -0.000817081251
      -0.000422648707 -0.00989740249 -0.00375182065 -0.0233772434
      -0.0189264659 -0.0031357368 0.365331441 0.329133362
      -9.89942637e-05 -8.11013597e-05 0.0397116244 0.108937658
      0.380806684 -0.000135240334 -0.000673752918 -5.22447544e-06
      -1.33979068e-08 0.146536991 -0.00107667746 -0.000184046337
      0.710261285 -0.0037771815 0.473230898 -2.2773198e-05
      -0.000264855655 -3.97259873e-06 -2.66211077e-06 0.234886616
      0.120681569 -0.00290485518 0.737724185 -1.14801867e-06 0.776261032
      -3.80773622e-06 -4.04727652e-05 0.910030842 0.124599569
      -0.000851360674 0.0505984612 0.113180786 0.303853303
      -4.33715177e-05 -0.000394514936 0.204650789 0.288678527
      -0.00202410994 -0.0003081084 0.138164431 0.216383636 0.0415958017
      -0.00307424273 -0.00320759113 0.0798834041 0.134642243
      -0.00126862235 -1.29507434e-05 -0.00319729978 -0.00151697092
      -0.0023181194 -0.00231223926 -0.00012813932 -3.34895844e-06
      0.400283575 -2.17205553e-07 -3.69461844e-07 0.173479438
      0.869623482 -1.46703733e-05 -1.84919008e-05 -0.00020969566
      -0.000432858913 0.308821738 -0.000149572021 -9.43018022e-05
      0.264609635 -1.92551379e-05 0.020825468 -0.000142508405
      -3.93348382e-05 -1.59579104e-05 0.0128104426 -7.79982565e-06
      0.00686445087 -0.000250988291 0.0330540501 -0.000108256434
      0.0907932818 -0.000718700001 0.0153573602 0.262218833
      -1.68620863e-06 -0.000119468707 -3.50975483e-06 -1.06498828e-06
      -0.000194977576 -3.62765968e-06 0.0195769295 0.341579884
      0.584863663 -2.42435344e-05 -0.000393304887 -9.07267677e-05
      -4.17707997e-05 -0.000505208794 0.0101313982 0.0619343407
      -0.000273241196 -0.000190557737 -2.93155099e-05 -0.000275772327
      -6.2093136e-06</_>
    <_>
      0.762682378 -5.47524309 -0.00733925309 -0.0576179549
      -6.57540582e-08 -0.000218832036 -0.0137971565 -0.00048152337
      -0.00226124469 -3.51575954e-06 -1.67759499e-05 -3.09286946e-07
      -0.000120302066 -0.000389911816 -0.00024533004 9.02583885
      1.95315349 -0.00316263642 -0.00232397905 -0.000181905067
      -0.00126494863 -0.000878063322 -0.0051519149 0.0171036012
      -1.42149565e-05 0.908084869 3.47175431 -9.52259597e-06
      -6.05744899e-05 -1.97787995e-05 -0.0150513006 -0.000223248833
      -0.011612284 -0.0015121093 -0.000111950969 -0.000907524256
      -0.000246270618 -7.91185084e-05 -0.0109649794 -0.000280215667
      -0.000135878392 -0.000740198477 -0.00186992832 -0.000386143482
      -0.00066717295 -0.00179998705 -0.000557199062 2.11794043
      0.238639712 -0.0236243997 -0.0022158213 -0.000650179049
      -3.60151626e-06 -0.0108070094 4.65438795 -0.0259512775
      -0.0851449594 -0.00408746395 -0.00453062681 -0.00550483214
      -0.000876449281 -0.000458369759 -0.000923074142 3.26384306
      -0.0205241218 -4.00737372e-05 -3.8866503e-05 -3.24471948e-05
      -0.0052305758 -0.00218672818 -0.000721940654 5.98791885
      -0.00183580979 -0.000120973411 -5.02332341e-06 -0.00103104801
      -2.65835479e-05 1.61167324 5.97258949 -0.00182661961
      -1.28443071e-05 -4.55889818e-07 -0.000320582563 2.67919731
      -0.0532334782 -0.000750286737 -0.00919125322 -0.0134488642
      -9.0773483e-06 -0.00781254377 -0.00628980855 -0.000547837873
      -0.00584401097 -0.00632068375 5.31475163 -0.0254409537
      -0.000774219458 -0.0211531557 -0.00643553073 -0.00267728721
      -6.58415083e-05 -0.00836704858 4.32998371 -1.26065549e-06
      -0.000121040146 -0.00105185027 4.7292552 -0.000137280265
      -3.39925318e-05 -0.000590105192 0.0520057157 -0.00196563709
      -0.00154769607 -1.92582975e-05 -5.54751823e-05 -0.000867809169
      -7.30437819e-07 -2.959531e-06 -0.000206830373 -5.29455247e-05
      -0.00946926232 -1.03599887e-05 -0.00714582112 -0.000840414839
      0.0406266302 -0.0100614494 -0.00399551867 -0.023755515
      -0.0182267427 -0.00354075478 0.35895589 0.325510353
      -9.95184018e-05 -8.20397472e-05 0.0281349346 0.112543061
      0.33800739 -0.000135852562 -0.000464379467 -5.3032345e-06
      -1.26438566e-08 0.174321264 -0.00105106342 -0.000187130237
      0.715811968 -0.0038300273 0.462013245 -2.26329976e-05
      -0.000267654366 -4.04009097e-06 -2.61854029e-06 0.233898431
      0.117304131 -0.00302431849 0.70742321 -1.129834e-06 0.750139058
      -3.74565116e-06 -0.000153931178 0.911349833 0.0938804075
      -0.00074124895 0.038394466 0.106737733 0.297485381 -4.36516566e-05
      -0.000402705075 0.206425905 0.297118336 -0.00192115188
      -0.000316139834 0.139215201 0.209892049 0.0817443058
      -0.00320997671 -0.00312985969 0.0512810871 0.140206605
      -0.0012932074 -1.28343981e-05 -0.00322853355 -0.00129204302
      -0.00235628267 -0.00234548352 -0.000129466964 -3.34323022e-06
      0.387656689 -2.16052456e-07 -3.62179435e-07 0.170964301 0.86094141
      -1.46741413e-05 -1.84957298e-05 -0.000209703328 -0.000432495755
      0.308689654 -0.00014958586 -9.43117411e-05 0.264353693
      -1.92586576e-05 0.0205360688 -0.000142518067 -3.93405535e-05
      -1.59608171e-05 0.0127994493 -7.80101345e-06 0.00696139783
      -0.000250950747 0.0325859822 -0.000108207758 0.0905132294
      -0.000717912917 0.0160809606 0.262045205 -1.6841401e-06
      -0.000119481025 -3.5114474e-06 -1.04989044e-06 -0.00019496576
      -3.62842252e-06 0.0193795264 0.340428829 0.583840191
      -2.42487058e-05 -0.000384642539 -9.07411595e-05 -4.17764168e-05
      -0.000504797383 0.00991738774 0.0618364587 -0.000273133366
      -0.000190566643 -2.93192788e-05 -0.000274572376 -6.21054096e-06</_>
    <_>
      0.75944823 -5.65768671 -0.00691745384 -0.0571472645
      -6.09594011e-08 -0.000205338147 -0.0132933827 -0.000425877748
      -0.00218917313 -2.69326415e-06 -1.53466608e-05 -2.99293163e-07
      -0.000109603403 -0.000366623921 -0.000230644102 8.80117989
      1.95588326 -0.00294772629 -0.000841263565 -0.000169745705
      -0.00121611333 -0.000818548026 -0.00481836777 0.0222171582
      -1.19859315e-05 0.925186336 3.42284513 -9.30118495e-06
      -5.76343191e-05 -1.87178757e-05 -0.0128645618 -0.000218123212
      -0.00958275516 -0.00144219713 -0.000106699234 -0.000858090352
      -0.000244257855 -6.95938579e-05 -0.00912988186 -0.000245759962
      -0.000126271043 -0.000707287109 -0.00174111046 -0.000400133431
      -0.000658879988 -0.00174192095 -0.000530190766 2.17777348
      0.303086519 -0.0226331782 -0.00202824571 -0.000643512583
      -3.33895105e-06 -0.0102591692 4.61793327 -0.0256479401
      -0.0795084909 -0.00388867408 -0.00259473477 -0.00513540488
      -0.000844243972 -0.000470568164 -0.000823856797 3.20691872
      -0.0191199016 -4.15478498e-05 -3.64231746e-05 -2.83274185e-05
      -0.00493254326 -0.00206117099 -0.000715710223 5.84733057
      -0.00173145218 -0.000110266279 -4.73223281e-06 -0.00101887737
      -2.46222935e-05 1.6130774 5.70272827 -0.00172803574
      -1.21525673e-05 -3.56142408e-07 -0.000294701254 2.57300425
      -0.0530785173 -0.000682389364 -0.00788804609 -0.0102769341
      -8.33816557e-06 -0.00739074824 -0.0062766457 -0.000510973332
      -0.00553925382 -0.00621110201 5.29377747 -0.0247177221
      -0.000730854168 -0.0215331987 -0.00608694181 -0.00248575583
      -5.5017721e-05 -0.00813208427 4.28552723 -1.13062322e-06
      -0.000109135384 -0.00103970873 4.87584829 -0.000121586265
      -3.27672969e-05 -0.000553229125 0.358572096 -0.00183154608
      -0.000948658912 -1.77982511e-05 -5.10008031e-05 -0.000782769755
      -7.22755487e-07 -2.65880908e-06 -0.000193218104 -5.05498137e-05
      -0.00899655093 -9.79993547e-06 -0.00685371319 -0.000752285006
      0.0313321725 -0.00988392532 -0.003716412 -0.023875257
      -0.0178410057 -0.00347643229 0.358441532 0.310815096
      -0.000100008132 -8.32366059e-05 0.0244142301 0.101633921
      0.296967566 -0.000135824303 -0.000397352182 -5.39106986e-06
      -1.25000561e-08 0.202378929 -0.00132670277 -0.000189590544
      0.702731192 -0.00382572203 0.45857504 -2.25558124e-05
      -0.000268248696 -4.13210091e-06 -2.62265416e-06 0.241687328
      0.140447393 -0.00328758988 0.684640884 -1.13070507e-06 0.722965837
      -3.74328056e-06 -0.000357280223 0.879400313 0.0655487031
      -0.000831336365 0.0297660511 0.139959812 0.291238457 -4.416507e-05
      -0.00040482558 0.224198252 0.314728588 -0.00184780057
      -0.000320402178 0.160423636 0.19463113 0.102656752 -0.00327401608
      -0.00335575105 0.0438008755 0.146455139 -0.0013003879
      -1.28188613e-05 -0.00318318419 -0.000854180835 -0.00261374819
      -0.00234492915 -0.000129690408 -3.36307016e-06 0.395633698
      -2.17446299e-07 -3.62618039e-07 0.175795659 0.828383982
      -1.46865659e-05 -1.85111658e-05 -0.000209634483 -0.00043152913
      0.309477508 -0.000149624335 -9.4346331e-05 0.264663309
      -1.92710668e-05 0.0198351815 -0.000142544144 -3.9359842e-05
      -1.59717511e-05 0.0110873282 -7.80523078e-06 0.00582933426
      -0.000250652141 0.0298369825 -0.000108210312 0.0901151448
      -0.00071455969 0.0179139823 0.262552887 -1.67707708e-06
      -0.000119514581 -3.51707263e-06 -1.01172361e-06 -0.000194855529
      -3.63133381e-06 0.017150756 0.338242471 0.582584381
      -2.42673013e-05 -0.000372264592 -9.07881549e-05 -4.17965421e-05
      -0.00050290738 0.00941208564 0.0620816313 -0.000272712699
      -0.00019052664 -2.93321154e-05 -0.00027186668 -6.21474373e-06</_>
    <_>
      0.770534813 -5.16309261 -0.00713330181 -0.0577070042
      -6.43717044e-08 -0.000210222293 -0.01356644 -0.000476336456
      -0.00220805337 -3.37397682e-06 -1.65709589e-05 -3.10770105e-07
      -0.0001163087 -0.000377216929 -0.000231622602 8.98938465
      1.65853047 -0.00310205063 0.132084981 -0.000174938454
      -0.00124489877 -0.000846629147 -0.00509846257 -0.000328779599
      -1.3735933e-05 0.651440203 3.18830109 -9.33607771e-06
      -6.08608752e-05 -1.97768386e-05 -0.0130489441 -0.000221187816
      -0.0116529586 -0.00143644528 -0.000108516986 -0.000892629207
      -0.00024376098 -7.43237033e-05 -0.00992691983 -0.000263660128
      -0.000138676885 -0.000702068966 -0.0018111401 -0.000369289395
      -0.000957613403 -0.00190558843 -0.000556705927 2.41116238
      0.197636366 -0.0233768355 -0.00213420065 -0.00054825854
      -3.77062815e-06 -0.0106557524 4.63082743 -0.025336029
      -0.0833542794 -0.0039542648 -0.00390727725 -0.00536045944
      -0.000894482015 -0.000470073166 -0.000934006355 3.01171017
      -0.0224121995 -3.99948221e-05 -3.88165536e-05 -3.08256422e-05
      -0.00512619177 -0.00205478375 -0.000710974447 5.89461231
      -0.00184648135 -0.000116983261 -4.77796084e-06 -0.00102027564
      -2.43862742e-05 1.30035055 5.93104267 -0.00183840923
      -1.27099056e-05 -4.3341484e-07 -0.000329195725 2.67367458
      -0.0531842522 -0.000733410823 -0.00912868697 -0.0123950178
      -8.77138518e-06 -0.00773980841 -0.00643762201 -0.000531833328
      -0.0057791071 -0.00624856865 4.84379673 -0.024724165
      -0.000742182659 -0.0217690002 -0.00640992401 -0.00256819604
      -6.25833563e-05 -0.00837185234 3.9780724 -1.25695249e-06
      -0.000117390817 -0.00104098429 4.98570967 -0.00013442467
      -3.31772317e-05 -0.000567716779 0.128748983 -0.00197506649
      -0.000975797127 -1.91086037e-05 -5.36895823e-05 -0.000793245388
      -7.64893002e-07 -2.84725388e-06 -0.000189558414 -5.23262352e-05
      -0.00907285139 -1.0034857e-05 -0.00727782166 -0.000773544656
      -0.00192241126 -0.010000322 -0.00381584349 -0.0231250022
      -0.0201833267 -0.0032956053 0.355024517 0.320088446
      -0.000101308971 -8.44920141e-05 0.0169774368 0.0968580917
      0.257743359 -0.000135308932 -0.00041209755 -5.53323343e-06
      -1.12320793e-08 0.220613241 -0.00126834272 -0.000192323729
      0.731114864 -0.00410702964 0.452047676 -2.21283317e-05
      -0.000270948542 -4.21688401e-06 -2.56588055e-06 0.233097166
      0.149954721 -0.00331059541 0.66799593 -1.10227916e-06 0.723704636
      -3.64204038e-06 -0.000737280701 0.900625348 0.0491869003
      -0.000917060999 0.0123832393 0.148783848 0.289122254
      -4.44162288e-05 -0.000413828559 0.225959957 0.31235224
      -0.00183054502 -0.000328366295 0.150062561 0.18088156 0.139168471
      -0.00355746876 -0.00349719846 0.0103388429 0.155569583
      -0.00132126687 -1.24891358e-05 -0.00325878919 -0.000754191657
      -0.00264051557 -0.00240020291 -0.000130401779 -3.33011872e-06
      0.403997034 -2.13920103e-07 -3.50538357e-07 0.176540792
      0.807302415 -1.46844277e-05 -1.85073477e-05 -0.000209685226
      -0.000431600289 0.308836818 -0.000149620668 -9.43396226e-05
      0.264133632 -1.92686002e-05 0.0198510997 -0.000142542049
      -3.9356346e-05 -1.596931e-05 0.0120741352 -7.80438131e-06
      0.00662375242 -0.000250775804 0.0308078565 -0.000108142514
      0.0899665952 -0.000715450209 0.0178271011 0.262019515
      -1.67839369e-06 -0.000119511722 -3.51608583e-06 -1.01350133e-06
      -0.000194903958 -3.63066852e-06 0.0181859359 0.337953955
      0.581925333 -2.42634596e-05 -0.00036770798 -9.07802387e-05
      -4.17924166e-05 -0.000503453077 0.00941626541 0.0618048385
      -0.00027281206 -0.00019056219 -2.93297398e-05 -0.000271815574
      -6.2139552e-06</_>
    <_>
      0.752243936 -5.02838469 -0.00690532429 -0.0558575764
      -6.19697786e-08 -0.000190406034 -0.0131934173 -0.000432567962
      -0.00212637708 -2.95084715e-06 -1.53479705e-05 -3.0312637e-07
      -0.000108842418 -0.000351035589 -0.000229192636 8.69440842
      1.61216938 -0.00294497656 0.0550773367 -0.000167449223
      -0.00116825372 -0.00081447151 -0.00481602736 0.00247915834
      -1.25987135e-05 0.684742987 3.07216024 -8.56514907e-06
      -5.72673634e-05 -1.85845875e-05 -0.0126578761 -0.000215178661
      -0.00980377384 -0.00141626678 -0.000104737155 -0.000856192608
      -0.000238100431 -6.8443107e-05 -0.00923067238 -0.000249205215
      -0.000123361984 -0.000653689494 -0.00175527029 -0.000383249222
      -0.000758251525 -0.00173791347 -0.000546192285 2.1998992
      0.310297936 -0.021724876 -0.00201403839 -0.000548335724
      -3.41876716e-06 -0.0102088293 4.52337408 -0.0241052099
      -0.0807337239 -0.00383139751 -0.00249413773 -0.00517594349
      -0.000820448331 -0.000455015688 -0.000843367307 2.92789674
      -0.0211192444 -4.00251702e-05 -3.50840819e-05 -2.83140198e-05
      -0.00493361522 -0.00202161563 -0.00068441208 5.68756437
      -0.00174088893 -0.000109189205 -4.5874026e-06 -0.00100603956
      -2.37198747e-05 1.30727899 5.69531727 -0.00172452163
      -1.20110808e-05 -3.85131244e-07 -0.00030641476 2.65528703
      -0.0522928759 -0.000685514417 -0.00746423937 -0.0104138609
      -8.44254282e-06 -0.00735087832 -0.0062692007 -0.00050551258
      -0.0053576529 -0.00599018205 4.74237633 -0.023939332
      -0.000732599408 -0.0204536319 -0.00609407015 -0.00245756446
      -5.76784078e-05 -0.00790978875 3.85660386 -1.13288968e-06
      -0.000112440772 -0.00101473625 4.8815403 -0.000125360617
      -3.13463679e-05 -0.00055040489 0.0799104199 -0.00182883872
      -0.000672137074 -1.81632749e-05 -4.8945516e-05 -0.000778761343
      -6.84658517e-07 -2.67419955e-06 -0.000181525611 -4.96119792e-05
      -0.00875199027 -9.72838006e-06 -0.00692521269 -0.000753190136
      -0.00152644038 -0.0094816545 -0.00352011365 -0.0230719224
      -0.019128317 -0.0029844942 0.353860825 0.317101151 -0.000102154278
      -8.41420479e-05 0.0182868689 0.0793537796 0.219863832
      -0.000135116337 -8.72999408e-06 -5.67035431e-06 -1.01975592e-08
      0.24320358 -0.000895565667 -0.00019026763 0.747939765 -0.004592604
      0.452941686 -2.17715242e-05 -0.000270000979 -4.30354567e-06
      -2.51871461e-06 0.200333178 0.135608211 -0.00342675089 0.640015721
      -1.07931896e-06 0.71508795 -3.56793794e-06 -0.00102659536
      0.930975378 0.00473853946 -0.000742361532 -2.84011658e-05
      0.114539318 0.2835899 -4.46994418e-05 -0.000419747405 0.222046822
      0.302228302 -0.00187852676 -0.00032977527 0.130410448 0.182384759
      0.187767118 -0.00375264185 -0.00328924228 -0.000200701426 0.175632
      -0.00132884993 -1.23150157e-05 -0.00332750729 -0.000348457164
      -0.00281086727 -0.00245932629 -0.000131449866 -3.32656191e-06
      0.396901965 -2.10270912e-07 -3.42107626e-07 0.185118943
      0.772460997 -1.46889752e-05 -1.85136614e-05 -0.000209637787
      -0.000431300694 0.309412509 -0.000149633051 -9.43527048e-05
      0.264519036 -1.92733296e-05 0.0196557902 -0.000142550227
      -3.93635055e-05 -1.59736319e-05 0.0110529885 -7.80599566e-06
      0.00586719066 -0.000250625133 0.0295208637 -0.000108182132
      0.0899462849 -0.000714043737 0.0183632299 0.262459219
      -1.67574819e-06 -0.000119522345 -3.51815629e-06 -1.00223576e-06
      -0.000194846783 -3.63182812e-06 0.0170000717 0.337538272
      0.581967831 -2.42706337e-05 -0.000367039203 -9.07973372e-05
      -4.18001582e-05 -0.00050263555 0.00927964784 0.0620288998
      -0.000272642676 -0.000190531166 -2.93345347e-05 -0.000271124678
      -6.2155309e-06</_>
    <_>
      0.822895706 -5.03273726 -0.00696297269 -0.0562019423
      -6.36314113e-08 -0.000187493119 -0.0132409381 -0.000450730731
      -0.00214246265 -3.03429101e-06 -1.56462502e-05 -3.06350188e-07
      -0.000108752771 -0.000351491675 -0.000225786294 8.74006844
      1.47833681 -0.00299701001 0.217962876 -0.000166892976
      -0.00118349865 -0.000816925371 -0.00489931135 -0.000314246572
      -1.27767289e-05 0.567521811 2.97244835 -8.37986499e-06
      -5.73078723e-05 -1.88602298e-05 -0.0114857769 -0.000215441789
      -0.0101668537 -0.00138842373 -0.000104768318 -0.000871431374
      -0.000239105924 -6.86040948e-05 -0.00899553671 -0.0002500056
      -0.000126885716 -0.000653729716 -0.0017556625 -0.000376314507
      -0.000995712122 -0.00178570265 -0.000553736987 2.33108473
      0.262132645 -0.0220137164 -0.00201134244 -0.000534255407
      -3.48978756e-06 -0.0103691919 4.60506201 -0.0240520164
      -0.0810354725 -0.00382296485 -0.00273352861 -0.00522502046
      -0.000825406867 -0.000478742732 -0.000873135228 2.84965444
      -0.0223235786 -4.02825317e-05 -3.59741607e-05 -2.8365097e-05
      -0.00498981634 -0.00200102152 -0.000697286567 5.74582767
      -0.00176614046 -0.000111443325 -4.48243873e-06 -0.00101330655
      -2.34338804e-05 1.17573714 5.71308327 -0.00176004588
      -1.20128807e-05 -3.94143484e-07 -0.000319839193 2.72066116
      -0.0524114259 -0.000677368487 -0.00790054258 -0.0110279238
      -8.54018617e-06 -0.00742384186 -0.00638015196 -0.000505054428
      -0.0054294155 -0.00602297159 4.58456516 -0.0237851329
      -0.000748500519 -0.0205412004 -0.00617768941 -0.00246794918
      -5.82191351e-05 -0.00792808272 3.75667644 -1.16676267e-06
      -0.000113126509 -0.00101168931 5.03592634 -0.000124939892
      -3.16891128e-05 -0.000548873912 0.152108014 -0.00184503652
      -0.000810566591 -1.84214732e-05 -4.96137727e-05 -0.000772470084
      -6.93436846e-07 -2.71733529e-06 -0.000178546936 -5.03109186e-05
      -0.00867435802 -9.70447218e-06 -0.00707541918 -0.000736147573
      -0.00262990175 -0.00963256601 -0.0034636776 -0.0228936635
      -0.0200820658 -0.00284559117 0.355626971 0.300975114
      -0.000101999976 -8.45714821e-05 0.0164946169 0.0627477467
      0.230547711 -0.000135072871 0.00174065307 -5.64788161e-06
      -1.03562412e-08 0.243403777 -0.000933447969 -0.00019067408
      0.740471065 -0.00456736283 0.463014901 -2.18069617e-05
      -0.000269010779 -4.28630437e-06 -2.52625637e-06 0.200000048
      0.136304274 -0.00343536749 0.647765577 -1.0814656e-06 0.710713029
      -3.57857425e-06 -0.000980013981 0.926077247 0.0137226358
      -0.000668216031 -4.61912023e-05 0.114591241 0.285274118
      -4.46536105e-05 -0.000421145203 0.220280051 0.301574081
      -0.0017931324 -0.000328218768 0.135500312 0.184679106 0.18763271
      -0.00371004059 -0.0033225168 -9.12428659e-05 0.176108599
      -0.00133430271 -1.23240516e-05 -0.00332462671 -0.000250812533
      -0.00289995852 -0.00246076239 -0.000130923858 -3.3233232e-06
      0.409064591 -2.11113203e-07 -3.43046395e-07 0.184207365
      0.780576527 -1.46889752e-05 -1.85136614e-05 -0.000209637787
      -0.000431300694 0.309412509 -0.000149633051 -9.43527048e-05
      0.264519036 -1.92733296e-05 0.0196557902 -0.000142550227
      -3.93635055e-05 -1.59736319e-05 0.0110529885 -7.80599566e-06
      0.00586719066 -0.000250625133 0.0295208637 -0.000108182132
      0.0899462849 -0.000714043737 0.0183632299 0.262459219
      -1.67574819e-06 -0.000119522345 -3.51815629e-06 -1.00223576e-06
      -0.000194846783 -3.63182812e-06 0.0170000717 0.337538272
      0.581967831 -2.42706337e-05 -0.000367039203 -9.07973372e-05
      -4.18001582e-05 -0.00050263555 0.00927964784 0.0620288998
      -0.000272642676 -0.000190531166 -2.93345347e-05 -0.000271124678
      -6.2155309e-06</_>
    <_>
      0.821449935 -5.34655523 -0.00703466916 -0.0572438985
      -6.08321784e-08 -0.000192782725 -0.0135581009 -0.000430829445
      -0.00211343495 -2.93348535e-06 -1.5407777e-05 -3.1251929e-07
      -0.000112002897 -0.000359325408 -0.000236478518 8.80360985
      1.93236828 -0.00296531664 -0.000459953677 -0.00017129544
      -0.00118304207 -0.000821798225 -0.00486634346 0.0435664654
      -1.27005414e-05 0.924348295 3.41635156 -9.34940908e-06
      -5.89116244e-05 -1.85971894e-05 -0.0135383345 -0.00021732015
      -0.00927490834 -0.00147254136 -0.000107629407 -0.000863664551
      -0.000247273769 -7.01159443e-05 -0.00937405601 -0.000254810438
      -0.000123746504 -0.000660924008 -0.00179657072 -0.000379692152
      -0.000935618125 -0.00169582537 -0.00055768108 2.18437028
      0.303370267 -0.0217271559 -0.00207029376 -0.000405907893
      -3.36070184e-06 -0.0102668228 4.64362669 -0.0247211382
      -0.0813541561 -0.00394244259 -0.00311630988 -0.00522410264
      -0.000809782068 -0.000469691819 -0.000841306522 3.18464065
      -0.0192255005 -4.02867372e-05 -3.52224197e-05 -2.86221948e-05
      -0.00497740041 -0.00207929173 -0.00069190975 5.76682091
      -0.00177324365 -0.000107075532 -4.45490832e-06 -0.00103278528
      -2.38281464e-05 1.56089318 5.76609421 -0.00172650814
      -1.21870771e-05 -3.85336534e-07 -0.000299851148 2.71555233
      -0.0535132028 -0.000662996434 -0.0078912396 -0.0102537796
      -8.5358497e-06 -0.00752587477 -0.00624578772 -0.000517665292
      -0.00535770273 -0.0060537383 5.26136398 -0.0247092079
      -0.000754796609 -0.0214486085 -0.00618886622 -0.00250078319
      -5.89542433e-05 -0.00820158049 4.20747852 -1.19441711e-06
      -0.000112580681 -0.00102705834 4.91820383 -0.000127751395
      -3.21807274e-05 -0.000571516866 0.0289324149 -0.0018345759
      -0.00184220844 -1.78565369e-05 -4.90421189e-05 -0.000794096733
      -7.44241845e-07 -2.78216567e-06 -0.000186328543 -5.03098709e-05
      -0.00907248165 -1.00712432e-05 -0.00694511505 -0.000788691686
      0.0609800741 -0.00969812833 -0.00370777189 -0.0233059321
      -0.0178068876 -0.00312118791 0.354094565 0.296230733
      -0.000101241763 -8.4810963e-05 0.0219682232 0.0627959818
      0.249080256 -0.000135322858 -0.000129521111 -5.56795158e-06
      -1.13620056e-08 0.242904693 -0.00103476644 -0.000189937127
      0.718628109 -0.00423840154 0.445589602 -2.20656711e-05
      -0.000267474039 -4.26884753e-06 -2.57403508e-06 0.213999331
      0.13814275 -0.00339610828 0.642359734 -1.10556118e-06 0.699862063
      -3.65520032e-06 -0.00088551949 0.891841114 0.0286693126
      -0.000664563442 -3.52462339e-05 0.125839353 0.288605541
      -4.44555008e-05 -0.000414579961 0.224109411 0.301653445
      -0.00169815682 -0.000324666267 0.141744614 0.193671405 0.164429784
      -0.00352998753 -0.00344533706 0.0014732033 0.170576304
      -0.00132835598 -1.25368115e-05 -0.00323876482 -0.00028980113
      -0.00284810504 -0.0023965938 -0.000130073109 -3.34921197e-06
      0.406353295 -2.1523779e-07 -3.52933711e-07 0.18403843 0.775746107
      -1.46889752e-05 -1.85136614e-05 -0.000209637787 -0.000431300694
      0.309412509 -0.000149633051 -9.43527048e-05 0.264519036
      -1.92733296e-05 0.0196557902 -0.000142550227 -3.93635055e-05
      -1.59736319e-05 0.0110529885 -7.80599566e-06 0.00586719066
      -0.000250625133 0.0295208637 -0.000108182132 0.0899462849
      -0.000714043737 0.0183632299 0.262459219 -1.67574819e-06
      -0.000119522345 -3.51815629e-06 -1.00223576e-06 -0.000194846783
      -3.63182812e-06 0.0170000717 0.337538272 0.581967831
      -2.42706337e-05 -0.000367039203 -9.07973372e-05 -4.18001582e-05
      -0.00050263555 0.00927964784 0.0620288998 -0.000272642676
      -0.000190531166 -2.93345347e-05 -0.000271124678 -6.2155309e-06</_>
    <_>
      0.967970431 -5.54477167 -0.00681010634 -0.0588926673
      -5.58774786e-08 -0.000190264647 -0.0132617503 -0.000389572961
      -0.00208291714 -2.84036446e-06 -1.46404418e-05 -2.98124206e-07
      -0.000109976136 -0.000362212217 -0.000231390557 8.90574265
      2.03622866 -0.0028352791 -0.00226547522 -0.000161975433
      -0.00114963867 -0.000789373124 -0.00464464165 0.0944738165
      -1.2182285e-05 1.03364158 3.47897744 -8.66038135e-06
      -5.81180793e-05 -1.79472008e-05 -0.0143897561 -0.000208900441
      -0.00795771927 -0.00145299477 -0.000104844621 -0.000841250003
      -0.000247553427 -6.92841568e-05 -0.0102276178 -0.000248064462
      -0.00011484405 -0.000632285897 -0.00173604337 -0.00040259253
      -0.00103188225 -0.00160596275 -0.000554097409 2.03524375
      0.246016666 -0.0221938137 -0.00201057619 -0.000345953275
      -3.0657111e-06 -0.0099482704 4.81557322 -0.0245870743
      -0.0815075561 -0.00383684807 -0.00351659628 -0.00501887966
      -0.000758244307 -0.000438711664 -0.000787179684 3.21491742
      -0.0178636722 -4.03495142e-05 -3.25896071e-05 -2.94730016e-05
      -0.00472349161 -0.0020649943 -0.000672662049 5.77826405
      -0.00169745635 -0.000100043901 -4.03856347e-06 -0.00100946019
      -2.26793472e-05 1.6765908 5.8178196 -0.00163637334 -1.2062008e-05
      -3.81530583e-07 -0.000269444776 2.78616929 -0.0557250157
      -0.000625538116 -0.00804166961 -0.0100241825 -8.23001028e-06
      -0.00728719588 -0.00610778667 -0.000495049695 -0.00508246943
      -0.00588752003 5.42805767 -0.0242689978 -0.000749305997
      -0.0223455969 -0.00589532405 -0.00241946871 -5.77881365e-05
      -0.00789864734 4.25684643 -1.15934927e-06 -0.000107064086
      -0.00102692656 4.93389177 -0.000122957368 -3.16681435e-05
      -0.00057030929 -0.00071452104 -0.00172385946 -0.00231744885
      -1.65076381e-05 -4.57326169e-05 -0.000768278842 -6.94284438e-07
      -2.67966266e-06 -0.000183477721 -4.82369796e-05 -0.00896876398
      -9.85945462e-06 -0.00672179786 -0.000782778021 0.196806431
      -0.00953407586 -0.00364131015 -0.0236200057 -0.0170568936
      -0.00299722631 0.353765547 0.308440149 -0.000103252351
      -8.22856819e-05 -0.000157440823 0.103950419 0.181671605
      -0.00013408986 0.0494923219 -5.86411397e-06 -8.18976975e-09
      0.259383023 -0.00107639655 -0.000196431516 0.811529458
      -0.00513693225 0.443457514 -2.08321107e-05 -0.000277332147
      -4.41074326e-06 -2.41002567e-06 0.150610894 0.171973839
      -0.00360698905 0.610948026 -1.0287464e-06 0.712857664
      -3.39228359e-06 -0.00133689248 0.983687341 -0.000703063386
      -0.00092928065 -0.000231887185 0.0633310527 0.273394197
      -4.45322949e-05 -0.000430815795 0.229094401 0.313104719
      -0.00212037028 -0.000339870749 0.128054589 0.12867716 0.223726138
      -0.00413057301 -0.00346938125 -0.000616435485 0.231868312
      -0.00135944376 -1.19540091e-05 -0.00350672379 -0.000651223701
      -0.00266182004 -0.00258863834 -0.000131913344 -3.2488806e-06
      0.410611928 -1.97617453e-07 -3.2327614e-07 0.196684301 0.748208344
      -1.46883913e-05 -1.85125919e-05 -0.000209652557 -0.000431318011
      0.309225798 -0.000149632106 -9.43508567e-05 0.264363199
      -1.92726475e-05 0.0196575075 -0.000142549703 -3.93625451e-05
      -1.59729516e-05 0.0113387555 -7.80576011e-06 0.00609827787
      -0.00025066064 0.0297973901 -0.000108162021 0.089900434
      -0.000714294671 0.0183453783 0.262303174 -1.67611142e-06
      -0.000119521625 -3.51788549e-06 -1.00261877e-06 -0.00019486071
      -3.63164213e-06 0.0172979534 0.337443322 0.581767082
      -2.42695678e-05 -0.000365632237 -9.07951762e-05 -4.17990123e-05
      -0.000502789917 0.00927870907 0.0619477332 -0.00027267047
      -0.000190541541 -2.93338799e-05 -0.000271098223 -6.21531399e-06</_>
    <_>
      0.888397634 -5.68469667 -0.00680441735 -0.0582429916
      -5.51988961e-08 -0.000197718589 -0.0133605497 -0.000384491374
      -0.00211027777 -2.82990618e-06 -1.46247667e-05 -2.95371393e-07
      -0.00011198617 -0.000369065237 -0.000234556384 8.88497162
      2.22129679 -0.00282147015 -0.00425917329 -0.000167226142
      -0.00114130729 -0.000809195102 -0.00462510111 0.130213767
      -1.22282254e-05 1.18979883 3.63043332 -9.14477641e-06
      -5.84357185e-05 -1.79874587e-05 -0.0157166179 -0.0002111098
      -0.00734432926 -0.00148787664 -0.000107456195 -0.000840622117
      -0.000246403593 -7.05303828e-05 -0.0101604415 -0.000252951868
      -0.000116348245 -0.000662441889 -0.00175525702 -0.00040194497
      -0.000680170488 -0.00158461533 -0.000540020526 1.81047428
      0.313248158 -0.0225920435 -0.00205962337 -0.00025562814
      -3.09535517e-06 -0.00988964923 4.72453451 -0.0249686148
      -0.0806372017 -0.00390445488 -0.0024475106 -0.00503027951
      -0.000784919888 -0.000400955323 -0.000779778115 3.35824943
      -0.0162153691 -4.04516286e-05 -3.27837806e-05 -2.96679991e-05
      -0.00475260755 -0.00211025006 -0.000671268092 5.77022457
      -0.00169993623 -9.9860903e-05 -4.35996162e-06 -0.00102073245
      -2.31537724e-05 1.8597306 5.78697586 -0.00164026814 -1.2076036e-05
      -3.83047876e-07 -0.000265879498 2.66441274 -0.0553691722
      -0.000656918797 -0.00765734166 -0.00900322571 -8.21354934e-06
      -0.00729216309 -0.00602902286 -0.000507901364 -0.00516278809
      -0.00595672429 5.63431454 -0.0247780848 -0.000732082932
      -0.0224609915 -0.00590570038 -0.00245036813 -5.88443691e-05
      -0.00809509493 4.41545868 -1.15687089e-06 -0.000107033818
      -0.00103768322 4.73460436 -0.000125993174 -3.16493679e-05
      -0.000570224773 -0.00068006583 -0.00176106521 -0.00187924167
      -1.65881484e-05 -4.66831589e-05 -0.000772290805 -7.29986652e-07
      -2.66435632e-06 -0.000190733437 -4.84697412e-05 -0.00914041884
      -9.99532404e-06 -0.00670368038 -0.000807569362 0.325888395
      -0.00955271348 -0.00379557 -0.0237828605 -0.0160177536
      -0.00328297936 0.345848739 0.308037907 -0.000102913975
      -8.17958426e-05 -4.43720819e-05 0.112765186 0.170211658
      -0.000134507412 0.0459655747 -5.83993005e-06 -8.1074063e-09
      0.272839665 -0.00103453163 -0.000198280599 0.805622876
      -0.00515648816 0.439494014 -2.07905796e-05 -0.000277605577
      -4.38690449e-06 -2.39058772e-06 0.15361017 0.16912812
      -0.00355227431 0.611469984 -1.02284514e-06 0.70552963
      -3.37172878e-06 -0.00135703094 0.979727507 -0.000755006564
      -0.000900468556 -0.000244823459 0.0576213598 0.276601583
      -4.41121192e-05 -0.000433041714 0.237503022 0.313758701
      -0.00205863779 -0.000341309817 0.127282411 0.138475999 0.222950652
      -0.00420846744 -0.00345343258 -0.000684526342 0.240365848
      -0.00137247145 -1.19637161e-05 -0.00351979071 -0.000627738889
      -0.00259538111 -0.00260107219 -0.000132010857 -3.22966252e-06
      0.405559123 -1.96518542e-07 -3.21322716e-07 0.195378676
      0.749177992 -1.46887787e-05 -1.85130084e-05 -0.000209652557
      -0.000431282591 0.309222847 -0.000149633473 -9.43518971e-05
      0.2643466 -1.92730186e-05 0.0196295194 -0.000142550649
      -3.93631381e-05 -1.59732626e-05 0.0113231763 -7.80588562e-06
      0.00609586388 -0.000250655285 0.0297381058 -0.000108158332
      0.0898757279 -0.000714207068 0.0184162036 0.26229465
      -1.67589644e-06 -0.000119522832 -3.51806011e-06 -1.00116711e-06
      -0.000194858891 -3.63172421e-06 0.0172637142 0.337337255
      0.581679046 -2.42701153e-05 -0.000364867505 -9.07966532e-05
      -4.17996089e-05 -0.000502742885 0.00925812311 0.0619423985
      -0.000272658799 -0.000190541876 -2.93342709e-05 -0.000270984194
      -6.21544132e-06</_>
    <_>
      0.842812002 -5.02346897 -0.00694025028 -0.0577555075
      -6.15827105e-08 -0.000191367973 -0.013348111 -0.00044854646
      -0.00208001351 -3.11201984e-06 -1.57359573e-05 -3.07919294e-07
      -0.000111073896 -0.000359446014 -0.000226449323 8.81506538
      1.60526669 -0.00298922206 0.189034015 -0.000169302904
      -0.00120501907 -0.000814998581 -0.00489234598 0.00277844816
      -1.3195121e-05 0.69401747 3.10718775 -8.99385213e-06
      -5.93772093e-05 -1.87192618e-05 -0.0123176323 -0.00021625722
      -0.0088932775 -0.00140921737 -0.000105431638 -0.000868032861
      -0.000246726675 -7.0248745e-05 -0.0096960282 -0.000253034348
      -0.000128415748 -0.000658677134 -0.00176822883 -0.000378731493
      -0.00102746801 -0.00177909969 -0.000552649726 2.35553718
      0.280385911 -0.0226302054 -0.00204410194 -0.00039565895
      -3.54098029e-06 -0.0103555685 4.62993717 -0.0241388865
      -0.0815564021 -0.00385399186 -0.00285508297 -0.00521057891
      -0.000827194948 -0.000463042292 -0.00087209139 2.94070601
      -0.0212663747 -4.13583293e-05 -3.59347541e-05 -2.94292804e-05
      -0.00499134278 -0.00202377327 -0.000707567495 5.68268061
      -0.00178999943 -0.000110125104 -4.46665808e-06 -0.00103329448
      -2.39692363e-05 1.30221486 5.77077341 -0.00175799592
      -1.23551299e-05 -4.03899435e-07 -0.000311144802 2.71399164
      -0.0538405739 -0.000679910998 -0.00755580654 -0.0099955732
      -8.45281556e-06 -0.00746954186 -0.00633777725 -0.000508969242
      -0.00543422578 -0.00598840881 4.77244759 -0.0240685958
      -0.000744006247 -0.0213601291 -0.00617906265 -0.0024996032
      -5.99787563e-05 -0.0081410585 3.8427217 -1.1944926e-06
      -0.00011463563 -0.0010235745 5.05200195 -0.00012956596
      -3.26975969e-05 -0.000554708415 0.0500476435 -0.0018561075
      -0.000690326095 -1.82930653e-05 -4.93589359e-05 -0.000767825986
      -7.28788507e-07 -2.72350348e-06 -0.000181205061 -5.03414194e-05
      -0.00885008834 -9.90071658e-06 -0.00708736526 -0.000758279231
      -0.00141809194 -0.00974418409 -0.00359684648 -0.0231800098
      -0.0196206216 -0.00303867599 0.34518522 0.27791664 -0.000100850106
      -8.46763578e-05 0.0260177553 0.0699267685 0.233164653
      -0.000136402494 0.0045134984 -5.55424049e-06 -1.03513997e-08
      0.278386056 -0.0013833025 -0.000200145805 0.738475621
      -0.00426011393 0.430085033 -2.17086126e-05 -0.000275377824
      -4.26964425e-06 -2.47378125e-06 0.221749008 0.17866762
      -0.00361244404 0.633723736 -1.06914933e-06 0.675115645
      -3.51723793e-06 -0.000670314999 0.896456778 0.00276911259
      -0.000573497848 -0.000105226391 0.103857234 0.290314823
      -4.40900003e-05 -0.000426923216 0.241867363 0.33113113
      -0.00154770014 -0.000338012265 0.14605324 0.188757002 0.161389053
      -0.00373353763 -0.00373054505 -0.000295128149 0.198803961
      -0.00137680315 -1.23946393e-05 -0.0033472958 -0.000351384049
      -0.00262419181 -0.00250297901 -0.000132028857 -3.26435111e-06
      0.392518729 -2.10923474e-07 -3.38075409e-07 0.18261826 0.796887219
      -1.46850698e-05 -1.85069966e-05 -0.000209720049 -0.000431456487
      0.308378518 -0.000149625543 -9.43406558e-05 0.263679504
      -1.92689131e-05 0.019712206 -0.00014254573 -3.93571609e-05
      -1.59693209e-05 0.0126693472 -7.80447681e-06 0.00715724379
      -0.000250831683 0.0311588868 -0.000108076274 0.0897324458
      -0.000715586822 0.018145442 0.261605233 -1.67812857e-06
      -0.000119516328 -3.51635663e-06 -1.00679688e-06 -0.000194927357
      -3.63065647e-06 0.0187150091 0.33718726 0.580997944
      -2.42637852e-05 -0.000360488368 -9.07828289e-05 -4.17927986e-05
      -0.000503573334 0.0093089249 0.0615860932 -0.000272816978
      -0.000190588398 -2.93302364e-05 -0.000271168014 -6.21410663e-06</_>
    <_>
      0.924277484 -5.3176651 -0.00678635528 -0.0578736179
      -5.84464104e-08 -0.000190198523 -0.0131245051 -0.000397207681
      -0.00212081592 -2.87593593e-06 -1.47391956e-05 -2.92885346e-07
      -0.000108691209 -0.000351735187 -0.000226324351 8.82136536
      1.79752004 -0.00285629858 -0.00168394903 -0.000159453324
      -0.00112175639 -0.000794171821 -0.00466006808 0.111259118
      -1.22740385e-05 0.89459759 3.23509264 -7.8263256e-06
      -5.79881998e-05 -1.77776456e-05 -0.0139417248 -0.000209315098
      -0.00807506777 -0.00141625421 -0.000101854595 -0.000842855021
      -0.000240100751 -6.8292029e-05 -0.0103801284 -0.000247441931
      -0.000117332114 -0.00063781871 -0.00171545625 -0.000400931167
      -0.000718709955 -0.00163995917 -0.000545136689 2.01488352
      0.27839148 -0.022271391 -0.00197967049 -0.00022075481
      -3.09243183e-06 -0.00999985356 4.76357508 -0.0237326454
      -0.0810014829 -0.00379383401 -0.00291341264 -0.00507628126
      -0.000769349106 -0.000411287765 -0.000797302695 3.08983922
      -0.0191397909 -4.00123172e-05 -3.23935928e-05 -2.94128986e-05
      -0.00480242446 -0.0020421769 -0.000662701612 5.7710228
      -0.00169940363 -0.000102656646 -4.17465208e-06 -0.00099533645
      -2.27595319e-05 1.50577652 5.73586845 -0.00166739395
      -1.18383132e-05 -3.83773454e-07 -0.000279219908 2.73136616
      -0.0552609563 -0.000656641438 -0.007149179 -0.00913784746
      -8.22755192e-06 -0.00716620777 -0.00606970815 -0.000489166414
      -0.00515311211 -0.00583422184 5.01299095 -0.023765428
      -0.000730109226 -0.0218360927 -0.00588690815 -0.00244172546
      -5.77900064e-05 -0.00773869967 3.99848127 -1.10324129e-06
      -0.000106466701 -0.00100053975 4.97901583 -0.000121865407
      -3.09521929e-05 -0.00055012689 -0.000405739469 -0.00174041255
      -0.00111485017 -1.67848684e-05 -4.57218266e-05 -0.000749437662
      -6.5727761e-07 -2.59754393e-06 -0.000180951407 -4.81332609e-05
      -0.00872648507 -9.75898547e-06 -0.00678615691 -0.00076248165
      0.0550698712 -0.0094448654 -0.00345323491 -0.0230277423
      -0.0182478856 -0.00286154123 0.350634992 0.31430766
      -0.000102755781 -8.32849182e-05 0.00586529076 0.110725515
      0.184935823 -0.000134740811 0.0387953743 -5.80705046e-06
      -8.10398681e-09 0.266178787 -0.000939686201 -0.000200164664
      0.810613453 -0.00503801275 0.432782799 -2.07080739e-05
      -0.000278388296 -4.41236625e-06 -2.37737436e-06 0.165447295
      0.169585571 -0.00339604402 0.609230042 -1.01787987e-06 0.706639528
      -3.35139089e-06 -0.00135242136 0.980478466 -0.000662267732
      -0.00073294586 -0.000237682805 0.0462943465 0.275670201
      -4.40316726e-05 -0.000433462847 0.226604179 0.307358354
      -0.00192515249 -0.00034607813 0.104693927 0.143835634 0.214503631
      -0.00422111899 -0.00363170076 -0.000839628512 0.241373092
      -0.00138103694 -1.19461456e-05 -0.00353772286 -0.000770297425
      -0.00248951907 -0.00261375634 -0.00013169166 -3.22123105e-06
      0.404299647 -1.97570287e-07 -3.19310772e-07 0.1956404 0.745669723
      -1.46841503e-05 -1.85071385e-05 -0.000209682112 -0.00043163306
      0.308877409 -0.000149619431 -9.43389314e-05 0.264183104
      -1.92683601e-05 0.0198811032 -0.000142541161 -3.93559312e-05
      -1.59691299e-05 0.0120317712 -7.80430128e-06 0.00657849759
      -0.000250773795 0.0308153182 -0.000108150765 0.0900031477
      -0.000715488452 0.0177532434 0.262059867 -1.67853716e-06
      -0.000119510616 -3.51596236e-06 -1.01488661e-06 -0.000194902925
      -3.63062281e-06 0.018161606 0.338088274 0.582060337
      -2.42631195e-05 -0.000368834502 -9.07791473e-05 -4.17920419e-05
      -0.000503469608 0.00943877362 0.0618275702 -0.000272818288
      -0.000190559658 -2.93294725e-05 -0.000271943427 -6.21386835e-06</_>
    <_>
      1.01893055 -5.39123774 -0.00691357348 -0.0597190522
      -5.99745462e-08 -0.000209816499 -0.0132966209 -0.000431152643
      -0.00222033565 -3.16003684e-06 -1.54081408e-05 -2.98300222e-07
      -0.000113254129 -0.000372020906 -0.000228089877 9.09312248
      1.70976794 -0.00293396437 0.0205743611 -0.000171095468
      -0.00116623833 -0.000827733136 -0.00480731111 0.0136836059
      -1.28973843e-05 0.707345426 3.14464831 -8.95774247e-06
      -6.03869375e-05 -1.88516988e-05 -0.0130572617 -0.000217318244
      -0.0104849953 -0.00141360355 -0.000105771083 -0.00088222581
      -0.00024297151 -7.05466518e-05 -0.0106065664 -0.000248435506
      -0.000127807871 -0.000685893407 -0.00173467037 -0.000409275293
      -0.000588883471 -0.0018222424 -0.000534454128 2.23607016
      0.139861047 -0.0243827458 -0.00204340904 -0.000338712591
      -3.38500149e-06 -0.0102930116 4.92898655 -0.0250096675
      -0.0825297236 -0.00386645249 -0.00276698126 -0.00520084985
      -0.000885322283 -0.000393160619 -0.000864912756 3.02511311
      -0.0215295553 -4.0771396e-05 -3.53295072e-05 -3.09005263e-05
      -0.00494994828 -0.00204525655 -0.000689052045 5.88284254
      -0.00174327462 -0.000109643726 -4.71561543e-06 -0.00102603168
      -2.33971205e-05 1.38770902 5.91326809 -0.00174413575
      -1.2274626e-05 -4.24806814e-07 -0.000302073313 2.79199696
      -0.0560059696 -0.000723651261 -0.00886699837 -0.00960235484
      -8.47444517e-06 -0.0074211983 -0.00642150035 -0.000509077974
      -0.00551432185 -0.00617141137 4.88511562 -0.024315767
      -0.000702141901 -0.0229601935 -0.00602527196 -0.00251364801
      -6.0031678e-05 -0.00792366453 3.94607449 -1.17569368e-06
      -0.00011140907 -0.00105699536 5.11535931 -0.000126564642
      -3.23340064e-05 -0.000553238147 0.0634723529 -0.0018633767
      -7.91578568e-05 -1.76469657e-05 -4.92736544e-05 -0.000741543889
      -6.99684108e-07 -2.62679623e-06 -0.000184630524 -4.99359267e-05
      -0.00888931938 -9.70483416e-06 -0.0070856004 -0.000744808349
      -0.00135382859 -0.00970085617 -0.00365062733 -0.0237235427
      -0.0202705227 -0.00331071345 0.350332975 0.31866008 -0.00010290496
      -8.20898276e-05 -4.4490469e-05 0.108141758 0.174343377
      -0.0001345083 0.0493013188 -5.83786641e-06 -7.79442821e-09
      0.275124729 -0.000984291313 -0.000201131304 0.815197408
      -0.00521468231 0.429334939 -2.06012919e-05 -0.000279745029
      -4.41227985e-06 -2.36374535e-06 0.154922038 0.171160474
      -0.00349314301 0.607684851 -1.01102046e-06 0.7026667
      -3.32722834e-06 -0.00132409181 0.98796922 -0.000805277436
      -0.000804192852 -0.000286895345 0.038351059 0.275521189
      -4.39712458e-05 -0.000434517104 0.22873342 0.310013354
      -0.00195111684 -0.00034734013 0.110107578 0.142523289 0.224096656
      -0.00427797204 -0.0035748966 -0.000845953706 0.250675917
      -0.00138786191 -1.18989974e-05 -0.00356521783 -0.000748785213
      -0.00254800729 -0.00263042632 -0.000131968714 -3.20789786e-06
      0.40531376 -1.94514143e-07 -3.16685259e-07 0.19677721 0.743507802
      -1.46884258e-05 -1.85126792e-05 -0.000209650883 -0.000431318767
      0.309246302 -0.000149632106 -9.43509876e-05 0.264381945
      -1.92726966e-05 0.019660227 -0.000142549674 -3.93626033e-05
      -1.59730025e-05 0.0113084763 -7.80577739e-06 0.00607272238
      -0.000250657002 0.0297729969 -0.000108164735 0.0899082869
      -0.000714273599 0.0183395594 0.262320936 -1.67608641e-06
      -0.000119521595 -3.51790277e-06 -1.00267414e-06 -0.000194859254
      -3.63165668e-06 0.0172684304 0.337464899 0.581797719
      -2.42696442e-05 -0.000365872751 -9.07952999e-05 -4.17990959e-05
      -0.000502776355 0.00928093679 0.0619574301 -0.000272668229
      -0.000190540319 -2.93339217e-05 -0.000271112629 -6.21532763e-06</_>
    <_>
      0.859899938 -5.61536169 -0.00697373133 -0.0582980253
      -5.93480642e-08 -0.000199530041 -0.0135117769 -0.000431341265
      -0.00210190844 -3.40904421e-06 -1.57086251e-05 -3.05878785e-07
      -0.000118567885 -0.000374864525 -0.000239928602 8.8575182
      2.17625785 -0.00296069914 -0.00518865557 -0.000175494395
      -0.00117144175 -0.000830034027 -0.00478372071 0.157046527
      -1.3798538e-05 1.19011247 3.62120366 -9.35552362e-06
      -6.1735358e-05 -1.84478668e-05 -0.0171632487 -0.000212037761
      -0.00894310419 -0.00153264985 -0.00010953116 -0.00086366944
      -0.000245351839 -7.6788172e-05 -0.0112778135 -0.000272758974
      -0.000121653189 -0.000672411174 -0.00184195011 -0.000385578111
      -0.000180961593 -0.00162820006 -0.000546268828 1.81712997
      0.270607352 -0.0219833087 -0.00215905253 -0.000207044519
      -3.39677922e-06 -0.0100814626 4.60731268 -0.0244073346
      -0.0816612616 -0.00399413565 -0.00374304131 -0.00525132427
      -0.000838626525 -0.000355590339 -0.000830173318 3.41729999
      -0.0166781805 -3.99591408e-05 -3.45468688e-05 -3.26544905e-05
      -0.00494308537 -0.00216677925 -0.000680196565 5.82702684
      -0.00178210496 -0.000108076776 -4.38827146e-06 -0.00105416344
      -2.50759131e-05 1.86799371 5.86936569 -0.00170666853
      -1.24722601e-05 -4.53167161e-07 -0.000279203465 2.74773645
      -0.0552151389 -0.000708082225 -0.00764360791 -0.0108500421
      -8.64742287e-06 -0.00731219491 -0.0060392106 -0.000519446854
      -0.00531708123 -0.00591131253 5.54357815 -0.024784958
      -0.000730972271 -0.0223552659 -0.00607851334 -0.00256717531
      -6.67183922e-05 -0.00807512365 4.37695694 -1.20465745e-06
      -0.000115545248 -0.00102745765 4.6887455 -0.000135660666
      -3.29259274e-05 -0.000580018735 -0.00114894111 -0.00182986027
      -0.00206040801 -1.74596626e-05 -4.93455045e-05 -0.000846281939
      -7.6354695e-07 -2.85124315e-06 -0.000200189534 -4.93747684e-05
      -0.009269014 -1.04404226e-05 -0.00679209689 -0.000863676483
      0.366817206 -0.00951170921 -0.00372491195 -0.0236287899
      -0.0162405837 -0.003276326 0.34465915 0.302143872 -0.000100634927
      -8.43567177e-05 0.0585019514 0.0527341366 0.229207337
      -0.000136111077 -2.55728137e-05 -5.51883568e-06 -1.07190745e-08
      0.282700837 -0.00111237064 -0.000197322108 0.735002518
      -0.00434512738 0.422084928 -2.17827164e-05 -0.000271378056
      -4.2547158e-06 -2.4999415e-06 0.222311318 0.159741268
      -0.0034658052 0.64000088 -1.07841015e-06 0.687067568
      -3.53668747e-06 -0.000658069679 0.89535594 0.0132710189
      -0.000317265833 -0.00013139419 0.0838162154 0.295766979
      -4.38419083e-05 -0.000419942779 0.241459534 0.311395675
      -0.00151885091 -0.000334106444 0.121157669 0.223006636 0.161051989
      -0.00379541307 -0.00348190987 -0.000441615499 0.19898048
      -0.00136329141 -1.24276849e-05 -0.00333017646 -0.000236459149
      -0.00261015771 -0.00249962998 -0.00013089407 -3.28481542e-06
      0.378834605 -2.11147395e-07 -3.41870617e-07 0.191727892
      0.772536814 -1.46851235e-05 -1.85086301e-05 -0.000209667342
      -0.000431580323 0.30906117 -0.00014962173 -9.43418199e-05
      0.26432237 -1.92694133e-05 0.0198513903 -0.000142542631
      -3.93574846e-05 -1.59701231e-05 0.0117304102 -7.80466144e-06
      0.00634499639 -0.000250732963 0.0304795019 -0.00010816718
      0.0900242627 -0.000715149916 0.0178419277 0.262207329
      -1.67795918e-06 -0.000119512544 -3.51640801e-06 -1.01305193e-06
      -0.00019488718 -3.63089089e-06 0.0178294852 0.338077188
      0.582173049 -2.42647311e-05 -0.000369476737 -9.07827925e-05
      -4.17937808e-05 -0.000503268267 0.00941913016 0.0619034022
      -0.000272778794 -0.000190549603 -2.93305184e-05 -0.000271855766
      -6.2142135e-06</_>
    <_>
      0.829060256 -5.3776021 -0.00708333589 -0.0589445904
      -5.96521303e-08 -0.000207399164 -0.0137655949 -0.000470492872
      -0.00210392196 -3.96107316e-06 -1.65733727e-05 -3.05388227e-07
      -0.000123949998 -0.000389182009 -0.000237969653 9.13035393
      2.03663826 -0.00306195696 -0.00452213595 -0.000180483868
      -0.00119441876 -0.000858365849 -0.00496435398 0.0839164853
      -1.53029468e-05 1.00234854 3.52646804 -9.65009622e-06
      -6.37904595e-05 -1.92333282e-05 -0.0177124459 -0.000215702108
      -0.0110897506 -0.00154283538 -0.000111971851 -0.000879921252
      -0.000238706794 -8.0587437e-05 -0.0111307735 -0.00028986804
      -0.00012911814 -0.000681077363 -0.00189724844 -0.000344617554
      -0.000685155508 -0.00177746499 -0.000563979091 1.92204809
      0.191016167 -0.0231083538 -0.00227571116 -0.00020795835
      -3.8962653e-06 -0.0103159165 4.58297682 -0.0243659485
      -0.0851166099 -0.00404111668 -0.00448987307 -0.00536355702
      -0.000905638037 -0.000369623711 -0.00091270078 3.29470682
      -0.0188632011 -3.80978818e-05 -3.68063811e-05 -3.43467e-05
      -0.00499099493 -0.0021616898 -0.00067210308 5.82602978
      -0.00184806925 -0.000110813526 -4.59316016e-06 -0.00105004653
      -2.46266809e-05 1.67912412 6.23553944 -0.0017753198
      -1.30522667e-05 -5.16211401e-07 -0.00030329384 2.78435659
      -0.0552313551 -0.000752942986 -0.00934697594 -0.0120368525
      -8.93527977e-06 -0.00768355513 -0.00618790975 -0.000544819224
      -0.00549679156 -0.00592647353 5.31684399 -0.0251356717
      -0.000721120508 -0.0228525903 -0.0063538244 -0.00259159808
      -7.2564173e-05 -0.00849712826 4.21015549 -1.32452271e-06
      -0.000120170182 -0.00102681282 4.73171043 -0.000146478356
      -3.26035224e-05 -0.000595482124 -0.00394258834 -0.00194553798
      -0.00130441377 -1.84202963e-05 -5.19491296e-05 -0.000833950005
      -8.13577685e-07 -2.97222596e-06 -0.000197554938 -5.08985431e-05
      -0.00945181306 -1.05291501e-05 -0.00713131577 -0.000885245507
      0.215338171 -0.00953327119 -0.0039300113 -0.0228999779
      -0.0174888056 -0.00330872764 0.353234142 0.306345671
      -0.000101359277 -8.31906655e-05 0.0409188569 0.0632219613
      0.20457758 -0.00013624951 0.0313226953 -5.62388777e-06
      -9.65664171e-09 0.309539199 -0.00117392663 -0.000200669252
      0.754859805 -0.00453939242 0.418351591 -2.13922376e-05
      -0.000275654485 -4.31852141e-06 -2.44337002e-06 0.19863373
      0.166142151 -0.00375858392 0.63202095 -1.053093e-06 0.679983795
      -3.44908881e-06 -0.00075967767 0.917061925 -0.000200182491
      -0.00040234832 -0.00025089804 0.0690104365 0.282036692
      -4.39299765e-05 -0.000426121609 0.235332221 0.31960547
      -0.0016052234 -0.000340945931 0.114471868 0.215343773 0.196256042
      -0.00400114758 -0.00354453945 -0.00054738723 0.215682775
      -0.00138068467 -1.2294021e-05 -0.00341454195 -0.000318904
      -0.00275811041 -0.0025648491 -0.000132213798 -3.24795587e-06
      0.386220068 -2.05335354e-07 -3.31694167e-07 0.195079029
      0.770153522 -1.46877946e-05 -1.85115914e-05 -0.00020966446
      -0.000431343244 0.309075117 -0.000149630912 -9.43490304e-05
      0.264242858 -1.92719781e-05 0.0196692646 -0.000142548961
      -3.93615737e-05 -1.59723022e-05 0.0115750059 -7.80553091e-06
      0.00628561527 -0.000250690879 0.0300428476 -0.000108147186
      0.0898727998 -0.000714525173 0.0183040798 0.262179375
      -1.67647079e-06 -0.00011952065 -3.51761173e-06 -1.00336558e-06
      -0.000194872497 -3.63146614e-06 0.0175511688 0.337405622
      0.581635833 -2.42685328e-05 -0.000364785548 -9.07929498e-05
      -4.1797899e-05 -0.000502929674 0.00928559341 0.0618843287
      -0.000272696634 -0.000190549792 -2.93332268e-05 -0.000271117722
      -6.21509707e-06</_>
    <_>
      0.94704026 -5.18070078 -0.00683759432 -0.0597498864
      -6.01865366e-08 -0.000208003883 -0.0131422123 -0.000454533903
      -0.00216240878 -3.7504019e-06 -1.6168342e-05 -2.91476994e-07
      -0.000117503827 -0.000379038072 -0.000223340496 9.17593288
      1.64404476 -0.00297268084 -0.00112795201 -0.000170083804
      -0.00117930863 -0.000827887619 -0.00483133178 0.0445251688
      -1.43567386e-05 0.691315889 3.11742711 -8.6399732e-06
      -6.18699632e-05 -1.89815146e-05 -0.0148377474 -0.000210349783
      -0.011796901 -0.00141363381 -0.000104817926 -0.000874626101
      -0.000237309883 -7.64229044e-05 -0.0119717475 -0.000269249285
      -0.000130211323 -0.000686389685 -0.00175137352 -0.000372391107
      -0.000500508177 -0.00180314016 -0.000539731467 2.17710924
      0.0996104851 -0.0237269923 -0.00210663234 -0.000211771418
      -3.67383382e-06 -0.0102549661 4.77821064 -0.024196513
      -0.0844132751 -0.00382921775 -0.00488376711 -0.00521746185
      -0.000905438268 -0.000351071241 -0.000900049927 3.03327298
      -0.0220293254 -3.85915264e-05 -3.55772427e-05 -3.39178187e-05
      -0.0048650736 -0.0020550862 -0.000684516737 5.92054319
      -0.00176290853 -0.000111659887 -4.56560656e-06 -0.00101481308
      -2.43009781e-05 1.3379792 6.18337631 -0.00174885732
      -1.26942059e-05 -4.97883036e-07 -0.000297331135 2.85489535
      -0.056489028 -0.000759878487 -0.00947757624 -0.0120590692
      -8.61425087e-06 -0.00744844228 -0.00624427199 -0.000511038292
      -0.00547135156 -0.00599414436 4.75105762 -0.0239608139
      -0.000714390422 -0.0229133815 -0.00605244702 -0.00253077829
      -6.73810937e-05 -0.00783811696 3.8346765 -1.26729822e-06
      -0.000116351141 -0.00101961393 4.9010911 -0.000134147223
      -3.26071095e-05 -0.000556229206 -0.00220761774 -0.00190403231
      -0.000615443452 -1.809694e-05 -4.99204762e-05 -0.000766653102
      -7.04305933e-07 -2.79020423e-06 -0.000186214995 -4.90669008e-05
      -0.00889930315 -9.78986373e-06 -0.00707128923 -0.000793219253
      -0.000874399615 -0.00959016476 -0.00362918689 -0.0230365433
      -0.0203346442 -0.00315571413 0.350865126 0.302838087
      -0.000102403908 -8.29867349e-05 0.0267062522 0.0697860122
      0.192342177 -0.000135682814 0.0497591943 -5.77316996e-06
      -8.36086667e-09 0.298411489 -0.00112656225 -0.000203262898
      0.782898366 -0.00479565095 0.419502407 -2.08535184e-05
      -0.000280111301 -4.41093061e-06 -2.37920881e-06 0.181997672
      0.175335258 -0.00380370277 0.610326648 -1.02269678e-06 0.683603704
      -3.35334153e-06 -0.00106235594 0.950731158 -0.000631865463
      -0.000541457674 -0.000321888947 0.0427926481 0.267790407
      -4.41483717e-05 -0.000433917856 0.227750689 0.309766442
      -0.00171184517 -0.000349023001 0.100839727 0.186324388 0.232472777
      -0.00415731687 -0.00361043354 -0.000732526823 0.235163987
      -0.00140248658 -1.2052592e-05 -0.00350332283 -0.000454901223
      -0.00277073612 -0.00261160848 -0.000133092719 -3.21547077e-06
      0.396476984 -1.99091076e-07 -3.20207562e-07 0.203479394
      0.756369114 -1.46849006e-05 -1.85079698e-05 -0.000209681384
      -0.000431566237 0.308880448 -0.000149622021 -9.43409541e-05
      0.264159769 -1.92690804e-05 0.019829452 -0.000142542951
      -3.93570808e-05 -1.59697429e-05 0.0119893923 -7.80454502e-06
      0.00656301528 -0.000250762125 0.0306930616 -0.000108144981
      0.0899598897 -0.000715313538 0.0178843066 0.262051165
      -1.67811959e-06 -0.000119512901 -3.51630092e-06 -1.0121579e-06
      -0.000194898865 -3.63078425e-06 0.0180844031 0.337897331
      0.581907094 -2.42641872e-05 -0.000367495028 -9.07820067e-05
      -4.17931988e-05 -0.000503374846 0.00940088369 0.0618216693
      -0.000272795209 -0.000190559746 -2.93302346e-05 -0.000271734229
      -6.21411664e-06</_>
    <_>
      0.778199017 -5.08415461 -0.00726838829 -0.0596768782
      -6.2699705e-08 -0.000218243964 -0.0137791224 -0.000490457751
      -0.00220965361 -3.94496328e-06 -1.68559909e-05 -3.05767855e-07
      -0.000123900827 -0.000390648318 -0.000239789326 9.3219614
      1.6841718 -0.00313743111 -0.00244912738 -0.00018246581
      -0.00121533929 -0.000885116169 -0.00514164381 0.00817231089
      -1.51876466e-05 0.659791052 3.16903996 -9.05531942e-06
      -6.32054507e-05 -1.95764678e-05 -0.0170229133 -0.000223577561
      -0.0130448267 -0.00150015636 -0.000112277863 -0.000909328053
      -0.000241109519 -7.99603731e-05 -0.0123091731 -0.000285282469
      -0.000136348404 -0.000706625113 -0.00190943724 -0.000372777053
      -0.000389401277 -0.00187903014 -0.00055906229 2.06596851
      0.139301628 -0.0256219879 -0.00228417432 -0.000364556501
      -3.85647536e-06 -0.0106751854 4.60285139 -0.0249720644
      -0.0880697593 -0.00408117939 -0.00534860045 -0.00551710464
      -0.000920179707 -0.000393502676 -0.000960433623 3.07298112
      -0.0228123013 -3.8744125e-05 -3.81875689e-05 -3.41941013e-05
      -0.00515136309 -0.00215181103 -0.000678355806 5.93024731
      -0.00185680878 -0.000119836775 -5.14213025e-06 -0.00105104805
      -2.48567521e-05 1.37347758 6.26351261 -0.00184871699
      -1.30673843e-05 -5.12697682e-07 -0.000327836868 2.72143865
      -0.0556455851 -0.000793505053 -0.0100138662 -0.0123397587
      -9.18579826e-06 -0.00775587047 -0.00639714301 -0.000554098224
      -0.00579307647 -0.00614504516 4.79955196 -0.0250189602
      -0.00072309922 -0.0228051115 -0.00642042328 -0.00266758562
      -7.08293883e-05 -0.00822275877 3.90291929 -1.2884733e-06
      -0.000122955913 -0.00105008751 4.75473642 -0.000143756683
      -3.30045114e-05 -0.000590565207 -0.00399354286 -0.00202998333
      0.0156808365 -1.90548762e-05 -5.39606845e-05 -0.000853400677
      -7.52065091e-07 -2.95837867e-06 -0.000199396236 -5.26460026e-05
      -0.00939390901 -1.04256669e-05 -0.00731118303 -0.000854938931
      -0.00119741331 -0.00960672088 -0.00403770572 -0.0233400837
      -0.0201588795 -0.00342871784 0.350240022 0.303279907
      -0.000102698286 -8.22853181e-05 0.00831560045 0.0634307414
      0.180434376 -0.000135270515 0.0658550933 -5.81852419e-06
      -7.94704214e-09 0.309079587 -0.00121595117 -0.000204093449
      0.788775623 -0.005073098 0.416694045 -2.06782988e-05
      -0.000281209213 -4.40998065e-06 -2.36533629e-06 0.170192271
      0.165352777 -0.00397000415 0.606301129 -1.01434296e-06 0.681248486
      -3.32869513e-06 -0.00116235553 0.963361681 -0.00088115118
      -0.000618354417 -0.00042773498 0.0350024104 0.260341287
      -4.41592747e-05 -0.000434666261 0.227048427 0.306930512
      -0.00182144449 -0.000351629162 0.106392711 0.190332532 0.261719435
      -0.00424934039 -0.00351497484 -0.000669536355 0.244963065
      -0.00141444395 -1.19710621e-05 -0.00353980111 -0.000415085029
      -0.00283917785 -0.00262388168 -0.000133065623 -3.20351432e-06
      0.403114468 -1.96259307e-07 -3.16923604e-07 0.208468884
      0.759780347 -1.46852963e-05 -1.850843e-05 -0.000209680249
      -0.000431532826 0.308891356 -0.000149623316 -9.43420309e-05
      0.264156461 -1.92694679e-05 0.019804541 -0.000142543839
      -3.9357692e-05 -1.59700739e-05 0.0119542107 -7.80467599e-06
      0.00654358417 -0.000250754587 0.0306200963 -0.000108143264
      0.0899415463 -0.000715215516 0.0179480314 0.262054861
      -1.67789722e-06 -0.000119514043 -3.51647964e-06 -1.01080457e-06
      -0.000194896158 -3.63087247e-06 0.0180319212 0.337810487
      0.581843436 -2.4264762e-05 -0.000366925815 -9.07835056e-05
      -4.17938209e-05 -0.000503320829 0.00938271917 0.0618230775
      -0.000272782549 -0.000190559265 -2.93306366e-05 -0.000271634839
      -6.21424851e-06</_>
    <_>
      0.842899978 -5.15280104 -0.0070333248 -0.0601096675
      -6.05390937e-08 -0.000215037609 -0.0135063101 -0.000451138127
      -0.0022073742 -3.55360157e-06 -1.62329161e-05 -3.05489039e-07
      -0.000118411888 -0.000378872646 -0.000231322527 9.20275688
      1.76024163 -0.00302048982 -0.00140801759 -0.000176170171
      -0.00120648032 -0.000857029809 -0.00492969342 0.0603132583
      -1.41375267e-05 0.79110378 3.23612761 -8.91676245e-06
      -6.18730483e-05 -1.91452564e-05 -0.0155142648 -0.000218709232
      -0.0110213896 -0.00146203407 -0.000109705754 -0.000889933901
      -0.000244374212 -7.65358272e-05 -0.0114537738 -0.000267456926
      -0.000128512431 -0.000696287432 -0.00183572515 -0.000396896678
      -0.000128332074 -0.00178149343 -0.00055257685 2.19413137
      0.221594349 -0.0247563031 -0.00215872377 -0.000221180322
      -3.54030635e-06 -0.0104119144 4.66321039 -0.0248347018
      -0.0850375742 -0.00398942921 -0.0034122353 -0.00536156539
      -0.000909482595 -0.000359690224 -0.000889033137 3.11330533
      -0.0211505033 -4.07075022e-05 -3.62729916e-05 -3.31000992e-05
      -0.00506016845 -0.00212883344 -0.000684756495 5.82954979
      -0.00181050249 -0.000114841852 -4.80388735e-06 -0.00104736106
      -2.49933582e-05 1.48242974 6.07613659 -0.00178467121
      -1.27817802e-05 -4.70734875e-07 -0.00030587634 2.79912376
      -0.0564584211 -0.000752377789 -0.00818213634 -0.0107304156
      -8.78220271e-06 -0.00741397822 -0.00632618787 -0.000527783821
      -0.00561755802 -0.00607502228 4.92594147 -0.0246605519
      -0.000717831077 -0.0230145473 -0.00617362792 -0.0026002028
      -6.59815996e-05 -0.00796668883 3.97304416 -1.21972801e-06
      -0.000117705182 -0.00105313631 4.96951866 -0.00013554655
      -3.29271716e-05 -0.000569966563 -0.00248655886 -0.0019205258
      0.0327430293 -1.81808628e-05 -5.13965097e-05 -0.0008039315
      -7.12915437e-07 -2.77424078e-06 -0.000197408081 -5.07993791e-05
      -0.0091551831 -1.02605381e-05 -0.00716513721 -0.000809975492
      -0.000149344123 -0.00955330767 -0.00382447056 -0.0238516703
      -0.0194112659 -0.0033688338 0.355112046 0.315777123
      -0.000103436098 -8.26806572e-05 0.00875374675 0.0668646395
      0.166862279 -0.000134332498 0.0486840531 -5.90595982e-06
      -7.28226013e-09 0.274839878 -0.000930349459 -0.000203627176
      0.811850011 -0.0053446251 0.431427449 -2.04317566e-05
      -0.000281068613 -4.48310175e-06 -2.33872242e-06 0.162647963
      0.167842165 -0.0037378855 0.59049201 -9.98199312e-07 0.691146612
      -3.28415945e-06 -0.00143535191 0.994173408 -0.00113650784
      -0.000768396829 -0.000378427212 0.0188147128 0.253676683
      -4.41871853e-05 -0.000438088406 0.211020201 0.290314943
      -0.00182136474 -0.000358009565 0.0861267895 0.16233623 0.286512494
      -0.00435254769 -0.00340914028 -0.000901863328 0.25228548
      -0.00139881845 -1.18006301e-05 -0.00359309721 -0.000467057602
      -0.00280298083 -0.00264477893 -0.00013304915 -3.20242452e-06
      0.39964658 -1.93449992e-07 -3.11322481e-07 0.211905554 0.738773406
      -1.46892326e-05 -1.85131539e-05 -0.000209663995 -0.000431212859
      0.309067786 -0.000149635933 -9.43528867e-05 0.264186323
      -1.92733514e-05 0.0195684694 -0.000142552439 -3.93637711e-05
      -1.59734591e-05 0.011511527 -7.80599476e-06 0.00627098978
      -0.000250670273 0.0298228785 -0.000108134584 0.0897853076
      -0.000714198046 0.0185586065 0.262151241 -1.67567237e-06
      -0.000119525088 -3.51825906e-06 -9.98006954e-07 -0.000194865439
      -3.63177151e-06 0.0174205862 0.33702597 0.581321836 -2.4270561e-05
      -0.000362075778 -9.0798414e-05 -4.18001036e-05 -0.000502753712
      0.00921148993 0.0618673712 -0.000272653124 -0.00019055068
      -2.93346784e-05 -0.000270706631 -6.21557092e-06</_>
    <_>
      0.790277421 -4.84605742 -0.00697132805 -0.0584090948
      -6.15106259e-08 -0.00021268375 -0.0132508585 -0.000463685166
      -0.00219902839 -3.36106973e-06 -1.63022687e-05 -3.06974073e-07
      -0.000114754563 -0.00036937237 -0.000223447933 9.04400444
      1.5380758 -0.00300700311 0.247068688 -0.000174481684
      -0.00122408313 -0.000840886205 -0.00501351338 -0.000417058618
      -1.37058196e-05 0.579178214 3.03390884 -9.32671264e-06
      -6.12026488e-05 -1.92630032e-05 -0.012005073 -0.000220586895
      -0.0114863394 -0.00137335877 -0.000106145533 -0.000887763279
      -0.000247321441 -7.28928353e-05 -0.011207914 -0.000252989557
      -0.000137492738 -0.00070877478 -0.00175259053 -0.000389898662
      -0.000841487199 -0.00191644963 -0.000544363284 2.40523863
      0.185285896 -0.0258462559 -0.00207385351 -0.000349856389
      -3.59998489e-06 -0.0104849804 4.58543682 -0.025124995
      -0.0837638676 -0.00387980859 -0.00305984751 -0.00529237837
      -0.000888923591 -0.00041422894 -0.000924468681 2.92203617
      -0.0225857496 -4.05535829e-05 -3.73929834e-05 -3.14204372e-05
      -0.00499823131 -0.00201224047 -0.00070242642 5.77173042
      -0.00178817078 -0.000116784198 -4.86745876e-06 -0.00103510439
      -2.41838152e-05 1.23184502 5.97412109 -0.00181991933
      -1.26506457e-05 -4.39308565e-07 -0.000322713226 2.64018321
      -0.0536826514 -0.000754427165 -0.00893530156 -0.0104105696
      -8.59694137e-06 -0.00760197779 -0.00647161808 -0.000519340043
      -0.00575306034 -0.00617659511 4.60404778 -0.0243076552
      -0.000721750781 -0.022007579 -0.0062076645 -0.00255358964
      -6.16016769e-05 -0.00811196305 3.77010942 -1.22159508e-06
      -0.000115696937 -0.0010504676 5.04311752 -0.000131980865
      -3.31324227e-05 -0.000548884796 -2.81523899e-05 -0.00196666853
      0.0710474476 -1.85132321e-05 -5.20197063e-05 -0.000738675706
      -7.28679254e-07 -2.70235319e-06 -0.00018658358 -5.13479026e-05
      -0.0088968873 -9.79156994e-06 -0.0072982749 -0.000739726238
      -0.00247130985 -0.00970620848 -0.00382675277 -0.0231983867
      -0.0205431245 -0.00333807431 0.340255737 0.277074337
      -0.000101736819 -8.45510222e-05 -4.14313363e-05 0.048899401
      0.184376001 -0.000136198942 0.0517888293 -5.70278371e-06
      -9.01062958e-09 0.32180804 -0.00135131413 -0.000204573982
      0.760005414 -0.0047671278 0.410870969 -2.11626266e-05
      -0.000278680498 -4.38474444e-06 -2.40766303e-06 0.177595019
      0.160367593 -0.00376902055 0.592065334 -1.03651269e-06 0.65647614
      -3.40284259e-06 -0.00094255124 0.922311664 -0.000741647673
      -0.000381421356 -0.000417233066 0.0575235039 0.270328999
      -4.4106946e-05 -0.000434203743 0.227452308 0.311715186
      -0.00139868376 -0.000349408743 0.126552761 0.189147681 0.233030692
      -0.00406952761 -0.00379397837 -0.000643247738 0.244373426
      -0.0014190803 -1.21688936e-05 -0.00344901672 -0.000281300599
      -0.0027543758 -0.00256353547 -0.000132457048 -3.23630502e-06
      0.395213187 -2.04092316e-07 -3.25736295e-07 0.188001171
      0.767327368 -1.46920665e-05 -1.8516168e-05 -0.000209665217
      -0.00043095107 0.309028864 -0.000149645988 -9.43604464e-05
      0.264049768 -1.92760363e-05 0.0193617158 -0.000142559438
      -3.9368093e-05 -1.59757092e-05 0.0114212669 -7.80690243e-06
      0.00627333671 -0.00025063366 0.0294091292 -0.000108105698
      0.0895987898 -0.00071356952 0.0190800503 0.262073815
      -1.67410758e-06 -0.000119534008 -3.51953349e-06 -9.87245016e-07
      -0.000194853113 -3.63236404e-06 0.0171937086 0.336233586
      0.580652595 -2.42745245e-05 -0.000356304576 -9.08092115e-05
      -4.18044074e-05 -0.000502418319 0.00905922242 0.0618209615
      -0.000272568897 -0.000190554027 -2.9337536e-05 -0.000269860728
      -6.21650133e-06</_>
    <_>
      0.816677034 -4.98349905 -0.00701940758 -0.059776742
      -6.11101143e-08 -0.00021155033 -0.0133854104 -0.000453070737
      -0.00220126798 -3.52264283e-06 -1.62326123e-05 -3.05053334e-07
      -0.000117724332 -0.00037497413 -0.000228559293 9.20497131
      1.59362137 -0.00301578478 -0.00046074859 -0.000173340624
      -0.00119619875 -0.000848853204 -0.00493129855 0.0317902938
      -1.3906596e-05 0.631303608 3.06742787 -8.54432346e-06
      -6.15516838e-05 -1.9097688e-05 -0.0153222736 -0.000217076478
      -0.0118096592 -0.00142920576 -0.000107707252 -0.000890589436
      -0.000242312279 -7.5270058e-05 -0.0120663783 -0.000263034774
      -0.000131075227 -0.000685756037 -0.00181381544 -0.000390695175
      -0.000207000296 -0.00179498817 -0.000550098193 2.25697875
      0.186286122 -0.0253725722 -0.00212460896 -0.000162475626
      -3.50316532e-06 -0.0104715358 4.64781666 -0.0246097818
      -0.0859396607 -0.00393340271 -0.00417950703 -0.00534255384
      -0.000909954193 -0.000375319738 -0.000893794873 2.99008822
      -0.0226570927 -4.00021527e-05 -3.61442981e-05 -3.26779627e-05
      -0.00499438494 -0.00208893348 -0.000679834629 5.84848881
      -0.00180010812 -0.000115800402 -4.75124671e-06 -0.00103109784
      -2.44162056e-05 1.3022269 6.10603333 -0.00178717822
      -1.26802006e-05 -4.64601243e-07 -0.000310000352 2.75493121
      -0.0560579821 -0.000746929902 -0.00870133843 -0.0109848566
      -8.74876059e-06 -0.00741138216 -0.00638772547 -0.00052110519
      -0.00558733707 -0.00610484369 4.66313839 -0.0241971016
      -0.000718660769 -0.0226802602 -0.00615406781 -0.00257833744
      -6.49168142e-05 -0.00781913009 3.80738282 -1.22148958e-06
      -0.000116298383 -0.00104108185 4.98031759 -0.000133423571
      -3.25530345e-05 -0.000562716159 -0.00290908269 -0.00192001625
      0.057535708 -1.81495161e-05 -5.10287318e-05 -0.0007981534
      -6.91921628e-07 -2.790282e-06 -0.000193594169 -5.06425495e-05
      -0.00900890026 -1.0104286e-05 -0.00715601072 -0.000792280945
      -0.00154598884 -0.00955574866 -0.00372657832 -0.0236249845
      -0.0205184147 -0.00322032603 0.35556227 0.309354454
      -0.000103510196 -8.33750528e-05 -0.00014044113 0.0685074553
      0.156343907 -0.00013471047 0.0619409978 -5.92592914e-06
      -7.02804304e-09 0.286197126 -0.000981880934 -0.000205904114
      0.814110219 -0.00548947463 0.432242483 -2.02965584e-05
      -0.000281472865 -4.50261268e-06 -2.32045522e-06 0.14567554
      0.162963077 -0.00375304581 0.581889093 -9.90327749e-07 0.681988716
      -3.26171039e-06 -0.00151327206 1.00032151 -0.00130940462
      -0.000755147252 -0.000442525168 0.0158106536 0.249908477
      -4.41181292e-05 -0.000441442855 0.202906042 0.289082199
      -0.00173059991 -0.000360808073 0.0890401676 0.154146224 0.30130735
      -0.00442190142 -0.00358214788 -0.000981003745 0.264074266
      -0.00140635192 -1.17677237e-05 -0.00361813814 -0.000463466422
      -0.00289900741 -0.00265859906 -0.000132983841 -3.19133187e-06
      0.408001661 -1.92967704e-07 -3.0844356e-07 0.205723688 0.733549058
      -1.46892326e-05 -1.85131539e-05 -0.000209663995 -0.000431212859
      0.309067786 -0.000149635933 -9.43528867e-05 0.264186323
      -1.92733514e-05 0.0195684694 -0.000142552439 -3.93637711e-05
      -1.59734591e-05 0.011511527 -7.80599476e-06 0.00627098978
      -0.000250670273 0.0298228785 -0.000108134584 0.0897853076
      -0.000714198046 0.0185586065 0.262151241 -1.67567237e-06
      -0.000119525088 -3.51825906e-06 -9.98006954e-07 -0.000194865439
      -3.63177151e-06 0.0174205862 0.33702597 0.581321836 -2.4270561e-05
      -0.000362075778 -9.0798414e-05 -4.18001036e-05 -0.000502753712
      0.00921148993 0.0618673712 -0.000272653124 -0.00019055068
      -2.93346784e-05 -0.000270706631 -6.21557092e-06</_>
    <_>
      0.90475589 -5.03736639 -0.00697419746 -0.060334418 -5.98910148e-08
      -0.000208488666 -0.0134352995 -0.00044412745 -0.0021918132
      -3.36915627e-06 -1.59090996e-05 -3.049459e-07 -0.000114917362
      -0.000374702504 -0.000226277742 9.33625984 1.57596707
      -0.00297957473 0.0543730408 -0.000169578765 -0.00119046087
      -0.00082824839 -0.00489355717 -4.16178264e-05 -1.34634302e-05
      0.561823368 3.04212499 -8.82296081e-06 -6.07302245e-05
      -1.91880663e-05 -0.0145433433 -0.000218548274 -0.0111904666
      -0.0014142365 -0.000106654399 -0.000886799826 -0.000241542715
      -7.19778909e-05 -0.0111791668 -0.000250841462 -0.000131658744
      -0.000674589712 -0.00177373551 -0.000383653882 -0.000661658763
      -0.00182540505 -0.00055234012 2.34531355 0.17304197 -0.0257040262
      -0.00207479927 -0.000187960555 -3.52432562e-06 -0.0105158268
      4.81633425 -0.0248107333 -0.0852670297 -0.00388592016
      -0.00338869635 -0.00525586586 -0.000917218335 -0.000413541595
      -0.000892356213 2.94111109 -0.023078233 -4.02895275e-05
      -3.59816149e-05 -3.12732082e-05 -0.00491148094 -0.00202933024
      -0.00067728071 5.86111498 -0.00178299798 -0.000111717185
      -4.57316264e-06 -0.00100257923 -2.30880687e-05 1.22288013
      6.17663479 -0.00177596568 -1.25407723e-05 -4.42800911e-07
      -0.000310618634 2.75182414 -0.0563641638 -0.000707342231
      -0.00921880454 -0.0101043759 -8.58700605e-06 -0.00756864902
      -0.0065570185 -0.000514594722 -0.00553432433 -0.00611446053
      4.65186787 -0.024275016 -0.000716920767 -0.0232226923
      -0.00615909137 -0.00250653084 -6.19115526e-05 -0.00796966255
      3.79075265 -1.22451945e-06 -0.000113226422 -0.0010354548
      5.16214514 -0.000130413668 -3.2007516e-05 -0.000564225542
      -0.00227079145 -0.0019012423 0.0636253431 -1.78731862e-05
      -4.99754533e-05 -0.000750446459 -7.08958169e-07 -2.69162024e-06
      -0.000183812968 -5.03623196e-05 -0.00895706471 -9.85234055e-06
      -0.0072650495 -0.000750451582 -0.0022707358 -0.00970978756
      -0.00367810321 -0.023504369 -0.0211287253 -0.0031629242
      0.347958356 0.322796345 -0.000103645005 -8.25970201e-05
      -0.000197834961 0.0839037374 0.145936117 -0.000134447313
      0.0556761175 -5.94681978e-06 -6.69589539e-09 0.294706404
      -0.00113787327 -0.000207929013 0.829818428 -0.00555802044
      0.418798149 -2.01797902e-05 -0.000284444191 -4.50178959e-06
      -2.30220553e-06 0.149011046 0.167908892 -0.0038010485 0.573232234
      -9.82656957e-07 0.687997282 -3.23195536e-06 -0.00156104728
      1.00307584 -0.00135551719 -0.000869739044 -0.000497716712
      0.0144171715 0.255070418 -4.40082076e-05 -0.000441454642
      0.214215457 0.299451411 -0.00177968235 -0.00036449582 0.0925863162
      0.154721454 0.30005908 -0.0045062867 -0.00359378802 -0.00103505945
      0.270561755 -0.00141951046 -1.16980746e-05 -0.00364415464
      -0.00066305045 -0.00276841759 -0.00266663078 -0.000133385314
      -3.1757063e-06 0.406030566 -1.90022618e-07 -3.05034717e-07
      0.203080401 0.737819612 -1.46931197e-05 -1.85182744e-05
      -0.000209632752 -0.000430933986 0.309439659 -0.000149647225
      -9.43638952e-05 0.264401734 -1.92773168e-05 0.0193755776
      -0.000142560006 -3.93698538e-05 -1.59770207e-05 0.0108038113
      -7.80734536e-06 0.0057676211 -0.000250558805 0.0288398452
      -0.000108152242 0.0897151679 -0.000713070738 0.0190740973
      0.262420833 -1.67343649e-06 -0.00011953486 -3.52002462e-06
      -9.87245585e-07 -0.000194823588 -3.63272352e-06 0.0165616497
      0.336508602 0.581147254 -2.427654e-05 -0.000359878759
      -9.08130751e-05 -4.18065683e-05 -0.00050210749 0.00907423533
      0.0620025732 -0.000272514764 -0.000190531006 -2.93387402e-05
      -0.000269989832 -6.21690288e-06</_>
    <_>
      0.874958932 -4.78978634 -0.00704496726 -0.0607318394
      -6.30927559e-08 -0.000224138756 -0.0133192772 -0.000486984238
      -0.00224860106 -3.83798215e-06 -1.69104715e-05 -3.04912191e-07
      -0.000119793171 -0.000388139655 -0.000227224242 9.42780685
      1.36026633 -0.00307495776 0.2710796 -0.000182611475 -0.00122571271
      -0.00086733629 -0.0050861598 -0.000803060422 -1.46923294e-05
      0.346650034 2.83275771 -9.5337864e-06 -6.2869578e-05
      -2.02304582e-05 -0.0138281472 -0.000222506977 -0.0138064306
      -0.00139560085 -0.000109695939 -0.000915099867 -0.000239854446
      -7.57780581e-05 -0.0115903635 -0.000264002418 -0.000143646466
      -0.000726733473 -0.0018215602 -0.000381915481 -0.000406830048
      -0.00202514906 -0.000538051303 2.47353745 0.0353592709
      -0.0265834462 -0.00215307134 -0.000385837659 -3.91000231e-06
      -0.0106388265 4.69729567 -0.0252106115 -0.0875816718
      -0.00391267007 -0.00387887727 -0.00539495097 -0.000976431125
      -0.000384794286 -0.000978973811 2.81555438 -0.0255749896
      -3.98456868e-05 -3.86024476e-05 -3.32691707e-05 -0.00507202651
      -0.0020270485 -0.000697807351 5.94917536 -0.00183241616
      -0.000122270329 -5.25816267e-06 -0.00104151177 -2.44040657e-05
      1.0615983 6.30368662 -0.00186414295 -1.30022754e-05
      -5.04703166e-07 -0.00033628181 2.78679538 -0.0563279465
      -0.00083149178 -0.0102578569 -0.0118518723 -8.91899526e-06
      -0.00760084018 -0.00669114199 -0.000533080543 -0.00588807277
      -0.00633649807 4.3050909 -0.0243201274 -0.000705530227
      -0.0231971182 -0.00628556171 -0.00259380066 -6.69667206e-05
      -0.00810541585 3.58241725 -1.30259832e-06 -0.000123287013
      -0.00106327503 5.05038595 -0.000139986136 -3.31527553e-05
      -0.000562903995 -0.000997355324 -0.00206088019 0.186596245
      -1.97577829e-05 -5.38980421e-05 -0.000778214773 -7.35872675e-07
      -2.83921122e-06 -0.000187427664 -5.17455883e-05 -0.00893411972
      -9.78082426e-06 -0.0074339211 -0.000762986136 -0.00442715455
      -0.00967546832 -0.00386590837 -0.023260938 -0.0226932541
      -0.00350140943 0.340514392 0.313613385 -0.000103580904
      -8.4781801e-05 -0.000325880334 0.0675635114 0.142339125
      -0.000135012888 0.0599127486 -5.93660161e-06 -6.61316335e-09
      0.290854812 -0.000935859571 -0.000208486643 0.817387164
      -0.00570086483 0.42230624 -2.01421408e-05 -0.000282629451
      -4.52430049e-06 -2.28719432e-06 0.147437274 0.138366118
      -0.00362219149 0.549624324 -9.77168384e-07 0.662691176
      -3.22299161e-06 -0.00171168684 1.0121547 -0.00155664561
      -0.000847796386 -0.000600085128 0.0104325861 0.247598663
      -4.40226759e-05 -0.000445622951 0.189641148 0.276131421
      -0.00158944668 -0.000370449008 0.0848092735 0.167319536
      0.337308079 -0.00452700024 -0.00355605083 -0.00115480379
      0.270059586 -0.00142951484 -1.1660878e-05 -0.00366235035
      -0.000499770977 -0.00286002597 -0.00266248686 -0.000133175621
      -3.17477088e-06 0.406509072 -1.93228871e-07 -3.03244377e-07
      0.199346408 0.723525941 -1.46985567e-05 -1.85246172e-05
      -0.000209616323 -0.00043047755 0.309606552 -0.000149665095
      -9.43787527e-05 0.264369607 -1.92826283e-05 0.0190322474
      -0.000142572244 -3.93782284e-05 -1.59816063e-05 0.0102982856
      -7.80914615e-06 0.00548327714 -0.000250453566 0.0278125554
      -0.00010812968 0.0894647837 -0.000711713918 0.0199560598
      0.262485981 -1.67038161e-06 -0.000119550568 -3.52247912e-06
      -9.68859467e-07 -0.000194785724 -3.63393951e-06 0.0158159323
      0.335318685 0.580290198 -2.42844526e-05 -0.000352115108
      -9.08336951e-05 -4.18151358e-05 -0.000501358125 0.00882414915
      0.0620273426 -0.000272340199 -0.000190523584 -2.93442954e-05
      -0.000268624688 -6.21871823e-06</_>
    <_>
      0.807624161 -4.60017538 -0.0067291772 -0.0582991503
      -6.02315779e-08 -0.000208660509 -0.0128299212 -0.000471640669
      -0.00215230812 -3.6455192e-06 -1.59032697e-05 -2.89969762e-07
      -0.000112902577 -0.000368453155 -0.000215715758 9.01191616
      1.26944435 -0.00292801647 0.240127876 -0.000168442348
      -0.00114765414 -0.000822100323 -0.00482772011 -0.000355710392
      -1.39708491e-05 0.341724694 2.70945573 -8.65927632e-06
      -5.86946917e-05 -1.87139703e-05 -0.0132638514 -0.000210555023
      -0.0125342505 -0.00132525619 -0.000104527542 -0.000883756264
      -0.000228934397 -7.16273717e-05 -0.0114421472 -0.000255107268
      -0.000134929331 -0.000686556974 -0.00170623185 -0.00035571921
      -0.000723018486 -0.00185094087 -0.00051472598 2.37162066
      0.102676384 -0.0247947443 -0.00203947583 -0.000251960562
      -3.71167084e-06 -0.0102294022 4.53624773 -0.0234752093
      -0.0839449316 -0.00373037648 -0.0042171157 -0.00516632944
      -0.000907879439 -0.000386434229 -0.00092236069 2.70150876
      -0.0246011261 -3.74097217e-05 -3.59456571e-05 -3.15791804e-05
      -0.00482347095 -0.00193737191 -0.000660067191 5.74527454
      -0.0017462715 -0.000113311013 -4.8270872e-06 -0.000982837984
      -2.27448672e-05 0.956468642 6.06602383 -0.00175654911
      -1.21440244e-05 -4.79106518e-07 -0.000318377599 2.6992569
      -0.0546013117 -0.000770767394 -0.00954696909 -0.0111180684
      -8.5652573e-06 -0.00742309447 -0.00629675714 -0.000503008137
      -0.00550815789 -0.00603348436 4.13206387 -0.0231782924
      -0.000693961454 -0.021852009 -0.00599804008 -0.00246993662
      -6.4802538e-05 -0.0075694453 3.419245 -1.24565554e-06
      -0.000115761439 -0.000995655544 4.86760092 -0.000130256565
      -3.13471355e-05 -0.000537572952 -0.00303747528 -0.00192114839
      0.0652289242 -1.83987486e-05 -5.05760727e-05 -0.00072998926
      -6.67581844e-07 -2.71438239e-06 -0.000175919398 -4.8814356e-05
      -0.0085223997 -9.2901455e-06 -0.00711403461 -0.000731558248
      -0.00422191573 -0.00935087819 -0.00352123729 -0.0218756795
      -0.0219050944 -0.00307576451 0.322552621 0.288179725
      -0.000101574275 -8.52530793e-05 -0.000327378948 0.0657338127
      0.151977956 -0.000136392424 0.0489792228 -5.70176735e-06
      -8.83843931e-09 0.334148526 -0.00146561174 -0.000207454039
      0.77459681 -0.00501733832 0.389751375 -2.10572107e-05
      -0.000279681757 -4.40657141e-06 -2.38870007e-06 0.170238689
      0.14808245 -0.00363737135 0.565863729 -1.03021989e-06 0.641522348
      -3.37832603e-06 -0.00113296986 0.919645667 -0.00101266429
      -0.000417926465 -0.000532539445 0.0605359823 0.277827471
      -4.39025935e-05 -0.000436005765 0.229419425 0.309988439
      -0.00130925386 -0.000357464916 0.131545708 0.181408867 0.246642724
      -0.00416347291 -0.00394908944 -0.000862031186 0.265387952
      -0.00143501337 -1.21347675e-05 -0.0034654527 -0.000326047913
      -0.00264574843 -0.00255496078 -0.000131955938 -3.22967526e-06
      0.389556408 -2.03935699e-07 -3.23503542e-07 0.177929044 0.75368762
      -1.46971061e-05 -1.85220542e-05 -0.000209649923 -0.000430528133
      0.309184909 -0.000149662563 -9.4374227e-05 0.26402095
      -1.92809639e-05 0.0190432891 -0.000142570789 -3.93758601e-05
      -1.59799638e-05 0.0109509155 -7.80857317e-06 0.00600839406
      -0.000250535988 0.0284547769 -0.000108084838 0.0893667489
      -0.000712310721 0.0198983178 0.262135327 -1.67127519e-06
      -0.000119548575 -3.52180905e-06 -9.70212795e-07 -0.000194817942
      -3.63349181e-06 0.0165004544 0.335130513 0.579859138
      -2.42818605e-05 -0.000349110138 -9.082834e-05 -4.18123564e-05
      -0.000501723029 0.00882730074 0.0618443303 -0.000272406993
      -0.0001905471 -2.93426892e-05 -0.000268594944 -6.21818526e-06</_>
    <_>
      0.79523474 -4.69029856 -0.00679785712 -0.0584377572
      -6.04817316e-08 -0.000216282075 -0.0129400939 -0.000471621373
      -0.00219984446 -3.7013956e-06 -1.60537402e-05 -2.9292778e-07
      -0.000114765506 -0.000375730539 -0.00021974319 9.00547123
      1.35318387 -0.00295908167 0.250162721 -0.000172404791
      -0.00117351662 -0.000837938453 -0.00487265643 -0.000406173174
      -1.41131086e-05 0.410255939 2.8076911 -8.88090563e-06
      -5.93473887e-05 -1.92511343e-05 -0.0128261046 -0.000212122119
      -0.0120819593 -0.00134880119 -0.000107038613 -0.000891057774
      -0.000233387924 -7.32039625e-05 -0.0115743335 -0.000260135654
      -0.000136174553 -0.000702282297 -0.00173906668 -0.000369664194
      -0.000682348269 -0.00186374516 -0.000521464797 2.38287139
      0.10091906 -0.0249141734 -0.00207152287 -0.00033178294
      -3.75104923e-06 -0.0102643631 4.54248381 -0.0239815675
      -0.0846033618 -0.0037822919 -0.00410274835 -0.00522057898
      -0.000902120199 -0.000380789366 -0.000928661961 2.77352333
      -0.0243447721 -3.8504455e-05 -3.64632615e-05 -3.21459738e-05
      -0.00490138028 -0.00198482187 -0.000673045812 5.80024242
      -0.00176873547 -0.000115347873 -4.90861066e-06 -0.00101576187
      -2.35148491e-05 1.04507697 6.03635025 -0.00176794874
      -1.23853861e-05 -4.87595059e-07 -0.00031965028 2.74410009
      -0.0544571392 -0.000781374401 -0.00958493724 -0.0113546168
      -8.67554172e-06 -0.00742433732 -0.00626437878 -0.000511508842
      -0.00555928564 -0.00612228503 4.2940197 -0.0235392991
      -0.000707039668 -0.0218646061 -0.00605628407 -0.00251048105
      -6.59552024e-05 -0.00773951644 3.53364491 -1.27765338e-06
      -0.0001186421 -0.00102811598 4.85726738 -0.000133670823
      -3.19595783e-05 -0.00054613821 -0.00238550594 -0.00194296613
      0.0244962741 -1.88302765e-05 -5.11857615e-05 -0.000750426494
      -6.79446032e-07 -2.75955267e-06 -0.00018082741 -4.93632906e-05
      -0.00867254566 -9.46399632e-06 -0.00711201411 -0.000752283668
      -0.00369830127 -0.00946567114 -0.00365109253 -0.0224312078
      -0.0215544719 -0.0031955787 0.331770748 0.308525503 -0.00010286348
      -8.22394504e-05 -0.000391929963 0.0854056329 0.127843395
      -0.00013561931 0.0843725279 -5.87233581e-06 -7.20195192e-09
      0.331236959 -0.00137058343 -0.000208509489 0.821305811
      -0.00566532603 0.402790844 -2.03806103e-05 -0.000282903056
      -4.42864985e-06 -2.31692002e-06 0.138911262 0.156239107
      -0.00387783023 0.56891036 -9.94046786e-07 0.657639563
      -3.26659824e-06 -0.00148915255 0.980548859 -0.00136985781
      -0.000779500755 -0.000632112031 0.0373303145 0.260904342
      -4.3963053e-05 -0.000440452772 0.228530169 0.309166521
      -0.00178893527 -0.000361231854 0.11849077 0.166014135 0.30128625
      -0.00438499032 -0.00362665555 -0.000987697858 0.274788141
      -0.00143870583 -1.18537082e-05 -0.00361082819 -0.00044820644
      -0.00277928193 -0.0026449929 -0.000132825226 -3.17663739e-06
      0.411326408 -1.92856248e-07 -3.09409444e-07 0.194636777
      0.748450935 -1.46988477e-05 -1.85250101e-05 -0.000209613761
      -0.000430457352 0.309639096 -0.000149665953 -9.43795967e-05
      0.2643888 -1.92829284e-05 0.0190167092 -0.000142572811
      -3.93786868e-05 -1.59818774e-05 0.0102396235 -7.80924802e-06
      0.00544131547 -0.000250444864 0.0277311988 -0.000108131142
      0.0894591585 -0.000711627014 0.0199985057 0.262510061
      -1.67021528e-06 -0.000119551296 -3.52261122e-06 -9.68114477e-07
      -0.00019478242 -3.63401182e-06 0.0157446638 0.335278034
      0.580279708 -2.42849055e-05 -0.000351940602 -9.08348156e-05
      -4.18156269e-05 -0.000501307892 0.00881310739 0.062038593
      -0.000272329635 -0.000190521954 -2.93446028e-05 -0.000268568721
      -6.21881918e-06</_>
    <_>
      1.88259089 -9.36765194 -0.00891758967 8.07105064 -4.56763409e-08
      -0.00020218041 -0.01659289 -0.000424424623 -0.000954468211
      -1.94634868e-06 -1.96805922e-05 -6.12931842e-07 -0.000101968682
      -0.00026602557 -0.000327493617 -0.0698332936 3.2933445
      -0.00340239215 1.26808834 -0.000149218526 -0.00163526204
      -0.000863680325 -0.00519748544 -0.0147096897 -1.74916968e-05
      3.64680481 3.76975846 -2.02373194e-05 -7.02497127e-05
      -2.19163248e-05 -0.00643273862 -0.000215896638 -0.0128962351
      -0.00186480687 -0.000127974432 -0.000706120802 -0.00042110862
      -7.68316531e-05 1.26239395 -0.000348470581 -0.000129898064
      -0.000687226886 -0.00171436346 -0.000726221537 -0.00635346351
      -0.00192339183 -0.000667432556 3.27122402 5.83138084 1.60531235
      -0.00221207086 -0.00475727953 -1.65871154e-06 -0.0103470813
      -0.0555947088 -0.020786332 5.57759857 -0.00420091068 1.80764019
      -0.00597156864 -0.00140515657 -0.000996442162 -0.000573376892
      2.40080357 1.59951639 -5.43823116e-05 -4.39487339e-05
      -2.99849999e-05 -0.00669245282 -0.0022924419 -0.000846819428
      -0.019518083 -0.00217877724 -0.000110160705 -1.90025537e-06
      -0.00126122369 -3.04505065e-05 2.01155162 -0.0477085598
      -0.00159326463 -1.28128704e-05 -9.27168003e-07 -0.000289790129
      -0.0255085658 7.92376041 -0.000437286537 3.18938804 0.646532357
      -9.54890584e-06 -0.0125373397 -0.00368251931 -0.000536746869
      -0.00559254643 -0.00981737021 7.38350487 -0.0271795522
      -0.00145006774 5.86079645 -0.00840658508 -0.00290453318
      -8.01599308e-05 -0.00934033841 4.19334221 -1.78946743e-06
      -7.03069309e-05 -0.00164665503 -0.00307283993 -0.000159362564
      -4.73808796e-05 -0.000557203777 1.28582478 -0.00169545307
      -0.011152097 -2.15283872e-05 -0.00010836462 -0.00127789867
      -1.01759804e-06 -4.90240927e-06 -0.000313477125 -6.20577921e-05
      -0.0121409222 -1.4245712e-05 -0.00107196113 -0.00120374665
      0.711568654 -0.0128208064 -0.00372951152 -0.0302574579 1.69880688
      -0.00596581679 0.0887827128 0.349603176 -6.58173012e-05
      -6.40244762e-05 0.449037015 0.482124656 0.206171572 -0.00017441198
      0.039856337 -2.02972456e-06 -2.98694935e-08 0.305542409
      -0.000227451834 -0.000236562337 0.56465745 0.805526495
      -0.00335465604 -2.43925861e-05 -0.000205728124 -3.67031748e-06
      -2.79406345e-06 0.830611169 0.298950911 -0.00174992322
      -0.00141236046 -1.32095556e-06 -0.0012250999 -4.36115215e-06
      0.0299008917 0.0737748295 0.219341308 0.2571522 -0.00131733867
      0.262627184 0.887192428 -2.15850996e-05 -0.000302961416
      0.619455397 0.47322917 0.390326321 -0.000299353211 0.664168298
      0.104050472 -0.00373862428 -0.00303970627 -0.00494669657
      -0.00374424923 0.420764685 -0.00237056985 -1.71430056e-05
      -0.00278058206 -0.00180682621 0.184790447 -0.00245736097
      -0.00011937102 -2.96635585e-06 -0.000312227901 -1.94886169e-07
      -4.83527117e-07 -0.00127460517 0.577922404 -1.48037907e-05
      -1.86479701e-05 -0.000209280159 -0.000421684032 0.313069761
      -0.000150009728 -9.4666917e-05 0.263956219 -1.93856213e-05
      0.0124136917 -0.000142808261 -3.95404677e-05 -1.60706641e-05
      0.000201418996 -7.84407803e-06 -2.86556769e-06 -0.000248384109
      0.00767242163 -0.000107722924 0.0846984237 -0.000685312087
      0.0369751975 0.26395151 -1.61122932e-06 -0.000119853306
      -3.57000295e-06 -6.15327167e-07 -0.000194038817 -3.65755386e-06
      0.00107439607 0.312521011 0.564054251 -2.44379044e-05
      -0.000204295444 -9.12328687e-05 -4.1981395e-05 -0.000486750971
      0.00400441699 0.0626072139 -0.000268947391 -0.000190366598
      -2.9451965e-05 -0.000242384922 -6.25390476e-06</_>
    <_>
      1.81516838 -8.62732792 -0.00858174637 7.29008579 -4.24534292e-08
      -0.000212639599 -0.0161153059 -0.00042079328 -0.00104538933
      -2.3221337e-06 -1.96336678e-05 -6.21448237e-07 -0.000105632018
      -0.00028701534 -0.000324823952 -0.0651283041 3.41065431
      -0.00325592095 1.11851215 -0.000151161512 -0.00165495288
      -0.000891805394 -0.00492225355 -0.0139460731 -1.82769836e-05
      3.60832047 3.8260777 -2.00366012e-05 -6.88944565e-05
      -2.17630877e-05 -0.00686574262 -0.000205309552 -0.0143741267
      -0.00185696722 -0.000138672927 -0.000706979888 -0.000422776444
      -8.15585881e-05 1.0119909 -0.000371356262 -0.000122962854
      -0.000672985741 -0.0017754297 -0.000761261093 -0.00605709525
      -0.00182086613 -0.000657979224 3.56188154 5.40094519 1.55334485
      -0.00229835464 -0.00446446566 -1.70846988e-06 -0.0097645428
      -0.0544436201 -0.0211008061 5.25648117 -0.0041979677 1.70841753
      -0.00568093453 -0.00143348123 -0.000988369808 -0.000555873034
      2.44367909 1.62708676 -5.42836424e-05 -4.46931881e-05
