<?xml version="1.0"?>
<opencv_storage>
<opencv_ml_svm>
  <format>3</format>
  <svmType>EPS_SVR</svmType>
  <kernel>
    <type>RBF</type>
    <gamma>0.01</gamma></kernel>
  <C>1.</C>
  <p>0.001</p>
  <term_criteria><epsilon>0.001</epsilon>
    <iterations>3000</iterations></term_criteria>
  <var_count>235</var_count>
  <sv_total>56</sv_total>
  <support_vectors>
    <_>
      0.812060058 -5.61018419 -0.00745838508 -0.0557133742
      -6.70869582e-08 -0.000190577019 -0.0139134489 -0.000475456531
      -0.00220843079 -3.14495605e-06 -1.64990779e-05 -3.17780092e-07
      -0.000114858747 -0.00035880637 -0.000242955473 8.81208897
      1.74036229 -0.00313670235 -0.000935419754 -0.000179462164
      -0.0012345718 -0.00088216021 -0.00519795343 0.0136960782
      -1.31803645e-05 0.785523295 3.29068494 -8.95233279e-06
      -5.91425851e-05 -1.92091175e-05 -0.0130446777 -0.000222655421
      -0.0120558245 -0.00150473393 -0.000110665387 -0.000911801355
      -0.00024785439 -7.47236481e-05 -0.0110559603 -0.000270485732
      -0.000128992062 -0.000687742839 -0.00188949564 -0.000393718103
      -0.000437940151 -0.00170420879 -0.000574024394 2.14940071
      0.261428952 -0.0223310459 -0.00216623023 -0.000677769014
      -3.25868223e-06 -0.0107622128 4.64015055 -0.0253468845
      -0.082116276 -0.00415368192 -0.00220185774 -0.00562646659
      -0.000810386497 -0.000457835064 -0.000913736294 3.1369555
      -0.0210611057 -4.01538091e-05 -3.77580036e-05 -2.95260706e-05
      -0.00535087381 -0.00216419995 -0.000732229906 5.93408442
      -0.00185785722 -0.000120944016 -4.70326086e-06 -0.00103904668
      -2.57308657e-05 1.4492209 5.58591986 -0.00184126198
      -1.24185017e-05 -4.12638315e-07 -0.00032800177 2.79415321
      -0.0519458726 -0.000703769561 -0.00812578108 -0.0133669442
      -9.13791337e-06 -0.007773377 -0.0062360093 -0.000544483832
      -0.00572430016 -0.00609179074 5.03538418 -0.0252262261
      -0.000795191852 -0.0209172983 -0.00645277137 -0.00267012301
      -6.10960706e-05 -0.00822138693 4.15501022 -1.13938836e-06
      -0.000119818222 -0.00102360791 4.98375559 -0.000130368993
      -3.30926014e-05 -0.000586762908 0.26555565 -0.00190774351
      -0.00212949072 -1.90610317e-05 -5.33765015e-05 -0.000857801118
      -7.05373793e-07 -2.99390899e-06 -0.000197707166 -5.30516008e-05
      -0.00923232175 -1.06098596e-05 -0.00726158591 -0.000807140081
      -0.000867909694 -0.00994013157 -0.00383376749 -0.0229987893
      -0.0186945144 -0.00314188469 0.358294547 0.280801624
      -9.67564192e-05 -8.26191317e-05 0.0500361249 0.116362683
      0.467336476 -0.000140675271 -0.000981607824 -4.90087132e-06
      -1.58021329e-08 0.12286602 -0.00115440076 -0.000184895689
      0.670681894 -0.00346122216 0.471035331 -2.35644075e-05
      -0.000255174848 -3.80013125e-06 -2.82105225e-06 0.226293132
      0.08625561 -0.00223858887 0.738806248 -1.19882145e-06 0.794968784
      -3.99149621e-06 0.0126477536 0.847545505 0.203073919
      -0.00064793526 0.0684864298 0.167316988 0.33728525 -4.37991584e-05
      -0.000385738531 0.186837986 0.282125354 -0.00180000276
      -0.000290780037 0.177272364 0.227729544 -0.000729381747
      -0.00262659695 -0.0038712211 0.121654183 0.111308947
      -0.00125538581 -1.32500199e-05 -0.00305626588 -0.00196704385
      -0.00246429653 -0.00221755961 -0.000127498468 -3.39718304e-06
      0.404577881 -2.29746675e-07 -3.8964788e-07 0.147714034 0.860189557
      -1.46646025e-05 -1.84849687e-05 -0.000209719699 -0.000433327281
      0.308558702 -0.000149553554 -9.42858824e-05 0.264562786
      -1.92494426e-05 0.0211722478 -0.000142495817 -3.93259143e-05
      -1.59529445e-05 0.013464734 -7.79789116e-06 0.00726819038
      -0.000251112273 0.0342293717 -0.000108268949 0.0910222977
      -0.000720193726 0.014459677 0.262073874 -1.68946906e-06
      -0.000119452532 -3.50714595e-06 -1.08369454e-06 -0.000195022774
      -3.62634069e-06 0.0204793699 0.342730463 0.585625052
      -2.4235027e-05 -0.000400413031 -9.07049034e-05 -4.17615847e-05
      -0.000506041863 0.0103828926 0.0618682057 -0.000273431098
      -0.000190570499 -2.930958e-05 -0.000277134095 -6.20737501e-06</_>
    <_>
      0.825577438 -5.36069345 -0.00713530416 -0.0581548326
      -6.48040412e-08 -0.000209518475 -0.013579349 -0.000474707369
      -0.00221792865 -3.36836706e-06 -1.65999882e-05 -3.09887582e-07
      -0.000116480616 -0.000381207967 -0.000232298655 9.05229092
      1.72295034 -0.00310945138 0.070900768 -0.00017565742 -0.0012558212
      -0.000847279094 -0.00509379618 -0.000278586231 -1.37227134e-05
      0.702278495 3.25609589 -9.45214197e-06 -6.09392046e-05
      -1.99505012e-05 -0.013296946 -0.000220570713 -0.0115359398
      -0.00144283706 -0.000108815373 -0.000892861921 -0.000244594412
      -7.48016901e-05 -0.00981445797 -0.000265075796 -0.00013778804
      -0.000704132544 -0.00181356294 -0.00037271803 -0.000933462055
      -0.00190216594 -0.000559322769 2.37366033 0.194278598
      -0.0230919067 -0.00213495316 -0.000570511154 -3.7730465e-06
      -0.0106797274 4.71479702 -0.0255724154 -0.0837776735
      -0.00395662151 -0.00381418457 -0.00536096003 -0.000895220088
      -0.000468923972 -0.000931003771 3.06450939 -0.0221130084
      -4.03376398e-05 -3.89683628e-05 -3.10636315e-05 -0.00513253221
      -0.00207057525 -0.000720199081 5.93377781 -0.00184388913
      -0.000117174495 -4.78283755e-06 -0.00102271663 -2.47503831e-05
      1.36276948 5.96546936 -0.00183410465 -1.28066931e-05
      -4.32981068e-07 -0.000326247333 2.71013594 -0.0537230037
      -0.000734215078 -0.00915588625 -0.0126406867 -8.76260492e-06
      -0.00773904007 -0.00642538257 -0.000532057777 -0.00577927707
      -0.00626934506 4.96125412 -0.0248465054 -0.000747926591
      -0.0219379924 -0.00640280219 -0.00257325196 -6.26643669e-05
      -0.00841244962 4.06276703 -1.26674786e-06 -0.000118227392
      -0.00104412215 4.99355459 -0.000134316433 -3.34393408e-05
      -0.000569839962 0.184963107 -0.00196870579 -0.00114851526
      -1.92584885e-05 -5.40087131e-05 -0.000796674169 -7.71100872e-07
      -2.86791169e-06 -0.000191178522 -5.22795999e-05 -0.00911381096
      -1.00434263e-05 -0.00726603856 -0.000776662608 -0.00152682327
      -0.0100368466 -0.00382024213 -0.0233181249 -0.0199580211
      -0.00334537774 0.354888856 0.324484795 -0.000101599959
      -8.54986356e-05 0.0265926085 0.0933256745 0.271127224
      -0.000134675283 -0.00051049894 -5.56083751e-06 -1.11074563e-08
      0.196659982 -0.000906574016 -0.000188626116 0.739205003
      -0.00416029431 0.472716063 -2.19856393e-05 -0.000268184376
      -4.25137296e-06 -2.56643511e-06 0.232035562 0.141565025
      -0.00308475457 0.663357377 -1.09910843e-06 0.735746264
      -3.63585491e-06 -0.00097572431 0.922685027 0.0455730781
      -0.000903313048 0.0160620641 0.136254951 0.274491638
      -4.45202277e-05 -0.000412722438 0.208329976 0.294719487
      -0.0018332242 -0.000327907124 0.117446952 0.182407513 0.149334788
      -0.0035743278 -0.00340504618 0.00652044266 0.152735233
      -0.00130145531 -1.24032258e-05 -0.00328234257 -0.000702902151
      -0.00261687627 -0.00240516616 -0.000129658933 -3.33948606e-06
      0.408321023 -2.14411116e-07 -3.49839212e-07 0.188969418
      0.780821264 -1.46846605e-05 -1.85081572e-05 -0.000209666527
      -0.00043162459 0.30907619 -0.000149620057 -9.43405976e-05
      0.2643525 -1.92689804e-05 0.0198864043 -0.000142541467
      -3.93567825e-05 -1.59697647e-05 0.0117334761 -7.80451592e-06
      0.00633468479 -0.000250737823 0.0305376798 -0.000108172899
      0.0900577977 -0.000715247239 0.0177544802 0.262227595
      -1.67821361e-06 -0.000119511045 -3.5162002e-06 -1.01489593e-06
      -0.000194888722 -3.63079653e-06 0.0178551115 0.338215798
      0.582295835 -2.42640963e-05 -0.000370514172 -9.07810318e-05
      -4.17930896e-05 -0.000503319316 0.0094450172 0.0619147085
      -0.000272792124 -0.000190548613 -2.93300545e-05 -0.000272000761
      -6.21406298e-06</_>
    <_>
      0.770534813 -5.16309261 -0.00713330181 -0.0577070042
      -6.43717044e-08 -0.000210222293 -0.01356644 -0.000476336456
      -0.00220805337 -3.37397682e-06 -1.65709589e-05 -3.10770105e-07
      -0.0001163087 -0.000377216929 -0.000231622602 8.98938465
      1.65853047 -0.00310205063 0.132084981 -0.000174938454
      -0.00124489877 -0.000846629147 -0.00509846257 -0.000328779599
      -1.3735933e-05 0.651440203 3.18830109 -9.33607771e-06
      -6.08608752e-05 -1.97768386e-05 -0.0130489441 -0.000221187816
      -0.0116529586 -0.00143644528 -0.000108516986 -0.000892629207
      -0.00024376098 -7.43237033e-05 -0.00992691983 -0.000263660128
      -0.000138676885 -0.000702068966 -0.0018111401 -0.000369289395
      -0.000957613403 -0.00190558843 -0.000556705927 2.41116238
      0.197636366 -0.0233768355 -0.00213420065 -0.00054825854
      -3.77062815e-06 -0.0106557524 4.63082743 -0.025336029
      -0.0833542794 -0.0039542648 -0.00390727725 -0.00536045944
      -0.000894482015 -0.000470073166 -0.000934006355 3.01171017
      -0.0224121995 -3.99948221e-05 -3.88165536e-05 -3.08256422e-05
      -0.00512619177 -0.00205478375 -0.000710974447 5.89461231
      -0.00184648135 -0.000116983261 -4.77796084e-06 -0.00102027564
      -2.43862742e-05 1.30035055 5.93104267 -0.00183840923
      -1.27099056e-05 -4.3341484e-07 -0.000329195725 2.67367458
      -0.0531842522 -0.000733410823 -0.00912868697 -0.0123950178
      -8.77138518e-06 -0.00773980841 -0.00643762201 -0.000531833328
      -0.0057791071 -0.00624856865 4.84379673 -0.024724165
      -0.000742182659 -0.0217690002 -0.00640992401 -0.00256819604
      -6.25833563e-05 -0.00837185234 3.9780724 -1.25695249e-06
      -0.000117390817 -0.00104098429 4.98570967 -0.00013442467
      -3.31772317e-05 -0.000567716779 0.128748983 -0.00197506649
      -0.000975797127 -1.91086037e-05 -5.36895823e-05 -0.000793245388
      -7.64893002e-07 -2.84725388e-06 -0.000189558414 -5.23262352e-05
      -0.00907285139 -1.0034857e-05 -0.00727782166 -0.000773544656
      -0.00192241126 -0.010000322 -0.00381584349 -0.0231250022
      -0.0201833267 -0.0032956053 0.355024517 0.320088446
      -0.000101308971 -8.44920141e-05 0.0169774368 0.0968580917
      0.257743359 -0.000135308932 -0.00041209755 -5.53323343e-06
      -1.12320793e-08 0.220613241 -0.00126834272 -0.000192323729
      0.731114864 -0.00410702964 0.452047676 -2.21283317e-05
      -0.000270948542 -4.21688401e-06 -2.56588055e-06 0.233097166
      0.149954721 -0.00331059541 0.66799593 -1.10227916e-06 0.723704636
      -3.64204038e-06 -0.000737280701 0.900625348 0.0491869003
      -0.000917060999 0.0123832393 0.148783848 0.289122254
      -4.44162288e-05 -0.000413828559 0.225959957 0.31235224
      -0.00183054502 -0.000328366295 0.150062561 0.18088156 0.139168471
      -0.00355746876 -0.00349719846 0.0103388429 0.155569583
      -0.00132126687 -1.24891358e-05 -0.00325878919 -0.000754191657
      -0.00264051557 -0.00240020291 -0.000130401779 -3.33011872e-06
      0.403997034 -2.13920103e-07 -3.50538357e-07 0.176540792
      0.807302415 -1.46844277e-05 -1.85073477e-05 -0.000209685226
      -0.000431600289 0.308836818 -0.000149620668 -9.43396226e-05
      0.264133632 -1.92686002e-05 0.0198510997 -0.000142542049
      -3.9356346e-05 -1.596931e-05 0.0120741352 -7.80438131e-06
      0.00662375242 -0.000250775804 0.0308078565 -0.000108142514
      0.0899665952 -0.000715450209 0.0178271011 0.262019515
      -1.67839369e-06 -0.000119511722 -3.51608583e-06 -1.01350133e-06
      -0.000194903958 -3.63066852e-06 0.0181859359 0.337953955
      0.581925333 -2.42634596e-05 -0.00036770798 -9.07802387e-05
      -4.17924166e-05 -0.000503453077 0.00941626541 0.0618048385
      -0.00027281206 -0.00019056219 -2.93297398e-05 -0.000271815574
      -6.2139552e-06</_>
    <_>
      0.94704026 -5.18070078 -0.00683759432 -0.0597498864
      -6.01865366e-08 -0.000208003883 -0.0131422123 -0.000454533903
      -0.00216240878 -3.7504019e-06 -1.6168342e-05 -2.91476994e-07
      -0.000117503827 -0.000379038072 -0.000223340496 9.17593288
      1.64404476 -0.00297268084 -0.00112795201 -0.000170083804
      -0.00117930863 -0.000827887619 -0.00483133178 0.0445251688
      -1.43567386e-05 0.691315889 3.11742711 -8.6399732e-06
      -6.18699632e-05 -1.89815146e-05 -0.0148377474 -0.000210349783
      -0.011796901 -0.00141363381 -0.000104817926 -0.000874626101
      -0.000237309883 -7.64229044e-05 -0.0119717475 -0.000269249285
      -0.000130211323 -0.000686389685 -0.00175137352 -0.000372391107
      -0.000500508177 -0.00180314016 -0.000539731467 2.17710924
      0.0996104851 -0.0237269923 -0.00210663234 -0.000211771418
      -3.67383382e-06 -0.0102549661 4.77821064 -0.024196513
      -0.0844132751 -0.00382921775 -0.00488376711 -0.00521746185
      -0.000905438268 -0.000351071241 -0.000900049927 3.03327298
      -0.0220293254 -3.85915264e-05 -3.55772427e-05 -3.39178187e-05
      -0.0048650736 -0.0020550862 -0.000684516737 5.92054319
      -0.00176290853 -0.000111659887 -4.56560656e-06 -0.00101481308
      -2.43009781e-05 1.3379792 6.18337631 -0.00174885732
      -1.26942059e-05 -4.97883036e-07 -0.000297331135 2.85489535
      -0.056489028 -0.000759878487 -0.00947757624 -0.0120590692
      -8.61425087e-06 -0.00744844228 -0.00624427199 -0.000511038292
      -0.00547135156 -0.00599414436 4.75105762 -0.0239608139
      -0.000714390422 -0.0229133815 -0.00605244702 -0.00253077829
      -6.73810937e-05 -0.00783811696 3.8346765 -1.26729822e-06
      -0.000116351141 -0.00101961393 4.9010911 -0.000134147223
      -3.26071095e-05 -0.000556229206 -0.00220761774 -0.00190403231
      -0.000615443452 -1.809694e-05 -4.99204762e-05 -0.000766653102
      -7.04305933e-07 -2.79020423e-06 -0.000186214995 -4.90669008e-05
      -0.00889930315 -9.78986373e-06 -0.00707128923 -0.000793219253
      -0.000874399615 -0.00959016476 -0.00362918689 -0.0230365433
      -0.0203346442 -0.00315571413 0.350865126 0.302838087
      -0.000102403908 -8.29867349e-05 0.0267062522 0.0697860122
      0.192342177 -0.000135682814 0.0497591943 -5.77316996e-06
      -8.36086667e-09 0.298411489 -0.00112656225 -0.000203262898
      0.782898366 -0.00479565095 0.419502407 -2.08535184e-05
      -0.000280111301 -4.41093061e-06 -2.37920881e-06 0.181997672
      0.175335258 -0.00380370277 0.610326648 -1.02269678e-06 0.683603704
      -3.35334153e-06 -0.00106235594 0.950731158 -0.000631865463
      -0.000541457674 -0.000321888947 0.0427926481 0.267790407
      -4.41483717e-05 -0.000433917856 0.227750689 0.309766442
      -0.00171184517 -0.000349023001 0.100839727 0.186324388 0.232472777
      -0.00415731687 -0.00361043354 -0.000732526823 0.235163987
      -0.00140248658 -1.2052592e-05 -0.00350332283 -0.000454901223
      -0.00277073612 -0.00261160848 -0.000133092719 -3.21547077e-06
      0.396476984 -1.99091076e-07 -3.20207562e-07 0.203479394
      0.756369114 -1.46849006e-05 -1.85079698e-05 -0.000209681384
      -0.000431566237 0.308880448 -0.000149622021 -9.43409541e-05
      0.264159769 -1.92690804e-05 0.019829452 -0.000142542951
      -3.93570808e-05 -1.59697429e-05 0.0119893923 -7.80454502e-06
      0.00656301528 -0.000250762125 0.0306930616 -0.000108144981
      0.0899598897 -0.000715313538 0.0178843066 0.262051165
      -1.67811959e-06 -0.000119512901 -3.51630092e-06 -1.0121579e-06
      -0.000194898865 -3.63078425e-06 0.0180844031 0.337897331
      0.581907094 -2.42641872e-05 -0.000367495028 -9.07820067e-05
      -4.17931988e-05 -0.000503374846 0.00940088369 0.0618216693
      -0.000272795209 -0.000190559746 -2.93302346e-05 -0.000271734229
      -6.21411664e-06</_>
    <_>
      0.842899978 -5.15280104 -0.0070333248 -0.0601096675
      -6.05390937e-08 -0.000215037609 -0.0135063101 -0.000451138127
      -0.0022073742 -3.55360157e-06 -1.62329161e-05 -3.05489039e-07
      -0.000118411888 -0.000378872646 -0.000231322527 9.20275688
      1.76024163 -0.00302048982 -0.00140801759 -0.000176170171
      -0.00120648032 -0.000857029809 -0.00492969342 0.0603132583
      -1.41375267e-05 0.79110378 3.23612761 -8.91676245e-06
      -6.18730483e-05 -1.91452564e-05 -0.0155142648 -0.000218709232
      -0.0110213896 -0.00146203407 -0.000109705754 -0.000889933901
      -0.000244374212 -7.65358272e-05 -0.0114537738 -0.000267456926
      -0.000128512431 -0.000696287432 -0.00183572515 -0.000396896678
      -0.000128332074 -0.00178149343 -0.00055257685 2.19413137
      0.221594349 -0.0247563031 -0.00215872377 -0.000221180322
      -3.54030635e-06 -0.0104119144 4.66321039 -0.0248347018
      -0.0850375742 -0.00398942921 -0.0034122353 -0.00536156539
      -0.000909482595 -0.000359690224 -0.000889033137 3.11330533
      -0.0211505033 -4.07075022e-05 -3.62729916e-05 -3.31000992e-05
      -0.00506016845 -0.00212883344 -0.000684756495 5.82954979
      -0.00181050249 -0.000114841852 -4.80388735e-06 -0.00104736106
      -2.49933582e-05 1.48242974 6.07613659 -0.00178467121
      -1.27817802e-05 -4.70734875e-07 -0.00030587634 2.79912376
      -0.0564584211 -0.000752377789 -0.00818213634 -0.0107304156
      -8.78220271e-06 -0.00741397822 -0.00632618787 -0.000527783821
      -0.00561755802 -0.00607502228 4.92594147 -0.0246605519
      -0.000717831077 -0.0230145473 -0.00617362792 -0.0026002028
      -6.59815996e-05 -0.00796668883 3.97304416 -1.21972801e-06
      -0.000117705182 -0.00105313631 4.96951866 -0.00013554655
      -3.29271716e-05 -0.000569966563 -0.00248655886 -0.0019205258
      0.0327430293 -1.81808628e-05 -5.13965097e-05 -0.0008039315
      -7.12915437e-07 -2.77424078e-06 -0.000197408081 -5.07993791e-05
      -0.0091551831 -1.02605381e-05 -0.00716513721 -0.000809975492
      -0.000149344123 -0.00955330767 -0.00382447056 -0.0238516703
      -0.0194112659 -0.0033688338 0.355112046 0.315777123
      -0.000103436098 -8.26806572e-05 0.00875374675 0.0668646395
      0.166862279 -0.000134332498 0.0486840531 -5.90595982e-06
      -7.28226013e-09 0.274839878 -0.000930349459 -0.000203627176
      0.811850011 -0.0053446251 0.431427449 -2.04317566e-05
      -0.000281068613 -4.48310175e-06 -2.33872242e-06 0.162647963
      0.167842165 -0.0037378855 0.59049201 -9.98199312e-07 0.691146612
      -3.28415945e-06 -0.00143535191 0.994173408 -0.00113650784
      -0.000768396829 -0.000378427212 0.0188147128 0.253676683
      -4.41871853e-05 -0.000438088406 0.211020201 0.290314943
      -0.00182136474 -0.000358009565 0.0861267895 0.16233623 0.286512494
      -0.00435254769 -0.00340914028 -0.000901863328 0.25228548
      -0.00139881845 -1.18006301e-05 -0.00359309721 -0.000467057602
      -0.00280298083 -0.00264477893 -0.00013304915 -3.20242452e-06
      0.39964658 -1.93449992e-07 -3.11322481e-07 0.211905554 0.738773406
      -1.46892326e-05 -1.85131539e-05 -0.000209663995 -0.000431212859
      0.309067786 -0.000149635933 -9.43528867e-05 0.264186323
      -1.92733514e-05 0.0195684694 -0.000142552439 -3.93637711e-05
      -1.59734591e-05 0.011511527 -7.80599476e-06 0.00627098978
      -0.000250670273 0.0298228785 -0.000108134584 0.0897853076
      -0.000714198046 0.0185586065 0.262151241 -1.67567237e-06
      -0.000119525088 -3.51825906e-06 -9.98006954e-07 -0.000194865439
      -3.63177151e-06 0.0174205862 0.33702597 0.581321836 -2.4270561e-05
      -0.000362075778 -9.0798414e-05 -4.18001036e-05 -0.000502753712
      0.00921148993 0.0618673712 -0.000272653124 -0.00019055068
      -2.93346784e-05 -0.000270706631 -6.21557092e-06</_>
    <_>
      0.790277421 -4.84605742 -0.00697132805 -0.0584090948
      -6.15106259e-08 -0.00021268375 -0.0132508585 -0.000463685166
      -0.00219902839 -3.36106973e-06 -1.63022687e-05 -3.06974073e-07
      -0.000114754563 -0.00036937237 -0.000223447933 9.04400444
      1.5380758 -0.00300700311 0.247068688 -0.000174481684
      -0.00122408313 -0.000840886205 -0.00501351338 -0.000417058618
      -1.37058196e-05 0.579178214 3.03390884 -9.32671264e-06
      -6.12026488e-05 -1.92630032e-05 -0.012005073 -0.000220586895
      -0.0114863394 -0.00137335877 -0.000106145533 -0.000887763279
      -0.000247321441 -7.28928353e-05 -0.011207914 -0.000252989557
      -0.000137492738 -0.00070877478 -0.00175259053 -0.000389898662
      -0.000841487199 -0.00191644963 -0.000544363284 2.40523863
      0.185285896 -0.0258462559 -0.00207385351 -0.000349856389
      -3.59998489e-06 -0.0104849804 4.58543682 -0.025124995
      -0.0837638676 -0.00387980859 -0.00305984751 -0.00529237837
      -0.000888923591 -0.00041422894 -0.000924468681 2.92203617
      -0.0225857496 -4.05535829e-05 -3.73929834e-05 -3.14204372e-05
      -0.00499823131 -0.00201224047 -0.00070242642 5.77173042
      -0.00178817078 -0.000116784198 -4.86745876e-06 -0.00103510439
      -2.41838152e-05 1.23184502 5.97412109 -0.00181991933
      -1.26506457e-05 -4.39308565e-07 -0.000322713226 2.64018321
      -0.0536826514 -0.000754427165 -0.00893530156 -0.0104105696
      -8.59694137e-06 -0.00760197779 -0.00647161808 -0.000519340043
      -0.00575306034 -0.00617659511 4.60404778 -0.0243076552
      -0.000721750781 -0.022007579 -0.0062076645 -0.00255358964
      -6.16016769e-05 -0.00811196305 3.77010942 -1.22159508e-06
      -0.000115696937 -0.0010504676 5.04311752 -0.000131980865
      -3.31324227e-05 -0.000548884796 -2.81523899e-05 -0.00196666853
      0.0710474476 -1.85132321e-05 -5.20197063e-05 -0.000738675706
      -7.28679254e-07 -2.70235319e-06 -0.00018658358 -5.13479026e-05
      -0.0088968873 -9.79156994e-06 -0.0072982749 -0.000739726238
      -0.00247130985 -0.00970620848 -0.00382675277 -0.0231983867
      -0.0205431245 -0.00333807431 0.340255737 0.277074337
      -0.000101736819 -8.45510222e-05 -4.14313363e-05 0.048899401
      0.184376001 -0.000136198942 0.0517888293 -5.70278371e-06
      -9.01062958e-09 0.32180804 -0.00135131413 -0.000204573982
      0.760005414 -0.0047671278 0.410870969 -2.11626266e-05
      -0.000278680498 -4.38474444e-06 -2.40766303e-06 0.177595019
      0.160367593 -0.00376902055 0.592065334 -1.03651269e-06 0.65647614
      -3.40284259e-06 -0.00094255124 0.922311664 -0.000741647673
      -0.000381421356 -0.000417233066 0.0575235039 0.270328999
      -4.4106946e-05 -0.000434203743 0.227452308 0.311715186
      -0.00139868376 -0.000349408743 0.126552761 0.189147681 0.233030692
      -0.00406952761 -0.00379397837 -0.000643247738 0.244373426
      -0.0014190803 -1.21688936e-05 -0.00344901672 -0.000281300599
      -0.0027543758 -0.00256353547 -0.000132457048 -3.23630502e-06
      0.395213187 -2.04092316e-07 -3.25736295e-07 0.188001171
      0.767327368 -1.46920665e-05 -1.8516168e-05 -0.000209665217
      -0.00043095107 0.309028864 -0.000149645988 -9.43604464e-05
      0.264049768 -1.92760363e-05 0.0193617158 -0.000142559438
      -3.9368093e-05 -1.59757092e-05 0.0114212669 -7.80690243e-06
      0.00627333671 -0.00025063366 0.0294091292 -0.000108105698
      0.0895987898 -0.00071356952 0.0190800503 0.262073815
      -1.67410758e-06 -0.000119534008 -3.51953349e-06 -9.87245016e-07
      -0.000194853113 -3.63236404e-06 0.0171937086 0.336233586
      0.580652595 -2.42745245e-05 -0.000356304576 -9.08092115e-05
      -4.18044074e-05 -0.000502418319 0.00905922242 0.0618209615
      -0.000272568897 -0.000190554027 -2.9337536e-05 -0.000269860728
      -6.21650133e-06</_>
    <_>
      0.816677034 -4.98349905 -0.00701940758 -0.059776742
      -6.11101143e-08 -0.00021155033 -0.0133854104 -0.000453070737
      -0.00220126798 -3.52264283e-06 -1.62326123e-05 -3.05053334e-07
      -0.000117724332 -0.00037497413 -0.000228559293 9.20497131
      1.59362137 -0.00301578478 -0.00046074859 -0.000173340624
      -0.00119619875 -0.000848853204 -0.00493129855 0.0317902938
      -1.3906596e-05 0.631303608 3.06742787 -8.54432346e-06
      -6.15516838e-05 -1.9097688e-05 -0.0153222736 -0.000217076478
      -0.0118096592 -0.00142920576 -0.000107707252 -0.000890589436
      -0.000242312279 -7.5270058e-05 -0.0120663783 -0.000263034774
      -0.000131075227 -0.000685756037 -0.00181381544 -0.000390695175
      -0.000207000296 -0.00179498817 -0.000550098193 2.25697875
      0.186286122 -0.0253725722 -0.00212460896 -0.000162475626
      -3.50316532e-06 -0.0104715358 4.64781666 -0.0246097818
      -0.0859396607 -0.00393340271 -0.00417950703 -0.00534255384
      -0.000909954193 -0.000375319738 -0.000893794873 2.99008822
      -0.0226570927 -4.00021527e-05 -3.61442981e-05 -3.26779627e-05
      -0.00499438494 -0.00208893348 -0.000679834629 5.84848881
      -0.00180010812 -0.000115800402 -4.75124671e-06 -0.00103109784
      -2.44162056e-05 1.3022269 6.10603333 -0.00178717822
      -1.26802006e-05 -4.64601243e-07 -0.000310000352 2.75493121
      -0.0560579821 -0.000746929902 -0.00870133843 -0.0109848566
      -8.74876059e-06 -0.00741138216 -0.00638772547 -0.00052110519
      -0.00558733707 -0.00610484369 4.66313839 -0.0241971016
      -0.000718660769 -0.0226802602 -0.00615406781 -0.00257833744
      -6.49168142e-05 -0.00781913009 3.80738282 -1.22148958e-06
      -0.000116298383 -0.00104108185 4.98031759 -0.000133423571
      -3.25530345e-05 -0.000562716159 -0.00290908269 -0.00192001625
      0.057535708 -1.81495161e-05 -5.10287318e-05 -0.0007981534
      -6.91921628e-07 -2.790282e-06 -0.000193594169 -5.06425495e-05
      -0.00900890026 -1.0104286e-05 -0.00715601072 -0.000792280945
      -0.00154598884 -0.00955574866 -0.00372657832 -0.0236249845
      -0.0205184147 -0.00322032603 0.35556227 0.309354454
      -0.000103510196 -8.33750528e-05 -0.00014044113 0.0685074553
      0.156343907 -0.00013471047 0.0619409978 -5.92592914e-06
      -7.02804304e-09 0.286197126 -0.000981880934 -0.000205904114
      0.814110219 -0.00548947463 0.432242483 -2.02965584e-05
      -0.000281472865 -4.50261268e-06 -2.32045522e-06 0.14567554
      0.162963077 -0.00375304581 0.581889093 -9.90327749e-07 0.681988716
      -3.26171039e-06 -0.00151327206 1.00032151 -0.00130940462
      -0.000755147252 -0.000442525168 0.0158106536 0.249908477
      -4.41181292e-05 -0.000441442855 0.202906042 0.289082199
      -0.00173059991 -0.000360808073 0.0890401676 0.154146224 0.30130735
      -0.00442190142 -0.00358214788 -0.000981003745 0.264074266
      -0.00140635192 -1.17677237e-05 -0.00361813814 -0.000463466422
      -0.00289900741 -0.00265859906 -0.000132983841 -3.19133187e-06
      0.408001661 -1.92967704e-07 -3.0844356e-07 0.205723688 0.733549058
      -1.46892326e-05 -1.85131539e-05 -0.000209663995 -0.000431212859
      0.309067786 -0.000149635933 -9.43528867e-05 0.264186323
      -1.92733514e-05 0.0195684694 -0.000142552439 -3.93637711e-05
      -1.59734591e-05 0.011511527 -7.80599476e-06 0.00627098978
      -0.000250670273 0.0298228785 -0.000108134584 0.0897853076
      -0.000714198046 0.0185586065 0.262151241 -1.67567237e-06
      -0.000119525088 -3.51825906e-06 -9.98006954e-07 -0.000194865439
      -3.63177151e-06 0.0174205862 0.33702597 0.581321836 -2.4270561e-05
      -0.000362075778 -9.0798414e-05 -4.18001036e-05 -0.000502753712
      0.00921148993 0.0618673712 -0.000272653124 -0.00019055068
      -2.93346784e-05 -0.000270706631 -6.21557092e-06</_>
    <_>
      0.893199623 -5.38600063 -0.00709049078 -0.061659649
      -5.92076859e-08 -0.000221554408 -0.0136820339 -0.000440032396
      -0.0022229536 -3.4019647e-06 -1.61286589e-05 -3.09186902e-07
      -0.000119431119 -0.000385470368 -0.000234315012 9.47087765
      1.92578697 -0.00301160244 -0.00151080126 -0.000176632937
      -0.00122814532 -0.000851672725 -0.00498288125 0.0407648385
      -1.3794157e-05 0.856808841 3.41908765 -9.4881043e-06
      -6.31695293e-05 -1.95244284e-05 -0.0158799123 -0.000223065523
      -0.0106086088 -0.00147928367 -0.000109357032 -0.000886383408
      -0.000251723046 -7.61326664e-05 -0.0117292004 -0.000259445165
      -0.000133338282 -0.000706341467 -0.00182509539 -0.000400089339
      -0.000389465858 -0.00183027308 -0.000560454151 2.21216202
      0.193521813 -0.0261816382 -0.00215312722 -0.000259018532
      -3.51610538e-06 -0.0105346311 4.83004999 -0.0259975065
      -0.0862472877 -0.00401911931 -0.00393602112 -0.00532346359
      -0.000927501998 -0.000388303888 -0.000887947157 3.2430644
      -0.0208384898 -4.10339453e-05 -3.66079221e-05 -3.28395799e-05
      -0.00498318672 -0.00212550582 -0.000686825952 5.96078682
      -0.00180178683 -0.000113527327 -4.74828721e-06 -0.00104818132
      -2.45280535e-05 1.58252025 6.26679707 -0.00179146521
      -1.30167136e-05 -4.47929267e-07 -0.000301529595 2.76503396
      -0.0574992113 -0.000739636482 -0.00914571062 -0.0106707849
      -8.71169868e-06 -0.00762371486 -0.00654615555 -0.000531085185
      -0.00565601932 -0.00622525066 5.22047329 -0.0253466889
      -0.000719056407 -0.0239974372 -0.00625598105 -0.00258045364
      -6.37520934e-05 -0.00824659131 4.18098736 -1.24471853e-06
      -0.000115076327 -0.00106958998 5.08284855 -0.000134936985
      -3.34197794e-05 -0.000581511064 -0.00147780241 -0.00195348961
      0.0230729152 -1.79946401e-05 -5.11180224e-05 -0.000781229988
      -7.47060994e-07 -2.75762068e-06 -0.000196951281 -5.14550084e-05
      -0.00935284793 -1.02404902e-05 -0.00724850642 -0.000801266287
      0.0381473526 -0.00980649143 -0.00401373627 -0.0243821535
      -0.0193645246 -0.00352028478 0.356504142 0.313044339
      -0.000103524042 -8.29261116e-05 -6.28945927e-05 0.0662697107
      0.157522038 -0.000134424205 0.0563487783 -5.92193965e-06
      -7.01050329e-09 0.285469949 -0.00108640979 -0.000206315483
      0.82092011 -0.00547854602 0.42928648 -2.02840147e-05
      -0.000282420631 -4.49065146e-06 -2.32108141e-06 0.152615041
      0.169317693 -0.00386895658 0.589490056 -9.9012766e-07 0.688817382
      -3.25676319e-06 -0.00151160092 0.996468723 -0.00125856663
      -0.000788827951 -0.000440330594 0.014394328 0.255254269
      -4.40367985e-05 -0.000440413132 0.210725009 0.292439312
      -0.00181015232 -0.00036099166 0.0889595002 0.157928973 0.299494147
      -0.00443059346 -0.00355035951 -0.000959685189 0.261846542
      -0.00140705169 -1.17579521e-05 -0.00362200034 -0.000467155653
      -0.00290551363 -0.00266290549 -0.000132991394 -3.18740399e-06
      0.406365335 -1.91804915e-07 -3.08078882e-07 0.209263638
      0.741828799 -1.46931197e-05 -1.85182744e-05 -0.000209632752
      -0.000430933986 0.309439659 -0.000149647225 -9.43638952e-05
      0.264401734 -1.92773168e-05 0.0193755776 -0.000142560006
      -3.93698538e-05 -1.59770207e-05 0.0108038113 -7.80734536e-06
      0.0057676211 -0.000250558805 0.0288398452 -0.000108152242
      0.0897151679 -0.000713070738 0.0190740973 0.262420833
      -1.67343649e-06 -0.00011953486 -3.52002462e-06 -9.87245585e-07
      -0.000194823588 -3.63272352e-06 0.0165616497 0.336508602
      0.581147254 -2.427654e-05 -0.000359878759 -9.08130751e-05
      -4.18065683e-05 -0.00050210749 0.00907423533 0.0620025732
      -0.000272514764 -0.000190531006 -2.93387402e-05 -0.000269989832
      -6.21690288e-06</_>
    <_>
      0.807624161 -4.60017538 -0.0067291772 -0.0582991503
      -6.02315779e-08 -0.000208660509 -0.0128299212 -0.000471640669
      -0.00215230812 -3.6455192e-06 -1.59032697e-05 -2.89969762e-07
      -0.000112902577 -0.000368453155 -0.000215715758 9.01191616
      1.26944435 -0.00292801647 0.240127876 -0.000168442348
      -0.00114765414 -0.000822100323 -0.00482772011 -0.000355710392
      -1.39708491e-05 0.341724694 2.70945573 -8.65927632e-06
      -5.86946917e-05 -1.87139703e-05 -0.0132638514 -0.000210555023
      -0.0125342505 -0.00132525619 -0.000104527542 -0.000883756264
      -0.000228934397 -7.16273717e-05 -0.0114421472 -0.000255107268
      -0.000134929331 -0.000686556974 -0.00170623185 -0.00035571921
      -0.000723018486 -0.00185094087 -0.00051472598 2.37162066
      0.102676384 -0.0247947443 -0.00203947583 -0.000251960562
      -3.71167084e-06 -0.0102294022 4.53624773 -0.0234752093
      -0.0839449316 -0.00373037648 -0.0042171157 -0.00516632944
      -0.000907879439 -0.000386434229 -0.00092236069 2.70150876
      -0.0246011261 -3.74097217e-05 -3.59456571e-05 -3.15791804e-05
      -0.00482347095 -0.00193737191 -0.000660067191 5.74527454
      -0.0017462715 -0.000113311013 -4.8270872e-06 -0.000982837984
      -2.27448672e-05 0.956468642 6.06602383 -0.00175654911
      -1.21440244e-05 -4.79106518e-07 -0.000318377599 2.6992569
      -0.0546013117 -0.000770767394 -0.00954696909 -0.0111180684
      -8.5652573e-06 -0.00742309447 -0.00629675714 -0.000503008137
      -0.00550815789 -0.00603348436 4.13206387 -0.0231782924
      -0.000693961454 -0.021852009 -0.00599804008 -0.00246993662
      -6.4802538e-05 -0.0075694453 3.419245 -1.24565554e-06
      -0.000115761439 -0.000995655544 4.86760092 -0.000130256565
      -3.13471355e-05 -0.000537572952 -0.00303747528 -0.00192114839
      0.0652289242 -1.83987486e-05 -5.05760727e-05 -0.00072998926
      -6.67581844e-07 -2.71438239e-06 -0.000175919398 -4.8814356e-05
      -0.0085223997 -9.2901455e-06 -0.00711403461 -0.000731558248
      -0.00422191573 -0.00935087819 -0.00352123729 -0.0218756795
      -0.0219050944 -0.00307576451 0.322552621 0.288179725
      -0.000101574275 -8.52530793e-05 -0.000327378948 0.0657338127
      0.151977956 -0.000136392424 0.0489792228 -5.70176735e-06
      -8.83843931e-09 0.334148526 -0.00146561174 -0.000207454039
      0.77459681 -0.00501733832 0.389751375 -2.10572107e-05
      -0.000279681757 -4.40657141e-06 -2.38870007e-06 0.170238689
      0.14808245 -0.00363737135 0.565863729 -1.03021989e-06 0.641522348
      -3.37832603e-06 -0.00113296986 0.919645667 -0.00101266429
      -0.000417926465 -0.000532539445 0.0605359823 0.277827471
      -4.39025935e-05 -0.000436005765 0.229419425 0.309988439
      -0.00130925386 -0.000357464916 0.131545708 0.181408867 0.246642724
      -0.00416347291 -0.00394908944 -0.000862031186 0.265387952
      -0.00143501337 -1.21347675e-05 -0.0034654527 -0.000326047913
      -0.00264574843 -0.00255496078 -0.000131955938 -3.22967526e-06
      0.389556408 -2.03935699e-07 -3.23503542e-07 0.177929044 0.75368762
      -1.46971061e-05 -1.85220542e-05 -0.000209649923 -0.000430528133
      0.309184909 -0.000149662563 -9.4374227e-05 0.26402095
      -1.92809639e-05 0.0190432891 -0.000142570789 -3.93758601e-05
      -1.59799638e-05 0.0109509155 -7.80857317e-06 0.00600839406
      -0.000250535988 0.0284547769 -0.000108084838 0.0893667489
      -0.000712310721 0.0198983178 0.262135327 -1.67127519e-06
      -0.000119548575 -3.52180905e-06 -9.70212795e-07 -0.000194817942
      -3.63349181e-06 0.0165004544 0.335130513 0.579859138
      -2.42818605e-05 -0.000349110138 -9.082834e-05 -4.18123564e-05
      -0.000501723029 0.00882730074 0.0618443303 -0.000272406993
      -0.0001905471 -2.93426892e-05 -0.000268594944 -6.21818526e-06</_>
    <_>
      1.88259089 -9.36765194 -0.00891758967 8.07105064 -4.56763409e-08
      -0.00020218041 -0.01659289 -0.000424424623 -0.000954468211
      -1.94634868e-06 -1.96805922e-05 -6.12931842e-07 -0.000101968682
      -0.00026602557 -0.000327493617 -0.0698332936 3.2933445
      -0.00340239215 1.26808834 -0.000149218526 -0.00163526204
      -0.000863680325 -0.00519748544 -0.0147096897 -1.74916968e-05
      3.64680481 3.76975846 -2.02373194e-05 -7.02497127e-05
      -2.19163248e-05 -0.00643273862 -0.000215896638 -0.0128962351
      -0.00186480687 -0.000127974432 -0.000706120802 -0.00042110862
      -7.68316531e-05 1.26239395 -0.000348470581 -0.000129898064
      -0.000687226886 -0.00171436346 -0.000726221537 -0.00635346351
      -0.00192339183 -0.000667432556 3.27122402 5.83138084 1.60531235
      -0.00221207086 -0.00475727953 -1.65871154e-06 -0.0103470813
      -0.0555947088 -0.020786332 5.57759857 -0.00420091068 1.80764019
      -0.00597156864 -0.00140515657 -0.000996442162 -0.000573376892
      2.40080357 1.59951639 -5.43823116e-05 -4.39487339e-05
      -2.99849999e-05 -0.00669245282 -0.0022924419 -0.000846819428
      -0.019518083 -0.00217877724 -0.000110160705 -1.90025537e-06
      -0.00126122369 -3.04505065e-05 2.01155162 -0.0477085598
      -0.00159326463 -1.28128704e-05 -9.27168003e-07 -0.000289790129
      -0.0255085658 7.92376041 -0.000437286537 3.18938804 0.646532357
      -9.54890584e-06 -0.0125373397 -0.00368251931 -0.000536746869
      -0.00559254643 -0.00981737021 7.38350487 -0.0271795522
      -0.00145006774 5.86079645 -0.00840658508 -0.00290453318
      -8.01599308e-05 -0.00934033841 4.19334221 -1.78946743e-06
      -7.03069309e-05 -0.00164665503 -0.00307283993 -0.000159362564
      -4.73808796e-05 -0.000557203777 1.28582478 -0.00169545307
      -0.011152097 -2.15283872e-05 -0.00010836462 -0.00127789867
      -1.01759804e-06 -4.90240927e-06 -0.000313477125 -6.20577921e-05
      -0.0121409222 -1.4245712e-05 -0.00107196113 -0.00120374665
      0.711568654 -0.0128208064 -0.00372951152 -0.0302574579 1.69880688
      -0.00596581679 0.0887827128 0.349603176 -6.58173012e-05
      -6.40244762e-05 0.449037015 0.482124656 0.206171572 -0.00017441198
      0.039856337 -2.02972456e-06 -2.98694935e-08 0.305542409
      -0.000227451834 -0.000236562337 0.56465745 0.805526495
      -0.00335465604 -2.43925861e-05 -0.000205728124 -3.67031748e-06
      -2.79406345e-06 0.830611169 0.298950911 -0.00174992322
      -0.00141236046 -1.32095556e-06 -0.0012250999 -4.36115215e-06
      0.0299008917 0.0737748295 0.219341308 0.2571522 -0.00131733867
      0.262627184 0.887192428 -2.15850996e-05 -0.000302961416
      0.619455397 0.47322917 0.390326321 -0.000299353211 0.664168298
      0.104050472 -0.00373862428 -0.00303970627 -0.00494669657
      -0.00374424923 0.420764685 -0.00237056985 -1.71430056e-05
      -0.00278058206 -0.00180682621 0.184790447 -0.00245736097
      -0.00011937102 -2.96635585e-06 -0.000312227901 -1.94886169e-07
      -4.83527117e-07 -0.00127460517 0.577922404 -1.48037907e-05
      -1.86479701e-05 -0.000209280159 -0.000421684032 0.313069761
      -0.000150009728 -9.4666917e-05 0.263956219 -1.93856213e-05
      0.0124136917 -0.000142808261 -3.95404677e-05 -1.60706641e-05
      0.000201418996 -7.84407803e-06 -2.86556769e-06 -0.000248384109
      0.00767242163 -0.000107722924 0.0846984237 -0.000685312087
      0.0369751975 0.26395151 -1.61122932e-06 -0.000119853306
      -3.57000295e-06 -6.15327167e-07 -0.000194038817 -3.65755386e-06
      0.00107439607 0.312521011 0.564054251 -2.44379044e-05
      -0.000204295444 -9.12328687e-05 -4.1981395e-05 -0.000486750971
      0.00400441699 0.0626072139 -0.000268947391 -0.000190366598
      -2.9451965e-05 -0.000242384922 -6.25390476e-06</_>
    <_>
      1.81516838 -8.62732792 -0.00858174637 7.29008579 -4.24534292e-08
      -0.000212639599 -0.0161153059 -0.00042079328 -0.00104538933
      -2.3221337e-06 -1.96336678e-05 -6.21448237e-07 -0.000105632018
      -0.00028701534 -0.000324823952 -0.0651283041 3.41065431
      -0.00325592095 1.11851215 -0.000151161512 -0.00165495288
      -0.000891805394 -0.00492225355 -0.0139460731 -1.82769836e-05
      3.60832047 3.8260777 -2.00366012e-05 -6.88944565e-05
      -2.17630877e-05 -0.00686574262 -0.000205309552 -0.0143741267
      -0.00185696722 -0.000138672927 -0.000706979888 -0.000422776444
      -8.15585881e-05 1.0119909 -0.000371356262 -0.000122962854
      -0.000672985741 -0.0017754297 -0.000761261093 -0.00605709525
      -0.00182086613 -0.000657979224 3.56188154 5.40094519 1.55334485
      -0.00229835464 -0.00446446566 -1.70846988e-06 -0.0097645428
      -0.0544436201 -0.0211008061 5.25648117 -0.0041979677 1.70841753
      -0.00568093453 -0.00143348123 -0.000988369808 -0.000555873034
      2.44367909 1.62708676 -5.42836424e-05 -4.46931881e-05
      -3.16770529e-05 -0.00659681251 -0.00232002768 -0.000825258903
      -0.0189719703 -0.00222866004 -0.000106933396 -2.27430951e-06
      -0.00133417861 -3.02380668e-05 2.11244678 -0.0452399403
      -0.00154305005 -1.28957954e-05 -1.12241946e-06 -0.000273491838
      -0.0222797152 7.19715357 -0.000455993082 3.02616549 0.576831877
      -9.03208547e-06 -0.0115362527 -0.00351624982 -0.000544635055
      -0.00542814797 -0.00987731107 7.34548473 -0.0262500066
      -0.00146635296 5.33636332 -0.00814250764 -0.00289759273
      -8.86712514e-05 -0.00886748545 4.28342342 -2.012491e-06
      -8.00805501e-05 -0.00167737924 -0.00109029294 -0.000163538789
      -4.83574295e-05 -0.000563318259 0.97995609 -0.00169345527
      -0.0110806273 -2.13688836e-05 -0.000115635092 -0.00138679438
      -1.04663559e-06 -5.00028864e-06 -0.00033285463 -5.98966362e-05
      -0.0119462749 -1.42654226e-05 -0.000865230046 -0.00124742661
      0.850881994 -0.0126887532 -0.00391837489 -0.0304258894 1.69422722
      -0.00610716548 -0.000137528477 0.291716009 -6.55395634e-05
      -6.32713709e-05 0.458447605 0.487108946 0.237334102
      -0.000173379434 0.0499183163 -2.01851958e-06 -2.94325329e-08
      0.315436363 -0.000773873529 -0.000237771383 0.634006083
      0.758565247 -0.00280859624 -2.41971757e-05 -0.00020723448
      -3.60516356e-06 -2.74075023e-06 0.818005919 0.378957331
      -0.00194031268 -0.00187015824 -1.30857643e-06 -0.00168216403
      -4.29414922e-06 0.00153749436 0.071147874 0.246290088 0.221314237
      -0.0013295057 0.255800784 0.927870512 -2.1433354e-05
      -0.000312410673 0.642779827 0.498702198 0.372288316
      -0.000308798597 0.683366537 0.104632743 -0.00380267017
      -0.00272903824 -0.0049891253 -0.00463674869 0.47162199
      -0.00239460543 -1.71396514e-05 -0.00283448515 -0.00149942271
      0.181576386 -0.00253893202 -0.000118491858 -2.93919697e-06
      -0.000199696049 -1.90627205e-07 -4.76347878e-07 -0.00121252635
      0.579782903 -1.48070103e-05 -1.86512661e-05 -0.00020928595
      -0.000421375764 0.312966287 -0.000150021486 -9.46754226e-05
      0.263748646 -1.93886335e-05 0.0121722296 -0.000142816454
      -3.95453535e-05 -1.60731579e-05 0.000177562237 -7.84509575e-06
      -2.17214233e-06 -0.000248350407 0.00726880692 -0.000107682812
      0.0844671726 -0.000684632338 0.0375785679 0.263811707
      -1.60945376e-06 -0.000119863776 -3.57144972e-06 -6.02480725e-07
      -0.000194028165 -3.65820915e-06 0.000895109028 0.311564326
      0.563206255 -2.44423318e-05 -0.000197147499 -9.12451505e-05
      -4.19862045e-05 -0.000486395002 0.00382621773 0.062529698
      -0.000268854812 -0.000190373641 -2.94551883e-05 -0.00024137921
      -6.25495431e-06</_>
    <_>
      2.29542851 -6.65777254 -0.00925953873 8.80954742 -7.30545509e-08
      -0.000198267211 -0.0156079531 -0.000599894556 -0.0012562318
      -2.36365099e-06 -2.02896772e-05 -5.03974888e-07 -9.44326894e-05
      -0.000208518206 -0.000280278764 -0.0641091689 -0.00132937031
      -0.00380922435 2.78441024 -0.000131767476 -0.00145148928
      -0.000891197007 -0.00634563621 -0.0183546077 -1.67333874e-05
      0.95004487 0.601187825 -1.57088198e-05 -6.35664474e-05
      -2.40118025e-05 0.172136948 -0.000250550744 -0.0205884054
      -0.0013792403 -0.000111684611 -0.000822000264 -0.00033914583
      -7.00846576e-05 0.634095669 -0.000340087252 -0.000171189866
      -0.00074109179 -0.00159418792 -0.000706218998 -0.0076708924
      -0.00225074962 -0.000651273585 4.52053452 5.20289516 0.754483998
      -0.0021236788 -0.00586776063 -1.4604143e-06 -0.0122533478
      -0.0626369938 -0.0184673816 5.05970621 -0.00413071644 1.33300579
      -0.00704264501 -0.00137283141 -0.00113662588 -0.00093084696
      0.137663156 -0.00920552853 -4.47469247e-05 -5.21103284e-05
      -2.84036178e-05 -0.00717319967 -0.00202531065 -0.00074210536
      -0.0170014538 -0.00206535053 -0.000149457715 -2.38395887e-06
      -0.00108498172 -2.64543778e-05 -0.00848416239 -0.0416584723
      -0.00206092838 -1.23444288e-05 -1.02527042e-06 -0.000458482536
      -0.0281731654 8.61854076 -0.000527218974 2.53850007 -0.00310153537
      -1.06171001e-05 -0.0137577076 -0.00373447197 -0.000557479565
      -0.00671715615 -0.00824678503 2.39590526 -0.0247193091
      -0.00130871288 6.04287052 -0.00882369373 -0.00297678309
      -7.43598212e-05 -0.00883472804 0.971611083 -1.30115473e-06
      -7.82813295e-05 -0.00133511983 0.295641154 -0.000136159215
      -3.74519623e-05 -0.000524437579 1.61228907 -0.00203294517
      -0.00539253419 -2.40310746e-05 -0.000126222396 -0.00105043722
      -7.26312464e-07 -4.31355829e-06 -0.00027569267 -7.02437246e-05
      -0.0108969305 -1.38603145e-05 -0.0031484114 -0.000938058831
      -0.0167215727 -0.0118352259 -0.00370383845 -0.0236409009
      -0.000198688052 -0.00440566335 0.192407072 0.267038822
      -6.610329e-05 -7.67560487e-05 0.404858112 0.536143661 0.239610314
      -0.000176927279 0.0278725401 -2.08311326e-06 -3.18020916e-08
      0.193640187 -0.00140407763 -0.000242945403 0.426285475 0.872622371
      -0.00461611664 -2.56809508e-05 -0.000216111148 -3.58923535e-06
      -2.99040607e-06 0.809401274 0.256655455 -0.000244580879
      -0.000479144393 -1.39490578e-06 -0.000734822068 -4.62834487e-06
      0.0810501575 -0.000764837547 0.164399534 0.296670437
      -0.00137671502 0.298623145 0.738971174 -2.41955186e-05
      -0.000283048226 0.634985447 0.486030191 0.35649845 -0.000316488033
      0.610933483 0.0527580976 -0.0048621879 -0.00195501349
      -0.00370726851 -0.00336609804 0.335667908 -0.00231084926
      -1.73889912e-05 -0.0024934297 -0.00310582179 0.248432294
      -0.00222378364 -0.000119540244 -3.22374194e-06 -0.000915881305
      -2.11198454e-07 -5.12352187e-07 -0.0014501136 0.434743226
      -1.48085428e-05 -1.86523794e-05 -0.000209304329 -0.00042119241
      0.312720239 -0.000150028311 -9.46791915e-05 0.263463944
      -1.93899396e-05 0.012016736 -0.000142821373 -3.95476054e-05
      -1.60741274e-05 0.000435225666 -7.84553231e-06 4.93824482e-05
      -0.000248363242 0.00726957992 -0.000107636093 0.0842719525
      -0.000684428785 0.0379558578 0.263571084 -1.6086401e-06
      -0.000119869968 -3.57213094e-06 -5.94489393e-07 -0.000194035063
      -3.65845608e-06 0.00106295571 0.310848802 0.562460303
      -2.44441908e-05 -0.000191131156 -9.12511168e-05 -4.19882381e-05
      -0.000486311765 0.00370976143 0.0624010451 -0.000268822041
      -0.000190388557 -2.94566562e-05 -0.000240693073 -6.25542816e-06</_>
    <_>
      2.11344218 -6.47896814 -0.00848631561 8.08288574 -6.5626736e-08
      -0.000176486152 -0.0145502985 -0.000534812105 -0.00116138603
      -2.09081941e-06 -1.87276892e-05 -4.8059627e-07 -8.66311093e-05
      -0.000190413848 -0.000266555435 -0.0593924783 0.0751185268
      -0.00343428669 2.54227304 -0.00012119778 -0.00129826413
      -0.00081744371 -0.00576544553 -0.0161638018 -1.53858928e-05
      1.06583691 0.701858997 -1.46292587e-05 -5.68039359e-05
      -2.11117222e-05 0.172625542 -0.000226517557 -0.0182604045
      -0.00129588298 -0.000104528255 -0.000758526847 -0.000323034998
      -6.55852418e-05 0.779743135 -0.000314247533 -0.000147338738
      -0.000681593723 -0.00147915783 -0.000644710788 -0.00728938729
      -0.00190289563 -0.000597929175 4.24474144 4.89878845 0.766406119
      -0.00195646775 -0.00514270226 -1.25304587e-06 -0.0111045968
      -0.0572808795 -0.0170120299 4.85878134 -0.00387118803 1.42532218
      -0.00653708074 -0.0011726215 -0.00102601526 -0.000809331541
      0.263395488 -0.00669847429 -4.3279324e-05 -4.51857413e-05
      -2.61695423e-05 -0.00645907456 -0.00192892866 -0.000700276927
      -0.0142227989 -0.001922647 -0.000134192684 -2.08895131e-06
      -0.00100409612 -2.5390249e-05 -0.00660598697 -0.0383238606
      -0.00184652756 -1.17918516e-05 -9.04385558e-07 -0.000401798694
      -0.0255769398 7.89548635 -0.000489290396 2.40549302
      -0.000799662899 -9.87085241e-06 -0.0125152515 -0.00272182608
      -0.000505705248 -0.00597102381 -0.00761956489 2.39997506
      -0.0229725968 -0.00128323166 5.59113741 -0.00802917965
      -0.00271459413 -6.87609208e-05 -0.00803221203 1.01016951
      -1.19250558e-06 -7.46948426e-05 -0.00123170868 0.428857833
      -0.000131216279 -3.35048207e-05 -0.000492012419 1.5888871
      -0.00182950578 -0.00575926248 -2.19949634e-05 -0.000112637543
      -0.000986026251 -6.43388034e-07 -3.90247851e-06 -0.000254828163
      -6.31104704e-05 -0.0101402653 -1.31397019e-05 -0.00287277927
      -0.00090055709 -0.0137474723 -0.0111498842 -0.00334674679
      -0.0217723809 0.0635251254 -0.00383010088 0.168593675 0.254152387
      -6.60256046e-05 -7.71700434e-05 0.397095174 0.56081754 0.235090524
      -0.000178895454 0.0304970294 -2.09607379e-06 -3.1785536e-08
      0.19927983 -0.00173292658 -0.000248563243 0.429470718 0.879626393
      -0.00469289906 -2.55162213e-05 -0.000219916954 -3.65638721e-06
      -2.97084375e-06 0.779215991 0.324947208 0.00131846219
      -0.000680491037 -1.39406302e-06 -0.000737021619 -4.60159436e-06
      0.0717187971 -0.000952250615 0.146940827 0.265799105
      -0.00144029153 0.302468598 0.73155719 -2.38977918e-05
      -0.000284306414 0.653235376 0.521595538 0.403895736
      -0.000322358974 0.615798533 0.0138126016 -0.0053496086
      -0.00199482939 -0.00424682209 -0.00389518705 0.388307214
      -0.00228879577 -1.74781962e-05 -0.0024695592 -0.00346623152
      0.294294596 -0.00225505396 -0.000119170691 -3.22217488e-06
      -0.00089369301 -2.11252697e-07 -5.12752592e-07 -0.0017125241
      0.352436602 -1.48072368e-05 -1.86506168e-05 -0.000209316233
      -0.000421282632 0.312576234 -0.000150024614 -9.46754662e-05
      0.263374716 -1.93885953e-05 0.0120794699 -0.000142818913
      -3.95455572e-05 -1.60729087e-05 0.000698432326 -7.84507392e-06
      0.000240072608 -0.000248403201 0.00762114674 -0.000107627915
      0.0842892528 -0.000684818777 0.0377862677 0.263463795
      -1.60939271e-06 -0.000119866781 -3.57153726e-06 -5.97905e-07
      -0.000194050182 -3.65813048e-06 0.00137677416 0.311004281
      0.562490642 -2.44421553e-05 -0.000191676838 -9.1246191e-05
      -4.19860407e-05 -0.000486537087 0.00375420786 0.0623475723
      -0.000268869539 -0.000190396197 -2.94552883e-05 -0.000240919879
      -6.25497842e-06</_>
    <_>
      2.16493511 -6.57082844 -0.0087141525 8.10895348 -7.21285573e-08
      -0.000194644366 -0.0146798668 -0.000601635315 -0.00123619207
      -2.44497073e-06 -1.95703597e-05 -4.71089038e-07 -9.34845593e-05
      -0.00021098771 -0.000266636111 -0.0586941093 -0.00239366898
      -0.00362202688 2.88690519 -0.000129132808 -0.00141121715
      -0.000871824101 -0.00609692838 -0.0171156302 -1.6390095e-05
      0.682105005 0.487824917 -1.61227363e-05 -6.02266955e-05
      -2.34672843e-05 0.409658283 -0.000239817251 -0.0209090728
      -0.00128194538 -0.000112873 -0.000813305262 -0.000325492059
      -6.96701245e-05 0.572614312 -0.000336698315 -0.000166750178
      -0.000724435085 -0.00155437062 -0.000694361108 -0.00698146876
      -0.00219838996 -0.00060480088 4.48379803 4.7157793 0.759976089
      -0.00209181081 -0.00551658869 -1.81888515e-06 -0.0115654049
      -0.0598152764 -0.0179717708 4.62020874 -0.00394981308 1.29161441
      -0.0066726217 -0.00123786018 -0.00111077831 -0.00092413224
      0.0685553998 -0.0107116792 -4.43066383e-05 -5.17020817e-05
      -2.80100212e-05 -0.00691540772 -0.00194143236 -0.000729806197
      -0.0128375841 -0.00198078295 -0.000149146625 -2.75935599e-06
      -0.00111501478 -2.70164728e-05 -0.0096413251 -0.0362075903
      -0.00199341332 -1.24600292e-05 -1.0359347e-06 -0.000453644752
      -0.0252515115 7.96876955 -0.000586125359 2.26951241 -0.00229462911
      -9.86323539e-06 -0.0129416715 -0.00331271347 -0.000541101734
      -0.00656698924 -0.00809803512 2.01130652 -0.023449352
      -0.00125436275 5.56662846 -0.00848284364 -0.00288269925
      -7.51821935e-05 -0.00864412449 0.857085347 -1.35252469e-06
      -8.4712141e-05 -0.00129885972 0.57200408 -0.000134004425
      -3.57991121e-05 -0.000496473687 1.77737176 -0.00207016221
      -0.0052234102 -2.43589748e-05 -0.000125063831 -0.00104795198
      -7.80100152e-07 -4.0364157e-06 -0.000269837707 -6.6612658e-05
      -0.010299922 -1.31464749e-05 -0.0032085483 -0.000908236019
      -0.0169299971 -0.0113612842 -0.00363085652 -0.0222528521
      -0.00180186611 -0.0042390232 0.17850253 0.265162528
      -6.59899015e-05 -7.65468503e-05 0.402496397 0.56055218 0.233785987
      -0.000178820119 0.0211463347 -2.10013059e-06 -3.17620916e-08
      0.196980834 -0.00166132324 -0.000247873424 0.418908924 0.880683661
      -0.00468275649 -2.55615378e-05 -0.000220331538 -3.64798257e-06
      -2.97711517e-06 0.781502485 0.311824024 0.00718795881
      -0.000660952297 -1.39282668e-06 -0.000739822281 -4.60634737e-06
      0.0757245943 -0.000970883935 0.15581806 0.268997341 -0.0014058993
      0.306512892 0.725672245 -2.39257279e-05 -0.000283802103
      0.655934334 0.521354198 0.400548756 -0.000322958746 0.617018461
      0.0255758166 -0.00540452357 -0.00202200678 -0.00428022305
      -0.00372312497 0.377092123 -0.00229187682 -1.74486231e-05
      -0.00247188145 -0.00359189976 0.296985388 -0.00223959098
      -0.000119041535 -3.22127539e-06 -0.000852973375 -2.11695578e-07
      -5.12431257e-07 -0.00165388093 0.355485737 -1.48075651e-05
      -1.86503967e-05 -0.000209335456 -0.00042120539 0.312322378
      -0.000150027219 -9.46759683e-05 0.263125598 -1.93887427e-05
      0.0120070241 -0.000142820878 -3.9545961e-05 -1.60728941e-05
      0.00102840364 -7.84511849e-06 0.000534497201 -0.000248434284
      0.00782321952 -0.000107591804 0.0841637999 -0.00068489922
      0.0379508957 0.263234824 -1.60925674e-06 -0.000119869233
      -3.57167642e-06 -5.942548e-07 -0.000194063236 -3.65811889e-06
      0.00167320296 0.3105959 0.561989069 -2.4442299e-05 -0.000187810729
      -9.1247508e-05 -4.19862154e-05 -0.000486606645 0.0036981944
      0.0622277856 -0.000268873002 -0.000190410647 -2.94555339e-05
      -0.00024057593 -6.2550539e-06</_>
    <_>
      2.00485325 -6.94401932 -0.00875720475 8.43523598 -6.94403894e-08
      -0.000196703477 -0.0148546631 -0.000579165295 -0.00121834851
      -2.34308641e-06 -1.9631434e-05 -4.78302127e-07 -9.42031475e-05
      -0.000212271305 -0.000269212003 -0.0609265566 -0.00118043669
      -0.00359585602 2.8247633 -0.000126535684 -0.00142136938
      -0.000873761135 -0.00606558146 -0.0170790721 -1.61730313e-05
      0.847420633 0.596757829 -1.62601755e-05 -6.14159289e-05
      -2.35370317e-05 0.284790486 -0.000241573129 -0.0200963188
      -0.00131948234 -0.00011072123 -0.000793233106 -0.00032819176
      -6.97109717e-05 0.558399141 -0.000337934121 -0.000165800462
      -0.000722051249 -0.00153075333 -0.000719374162 -0.00688915793
      -0.00220101373 -0.000615412137 4.43500423 4.85295486 0.97233659
      -0.00207245559 -0.00559066841 -1.53746976e-06 -0.0115256142
      -0.0617867224 -0.0185125098 4.98529005 -0.00399023201 1.3716203
      -0.00667860033 -0.00125151942 -0.00108372502 -0.000891596428
      0.131741226 -0.00888639875 -4.37702911e-05 -5.06066208e-05
      -2.82998008e-05 -0.00688883662 -0.00199767039 -0.000728418527
      -0.0142456014 -0.00194101699 -0.000146208695 -2.53550957e-06
      -0.0011156901 -2.70743112e-05 -0.00805115234 -0.0383613929
      -0.00196113414 -1.24836224e-05 -1.05107642e-06 -0.000434410613
      -0.025426859 8.15731621 -0.000562315399 2.39358974 -0.00210728683
      -9.84270537e-06 -0.0132725546 -0.00323201669 -0.000541203481
      -0.00655397028 -0.00823843107 2.24101806 -0.0240432806
      -0.00125361467 5.69670343 -0.00857492629 -0.00288059446
      -7.50898544e-05 -0.00886726938 0.960239232 -1.35340304e-06
      -7.92909559e-05 -0.00131151767 0.402206242 -0.00013164377
      -3.58320394e-05 -0.000500124006 1.77808726 -0.00203215098
      -0.00595346419 -2.39255551e-05 -0.000124740982 -0.00102600129
      -7.62360401e-07 -4.09590757e-06 -0.000275674945 -6.6773151e-05
      -0.0104782945 -1.32486766e-05 -0.0030079009 -0.000919859332
      -0.0159205422 -0.0115210349 -0.00379839074 -0.0227183569
      -0.000122598402 -0.00455863215 0.214116186 0.273344696
      -6.6490451e-05 -7.50475301e-05 0.416232675 0.550525546 0.278719544
      -0.00018177717 0.0543475971 -2.06136929e-06 -3.12916235e-08
      0.148848623 -0.00096483354 -0.000248134456 0.43041867 0.886335254
      -0.00463060662 -2.5359177e-05 -0.000217567736 -3.65109804e-06
      -2.93704329e-06 0.785033882 0.270192444 -0.000170769388
      -0.000575434649 -1.37488883e-06 -0.000801329501 -4.57177339e-06
      0.0542995483 -0.000663271232 0.13327232 0.288867533 -0.00156140397
      0.281460285 0.720413089 -2.34954332e-05 -0.000294023863
      0.626555622 0.519376814 0.419009447 -0.000322469685 0.633803666
      0.0232165456 -0.00498947594 -0.0020327461 -0.00398040097
      -0.00356180687 0.36161375 -0.00232614088 -1.73145654e-05
      -0.00256549125 -0.00320354966 0.218662605 -0.00228088698
      -0.000121573299 -3.15736156e-06 -0.000803426141 -2.07752166e-07
      -5.05828723e-07 -0.00149697869 0.370775163 -1.48034906e-05
      -1.86467241e-05 -0.000209311518 -0.000421636243 0.312668502
      -0.000150011081 -9.46655273e-05 0.26359266 -1.93850701e-05
      0.0123593993 -0.000142809469 -3.95398565e-05 -1.60699783e-05
      0.000762574375 -7.8438834e-06 0.000189609826 -0.000248445926
      0.00812541321 -0.000107671331 0.0845514536 -0.000685625069
      0.0370834321 0.263602078 -1.61145601e-06 -0.000119854747
      -3.56985424e-06 -6.12538429e-07 -0.000194064138 -3.65736014e-06
      0.00162344053 0.312098771 0.563441455 -2.44369676e-05
      -0.000199786649 -9.1231901e-05 -4.19804055e-05 -0.000486962846
      0.00396073796 0.0624270663 -0.000268978707 -0.000190389488
      -2.94515248e-05 -0.000242074719 -6.25375424e-06</_>
    <_>
      2.00824523 -6.82093477 -0.00834717043 8.20389462 -6.6045267e-08
      -0.000194431763 -0.0142444391 -0.000556353421 -0.00122911856
      -2.28575004e-06 -1.91640283e-05 -4.69326352e-07 -9.02271277e-05
      -0.000207500925 -0.000258978078 -0.0602548644 -0.00143663667
      -0.00341141364 2.87844348 -0.000122112076 -0.0013739377
      -0.000837911735 -0.00574993063 -0.0167355556 -1.56945316e-05
      0.844927251 0.541476071 -1.62709621e-05 -5.70150551e-05
      -2.26517132e-05 0.371538401 -0.000229598387 -0.0191100072
      -0.00125143735 -0.000109356472 -0.000776739325 -0.0003253943
      -6.71599264e-05 0.718574524 -0.000320933468 -0.000157215924
      -0.00070803985 -0.00144836097 -0.000710305234 -0.00682167942
      -0.00205406756 -0.000573366939 4.53356171 4.83557606 0.944957733
      -0.00197086786 -0.00523973536 -1.32398986e-06 -0.0110042272
      -0.0602555312 -0.0180897843 4.9066987 -0.0038419303 1.49575746
      -0.006457882 -0.00121790322 -0.00103113824 -0.000835501822
      0.09411975 -0.0085567655 -4.45514452e-05 -4.80365416e-05
      -2.79499727e-05 -0.00655640708 -0.00193393393 -0.000730339845
      -0.0145584568 -0.00188494183 -0.000141365381 -2.3086784e-06
      -0.0010871453 -2.69443699e-05 -0.00845568348 -0.0382338911
      -0.0018538367 -1.21534058e-05 -1.02567697e-06 -0.00041168023
      -0.0240710638 7.87633467 -0.000539914938 2.42370105 -0.00123019645
      -9.58785313e-06 -0.0127492016 -0.00281121884 -0.000515159336
      -0.00625132537 -0.00803498738 2.11755586 -0.0232084598
      -0.00125940889 5.61391878 -0.00810363609 -0.00276737544
      -7.37589216e-05 -0.00824648235 0.872489572 -1.34907395e-06
      -7.7643439e-05 -0.00128843333 0.47941941 -0.000129258973
      -3.46366287e-05 -0.000475359033 1.75699055 -0.0019398646
      -0.00561490143 -2.30954465e-05 -0.000121549223 -0.000991899054
      -6.93781487e-07 -3.85574776e-06 -0.000269518525 -6.31952571e-05
      -0.0100952527 -1.29314649e-05 -0.00280483416 -0.000888074515
      -0.0157794543 -0.0112821609 -0.00353962742 -0.0220148582
      -0.000261851092 -0.0043977676 0.18729794 0.256223649
      -6.60665901e-05 -7.74102955e-05 0.384461701 0.540642619
      0.236447245 -0.000178856993 0.0379202887 -2.10700523e-06
      -3.19183258e-08 0.183740675 -0.00163266447 -0.000247916323
      0.419843882 0.866817713 -0.00465838611 -2.55855921e-05
      -0.000219632042 -3.6400229e-06 -2.98158693e-06 0.76547569
      0.308719933 -0.000205206117 -0.000575462589 -1.39793121e-06
      -0.000725895399 -4.63011338e-06 0.0786409006 -0.000818259723
      0.147597015 0.263087094 -0.00145271688 0.289229035 0.711366236
      -2.39634282e-05 -0.000283617846 0.631872892 0.500114977
      0.382908136 -0.000324912078 0.601046979 0.0297317207
      -0.00478849979 -0.00180965243 -0.00403236458 -0.00358631392
      0.374167919 -0.00227101473 -1.75814403e-05 -0.00246261526
      -0.00337425759 0.260592818 -0.00221898826 -0.000120037119
      -3.22762367e-06 -0.000828801887 -2.12420488e-07 -5.14594433e-07
      -0.00164169236 0.365867645 -1.48020972e-05 -1.86449106e-05
      -0.000209321966 -0.000421738107 0.3125453 -0.000150006963
      -9.46615983e-05 0.263525099 -1.93836568e-05 0.0124310143
      -0.000142806719 -3.95376846e-05 -1.60687123e-05 0.00100235641
      -7.84340136e-06 0.000357992947 -0.000248484488 0.00846821442
      -0.00010766631 0.0845811665 -0.000686022744 0.0368933007
      0.26351428 -1.61225557e-06 -0.000119851189 -3.56922146e-06
      -6.16486659e-07 -0.000194078573 -3.65702203e-06 0.00191838667
      0.312298536 0.563522279 -2.44348375e-05 -0.000200716328
      -9.12266405e-05 -4.19781027e-05 -0.000487190177 0.0040119309
      0.0623833388 -0.000269027805 -0.000190395993 -2.94500751e-05
      -0.000242342532 -6.25327812e-06</_>
    <_>
      2.24246049 -6.16347885 -0.00873050466 8.28878212 -7.03147265e-08
      -0.000201935356 -0.0147456331 -0.000577551138 -0.00124673685
      -2.64978826e-06 -1.94937347e-05 -4.62847993e-07 -9.69600078e-05
      -0.000219090391 -0.000275265309 -0.0605352148 -0.0020487716
      -0.00361314416 2.78624797 -0.000131746143 -0.00139794499
      -0.000864548958 -0.00606749719 -0.0173828434 -1.66273257e-05
      0.816070616 0.493234366 -1.58222883e-05 -6.18278646e-05
      -2.41849266e-05 0.230708688 -0.000239852161 -0.0204740297
      -0.00132833631 -0.000115121482 -0.000801114191 -0.000326062844
      -7.2091636e-05 0.391321719 -0.000353230542 -0.000163020697
      -0.000718485971 -0.00155779207 -0.000730090193 -0.00744038494
      -0.00216582767 -0.000621682848 4.38761139 4.87128735 0.632546842
      -0.00213801698 -0.00571062975 -1.51610061e-06 -0.0114546604
      -0.0628958717 -0.0179179814 4.71024275 -0.00397524238 1.22035623
      -0.00668648444 -0.00130968611 -0.00108762842 -0.000900217041
      0.0624303445 -0.00948011968 -4.35406764e-05 -5.15146021e-05
      -3.00056745e-05 -0.00684829149 -0.00199853838 -0.000719893957
      -0.0153070288 -0.00192844553 -0.000145776532 -2.41932685e-06
      -0.00113701716 -2.64904156e-05 -0.00879028998 -0.0370267779
      -0.00197468908 -1.23401778e-05 -1.17868512e-06 -0.00043038663
      -0.0282365587 8.23089886 -0.000569361378 2.31747031 -0.0021473649
      -9.89931232e-06 -0.0130116912 -0.00308533758 -0.000547483971
      -0.00640136842 -0.00786313042 2.0986414 -0.0235806983
      -0.00127113587 5.71534109 -0.00837492943 -0.00288359402
      -8.21478825e-05 -0.00856795534 0.839510679 -1.41789735e-06
      -8.33749655e-05 -0.00130609097 0.35977453 -0.000133645415
      -3.60880658e-05 -0.000510466401 1.43310452 -0.0020371133
      -0.00475396635 -2.40378686e-05 -0.00013191851 -0.0010463621
      -7.6789479e-07 -3.98265001e-06 -0.000283304893 -6.63590545e-05
      -0.0104662441 -1.34388556e-05 -0.00292969448 -0.000953465584
      -0.016349664 -0.0113447141 -0.0037829869 -0.0226476882
      -0.000643527193 -0.00418855436 0.18729794 0.256223649
      -6.60665901e-05 -7.74102955e-05 0.384461701 0.540642619
      0.236447245 -0.000178856993 0.0379202887 -2.10700523e-06
      -3.19183258e-08 0.183740675 -0.00163266447 -0.000247916323
      0.419843882 0.866817713 -0.00465838611 -2.55855921e-05
      -0.000219632042 -3.6400229e-06 -2.98158693e-06 0.76547569
      0.308719933 -0.000205206117 -0.000575462589 -1.39793121e-06
      -0.000725895399 -4.63011338e-06 0.0786409006 -0.000818259723
      0.147597015 0.263087094 -0.00145271688 0.289229035 0.711366236
      -2.39634282e-05 -0.000283617846 0.631872892 0.500114977
      0.382908136 -0.000324912078 0.601046979 0.0297317207
      -0.00478849979 -0.00180965243 -0.00403236458 -0.00358631392
      0.374167919 -0.00227101473 -1.75814403e-05 -0.00246261526
      -0.00337425759 0.260592818 -0.00221898826 -0.000120037119
      -3.22762367e-06 -0.000828801887 -2.12420488e-07 -5.14594433e-07
      -0.00164169236 0.365867645 -1.48036697e-05 -1.86465277e-05
      -0.000209324586 -0.000421587902 0.312497437 -0.000150012696
      -9.46657528e-05 0.263425589 -1.93851301e-05 0.0123124905
      -0.000142810721 -3.95400712e-05 -1.60699346e-05 0.000987462699
      -7.84389977e-06 0.00038934499 -0.000248467666 0.0082667321
      -0.000107647073 0.0844682157 -0.000685689272 0.0371899232
      0.263448298 -1.61138894e-06 -0.00011985629 -3.56992882e-06
      -6.10242125e-07 -0.000194073189 -3.65734331e-06 0.00182686374
      0.311830521 0.563109636 -2.44370058e-05 -0.000197222602
      -9.12326359e-05 -4.19804601e-05 -0.000487015088 0.00392439403
      0.06234622 -0.000268982374 -0.000190399267 -2.94516503e-05
      -0.000241851259 -6.25379062e-06</_>
    <_>
      2.09628725 -6.71793795 -0.00851773005 8.22838593 -6.40762821e-08
      -0.000191336003 -0.0146428961 -0.000535612868 -0.00119485892
      -2.13372277e-06 -1.88549402e-05 -4.82716246e-07 -8.96208148e-05
      -0.000200897746 -0.000268380332 -0.0607995838 0.109472185
      -0.00342220766 2.74505806 -0.000123427293 -0.00136163097
      -0.000837489031 -0.0058036237 -0.0162520278 -1.56729657e-05
      1.14791381 0.797338843 -1.55433936e-05 -5.74493242e-05
      -2.20090915e-05 0.330578834 -0.000230635531 -0.0170185901
      -0.00131329196 -0.000107993146 -0.000763581891 -0.000333390402
      -6.73172035e-05 0.665334284 -0.000321493921 -0.000152694949
      -0.000708571344 -0.00147887191 -0.00068993232 -0.00724150799
      -0.00193917437 -0.000594115467 4.49240828 4.96542549 0.887411535
      -0.00198870036 -0.00529559003 -1.15744081e-06 -0.0110140936
      -0.0596897528 -0.0180268362 4.92383623 -0.00391221698 1.42586076
      -0.00654726382 -0.00116144912 -0.00102509232 -0.000810041034
      0.281212926 -0.0056716525 -4.43555764e-05 -4.63325923e-05
      -2.74116883e-05 -0.00646321336 -0.001988373 -0.00072029396
      -0.014984427 -0.00189437578 -0.000135809198 -2.19288063e-06
      -0.00105782249 -2.62103822e-05 -0.00563471718 -0.0382091254
      -0.00183628418 -1.21303856e-05 -9.7549821e-07 -0.000399261975
      -0.0253897831 7.99113131 -0.000501716684 2.45117068
      -0.000781464099 -9.84364033e-06 -0.0127157057 -0.0025598614
      -0.000515804742 -0.00612130109 -0.00785235874 2.54309392
      -0.0238528047 -0.00129693071 5.6588788 -0.00808105059
      -0.00275659375 -7.18661322e-05 -0.00828292873 1.08149028
      -1.28389081e-06 -7.6013981e-05 -0.00128250744 0.435711324
      -0.000132061003 -3.52243551e-05 -0.000496057793 1.67665613
      -0.00188834278 -0.00592859276 -2.22713225e-05 -0.000116962314
      -0.000983897713 -6.61988452e-07 -3.89528986e-06 -0.000266764459
      -6.35978577e-05 -0.010389749 -1.32097266e-05 -0.00276001007
      -0.000918482605 -0.0132730985 -0.0113541707 -0.00368050928
      -0.0225366745 0.164647564 -0.00426789233 0.171630278 0.235122979
      -6.61223312e-05 -7.64560391e-05 0.388517976 0.556264877
      0.271294028 -0.000180144823 0.0404554605 -2.11344104e-06
      -3.17732365e-08 0.166901916 -0.00141865911 -0.000248037191
      0.413972586 0.865327477 -0.00444947276 -2.55308951e-05
      -0.000221772934 -3.64841685e-06 -2.96581948e-06 0.760969758
      0.324008197 -8.91265227e-05 -0.000652214396 -1.3953179e-06
      -0.00100881408 -4.61383297e-06 0.0776922479 -0.00101391017
      0.14568828 0.248527035 -0.00148425577 0.27326104 0.713612854
      -2.40756563e-05 -0.000287370378 0.634898424 0.536565304
      0.422015339 -0.000328866619 0.598288715 0.0113449991
      -0.00531888753 -0.00165172527 -0.00387039315 -0.00395947415
      0.386058867 -0.00226316391 -1.75707082e-05 -0.00246768468
      -0.00327042816 0.24688141 -0.00224796543 -0.000119999793
      -3.22665278e-06 -0.000993365538 -2.11490146e-07 -5.12534086e-07
      -0.00167932571 0.3256706 -1.47957744e-05 -1.86371672e-05
      -0.000209353282 -0.000422238722 0.312189758 -0.000149987085
      -9.46440632e-05 0.263413608 -1.93773722e-05 0.0128025673
      -0.0001427932 -3.95278803e-05 -1.60632026e-05 0.00180923939
      -7.84126769e-06 0.000876963139 -0.000248629309 0.00982962362
      -0.000107671949 0.0848089829 -0.000687698543 0.0359252095
      0.263296366 -1.61583228e-06 -0.000119833814 -3.56636224e-06
      -6.36274308e-07 -0.000194131877 -3.65555661e-06 0.00299578533
      0.313490689 0.564253628 -2.44254334e-05 -0.000207793186
      -9.12026881e-05 -4.196792e-05 -0.000488131453 0.0042807553
      0.0622820929 -0.000269239332 -0.000190413615 -2.94435577e-05
      -0.000243781964 -6.25114444e-06</_>
    <_>
      2.05373168 -7.00833178 -0.00811703037 8.28881836 -5.96559175e-08
      -0.000181926371 -0.014221278 -0.000505002332 -0.00105065561
      -2.1532544e-06 -1.8556344e-05 -4.65049055e-07 -8.96014899e-05
      -0.000208130252 -0.000256947358 -0.062345136 0.405823231
      -0.00330070243 2.54744625 -0.000123598555 -0.00130500528
      -0.000797778717 -0.0055145151 -0.0154899117 -1.58409075e-05
      1.34496152 1.02301967 -1.64275352e-05 -5.93194673e-05
      -2.15298278e-05 0.121338651 -0.000221405207 -0.0160876624
      -0.00129820686 -0.000102287457 -0.000715151255 -0.000326904905
      -6.7638066e-05 0.678647637 -0.000313926081 -0.000150814347
      -0.000673440518 -0.00140096841 -0.000657409953 -0.00677573727
      -0.00196622685 -0.000572905294 4.17253685 4.97387218 1.18388891
      -0.00192658138 -0.00507271802 -1.56629665e-06 -0.0105835209
      -0.0564249456 -0.0175345577 5.10158587 -0.00371657894 1.52879488
      -0.00614034617 -0.00114764192 -0.000936151599 -0.000766453624
      0.413610578 -0.00303016114 -4.423465e-05 -4.43859171e-05
      -2.77134295e-05 -0.00632047094 -0.00192920433 -0.000708966982
      -0.0159142558 -0.00179997203 -0.000129537642 -1.98637667e-06
      -0.00106355222 -2.68779568e-05 -0.0030239739 -0.0392435789
      -0.00174101011 -1.2332499e-05 -8.82233337e-07 -0.000364533829
      -0.0238874462 7.99046564 -0.000499906426 2.52538276 0.0274088606
      -9.16663521e-06 -0.0126818372 -0.00287293456 -0.000495563378
      -0.00592006976 -0.00796075072 2.91032624 -0.0234757997
      -0.00120430544 5.67222786 -0.00797215849 -0.00267150626
      -7.05414132e-05 -0.00828462932 1.28629816 -1.29875548e-06
      -7.18857409e-05 -0.00126878126 0.232377633 -0.000127009553
      -3.45120025e-05 -0.000470714789 1.74774253 -0.00183029345
      -0.0067803571 -2.21008522e-05 -0.000108227032 -0.000947117805
      -7.03186799e-07 -3.8952312e-06 -0.000258252752 -6.09196431e-05
      -0.0101981163 -1.25600991e-05 -0.00256339996 -0.000920563994
      -0.0109661715 -0.0111608813 -0.0036012237 -0.0230190158
      0.350869715 -0.00459630648 0.176733479 0.244282246 -6.5981927e-05
      -7.85865341e-05 0.379157186 0.572984397 0.237953186
      -0.000180345087 0.0374921337 -2.07344419e-06 -3.1488252e-08
      0.176963598 -0.00177030859 -0.000247625227 0.416572243 0.898587286
      -0.00451656617 -2.54326314e-05 -0.000222197472 -3.56909936e-06
      -2.9390701e-06 0.81366545 0.312680453 -0.000446073624
      -0.000504962227 -1.37995403e-06 -0.000852300553 -4.57956639e-06
      0.0799298286 -0.00109945564 0.15504095 0.283076108 -0.00147655769
      0.290822148 0.756598651 -2.37443855e-05 -0.000288549956
      0.646688044 0.517017066 0.417376697 -0.000330379757 0.606210649
      0.0343532786 -0.00506212469 -0.00158662302 -0.00389618799
      -0.00365275168 0.378209949 -0.00234347279 -1.75200439e-05
      -0.00253358041 -0.00298862997 0.257654011 -0.00227607018
      -0.000120360244 -3.18579509e-06 -0.000656385906 -2.08427025e-07
      -5.07032098e-07 -0.00185541576 0.421927869 -1.47961564e-05
      -1.86376055e-05 -0.000209352365 -0.00042220598 0.312197804
      -0.000149988351 -9.46451037e-05 0.263408065 -1.93777432e-05
      0.0127779469 -0.000142794088 -3.9528466e-05 -1.60635209e-05
      0.0017786473 -7.8413932e-06 0.000861145556 -0.000248622382
      0.00976150297 -0.000107669977 0.0847901553 -0.00068760541
      0.0359880105 0.263297737 -1.61561786e-06 -0.000119834942
      -3.56653459e-06 -6.34944286e-07 -0.000194129403 -3.65564097e-06
      0.00294824317 0.313403368 0.564187765 -2.44259845e-05
      -0.000207209203 -9.1204136e-05 -4.19685202e-05 -0.000488080288
      0.00426276214 0.0622822903 -0.000269227225 -0.000190413281
      -2.94439469e-05 -0.000243683302 -6.25127223e-06</_>
    <_>
      2.05860329 -6.81702089 -0.00823746808 8.42658806 -6.03179942e-08
      -0.000192464548 -0.0142987557 -0.000505669566 -0.00107523811
      -2.14561601e-06 -1.82953663e-05 -4.52051125e-07 -9.19001977e-05
      -0.000207312958 -0.000267989148 -0.0624609329 0.295426309
      -0.00332131144 2.3921926 -0.000128360669 -0.00129815366
      -0.000805771793 -0.00557443965 -0.0155490134 -1.54148784e-05
      1.24201274 0.88385427 -1.64929716e-05 -5.75356862e-05
      -2.17689758e-05 0.0937967002 -0.000226374541 -0.0166512933
      -0.0013266562 -0.000106674117 -0.000726733881 -0.000324245921
      -6.81507954e-05 0.721650243 -0.000321178493 -0.000146914768
      -0.000674059207 -0.00145500212 -0.000679119781 -0.00690398738
      -0.00193080946 -0.000570511038 4.03495646 4.9600172 0.969450712
      -0.00200197776 -0.00523285847 -1.30555122e-06 -0.0105929198
      -0.0603968017 -0.0174322966 5.10555363 -0.00383675215 1.429829
      -0.0062951385 -0.00113856082 -0.000972717011 -0.000761917734
      0.335909843 -0.00350970915 -4.44736506e-05 -4.47920465e-05
      -2.79837532e-05 -0.00642970484 -0.00197853986 -0.000688094529
      -0.016588416 -0.00179749355 -0.000132322122 -2.15762134e-06
      -0.00107342191 -2.70802921e-05 -0.00406585494 -0.0394695289
      -0.00174955942 -1.22201182e-05 -9.32938178e-07 -0.000371711445
      -0.0258846674 8.14268589 -0.000527910015 2.51950002 0.0271540061
      -9.45723696e-06 -0.0126586817 -0.00244532153 -0.000506923825
      -0.0059549259 -0.00776448706 2.67204452 -0.0237932485
      -0.00121386314 5.72040796 -0.00792456791 -0.00272502471
      -7.206195e-05 -0.00839999877 1.17282355 -1.23339612e-06
      -7.33690395e-05 -0.0012811257 0.122490697 -0.000129562701
      -3.33455864e-05 -0.000485907833 1.60670209 -0.00186294329
      -0.0057922625 -2.22439958e-05 -0.00011417691 -0.000990918954
      -7.1002853e-07 -3.77670585e-06 -0.000269333803 -6.1344108e-05
      -0.0104242526 -1.30333292e-05 -0.00244490663 -0.000955234282
      -0.0117842266 -0.0108108204 -0.00367219024 -0.0226686113
      0.351852417 -0.00439658295 0.209855169 0.249398082 -6.60869337e-05
      -7.66121884e-05 0.385316789 0.524886072 0.243612915
      -0.000179806622 0.0246317685 -2.07456196e-06 -3.10418891e-08
      0.178982317 -0.00145753555 -0.000247471064 0.399322599 0.942261636
      -0.0045500407 -2.5434796e-05 -0.000222737523 -3.62031733e-06
      -2.92510572e-06 0.845346272 0.263770103 -0.000893606455
      -0.000739169715 -1.36412712e-06 -0.00116009882 -4.55899772e-06
      0.072958447 -0.00118943118 0.153248027 0.27488488 -0.00156201399
      0.311397016 0.751581132 -2.36696742e-05 -0.000292654731
      0.628986418 0.490849108 0.419803679 -0.000334433833 0.625749946
      0.0537382513 -0.00458442373 -0.00178327621 -0.00383638055
      -0.00325209601 0.320987463 -0.00242527621 -1.73082917e-05
      -0.00259956671 -0.00282836007 0.193778768 -0.00227267039
      -0.000121898105 -3.13762189e-06 -0.000793305866 -2.0634981e-07
      -5.00548026e-07 -0.00176885747 0.491292238 -1.48055597e-05
      -1.86480793e-05 -0.000209340666 -0.000421375385 0.312268078
      -0.000150020525 -9.46704895e-05 0.263146788 -1.93867891e-05
      0.0121389814 -0.000142816294 -3.9542876e-05 -1.60712134e-05
      0.00120343268 -7.84445638e-06 0.000628292561 -0.000248471479
      0.00820059329 -0.000107602034 0.0842636824 -0.000685394218
      0.0376113132 0.263217688 -1.61037781e-06 -0.000119863354
      -3.57077215e-06 -6.01069758e-07 -0.00019407658 -3.65767369e-06
      0.00194042176 0.311059207 0.562327862 -2.44393923e-05
      -0.000190903316 -9.12398755e-05 -4.19830576e-05 -0.000486879377
      0.00379444845 0.0622239821 -0.000268936827 -0.000190412757
      -2.94534875e-05 -0.000241100061 -6.25438452e-06</_>
    <_>
      1.69789457 -7.91142464 -0.00817610882 8.73358631 -5.37192228e-08
      -0.000197332018 -0.0145551581 -0.000483274634 -0.00103569508
      -2.10158737e-06 -1.85793269e-05 -4.65224161e-07 -9.1866088e-05
      -0.000218457673 -0.000267091033 -0.0672833845 0.830201685
      -0.0032401788 2.11064792 -0.000123347505 -0.00129824039
      -0.000816438987 -0.00547439605 -0.0150424084 -1.58333769e-05
      1.73793852 1.35166466 -1.76453559e-05 -5.78869731e-05
      -2.13310286e-05 -0.000982870115 -0.000224712989 -0.0141790314
      -0.00139372121 -0.00010838177 -0.00070686877 -0.000337552745
      -7.09721426e-05 0.828467309 -0.000329134433 -0.00013926634
      -0.000707579544 -0.00145668408 -0.00069112872 -0.00695176004
      -0.00184153684 -0.000577954866 3.88222456 5.11180878 1.33633816
      -0.00201727031 -0.00512456801 -1.30351611e-06 -0.0103304321
      -0.0600424334 -0.0183479022 5.72094774 -0.00389320659 1.71789229
      -0.00626726868 -0.00113385904 -0.000923596323 -0.000709547487
      0.652409434 0.226487398 -4.58880277e-05 -4.28453386e-05
      -2.916833e-05 -0.00640467508 -0.00206690631 -0.000700054516
      -0.0186496191 -0.00175467355 -0.000127935316 -2.04327807e-06
      -0.00109278644 -2.90460066e-05 0.121467248 -0.0435840897
      -0.00168058695 -1.26443174e-05 -9.14041266e-07 -0.000341022824
      -0.0254827943 8.29061604 -0.000506210083 2.67731762 0.289870977
      -9.16196313e-06 -0.0132364146 -0.00220125169 -0.00051660568
      -0.00594189577 -0.00807140768 3.49157333 -0.0250550304
      -0.0012391276 5.85284233 -0.00808294397 -0.00271872641
      -7.33162888e-05 -0.0088324789 1.61211205 -1.28044553e-06
      -7.23515041e-05 -0.00131689443 -0.000730163534 -0.000131731344
      -3.41423402e-05 -0.000494739332 1.74230349 -0.00183117902
      -0.00773213385 -2.14056145e-05 -0.000111512221 -0.000987098436
      -7.24160543e-07 -3.8858866e-06 -0.000281248154 -6.04986853e-05
      -0.010783663 -1.32890664e-05 -0.00215330254 -0.00100299902
      -0.00764015783 -0.0111481594 -0.00398545945 -0.0237676669
      0.756047368 -0.00503990985 0.23784034 0.283246785 -6.59883081e-05
      -7.66585508e-05 0.402732074 0.431394994 0.195532098
      -0.000179767303 -0.000299716514 -2.02159345e-06 -3.03796881e-08
      0.237493411 -0.000908599235 -0.000238934357 0.365096688
      0.974239349 -0.00423531421 -2.58719629e-05 -0.000219340247
      -3.51965514e-06 -2.90670573e-06 0.878938437 0.166718259
      -0.001451827 -0.000467573147 -1.3374372e-06 -0.00112903805
      -4.51469214e-06 0.0756489635 -0.00111965684 0.163213074
      0.306410193 -0.00144050003 0.340848237 0.780679643 -2.34007603e-05
      -0.000299469742 0.612552524 0.411989093 0.429008126
      -0.000329300266 0.620292604 0.157479733 -0.00404640706
      -0.00194815209 -0.00334536214 -0.00237756385 0.268632799
      -0.00251679821 -1.71032389e-05 -0.0027143748 -0.00198510452
      0.127909675 -0.00229678722 -0.00012443091 -3.10632936e-06
      -0.000856197206 -2.02689222e-07 -4.90047739e-07 -0.00185686955
      0.622638166 -1.481457e-05 -1.86587149e-05 -0.000209309394
      -0.000420628901 0.312598586 -0.000150049862 -9.46952205e-05
      0.263142109 -1.93956294e-05 0.0115770511 -0.000142836347
      -3.95567804e-05 -1.6078875e-05 0.000293217599 -7.84745498e-06
      9.52333212e-05 -0.000248289725 0.00643965974 -0.000107571257
      0.0838677883 -0.000683113525 0.0390593261 0.263373077
      -1.60530908e-06 -0.000119889097 -3.57484146e-06 -5.71151588e-07
      -0.000194010732 -3.65970595e-06 0.000633656979 0.309143722
      0.56099093 -2.44525727e-05 -0.000178623115 -9.12740506e-05
      -4.19973403e-05 -0.000485614204 0.00338559784 0.062288411
      -0.000268644653 -0.000190397477 -2.94627171e-05 -0.000238881054
      -6.25740131e-06</_>
    <_>
      1.75114894 -7.94941854 -0.00879275426 9.10883904 -5.82549156e-08
      -0.000214072017 -0.0152952978 -0.000518445042 -0.0010888027
      -2.22789072e-06 -1.92043153e-05 -4.63682255e-07 -9.95151277e-05
      -0.0002308556 -0.000285952236 -0.0689780712 0.771777093
      -0.00348316832 2.02467465 -0.000136149712 -0.00139429769
      -0.000888227369 -0.0059314114 -0.0159462932 -1.65453057e-05
      1.66112041 1.32779443 -1.8018216e-05 -6.19691855e-05
      -2.28504723e-05 -0.00209112256 -0.000241659291 -0.0162841417
      -0.00150542764 -0.000115536037 -0.000749535626 -0.00034046825
      -7.67264792e-05 0.61607182 -0.000359987462 -0.000152035573
      -0.00072818232 -0.00158955716 -0.000743764569 -0.00694353227
      -0.00202423311 -0.00061756128 3.73409367 5.21347427 1.19262731
      -0.00222614617 -0.0056116078 -1.38814789e-06 -0.0109629221
      -0.0645212084 -0.0192609858 5.81787443 -0.00419402635 1.56776631
      -0.00663389545 -0.00119162828 -0.000993437483 -0.000781631621
      0.604919314 0.118322097 -4.57579226e-05 -4.72295142e-05
      -3.06508155e-05 -0.00700450828 -0.00221621036 -0.000708433741
      -0.0194968302 -0.0018197553 -0.000140135904 -2.49012942e-06
      -0.00117544085 -3.00432712e-05 0.111543015 -0.0440130383
      -0.00181530742 -1.33348394e-05 -9.89087539e-07 -0.000373335206
      -0.0288549364 8.7172823 -0.000593169709 2.6645782 0.0507508963
      -9.71601548e-06 -0.0138747189 -0.00246403995 -0.000569160329
      -0.00644091098 -0.00834762584 3.51635098 -0.0264048055
      -0.00126102485 6.03104448 -0.00865312852 -0.00293471687
      -7.76154338e-05 -0.00959817134 1.64946747 -1.3036132e-06
      -7.78110989e-05 -0.00137333944 -0.00269132666 -0.000138621312
      -3.55309276e-05 -0.000536466425 1.66930926 -0.00202342751
      -0.00696241716 -2.31261565e-05 -0.000121591154 -0.00107366662
      -7.81225651e-07 -4.19376101e-06 -0.000302403409 -6.51461232e-05
      -0.0115189003 -1.40891625e-05 -0.002294929 -0.00109589414
      -0.00861054566 -0.0115424376 -0.00453884481 -0.0245390832
      0.758832216 -0.00537787238 0.248861909 0.293748319 -6.60372316e-05
      -7.54708744e-05 0.398358375 0.44518438 0.200357407 -0.000180287883
      -0.000189076731 -2.01227658e-06 -3.01552774e-08 0.235182568
      -0.00100162765 -0.000243045128 0.384753972 0.968029201
      -0.00432131579 -2.56652202e-05 -0.000221112437 -3.52203051e-06
      -2.88341016e-06 0.872536004 0.178094283 -0.00143246562
      -0.000489551283 -1.32828745e-06 -0.00111504213 -4.48574929e-06
      0.0794470087 -0.000991282985 0.157990769 0.307167798
      -0.00148229476 0.336124063 0.77391839 -2.3139366e-05
      -0.000302479137 0.613580346 0.428690404 0.433297217
      -0.000330523995 0.630535722 0.141258895 -0.00404662639
      -0.00206291047 -0.00357627892 -0.00243005855 0.277907133
      -0.00252597081 -1.70655439e-05 -0.00274731871 -0.00229054806
      0.131129518 -0.00231428444 -0.000124481143 -3.06763741e-06
      -0.000734316942 -2.00977183e-07 -4.86787599e-07 -0.00184010074
      0.622784078 -1.48169156e-05 -1.86609486e-05 -0.000209319202
      -0.000420390366 0.312449634 -0.000150058841 -9.47013032e-05
      0.262921333 -1.93977776e-05 0.0113855563 -0.000142842662
      -3.95603129e-05 -1.60806103e-05 0.000376872718 -7.84817894e-06
      0.000233329833 -0.000248275639 0.00621757284 -0.000107532498
      0.0836674571 -0.000682664046 0.0395330638 0.263206244
      -1.60403135e-06 -0.000119897137 -3.57589329e-06 -5.61092179e-07
      -0.000194007196 -3.66015956e-06 0.000597786158 0.308348626
      0.560244501 -2.44557068e-05 -0.000172430344 -9.12830219e-05
      -4.20007491e-05 -0.000485386903 0.00324335136 0.0621976294
      -0.000268581032 -0.000190406718 -2.94650436e-05 -0.00023807332
      -6.2581571e-06</_>
    <_>
      2.14967227 -6.7428956 -0.00833640806 8.51099014 -5.89094533e-08
      -0.000189443381 -0.01455558 -0.000495236076 -0.00103723409
      -2.08880533e-06 -1.83640059e-05 -4.58330533e-07 -9.23237894e-05
      -0.000210407365 -0.000267542637 -0.0643615723 0.490682125
      -0.00335696083 2.33678102 -0.000127078587 -0.00131752715
      -0.000815908075 -0.005636652 -0.0155154997 -1.56783553e-05
      1.4778564 1.07722735 -1.63917593e-05 -5.88674229e-05
      -2.17483648e-05 -0.00021180819 -0.000226866323 -0.0156849399
      -0.00136839726 -0.000105924591 -0.000716501614 -0.000331035291
      -6.96625139e-05 0.559301496 -0.000331687479 -0.000145677011
      -0.000694433576 -0.00145992229 -0.000678377342 -0.00698982459
      -0.00189466204 -0.000590357231 4.03512096 5.13475752 1.00812304
      -0.00202792813 -0.00531758135 -1.2447905e-06 -0.0107066501
      -0.0602489039 -0.0175940637 5.18650627 -0.00389409647 1.50641644
      -0.00634876313 -0.00114400091 -0.000959476165 -0.000757200236
      0.457405806 -0.00172461628 -4.42556011e-05 -4.46730191e-05
      -2.8358394e-05 -0.00645117927 -0.00204127561 -0.000692684203
      -0.018479377 -0.0017830492 -0.000129359978 -2.09566861e-06
      -0.00109124952 -2.70758028e-05 -0.00202682475 -0.0408527739
      -0.00175122602 -1.2317234e-05 -9.30771023e-07 -0.000362670777
      -0.0274073873 8.2309885 -0.000496465189 2.60293078 0.0873935148
      -9.39047914e-06 -0.0130176581 -0.00254512066 -0.00052018062
      -0.00595782744 -0.00781635661 3.04105687 -0.024323659
      -0.00123679836 5.77592516 -0.00807704031 -0.00274849311
      -7.28084706e-05 -0.00842501596 1.34175265 -1.24876965e-06
      -7.16666691e-05 -0.00129548809 0.0485888198 -0.000128467698
      -3.42152598e-05 -0.000496414257 1.51487601 -0.00183980481
      -0.00653674174 -2.17247707e-05 -0.000113500799 -0.000968382461
      -6.97872451e-07 -3.92484253e-06 -0.000274565537 -6.2318235e-05
      -0.0107578766 -1.32070372e-05 -0.00240436941 -0.00098273193
      -0.0102015538 -0.0110888183 -0.0039501721 -0.0234816354
      0.493712068 -0.00459344545 0.233452827 0.29134354 -6.605409e-05
      -7.5771437e-05 0.385819703 0.433002442 0.185737327 -0.000180852527
      -0.000156089518 -2.01940406e-06 -3.02925685e-08 0.247449532
      -0.00104930403 -0.000241106653 0.390610754 0.953468084
      -0.0041769878 -2.58434975e-05 -0.000218794754 -3.52428469e-06
      -2.89575837e-06 0.853264391 0.177976921 -0.00141179434
      -0.000483063632 -1.33332549e-06 -0.000960692647 -4.50136213e-06
      0.0715676248 -0.00087747752 0.157652587 0.293820471 -0.00147480855
      0.354516625 0.778508842 -2.31590147e-05 -0.000301757012
      0.613054037 0.419356018 0.425933778 -0.000327717658 0.641203105
      0.139221251 -0.00391366519 -0.00208582077 -0.00358882034
      -0.00243974896 0.293370813 -0.00250148075 -1.70971016e-05
      -0.00272809807 -0.00217423006 0.140342429 -0.0023240936
      -0.000124437938 -3.09546635e-06 -0.00075040065 -2.01944232e-07
      -4.89144668e-07 -0.00198220136 0.608023107 -1.48161889e-05
      -1.8660543e-05 -0.000209307109 -0.000420488359 0.312624216
      -0.000150055494 -9.4699637e-05 0.263107985 -1.93971937e-05
      0.0114675947 -0.000142840261 -3.95592651e-05 -1.60802101e-05
      0.000175729394 -7.84798522e-06 4.05162573e-05 -0.000248262717
      0.006153211 -0.000107559223 0.0837797299 -0.000682723068
      0.0393408313 0.263370872 -1.60440072e-06 -0.000119894088
      -3.57557019e-06 -5.65484527e-07 -0.000194001492 -3.66005861e-06
      0.000441130251 0.308747023 0.560686946 -2.44548955e-05
      -0.000175900524 -9.12803225e-05 -4.19998614e-05 -0.000485401601
      0.00330596603 0.0622832552 -0.000268594566 -0.000190397259
      -2.94643633e-05 -0.000238436609 -6.25793928e-06</_>
    <_>
      2.59803319 -5.95407772 -0.0089032026 8.6816349 -6.76194105e-08
      -0.000215363791 -0.015084154 -0.000555401319 -0.00122859969
      -2.4173969e-06 -1.96066649e-05 -4.73466969e-07 -9.8653305e-05
      -0.000220396905 -0.000280736334 -0.0646841004 0.0432823002
      -0.00364429946 2.70175147 -0.000133660986 -0.00141128234
      -0.000880785985 -0.00621347595 -0.0171962157 -1.6624228e-05
      1.16261852 0.726306856 -1.63138575e-05 -6.34404787e-05
      -2.40435329e-05 0.0737683773 -0.000245714094 -0.0185848642
      -0.00135853188 -0.000115904862 -0.000789810263 -0.000338060141
      -7.36544098e-05 0.462073952 -0.00035886679 -0.00016046474
      -0.000735454611 -0.0015736192 -0.000738423376 -0.00826296024
      -0.00214112969 -0.000646745902 4.51431942 5.20502138 0.638147652
      -0.00219217315 -0.00593293365 -1.35172741e-06 -0.0115290135
      -0.0652060807 -0.0184627064 4.80356169 -0.0040932172 1.27255833
      -0.00679776259 -0.00126646541 -0.00108781049 -0.000876585022
      0.164218396 -0.0055064247 -4.50678126e-05 -5.00554816e-05
      -3.06361835e-05 -0.0069695292 -0.00209100544 -0.000717563438
      -0.0184987299 -0.00189630722 -0.000143927813 -2.28665772e-06
      -0.00113978377 -2.70925575e-05 -0.0059479028 -0.0388558991
      -0.00197688374 -1.27306203e-05 -1.10948895e-06 -0.000420871394
      -0.0307864938 8.61900997 -0.000568890537 2.51124978 -0.0010703553
      -1.00497691e-05 -0.0133379027 -0.00278917863 -0.000562342699
      -0.00654835207 -0.00789110176 2.51277375 -0.024746418
      -0.00131603668 5.99624538 -0.00851955172 -0.002927433
      -8.0351434e-05 -0.00892513432 1.00677478 -1.32245998e-06
      -8.14133018e-05 -0.0013430129 0.186944991 -0.00013435974
      -3.66524218e-05 -0.000526350748 1.33088386 -0.00207212311
      -0.00403356319 -2.36032429e-05 -0.000130818968 -0.00103490055
      -7.35972776e-07 -4.00803265e-06 -0.000293201389 -6.7772693e-05
      -0.0109934723 -1.40464999e-05 -0.00292718527 -0.000994192436
      -0.0139494417 -0.0113787241 -0.00424178829 -0.0235763583
      0.256999731 -0.00432751607 0.242329746 0.300441027 -6.61364902e-05
      -7.52284977e-05 0.400029749 0.443789482 0.172809064
      -0.000181139505 -0.00014200501 -1.99690089e-06 -3.02277385e-08
      0.251754463 -0.00099516206 -0.000244291499 0.403153419 0.95858705
      -0.00432938943 -2.57603497e-05 -0.000219358088 -3.49777588e-06
      -2.87721878e-06 0.840966284 0.19533892 -0.00124704593
      -0.000481827214 -1.32959713e-06 -0.000884349982 -4.49359823e-06
      0.0617714673 -0.000721499324 0.141409963 0.29530248 -0.00149292627
      0.327338696 0.780925393 -2.2778755e-05 -0.000304061075 0.611824036
      0.408717752 0.422079206 -0.000329176488 0.635095894 0.129072011
      -0.00372736156 -0.00215846743 -0.00385069568 -0.00253127189
      0.301194787 -0.00250437018 -1.71662614e-05 -0.00273011369
      -0.00250016944 0.161726251 -0.00229860866 -0.000125236489
      -3.07648429e-06 -0.000661312719 -2.0130355e-07 -4.88657861e-07
      -0.00197695172 0.618792951 -1.48168783e-05 -1.8661709e-05
      -0.000209295962 -0.000420463301 0.312820256 -0.000150057676
      -9.47019435e-05 0.263257325 -1.93979704e-05 0.0114462674
      -0.000142841804 -3.95603929e-05 -1.60809614e-05 -1.2643635e-06
      -7.84825079e-06 -1.93655478e-06 -0.000248229771 0.00582459569
      -0.000107567292 0.083803378 -0.000682436745 0.0394230336
      0.263531387 -1.60396439e-06 -0.000119896089 -3.5758776e-06
      -5.65059565e-07 -0.000193990229 -3.66025824e-06 0.000112328678
      0.308759779 0.560837686 -2.44560979e-05 -0.000176652
      -9.12835021e-05 -4.20011856e-05 -0.000485231489 0.00329504348
      0.0623589531 -0.000268566946 -0.000190390027 -2.94651254e-05
      -0.000238362452 -6.2581903e-06</_>
    <_>
      2.49787879 -5.81447363 -0.00844890531 8.17773819 -6.4857673e-08
      -0.000196539608 -0.0143457009 -0.000528241915 -0.00111671921
      -2.35485822e-06 -1.86911402e-05 -4.50129249e-07 -9.51460606e-05
      -0.000216023487 -0.000263833324 -0.0608482026 0.161408469
      -0.00347452518 2.56815505 -0.000129604436 -0.00136262097
      -0.000834123523 -0.00586715387 -0.0161144361 -1.59515057e-05
      1.15932703 0.821878314 -1.58519015e-05 -6.21344661e-05
      -2.30473979e-05 0.0525006391 -0.000230378646 -0.0176990703
      -0.00133363903 -0.000109202199 -0.000749833242 -0.000322534848
      -7.12462206e-05 0.310980231 -0.000342515705 -0.000157403163
      -0.000697712298 -0.00150705071 -0.000685175241 -0.00718824333
      -0.00208577514 -0.000610345858 4.20196915 4.90738344 0.755324423
      -0.00208634627 -0.00553818094 -1.56160058e-06 -0.0109435972
      -0.0598118678 -0.0175449997 4.54620218 -0.00384993758 1.20939577
      -0.00637956616 -0.0011723577 -0.000993260532 -0.000847699528
      0.238799497 -0.00492593739 -4.22162448e-05 -4.83707918e-05
      -2.94047841e-05 -0.00663885148 -0.00198092731 -0.000688931264
      -0.0166643411 -0.00181789638 -0.000136561284 -2.21461733e-06
      -0.00111210195 -2.58392611e-05 -0.00452154176 -0.0366010815
      -0.00187042262 -1.22165766e-05 -1.01569799e-06 -0.000397116237
      -0.0281537101 8.09877586 -0.000543584174 2.35084987 -0.00124650518
      -9.40024347e-06 -0.0127654597 -0.00293409731 -0.000533877581
      -0.0062189782 -0.00759219052 2.58300138 -0.0234645512
      -0.00122036459 5.59716988 -0.00817827042 -0.00279737287
      -7.65119839e-05 -0.00852938276 1.08693743 -1.30328692e-06
      -7.79286129e-05 -0.00129065372 0.208405674 -0.000130315238
      -3.55684169e-05 -0.000501243339 1.33976841 -0.00196876843
      -0.00493113417 -2.27131204e-05 -0.000119790384 -0.000972038193
      -7.56337329e-07 -3.93645678e-06 -0.000273714628 -6.40855433e-05
      -0.0104832221 -1.30551716e-05 -0.00278848037 -0.000953630428
      -0.0125454208 -0.0108995521 -0.00406193826 -0.0228237081
      0.261223495 -0.0043572071 0.200177759 0.283628821 -6.60511578e-05
      -7.6112432e-05 0.39475587 0.519636035 0.215747535 -0.000180211864
      0.00686312467 -2.02629576e-06 -3.06980112e-08 0.222567901
      -0.00166960678 -0.000252190221 0.451384455 0.89077878
      -0.00450148573 -2.54698589e-05 -0.000223782059 -3.55061957e-06
      -2.8845941e-06 0.788480043 0.304083735 -0.000499006128
      -0.000651822949 -1.35043661e-06 -0.000751895655 -4.50655489e-06
      0.0737603381 -0.000664223859 0.143729806 0.261326313
      -0.00147845072 0.30840373 0.751067758 -2.303976e-05
      -0.000299778825 0.644110978 0.487919837 0.424571455
      -0.000334095675 0.620807111 0.0597480237 -0.00468454603
      -0.00197829073 -0.00433638645 -0.00351966079 0.353640139
      -0.0024099946 -1.73220778e-05 -0.00263898005 -0.0033828076
      0.245551422 -0.00228726701 -0.000122440091 -3.1063903e-06
      -0.000528155186 -2.03720731e-07 -4.95804045e-07 -0.0019389455
      0.495158523 -1.481242e-05 -1.86568104e-05 -0.000209295787
      -0.000420858734 0.312797397 -0.00015004132 -9.46897417e-05
      0.263402283 -1.93936994e-05 0.0117641389 -0.000142830322
      -3.95535608e-05 -1.60773507e-05 0.000131547451 -7.84680651e-06
      -1.04494393e-06 -0.0002482938 0.00658001937 -0.000107614687
      0.0840767026 -0.000683487044 0.0386008397 0.263580918
      -1.60647028e-06 -0.000119881443 -3.57387921e-06 -5.80984647e-07
      -0.000194010412 -3.65930987e-06 0.000585645437 0.309948981
      0.561779797 -2.44497787e-05 -0.000185076366 -9.12658579e-05
      -4.1994299e-05 -0.000485794968 0.00352519192 0.0623999685
      -0.000268699427 -0.000190385588 -2.9460607e-05 -0.000239681161
      -6.25671737e-06</_>
    <_>
      0.758151948 -13.1657209 -0.00929769408 -0.0605648644
      -4.58157956e-08 -0.00023022134 -0.0192167349 -0.00031784203
      -0.00207588309 -3.34804781e-06 -1.55228045e-05 -4.85216958e-07
      -0.000156612223 -0.000450667809 -0.000403619371 9.31142902
      6.82091522 -0.00324284122 -0.034404587 -0.000222138304
      -0.00152550125 -0.00100250321 -0.00498476811 0.976180315
      -1.64441171e-05 5.16759777 8.33967018 -1.55518755e-05
      -7.62485215e-05 -1.89580351e-05 -0.039992597 -0.000229053141
      0.280802548 -0.00274693151 -0.000156399954 -0.000851392979
      -0.000348211179 -9.94786024e-05 -0.0105182789 -0.000349153124
      -9.89312684e-05 -0.000588845287 -0.0027612939 -0.00045349024
      -8.45298491e-05 -0.00112555234 -0.00078917091 -0.00306041003
      1.69832373 -0.0228086561 -0.0030821769 0.121615604 -2.29812895e-06
      -0.0103958333 4.57840586 -0.029318111 -0.0861170962 -0.00572662475
      -0.00887538586 -0.00582064129 -0.000838859007 -0.000526009884
      -0.000627024623 6.88551617 1.45975161 -4.3988086e-05
      -3.26758854e-05 -3.6962585e-05 -0.00595258409 -0.00311740162
      -0.000592251308 5.36483669 -0.00249587931 -8.01969582e-05
      -4.19751086e-06 -0.00136719015 -3.01106011e-05 5.70249128
      6.06078911 -0.00165082654 -1.44700634e-05 -4.72365485e-07
      -0.000170491738 2.77294111 -0.0607112646 -0.000640751561
      0.100474812 -0.011988719 -1.21784578e-05 -0.00677446648
      -0.00677437149 -0.000662197534 -0.00465832278 -0.0063382457
      12.6490297 -0.0352886803 -0.000998895848 -0.0253953133
      -0.00689792261 -0.00308366911 -8.26060204e-05 -0.0109463809
      9.01775455 -1.4425807e-06 -0.000127455671 -0.00127880648
      2.85043001 -0.000204991811 -4.22018602e-05 -0.000910585921
      -0.0183586963 -0.00174095645 -0.00865575485 -1.61968619e-05
      -4.91176252e-05 -0.00154315634 -1.34276831e-06 -4.8020147e-06
      -0.000296549115 -5.94359008e-05 -0.0141948294 -1.64970279e-05
      -0.00588394376 -0.00151628675 3.8947382 -0.0108136376
      -0.00489458954 -0.0317579955 0.780374169 -0.00439758459
      0.213789761 0.313575923 -9.75720905e-05 -6.59580328e-05
      -0.000206535158 0.0273187459 0.172512427 -0.000133389156
      0.271971375 -5.46013325e-06 -9.78525971e-09 0.530780792
      -0.00178319751 -0.000207721561 0.856876194 -0.00633025449
      0.326362371 -2.00947252e-05 -0.000267188705 -4.14176293e-06
      -2.30759679e-06 0.121078834 0.251500249 -0.005716193 0.248717025
      -1.00435307e-06 0.34540242 -3.30789908e-06 -0.00190397259
      0.899664044 -0.00164784631 0.0372669697 -0.00179684767
      -0.000514704152 0.119548723 -3.89385277e-05 -0.000427533058
      0.25506863 0.344402015 -0.00184987218 -0.000366920256 0.0125648901
      0.358719081 0.606250823 -0.00362516358 -0.00247100135
      -0.000260712113 0.224153712 -0.00141271704 -1.23688478e-05
      -0.0037368238 0.0423865244 -0.00322517985 -0.00263059302
      -0.000126785861 -3.01846148e-06 0.422744542 -1.71430798e-07
      -3.17183805e-07 0.274484247 0.741338313 -1.46833272e-05
      -1.85131321e-05 -0.000209451144 -0.00043226959 0.311858833
      -0.000149598869 -9.43411287e-05 0.267034113 -1.92695334e-05
      0.0205709301 -0.000142524863 -3.93557311e-05 -1.5971782e-05
      0.00798274949 -7.80476694e-06 0.003042005 -0.000250356126
      0.0280308314 -0.0001085611 0.0913519412 -0.000713825517
      0.0162144229 0.264707386 -1.67838618e-06 -0.0001194906
      -3.51570998e-06 -1.04603816e-06 -0.000194731736 -3.63142203e-06
      0.0144023895 0.342285514 0.587439358 -2.42657534e-05
      -0.000410355977 -9.07748254e-05 -4.1794694e-05 -0.00050226762
      0.00997930951 0.0632289127 -0.000272682577 -0.00019038863
      -2.93296289e-05 -0.000275287981 -6.21398431e-06</_>
    <_>
      0.503678501 -13.2103157 -0.00953739882 -0.0592169948
      -4.9781363e-08 -0.000235229658 -0.0194953606 -0.000357892568
      -0.00213947217 -3.74356819e-06 -1.62596389e-05 -4.84690588e-07
      -0.000163625125 -0.000480966904 -0.00041504277 9.26731873
      6.81116295 -0.00339910714 -0.0388154387 -0.000231655111
      -0.00153725559 -0.00103840069 -0.00519801909 0.936261773
      -1.73625995e-05 5.12923717 8.2730093 -1.57478316e-05
      -7.69527687e-05 -1.95079683e-05 -0.0425588638 -0.000232787672
      0.230697125 -0.00280756876 -0.000163007353 -0.000889543502
      -0.000342720392 -0.000105470361 -0.0113963382 -0.000376472104
      -0.000101870333 -0.000615650846 -0.00284797372 -0.000449228275
      -0.000289531745 -0.0011471766 -0.000802282069 -0.00585680408
      1.64002228 -0.0249165855 -0.00322380173 0.101243645
      -2.62319941e-06 -0.0107584773 4.27270079 -0.0297871232
      -0.0872252062 -0.00583036523 -0.009645449 -0.00605644099
      -0.000848913041 -0.00054939813 -0.000675396412 6.86830997
      1.47232282 -4.34290414e-05 -3.49301263e-05 -3.9030434e-05
      -0.00605849782 -0.00322493189 -0.00058546901 5.4146843
      -0.00253529986 -8.54230311e-05 -4.5360357e-06 -0.00136460038
      -3.11059775e-05 5.72444201 6.13578987 -0.00171565171
