<?xml version="1.0"?>
<opencv_storage>
<opencv_ml_svm>
  <format>3</format>
  <svmType>EPS_SVR</svmType>
  <kernel>
    <type>RBF</type>
    <gamma>0.01</gamma></kernel>
  <C>1.</C>
  <p>0.001</p>
  <term_criteria><epsilon>0.001</epsilon>
    <iterations>3000</iterations></term_criteria>
  <var_count>230</var_count>
  <sv_total>107</sv_total>
  <support_vectors>
    <_>
      0.530926049 -3.53336334 -0.00722901989 -0.0462658107
      -8.21493629e-08 -0.000146961858 -0.012882527 -0.000628803682
      -0.00205207849 -3.83606175e-06 -1.83718057e-05 -3.17820962e-07
      -0.000103083825 -0.000352327246 -0.000185120778 7.71704817
      -0.00314038084 -0.00345997745 2.50160909 -0.000157014554
      -0.00130570016 -0.000806262484 -0.00560914911 -0.00427281391
      -1.41767514e-05 -0.00948756654 1.25844204 -8.13961196e-06
      -5.63339272e-05 -2.24090527e-05 0.143793181 -0.000217410488
      -0.019427456 -0.00106865831 -0.000103409766 -0.000995065318
      -0.000218747198 -6.42566374e-05 -0.00825461932 -0.000245038624
      -0.000169870968 -0.000636927551 -0.00177034223 -0.000244544062
      -0.00235482887 -0.0023225348 -0.000536709325 4.27275658
      0.271023571 -0.023871908 -0.0020052928 -0.00099082815
      -4.59344074e-06 -0.011543504 3.72625303 -0.0208011102
      -0.0761885494 -0.00355611229 -0.00523837097 -0.00558861857
      -0.00103360484 -0.00065715611 -0.0011820019 1.52986574
      -0.0354714878 -3.50274422e-05 -4.55913541e-05 -2.58906348e-05
      -0.00526374625 -0.00161683536 -0.000711220608 5.32803631
      -0.00198552804 -0.000134370493 -4.29927468e-06 -0.00097643066
      -1.82548065e-05 -0.00784139521 5.18834543 -0.00215706206
      -1.09756993e-05 -4.2915093e-07 -0.000473322114 2.59896708
      -0.0435421802 -0.000636368291 -0.00909908768 -0.0140730962
      -9.10312701e-06 -0.00761998445 -0.00743658887 -0.00051517575
      -0.00622158032 -0.00579923484 1.69014144 -0.020301614
      -0.000813067367 -0.0160425361 -0.00686206482 -0.00245214882
      -5.94550183e-05 -0.00733387517 1.9016006 -1.3412382e-06
      -0.0001171439 -0.000889724935 5.93121862 -0.000122182595
      -3.29514987e-05 -0.00048253659 0.184724063 -0.00211967225
      0.437213212 -2.00940103e-05 -5.98880106e-05 -0.000707688916
      -7.92428807e-07 -2.85340798e-06 -0.000152290755 -5.80964079e-05
      -0.00752925547 -9.42144015e-06 -0.00835650042 -0.000521425391
      -0.0166078974 -0.00985937659 -0.00287073595 -0.0191538967
      -0.0292602833 -0.00138581195 0.299322516 0.520801067
      -9.81639387e-05 -0.000108562686 0.0682913214 0.22458221
      0.428279221 -0.000171973923 0.0421165302 -4.47047887e-06
      0.332446605 0.322678715 -0.000216882734 0.966204107 -0.00460160431
      0.405431539 -1.8774248e-05 -0.000266318384 -3.56265286e-06
      -1.97298937e-06 0.247654408 0.0163087137 -0.00180333701
      0.449881941 -8.18940862e-07 0.53379339 -2.88336764e-06
      -0.00363762723 1.16454983 0.215526164 0.334231257 -0.00179968064
      0.0424786657 0.56203723 -4.00731806e-05 -0.000513180916
      0.152893007 0.37657699 0.147409379 -0.000378164055 0.0267479196
      0.555932522 0.257998288 -0.00308084628 -0.00533992937
      -0.00256309588 -0.000910098082 -0.00224477402 -1.11990594e-05
      -0.00438841712 0.0682558343 -0.0035318078 -0.00270975637
      -0.000148575156 -2.49325649e-06 0.664348125 -2.0852589e-07
      -2.37030321e-07 0.159999147 1.32616448 -1.47504134e-05
      -1.85972767e-05 -0.000209088059 -0.000427267107 0.317275643
      -0.000149816828 -9.45310094e-05 0.269174933 -1.93370197e-05
      0.0160619095 -0.000142673714 -3.9460956e-05 -1.60313321e-05
      -2.55332889e-05 -3.81743157e-05 -0.00024878679 0.0106640179
      -0.000108392298 0.0885824114 -0.000695205759 0.028365843
      0.268346369 -1.64048015e-06 -0.000119680291 -8.62100819e-07
      -0.000194153283 0.00043193996 0.328311265 0.580177009
      -2.43670438e-05 -0.000325491797 -9.10371527e-05 -4.19048083e-05
      -0.00049176981 0.00675837137 0.0645963997 -0.000270464487
      -0.00019018758 -2.93991598e-05 -0.000258141576</_>
    <_>
      0.50686878 -3.66915965 -0.0062379567 -0.0432167239 -7.01192775e-08
      -0.000122932324 -0.0115264747 -0.000469068473 -0.00184468634
      -2.96000439e-06 -1.54114623e-05 -2.9466122e-07 -8.89099028e-05
      -0.000316345773 -0.000165541409 7.31513882 0.226642355
      -0.00291277771 1.84233022 -0.000130773478 -0.00113659236
      -0.000672091614 -0.0047038272 -0.00215843436 -1.1749933e-05
      -0.00324766897 1.63361812 -7.68551035e-06 -5.05626995e-05
      -1.93008636e-05 -0.000344271975 -0.000187343205 -0.0141785825
      -0.000999595621 -8.95321136e-05 -0.000847361225 -0.000218754067
      -5.64308248e-05 -0.0061639878 -0.000202856463 -0.00014041258
      -0.000540691253 -0.00149541406 -0.000286467432 -0.00197037472
      -0.00191573764 -0.000493942178 3.55045748 0.404796004 -0.018026609
      -0.00166765309 -0.000686742365 -3.57672798e-06 -0.0101917023
      3.96349239 -0.0195104331 -0.0665744618 -0.00311766472
      -0.0026357423 -0.00477036089 -0.000900493644 -0.00051702949
      -0.000942100713 1.71856952 -0.0271836966 -3.54841941e-05
      -3.70297421e-05 -2.43934865e-05 -0.00457590632 -0.00148549781
      -0.000682223355 4.86467886 -0.00170096778 -0.000109631233
      -3.06513334e-06 -0.00091244682 -1.75006353e-05 -0.00200621039
      4.90007591 -0.00179569237 -1.03422271e-05 -3.47762949e-07
      -0.000356567674 2.55962682 -0.0419565812 -0.000529849844
      -0.00610695826 -0.0135088162 -7.61068077e-06 -0.00670081936
      -0.00658542011 -0.000429715583 -0.00516605796 -0.00526183471
      2.43399906 -0.0186540298 -0.000759353221 -0.0145225869
      -0.00582589628 -0.00212120148 -4.82507749e-05 -0.00644843606
      2.23242068 -1.14428985e-06 -9.78280368e-05 -0.000847557327
      5.4233427 -0.000102866987 -3.08945127e-05 -0.000435710564
      0.352362782 -0.00172448705 0.258854151 -1.710783e-05
      -4.89623308e-05 -0.000575921615 -6.96956818e-07 -2.47076355e-06
      -0.000136739734 -4.82198484e-05 -0.00693674805 -8.38324286e-06
      -0.00731239561 -0.000457860267 -0.0103675229 -0.00910192169
      -0.00240698177 -0.0196251366 -0.0240973011 -0.00117940665
      0.282016873 0.54725194 -9.88982283e-05 -0.000108880493
      0.0438600667 0.23849839 0.426237226 -0.000168834697 0.035636805
      -4.62036678e-06 0.301095724 0.316477835 -0.0002178055 0.930687368
      -0.00495187612 0.410385787 -1.86056459e-05 -0.000269096781
      -3.63997992e-06 -1.93061965e-06 0.234809518 0.00899608806
      -0.00141263753 0.394364417 -8.13365887e-07 0.530505538
      -2.87056741e-06 -0.00385250151 1.18835318 0.19622454 0.308013827
      -0.00179272098 0.00681091845 0.510351479 -4.05177452e-05
      -0.00051393453 0.121039622 0.345206499 0.170257673 -0.000390954316
      0.0176126286 0.57864058 0.262389898 -0.0032958677 -0.00528433593
      -0.0026885136 -0.000780813512 -0.00222353893 -1.10090359e-05
      -0.00439363625 0.00967784971 -0.00335162878 -0.00264432956
      -0.000147555562 -2.51193546e-06 0.687729001 -2.09165549e-07
      -2.33839955e-07 0.155822501 1.248559 -1.47562305e-05
      -1.86036887e-05 -0.000209086938 -0.00042675226 0.317320645
      -0.000149837928 -9.45469146e-05 0.268992096 -1.93426022e-05
      0.0156377293 -0.000142688485 -3.94698836e-05 -1.6036056e-05
      -2.90685894e-05 -3.94167728e-05 -0.000248701312 0.00964855962
      -0.000108332461 0.0882183015 -0.000693835202 0.0294684321
      0.268294096 -1.63724087e-06 -0.000119699245 -8.41594272e-07
      -0.000194125532 -2.13008366e-06 0.326730698 0.578939915
      -2.43753093e-05 -0.000314245583 -9.10601011e-05 -4.19138232e-05
      -0.000491031038 0.00645026378 0.064543739 -0.000270289922
      -0.000190192193 -2.94050642e-05 -0.000256408966</_>
    <_>
      0.783203065 -4.00669384 -0.00627051946 -0.0509909391
      -6.90652797e-08 -0.000140651289 -0.0120535707 -0.000477173395
      -0.00193203264 -3.43377519e-06 -1.66021946e-05 -3.03174971e-07
      -9.65724466e-05 -0.000344904838 -0.000164854529 8.10187149
      0.320224941 -0.0029537736 1.73981392 -0.00013245584 -0.0011954254
      -0.000680359895 -0.0047663697 -0.00179355557 -1.28510464e-05
      -0.00382014294 1.79753172 -7.86703913e-06 -5.36107218e-05
      -2.02779465e-05 -0.00350515498 -0.000192007472 -0.0155571979
      -0.00104287977 -9.33469055e-05 -0.000882014749 -0.000230296064
      -6.17720798e-05 -0.00695999479 -0.000215622684 -0.000143782469
      -0.000558130792 -0.00154464587 -0.00028596702 -0.00216878718
      -0.00199705828 -0.000495569198 3.74179697 0.125084847
      -0.0196964126 -0.00175478426 -3.95107527e-05 -3.75666013e-06
      -0.0105122197 4.50534296 -0.0205089152 -0.0711537525
      -0.00321055017 -0.00392463803 -0.00485993596 -0.00100880174
      -0.000490187493 -0.0009741268 1.90016198 -0.0287211128
      -3.6274072e-05 -3.79401718e-05 -2.70903147e-05 -0.00461674016
      -0.00153630401 -0.000705837563 5.36844635 -0.00177858153
      -0.000110432702 -2.84130442e-06 -0.000906892295 -1.84350502e-05
      -0.00125987828 5.46338367 -0.0018474122 -1.12325579e-05
      -4.17810867e-07 -0.000349640613 2.81028509 -0.0491089672
      -0.000547264761 -0.0082952762 -0.0131510422 -7.58601391e-06
      -0.00709777931 -0.00683968747 -0.000445404876 -0.00529927434
      -0.00569560286 2.64690089 -0.0196405221 -0.000786363787
      -0.0185082443 -0.00605285028 -0.00215523248 -5.44804789e-05
      -0.00715469476 2.42434001 -1.36383676e-06 -0.000102231024
      -0.000882980356 5.83916473 -0.000108946486 -3.12925768e-05
      -0.000458384951 0.161970019 -0.00179428735 0.226781398
      -1.73920653e-05 -5.07177174e-05 -0.000558720378 -7.30531099e-07
      -2.5454558e-06 -0.000142210032 -4.81894131e-05 -0.00719817122
      -8.65570019e-06 -0.00767508242 -0.00048880087 -0.0106434105
      -0.0100580426 -0.00251381262 -0.0201715063 -0.0262242239
      -0.00134071452 0.303553075 0.559159398 -9.89706823e-05
      -0.000107463165 0.077119194 0.194905967 0.439718664
      -0.000166219732 0.0140877292 -4.51948381e-06 0.305346906
      0.261675626 -0.000215451306 0.948462963 -0.00500354869 0.407627046
      -1.87253918e-05 -0.000273361336 -3.54133795e-06 -1.89820355e-06
      0.280037373 -0.000203814765 -0.00209929585 0.523760617
      -8.13697909e-07 0.564538956 -2.85682313e-06 -0.00339065306
      1.17339385 0.225309461 0.258158445 -0.00172869861 0.0491416901
      0.579221249 -3.97381591e-05 -0.000508055557 0.160334557
      0.330942959 0.123554572 -0.000390233385 0.0393463895 0.610204816
      0.284232706 -0.00292084692 -0.00515425811 -0.00213963515
      -0.000769259932 -0.00228341273 -1.11970467e-05 -0.00441492023
      0.0279361233 -0.00359271583 -0.00269507035 -0.000146200342
      -2.46186846e-06 0.69801563 -2.08441435e-07 -2.31321238e-07
      0.158838138 1.39454484 -1.47623232e-05 -1.86104608e-05
      -0.000209084712 -0.00042621998 0.317405999 -0.000149860163
      -9.45636712e-05 0.268825054 -1.93484684e-05 0.0151838399
      -0.00014270407 -3.94792623e-05 -1.60410327e-05 -3.32392738e-05
      -4.10578396e-05 -0.000248610188 0.0085221529 -0.000108268687
      0.0878327191 -0.000692379312 0.030656904 0.268270731
      -1.63384823e-06 -0.000119719189 -8.20675041e-07 -0.000194095846
      -9.45743159e-06 0.325057656 0.577664733 -2.43840041e-05
      -0.000302361907 -9.10843082e-05 -4.19233074e-05 -0.000490244303
      0.00612149574 0.0644971803 -0.00027010715 -0.000190196428
      -2.94112579e-05 -0.000254564249</_>
    <_>
      0.666225731 -3.95169115 -0.00598225836 -0.0496432446
      -6.76893208e-08 -0.000131768596 -0.0116263162 -0.000475278794
      -0.00185569609 -3.47154082e-06 -1.64532903e-05 -2.93870983e-07
      -9.57767261e-05 -0.000360009435 -0.000161282573 7.64451456
      0.644960582 -0.00293460418 1.6062324 -0.000132466565
      -0.00122148648 -0.000656679505 -0.00454746792 -0.00185197406
      -1.2835967e-05 -0.00117909955 2.04274893 -8.64915273e-06
      -5.2259009e-05 -2.08778856e-05 -0.00346483546 -0.000179972631
      -0.0131027056 -0.001031394 -9.83828868e-05 -0.000855467806
      -0.000217997425 -6.21571089e-05 -0.00504442072 -0.000227889977
      -0.000134107569 -0.000534494931 -0.00153319282 -0.000262591842
      -0.00272299396 -0.00203175726 -0.000501213828 3.49151325
      0.21257478 -0.017596174 -0.00176803896 -0.000206681929
      -4.09198856e-06 -0.0100508174 4.27432775 -0.0199089479
      -0.0669746846 -0.00306133181 -0.00307724322 -0.00456688926
      -0.000979267759 -0.000570889504 -0.000943832449 1.9970274
      -0.0247325413 -3.54827716e-05 -3.93997252e-05 -2.68170206e-05
      -0.00433759345 -0.00150440796 -0.000698482909 4.99796963
      -0.0017408944 -0.00010509351 -2.85087458e-06 -0.000887915026
      -1.81747819e-05 0.136209726 5.2156415 -0.00177455123
      -1.09865978e-05 -4.56473572e-07 -0.000345545996 2.70515203
      -0.046840854 -0.000527486845 -0.00762461359 -0.0128387222
      -7.3246033e-06 -0.00671152584 -0.00637397729 -0.000437113369
      -0.00512740342 -0.00563563686 3.03164935 -0.0189669989
      -0.000808837591 -0.0173176248 -0.00583582697 -0.00206782669
      -5.74146507e-05 -0.00722786644 2.64919853 -1.45368779e-06
      -0.000102676335 -0.000885155867 5.4783988 -0.000110903871
      -3.09436873e-05 -0.000450540276 0.199193567 -0.00171721738
      0.186207876 -1.75820569e-05 -5.49239157e-05 -0.000592196127
      -8.22377558e-07 -2.51869483e-06 -0.000148123756 -4.70327977e-05
      -0.00716935005 -8.4806461e-06 -0.00720102573 -0.000509319478
      -0.00815601554 -0.00982136559 -0.00241718581 -0.019681748
      -0.0229035281 -0.00140321441 0.26553753 0.58970058 -9.92238347e-05
      -0.000106439904 0.0938115567 0.225815356 0.457346261
      -0.000161858596 0.000342346728 -4.65546373e-06 0.27666378
      0.226859212 -0.000216688772 0.939755499 -0.00502659986 0.416177332
      -1.85433728e-05 -0.000270987453 -3.63754862e-06 -1.88290778e-06
      0.317035168 0.0422215499 -0.00205666618 0.430878043
      -8.26235464e-07 0.560368776 -2.88827619e-06 -0.00367181702
      1.1712476 0.22571528 0.263434142 -0.00174649758 0.0289756656
      0.499676824 -3.98181e-05 -0.000502155221 0.157128185 0.347972661
      0.153346911 -0.000401727244 0.0282230824 0.614028215 0.279381782
      -0.00298563601 -0.00536865508 -0.0021632649 -0.000274294609
      -0.00223124074 -1.11240633e-05 -0.00434583006 -0.000216959786
      -0.0031676637 -0.00260177068 -0.000144104139 -2.4764081e-06
      0.729142904 -2.08784002e-07 -2.36316041e-07 0.181246534 1.27580476
      -1.47707433e-05 -1.86195848e-05 -0.000209086138 -0.000425454084
      0.317358673 -0.000149890402 -9.45864376e-05 0.26848805
      -1.93564883e-05 0.0145977177 -0.000142725214 -3.9492108e-05
      -1.60477848e-05 -3.69781264e-05 -4.18540076e-05 -0.000248491066
      0.00723661669 -0.000108185268 0.087317571 -0.000690455548
      0.0321550667 0.268102467 -1.62915933e-06 -0.000119746372
      -7.89349997e-07 -0.000194057444 -1.71104439e-05 0.322819799
      0.575812697 -2.43958548e-05 -0.000286376831 -9.11170209e-05
      -4.19362077e-05 -0.000489212689 0.00569298677 0.064395383
      -0.000269854296 -0.000190204883 -2.94197725e-05 -0.00025214348</_>
    <_>
      0.548684537 -3.45600438 -0.00602056552 -0.0483560823
      -6.88513424e-08 -0.000137877403 -0.011383648 -0.000497992034
      -0.00193227374 -3.57598265e-06 -1.65576585e-05 -2.9105459e-07
      -9.50658286e-05 -0.000347439869 -0.000157084811 7.5709939
      0.406029522 -0.00293662352 1.87850106 -0.000136230767
      -0.00121981709 -0.000677679607 -0.00470597576 -0.00263333088
      -1.31851302e-05 -0.00271391775 1.87907314 -8.06396474e-06
      -5.25536161e-05 -2.07664743e-05 -0.0014208965 -0.000183663869
      -0.0136525333 -0.000946269254 -9.36474462e-05 -0.000877307088
      -0.000212949264 -6.17592377e-05 -0.00646720268 -0.000220980772
      -0.000141327953 -0.00055369793 -0.00146700046 -0.000254366663
      -0.00286328257 -0.00208699633 -0.000488288933 3.73677731
      0.289462686 -0.0182759985 -0.0017157034 -0.000505966891
      -4.07340076e-06 -0.0100852465 4.06951475 -0.0201816596
      -0.0709235817 -0.00301443599 -0.00509262271 -0.00469286973
      -0.000945136475 -0.000529495941 -0.000979820965 1.88494205
      -0.0270817131 -3.45267072e-05 -3.9054994e-05 -2.74519225e-05
      -0.00439734664 -0.0014718133 -0.000689032138 5.05154896
      -0.00171923509 -0.000110920701 -3.11594977e-06 -0.000884379435
      -1.80224288e-05 -0.000693311798 5.36085224 -0.00180726312
      -1.10388191e-05 -4.40647113e-07 -0.000362960738 2.7272923
      -0.0452442914 -0.000575518236 -0.008044797 -0.0142990779
      -7.48321509e-06 -0.00691543566 -0.0064301067 -0.000436090864
      -0.00530073931 -0.0056802039 2.71080065 -0.0188298151
      -0.000793067855 -0.015853703 -0.00588159962 -0.00209851284
      -5.69542026e-05 -0.0067105256 2.470474 -1.44071407e-06
      -0.000100528858 -0.000873474404 5.53409719 -0.000107291205
      -3.12603333e-05 -0.000433836685 -0.000200272276 -0.00177922496
      0.255455881 -1.81109008e-05 -5.2350726e-05 -0.000529906654
      -7.20301671e-07 -2.57524675e-06 -0.00014110381 -4.77415597e-05
      -0.00700066378 -8.06009302e-06 -0.00732520083 -0.00047147015
      -0.00968369283 -0.00947415829 -0.00252986606 -0.0192039739
      -0.0235528778 -0.00141169236 0.267351955 0.551430047
      -9.79099932e-05 -0.000105237996 0.0898477808 0.235609159
      0.432206511 -0.000164213416 0.00353655964 -4.49481604e-06
      0.29116255 0.124588132 -0.000216056229 0.923506677 -0.00467452826
      0.393782705 -1.90576156e-05 -0.000267500611 -3.51912968e-06
      -1.96937935e-06 0.310672373 0.0473612882 -0.00278572296
      0.482124984 -8.66015284e-07 0.591237366 -2.99127237e-06
      -0.00311496062 1.10214972 0.186389416 0.251377702 -0.00164477155
      0.0476368219 0.519229412 -3.91771209e-05 -0.000493580068
      0.172081172 0.313550234 0.133341894 -0.000390910282 0.0483196303
      0.617016792 0.310033321 -0.00262809219 -0.00550787244
      -0.00200718641 0.00161027908 -0.0022006291 -1.1558197e-05
      -0.00421846565 -2.97427923e-05 -0.00333557604 -0.00256698579
      -0.000142538775 -2.49464006e-06 0.698776126 -2.14203482e-07
      -2.52519158e-07 0.179026678 1.29948342 -1.47761166e-05
      -1.86254729e-05 -0.000209085803 -0.000424973667 0.317374617
      -0.000149909829 -9.46010696e-05 0.2683025 -1.93616306e-05
      0.014211949 -0.000142738805 -3.95003408e-05 -1.60521304e-05
      -3.99287019e-05 -4.27717714e-05 -0.000248413155 0.00634010881
      -0.000108130705 0.0869836062 -0.000689203152 0.0331521109
      0.268033028 -1.62616732e-06 -0.000119763834 -7.70030852e-07
      -0.000194032211 -2.26861612e-05 0.321370006 0.574655175
      -2.44034636e-05 -0.000276045263 -9.11381067e-05 -4.1944495e-05
      -0.000488538702 0.00541211851 0.0643407702 -0.000269692944
      -0.000190209539 -2.94252204e-05 -0.000250562065</_>
    <_>
      0.421764433 -3.27316904 -0.00676263543 -0.0481503382
      -7.53557785e-08 -0.000131936569 -0.0124270748 -0.000580330438
      -0.00198459229 -3.93896835e-06 -1.75183341e-05 -3.16932528e-07
      -9.97973475e-05 -0.000343461114 -0.000183943586 7.65050173
      0.0984751731 -0.00319773611 1.97685242 -0.000148939347
      -0.0012578509 -0.000755698944 -0.00516096456 -0.00329866842
      -1.39737931e-05 -0.00566930929 1.59556353 -7.72055319e-06
      -5.27981429e-05 -2.07964349e-05 -0.0024020127 -0.00019889095
      -0.0155969569 -0.00111662154 -0.000101476413 -0.000931461575
      -0.00021651556 -6.52166127e-05 -0.00825320929 -0.000242445167
      -0.000143490615 -0.000568126736 -0.00173508271 -0.000240935478
      -0.00253255782 -0.00205405708 -0.00052955671 3.85249615
      0.239795029 -0.0203072391 -0.00193337328 -0.000837991829
      -4.34554704e-06 -0.0107429326 3.74972701 -0.0199660901
      -0.0742550865 -0.00342179579 -0.00480471971 -0.00528708566
      -0.000952195784 -0.000551476493 -0.00106757472 1.69739437
      -0.0308094248 -3.55950506e-05 -4.10639259e-05 -2.67078321e-05
      -0.00498978654 -0.00162281643 -0.000696228701 5.10382509
      -0.00190822419 -0.000120953446 -3.51948825e-06 -0.000950513233
      -1.9672043e-05 -0.00304212444 5.19775867 -0.00195718999
      -1.09662924e-05 -4.55500441e-07 -0.000403606507 2.72227573
      -0.0439948514 -0.000584756199 -0.00888623856 -0.0146681266
      -8.62040361e-06 -0.00733959163 -0.00670499681 -0.000484643417
      -0.00552101713 -0.00552572729 2.30763793 -0.01992484
      -0.000793010055 -0.0159740858 -0.00646008551 -0.00228529749
      -6.24406966e-05 -0.00706656557 2.21603608 -1.35405878e-06
      -0.000117600866 -0.000882252934 5.57306433 -0.000121069839
      -3.20823747e-05 -0.00049006776 -0.000634698023 -0.00191141583
      0.264813393 -1.93475244e-05 -5.43727001e-05 -0.000718226715
      -7.7262257e-07 -2.787933e-06 -0.00014970146 -5.20082831e-05
      -0.00744761573 -9.18626574e-06 -0.00766679272 -0.00056066562
      -0.0122610005 -0.00936254673 -0.00269075576 -0.0194731317
      -0.0255765151 -0.00116308057 0.28626433 0.534981072
      -9.84619546e-05 -0.00010581252 0.0752386153 0.211554885
      0.419567466 -0.000164372948 0.032059364 -4.54823703e-06
      0.291194856 0.150538996 -0.000212161569 0.917376935 -0.00463911984
      0.421428651 -1.90865812e-05 -0.000265064824 -3.5103044e-06
      -1.99058559e-06 0.285800934 0.0292695351 -0.00290301116
      0.520628095 -8.67816027e-07 0.615850389 -3.00124225e-06
      -0.00310726813 1.11960471 0.175974637 0.240650147 -0.00153574953
      0.0623099953 0.548203647 -3.98721349e-05 -0.000492380292
      0.16010341 0.300565928 0.0994761288 -0.000382539321 0.0512939394
      0.588427246 0.32672736 -0.00264608813 -0.00530802831
      -0.00184367807 -0.000152729452 -0.00219093356 -1.15171433e-05
      -0.00421601487 0.025802277 -0.00357997115 -0.00261391094
      -0.000142561592 -2.52494533e-06 0.687562346 -2.15358298e-07
      -2.53304279e-07 0.17710638 1.32143009 -1.47779792e-05
      -1.8627492e-05 -0.000209086051 -0.00042480405 0.317365795
      -0.000149916523 -9.46061118e-05 0.268227458 -1.9363406e-05
      0.0140794739 -0.000142743476 -3.95031857e-05 -1.60536256e-05
      -4.07619773e-05 -4.29478278e-05 -0.000248386699 0.00604968704
      -0.000108112254 0.0868668109 -0.000688778295 0.0334914848
      0.267996788 -1.62513663e-06 -0.000119769829 -7.63147796e-07
      -0.000194023552 -2.44044131e-05 0.320865303 0.574240088
      -2.44060884e-05 -0.000272422651 -9.11453462e-05 -4.19473508e-05
      -0.000488310063 0.0053151641 0.0643175244 -0.000269636686
      -0.0001902113 -2.94271067e-05 -0.000250019191</_>
    <_>
      0.742314637 -3.93394279 -0.00637693889 -0.0504556373
      -6.69290117e-08 -0.000147688785 -0.012088988 -0.000480635528
      -0.00198384165 -3.26558711e-06 -1.61783355e-05 -3.05179128e-07
      -9.70894835e-05 -0.000338657701 -0.000175174981 7.99432039
      0.571012735 -0.00293290731 1.59657145 -0.000142435762
      -0.00116739143 -0.000717832183 -0.00476265373 -0.00192775181
      -1.26669111e-05 -0.00171929714 1.9854722 -8.07469587e-06
      -5.35840591e-05 -1.99552287e-05 -0.00454126997 -0.000196782945
      -0.0147199295 -0.00107392669 -9.60879479e-05 -0.000885261863
      -0.00022367615 -6.05907517e-05 -0.00723257149 -0.000214233965
      -0.000139901371 -0.000584641472 -0.00155319425 -0.000285255053
      -0.00162323168 -0.00193467608 -0.000486472476 3.54266977
      0.226756588 -0.020504212 -0.00177069055 -0.000283804373
      -3.74669412e-06 -0.0103119975 4.39923811 -0.0210973062
      -0.0728002191 -0.0033000668 -0.00287398649 -0.00493184291
      -0.000982582569 -0.000466730096 -0.000950858172 2.04295349
      -0.0269693825 -3.69010377e-05 -3.7697675e-05 -2.63025868e-05
      -0.00464636087 -0.00160053326 -0.000707454979 5.25085735
      -0.00175584655 -0.000111019945 -3.43954389e-06 -0.000934183889
      -1.81075266e-05 0.127048969 5.40225887 -0.00182201131
      -1.08191116e-05 -4.06485725e-07 -0.00035603717 2.84315777
      -0.0480769463 -0.000574470556 -0.00794203766 -0.012076566
      -7.81765721e-06 -0.0070691579 -0.00678534713 -0.000454731955
      -0.00532505382 -0.00573457219 2.98797154 -0.0200533103
      -0.000760479656 -0.0175052062 -0.00598207861 -0.00220909738
      -5.36830776e-05 -0.00682187965 2.65985274 -1.31925731e-06
      -0.000101991507 -0.000916012039 5.61373758 -0.000105771498
      -3.15413308e-05 -0.000467189646 0.170908332 -0.00178851641
      0.290595084 -1.75149034e-05 -5.01706236e-05 -0.000594461919
      -7.2111925e-07 -2.62107847e-06 -0.000146774371 -4.86869212e-05
      -0.00737001887 -8.64114736e-06 -0.00748744467 -0.000510830898
      -0.00917100813 -0.00953307468 -0.00269124145 -0.0207956247
      -0.0241308995 -0.00176381657 0.265233904 0.551805377
      -9.92550049e-05 -0.000107274529 0.0359873846 0.232719466
      0.383952439 -0.000163547971 0.00539753586 -4.68974895e-06
      0.297868848 0.170041829 -0.000216386339 0.91941148 -0.00522637134
      0.423718154 -1.88014237e-05 -0.00026866133 -3.63867662e-06
      -1.94859444e-06 0.282347143 0.0303810723 -0.00219768705
      0.451832026 -8.45384022e-07 0.593996584 -2.95183622e-06
      -0.00361140142 1.13878608 0.157173201 0.256576747 -0.00171712227
      0.035297066 0.484157413 -3.99046658e-05 -0.000499992049 0.14368698
      0.306058288 0.154983863 -0.000395827577 0.0212978572 0.590801954
      0.320787519 -0.00308230123 -0.00545091927 -0.00218198774
      0.00375825167 -0.00219465676 -1.13111828e-05 -0.00427291449
      -4.82482465e-05 -0.00308697228 -0.00257052644 -0.000142135221
      -2.54087149e-06 0.722196579 -2.11465391e-07 -2.45844092e-07
      0.155292705 1.25598407 -1.47854335e-05 -1.86354919e-05
      -0.000209089107 -0.00042411621 0.317310929 -0.000149943167
      -9.46261644e-05 0.267887473 -1.93705037e-05 0.0135178342
      -0.000142762001 -3.95146126e-05 -1.60595791e-05 -4.3615848e-05
      -4.32001798e-05 -0.000248285127 0.00484838337 -0.000108036089
      0.0863563716 -0.000687108317 0.0349471495 0.267831445
      -1.62109734e-06 -0.000119793811 -7.35690094e-07 -0.000193989341
      -3.10532378e-05 0.318695277 0.572458386 -2.44165676e-05
      -0.000256525789 -9.11741881e-05 -4.19587595e-05 -0.000487410784
      0.00490119867 0.0642002597 -0.000269409793 -0.000190219609
      -2.9434661e-05 -0.000247751421</_>
    <_>
      0.632285893 -3.52029467 -0.00637512607 -0.0465184636
      -7.03209437e-08 -0.000138810603 -0.0118422247 -0.000536473875
      -0.00191516022 -3.41373016e-06 -1.66015143e-05 -3.04756441e-07
      -9.3434006e-05 -0.000327487214 -0.000167518345 7.53546619
      -0.000162471973 -0.00301478896 2.19696522 -0.000143053825
      -0.00117721048 -0.000722815283 -0.00489944546 -0.0031969517
      -1.2784586e-05 -0.00630655233 1.4213264 -7.59638124e-06
      -5.1685478e-05 -1.9873718e-05 -0.000928160327 -0.000196071211
      -0.0168341342 -0.000995863229 -9.48987072e-05 -0.000894432713
      -0.000210508064 -5.92991128e-05 -0.00745050516 -0.000218518471
      -0.000147266692 -0.00058651797 -0.00154080242 -0.000258896209
      -0.00210699858 -0.00202701893 -0.000481904746 4.01704693
      0.200218126 -0.0197094847 -0.00176494406 -0.000532924198
      -4.11768588e-06 -0.0103616584 3.91307306 -0.0197717603
      -0.0709466562 -0.00321634253 -0.00334739569 -0.00498618837
      -0.000958403456 -0.000529134704 -0.00101727596 1.58884716
      -0.0305152591 -3.53562609e-05 -3.95828429e-05 -2.4965826e-05
      -0.00474277418 -0.00150930474 -0.000705097103 5.0576086
      -0.00177618628 -0.000115165669 -3.70796647e-06 -0.000918082136
      -1.758906e-05 -0.00416314183 5.22691727 -0.00187813491
      -1.05106501e-05 -4.11204724e-07 -0.000393928756 2.69698286
      -0.0436161458 -0.00059801247 -0.00845580827 -0.0128364582
      -7.97455959e-06 -0.00716513535 -0.00673194323 -0.000456367095
      -0.00547306053 -0.00573023316 2.06704354 -0.0192444194
      -0.000776069821 -0.0158023238 -0.00609622896 -0.00218790094
      -5.41628287e-05 -0.00667578215 2.04595995 -1.3076766e-06
      -0.000106224434 -0.000868739036 5.68162346 -0.000107663436
      -3.14103418e-05 -0.000446618593 0.172539234 -0.00185402064
      0.352025896 -1.85318804e-05 -5.23760755e-05 -0.000586059061
      -6.96710345e-07 -2.63549032e-06 -0.000138062649 -4.98004047e-05
      -0.00701516122 -8.3851719e-06 -0.00761067867 -0.000476305227
      -0.0133924037 -0.00945252553 -0.00256851269 -0.0192078538
      -0.0261668991 -0.00154079415 0.271495998 0.549434245
      -9.76405572e-05 -0.000105173756 0.0307633579 0.227667302
      0.368171871 -0.000162944343 -4.79223563e-05 -4.54280644e-06
      0.296518147 0.151237816 -0.000216151995 0.921245635 -0.00496753398
      0.412711382 -1.92275129e-05 -0.000265876151 -3.59822616e-06
      -1.98512657e-06 0.289276659 0.0356302895 -0.00271754526
      0.423031926 -8.69532926e-07 0.556837916 -3.03471984e-06
      -0.00328845903 1.10774922 0.163497448 0.257642388 -0.00162294845
      0.0437999219 0.483801872 -3.89903507e-05 -0.000494272041
      0.153490245 0.314324141 0.163531035 -0.000396076997 0.0377421603
      0.587393165 0.337942958 -0.00288017537 -0.00555292284
      -0.00211303309 -0.000155432368 -0.00218529999 -1.16712617e-05
      -0.00420445949 0.0196252689 -0.00319343014 -0.00250891503
      -0.000140820586 -2.55419377e-06 0.696496248 -2.14511743e-07
      -2.56384766e-07 0.149716794 1.30380535 -1.47856281e-05
      -1.86356374e-05 -0.0002090903 -0.000424089987 0.31725806
      -0.00014994372 -9.46265718e-05 0.267851055 -1.93706601e-05
      0.0135233365 -0.000142762394 -3.95148672e-05 -1.60596974e-05
      -4.31084627e-05 -4.28043313e-05 -0.000248283934 0.00491571613
      -0.000108036118 0.0863576382 -0.00068708841 0.0349171534
      0.267785728 -1.62097501e-06 -0.000119794327 -7.34148784e-07
      -0.000193989254 -3.04443747e-05 0.318693757 0.572406173
      -2.44167877e-05 -0.000256539352 -9.11747193e-05 -4.19589851e-05
      -0.000487402896 0.00490429439 0.0641895011 -0.000269404147
      -0.000190220468 -2.94348429e-05 -0.000247754622</_>
    <_>
      0.4396016 -3.54820013 -0.00628771074 -0.0439155586 -6.83225707e-08
      -0.000146731429 -0.011734141 -0.000496105 -0.00187493651
      -3.14886711e-06 -1.59945412e-05 -3.06569234e-07 -9.36559372e-05
      -0.00032705834 -0.00017035364 7.26495266 0.420654953
      -0.00290062185 2.00838375 -0.000139915443 -0.00111806556
      -0.000694748654 -0.00475884788 -0.00201338879 -1.24901289e-05
      -0.00241761375 1.77395141 -9.20201728e-06 -5.21397487e-05
      -1.98864163e-05 -0.00135453208 -0.000192952764 -0.0155618386
      -0.00100459461 -9.83124046e-05 -0.000882513588 -0.00022209849
      -5.73316102e-05 -0.00686104596 -0.000211705454 -0.000147816128
      -0.000588258961 -0.00152652315 -0.000303800014 -0.00195512222
      -0.0019832917 -0.000468209822 3.67308712 0.40312463 -0.0203641988
      -0.00174833299 -0.000271963945 -3.72138993e-06 -0.0102154762
      3.84173679 -0.0199365001 -0.066243507 -0.00319859339
      -0.000517335895 -0.00485769939 -0.000936735538 -0.000554013299
      -0.000982885249 1.82766867 -0.0259683225 -3.53535324e-05
      -3.96007672e-05 -2.46700783e-05 -0.00461925566 -0.00145569223
      -0.000696124393 4.734869 -0.00173458469 -0.000111507572
      -3.53402606e-06 -0.000940367463 -1.69592713e-05 -0.00110571913
      4.87035656 -0.00184714433 -1.0164259e-05 -4.62459468e-07
      -0.000377253222 2.39441061 -0.0419759937 -0.000551349018
      -0.00646813866 -0.00930457842 -7.58101623e-06 -0.00699056685
      -0.00658914447 -0.000447391853 -0.00535633089 -0.00560030667
      2.61545634 -0.018796565 -0.000791722152 -0.0146335261
      -0.00589911034 -0.00217982172 -5.39370667e-05 -0.00674417242
      2.37790227 -1.29708758e-06 -0.000101943486 -0.000884272507
      5.32883787 -0.00010695844 -3.16606965e-05 -0.000446075748
      0.31911698 -0.00179637445 0.304334193 -1.74841352e-05
      -5.66458075e-05 -0.000602867163 -7.86530848e-07 -2.56277349e-06
      -0.000146029037 -4.95007444e-05 -0.00707475236 -8.57053328e-06
      -0.00738153281 -0.000466531143 -0.0101395966 -0.00929020811
      -0.00256416667 -0.0194225144 -0.0234331582 -0.00169837393
      0.221699297 0.572188318 -9.5212381e-05 -0.000102783029
      0.0507800505 0.236040294 0.32921195 -0.000162589713 0.0156529471
      -4.469337e-06 0.323791236 0.234775931 -0.000214693282 0.895288229
      -0.00502050621 0.394768238 -1.94213098e-05 -0.00025376855
      -3.72851105e-06 -2.01639682e-06 0.275036722 0.00433574989
      -0.0024425711 0.198135227 -8.90048057e-07 0.459440172
      -3.11233384e-06 -0.0036554574 1.10157609 0.153951451 0.336585164
      -0.00184532104 -8.56310144e-05 0.359532565 -3.81322789e-05
      -0.000493531115 0.124806583 0.327121586 0.262036502
      -0.000405941828 -0.000215605498 0.615339637 0.367289722
      -0.00333279208 -0.00600770535 -0.00249352213 0.0150547773
      -0.00213115965 -1.18083135e-05 -0.00411549583 0.0135542676
      -0.00306349341 -0.00233374164 -0.000138663236 -2.59452486e-06
      0.667641342 -2.16780236e-07 -2.68292354e-07 0.141501769 1.0990963
      -1.47913952e-05 -1.86417019e-05 -0.000209094593 -0.000423539896
      0.317147553 -0.000149964064 -9.46418659e-05 0.26753372
      -1.93761043e-05 0.0130897686 -0.000142776466 -3.95236566e-05
      -1.60642376e-05 -4.43635872e-05 -4.22624507e-05 -0.00024820806
      0.00407117791 -0.000107978769 0.0859524757 -0.000685841136
      0.0360300392 0.267601371 -1.61792502e-06 -0.000119812692
      -7.12149756e-07 -0.000193963366 -3.45781082e-05 0.316980988
      0.570948303 -2.44248095e-05 -0.000243836417 -9.11966781e-05
      -4.19677126e-05 -0.000486728677 0.0045804549 0.0640754774
      -0.000269225595 -0.000190227976 -2.94406636e-05 -0.000246018986</_>
    <_>
      0.208163545 -3.18033886 -0.00606504409 -0.0426942632
      -6.81714027e-08 -0.000150819542 -0.0115626855 -0.000517986424
      -0.00178665994 -3.47880541e-06 -1.61412136e-05 -2.92256402e-07
      -9.59443059e-05 -0.000335989782 -0.000170622618 6.80011797
      0.632975996 -0.00294151856 2.02124524 -0.000143532641
      -0.00119413785 -0.000675384537 -0.00465325126 -0.00240515522
      -1.3295441e-05 -0.000488375663 2.02685285 -1.04568035e-05
      -5.11133367e-05 -2.16172048e-05 0.0045052059 -0.000188171427
      -0.0117542408 -0.00102370884 -0.000100481091 -0.000841819565
      -0.000212160638 -6.06628455e-05 -0.00580297317 -0.000234654537
      -0.000139312411 -0.000579429325 -0.00158241531 -0.000258141721
      -0.00307724182 -0.00206865091 -0.000480886694 3.48340702
      0.434465438 -0.0198263302 -0.00182210014 -0.000341100909
      -4.35947413e-06 -0.00986308791 3.44661736 -0.0195809305
      -0.0631711259 -0.00309868646 -0.00332836434 -0.0046704947
      -0.000934774347 -0.000656382879 -0.000983809237 1.92430329
      -0.0229544155 -3.32788695e-05 -4.1942516e-05 -2.46453001e-05
      -0.00445526838 -0.0014400233 -0.000645963708 4.47199535
      -0.00172054151 -0.000108170192 -3.73778244e-06 -0.00090127869
      -1.77463135e-05 0.142351046 4.74831581 -0.00181589776
      -1.03547072e-05 -5.26371423e-07 -0.000384883198 2.26419401
      -0.0390874743 -0.000543729868 -0.00651487103 -0.00699690916
      -7.50316758e-06 -0.00683502667 -0.00621526595 -0.000453664776
      -0.00526830181 -0.00544042559 2.97042942 -0.0188396536
      -0.000778953428 -0.0136114033 -0.00590862846 -0.00210893434
      -6.13024313e-05 -0.0075148032 2.57576728 -1.43748161e-06
      -0.000105888554 -0.000874496705 5.07916975 -0.000115636525
      -3.14616191e-05 -0.000449418148 0.0988950357 -0.0018087537
      0.234355807 -1.8318844e-05 -6.16993057e-05 -0.000637293444
      -9.16524129e-07 -2.45221281e-06 -0.000151662025 -4.91343708e-05
      -0.00717251049 -8.5326883e-06 -0.00694869971 -0.000510977581
      -0.00789933093 -0.00903188903 -0.00255346647 -0.0185584351
      -0.0206494778 -0.00158598879 0.23129712 0.588342905
      -9.48151064e-05 -0.000103624683 0.0251922086 0.247141674
      0.300959766 -0.000162821627 0.0408174768 -4.47262892e-06
      0.314472735 0.317555726 -0.000215338805 0.876519263 -0.00508333649
      0.417468697 -1.95050561e-05 -0.000246165786 -3.74657361e-06
      -2.02880392e-06 0.259336472 -0.000310056319 -0.00229425984
      0.112304464 -8.84096437e-07 0.409755558 -3.11624717e-06
      -0.00397534482 1.12077296 0.110838875 0.330140591 -0.00177181547
      -1.52312214e-05 0.312262416 -3.80862111e-05 -0.000498099369
      0.0637033731 0.326317996 0.289139509 -0.000408720429
      -0.000407547632 0.574457526 0.419119179 -0.00350996875
      -0.0054961727 -0.00271470565 0.0124254972 -0.00205570925
      -1.1642589e-05 -0.004148426 0.0475975797 -0.0035334134
      -0.00236808299 -0.000139198426 -2.6239727e-06 0.619230986
      -2.13922533e-07 -2.68490396e-07 0.135718122 0.977750182
      -1.47926412e-05 -1.86430025e-05 -0.000209095655 -0.000423419639
      0.317118704 -0.000149968444 -9.46451619e-05 0.267461151
      -1.93772757e-05 0.0129957683 -0.000142779492 -3.9525552e-05
      -1.60652144e-05 -4.45664664e-05 -4.20918295e-05 -0.000248191907
      0.00389548577 -0.0001079664 0.0858640373 -0.00068557472
      0.0362697393 0.267557323 -1.61727098e-06 -0.000119816657
      -7.07340632e-07 -0.000193957836 -3.53986397e-05 0.31660834
      0.570627391 -2.44265375e-05 -0.000241062415 -9.12014002e-05
      -4.19695898e-05 -0.000486584235 0.00450997613 0.0640490949
      -0.000269186799 -0.000190229679 -2.94419206e-05 -0.000245643983</_>
    <_>
      0.232820317 -3.28722882 -0.00589626795 -0.0402775928
      -6.49193268e-08 -0.000152050241 -0.0110751344 -0.000485229364
      -0.00178864202 -2.88542219e-06 -1.50574879e-05 -2.84814348e-07
      -8.7696666e-05 -0.000306973641 -0.000160179523 6.53220797
      0.539680779 -0.00280168164 1.93951678 -0.000135966169
      -0.00109617296 -0.000669679779 -0.00451088417 -0.00232933578
      -1.2059123e-05 -0.000537438609 1.88628531 -9.32814328e-06
      -4.82204123e-05 -1.96057281e-05 0.229491204 -0.000186219608
      -0.011972799 -0.000917955535 -9.53888884e-05 -0.000823548937
      -0.000211220293 -5.45632392e-05 -0.00424977113 -0.000211290011
      -0.000139422264 -0.000599873136 -0.00143139414 -0.000268172909
      -0.00288609741 -0.00196307688 -0.000441016629 3.30023074
      0.500124037 -0.0190453343 -0.00166990305 -0.000432528032
      -4.00477393e-06 -0.0095801726 3.36724663 -0.0190309584
      -0.0606849864 -0.00299054966 -0.000649668335 -0.00450632023
      -0.000896280166 -0.000633590855 -0.000935747521 1.8505106
      -0.0221803039 -3.349494e-05 -3.91650501e-05 -2.23412517e-05
      -0.00427521206 -0.00138982804 -0.000652230054 4.43334103
      -0.00163102255 -0.000103789585 -3.87932232e-06 -0.000882410211
      -1.62438391e-05 0.0645283535 4.61087036 -0.00174501003
      -9.65665367e-06 -4.4736089e-07 -0.000381242367 2.21077061
      -0.0370729566 -0.000546364055 -0.00545066828 -0.00708207907
      -7.23110952e-06 -0.00658605993 -0.00603257399 -0.000429381151
      -0.0052124951 -0.00547269033 2.81547427 -0.0181979407
      -0.00076485076 -0.012479119 -0.00561666908 -0.00205155578
      -5.16737528e-05 -0.00673878193 2.45222878 -1.31101547e-06
      -9.64506544e-05 -0.000870132411 5.02188444 -0.000103781807
      -3.00746779e-05 -0.000416914467 0.322710276 -0.00174377835
      0.310571343 -1.71650427e-05 -5.70511984e-05 -0.000558347791
      -7.84900919e-07 -2.34356935e-06 -0.000139803698 -4.75902489e-05
      -0.00671568606 -7.88651869e-06 -0.00695641432 -0.000445809099
      -0.00858670194 -0.00889532175 -0.00243913825 -0.0178894419
      -0.0202432983 -0.00172506727 0.22623542 0.575683236
      -9.53756462e-05 -0.000101219608 0.0101338178 0.235672653
      0.276122034 -0.000163838398 0.0530566722 -4.57487704e-06
      0.329447269 0.33100301 -0.000215575594 0.873571932 -0.00503112655
      0.419311434 -1.95501452e-05 -0.000246604817 -3.81836708e-06
      -2.05388301e-06 0.220339745 -9.39665333e-05 -0.00228380179
      0.106944785 -8.91989032e-07 0.419611067 -3.12857264e-06
      -0.00402493123 1.12244654 0.110406026 0.314746588 -0.00176383147
      -0.000139963624 0.330353409 -3.87273831e-05 -0.00049432274
      0.0469525531 0.318484098 0.292036414 -0.000404834922
      -0.000451216241 0.549678683 0.413584948 -0.00366250658
      -0.00557534443 -0.00275843381 0.023301214 -0.00203186716
      -1.16959254e-05 -0.00410105288 0.0450006351 -0.00365536404
      -0.00237567816 -0.000140312317 -2.66994584e-06 0.607593
      -2.13146521e-07 -2.71272057e-07 0.123674169 0.962878883
      -1.47945711e-05 -1.86450161e-05 -0.000209097445 -0.00042323416
      0.317080319 -0.000149975298 -9.46502623e-05 0.267349303
      -1.93790947e-05 0.0128431283 -0.000142784236 -3.95284951e-05
      -1.60667259e-05 -4.49300533e-05 -4.18474519e-05 -0.00024816746
      0.00360481441 -0.000107946245 0.0857201368 -0.000685160805
      0.0366620049 0.267493784 -1.61626735e-06 -0.000119822835
      -7.00046087e-07 -0.000193949381 -3.6778114e-05 0.316007316
      0.570119739 -2.44292169e-05 -0.000236560023 -9.12087562e-05
      -4.19725038e-05 -0.000486359553 0.00439567305 0.0640069172
      -0.000269126846 -0.000190232473 -2.94438651e-05 -0.000245039875</_>
    <_>
      0.493528843 -3.28482795 -0.00613198755 -0.0433602035
      -6.60605721e-08 -0.000136452945 -0.0114338351 -0.000492376101
      -0.00181781524 -3.08699646e-06 -1.55682319e-05 -3.06741128e-07
      -8.90175143e-05 -0.000308574759 -0.000165259757 6.9661355
      0.209098607 -0.00286038569 2.23154664 -0.00013360384
      -0.00110866339 -0.000659041689 -0.0046319617 -0.00228290772
      -1.22461988e-05 -0.00360189262 1.57463431 -7.51309835e-06
      -5.04700765e-05 -1.86695906e-05 0.0507308878 -0.000187737751
      -0.0136716673 -0.000977295218 -9.32975454e-05 -0.000858525222
      -0.000218512083 -5.47702984e-05 -0.0067239604 -0.000199295202
      -0.000145195416 -0.000535440398 -0.0014927712 -0.00026753472
      -0.00222063484 -0.00191519177 -0.000467063481 3.74644279
      0.383843482 -0.0200115945 -0.00167242414 -0.000204236683
      -3.74220508e-06 -0.00989366323 3.69578099 -0.0186708216
      -0.0646861717 -0.00306727854 -0.00323897088 -0.00468285056
      -0.000908787886 -0.000556079787 -0.000940779224 1.66350174
      -0.0261631105 -3.46225352e-05 -3.66131499e-05 -2.2733786e-05
      -0.00447139097 -0.00140843727 -0.000663153944 4.61666679
      -0.00171387708 -0.000106447143 -2.97465726e-06 -0.000909275026
      -1.57628856e-05 -0.00259933923 4.7889719 -0.00179260236
      -9.67473443e-06 -3.89771742e-07 -0.000369886315 2.42870641
      -0.0400157236 -0.000499959046 -0.00657694926 -0.00940967165
      -7.47558488e-06 -0.00672839489 -0.00653914688 -0.000425601407
      -0.00509106973 -0.00537307747 2.26770449 -0.0179364961
      -0.000781413575 -0.0136248004 -0.00579441478 -0.00209386274
      -5.08742669e-05 -0.006411321 2.10967803 -1.28364593e-06
      -9.67070519e-05 -0.00084774493 5.42579317 -0.000104055704
      -3.04258356e-05 -0.000429186592 0.13862896 -0.00170730695
      0.391534358 -1.64731027e-05 -4.93155094e-05 -0.00059239869
      -7.05234413e-07 -2.34658251e-06 -0.000133884882 -4.7885289e-05
      -0.00670457957 -8.30855515e-06 -0.00715741189 -0.000453827321
      -0.0106093502 -0.00935352407 -0.00234397547 -0.0187349822
      -0.0236136317 -0.00111302407 0.221805483 0.554456651
      -9.51314141e-05 -0.000102684317 -0.000167971768 0.299767733
      0.301393747 -0.00016532882 0.0452142432 -4.52860286e-06
      0.357596397 0.29648006 -0.000214139218 0.891272128 -0.00458340952
      0.38477087 -1.9557825e-05 -0.000248081371 -3.82489452e-06
      -2.07078438e-06 0.190814435 0.0437968262 -0.00168040476
      0.153788835 -9.11797429e-07 0.428561419 -3.17847184e-06
      -0.00393909262 1.10487294 0.140149504 0.343353391 -0.00185918878
      -0.000227933371 0.385507315 -3.82039871e-05 -0.000489724916
      0.0901346803 0.370220989 0.282509208 -0.000392185786 0.00864774734
      0.525409579 0.317268401 -0.0035876669 -0.00579096377
      -0.00287226494 0.0577905476 -0.00204080064 -1.19946781e-05
      -0.00402059546 -1.55249982e-05 -0.00286597363 -0.00234958716
      -0.000140455362 -2.67744213e-06 0.630412281 -2.18755062e-07
      -2.78957799e-07 0.107941896 1.02039301 -1.4795266e-05
      -1.86456436e-05 -0.000209100443 -0.000423157122 0.316996515
      -0.000149977714 -9.46519795e-05 0.26726678 -1.93797132e-05
      0.0128084719 -0.00014278591 -3.95295065e-05 -1.60672207e-05
      -4.42466117e-05 -4.11709407e-05 -0.000248163007 0.00362355821
      -0.000107939537 0.0856795907 -0.000685044681 0.036731489
      0.267413378 -1.61587252e-06 -0.000119824981 -6.96342909e-07
      -0.000193948319 -3.62451756e-05 0.315838367 0.569910169
      -2.44301136e-05 -0.00023527749 -9.12111573e-05 -4.19734642e-05
      -0.00048630315 0.00436879881 0.0639775023 -0.000269107317
      -0.000190235078 -2.94445454e-05 -0.000244873692</_>
    <_>
      0.493528843 -3.28482795 -0.00613198755 -0.0433602035
      -6.60605721e-08 -0.000136452945 -0.0114338351 -0.000492376101
      -0.00181781524 -3.08699646e-06 -1.55682319e-05 -3.06741128e-07
      -8.90175143e-05 -0.000308574759 -0.000165259757 6.9661355
      0.209098607 -0.00286038569 2.23154664 -0.00013360384
      -0.00110866339 -0.000659041689 -0.0046319617 -0.00228290772
      -1.22461988e-05 -0.00360189262 1.57463431 -7.51309835e-06
      -5.04700765e-05 -1.86695906e-05 0.0507308878 -0.000187737751
      -0.0136716673 -0.000977295218 -9.32975454e-05 -0.000858525222
      -0.000218512083 -5.47702984e-05 -0.0067239604 -0.000199295202
      -0.000145195416 -0.000535440398 -0.0014927712 -0.00026753472
      -0.00222063484 -0.00191519177 -0.000467063481 3.74644279
      0.383843482 -0.0200115945 -0.00167242414 -0.000204236683
      -3.74220508e-06 -0.00989366323 3.69578099 -0.0186708216
      -0.0646861717 -0.00306727854 -0.00323897088 -0.00468285056
      -0.000908787886 -0.000556079787 -0.000940779224 1.66350174
      -0.0261631105 -3.46225352e-05 -3.66131499e-05 -2.2733786e-05
      -0.00447139097 -0.00140843727 -0.000663153944 4.61666679
      -0.00171387708 -0.000106447143 -2.97465726e-06 -0.000909275026
      -1.57628856e-05 -0.00259933923 4.7889719 -0.00179260236
      -9.67473443e-06 -3.89771742e-07 -0.000369886315 2.42870641
      -0.0400157236 -0.000499959046 -0.00657694926 -0.00940967165
      -7.47558488e-06 -0.00672839489 -0.00653914688 -0.000425601407
      -0.00509106973 -0.00537307747 2.26770449 -0.0179364961
      -0.000781413575 -0.0136248004 -0.00579441478 -0.00209386274
      -5.08742669e-05 -0.006411321 2.10967803 -1.28364593e-06
      -9.67070519e-05 -0.00084774493 5.42579317 -0.000104055704
      -3.04258356e-05 -0.000429186592 0.13862896 -0.00170730695
      0.391534358 -1.64731027e-05 -4.93155094e-05 -0.00059239869
      -7.05234413e-07 -2.34658251e-06 -0.000133884882 -4.7885289e-05
      -0.00670457957 -8.30855515e-06 -0.00715741189 -0.000453827321
      -0.0106093502 -0.00935352407 -0.00234397547 -0.0187349822
      -0.0236136317 -0.00111302407 0.221805483 0.554456651
      -9.51314141e-05 -0.000102684317 -0.000167971768 0.299767733
      0.301393747 -0.00016532882 0.0452142432 -4.52860286e-06
      0.357596397 0.29648006 -0.000214139218 0.891272128 -0.00458340952
      0.38477087 -1.9557825e-05 -0.000248081371 -3.82489452e-06
      -2.07078438e-06 0.190814435 0.0437968262 -0.00168040476
      0.153788835 -9.11797429e-07 0.428561419 -3.17847184e-06
      -0.00393909262 1.10487294 0.140149504 0.343353391 -0.00185918878
      -0.000227933371 0.385507315 -3.82039871e-05 -0.000489724916
      0.0901346803 0.370220989 0.282509208 -0.000392185786 0.00864774734
      0.525409579 0.317268401 -0.0035876669 -0.00579096377
      -0.00287226494 0.0577905476 -0.00204080064 -1.19946781e-05
      -0.00402059546 -1.55249982e-05 -0.00286597363 -0.00234958716
      -0.000140455362 -2.67744213e-06 0.630412281 -2.18755062e-07
      -2.78957799e-07 0.107941896 1.02039301 -1.4795266e-05
      -1.86456436e-05 -0.000209100443 -0.000423157122 0.316996515
      -0.000149977714 -9.46519795e-05 0.26726678 -1.93797132e-05
      0.0128084719 -0.00014278591 -3.95295065e-05 -1.60672207e-05
      -4.42466117e-05 -4.11709407e-05 -0.000248163007 0.00362355821
      -0.000107939537 0.0856795907 -0.000685044681 0.036731489
      0.267413378 -1.61587252e-06 -0.000119824981 -6.96342909e-07
      -0.000193948319 -3.62451756e-05 0.315838367 0.569910169
      -2.44301136e-05 -0.00023527749 -9.12111573e-05 -4.19734642e-05
      -0.00048630315 0.00436879881 0.0639775023 -0.000269107317
      -0.000190235078 -2.94445454e-05 -0.000244873692</_>
    <_>
      0.521043003 -3.47083759 -0.0061541521 -0.0417213067
      -6.60855264e-08 -0.00011765345 -0.0113008041 -0.000470318773
      -0.00174997211 -2.82375481e-06 -1.4837974e-05 -3.0321965e-07
      -8.69289361e-05 -0.000289813906 -0.000168341576 6.98860598
      0.369967639 -0.00280971965 1.67511654 -0.000128600805
      -0.00103700196 -0.000647412671 -0.00459553581 -0.00122718851
      -1.1559825e-05 -0.00173067919 1.74840033 -7.35283675e-06
      -5.00025199e-05 -1.75660698e-05 -0.00102153758 -0.000184754215
      -0.0125128897 -0.000981071964 -8.68997522e-05 -0.000825683295
      -0.000214741638 -5.26393014e-05 -0.00552025903 -0.000189044396
      -0.00013928258 -0.000501345494 -0.0014586316 -0.000271682366
      -0.00194561586 -0.00184976519 -0.000492732506 3.01025629
      0.438792259 -0.0186088551 -0.00162040128 -0.000428452215
      -3.32311811e-06 -0.00993829407 3.79147863 -0.0181247573
      -0.0636982247 -0.00306817377 -0.00153023005 -0.00464166794
      -0.00083168142 -0.000544931798 -0.000915214478 1.77091742
      -0.0241643656 -3.38498976e-05 -3.47590176e-05 -2.21655264e-05
      -0.00440903334 -0.00140636647 -0.000637090474 4.6083746
      -0.00166913238 -0.000104653591 -2.73017417e-06 -0.000885674031
      -1.50700107e-05 -0.00109318492 4.69542885 -0.00175138295
      -9.6176891e-06 -3.32441772e-07 -0.00035701145 2.40237999
      -0.0399280451 -0.000476548448 -0.00521405786 -0.0113152731
      -7.57381031e-06 -0.00648502354 -0.00649356609 -0.000412198831
      -0.00493355561 -0.00495823659 2.53789735 -0.0177998077
      -0.000714956259 -0.0137616498 -0.00568584586 -0.00207032706
      -4.64328732e-05 -0.00632410171 2.25748467 -1.06651419e-06
      -9.14917764e-05 -0.000816419837 5.11083794 -9.92784335e-05
      -2.92258555e-05 -0.000428290979 0.317557037 -0.00164751185
      0.281661391 -1.55517882e-05 -4.58295108e-05 -0.000575870974
      -6.66905805e-07 -2.38334633e-06 -0.000130487228 -4.76399182e-05
      -0.00669967197 -8.34746425e-06 -0.0071905707 -0.000441707612
      -0.00861267094 -0.00865834951 -0.00224898756 -0.0182373226
      -0.0221490283 -0.000845670525 0.270227373 0.424239308
      -9.73888673e-05 -0.000108343564 -0.000542234455 0.350550532
      0.301289499 -0.000177742259 0.0470209941 -4.67059726e-06
      0.41821748 0.337252975 -0.000223876545 0.915259302 -0.00448599132
      0.370852232 -1.92827101e-05 -0.000265119394 -3.89221486e-06
      -2.07787366e-06 0.121012643 0.0243058838 -5.58251886e-05
      0.156668946 -8.39419556e-07 0.45916149 -2.97753854e-06
      -0.00393711682 1.15141213 0.0398605131 0.380695075 -0.00170144183
      -0.000142949226 0.319270283 -4.18439668e-05 -0.000523835537
      0.074931331 0.412907243 0.290792346 -0.000386139145 0.0171289593
      0.437209815 0.205655083 -0.00423216727 -0.00620771106
      -0.00320413383 0.00373439491 -0.00211294554 -1.12626212e-05
      -0.00421120832 -0.000443082827 -0.00203181291 -0.00250938954
      -0.00015002265 -2.69725479e-06 0.560884595 -2.15507796e-07
      -2.51655621e-07 0.104866028 1.05049789 -1.47934279e-05
      -1.86435973e-05 -0.00020910184 -0.000423320453 0.316941857
      -0.000149971092 -9.46469372e-05 0.267317891 -1.93779324e-05
      0.0129797459 -0.000142781355 -3.95266361e-05 -1.60657128e-05
      -4.28351741e-05 -4.06323379e-05 -0.000248192053 0.00406052172
      -0.000107959393 0.0858306736 -0.000685482286 0.0362659171
      0.267398894 -1.61678702e-06 -0.000119819015 -7.01898216e-07
      -0.000193958942 -3.35902332e-05 0.316470534 0.570357502
      -2.44274706e-05 -0.000239987741 -9.12038304e-05 -4.19705684e-05
      -0.00048654931 0.00449584611 0.0639988109 -0.000269167096
      -0.000190234554 -2.94426609e-05 -0.000245514355</_>
    <_>
      0.647351086 -3.71256542 -0.00620413665 -0.0423516445
      -6.78032137e-08 -0.000105969812 -0.0113473916 -0.000487729238
      -0.00170205545 -2.96070925e-06 -1.53277724e-05 -3.09529753e-07
      -8.68941788e-05 -0.000285101967 -0.000166608123 7.06922197
      0.013945207 -0.00285198027 1.90821266 -0.000122880025
      -0.00104801718 -0.000642064842 -0.00466827163 -0.00153543265
      -1.16785914e-05 -0.00510744005 1.41005075 -6.44021748e-06
      -5.06400975e-05 -1.7510878e-05 0.00170248374 -0.000184318254
      -0.0137466621 -0.000978140859 -8.54515893e-05 -0.000824441959
      -0.000210068407 -5.4304197e-05 -0.00580319436 -0.000191905739
      -0.000141056604 -0.000480346469 -0.00146730896 -0.000270499819
      -0.00218758709 -0.00189607556 -0.000507827324 3.25849771
      0.242852136 -0.0180441216 -0.00162051152 -0.000361554237
      -3.37745428e-06 -0.0100986706 3.83131027 -0.0177966356
      -0.063177906 -0.0030543413 -0.00242407992 -0.00464715715
      -0.000838848122 -0.000588716415 -0.000936306606 1.54237032
      -0.0268880799 -3.38471873e-05 -3.55130505e-05 -2.23618899e-05
      -0.00442255987 -0.00137587159 -0.000651567185 4.79546118
      -0.00168574729 -0.000107370746 -2.40639383e-06 -0.00090125954
      -1.56938731e-05 -0.00434501329 4.71496916 -0.00177532225
      -9.7955226e-06 -3.4628934e-07 -0.000357628305 2.42484641
      -0.0408487357 -0.000468088896 -0.00639270013 -0.0123331556
      -7.6895376e-06 -0.00657467963 -0.00671654381 -0.000410196721
      -0.00492401421 -0.00505515188 1.99685001 -0.0176146273
      -0.000745647878 -0.0146763427 -0.00580494571 -0.00204797601
      -4.72831962e-05 -0.00654690387 1.94501376 -1.06309938e-06
      -9.24766719e-05 -0.000800744398 5.37608147 -0.000100093472
      -2.90677544e-05 -0.000431232853 0.484240621 -0.00165169453
      0.253416151 -1.58696112e-05 -4.63985671e-05 -0.000582132721
      -6.56660177e-07 -2.45930823e-06 -0.000128211585 -4.79325136e-05
      -0.00662712753 -8.36368145e-06 -0.00734686106 -0.000439714757
      -0.0111948224 -0.00894101057 -0.00219205604 -0.0180805363
      -0.0245556477 -0.000597112521 0.296949595 0.398777455
      -9.70405817e-05 -0.000112119036 -0.000649670663 0.347689629
      0.342590868 -0.000177126974 0.0281991437 -4.57572105e-06
      0.445807517 0.31550315 -0.000223218725 0.895831764 -0.00402054703
      0.356108218 -1.95847733e-05 -0.00026527475 -3.87747377e-06
      -2.10588678e-06 0.128909394 0.0206884481 0.0189220384 0.228529975
      -8.60069747e-07 0.459552377 -3.04696482e-06 -0.00357611175
      1.11196041 0.0769587606 0.402201891 -0.00168809365 0.015798673
      0.376187772 -4.14903188e-05 -0.000520006986 0.0996169895
      0.441677272 0.287908703 -0.000377428165 0.0643720031 0.430747956
      0.145765752 -0.00391239254 -0.00630078837 -0.00298928586
      0.00525837392 -0.00213875435 -1.15413895e-05 -0.00412965287
      -0.000515843974 -0.00176682672 -0.0024988926 -0.000149360494
      -2.71149315e-06 0.568242848 -2.24628465e-07 -2.58982823e-07
      0.0913002938 1.14300776 -1.47938508e-05 -1.86439593e-05
      -0.000209104212 -0.000423271238 0.316875041 -0.000149972548
      -9.46479486e-05 0.267258197 -1.93783017e-05 0.012963336
      -0.000142782359 -3.952724e-05 -1.60660038e-05 -4.22360754e-05
      -4.00885947e-05 -0.000248190336 0.00409992039 -0.000107955449
      0.0858086571 -0.000685418898 0.036291711 0.267336965
      -1.61653873e-06 -0.00011982031 -6.99399948e-07 -0.000193958738
      -3.30332296e-05 0.316378832 0.570224226 -2.44280018e-05
      -0.000239287387 -9.12052346e-05 -4.19711323e-05 -0.000486520526
      0.00448279269 0.0639777482 -0.000269155658 -0.000190236504
      -2.94430683e-05 -0.000245425093</_>
    <_>
      0.697933018 -3.32684374 -0.00678505516 -0.0456957035
      -7.20531048e-08 -0.000138928008 -0.0124111893 -0.000566110655
      -0.00189308159 -3.67453367e-06 -1.68877377e-05 -3.28733506e-07
      -9.76900265e-05 -0.000312120043 -0.000180307456 7.48399544
      -0.00271493499 -0.00312532694 2.44766593 -0.000145470738
      -0.0011261598 -0.000741399534 -0.00514993398 -0.00263423775
      -1.36160133e-05 -0.00834118295 1.24003112 -7.6668266e-06
      -5.48216703e-05 -1.94112308e-05 0.101109058 -0.000206383673
      -0.0158834886 -0.00106152415 -9.72257258e-05 -0.000928243157
      -0.000217070134 -6.00305466e-05 -0.00776980398 -0.000220671704
      -0.000156171081 -0.000560963235 -0.00165549002 -0.000254482497
      -0.00217086147 -0.00207669707 -0.00051506504 3.88419819
      0.243171364 -0.0219083093 -0.0018572805 -0.000463438686
      -4.04086632e-06 -0.0108236466 3.71618843 -0.0187271163
      -0.0697791874 -0.0034126183 -0.00403692946 -0.00525665889
      -0.00099540595 -0.000567418523 -0.00106484059 1.49752474
      -0.031990733 -3.53782998e-05 -3.87276232e-05 -2.4754816e-05
      -0.00491468608 -0.00151773938 -0.00066508603 5.02579927
      -0.00190413243 -0.000118759868 -3.32285003e-06 -0.00097979221
      -1.59916908e-05 -0.00669597788 5.04578495 -0.00197609654
      -1.01692231e-05 -4.31326981e-07 -0.000419620163 2.69186068
      -0.0430734195 -0.000574544014 -0.00814106595 -0.0118312202
      -8.64704634e-06 -0.00727499276 -0.00715490431 -0.000469452643
      -0.00546684861 -0.00545326527 1.6671207 -0.0190432295
      -0.000767559337 -0.0159809962 -0.00641912408 -0.00229725754
      -5.81481909e-05 -0.0067915665 1.76853991 -1.24693975e-06
      -0.000106829422 -0.000868187402 5.79247141 -0.000118158823
      -3.05182512e-05 -0.000469806022 -0.000792133273 -0.0019049386
      0.371312588 -1.80480693e-05 -5.09016754e-05 -0.000652969931
      -6.78874926e-07 -2.56519911e-06 -0.000137346127 -5.23593553e-05
      -0.00716122426 -9.19163631e-06 -0.00799608417 -0.00051357632
      -0.0141620226 -0.00927881803 -0.00252606021 -0.0185780954
      -0.0278069768 -0.000807263248 0.311127156 0.504113197
      -9.67662199e-05 -0.000109337401 -0.000621488667 0.369181275
      0.318129539 -0.000162165044 0.0107154474 -4.65323546e-06
      0.425289571 0.286960095 -0.000220080678 0.92402339 -0.00433527399
      0.360840142 -1.94583426e-05 -0.00026338952 -3.94691779e-06
      -1.97993154e-06 0.136450663 0.0276610591 -9.97609604e-05
      0.248118967 -8.7936661e-07 0.460763931 -3.09489928e-06
      -0.00356422528 1.12110054 0.11443726 0.341362417 -0.00167472824
      -0.000177720925 0.423057288 -3.83598308e-05 -0.000500808004
      0.111383773 0.455468208 0.228949726 -0.000398472999 0.0558581352
      0.415221959 0.237511843 -0.00366013311 -0.00561514776
      -0.00247959513 0.0838657171 -0.00206976896 -1.1895243e-05
      -0.0040630959 -0.00152032613 -0.00143320288 -0.00243818294
      -0.000140821547 -2.69156089e-06 0.570817828 -2.26292613e-07
      -2.63890456e-07 0.082190901 1.21579695 -1.47973378e-05
      -1.86474663e-05 -0.000209110614 -0.000422922138 0.316711247
      -0.000149984844 -9.46569999e-05 0.266998708 -1.93815376e-05
      0.0127143078 -0.000142790872 -3.95324969e-05 -1.60686686e-05
      -4.17914234e-05 -3.8849339e-05 -0.000248152064 0.00374038145
      -0.000107919703 0.0855631679 -0.000684715691 0.0369052961
      0.267144442 -1.61468131e-06 -0.000119831377 -6.84770043e-07
      -0.000193946122 -3.41382984e-05 0.315354705 0.5692693
      -2.44327512e-05 -0.000231589453 -9.12182077e-05 -4.197628e-05
      -0.000486147532 0.00429504178 0.0638820529 -0.000269050041
      -0.000190243722 -2.94465535e-05 -0.00024440093</_>
    <_>
      0.484367907 -3.33819008 -0.00625321688 -0.0446728989
      -6.9177311e-08 -0.000127643376 -0.0119150886 -0.000507204153
      -0.00181574537 -3.29562727e-06 -1.61390253e-05 -3.1491868e-07
      -9.17766229e-05 -0.000309476454 -0.000166317812 7.2353673
      0.0700029433 -0.00295952801 2.21124697 -0.000129684151
      -0.00112640485 -0.000653287396 -0.00474379817 -0.00181990082
      -1.30345015e-05 -0.00512643857 1.57764637 -7.55348128e-06
      -5.14107705e-05 -1.94115928e-05 0.141072989 -0.000195652858
      -0.0125287659 -0.00100045162 -9.22775434e-05 -0.000855443825
      -0.000217490335 -5.66441922e-05 -0.00467925146 -0.000211024657
      -0.000147072598 -0.000517767679 -0.00151938898 -0.000273450365
      -0.00311203999 -0.00214593252 -0.000500838622 3.48365498
      0.340216398 -0.0193413049 -0.0017405937 -0.000339701102
      -4.02543174e-06 -0.0103264675 3.68540907 -0.0183502752
      -0.0627170801 -0.00310399407 -0.00324085983 -0.00471801218
      -0.000950679358 -0.000645444379 -0.000987191801 1.65025258
      -0.0268034637 -3.48549875e-05 -3.88308763e-05 -2.29929847e-05
      -0.00455309497 -0.00136262621 -0.000682694314 5.00300217
      -0.00175256049 -0.000105856561 -2.8969821e-06 -0.000944113126
      -1.57000995e-05 -0.00405782973 5.0023675 -0.00186251791
      -9.95582195e-06 -4.35559286e-07 -0.000380732003 2.42987204
      -0.0410526991 -0.000509513542 -0.00672644237 -0.00995451957
      -7.7662462e-06 -0.00710588135 -0.00692003826 -0.000435969443
      -0.00527038565 -0.00545270415 2.23536849 -0.0184687674
      -0.000774398271 -0.0144078862 -0.00606457051 -0.002106247
      -5.33824023e-05 -0.00735447649 2.10987782 -1.28597003e-06
      -9.63006314e-05 -0.000879094121 5.60048819 -0.000105222141
      -3.10042742e-05 -0.000439102238 0.128439933 -0.00178978988
      0.297119349 -1.65333749e-05 -5.23966592e-05 -0.000575602753
      -7.6385254e-07 -2.44189755e-06 -0.000132808695 -4.96557659e-05
      -0.00684904214 -8.51716868e-06 -0.00760795455 -0.00044440644
      -0.011540072 -0.00956523605 -0.00225189794 -0.0189058036
      -0.0249576643 -0.00106199947 0.300922155 0.498402327
      -9.60636098e-05 -0.000109547262 -0.000522371789 0.381478369
      0.339052856 -0.000163270728 -0.000206914323 -4.56693624e-06
      0.430333197 0.293151647 -0.000221184397 0.900627315 -0.00413002446
      0.341462672 -1.96385081e-05 -0.000262611953 -3.93228265e-06
      -2.01487524e-06 0.153249681 0.00320841745 0.0104948208 0.207530454
      -8.90925719e-07 0.437536865 -3.14019258e-06 -0.00349951978
      1.09446979 0.124530382 0.337131262 -0.00170561054 -0.000116708427
      0.398061186 -3.81629725e-05 -0.000498042966 0.112880856
      0.449217528 0.258721471 -0.00039694173 0.0628383458 0.449989527
      0.216876149 -0.00356977317 -0.00587520283 -0.00254212948
      0.062416181 -0.00208826782 -1.19802326e-05 -0.00402535684
      -0.00161769416 -0.00138088758 -0.00237747049 -0.000140719174
      -2.69698876e-06 0.568709731 -2.29735406e-07 -2.69168964e-07
      0.0849812031 1.19320869 -1.48013751e-05 -1.86516208e-05
      -0.00020911578 -0.000422527868 0.31658873 -0.000149999134
      -9.46675937e-05 0.266738981 -1.93853211e-05 0.0124068819
      -0.000142800753 -3.95386232e-05 -1.60718027e-05 -4.20592733e-05
      -3.79809717e-05 -0.000248103577 0.00320623815 -0.00010787783
      0.0852685273 -0.000683869759 0.0376836136 0.266976714
      -1.61256196e-06 -0.000119844255 -6.68860707e-07 -0.000193929605
      -3.64041698e-05 0.314124674 0.568190098 -2.44383136e-05
      -0.000222362942 -9.12334581e-05 -4.19823264e-05 -0.000485692202
      0.00406426005 0.0637850612 -0.000268925854 -0.000190250517
      -2.94506117e-05 -0.000243166956</_>
    <_>
      0.03592645 -2.56990886 -0.00595535152 -0.038803637 -6.44515055e-08
      -0.000140834003 -0.0110042458 -0.000472928281 -0.0017553207
      -2.92438494e-06 -1.49940961e-05 -2.92208483e-07 -8.74704783e-05
      -0.000290142547 -0.000163731165 6.41547441 0.259064198
      -0.00274745398 2.19775987 -0.000133336856 -0.00109040679
      -0.000645495777 -0.0045254603 -0.0019490096 -1.19852466e-05
      -0.00247815507 1.62699592 -8.61740227e-06 -4.88732221e-05
      -1.78161717e-05 0.0640409738 -0.000182584627 -0.0128773469
      -0.000938000798 -8.92168246e-05 -0.000815044797 -0.000217546549
      -5.31083242e-05 -0.00764249032 -0.000195605913 -0.000142863006
      -0.000552158104 -0.00143445993 -0.000246005133 -0.00233026664
      -0.00181461871 -0.000453899702 3.57194495 0.681563973
      -0.0202095266 -0.00163224025 -0.000318808423 -3.56074338e-06
      -0.00964221638 3.10975671 -0.018539153 -0.0624890216
      -0.00299779698 -0.0031538303 -0.00455062371 -0.000832951395
      -0.000551756355 -0.000917113386 1.669173 -0.0247097965
      -3.24366265e-05 -3.55421798e-05 -2.24574669e-05 -0.00424683886
      -0.00136512704 -0.00062085269 4.27730942 -0.00163588172
      -0.000104174054 -3.20905701e-06 -0.000869797601 -1.54070749e-05
      -0.00250180275 4.49189091 -0.00172802596 -9.50207868e-06
      -3.72408607e-07 -0.000359449332 2.02627492 -0.0361444429
      -0.000504867174 -0.00493050786 -0.00849851873 -7.28962641e-06
      -0.0066319555 -0.00615819078 -0.000412975322 -0.00492226193
      -0.00507068215 2.34689474 -0.017580539 -0.000731363194
      -0.0114218034 -0.0056011444 -0.00206566066 -5.03150914e-05
      -0.00627048593 2.11374807 -1.19241759e-06 -9.24849592e-05
      -0.000814291299 4.92621326 -0.000103576043 -2.91975666e-05
      -0.000416377152 -0.000429335603 -0.00168222515 0.306738019
      -1.62180131e-05 -4.87258039e-05 -0.000591064338 -6.77190258e-07
      -2.25038343e-06 -0.000134523114 -4.63473589e-05 -0.00666958187
      -8.04081083e-06 -0.00680241548 -0.000468173792 -0.00969751365
      -0.00885706861 -0.0023374944 -0.0180700012 -0.021816982
      -0.00102700922 0.206324041 0.497414649 -9.3113631e-05
      -0.000104766157 -0.000170819156 0.348565698 0.249919266
      -0.000159886797 0.0696634129 -4.46025524e-06 0.367058635
      0.304349393 -0.000211347826 0.839840889 -0.00493147457 0.41118449
      -2.02038045e-05 -0.0002395552 -3.89694787e-06 -2.09997393e-06
      0.177550703 -0.000120156816 -0.000100135578 0.0947725624
      -9.54415441e-07 0.343809396 -3.33339108e-06 -0.00390840461
      1.06310904 0.103873074 0.325652599 -0.00158318796 -0.000203815391
      0.28528595 -3.77793258e-05 -0.000475816778 0.0469688177
      0.335710764 0.205106348 -0.000397671422 -0.000303435314
      0.499916345 0.349984229 -0.00369769125 -0.00459892815
      -0.00238197646 0.0744725019 -0.00187849312 -1.24952276e-05
      -0.00387223344 -0.000635418633 -0.0016618052 -0.0023397808
      -0.000130368004 -2.8384809e-06 0.541815758 -2.36175865e-07
      -2.97951232e-07 0.0926658213 0.95565784 -1.48063164e-05
      -1.86567104e-05 -0.000209121863 -0.000422045705 0.316445649
      -0.000150016611 -9.46805812e-05 0.266422808 -1.93899523e-05
      0.0120250694 -0.000142812831 -3.95461357e-05 -1.60756408e-05
      -4.24426034e-05 -3.69467562e-05 -0.00024804374 0.00253459625
      -0.000107826287 0.0849024802 -0.000682833779 0.0386539102
      0.266776741 -1.60998366e-06 -0.00011986 -6.49538094e-07
      -0.000193909014 -3.92953662e-05 0.31259957 0.566861629
      -2.44451257e-05 -0.000210899932 -9.12521209e-05 -4.19897297e-05
      -0.000485132798 0.00377768464 0.0636659712 -0.000268773234
      -0.000190258594 -2.9455583e-05 -0.000241643327</_>
    <_>
      2.13870025 -4.60175657 -0.00598358037 5.24244595 -6.04302528e-08
      -0.000125979714 -0.0105641847 -0.000436361122 -0.00142054877
      -2.30772321e-06 -1.64585945e-05 -3.96050922e-07 -5.69992117e-05
      -0.000216783359 -0.000159193383 -0.0321152881 0.164402843
      -0.00270508556 2.80883265 -8.91510863e-05 -0.001315161
      -0.00062918826 -0.00437382702 -0.0115499329 -1.17601066e-05
      1.00718904 0.89229995 -8.42058398e-06 -4.50314183e-05
      -1.96115816e-05 0.408423096 -0.000151064931 -0.00866002496
      -0.000821628491 -8.70888907e-05 -0.00068246742 -0.000250801328
      -4.86341378e-05 0.768504322 -0.000256649801 -0.000123541613
      -0.000518759829 -0.00105365564 -0.000471935025 -0.00515635591
      -0.00175115943 -0.000490623235 3.85928726 3.82479978 1.5737592
      -0.00131160358 -0.00427703047 -1.98362545e-06 -0.00868308265
      -0.0355480574 -0.0148576722 2.88951254 -0.00267664879 1.35627353
      -0.00484700687 -0.000991620938 -0.000709004467 -0.000724529964
      0.444824606 -0.00455853855 -3.21299449e-05 -3.72493778e-05
      -2.09525733e-05 -0.0047394922 -0.00143997185 -0.000654580886
      -9.7893324e-05 -0.00155121135 -9.6985008e-05 -1.27678982e-06
      -0.000748749415 -1.71091506e-05 -0.00319027039 -0.0234695319
      -0.00153148291 -8.64705999e-06 -8.76624881e-07 -0.000339940656
      -0.00932103116 4.62975264 -0.000343349442 1.93901277
      -0.00676662615 -7.24457732e-06 -0.00910036825 -0.00237424672
      -0.000377152639 -0.00475546252 -0.00655302592 2.38250279
      -0.0161295738 -0.00107659446 3.74986196 -0.00644616829
      -0.00198834226 -6.21964209e-05 -0.00644509308 1.18995023
      -1.41565658e-06 -7.12389228e-05 -0.000944634783 0.952541232
      -0.000106147403 -3.29864779e-05 -0.000345857436 1.34473836
      -0.00136485591 -0.00751337502 -1.89129587e-05 -8.64801186e-05
      -0.0005992644 -5.01305408e-07 -3.30314765e-06 -0.000178031216
      -4.63260476e-05 -0.00654167915 -9.00053237e-06 -0.00304683764
      -0.000495998363 -0.00995410699 -0.00950900838 -0.00243546395
      -0.0163673814 -0.000644863409 -0.00284607965 0.132908821
      0.299269766 -8.43542075e-05 -0.000105035411 -0.000831214595
      0.345408797 0.217876911 -0.000192108491 0.335920691
      -3.40877978e-06 0.336245418 0.520018458 -0.00023657296 0.631857753
      -0.0034866007 0.167336971 -2.23929437e-05 -0.000181186377
      -3.24347366e-06 -2.65729773e-06 0.0656921715 0.0212679319
      0.279790938 -0.000775235414 -1.14209479e-06 0.0892079845
      -3.94571953e-06 -0.00412461814 0.818168521 -5.38170316e-05
      0.536414444 -0.00119951367 -0.00133202597 0.250898421
      -4.03254926e-05 -0.000465067307 -0.00152948254 0.214093775
      0.494462609 -0.000322220294 -0.000412691239 0.219651371
      0.280059636 -0.00298865605 -0.00480659818 -0.0042223921
      0.198573619 -0.00172310439 -1.44194437e-05 -0.00329453219
      0.164644808 -0.00297697028 -0.00226058671 -0.000123571968
      -3.2651767e-06 0.433692664 -2.4501395e-07 -3.95485017e-07
      0.00661835074 0.291667759 -1.48140007e-05 -1.86645138e-05
      -0.000209128833 -0.000421266363 0.316212535 -0.000150043008
      -9.47004664e-05 0.265859276 -1.93971555e-05 0.01133563
      -0.000142830759 -3.95579118e-05 -1.60815725e-05 -4.22677404e-05
      -3.44667569e-05 -0.000247943302 0.0013558697 -0.000107748987
      0.0842220858 -0.000681298145 0.04043556 0.26644814 -1.60635955e-06
      -0.000119883836 -6.20407491e-07 -0.000193868764 -4.39811847e-05
      0.30983308 0.564520836 -2.44557232e-05 -0.000189468032
      -9.12807009e-05 -4.20012584e-05 -0.000484259857 0.00325459056
      0.0634323806 -0.000268515578 -0.000190267281 -2.94633701e-05
      -0.000239089481</_>
    <_>
      1.91285884 -5.19296503 -0.00664727809 5.6547389 -6.33873114e-08
      -0.000144574922 -0.0115545578 -0.00048761451 -0.0014853453
      -2.46866375e-06 -1.7355731e-05 -4.10715188e-07 -6.46796689e-05
      -0.000234660241 -0.000179037641 -0.0366851427 0.226245552
      -0.00294759613 2.66760373 -0.000100852005 -0.00140357658
      -0.000705961429 -0.00476698391 -0.013008506 -1.23791069e-05
      1.08523655 0.95017463 -9.30839451e-06 -4.73240143e-05
      -2.11114311e-05 0.393845022 -0.000169001389 -0.0115142642
      -0.00095013727 -0.000101254409 -0.000741117226 -0.000260668981
      -5.49049182e-05 0.775628686 -0.000296510523 -0.00012743393
      -0.000581182132 -0.00121270376 -0.000539126631 -0.00559354248
      -0.00181261764 -0.000527582364 3.73039865 3.89694071 1.61350572
      -0.00153428386 -0.00485206814 -2.07486073e-06 -0.00915929023
      -0.0409347527 -0.0162609462 3.33653617 -0.00302366004 1.42386687
      -0.00535297859 -0.00105807814 -0.000807747943 -0.000785185548
      0.453466326 -0.0038666327 -3.44316904e-05 -4.26280458e-05
      -2.26788379e-05 -0.00526084704 -0.00165439583 -0.000696720323
      -0.00198425096 -0.0016237048 -0.000107853652 -1.76517131e-06
      -0.000827625627 -1.88712911e-05 -0.00182946306 -0.0256554503
      -0.00163315504 -9.25313907e-06 -1.04246442e-06 -0.000374700903
      -0.0110487361 5.10904169 -0.000392840389 1.95511246 -0.00765434559
      -7.81433937e-06 -0.00997170806 -0.00209220476 -0.000437946175
      -0.0052996478 -0.00702098245 2.57251477 -0.0179785471
      -0.00114572071 3.98482275 -0.00697560003 -0.00222007534
      -7.05792918e-05 -0.00712092267 1.31146717 -1.52561915e-06
      -7.9742269e-05 -0.00105320767 0.709491134 -0.000117661402
      -3.51219569e-05 -0.000400706485 1.34814584 -0.00151550479
      -0.00754603371 -2.03228974e-05 -0.000101610058 -0.000711054949
      -6.07845095e-07 -3.63394611e-06 -0.000208993777 -5.0593535e-05
      -0.00727399625 -1.00577718e-05 -0.00306414859 -0.000592727331
      -0.0101984749 -0.00993639883 -0.00297942222 -0.0177060608
      0.0708730146 -0.00344668375 0.176585943 0.295412302
      -8.50247088e-05 -0.00010615978 -0.00082222803 0.352159828
      0.299373895 -0.000193415282 0.358817726 -3.40923725e-06
      0.304139495 0.477020621 -0.000238698194 0.63424325 -0.00346209365
      0.141762376 -2.23522457e-05 -0.00018988832 -3.20657432e-06
      -2.62138724e-06 0.0637979507 -0.000188977749 0.250964493
      -0.000532944978 -1.12257908e-06 0.0944193378 -3.89415709e-06
      -0.00369359553 0.837556958 -0.000333363336 0.55060184
      -0.00121561275 -0.00161521265 0.23190628 -4.06055333e-05
      -0.000474432833 -0.00162477046 0.220638424 0.484283775
      -0.000323720422 -1.63868071e-06 0.252098411 0.273777604
      -0.00269166147 -0.00434936909 -0.00417468045 0.170339823
      -0.00174622738 -1.42120634e-05 -0.00337348622 0.140149444
      -0.00334069598 -0.00226795441 -0.000128642845 -3.21678226e-06
      0.41196534 -2.43390076e-07 -3.85636071e-07 0.0294968039
      0.336955816 -1.48147656e-05 -1.86652578e-05 -0.000209130623
      -0.000421186676 0.316162527 -0.000150045671 -9.47024091e-05
      0.265790999 -1.93978594e-05 0.0112807937 -0.000142832578
      -3.95590578e-05 -1.60821455e-05 -4.19778371e-05 -3.4042223e-05
      -0.000247935503 0.00129529648 -0.000107741325 0.0841655731
      -0.00068115379 0.0405680388 0.26639396 -1.60596244e-06
      -0.00011988623 -6.1703264e-07 -0.000193866043 -4.40306576e-05
      0.309600592 0.564294279 -2.44567491e-05 -0.000187689133
      -9.12834803e-05 -4.2002368e-05 -0.000484182907 0.00321283378
      0.0634064823 -0.000268492033 -0.000190269027 -2.94641322e-05
      -0.000238866443</_>
    <_>
      2.08882642 -5.16963148 -0.00608734228 5.490242 -5.94011631e-08
      -0.000122417725 -0.0108338119 -0.000435634283 -0.00131035619
      -2.43121713e-06 -1.69245523e-05 -4.03230104e-07 -6.19477432e-05
      -0.000235032727 -0.000164155354 -0.0346803032 0.799968362
      -0.00277175591 2.38696671 -9.98360993e-05 -0.00139686489
      -0.000630824128 -0.00434109801 -0.011305471 -1.21942985e-05
      1.52671611 1.52647889 -9.32301828e-06 -4.93525295e-05
      -1.98794078e-05 0.171739638 -0.00015197492 -0.00643519266
      -0.000912052579 -8.62749657e-05 -0.000678542769 -0.000258997752
      -5.23730996e-05 0.920777082 -0.000258831278 -0.000125541235
      -0.000514257816 -0.00107918808 -0.000457914895 -0.00482505793
      -0.00186555262 -0.000501158065 3.33567238 4.06319666 1.94058144
      -0.00134708686 -0.00444373628 -2.32380376e-06 -0.00867076218
      -0.0339979865 -0.0156104574 3.14916849 -0.00268880301 1.32296169
      -0.004786551 -0.000988134765 -0.000652725284 -0.000711299072
      0.912259698 -2.32297916e-05 -3.36879166e-05 -3.78229524e-05
      -2.1411779e-05 -0.0048223976 -0.00150804769 -0.000679965597
      -0.000461590418 -0.00158170413 -9.63402344e-05 -1.16855585e-06
      -0.000800980488 -1.85919343e-05 0.26498422 -0.0256244913
      -0.00150465139 -9.23986045e-06 -7.92974447e-07 -0.000320889463
      -0.00794584211 4.75944281 -0.000338263082 2.06807232
      -0.00769059453 -7.31129694e-06 -0.00953696389 -0.00297267572
      -0.000382218801 -0.00478061056 -0.00691472739 3.46348238
      -0.0171326436 -0.00104579516 3.87749624 -0.0066957823
      -0.0020226005 -6.26613473e-05 -0.00682339165 1.8582437
      -1.49215907e-06 -6.90573652e-05 -0.00102280092 0.507673323
      -0.000111097506 -3.4667366e-05 -0.000355935685 1.29607773
      -0.0013690663 -0.00886148587 -1.93415708e-05 -8.01848873e-05
      -0.000592016615 -6.45910916e-07 -3.61768889e-06 -0.000178468821
      -4.68276958e-05 -0.00697954511 -9.00529631e-06 -0.00288998382
      -0.000545961491 -0.00603050087 -0.00963948388 -0.00260145101
      -0.0180638451 0.319569767 -0.00337432208 0.203691557 0.309745461
      -8.50723227e-05 -0.00010474633 -0.000524371571 0.363627195
      0.324481249 -0.000193282365 0.356576294 -3.42618728e-06
      0.295883715 0.466814905 -0.000239936897 0.639389217 -0.00338135869
      0.136059701 -2.22353956e-05 -0.000195035303 -3.20070103e-06
      -2.6035168e-06 0.064421922 -0.000195897621 0.246467918
      -0.000472868851 -1.11111513e-06 0.0970734507 -3.86417651e-06
      -0.00349359144 0.844143093 -0.000320908206 0.554012537
      -0.00120923587 -0.00175461033 0.22187759 -4.03067752e-05
      -0.000475133653 -0.00144591893 0.233439207 0.47502166
      -0.000326450681 -3.26156623e-05 0.268183351 0.253438115
      -0.00266074087 -0.00435532955 -0.00422756514 0.149174213
      -0.00174999051 -1.41204473e-05 -0.00340853259 0.117601775
      -0.00346570602 -0.00225962349 -0.000130239932 -3.18717002e-06
      0.409759998 -2.39316478e-07 -3.80718973e-07 0.0411049053
      0.354492784 -1.48130648e-05 -1.86635953e-05 -0.000209126782
      -0.000421363744 0.316270709 -0.000150039763 -9.46980799e-05
      0.265941083 -1.93962933e-05 0.0114037283 -0.000142828532
      -3.95565039e-05 -1.60808686e-05 -4.25879662e-05 -3.49617731e-05
      -0.000247953169 0.00143570825 -0.0001077583 0.0842918456
      -0.000681476435 0.0402699485 0.266512007 -1.60684374e-06
      -0.000119880919 -6.24495442e-07 -0.000193872227 -4.38743446e-05
      0.310120344 0.564797461 -2.44544608e-05 -0.000191665662
      -9.12772957e-05 -4.19998942e-05 -0.000484355463 0.00330642052
      0.0634634644 -0.000268544652 -0.000190265244 -2.94624351e-05
      -0.000239364279</_>
    <_>
      1.83008754 -5.35560036 -0.00625914149 5.51718998 -6.0870363e-08
      -0.000136113886 -0.0110104512 -0.00045996785 -0.00139521121
      -2.46154787e-06 -1.69112973e-05 -4.09409353e-07 -6.38428537e-05
      -0.000231301179 -0.000171552747 -0.03565282 0.45968169
      -0.00279015722 2.61934352 -9.77992677e-05 -0.00136341376
      -0.000669150322 -0.00447012018 -0.0117859505 -1.24430617e-05
      1.24198425 1.17668819 -9.76463798e-06 -4.7898724e-05
      -2.03412983e-05 0.380052358 -0.000158288458 -0.0100592757
      -0.000918169215 -9.60789039e-05 -0.000694221293 -0.000261844281
      -5.43037095e-05 0.798714399 -0.000282189838 -0.000122479614
      -0.000560482556 -0.0011368494 -0.000522478193 -0.00510723796
      -0.00175686681 -0.000510293583 3.61680222 3.8431623 1.73946202
      -0.00143945031 -0.0045316373 -2.09388759e-06 -0.00874411222
      -0.0392260402 -0.01617999 3.32822919 -0.00283890381 1.4398061
      -0.00500004832 -0.00102337962 -0.000746664882 -0.000735049311
      0.668205738 -0.00223301724 -3.42119019e-05 -4.0584182e-05
      -2.2672717e-05 -0.00495800143 -0.00158591266 -0.000684494968
      -0.000626936962 -0.0015738277 -0.000102150087 -1.5090576e-06
      -0.000828423479 -1.95476732e-05 -0.00027876909 -0.0253004301
      -0.00153916224 -9.31384875e-06 -1.00996238e-06 -0.000346127694
      -0.00964813214 4.90403032 -0.000369081972 1.95311403
      -0.00641354267 -7.3916176e-06 -0.00958782807 -0.00203356659
      -0.000406255218 -0.00497010816 -0.00697704917 2.85187936
      -0.0173605699 -0.00111394946 3.83721638 -0.00666743284
      -0.00212464249 -6.90280067e-05 -0.007016649 1.51960695
      -1.54266911e-06 -7.74664295e-05 -0.00103227713 0.693394661
      -0.000114392729 -3.48335452e-05 -0.000376647804 1.43525016
      -0.0014226411 -0.008458036 -1.98036432e-05 -9.66009975e-05
      -0.000680181372 -6.24432403e-07 -3.52502184e-06 -0.000201398128
      -4.75517518e-05 -0.0070370785 -9.58388318e-06 -0.00284133037
      -0.000575281098 -0.00822672155 -0.00982911885 -0.00276525132
      -0.0174111892 0.160446912 -0.00347873941 0.119713053 0.2717233
      -8.27521726e-05 -0.00010093538 -0.000451353641 0.343476355
      0.254690409 -0.000196291396 0.399594218 -3.17420154e-06
      0.291130036 0.526375294 -0.000233128128 0.588540852 -0.00302136992
      0.123744428 -2.28520476e-05 -0.000174355184 -3.0732549e-06
      -2.71216572e-06 0.08014144 -2.3887791e-05 0.238423944
      -0.00119285786 -1.16403862e-06 0.00733473897 -4.02611568e-06
      -0.00398913445 0.802257895 -0.000211840044 0.541809857
      -0.0011207927 -0.00155344827 0.238622203 -4.03050617e-05
      -0.000467642472 -0.00160465448 0.199000597 0.500796258
      -0.000311994168 -0.00010444194 0.234821647 0.306312561
      -0.00277130213 -0.00423701573 -0.00395643059 0.170225203
      -0.00169459067 -1.46682814e-05 -0.00326796039 0.191491783
      -0.00364785362 -0.00222889544 -0.000124888189 -3.27893463e-06
      0.398565739 -2.41624377e-07 -4.06572127e-07 0.0213963091
      0.233067811 -1.48145455e-05 -1.86650796e-05 -0.000209128848
      -0.000421211938 0.316207409 -0.000150044871 -9.47018852e-05
      0.265824199 -1.93976739e-05 0.0112803765 -0.00014283201
      -3.95587558e-05 -1.60820018e-05 -4.23686179e-05 -3.43630454e-05
      -0.000247935241 0.00124746747 -0.000107743479 0.0841685236
      -0.000681186095 0.040582329 0.266433954 -1.60611978e-06
      -0.000119885517 -6.185507e-07 -0.000193865329 -4.4491997e-05
      0.309616804 0.564350903 -2.44564853e-05 -0.000187780926
      -9.12827527e-05 -4.20020915e-05 -0.000484193763 0.00321271084
      0.063416712 -0.00026849634 -0.000190267499 -2.94639285e-05
      -0.000238893888</_>
    <_>
      2.12151122 -4.20275116 -0.00604537362 4.69316387 -6.28193249e-08
      -0.000128466505 -0.0104357312 -0.000492344785 -0.00140968722
      -2.66861548e-06 -1.69576251e-05 -3.71335943e-07 -6.26945621e-05
      -0.000219600959 -0.000153068293 -0.0275377855 -0.00025869711
      -0.00278016436 2.692518 -0.000101611025 -0.00129351579
      -0.000660529069 -0.00449916162 -0.0109947771 -1.2569556e-05
      0.717609644 0.794326365 -8.29264809e-06 -4.46639933e-05
      -1.98935668e-05 0.427298009 -0.000153138768 -0.00945072528
      -0.000811671373 -8.59348074e-05 -0.000700078497 -0.000239507572
      -5.20531248e-05 0.638280272 -0.000261456706 -0.000130170127
      -0.000549845281 -0.00108804624 -0.000417250907 -0.00464770105
      -0.00182524405 -0.000477059395 3.62547612 3.35897422 1.28647172
      -0.0013731384 -0.00411562156 -2.53828443e-06 -0.00874610152
      -0.0319101103 -0.0149837602 2.29595923 -0.00270131789 1.17566454
      -0.0048946864 -0.000950080343 -0.000682920858 -0.000797064335
      0.4248586 -0.00776315667 -3.12911579e-05 -3.92833535e-05
      -2.16077751e-05 -0.00482104812 -0.0014481066 -0.000661570812
      0.340184271 -0.00156097987 -0.000104746134 -1.65272934e-06
      -0.000826028292 -1.82280237e-05 -0.00406924589 -0.0202008132
      -0.00157055794 -9.05988145e-06 -8.21177821e-07 -0.000365321292
      -0.00746865012 4.12683344 -0.000392110349 1.60716963
      -0.00824274123 -7.50614481e-06 -0.00909823831 -0.00264548929
      -0.000392576971 -0.00495770667 -0.00639882497 2.1279285
      -0.0161607973 -0.000978635624 3.36097765 -0.00647659088
      -0.00205085124 -6.40007202e-05 -0.00673103658 1.10828853
      -1.40673808e-06 -7.72346975e-05 -0.000941024395 1.03940666
      -0.000108394321 -3.2048596e-05 -0.000350391492 1.38457143
      -0.0014692113 -0.00725750439 -1.98969428e-05 -8.42480877e-05
      -0.00059761724 -5.28878957e-07 -3.37664346e-06 -0.000172879169
      -4.71819694e-05 -0.00647859136 -8.73617046e-06 -0.00345282606
      -0.000508326513 -0.0113876946 -0.00918546412 -0.00250850408
      -0.0153199071 -0.00275970623 -0.0029766222 0.168666512 0.282365203
      -8.40947032e-05 -0.000102580554 -0.000506944489 0.354646027
      0.309955835 -0.000196275854 0.379424483 -3.30557191e-06
      0.284395337 0.499734581 -0.000236877633 0.608447254 -0.00289832079
      0.103447035 -2.2637887e-05 -0.00018509751 -3.12745919e-06
      -2.69738143e-06 0.0758292675 -0.000260320638 0.254053056
      -0.000995716313 -1.14268539e-06 0.0492222384 -3.96898577e-06
      -0.00359010836 0.811664879 -0.000305354799 0.540472567
      -0.0011578335 -0.00159382029 0.228605866 -4.12183435e-05
      -0.000471828127 -0.00155421824 0.218692869 0.494483113
      -0.000316255755 0.00191301107 0.23060745 0.278386652
      -0.00266330107 -0.00432434864 -0.00397761073 0.140321553
      -0.00174549187 -1.43714342e-05 -0.00330823939 0.132871091
      -0.00371182663 -0.00221602316 -0.000129140783 -3.25217729e-06
      0.385545641 -2.4086205e-07 -3.96141758e-07 0.034134537 0.279938817
      -1.48118424e-05 -1.86623729e-05 -0.00020912505 -0.000421489065
      0.316323638 -0.000150035557 -9.46949294e-05 0.266038001
      -1.93951564e-05 0.0115053765 -0.000142825651 -3.95546485e-05
      -1.60799354e-05 -4.27773593e-05 -3.54620061e-05 -0.000247967866
      0.00158986822 -0.00010777056 0.0843935758 -0.000681715726
      0.0400127321 0.266577005 -1.60744139e-06 -0.000119877121
      -6.2941109e-07 -0.000193877873 -4.33747846e-05 0.31053555
      0.565166295 -2.4452791e-05 -0.000194869703 -9.12727846e-05
      -4.19980788e-05 -0.000484488526 0.00338364579 0.0635022372
      -0.000268584467 -0.000190263352 -2.94612037e-05 -0.000239752277</_>
    <_>
      2.23115921 -4.12984228 -0.00606626272 4.60206795 -6.21669116e-08
      -0.000125013248 -0.0102478284 -0.000486897508 -0.00149136956
      -2.11787028e-06 -1.61334501e-05 -3.65944572e-07 -5.5354878e-05
      -0.000200645998 -0.000148100444 -0.0266151354 -0.00367753441
      -0.00270400848 2.93619585 -9.42095357e-05 -0.00125488685
      -0.000654929841 -0.00453764061 -0.0113539267 -1.10292649e-05
      0.473647982 0.487208098 -7.56442705e-06 -3.95802708e-05
      -1.88627364e-05 0.764699578 -0.000154070411 -0.00996379834
      -0.000736472837 -8.29653436e-05 -0.000710742082 -0.000233153289
      -4.51812884e-05 0.738325238 -0.00024013214 -0.000126326006
      -0.000548049808 -0.00103684666 -0.000410705834 -0.00496156141
      -0.00171608687 -0.000461622811 3.97734499 3.26491427 1.08399081
      -0.00128047122 -0.00403570943 -2.16242165e-06 -0.00872035418
      -0.032422293 -0.0149814542 2.05930805 -0.00268690544 1.20501244
      -0.00495606707 -0.000858430751 -0.000722385768 -0.000779960537
      0.168872952 -0.00979469158 -3.12249576e-05 -3.68252331e-05
      -1.85959325e-05 -0.00477399444 -0.00141030725 -0.000641973282
      0.287641823 -0.00151127356 -0.00010434632 -1.72248349e-06
      -0.000769285543 -1.70328494e-05 -0.00686032698 -0.0186909605
      -0.00155065069 -8.54524205e-06 -7.08209768e-07 -0.000375945441
      -0.00751703139 4.06273937 -0.000390309753 1.55197597
      -0.00845013745 -7.54174425e-06 -0.00880917627 -0.00241001323
      -0.000382649217 -0.00499907369 -0.00618394883 1.57494116
      -0.0158256833 -0.000976548472 3.32378364 -0.00626292871
      -0.00200248021 -5.48915268e-05 -0.00646725623 0.770118415
      -1.20282732e-06 -7.49834144e-05 -0.000899122912 1.28774154
      -0.000101344143 -3.07383016e-05 -0.00034228919 1.42879546
      -0.00144521159 -0.00613596616 -1.91040817e-05 -8.12116559e-05
      -0.000556263491 -3.96068259e-07 -3.16292471e-06 -0.000162357566
      -4.63964861e-05 -0.00620912947 -8.55407779e-06 -0.00363652152
      -0.00044215942 -0.0133234737 -0.00893656071 -0.00242414698
      -0.0141487895 -0.00420419686 -0.0025803037 0.18769747 0.297563881
      -8.55326725e-05 -0.000105277803 -0.000786735676 0.36976856
      0.295496702 -0.000194605993 0.340652019 -3.49618722e-06
      0.297608256 0.481331438 -0.000238896115 0.639249802 -0.00316297542
      0.138258412 -2.22618128e-05 -0.000193978616 -3.2434466e-06
      -2.6444045e-06 0.0682895109 -0.000147471903 0.253947049
      -0.000672598893 -1.11778115e-06 0.110600129 -3.88989156e-06
      -0.00372975389 0.840719521 -0.00038709378 0.530689299
      -0.00121622207 -0.00149414933 0.226696804 -4.12415284e-05
      -0.0004746216 -0.0014751819 0.237412274 0.484054506
      -0.000324002118 -1.72159071e-05 0.229215488 0.253926486
      -0.00280291471 -0.00453422032 -0.00416214345 0.149919003
      -0.00176271377 -1.40892371e-05 -0.00336138415 0.122637995
      -0.00337379216 -0.00223072176 -0.000130589877 -3.22707183e-06
      0.408652335 -2.40287108e-07 -3.84414221e-07 0.0311300755
      0.33345142 -1.48140207e-05 -1.86645702e-05 -0.000209127509
      -0.000421267003 0.3162449 -0.000150043052 -9.47005537e-05
      0.2658723 -1.93971919e-05 0.0113160759 -0.000142830744
      -3.95579737e-05 -1.60816089e-05 -4.25967555e-05 -3.46722445e-05
      -0.000247940392 0.00128202885 -0.00010774871 0.0842056051
      -0.000681284699 0.0404975712 0.266473651 -1.6063982e-06
      -0.00011988388 -6.20932553e-07 -0.000193867047 -4.45068254e-05
      0.309770167 0.564504862 -2.44557814e-05 -0.000188948878
      -9.12808537e-05 -4.20013348e-05 -0.000484245713 0.00323990919
      0.0634346083 -0.000268512318 -0.000190266204 -2.94634046e-05
      -0.000239042449</_>
    <_>
      1.8574934 -5.22170687 -0.00607354706 5.28652763 -6.06891177e-08
      -0.00012614172 -0.0106324824 -0.000467846723 -0.00139333389
      -2.52548716e-06 -1.71103857e-05 -3.92537686e-07 -6.39556383e-05
      -0.000232376158 -0.000156682872 -0.0321674906 0.36941433
      -0.00279216724 2.8271296 -0.000100464742 -0.00135757669
      -0.000653525931 -0.00442965329 -0.0113575812 -1.26870937e-05
      1.05001545 1.17276001 -9.34829404e-06 -4.95981476e-05
      -1.97672598e-05 0.420356423 -0.000155985952 -0.0080745304
      -0.000840132765 -8.57422201e-05 -0.000701091252 -0.000249578152
      -5.20137401e-05 0.783597946 -0.000257355743 -0.00013420172
      -0.000531115918 -0.00106436166 -0.0004566118 -0.00434006564
      -0.00195086235 -0.000480557006 3.67017555 3.62135816 1.79190993
      -0.00136202225 -0.00432986766 -2.4937242e-06 -0.00881380122
      -0.032453917 -0.0155439377 2.98206449 -0.00268743187 1.24635541
      -0.00481153931 -0.000992142712 -0.00067201606 -0.000768605969
      0.694574177 -0.0045534214 -3.35751065e-05 -3.93590635e-05
      -2.14207175e-05 -0.00491909776 -0.00145237905 -0.000697171083
      0.226631343 -0.00160903076 -0.000103109349 -1.44865089e-06
      -0.000853293575 -1.89607235e-05 -0.00132713281 -0.0255147219
      -0.00155822909 -9.20081038e-06 -7.93580796e-07 -0.0003461249
      -0.00605913252 4.5437417 -0.000376823562 1.82736206 -0.00838845968
      -7.28275108e-06 -0.00963051338 -0.00327355578 -0.000388864195
      -0.00497063575 -0.00698382128 2.83753824 -0.0168647692
      -0.00101111538 3.65394115 -0.0067219818 -0.00207316293
      -6.26741166e-05 -0.00679448573 1.54547119 -1.49212326e-06
      -7.02804318e-05 -0.00101130293 0.771450698 -0.000106698986
      -3.43611428e-05 -0.000339317659 1.59100282 -0.00144646503
      -0.00933334511 -1.97866739e-05 -8.15529202e-05 -0.000592947938
      -6.09398739e-07 -3.49263223e-06 -0.000175580208 -4.83241856e-05
      -0.00680875266 -8.81292817e-06 -0.00319594075 -0.000526857271
      -0.00963830017 -0.00962100085 -0.00257514371 -0.0171217024
      -0.000304708024 -0.00347503019 0.189075127 0.271544397
      -8.44461611e-05 -0.000104927334 -0.000837665633 0.350980729
      0.314653158 -0.000196940149 0.352952212 -3.29722116e-06
      0.288436741 0.482985049 -0.000236846608 0.598002851 -0.00283624255
      0.115719885 -2.28375084e-05 -0.000188812803 -3.12961515e-06
      -2.6905509e-06 0.0809341818 -0.00033769678 0.246652722
      -0.000661248399 -1.13827889e-06 0.0519708395 -3.9661254e-06
      -0.00345906732 0.797657847 -0.000330381619 0.54198736
      -0.0011273697 -0.00153391587 0.240677834 -4.13416128e-05
      -0.000478411297 -0.00153358839 0.214246929 0.522907019
      -0.000316564809 0.0262964144 0.247403756 0.254378706
      -0.00251615909 -0.00423001125 -0.00407451997 0.123568393
      -0.00177370396 -1.44190408e-05 -0.00331435399 0.164892375
      -0.00373793719 -0.00219921512 -0.000130632994 -3.25513247e-06
      0.407976121 -2.42195568e-07 -3.93731824e-07 0.0154013708
      0.344131738 -1.48097861e-05 -1.86603102e-05 -0.000209122387
      -0.000421699253 0.316406727 -0.000150028485 -9.46896398e-05
      0.266198039 -1.9393241e-05 0.0116789639 -0.000142820834
      -3.95515126e-05 -1.6078362e-05 -4.30338077e-05 -3.62613791e-05
      -0.000247993099 0.00186106935 -0.000107791129 0.0845666602
      -0.000682120095 0.0395713821 0.266681433 -1.60843888e-06
      -0.000119870732 -6.37573521e-07 -0.000193887681 -4.24442042e-05
      0.311241716 0.565787017 -2.44499752e-05 -0.000200322334
      -9.12651958e-05 -4.19950229e-05 -0.000484714576 0.00351549499
      0.0635666326 -0.000268651842 -0.000190260369 -2.945913e-05
      -0.000240410445</_>
    <_>
      1.96482587 -5.05004835 -0.00606454955 5.28888559 -6.10256592e-08
      -0.000129438151 -0.0106756315 -0.000474067871 -0.00141961849
      -2.56635644e-06 -1.71395768e-05 -3.9263486e-07 -6.35282777e-05
      -0.000235508865 -0.000157387825 -0.0315009356 0.321125776
      -0.00281129335 2.82950377 -0.000102413615 -0.00138121122
      -0.000664196908 -0.00444205943 -0.0115984436 -1.27726171e-05
      0.996689141 1.12176931 -9.42394036e-06 -4.88970363e-05
      -2.00026461e-05 0.346755296 -0.000155934918 -0.00914293714
      -0.000837053114 -8.81250307e-05 -0.000708502892 -0.00025187945
      -5.21295515e-05 0.730108976 -0.000259792869 -0.000135683062
      -0.000545089541 -0.00107874686 -0.000466511381 -0.00423689745
      -0.00196180632 -0.000481756462 3.73694515 3.62999058 1.80350626
      -0.00137813028 -0.00435762014 -2.55913051e-06 -0.00882737525
      -0.0328985341 -0.0157026537 2.90980148 -0.00270959991 1.302405
      -0.00483165309 -0.00100798532 -0.000682519458 -0.000783011375
      0.652289033 -0.00535642682 -3.35033219e-05 -4.00577046e-05
      -2.1400514e-05 -0.00498195738 -0.00145537569 -0.000700502365
      0.234680563 -0.0016257721 -0.000103841667 -1.67367136e-06
      -0.000854078273 -1.90452429e-05 -0.0019288297 -0.0253331345
      -0.00156931637 -9.19018021e-06 -8.17579632e-07 -0.000354307092
      -0.0056538051 4.5507288 -0.000387259555 1.84646463 -0.00852985401
      -7.34056675e-06 -0.00971965492 -0.00334335817 -0.000393760332
      -0.00501823844 -0.00708473613 2.78304744 -0.0169704668
      -0.00101644627 3.65808821 -0.00677330047 -0.00207614154
      -6.33103118e-05 -0.0067660627 1.49867105 -1.51846473e-06
      -7.25536956e-05 -0.00103170564 0.748321533 -0.000109092944
      -3.48984613e-05 -0.000340669998 1.53469288 -0.00147039886
      -0.00966097694 -2.0088788e-05 -8.25975876e-05 -0.000605864567
      -6.24320137e-07 -3.54955955e-06 -0.00017559003 -4.85514902e-05
      -0.00678019132 -8.77801176e-06 -0.00320273265 -0.000524610688
      -0.0104052015 -0.00973842107 -0.00260193693 -0.0173613075
      -0.000872916251 -0.00361144915 0.190826446 0.263638616
      -8.50366778e-05 -0.000107112821 -0.000973733666 0.342894733
      0.322930872 -0.000196186287 0.334129006 -3.33440835e-06
      0.285870969 0.478227615 -0.000236368229 0.595072508 -0.0027440812
      0.129296556 -2.28806166e-05 -0.000189134997 -3.15566376e-06
      -2.68365693e-06 0.0924301445 -0.000358294434 0.245432407
      -0.000536341104 -1.13692317e-06 0.0605054945 -3.96405267e-06
      -0.00350077148 0.791424155 -0.000330152427 0.527760506
      -0.00114567683 -0.00139401003 0.252496839 -4.1398951e-05
      -0.00048109988 -0.00159389072 0.206553161 0.528571308
      -0.000316994323 0.036912255 0.247502595 0.261762023 -0.00243665627
      -0.00420291163 -0.00410444336 0.12602219 -0.00177296728
      -1.43887155e-05 -0.0033097486 0.180391192 -0.00378990755
      -0.00220865593 -0.000131015258 -3.25912606e-06 0.421957791
      -2.43756119e-07 -3.92661605e-07 0.00727005675 0.355776221
      -1.48097861e-05 -1.86603102e-05 -0.000209122387 -0.000421699253
      0.316406727 -0.000150028485 -9.46896398e-05 0.266198039
      -1.9393241e-05 0.0116789639 -0.000142820834 -3.95515126e-05
      -1.6078362e-05 -4.30338077e-05 -3.62613791e-05 -0.000247993099
      0.00186106935 -0.000107791129 0.0845666602 -0.000682120095
      0.0395713821 0.266681433 -1.60843888e-06 -0.000119870732
      -6.37573521e-07 -0.000193887681 -4.24442042e-05 0.311241716
      0.565787017 -2.44499752e-05 -0.000200322334 -9.12651958e-05
      -4.19950229e-05 -0.000484714576 0.00351549499 0.0635666326
      -0.000268651842 -0.000190260369 -2.945913e-05 -0.000240410445</_>
    <_>
      1.89846671 -4.85106611 -0.00580616482 5.38178444 -5.86394791e-08
      -0.000119560347 -0.0103872651 -0.000407159125 -0.00134381431
      -2.00379714e-06 -1.57966188e-05 -3.81694861e-07 -5.18034103e-05
      -0.000211846011 -0.000155763089 -0.0346295312 0.157786638
      -0.00261927093 2.60226893 -8.61585941e-05 -0.0012888317
      -0.000605383713 -0.00421389891 -0.0112652835 -1.08665026e-05
      1.04616356 0.854809284 -7.49776018e-06 -4.12090631e-05
      -1.84160799e-05 0.23591283 -0.000141957906 -0.0081227161
      -0.000834033417 -8.33887971e-05 -0.00064783683 -0.000249070727
      -4.62087883e-05 0.77703464 -0.000252248195 -0.000110047979
      -0.000512307917 -0.00100443885 -0.000459370814 -0.00526424451
      -0.00163714937 -0.000485643512 3.75432253 3.80951166 1.5609231
      -0.00125617313 -0.0042886408 -1.75844355e-06 -0.00842434447
      -0.0369424671 -0.0144300573 3.16547155 -0.00260873884 1.26834381
      -0.00473931851 -0.000929519592 -0.000696272589 -0.000668023073
      0.428519219 -0.00336509361 -3.25029578e-05 -3.54489202e-05
      -1.96954188e-05 -0.00458512967 -0.00145030476 -0.00066581904
      0.0725650787 -0.00146906183 -9.20941384e-05 -1.15769728e-06
      -0.000737503055 -1.7976894e-05 -0.00234087138 -0.0254992619
      -0.00144365605 -8.49778735e-06 -8.1982688e-07 -0.000318899518
      -0.0119701875 4.90626383 -0.00032417386 1.91548836 -0.00580270588
      -7.13728514e-06 -0.00909492932 -0.00168422423 -0.000366442633
      -0.00453494489 -0.00634157006 2.39774489 -0.0160492901
      -0.00108301395 3.81549549 -0.00625043688 -0.00190419098
      -5.79421067e-05 -0.00668505672 1.16980302 -1.30444118e-06
      -6.97495707e-05 -0.000921585539 0.862173915 -0.000102268605
      -3.21557091e-05 -0.00034140388 1.28424299 -0.00126855518
      -0.00803293753 -1.8195813e-05 -8.4499974e-05 -0.000556493411
      -4.31068798e-07 -3.22868846e-06 -0.000176794056 -4.41408738e-05
      -0.00653151749 -8.92375738e-06 -0.00277711824 -0.000490443897
      -0.00961212441 -0.00958275609 -0.00239401241 -0.0165193826
      0.0243423879 -0.00294645061 0.168318495 0.258601189
      -8.47127667e-05 -0.000107794811 -0.00134828279 0.313239336
      0.290975928 -0.000192028296 0.318573922 -3.31507817e-06
      0.252083361 0.439024895 -0.000230256483 0.578457475 -0.00280015334
      0.139840826 -2.32680395e-05 -0.000184934193 -3.13849273e-06
      -2.72658076e-06 0.108539879 -0.000501964998 0.217688024
      -0.000391069683 -1.17065042e-06 0.052570194 -4.07091375e-06
      -0.00363728963 0.767544329 -0.000402892445 0.496172786
      -0.00111420662 -0.00132902153 0.269004703 -4.12942245e-05
      -0.000472317624 -0.00144394452 0.173654988 0.512395561
      -0.000317355152 0.056125775 0.247455567 0.291791797 -0.0023129629
      -0.00387624395 -0.00389626576 0.123001993 -0.00174448185
      -1.46471029e-05 -0.00320667494 0.210938245 -0.00374455703
      -0.00210887031 -0.000126425002 -3.33519984e-06 0.437712371
      -2.48665799e-07 -4.06456167e-07 -2.4263858e-05 0.370519578
      -1.48115887e-05 -1.86620819e-05 -0.000209126025 -0.000421512494
      0.316302061 -0.000150034713 -9.46942382e-05 0.266043693
      -1.93949036e-05 0.0115438513 -0.000142825113 -3.95542265e-05
