<?xml version="1.0"?>
<opencv_storage>
<opencv_ml_svm>
  <format>3</format>
  <svmType>EPS_SVR</svmType>
  <kernel>
    <type>RBF</type>
    <gamma>0.01</gamma></kernel>
  <C>1.</C>
  <p>0.001</p>
  <term_criteria><epsilon>0.001</epsilon>
    <iterations>3000</iterations></term_criteria>
  <var_count>230</var_count>
  <sv_total>101</sv_total>
  <support_vectors>
    <_>
      0.52651757 -3.62936878 -0.00665477337 -0.0462108143
      -7.40576596e-08 -0.000145545244 -0.0121324705 -0.000534462684
      -0.00197611726 -3.43528404e-06 -1.6894337e-05 -3.00650669e-07
      -9.68636014e-05 -0.000345024542 -0.000169030027 7.54259253
      -4.25755979e-06 -0.00316036399 2.37274647 -0.000143587255
      -0.00124970532 -0.000730233092 -0.00505356584 -0.00319053466
      -1.29576783e-05 -0.00656401785 1.43893445 -7.93798699e-06
      -5.43028618e-05 -2.10528142e-05 -0.000424509082 -0.000199232265
      -0.0168728922 -0.00103071204 -9.89065375e-05 -0.000926639768
      -0.000221543523 -6.03626468e-05 -0.00790773891 -0.000220093978
      -0.00015935814 -0.000604581321 -0.00161802606 -0.000261476263
      -0.00161804713 -0.00209082058 -0.000489753904 4.1344738
      0.328301668 -0.0210747477 -0.00184142718 -0.000847704534
      -4.13565294e-06 -0.0107325073 3.92005253 -0.0204279255
      -0.0711562857 -0.0032930728 -0.00401783735 -0.00509204064
      -0.000979177887 -0.000562373432 -0.00105231011 1.64135289
      -0.0315793827 -3.64329644e-05 -4.22701851e-05 -2.59817007e-05
      -0.00478391675 -0.00153178256 -0.000718083815 5.09484196
      -0.00183489558 -0.000121731951 -3.61561274e-06 -0.000969842426
      -1.73207864e-05 -0.00441963645 5.02402306 -0.00194866909
      -1.06236521e-05 -4.01935921e-07 -0.000406268868 2.57272601
      -0.044377625 -0.000561979832 -0.00792041142 -0.0140539492
      -8.20382866e-06 -0.00712747546 -0.00691304309 -0.000468114391
      -0.00566829415 -0.00564919272 2.11264634 -0.0193410683
      -0.000787741446 -0.0158299077 -0.00624334021 -0.00230717403
      -5.42876951e-05 -0.00656877086 2.11868358 -1.34225684e-06
      -0.000104392289 -0.000894059543 5.73348188 -0.000113023147
      -3.2529013e-05 -0.000454233319 0.301814109 -0.00189333037
      0.37102744 -1.83730117e-05 -5.43527749e-05 -0.000652923132
      -7.65061884e-07 -2.67026303e-06 -0.000149097177 -5.26381518e-05
      -0.00723558152 -8.802911e-06 -0.00766527047 -0.000500304857
      -0.0136867343 -0.00981580373 -0.00264335796 -0.0203550495
      -0.0270917248 -0.00154696044 0.336767495 0.532691181
      -9.6824333e-05 -0.000108366701 0.085712716 0.235945493 0.459079087
      -0.000170620231 0.0194312707 -4.23825804e-06 0.307030737
      0.292223394 -0.000217323948 0.962184012 -0.00426083338 0.352642506
      -1.92791158e-05 -0.000264928851 -3.3995334e-06 -1.98097405e-06
      0.285719156 -0.000151401575 -0.00228501833 0.465193152
      -8.42088014e-07 0.482983857 -2.97380848e-06 -0.00327445148
      1.13103867 0.191019654 0.328116089 -0.00173908495 0.035659954
      0.557715118 -3.81281134e-05 -0.000508576282 0.171453282
      0.368713111 0.152636871 -0.000375460746 0.086562179 0.573426723
      0.298511982 -0.00250539696 -0.00476120319 -0.00266814744
      -0.00104884664 -0.0022522076 -1.16155861e-05 -0.00434300723
      0.113166831 -0.00363580044 -0.00264426041 -0.000147886109
      -2.483858e-06 0.639007747 -2.0965193e-07 -2.470249e-07 0.176703021
      1.41251075 -1.47512274e-05 -1.85980953e-05 -0.000209089441
      -0.000427184743 0.317225873 -0.000149819607 -9.45331049e-05
      0.269113123 -1.93377728e-05 0.0160162039 -0.00014267565
      -3.94621675e-05 -1.60319523e-05 -2.5338828e-05 -3.7846341e-05
      -0.000248777156 0.0106134955 -0.00010838551 0.088537097
      -0.000695044233 0.0284720436 0.268292844 -1.64002802e-06
      -0.000119682816 -8.58414523e-07 -0.000194150256 0.000425565988
      0.328114063 0.579972625 -2.43681461e-05 -0.000324055931
      -9.10401068e-05 -4.19059943e-05 -0.00049168535 0.00672377087
      0.064576149 -0.000270439923 -0.000190189108 -2.93999692e-05
      -0.000257942011</_>
    <_>
      0.530926049 -3.53336334 -0.00722901989 -0.0462658107
      -8.21493629e-08 -0.000146961858 -0.012882527 -0.000628803682
      -0.00205207849 -3.83606175e-06 -1.83718057e-05 -3.17820962e-07
      -0.000103083825 -0.000352327246 -0.000185120778 7.71704817
      -0.00314038084 -0.00345997745 2.50160909 -0.000157014554
      -0.00130570016 -0.000806262484 -0.00560914911 -0.00427281391
      -1.41767514e-05 -0.00948756654 1.25844204 -8.13961196e-06
      -5.63339272e-05 -2.24090527e-05 0.143793181 -0.000217410488
      -0.019427456 -0.00106865831 -0.000103409766 -0.000995065318
      -0.000218747198 -6.42566374e-05 -0.00825461932 -0.000245038624
      -0.000169870968 -0.000636927551 -0.00177034223 -0.000244544062
      -0.00235482887 -0.0023225348 -0.000536709325 4.27275658
      0.271023571 -0.023871908 -0.0020052928 -0.00099082815
      -4.59344074e-06 -0.011543504 3.72625303 -0.0208011102
      -0.0761885494 -0.00355611229 -0.00523837097 -0.00558861857
      -0.00103360484 -0.00065715611 -0.0011820019 1.52986574
      -0.0354714878 -3.50274422e-05 -4.55913541e-05 -2.58906348e-05
      -0.00526374625 -0.00161683536 -0.000711220608 5.32803631
      -0.00198552804 -0.000134370493 -4.29927468e-06 -0.00097643066
      -1.82548065e-05 -0.00784139521 5.18834543 -0.00215706206
      -1.09756993e-05 -4.2915093e-07 -0.000473322114 2.59896708
      -0.0435421802 -0.000636368291 -0.00909908768 -0.0140730962
      -9.10312701e-06 -0.00761998445 -0.00743658887 -0.00051517575
      -0.00622158032 -0.00579923484 1.69014144 -0.020301614
      -0.000813067367 -0.0160425361 -0.00686206482 -0.00245214882
      -5.94550183e-05 -0.00733387517 1.9016006 -1.3412382e-06
      -0.0001171439 -0.000889724935 5.93121862 -0.000122182595
      -3.29514987e-05 -0.00048253659 0.184724063 -0.00211967225
      0.437213212 -2.00940103e-05 -5.98880106e-05 -0.000707688916
      -7.92428807e-07 -2.85340798e-06 -0.000152290755 -5.80964079e-05
      -0.00752925547 -9.42144015e-06 -0.00835650042 -0.000521425391
      -0.0166078974 -0.00985937659 -0.00287073595 -0.0191538967
      -0.0292602833 -0.00138581195 0.299322516 0.520801067
      -9.81639387e-05 -0.000108562686 0.0682913214 0.22458221
      0.428279221 -0.000171973923 0.0421165302 -4.47047887e-06
      0.332446605 0.322678715 -0.000216882734 0.966204107 -0.00460160431
      0.405431539 -1.8774248e-05 -0.000266318384 -3.56265286e-06
      -1.97298937e-06 0.247654408 0.0163087137 -0.00180333701
      0.449881941 -8.18940862e-07 0.53379339 -2.88336764e-06
      -0.00363762723 1.16454983 0.215526164 0.334231257 -0.00179968064
      0.0424786657 0.56203723 -4.00731806e-05 -0.000513180916
      0.152893007 0.37657699 0.147409379 -0.000378164055 0.0267479196
      0.555932522 0.257998288 -0.00308084628 -0.00533992937
      -0.00256309588 -0.000910098082 -0.00224477402 -1.11990594e-05
      -0.00438841712 0.0682558343 -0.0035318078 -0.00270975637
      -0.000148575156 -2.49325649e-06 0.664348125 -2.0852589e-07
      -2.37030321e-07 0.159999147 1.32616448 -1.47504134e-05
      -1.85972767e-05 -0.000209088059 -0.000427267107 0.317275643
      -0.000149816828 -9.45310094e-05 0.269174933 -1.93370197e-05
      0.0160619095 -0.000142673714 -3.9460956e-05 -1.60313321e-05
      -2.55332889e-05 -3.81743157e-05 -0.00024878679 0.0106640179
      -0.000108392298 0.0885824114 -0.000695205759 0.028365843
      0.268346369 -1.64048015e-06 -0.000119680291 -8.62100819e-07
      -0.000194153283 0.00043193996 0.328311265 0.580177009
      -2.43670438e-05 -0.000325491797 -9.10371527e-05 -4.19048083e-05
      -0.00049176981 0.00675837137 0.0645963997 -0.000270464487
      -0.00019018758 -2.93991598e-05 -0.000258141576</_>
    <_>
      0.50686878 -3.66915965 -0.0062379567 -0.0432167239 -7.01192775e-08
      -0.000122932324 -0.0115264747 -0.000469068473 -0.00184468634
      -2.96000439e-06 -1.54114623e-05 -2.9466122e-07 -8.89099028e-05
      -0.000316345773 -0.000165541409 7.31513882 0.226642355
      -0.00291277771 1.84233022 -0.000130773478 -0.00113659236
      -0.000672091614 -0.0047038272 -0.00215843436 -1.1749933e-05
      -0.00324766897 1.63361812 -7.68551035e-06 -5.05626995e-05
      -1.93008636e-05 -0.000344271975 -0.000187343205 -0.0141785825
      -0.000999595621 -8.95321136e-05 -0.000847361225 -0.000218754067
      -5.64308248e-05 -0.0061639878 -0.000202856463 -0.00014041258
      -0.000540691253 -0.00149541406 -0.000286467432 -0.00197037472
      -0.00191573764 -0.000493942178 3.55045748 0.404796004 -0.018026609
      -0.00166765309 -0.000686742365 -3.57672798e-06 -0.0101917023
      3.96349239 -0.0195104331 -0.0665744618 -0.00311766472
      -0.0026357423 -0.00477036089 -0.000900493644 -0.00051702949
      -0.000942100713 1.71856952 -0.0271836966 -3.54841941e-05
      -3.70297421e-05 -2.43934865e-05 -0.00457590632 -0.00148549781
      -0.000682223355 4.86467886 -0.00170096778 -0.000109631233
      -3.06513334e-06 -0.00091244682 -1.75006353e-05 -0.00200621039
      4.90007591 -0.00179569237 -1.03422271e-05 -3.47762949e-07
      -0.000356567674 2.55962682 -0.0419565812 -0.000529849844
      -0.00610695826 -0.0135088162 -7.61068077e-06 -0.00670081936
      -0.00658542011 -0.000429715583 -0.00516605796 -0.00526183471
      2.43399906 -0.0186540298 -0.000759353221 -0.0145225869
      -0.00582589628 -0.00212120148 -4.82507749e-05 -0.00644843606
      2.23242068 -1.14428985e-06 -9.78280368e-05 -0.000847557327
      5.4233427 -0.000102866987 -3.08945127e-05 -0.000435710564
      0.352362782 -0.00172448705 0.258854151 -1.710783e-05
      -4.89623308e-05 -0.000575921615 -6.96956818e-07 -2.47076355e-06
      -0.000136739734 -4.82198484e-05 -0.00693674805 -8.38324286e-06
      -0.00731239561 -0.000457860267 -0.0103675229 -0.00910192169
      -0.00240698177 -0.0196251366 -0.0240973011 -0.00117940665
      0.282016873 0.54725194 -9.88982283e-05 -0.000108880493
      0.0438600667 0.23849839 0.426237226 -0.000168834697 0.035636805
      -4.62036678e-06 0.301095724 0.316477835 -0.0002178055 0.930687368
      -0.00495187612 0.410385787 -1.86056459e-05 -0.000269096781
      -3.63997992e-06 -1.93061965e-06 0.234809518 0.00899608806
      -0.00141263753 0.394364417 -8.13365887e-07 0.530505538
      -2.87056741e-06 -0.00385250151 1.18835318 0.19622454 0.308013827
      -0.00179272098 0.00681091845 0.510351479 -4.05177452e-05
      -0.00051393453 0.121039622 0.345206499 0.170257673 -0.000390954316
      0.0176126286 0.57864058 0.262389898 -0.0032958677 -0.00528433593
      -0.0026885136 -0.000780813512 -0.00222353893 -1.10090359e-05
      -0.00439363625 0.00967784971 -0.00335162878 -0.00264432956
      -0.000147555562 -2.51193546e-06 0.687729001 -2.09165549e-07
      -2.33839955e-07 0.155822501 1.248559 -1.47562305e-05
      -1.86036887e-05 -0.000209086938 -0.00042675226 0.317320645
      -0.000149837928 -9.45469146e-05 0.268992096 -1.93426022e-05
      0.0156377293 -0.000142688485 -3.94698836e-05 -1.6036056e-05
      -2.90685894e-05 -3.94167728e-05 -0.000248701312 0.00964855962
      -0.000108332461 0.0882183015 -0.000693835202 0.0294684321
      0.268294096 -1.63724087e-06 -0.000119699245 -8.41594272e-07
      -0.000194125532 -2.13008366e-06 0.326730698 0.578939915
      -2.43753093e-05 -0.000314245583 -9.10601011e-05 -4.19138232e-05
      -0.000491031038 0.00645026378 0.064543739 -0.000270289922
      -0.000190192193 -2.94050642e-05 -0.000256408966</_>
    <_>
      0.792806804 -3.92973042 -0.00622670259 -0.0483184233
      -7.14692732e-08 -0.000123449921 -0.0117155481 -0.000489991275
      -0.00187486515 -3.33499156e-06 -1.63859931e-05 -3.00793346e-07
      -9.10031376e-05 -0.000327547605 -0.000154560752 7.83834696
      0.00489261746 -0.00298773637 2.09297943 -0.000127101826
      -0.00119368371 -0.000664739171 -0.00481056003 -0.00206351536
      -1.25735496e-05 -0.00534577062 1.51818383 -7.25286782e-06
      -5.34040009e-05 -1.99198457e-05 -0.000559536566 -0.000188164238
      -0.0145399459 -0.000976478041 -8.75388068e-05 -0.000862883287
      -0.000224102216 -5.92624565e-05 -0.00682547502 -0.000209098682
      -0.000144116319 -0.000530371675 -0.00149506866 -0.000274264428
      -0.00229428452 -0.00200423226 -0.000518108194 3.95341873
      0.190687791 -0.0181297194 -0.00167919486 -0.000465831108
      -3.77520246e-06 -0.0105313994 4.29166746 -0.0194760244
      -0.0696080625 -0.00311690173 -0.00467227679 -0.00482702907
      -0.000980578479 -0.00050698698 -0.000985813444 1.67156482
      -0.030170491 -3.5601257e-05 -3.77232464e-05 -2.62102894e-05
      -0.00462864619 -0.00147705106 -0.000705483777 5.26682281
      -0.00176191516 -0.000111105292 -2.61578043e-06 -0.000914689677
      -1.85918943e-05 -0.00364643242 5.34826469 -0.00185675011
      -1.09930779e-05 -3.93131415e-07 -0.000361763552 2.89206362
      -0.0470328517 -0.000536541396 -0.00753932633 -0.0152249914
      -7.59017576e-06 -0.00697741564 -0.00690156082 -0.000428279658
      -0.00528037082 -0.00547867501 2.198385 -0.0189222265
      -0.000781594252 -0.01703614 -0.00602334784 -0.0021361222
      -5.20763424e-05 -0.00679108733 2.10975409 -1.24014332e-06
      -0.000100426179 -0.000845001021 5.90928078 -0.000105114996
      -3.19022947e-05 -0.000434563262 0.23863405 -0.00176983303
      0.218604505 -1.74912257e-05 -4.94735214e-05 -0.000534009072
      -6.76768821e-07 -2.52439645e-06 -0.000134364542 -4.84735974e-05
      -0.00689751469 -8.45565864e-06 -0.00773820141 -0.0004440927
      -0.0118698115 -0.0097014308 -0.00234574312 -0.0195880104
      -0.0268487278 -0.000928387162 0.321924746 0.527529061
      -9.90557019e-05 -0.000106579791 0.0904628411 0.156707004
      0.44751364 -0.000167481485 0.0261718556 -4.53168877e-06
      0.294979304 0.300144702 -0.000216924149 0.947897792 -0.00500797015
      0.418122411 -1.87902515e-05 -0.000270694087 -3.52685106e-06
      -1.89963419e-06 0.28642264 -0.000372021139 -0.00272761495
      0.497173131 -8.05028435e-07 0.542640805 -2.84571479e-06
      -0.00341574731 1.18860316 0.181383848 0.26034078 -0.00161459297
      0.0440803319 0.528365791 -3.97893164e-05 -0.000512686674
      0.134785682 0.308747441 0.125228792 -0.000387985259 0.0275375843
      0.595341384 0.358357579 -0.00284806127 -0.00500434451
      -0.00222857017 -0.0010263361 -0.00225763652 -1.11569625e-05
      -0.00444297865 0.109422468 -0.00406222278 -0.00273370254
      -0.000148709863 -2.46865238e-06 0.659192681 -2.05718607e-07
      -2.29113965e-07 0.182788491 1.39496708 -1.47576666e-05
      -1.86052985e-05 -0.000209086138 -0.000426628569 0.317350477
      -0.00014984321 -9.45508946e-05 0.268958867 -1.93439901e-05
      0.0155282281 -0.000142692181 -3.94720992e-05 -1.60372365e-05
      -3.01697837e-05 -3.98891425e-05 -0.000248679426 0.00936698541
      -0.000108317152 0.0881262422 -0.000693487062 0.0297573507
      0.26829654 -1.63644199e-06 -0.000119703967 -8.36808454e-07
      -0.000194118373 -4.00267527e-06 0.326331586 0.578644395
      -2.43773684e-05 -0.000311414973 -9.10658491e-05 -4.19160679e-05
      -0.000490842329 0.00637116469 0.0645349026 -0.000270246848
      -0.000190193037 -2.94065267e-05 -0.000255966414</_>
    <_>
      0.64865607 -3.89950037 -0.00679681031 -0.0436249785 -7.8965833e-08
      -0.000137680545 -0.0122968908 -0.000572084798 -0.0019769799
      -3.15822354e-06 -1.68513961e-05 -3.05512202e-07 -9.28366353e-05
      -0.000324637513 -0.000175566282 7.41070127 -0.00164233998
      -0.00324624078 2.27143359 -0.000143767596 -0.00121396245
      -0.000755734742 -0.00527877361 -0.0042302059 -1.25765037e-05
      -0.00722244848 1.32557631 -8.30100271e-06 -5.13474806e-05
      -2.15647578e-05 0.329891145 -0.000211011444 -0.0171523709
      -0.00100436481 -9.71961199e-05 -0.000920543273 -0.000218114568
      -5.8120655e-05 -0.0056800968 -0.000227039098 -0.000155705056
      -0.000646959874 -0.00160915428 -0.000285181508 -0.00303656771
      -0.00223380304 -0.000516784261 3.98276806 0.302624583
      -0.0200650897 -0.00181588053 -0.00122390164 -4.34557705e-06
      -0.0110042887 3.81954718 -0.0206965748 -0.0696534067
      -0.00334150996 -0.00198458345 -0.00530672539 -0.000941828592
      -0.0006606112 -0.0010906636 1.49936581 -0.0316717997
      -3.70782836e-05 -4.34147223e-05 -2.40024438e-05 -0.00507213781
      -0.00153009465 -0.000730552536 5.01766396 -0.00182849984
      -0.000122930287 -4.23412894e-06 -0.00096555904 -1.84130695e-05
      -0.00536609441 5.07516718 -0.00202181819 -1.05733234e-05
      -3.96097676e-07 -0.000436736736 2.55083537 -0.0415243246
      -0.000621656829 -0.00788188074 -0.0132955844 -8.38865344e-06
      -0.00742210541 -0.00702810381 -0.000479587761 -0.0059302235
      -0.00579918688 1.95383739 -0.0199232046 -0.000793265994
      -0.0142672975 -0.00646634027 -0.00229881564 -5.18340385e-05
      -0.00708901696 1.99115479 -1.19767992e-06 -0.000111660986
      -0.000904866902 5.79084873 -0.000110424618 -3.27681701e-05
      -0.000460792653 0.53161633 -0.00199105521 0.42410776
      -1.97378868e-05 -5.85865528e-05 -0.000612695934 -7.77642128e-07
      -2.67339578e-06 -0.000140888791 -5.44796931e-05 -0.00723356241
      -8.710972e-06 -0.00802934729 -0.000447900849 -0.0151594924
      -0.0092559075 -0.00265291333 -0.0194385424 -0.0269465055
      -0.00154548744 0.296233058 0.560995817 -9.90499902e-05
      -0.000105582287 0.0698896423 0.209753156 0.437911928
      -0.000164926998 0.000278390944 -4.61797163e-06 0.297979474
      0.29816559 -0.00021557619 0.915220439 -0.00508571509 0.410836309
      -1.87889491e-05 -0.000271780038 -3.58725356e-06 -1.9284671e-06
      0.269288003 -0.000348457193 -0.00180805381 0.427922636
      -8.1807832e-07 0.528522074 -2.89137233e-06 -0.00361356558
      1.18607092 0.184020013 0.248520777 -0.00171381817 0.021331206
      0.488680393 -3.99127493e-05 -0.000506526208 0.134997278
      0.326595306 0.149699926 -0.000393349619 0.033268258 0.609440446
      0.305786103 -0.00312645687 -0.00485331612 -0.00218683924
      -0.000828332442 -0.00222507748 -1.10633528e-05 -0.00438577402
      0.0166197941 -0.00352358329 -0.00261317613 -0.000146478647
      -2.50801259e-06 0.6752913 -2.05807083e-07 -2.34561583e-07
      0.179325193 1.30384696 -1.47598812e-05 -1.86077086e-05
      -0.000209086371 -0.000426428043 0.317343771 -0.00014985117
      -9.455689e-05 0.268873811 -1.93461019e-05 0.0153724141
      -0.000142697769 -3.94754861e-05 -1.60390173e-05 -3.12236698e-05
      -4.0149167e-05 -0.000248647848 0.00901906751 -0.000108295026
      0.0879899263 -0.000692977745 0.0301569626 0.268257022
      -1.63520826e-06 -0.000119711141 -8.28647728e-07 -0.000194108172
      -6.10314282e-06 0.325739592 0.578159809 -2.43804916e-05
      -0.00030718901 -9.10744784e-05 -4.19194694e-05 -0.000490568927
      0.00625738688 0.064509362 -0.000270180288 -0.000190195176
      -2.94087677e-05 -0.000255324529</_>
    <_>
      0.783203065 -4.00669384 -0.00627051946 -0.0509909391
      -6.90652797e-08 -0.000140651289 -0.0120535707 -0.000477173395
      -0.00193203264 -3.43377519e-06 -1.66021946e-05 -3.03174971e-07
      -9.65724466e-05 -0.000344904838 -0.000164854529 8.10187149
      0.320224941 -0.0029537736 1.73981392 -0.00013245584 -0.0011954254
      -0.000680359895 -0.0047663697 -0.00179355557 -1.28510464e-05
      -0.00382014294 1.79753172 -7.86703913e-06 -5.36107218e-05
      -2.02779465e-05 -0.00350515498 -0.000192007472 -0.0155571979
      -0.00104287977 -9.33469055e-05 -0.000882014749 -0.000230296064
      -6.17720798e-05 -0.00695999479 -0.000215622684 -0.000143782469
      -0.000558130792 -0.00154464587 -0.00028596702 -0.00216878718
      -0.00199705828 -0.000495569198 3.74179697 0.125084847
      -0.0196964126 -0.00175478426 -3.95107527e-05 -3.75666013e-06
      -0.0105122197 4.50534296 -0.0205089152 -0.0711537525
      -0.00321055017 -0.00392463803 -0.00485993596 -0.00100880174
      -0.000490187493 -0.0009741268 1.90016198 -0.0287211128
      -3.6274072e-05 -3.79401718e-05 -2.70903147e-05 -0.00461674016
      -0.00153630401 -0.000705837563 5.36844635 -0.00177858153
      -0.000110432702 -2.84130442e-06 -0.000906892295 -1.84350502e-05
      -0.00125987828 5.46338367 -0.0018474122 -1.12325579e-05
      -4.17810867e-07 -0.000349640613 2.81028509 -0.0491089672
      -0.000547264761 -0.0082952762 -0.0131510422 -7.58601391e-06
      -0.00709777931 -0.00683968747 -0.000445404876 -0.00529927434
      -0.00569560286 2.64690089 -0.0196405221 -0.000786363787
      -0.0185082443 -0.00605285028 -0.00215523248 -5.44804789e-05
      -0.00715469476 2.42434001 -1.36383676e-06 -0.000102231024
      -0.000882980356 5.83916473 -0.000108946486 -3.12925768e-05
      -0.000458384951 0.161970019 -0.00179428735 0.226781398
      -1.73920653e-05 -5.07177174e-05 -0.000558720378 -7.30531099e-07
      -2.5454558e-06 -0.000142210032 -4.81894131e-05 -0.00719817122
      -8.65570019e-06 -0.00767508242 -0.00048880087 -0.0106434105
      -0.0100580426 -0.00251381262 -0.0201715063 -0.0262242239
      -0.00134071452 0.303553075 0.559159398 -9.89706823e-05
      -0.000107463165 0.077119194 0.194905967 0.439718664
      -0.000166219732 0.0140877292 -4.51948381e-06 0.305346906
      0.261675626 -0.000215451306 0.948462963 -0.00500354869 0.407627046
      -1.87253918e-05 -0.000273361336 -3.54133795e-06 -1.89820355e-06
      0.280037373 -0.000203814765 -0.00209929585 0.523760617
      -8.13697909e-07 0.564538956 -2.85682313e-06 -0.00339065306
      1.17339385 0.225309461 0.258158445 -0.00172869861 0.0491416901
      0.579221249 -3.97381591e-05 -0.000508055557 0.160334557
      0.330942959 0.123554572 -0.000390233385 0.0393463895 0.610204816
      0.284232706 -0.00292084692 -0.00515425811 -0.00213963515
      -0.000769259932 -0.00228341273 -1.11970467e-05 -0.00441492023
      0.0279361233 -0.00359271583 -0.00269507035 -0.000146200342
      -2.46186846e-06 0.69801563 -2.08441435e-07 -2.31321238e-07
      0.158838138 1.39454484 -1.47623232e-05 -1.86104608e-05
      -0.000209084712 -0.00042621998 0.317405999 -0.000149860163
      -9.45636712e-05 0.268825054 -1.93484684e-05 0.0151838399
      -0.00014270407 -3.94792623e-05 -1.60410327e-05 -3.32392738e-05
      -4.10578396e-05 -0.000248610188 0.0085221529 -0.000108268687
      0.0878327191 -0.000692379312 0.030656904 0.268270731
      -1.63384823e-06 -0.000119719189 -8.20675041e-07 -0.000194095846
      -9.45743159e-06 0.325057656 0.577664733 -2.43840041e-05
      -0.000302361907 -9.10843082e-05 -4.19233074e-05 -0.000490244303
      0.00612149574 0.0644971803 -0.00027010715 -0.000190196428
      -2.94112579e-05 -0.000254564249</_>
    <_>
      0.548684537 -3.45600438 -0.00602056552 -0.0483560823
      -6.88513424e-08 -0.000137877403 -0.011383648 -0.000497992034
      -0.00193227374 -3.57598265e-06 -1.65576585e-05 -2.9105459e-07
      -9.50658286e-05 -0.000347439869 -0.000157084811 7.5709939
      0.406029522 -0.00293662352 1.87850106 -0.000136230767
      -0.00121981709 -0.000677679607 -0.00470597576 -0.00263333088
      -1.31851302e-05 -0.00271391775 1.87907314 -8.06396474e-06
      -5.25536161e-05 -2.07664743e-05 -0.0014208965 -0.000183663869
      -0.0136525333 -0.000946269254 -9.36474462e-05 -0.000877307088
      -0.000212949264 -6.17592377e-05 -0.00646720268 -0.000220980772
      -0.000141327953 -0.00055369793 -0.00146700046 -0.000254366663
      -0.00286328257 -0.00208699633 -0.000488288933 3.73677731
      0.289462686 -0.0182759985 -0.0017157034 -0.000505966891
      -4.07340076e-06 -0.0100852465 4.06951475 -0.0201816596
      -0.0709235817 -0.00301443599 -0.00509262271 -0.00469286973
      -0.000945136475 -0.000529495941 -0.000979820965 1.88494205
      -0.0270817131 -3.45267072e-05 -3.9054994e-05 -2.74519225e-05
      -0.00439734664 -0.0014718133 -0.000689032138 5.05154896
      -0.00171923509 -0.000110920701 -3.11594977e-06 -0.000884379435
      -1.80224288e-05 -0.000693311798 5.36085224 -0.00180726312
      -1.10388191e-05 -4.40647113e-07 -0.000362960738 2.7272923
      -0.0452442914 -0.000575518236 -0.008044797 -0.0142990779
      -7.48321509e-06 -0.00691543566 -0.0064301067 -0.000436090864
      -0.00530073931 -0.0056802039 2.71080065 -0.0188298151
      -0.000793067855 -0.015853703 -0.00588159962 -0.00209851284
      -5.69542026e-05 -0.0067105256 2.470474 -1.44071407e-06
      -0.000100528858 -0.000873474404 5.53409719 -0.000107291205
      -3.12603333e-05 -0.000433836685 -0.000200272276 -0.00177922496
      0.255455881 -1.81109008e-05 -5.2350726e-05 -0.000529906654
      -7.20301671e-07 -2.57524675e-06 -0.00014110381 -4.77415597e-05
      -0.00700066378 -8.06009302e-06 -0.00732520083 -0.00047147015
      -0.00968369283 -0.00947415829 -0.00252986606 -0.0192039739
      -0.0235528778 -0.00141169236 0.267351955 0.551430047
      -9.79099932e-05 -0.000105237996 0.0898477808 0.235609159
      0.432206511 -0.000164213416 0.00353655964 -4.49481604e-06
      0.29116255 0.124588132 -0.000216056229 0.923506677 -0.00467452826
      0.393782705 -1.90576156e-05 -0.000267500611 -3.51912968e-06
      -1.96937935e-06 0.310672373 0.0473612882 -0.00278572296
      0.482124984 -8.66015284e-07 0.591237366 -2.99127237e-06
      -0.00311496062 1.10214972 0.186389416 0.251377702 -0.00164477155
      0.0476368219 0.519229412 -3.91771209e-05 -0.000493580068
      0.172081172 0.313550234 0.133341894 -0.000390910282 0.0483196303
      0.617016792 0.310033321 -0.00262809219 -0.00550787244
      -0.00200718641 0.00161027908 -0.0022006291 -1.1558197e-05
      -0.00421846565 -2.97427923e-05 -0.00333557604 -0.00256698579
      -0.000142538775 -2.49464006e-06 0.698776126 -2.14203482e-07
      -2.52519158e-07 0.179026678 1.29948342 -1.47761166e-05
      -1.86254729e-05 -0.000209085803 -0.000424973667 0.317374617
      -0.000149909829 -9.46010696e-05 0.2683025 -1.93616306e-05
      0.014211949 -0.000142738805 -3.95003408e-05 -1.60521304e-05
      -3.99287019e-05 -4.27717714e-05 -0.000248413155 0.00634010881
      -0.000108130705 0.0869836062 -0.000689203152 0.0331521109
      0.268033028 -1.62616732e-06 -0.000119763834 -7.70030852e-07
      -0.000194032211 -2.26861612e-05 0.321370006 0.574655175
      -2.44034636e-05 -0.000276045263 -9.11381067e-05 -4.1944495e-05
      -0.000488538702 0.00541211851 0.0643407702 -0.000269692944
      -0.000190209539 -2.94252204e-05 -0.000250562065</_>
    <_>
      0.421764433 -3.27316904 -0.00676263543 -0.0481503382
      -7.53557785e-08 -0.000131936569 -0.0124270748 -0.000580330438
      -0.00198459229 -3.93896835e-06 -1.75183341e-05 -3.16932528e-07
      -9.97973475e-05 -0.000343461114 -0.000183943586 7.65050173
      0.0984751731 -0.00319773611 1.97685242 -0.000148939347
      -0.0012578509 -0.000755698944 -0.00516096456 -0.00329866842
      -1.39737931e-05 -0.00566930929 1.59556353 -7.72055319e-06
      -5.27981429e-05 -2.07964349e-05 -0.0024020127 -0.00019889095
      -0.0155969569 -0.00111662154 -0.000101476413 -0.000931461575
      -0.00021651556 -6.52166127e-05 -0.00825320929 -0.000242445167
      -0.000143490615 -0.000568126736 -0.00173508271 -0.000240935478
      -0.00253255782 -0.00205405708 -0.00052955671 3.85249615
      0.239795029 -0.0203072391 -0.00193337328 -0.000837991829
      -4.34554704e-06 -0.0107429326 3.74972701 -0.0199660901
      -0.0742550865 -0.00342179579 -0.00480471971 -0.00528708566
      -0.000952195784 -0.000551476493 -0.00106757472 1.69739437
      -0.0308094248 -3.55950506e-05 -4.10639259e-05 -2.67078321e-05
      -0.00498978654 -0.00162281643 -0.000696228701 5.10382509
      -0.00190822419 -0.000120953446 -3.51948825e-06 -0.000950513233
      -1.9672043e-05 -0.00304212444 5.19775867 -0.00195718999
      -1.09662924e-05 -4.55500441e-07 -0.000403606507 2.72227573
      -0.0439948514 -0.000584756199 -0.00888623856 -0.0146681266
      -8.62040361e-06 -0.00733959163 -0.00670499681 -0.000484643417
      -0.00552101713 -0.00552572729 2.30763793 -0.01992484
      -0.000793010055 -0.0159740858 -0.00646008551 -0.00228529749
      -6.24406966e-05 -0.00706656557 2.21603608 -1.35405878e-06
      -0.000117600866 -0.000882252934 5.57306433 -0.000121069839
      -3.20823747e-05 -0.00049006776 -0.000634698023 -0.00191141583
      0.264813393 -1.93475244e-05 -5.43727001e-05 -0.000718226715
      -7.7262257e-07 -2.787933e-06 -0.00014970146 -5.20082831e-05
      -0.00744761573 -9.18626574e-06 -0.00766679272 -0.00056066562
      -0.0122610005 -0.00936254673 -0.00269075576 -0.0194731317
      -0.0255765151 -0.00116308057 0.28626433 0.534981072
      -9.84619546e-05 -0.00010581252 0.0752386153 0.211554885
      0.419567466 -0.000164372948 0.032059364 -4.54823703e-06
      0.291194856 0.150538996 -0.000212161569 0.917376935 -0.00463911984
      0.421428651 -1.90865812e-05 -0.000265064824 -3.5103044e-06
      -1.99058559e-06 0.285800934 0.0292695351 -0.00290301116
      0.520628095 -8.67816027e-07 0.615850389 -3.00124225e-06
      -0.00310726813 1.11960471 0.175974637 0.240650147 -0.00153574953
      0.0623099953 0.548203647 -3.98721349e-05 -0.000492380292
      0.16010341 0.300565928 0.0994761288 -0.000382539321 0.0512939394
      0.588427246 0.32672736 -0.00264608813 -0.00530802831
      -0.00184367807 -0.000152729452 -0.00219093356 -1.15171433e-05
      -0.00421601487 0.025802277 -0.00357997115 -0.00261391094
      -0.000142561592 -2.52494533e-06 0.687562346 -2.15358298e-07
      -2.53304279e-07 0.17710638 1.32143009 -1.47779792e-05
      -1.8627492e-05 -0.000209086051 -0.00042480405 0.317365795
      -0.000149916523 -9.46061118e-05 0.268227458 -1.9363406e-05
      0.0140794739 -0.000142743476 -3.95031857e-05 -1.60536256e-05
      -4.07619773e-05 -4.29478278e-05 -0.000248386699 0.00604968704
      -0.000108112254 0.0868668109 -0.000688778295 0.0334914848
      0.267996788 -1.62513663e-06 -0.000119769829 -7.63147796e-07
      -0.000194023552 -2.44044131e-05 0.320865303 0.574240088
      -2.44060884e-05 -0.000272422651 -9.11453462e-05 -4.19473508e-05
      -0.000488310063 0.0053151641 0.0643175244 -0.000269636686
      -0.0001902113 -2.94271067e-05 -0.000250019191</_>
    <_>
      0.673427045 -3.90351176 -0.00662015891 -0.0499328226
      -7.06951369e-08 -0.000151157874 -0.0124724265 -0.000544765149
      -0.00197863998 -3.6948054e-06 -1.71834399e-05 -3.06895259e-07
      -0.000102460333 -0.000344405242 -0.000182943229 8.12420464
      0.306826681 -0.00311318948 1.65134704 -0.000146792168
      -0.00118355418 -0.000740986725 -0.00502611045 -0.00290145096
      -1.36408125e-05 -0.00468383264 1.76964474 -8.20044261e-06
      -5.46918018e-05 -2.08358415e-05 -0.00347590866 -0.000208583675
      -0.0165246725 -0.00111861073 -9.81550256e-05 -0.000892694341
      -0.000214498039 -6.48360219e-05 -0.00655705808 -0.000234335021
      -0.000146416613 -0.000597792794 -0.00166931329 -0.000261603825
      -0.00227713748 -0.00208400516 -0.000506733137 3.51250887
      0.0645977929 -0.0209877864 -0.00189882948 -0.00051715062
      -4.37082417e-06 -0.0107191429 4.22081518 -0.0208956786
      -0.0744540021 -0.0033841019 -0.00317698391 -0.00516836857
      -0.00101948576 -0.000554085243 -0.00103258097 1.88097787
      -0.0293742847 -3.59309306e-05 -4.10404609e-05 -2.63874535e-05
      -0.00487342104 -0.00160841085 -0.00069703348 5.37572193
      -0.00181921304 -0.000117453033 -3.71220017e-06 -0.000915517332
      -1.87124533e-05 -0.000952994043 5.57408857 -0.00191588514
      -1.11859636e-05 -4.40138848e-07 -0.000394626724 2.75394726
      -0.0470896475 -0.000592324242 -0.00951492507 -0.0122506106
      -8.29350665e-06 -0.00742086256 -0.00704117166 -0.000482986623
      -0.00556291314 -0.00582054583 2.62506366 -0.0206243843
      -0.000737536291 -0.0182037819 -0.00637485925 -0.00224592653
      -5.86981296e-05 -0.00747647649 2.45910573 -1.32700347e-06
      -0.000111490735 -0.000908312679 5.68376493 -0.000115744573
      -3.12876764e-05 -0.000490116421 0.294953436 -0.00191128021
      0.321620375 -1.88644462e-05 -5.4532331e-05 -0.000654795032
      -7.82064262e-07 -2.80160498e-06 -0.000148510793 -5.1350984e-05
      -0.00752378395 -8.91615855e-06 -0.00774927717 -0.000544824929
      -0.0115004405 -0.00936941989 -0.00276011671 -0.0199691057
      -0.0255169831 -0.0017040883 0.296939731 0.521121502
      -9.93772919e-05 -0.000107657805 0.0533991978 0.235926077
      0.408572912 -0.00016393706 -3.52130082e-05 -4.63648439e-06
      0.290745854 0.124641173 -0.000214262298 0.894280791 -0.00455279136
      0.411322176 -1.92795233e-05 -0.000269537646 -3.57564181e-06
      -2.01970852e-06 0.299135089 0.0275997557 -0.00235377927
      0.538865805 -8.76589468e-07 0.625840962 -3.0429353e-06
      -0.00318490434 1.10015845 0.158068478 0.219355389 -0.00152414374
      0.0773779005 0.522633553 -4.02971273e-05 -0.000492205203
      0.162572935 0.312004566 0.110341311 -0.00038353898 0.0717043206
      0.559288859 0.294789791 -0.00276884274 -0.00517051388
      -0.00175071799 -9.08970833e-06 -0.0021723106 -1.15601224e-05
      -0.00415440882 -0.000158101393 -0.00310001895 -0.00256138854
      -0.000142499412 -2.58819568e-06 0.694962025 -2.16320586e-07
      -2.5734451e-07 0.15953362 1.31098068 -1.47816982e-05
      -1.86314865e-05 -0.00020908704 -0.000424460508 0.317328364
      -0.000149929765 -9.46161017e-05 0.268060982 -1.93669403e-05
      0.0138137713 -0.000142752717 -3.95088646e-05 -1.60565942e-05
      -4.21471887e-05 -4.30847685e-05 -0.000248334691 0.00549367815
      -0.000108076034 0.0866288692 -0.000687944877 0.0341685787
      0.267907292 -1.62309652e-06 -0.000119781755 -7.49171022e-07
      -0.000194006279 -2.75424482e-05 0.319843531 0.573384285
      -2.44113071e-05 -0.000265031238 -9.11596871e-05 -4.19530261e-05
      -0.000487860583 0.00511980988 0.0642637387 -0.000269523589
      -0.000190215025 -2.94308684e-05 -0.000248935394</_>
    <_>
      0.742314637 -3.93394279 -0.00637693889 -0.0504556373
      -6.69290117e-08 -0.000147688785 -0.012088988 -0.000480635528
      -0.00198384165 -3.26558711e-06 -1.61783355e-05 -3.05179128e-07
      -9.70894835e-05 -0.000338657701 -0.000175174981 7.99432039
      0.571012735 -0.00293290731 1.59657145 -0.000142435762
      -0.00116739143 -0.000717832183 -0.00476265373 -0.00192775181
      -1.26669111e-05 -0.00171929714 1.9854722 -8.07469587e-06
      -5.35840591e-05 -1.99552287e-05 -0.00454126997 -0.000196782945
      -0.0147199295 -0.00107392669 -9.60879479e-05 -0.000885261863
      -0.00022367615 -6.05907517e-05 -0.00723257149 -0.000214233965
      -0.000139901371 -0.000584641472 -0.00155319425 -0.000285255053
      -0.00162323168 -0.00193467608 -0.000486472476 3.54266977
      0.226756588 -0.020504212 -0.00177069055 -0.000283804373
      -3.74669412e-06 -0.0103119975 4.39923811 -0.0210973062
      -0.0728002191 -0.0033000668 -0.00287398649 -0.00493184291
      -0.000982582569 -0.000466730096 -0.000950858172 2.04295349
      -0.0269693825 -3.69010377e-05 -3.7697675e-05 -2.63025868e-05
      -0.00464636087 -0.00160053326 -0.000707454979 5.25085735
      -0.00175584655 -0.000111019945 -3.43954389e-06 -0.000934183889
      -1.81075266e-05 0.127048969 5.40225887 -0.00182201131
      -1.08191116e-05 -4.06485725e-07 -0.00035603717 2.84315777
      -0.0480769463 -0.000574470556 -0.00794203766 -0.012076566
      -7.81765721e-06 -0.0070691579 -0.00678534713 -0.000454731955
      -0.00532505382 -0.00573457219 2.98797154 -0.0200533103
      -0.000760479656 -0.0175052062 -0.00598207861 -0.00220909738
      -5.36830776e-05 -0.00682187965 2.65985274 -1.31925731e-06
      -0.000101991507 -0.000916012039 5.61373758 -0.000105771498
      -3.15413308e-05 -0.000467189646 0.170908332 -0.00178851641
      0.290595084 -1.75149034e-05 -5.01706236e-05 -0.000594461919
      -7.2111925e-07 -2.62107847e-06 -0.000146774371 -4.86869212e-05
      -0.00737001887 -8.64114736e-06 -0.00748744467 -0.000510830898
      -0.00917100813 -0.00953307468 -0.00269124145 -0.0207956247
      -0.0241308995 -0.00176381657 0.265233904 0.551805377
      -9.92550049e-05 -0.000107274529 0.0359873846 0.232719466
      0.383952439 -0.000163547971 0.00539753586 -4.68974895e-06
      0.297868848 0.170041829 -0.000216386339 0.91941148 -0.00522637134
      0.423718154 -1.88014237e-05 -0.00026866133 -3.63867662e-06
      -1.94859444e-06 0.282347143 0.0303810723 -0.00219768705
      0.451832026 -8.45384022e-07 0.593996584 -2.95183622e-06
      -0.00361140142 1.13878608 0.157173201 0.256576747 -0.00171712227
      0.035297066 0.484157413 -3.99046658e-05 -0.000499992049 0.14368698
      0.306058288 0.154983863 -0.000395827577 0.0212978572 0.590801954
      0.320787519 -0.00308230123 -0.00545091927 -0.00218198774
      0.00375825167 -0.00219465676 -1.13111828e-05 -0.00427291449
      -4.82482465e-05 -0.00308697228 -0.00257052644 -0.000142135221
      -2.54087149e-06 0.722196579 -2.11465391e-07 -2.45844092e-07
      0.155292705 1.25598407 -1.47854335e-05 -1.86354919e-05
      -0.000209089107 -0.00042411621 0.317310929 -0.000149943167
      -9.46261644e-05 0.267887473 -1.93705037e-05 0.0135178342
      -0.000142762001 -3.95146126e-05 -1.60595791e-05 -4.3615848e-05
      -4.32001798e-05 -0.000248285127 0.00484838337 -0.000108036089
      0.0863563716 -0.000687108317 0.0349471495 0.267831445
      -1.62109734e-06 -0.000119793811 -7.35690094e-07 -0.000193989341
      -3.10532378e-05 0.318695277 0.572458386 -2.44165676e-05
      -0.000256525789 -9.11741881e-05 -4.19587595e-05 -0.000487410784
      0.00490119867 0.0642002597 -0.000269409793 -0.000190219609
      -2.9434661e-05 -0.000247751421</_>
    <_>
      0.468998611 -3.54383922 -0.00616348116 -0.0467281602
      -6.46032774e-08 -0.000147536732 -0.011649074 -0.000468826533
      -0.00189140171 -3.36721951e-06 -1.59300234e-05 -3.00480167e-07
      -9.70799665e-05 -0.000340435276 -0.000172403947 7.54890633
      0.63797909 -0.00284248823 1.60422921 -0.000144965277
      -0.00114935078 -0.000699310564 -0.00461355597 -0.00139016809
      -1.27394323e-05 -0.000608663482 2.01121974 -8.84355177e-06
      -5.36057159e-05 -1.9557363e-05 -0.00502733048 -0.000187442245
      -0.0151154352 -0.00106966426 -9.62562408e-05 -0.000859275227
      -0.000220167247 -6.14723103e-05 -0.00752684241 -0.000213283332
      -0.00014053419 -0.000572331541 -0.00154410093 -0.000273244717
      -0.00105756382 -0.00183926628 -0.000469320192 3.56098199
      0.347556114 -0.0194811951 -0.0017632955 -0.000276791863
      -3.74089632e-06 -0.00992920343 3.97026014 -0.0204206146
      -0.0705197826 -0.00320707727 -0.00276658032 -0.00477407314
      -0.000958259159 -0.000411065907 -0.000933302683 2.03889894
      -0.0252247471 -3.55881311e-05 -3.72410068e-05 -2.70253477e-05
      -0.00450459961 -0.00156373635 -0.000682429352 4.97385502
      -0.00172422559 -0.000109696346 -3.28663464e-06 -0.000920234306
      -1.82012282e-05 0.159216955 5.1446867 -0.0017655124
      -1.07577071e-05 -4.13197284e-07 -0.00034220572 2.63482141
      -0.0452532806 -0.00056501606 -0.0067307651 -0.0121429237
      -7.59842942e-06 -0.0067170565 -0.00645656325 -0.00044471756
      -0.00515600201 -0.00547905779 2.9611032 -0.0193742476
      -0.00074798736 -0.0166146662 -0.00577417295 -0.00216694083
      -5.5352466e-05 -0.00662926817 2.61102605 -1.29521868e-06
      -0.000102101432 -0.000880751759 5.27481794 -0.000109942077
      -3.12043085e-05 -0.000454564346 0.137235135 -0.00174361747
      0.257828325 -1.73256158e-05 -5.01217582e-05 -0.000609867391
      -7.33403908e-07 -2.57281386e-06 -0.000149914136 -4.73337095e-05
      -0.00725879194 -8.59106603e-06 -0.00717518292 -0.000528979406
      -0.00776413735 -0.00922149327 -0.0026752227 -0.0201253109
      -0.0224986598 -0.00177974754 0.254205883 0.560942769
      -9.84390863e-05 -0.000103684062 0.0269218832 0.218836501
      0.348012567 -0.0001624047 0.030382134 -4.72873944e-06 0.296220362
      0.199098736 -0.00021432701 0.901045203 -0.00511933677 0.420055091
      -1.90278461e-05 -0.000263465481 -3.74097203e-06 -1.99294595e-06
      0.257540166 0.0302866288 -0.00249667489 0.349885613
      -8.69098983e-07 0.542974472 -3.03419188e-06 -0.0036413495
      1.13381898 0.140541479 0.269290209 -0.00176852569 0.00887678564
      0.429721177 -3.98809134e-05 -0.000493988569 0.11800307 0.301199585
      0.182362422 -0.000399368844 0.00186005235 0.587017238 0.366139233
      -0.00323385024 -0.00536246924 -0.00216384465 0.00486239791
      -0.00214417628 -1.15386729e-05 -0.00417996012 0.00525575131
      -0.00338266068 -0.00246624416 -0.000141445984 -2.59950662e-06
      0.700279593 -2.11429466e-07 -2.57150731e-07 0.154123783 1.18667364
      -1.47879637e-05 -1.86381476e-05 -0.000209091231 -0.00042387491
      0.317256987 -0.000149952102 -9.46328655e-05 0.26774624
      -1.93728902e-05 0.0133315362 -0.000142768185 -3.95184652e-05
      -1.60615673e-05 -4.41168231e-05 -4.2932108e-05 -0.000248252269
      0.00449017249 -0.000108010987 0.0861817747 -0.00068656262
      0.0354240015 0.26774621 -1.6197464e-06 -0.000119801865
      -7.2592519e-07 -0.000193978252 -3.27854214e-05 0.317955494
      0.571821988 -2.44200837e-05 -0.000251050515 -9.11838069e-05
      -4.19625831e-05 -0.000487117504 0.00476224907 0.0641501099
      -0.000269332057 -0.000190223072 -2.94372148e-05 -0.000246998708</_>
    <_>
      0.4396016 -3.54820013 -0.00628771074 -0.0439155586 -6.83225707e-08
      -0.000146731429 -0.011734141 -0.000496105 -0.00187493651
      -3.14886711e-06 -1.59945412e-05 -3.06569234e-07 -9.36559372e-05
      -0.00032705834 -0.00017035364 7.26495266 0.420654953
      -0.00290062185 2.00838375 -0.000139915443 -0.00111806556
      -0.000694748654 -0.00475884788 -0.00201338879 -1.24901289e-05
      -0.00241761375 1.77395141 -9.20201728e-06 -5.21397487e-05
      -1.98864163e-05 -0.00135453208 -0.000192952764 -0.0155618386
      -0.00100459461 -9.83124046e-05 -0.000882513588 -0.00022209849
      -5.73316102e-05 -0.00686104596 -0.000211705454 -0.000147816128
      -0.000588258961 -0.00152652315 -0.000303800014 -0.00195512222
      -0.0019832917 -0.000468209822 3.67308712 0.40312463 -0.0203641988
      -0.00174833299 -0.000271963945 -3.72138993e-06 -0.0102154762
      3.84173679 -0.0199365001 -0.066243507 -0.00319859339
      -0.000517335895 -0.00485769939 -0.000936735538 -0.000554013299
      -0.000982885249 1.82766867 -0.0259683225 -3.53535324e-05
      -3.96007672e-05 -2.46700783e-05 -0.00461925566 -0.00145569223
      -0.000696124393 4.734869 -0.00173458469 -0.000111507572
      -3.53402606e-06 -0.000940367463 -1.69592713e-05 -0.00110571913
      4.87035656 -0.00184714433 -1.0164259e-05 -4.62459468e-07
      -0.000377253222 2.39441061 -0.0419759937 -0.000551349018
      -0.00646813866 -0.00930457842 -7.58101623e-06 -0.00699056685
      -0.00658914447 -0.000447391853 -0.00535633089 -0.00560030667
      2.61545634 -0.018796565 -0.000791722152 -0.0146335261
      -0.00589911034 -0.00217982172 -5.39370667e-05 -0.00674417242
      2.37790227 -1.29708758e-06 -0.000101943486 -0.000884272507
      5.32883787 -0.00010695844 -3.16606965e-05 -0.000446075748
      0.31911698 -0.00179637445 0.304334193 -1.74841352e-05
      -5.66458075e-05 -0.000602867163 -7.86530848e-07 -2.56277349e-06
      -0.000146029037 -4.95007444e-05 -0.00707475236 -8.57053328e-06
      -0.00738153281 -0.000466531143 -0.0101395966 -0.00929020811
      -0.00256416667 -0.0194225144 -0.0234331582 -0.00169837393
      0.221699297 0.572188318 -9.5212381e-05 -0.000102783029
      0.0507800505 0.236040294 0.32921195 -0.000162589713 0.0156529471
      -4.469337e-06 0.323791236 0.234775931 -0.000214693282 0.895288229
      -0.00502050621 0.394768238 -1.94213098e-05 -0.00025376855
      -3.72851105e-06 -2.01639682e-06 0.275036722 0.00433574989
      -0.0024425711 0.198135227 -8.90048057e-07 0.459440172
      -3.11233384e-06 -0.0036554574 1.10157609 0.153951451 0.336585164
      -0.00184532104 -8.56310144e-05 0.359532565 -3.81322789e-05
      -0.000493531115 0.124806583 0.327121586 0.262036502
      -0.000405941828 -0.000215605498 0.615339637 0.367289722
      -0.00333279208 -0.00600770535 -0.00249352213 0.0150547773
      -0.00213115965 -1.18083135e-05 -0.00411549583 0.0135542676
      -0.00306349341 -0.00233374164 -0.000138663236 -2.59452486e-06
      0.667641342 -2.16780236e-07 -2.68292354e-07 0.141501769 1.0990963
      -1.47913952e-05 -1.86417019e-05 -0.000209094593 -0.000423539896
      0.317147553 -0.000149964064 -9.46418659e-05 0.26753372
      -1.93761043e-05 0.0130897686 -0.000142776466 -3.95236566e-05
      -1.60642376e-05 -4.43635872e-05 -4.22624507e-05 -0.00024820806
      0.00407117791 -0.000107978769 0.0859524757 -0.000685841136
      0.0360300392 0.267601371 -1.61792502e-06 -0.000119812692
      -7.12149756e-07 -0.000193963366 -3.45781082e-05 0.316980988
      0.570948303 -2.44248095e-05 -0.000243836417 -9.11966781e-05
      -4.19677126e-05 -0.000486728677 0.0045804549 0.0640754774
      -0.000269225595 -0.000190227976 -2.94406636e-05 -0.000246018986</_>
    <_>
      0.232820317 -3.28722882 -0.00589626795 -0.0402775928
      -6.49193268e-08 -0.000152050241 -0.0110751344 -0.000485229364
      -0.00178864202 -2.88542219e-06 -1.50574879e-05 -2.84814348e-07
      -8.7696666e-05 -0.000306973641 -0.000160179523 6.53220797
      0.539680779 -0.00280168164 1.93951678 -0.000135966169
      -0.00109617296 -0.000669679779 -0.00451088417 -0.00232933578
      -1.2059123e-05 -0.000537438609 1.88628531 -9.32814328e-06
      -4.82204123e-05 -1.96057281e-05 0.229491204 -0.000186219608
      -0.011972799 -0.000917955535 -9.53888884e-05 -0.000823548937
      -0.000211220293 -5.45632392e-05 -0.00424977113 -0.000211290011
      -0.000139422264 -0.000599873136 -0.00143139414 -0.000268172909
      -0.00288609741 -0.00196307688 -0.000441016629 3.30023074
      0.500124037 -0.0190453343 -0.00166990305 -0.000432528032
      -4.00477393e-06 -0.0095801726 3.36724663 -0.0190309584
      -0.0606849864 -0.00299054966 -0.000649668335 -0.00450632023
      -0.000896280166 -0.000633590855 -0.000935747521 1.8505106
      -0.0221803039 -3.349494e-05 -3.91650501e-05 -2.23412517e-05
      -0.00427521206 -0.00138982804 -0.000652230054 4.43334103
      -0.00163102255 -0.000103789585 -3.87932232e-06 -0.000882410211
      -1.62438391e-05 0.0645283535 4.61087036 -0.00174501003
      -9.65665367e-06 -4.4736089e-07 -0.000381242367 2.21077061
      -0.0370729566 -0.000546364055 -0.00545066828 -0.00708207907
      -7.23110952e-06 -0.00658605993 -0.00603257399 -0.000429381151
      -0.0052124951 -0.00547269033 2.81547427 -0.0181979407
      -0.00076485076 -0.012479119 -0.00561666908 -0.00205155578
      -5.16737528e-05 -0.00673878193 2.45222878 -1.31101547e-06
      -9.64506544e-05 -0.000870132411 5.02188444 -0.000103781807
      -3.00746779e-05 -0.000416914467 0.322710276 -0.00174377835
      0.310571343 -1.71650427e-05 -5.70511984e-05 -0.000558347791
      -7.84900919e-07 -2.34356935e-06 -0.000139803698 -4.75902489e-05
      -0.00671568606 -7.88651869e-06 -0.00695641432 -0.000445809099
      -0.00858670194 -0.00889532175 -0.00243913825 -0.0178894419
      -0.0202432983 -0.00172506727 0.22623542 0.575683236
      -9.53756462e-05 -0.000101219608 0.0101338178 0.235672653
      0.276122034 -0.000163838398 0.0530566722 -4.57487704e-06
      0.329447269 0.33100301 -0.000215575594 0.873571932 -0.00503112655
      0.419311434 -1.95501452e-05 -0.000246604817 -3.81836708e-06
      -2.05388301e-06 0.220339745 -9.39665333e-05 -0.00228380179
      0.106944785 -8.91989032e-07 0.419611067 -3.12857264e-06
      -0.00402493123 1.12244654 0.110406026 0.314746588 -0.00176383147
      -0.000139963624 0.330353409 -3.87273831e-05 -0.00049432274
      0.0469525531 0.318484098 0.292036414 -0.000404834922
      -0.000451216241 0.549678683 0.413584948 -0.00366250658
      -0.00557534443 -0.00275843381 0.023301214 -0.00203186716
      -1.16959254e-05 -0.00410105288 0.0450006351 -0.00365536404
      -0.00237567816 -0.000140312317 -2.66994584e-06 0.607593
      -2.13146521e-07 -2.71272057e-07 0.123674169 0.962878883
      -1.47945711e-05 -1.86450161e-05 -0.000209097445 -0.00042323416
      0.317080319 -0.000149975298 -9.46502623e-05 0.267349303
      -1.93790947e-05 0.0128431283 -0.000142784236 -3.95284951e-05
      -1.60667259e-05 -4.49300533e-05 -4.18474519e-05 -0.00024816746
      0.00360481441 -0.000107946245 0.0857201368 -0.000685160805
      0.0366620049 0.267493784 -1.61626735e-06 -0.000119822835
      -7.00046087e-07 -0.000193949381 -3.6778114e-05 0.316007316
      0.570119739 -2.44292169e-05 -0.000236560023 -9.12087562e-05
      -4.19725038e-05 -0.000486359553 0.00439567305 0.0640069172
      -0.000269126846 -0.000190232473 -2.94438651e-05 -0.000245039875</_>
    <_>
      0.493528843 -3.28482795 -0.00613198755 -0.0433602035
      -6.60605721e-08 -0.000136452945 -0.0114338351 -0.000492376101
      -0.00181781524 -3.08699646e-06 -1.55682319e-05 -3.06741128e-07
      -8.90175143e-05 -0.000308574759 -0.000165259757 6.9661355
      0.209098607 -0.00286038569 2.23154664 -0.00013360384
      -0.00110866339 -0.000659041689 -0.0046319617 -0.00228290772
      -1.22461988e-05 -0.00360189262 1.57463431 -7.51309835e-06
      -5.04700765e-05 -1.86695906e-05 0.0507308878 -0.000187737751
      -0.0136716673 -0.000977295218 -9.32975454e-05 -0.000858525222
      -0.000218512083 -5.47702984e-05 -0.0067239604 -0.000199295202
      -0.000145195416 -0.000535440398 -0.0014927712 -0.00026753472
      -0.00222063484 -0.00191519177 -0.000467063481 3.74644279
      0.383843482 -0.0200115945 -0.00167242414 -0.000204236683
      -3.74220508e-06 -0.00989366323 3.69578099 -0.0186708216
      -0.0646861717 -0.00306727854 -0.00323897088 -0.00468285056
      -0.000908787886 -0.000556079787 -0.000940779224 1.66350174
      -0.0261631105 -3.46225352e-05 -3.66131499e-05 -2.2733786e-05
      -0.00447139097 -0.00140843727 -0.000663153944 4.61666679
      -0.00171387708 -0.000106447143 -2.97465726e-06 -0.000909275026
      -1.57628856e-05 -0.00259933923 4.7889719 -0.00179260236
      -9.67473443e-06 -3.89771742e-07 -0.000369886315 2.42870641
      -0.0400157236 -0.000499959046 -0.00657694926 -0.00940967165
      -7.47558488e-06 -0.00672839489 -0.00653914688 -0.000425601407
      -0.00509106973 -0.00537307747 2.26770449 -0.0179364961
      -0.000781413575 -0.0136248004 -0.00579441478 -0.00209386274
      -5.08742669e-05 -0.006411321 2.10967803 -1.28364593e-06
      -9.67070519e-05 -0.00084774493 5.42579317 -0.000104055704
      -3.04258356e-05 -0.000429186592 0.13862896 -0.00170730695
      0.391534358 -1.64731027e-05 -4.93155094e-05 -0.00059239869
      -7.05234413e-07 -2.34658251e-06 -0.000133884882 -4.7885289e-05
      -0.00670457957 -8.30855515e-06 -0.00715741189 -0.000453827321
      -0.0106093502 -0.00935352407 -0.00234397547 -0.0187349822
      -0.0236136317 -0.00111302407 0.221805483 0.554456651
      -9.51314141e-05 -0.000102684317 -0.000167971768 0.299767733
      0.301393747 -0.00016532882 0.0452142432 -4.52860286e-06
      0.357596397 0.29648006 -0.000214139218 0.891272128 -0.00458340952
      0.38477087 -1.9557825e-05 -0.000248081371 -3.82489452e-06
      -2.07078438e-06 0.190814435 0.0437968262 -0.00168040476
      0.153788835 -9.11797429e-07 0.428561419 -3.17847184e-06
      -0.00393909262 1.10487294 0.140149504 0.343353391 -0.00185918878
      -0.000227933371 0.385507315 -3.82039871e-05 -0.000489724916
      0.0901346803 0.370220989 0.282509208 -0.000392185786 0.00864774734
      0.525409579 0.317268401 -0.0035876669 -0.00579096377
      -0.00287226494 0.0577905476 -0.00204080064 -1.19946781e-05
      -0.00402059546 -1.55249982e-05 -0.00286597363 -0.00234958716
      -0.000140455362 -2.67744213e-06 0.630412281 -2.18755062e-07
      -2.78957799e-07 0.107941896 1.02039301 -1.4795266e-05
      -1.86456436e-05 -0.000209100443 -0.000423157122 0.316996515
      -0.000149977714 -9.46519795e-05 0.26726678 -1.93797132e-05
      0.0128084719 -0.00014278591 -3.95295065e-05 -1.60672207e-05
      -4.42466117e-05 -4.11709407e-05 -0.000248163007 0.00362355821
      -0.000107939537 0.0856795907 -0.000685044681 0.036731489
      0.267413378 -1.61587252e-06 -0.000119824981 -6.96342909e-07
      -0.000193948319 -3.62451756e-05 0.315838367 0.569910169
      -2.44301136e-05 -0.00023527749 -9.12111573e-05 -4.19734642e-05
      -0.00048630315 0.00436879881 0.0639775023 -0.000269107317
      -0.000190235078 -2.94445454e-05 -0.000244873692</_>
    <_>
      0.484367907 -3.33819008 -0.00625321688 -0.0446728989
      -6.9177311e-08 -0.000127643376 -0.0119150886 -0.000507204153
      -0.00181574537 -3.29562727e-06 -1.61390253e-05 -3.1491868e-07
      -9.17766229e-05 -0.000309476454 -0.000166317812 7.2353673
      0.0700029433 -0.00295952801 2.21124697 -0.000129684151
      -0.00112640485 -0.000653287396 -0.00474379817 -0.00181990082
      -1.30345015e-05 -0.00512643857 1.57764637 -7.55348128e-06
      -5.14107705e-05 -1.94115928e-05 0.141072989 -0.000195652858
      -0.0125287659 -0.00100045162 -9.22775434e-05 -0.000855443825
      -0.000217490335 -5.66441922e-05 -0.00467925146 -0.000211024657
      -0.000147072598 -0.000517767679 -0.00151938898 -0.000273450365
      -0.00311203999 -0.00214593252 -0.000500838622 3.48365498
      0.340216398 -0.0193413049 -0.0017405937 -0.000339701102
      -4.02543174e-06 -0.0103264675 3.68540907 -0.0183502752
      -0.0627170801 -0.00310399407 -0.00324085983 -0.00471801218
      -0.000950679358 -0.000645444379 -0.000987191801 1.65025258
      -0.0268034637 -3.48549875e-05 -3.88308763e-05 -2.29929847e-05
      -0.00455309497 -0.00136262621 -0.000682694314 5.00300217
      -0.00175256049 -0.000105856561 -2.8969821e-06 -0.000944113126
      -1.57000995e-05 -0.00405782973 5.0023675 -0.00186251791
      -9.95582195e-06 -4.35559286e-07 -0.000380732003 2.42987204
      -0.0410526991 -0.000509513542 -0.00672644237 -0.00995451957
      -7.7662462e-06 -0.00710588135 -0.00692003826 -0.000435969443
      -0.00527038565 -0.00545270415 2.23536849 -0.0184687674
      -0.000774398271 -0.0144078862 -0.00606457051 -0.002106247
      -5.33824023e-05 -0.00735447649 2.10987782 -1.28597003e-06
      -9.63006314e-05 -0.000879094121 5.60048819 -0.000105222141
      -3.10042742e-05 -0.000439102238 0.128439933 -0.00178978988
      0.297119349 -1.65333749e-05 -5.23966592e-05 -0.000575602753
      -7.6385254e-07 -2.44189755e-06 -0.000132808695 -4.96557659e-05
      -0.00684904214 -8.51716868e-06 -0.00760795455 -0.00044440644
      -0.011540072 -0.00956523605 -0.00225189794 -0.0189058036
      -0.0249576643 -0.00106199947 0.300922155 0.498402327
      -9.60636098e-05 -0.000109547262 -0.000522371789 0.381478369
      0.339052856 -0.000163270728 -0.000206914323 -4.56693624e-06
      0.430333197 0.293151647 -0.000221184397 0.900627315 -0.00413002446
      0.341462672 -1.96385081e-05 -0.000262611953 -3.93228265e-06
      -2.01487524e-06 0.153249681 0.00320841745 0.0104948208 0.207530454
      -8.90925719e-07 0.437536865 -3.14019258e-06 -0.00349951978
      1.09446979 0.124530382 0.337131262 -0.00170561054 -0.000116708427
      0.398061186 -3.81629725e-05 -0.000498042966 0.112880856
      0.449217528 0.258721471 -0.00039694173 0.0628383458 0.449989527
      0.216876149 -0.00356977317 -0.00587520283 -0.00254212948
      0.062416181 -0.00208826782 -1.19802326e-05 -0.00402535684
      -0.00161769416 -0.00138088758 -0.00237747049 -0.000140719174
      -2.69698876e-06 0.568709731 -2.29735406e-07 -2.69168964e-07
      0.0849812031 1.19320869 -1.48013751e-05 -1.86516208e-05
      -0.00020911578 -0.000422527868 0.31658873 -0.000149999134
      -9.46675937e-05 0.266738981 -1.93853211e-05 0.0124068819
      -0.000142800753 -3.95386232e-05 -1.60718027e-05 -4.20592733e-05
      -3.79809717e-05 -0.000248103577 0.00320623815 -0.00010787783
      0.0852685273 -0.000683869759 0.0376836136 0.266976714
      -1.61256196e-06 -0.000119844255 -6.68860707e-07 -0.000193929605
      -3.64041698e-05 0.314124674 0.568190098 -2.44383136e-05
      -0.000222362942 -9.12334581e-05 -4.19823264e-05 -0.000485692202
      0.00406426005 0.0637850612 -0.000268925854 -0.000190250517
      -2.94506117e-05 -0.000243166956</_>
    <_>
      0.361388624 -2.82856321 -0.00672226772 -0.0423862338
      -7.22709501e-08 -0.000139134776 -0.012062652 -0.000563270645
      -0.00186083163 -3.39171925e-06 -1.65857873e-05 -3.16595816e-07
      -9.51443944e-05 -0.000306986709 -0.000178982969 6.99166346
      -0.00189725892 -0.00308606657 2.47385979 -0.000147036073
      -0.00114659057 -0.000732999353 -0.00514768902 -0.00301852869
      -1.30986637e-05 -0.00723441085 1.28409171 -8.36921572e-06
      -5.30350699e-05 -1.89923794e-05 0.106390744 -0.000203730946
      -0.0166161172 -0.00101629668 -9.69907414e-05 -0.000919397164
      -0.00021846946 -5.7260826e-05 -0.00813610293 -0.000214032858
      -0.000158170893 -0.000581508037 -0.00162540586 -0.000232920793
      -0.00239873352 -0.00203924999 -0.000492361549 3.88354588
      0.480997413 -0.0232294872 -0.00183180859 -0.00055877777
      -4.03526337e-06 -0.0106468853 3.30816007 -0.0189865269
      -0.0701023862 -0.00335172191 -0.0041732667 -0.00516043231
      -0.000927242101 -0.000595641148 -0.00106037885 1.46790481
      -0.0307814907 -3.38366699e-05 -3.93896808e-05 -2.34665895e-05
      -0.00480082491 -0.00146678335 -0.000651443144 4.64088058
      -0.00185160141 -0.000120030396 -3.70021166e-06 -0.000950515445
      -1.59700721e-05 -0.00658521708 4.76769161 -0.00196734932
      -9.85073166e-06 -3.78607695e-07 -0.000424735859 2.32468224
      -0.0396011099 -0.000573274156 -0.00702121947 -0.0106479237
      -8.38858523e-06 -0.00714616152 -0.00702728145 -0.000464883633
      -0.0055146385 -0.00528983679 1.73570025 -0.0186190419
      -0.000763443531 -0.013170355 -0.0062846127 -0.0022758313
      -5.50291661e-05 -0.00664667971 1.78485191 -1.21032804e-06
      -0.000103785089 -0.000845367904 5.35937595 -0.000113527371
      -3.03890993e-05 -0.000456644135 -0.00113843952 -0.00191385031
      0.413360268 -1.77614929e-05 -5.17934823e-05 -0.000668076682
      -7.25675818e-07 -2.5182328e-06 -0.000138844058 -5.26592048e-05
      -0.00709637906 -8.91688524e-06 -0.00771093927 -0.000498019683
      -0.0137857366 -0.00902017206 -0.00257828203 -0.018119622
      -0.0263606384 -0.000899908657 0.272686601 0.494820893
      -9.38794547e-05 -0.000108604952 -0.000515530817 0.330583334
      0.285637796 -0.000160344644 -6.94737537e-05 -4.4575786e-06
      0.423228025 0.288161486 -0.000217252673 0.854569256 -0.00414860575
      0.3647089 -2.00311315e-05 -0.000251312915 -3.93337677e-06
      -2.07451421e-06 0.149345964 0.0218602307 0.00549809262 0.186884806
      -9.48020158e-07 0.386315435 -3.32037939e-06 -0.00357259135
      1.04583728 0.155640692 0.321551502 -0.00172618311 -1.43776833e-05
      0.409170717 -3.74146075e-05 -0.000480016082 0.103096142
      0.420207143 0.245342001 -0.000399110024 0.0413022041 0.471126199
      0.267859876 -0.00346503104 -0.00560369855 -0.00219487515
      0.0555697829 -0.00205707899 -1.26031728e-05 -0.00383461406
      -0.0012891927 -0.00139214389 -0.0022624433 -0.000133515743
      -2.76855485e-06 0.581374407 -2.43201043e-07 -2.92785842e-07
      0.0683424473 1.17834067 -1.480635e-05 -1.86566795e-05
      -0.00020912358 -0.000422035926 0.31639564 -0.000150016713
      -9.46805885e-05 0.266393274 -1.93899577e-05 0.0120398812
      -0.000142812918 -3.95461429e-05 -1.60756317e-05 -4.18956552e-05
      -3.65530686e-05 -0.000248046534 0.00262191705 -0.000107826534
      0.0849117786 -0.000682847865 0.0386005342 0.266735435
      -1.6099325e-06 -0.000119860073 -6.48618425e-07 -0.000193910484
      -3.8576236e-05 0.312636167 0.566843271 -2.44451239e-05
      -0.000211184088 -9.12520845e-05 -4.19897151e-05 -0.000485146156
      0.00378816016 0.0636567548 -0.000268774078 -0.000190259889
      -2.94555994e-05 -0.000241676229</_>
    <_>
      0.03592645 -2.56990886 -0.00595535152 -0.038803637 -6.44515055e-08
      -0.000140834003 -0.0110042458 -0.000472928281 -0.0017553207
      -2.92438494e-06 -1.49940961e-05 -2.92208483e-07 -8.74704783e-05
      -0.000290142547 -0.000163731165 6.41547441 0.259064198
      -0.00274745398 2.19775987 -0.000133336856 -0.00109040679
      -0.000645495777 -0.0045254603 -0.0019490096 -1.19852466e-05
      -0.00247815507 1.62699592 -8.61740227e-06 -4.88732221e-05
      -1.78161717e-05 0.0640409738 -0.000182584627 -0.0128773469
      -0.000938000798 -8.92168246e-05 -0.000815044797 -0.000217546549
      -5.31083242e-05 -0.00764249032 -0.000195605913 -0.000142863006
      -0.000552158104 -0.00143445993 -0.000246005133 -0.00233026664
      -0.00181461871 -0.000453899702 3.57194495 0.681563973
      -0.0202095266 -0.00163224025 -0.000318808423 -3.56074338e-06
      -0.00964221638 3.10975671 -0.018539153 -0.0624890216
      -0.00299779698 -0.0031538303 -0.00455062371 -0.000832951395
      -0.000551756355 -0.000917113386 1.669173 -0.0247097965
      -3.24366265e-05 -3.55421798e-05 -2.24574669e-05 -0.00424683886
      -0.00136512704 -0.00062085269 4.27730942 -0.00163588172
      -0.000104174054 -3.20905701e-06 -0.000869797601 -1.54070749e-05
      -0.00250180275 4.49189091 -0.00172802596 -9.50207868e-06
      -3.72408607e-07 -0.000359449332 2.02627492 -0.0361444429
      -0.000504867174 -0.00493050786 -0.00849851873 -7.28962641e-06
      -0.0066319555 -0.00615819078 -0.000412975322 -0.00492226193
      -0.00507068215 2.34689474 -0.017580539 -0.000731363194
      -0.0114218034 -0.0056011444 -0.00206566066 -5.03150914e-05
      -0.00627048593 2.11374807 -1.19241759e-06 -9.24849592e-05
      -0.000814291299 4.92621326 -0.000103576043 -2.91975666e-05
      -0.000416377152 -0.000429335603 -0.00168222515 0.306738019
      -1.62180131e-05 -4.87258039e-05 -0.000591064338 -6.77190258e-07
      -2.25038343e-06 -0.000134523114 -4.63473589e-05 -0.00666958187
      -8.04081083e-06 -0.00680241548 -0.000468173792 -0.00969751365
      -0.00885706861 -0.0023374944 -0.0180700012 -0.021816982
      -0.00102700922 0.206324041 0.497414649 -9.3113631e-05
      -0.000104766157 -0.000170819156 0.348565698 0.249919266
      -0.000159886797 0.0696634129 -4.46025524e-06 0.367058635
      0.304349393 -0.000211347826 0.839840889 -0.00493147457 0.41118449
      -2.02038045e-05 -0.0002395552 -3.89694787e-06 -2.09997393e-06
      0.177550703 -0.000120156816 -0.000100135578 0.0947725624
      -9.54415441e-07 0.343809396 -3.33339108e-06 -0.00390840461
      1.06310904 0.103873074 0.325652599 -0.00158318796 -0.000203815391
      0.28528595 -3.77793258e-05 -0.000475816778 0.0469688177
      0.335710764 0.205106348 -0.000397671422 -0.000303435314
      0.499916345 0.349984229 -0.00369769125 -0.00459892815
      -0.00238197646 0.0744725019 -0.00187849312 -1.24952276e-05
      -0.00387223344 -0.000635418633 -0.0016618052 -0.0023397808
      -0.000130368004 -2.8384809e-06 0.541815758 -2.36175865e-07
      -2.97951232e-07 0.0926658213 0.95565784 -1.48063164e-05
      -1.86567104e-05 -0.000209121863 -0.000422045705 0.316445649
      -0.000150016611 -9.46805812e-05 0.266422808 -1.93899523e-05
      0.0120250694 -0.000142812831 -3.95461357e-05 -1.60756408e-05
      -4.24426034e-05 -3.69467562e-05 -0.00024804374 0.00253459625
      -0.000107826287 0.0849024802 -0.000682833779 0.0386539102
      0.266776741 -1.60998366e-06 -0.00011986 -6.49538094e-07
      -0.000193909014 -3.92953662e-05 0.31259957 0.566861629
      -2.44451257e-05 -0.000210899932 -9.12521209e-05 -4.19897297e-05
      -0.000485132798 0.00377768464 0.0636659712 -0.000268773234
      -0.000190258594 -2.9455583e-05 -0.000241643327</_>
    <_>
      2.13870025 -4.60175657 -0.00598358037 5.24244595 -6.04302528e-08
      -0.000125979714 -0.0105641847 -0.000436361122 -0.00142054877
      -2.30772321e-06 -1.64585945e-05 -3.96050922e-07 -5.69992117e-05
      -0.000216783359 -0.000159193383 -0.0321152881 0.164402843
      -0.00270508556 2.80883265 -8.91510863e-05 -0.001315161
      -0.00062918826 -0.00437382702 -0.0115499329 -1.17601066e-05
      1.00718904 0.89229995 -8.42058398e-06 -4.50314183e-05
      -1.96115816e-05 0.408423096 -0.000151064931 -0.00866002496
      -0.000821628491 -8.70888907e-05 -0.00068246742 -0.000250801328
      -4.86341378e-05 0.768504322 -0.000256649801 -0.000123541613
      -0.000518759829 -0.00105365564 -0.000471935025 -0.00515635591
      -0.00175115943 -0.000490623235 3.85928726 3.82479978 1.5737592
      -0.00131160358 -0.00427703047 -1.98362545e-06 -0.00868308265
      -0.0355480574 -0.0148576722 2.88951254 -0.00267664879 1.35627353
      -0.00484700687 -0.000991620938 -0.000709004467 -0.000724529964
      0.444824606 -0.00455853855 -3.21299449e-05 -3.72493778e-05
      -2.09525733e-05 -0.0047394922 -0.00143997185 -0.000654580886
      -9.7893324e-05 -0.00155121135 -9.6985008e-05 -1.27678982e-06
      -0.000748749415 -1.71091506e-05 -0.00319027039 -0.0234695319
      -0.00153148291 -8.64705999e-06 -8.76624881e-07 -0.000339940656
      -0.00932103116 4.62975264 -0.000343349442 1.93901277
      -0.00676662615 -7.24457732e-06 -0.00910036825 -0.00237424672
      -0.000377152639 -0.00475546252 -0.00655302592 2.38250279
      -0.0161295738 -0.00107659446 3.74986196 -0.00644616829
      -0.00198834226 -6.21964209e-05 -0.00644509308 1.18995023
      -1.41565658e-06 -7.12389228e-05 -0.000944634783 0.952541232
      -0.000106147403 -3.29864779e-05 -0.000345857436 1.34473836
      -0.00136485591 -0.00751337502 -1.89129587e-05 -8.64801186e-05
      -0.0005992644 -5.01305408e-07 -3.30314765e-06 -0.000178031216
      -4.63260476e-05 -0.00654167915 -9.00053237e-06 -0.00304683764
      -0.000495998363 -0.00995410699 -0.00950900838 -0.00243546395
      -0.0163673814 -0.000644863409 -0.00284607965 0.132908821
      0.299269766 -8.43542075e-05 -0.000105035411 -0.000831214595
      0.345408797 0.217876911 -0.000192108491 0.335920691
      -3.40877978e-06 0.336245418 0.520018458 -0.00023657296 0.631857753
      -0.0034866007 0.167336971 -2.23929437e-05 -0.000181186377
      -3.24347366e-06 -2.65729773e-06 0.0656921715 0.0212679319
      0.279790938 -0.000775235414 -1.14209479e-06 0.0892079845
      -3.94571953e-06 -0.00412461814 0.818168521 -5.38170316e-05
      0.536414444 -0.00119951367 -0.00133202597 0.250898421
      -4.03254926e-05 -0.000465067307 -0.00152948254 0.214093775
      0.494462609 -0.000322220294 -0.000412691239 0.219651371
      0.280059636 -0.00298865605 -0.00480659818 -0.0042223921
      0.198573619 -0.00172310439 -1.44194437e-05 -0.00329453219
      0.164644808 -0.00297697028 -0.00226058671 -0.000123571968
      -3.2651767e-06 0.433692664 -2.4501395e-07 -3.95485017e-07
      0.00661835074 0.291667759 -1.48140007e-05 -1.86645138e-05
      -0.000209128833 -0.000421266363 0.316212535 -0.000150043008
      -9.47004664e-05 0.265859276 -1.93971555e-05 0.01133563
      -0.000142830759 -3.95579118e-05 -1.60815725e-05 -4.22677404e-05
      -3.44667569e-05 -0.000247943302 0.0013558697 -0.000107748987
      0.0842220858 -0.000681298145 0.04043556 0.26644814 -1.60635955e-06
      -0.000119883836 -6.20407491e-07 -0.000193868764 -4.39811847e-05
      0.30983308 0.564520836 -2.44557232e-05 -0.000189468032
      -9.12807009e-05 -4.20012584e-05 -0.000484259857 0.00325459056
      0.0634323806 -0.000268515578 -0.000190267281 -2.94633701e-05
      -0.000239089481</_>
    <_>
      1.91285884 -5.19296503 -0.00664727809 5.6547389 -6.33873114e-08
      -0.000144574922 -0.0115545578 -0.00048761451 -0.0014853453
      -2.46866375e-06 -1.7355731e-05 -4.10715188e-07 -6.46796689e-05
      -0.000234660241 -0.000179037641 -0.0366851427 0.226245552
      -0.00294759613 2.66760373 -0.000100852005 -0.00140357658
      -0.000705961429 -0.00476698391 -0.013008506 -1.23791069e-05
      1.08523655 0.95017463 -9.30839451e-06 -4.73240143e-05
      -2.11114311e-05 0.393845022 -0.000169001389 -0.0115142642
      -0.00095013727 -0.000101254409 -0.000741117226 -0.000260668981
      -5.49049182e-05 0.775628686 -0.000296510523 -0.00012743393
      -0.000581182132 -0.00121270376 -0.000539126631 -0.00559354248
      -0.00181261764 -0.000527582364 3.73039865 3.89694071 1.61350572
      -0.00153428386 -0.00485206814 -2.07486073e-06 -0.00915929023
      -0.0409347527 -0.0162609462 3.33653617 -0.00302366004 1.42386687
      -0.00535297859 -0.00105807814 -0.000807747943 -0.000785185548
      0.453466326 -0.0038666327 -3.44316904e-05 -4.26280458e-05
      -2.26788379e-05 -0.00526084704 -0.00165439583 -0.000696720323
      -0.00198425096 -0.0016237048 -0.000107853652 -1.76517131e-06
      -0.000827625627 -1.88712911e-05 -0.00182946306 -0.0256554503
      -0.00163315504 -9.25313907e-06 -1.04246442e-06 -0.000374700903
      -0.0110487361 5.10904169 -0.000392840389 1.95511246 -0.00765434559
      -7.81433937e-06 -0.00997170806 -0.00209220476 -0.000437946175
      -0.0052996478 -0.00702098245 2.57251477 -0.0179785471
      -0.00114572071 3.98482275 -0.00697560003 -0.00222007534
      -7.05792918e-05 -0.00712092267 1.31146717 -1.52561915e-06
      -7.9742269e-05 -0.00105320767 0.709491134 -0.000117661402
      -3.51219569e-05 -0.000400706485 1.34814584 -0.00151550479
      -0.00754603371 -2.03228974e-05 -0.000101610058 -0.000711054949
      -6.07845095e-07 -3.63394611e-06 -0.000208993777 -5.0593535e-05
      -0.00727399625 -1.00577718e-05 -0.00306414859 -0.000592727331
      -0.0101984749 -0.00993639883 -0.00297942222 -0.0177060608
      0.0708730146 -0.00344668375 0.176585943 0.295412302
      -8.50247088e-05 -0.00010615978 -0.00082222803 0.352159828
      0.299373895 -0.000193415282 0.358817726 -3.40923725e-06
      0.304139495 0.477020621 -0.000238698194 0.63424325 -0.00346209365
      0.141762376 -2.23522457e-05 -0.00018988832 -3.20657432e-06
      -2.62138724e-06 0.0637979507 -0.000188977749 0.250964493
      -0.000532944978 -1.12257908e-06 0.0944193378 -3.89415709e-06
      -0.00369359553 0.837556958 -0.000333363336 0.55060184
      -0.00121561275 -0.00161521265 0.23190628 -4.06055333e-05
      -0.000474432833 -0.00162477046 0.220638424 0.484283775
      -0.000323720422 -1.63868071e-06 0.252098411 0.273777604
      -0.00269166147 -0.00434936909 -0.00417468045 0.170339823
      -0.00174622738 -1.42120634e-05 -0.00337348622 0.140149444
      -0.00334069598 -0.00226795441 -0.000128642845 -3.21678226e-06
      0.41196534 -2.43390076e-07 -3.85636071e-07 0.0294968039
      0.336955816 -1.48147656e-05 -1.86652578e-05 -0.000209130623
      -0.000421186676 0.316162527 -0.000150045671 -9.47024091e-05
      0.265790999 -1.93978594e-05 0.0112807937 -0.000142832578
      -3.95590578e-05 -1.60821455e-05 -4.19778371e-05 -3.4042223e-05
      -0.000247935503 0.00129529648 -0.000107741325 0.0841655731
      -0.00068115379 0.0405680388 0.26639396 -1.60596244e-06
      -0.00011988623 -6.1703264e-07 -0.000193866043 -4.40306576e-05
      0.309600592 0.564294279 -2.44567491e-05 -0.000187689133
      -9.12834803e-05 -4.2002368e-05 -0.000484182907 0.00321283378
      0.0634064823 -0.000268492033 -0.000190269027 -2.94641322e-05
      -0.000238866443</_>
    <_>
      2.08882642 -5.16963148 -0.00608734228 5.490242 -5.94011631e-08
      -0.000122417725 -0.0108338119 -0.000435634283 -0.00131035619
      -2.43121713e-06 -1.69245523e-05 -4.03230104e-07 -6.19477432e-05
      -0.000235032727 -0.000164155354 -0.0346803032 0.799968362
      -0.00277175591 2.38696671 -9.98360993e-05 -0.00139686489
      -0.000630824128 -0.00434109801 -0.011305471 -1.21942985e-05
      1.52671611 1.52647889 -9.32301828e-06 -4.93525295e-05
      -1.98794078e-05 0.171739638 -0.00015197492 -0.00643519266
      -0.000912052579 -8.62749657e-05 -0.000678542769 -0.000258997752
      -5.23730996e-05 0.920777082 -0.000258831278 -0.000125541235
      -0.000514257816 -0.00107918808 -0.000457914895 -0.00482505793
      -0.00186555262 -0.000501158065 3.33567238 4.06319666 1.94058144
      -0.00134708686 -0.00444373628 -2.32380376e-06 -0.00867076218
      -0.0339979865 -0.0156104574 3.14916849 -0.00268880301 1.32296169
      -0.004786551 -0.000988134765 -0.000652725284 -0.000711299072
      0.912259698 -2.32297916e-05 -3.36879166e-05 -3.78229524e-05
      -2.1411779e-05 -0.0048223976 -0.00150804769 -0.000679965597
      -0.000461590418 -0.00158170413 -9.63402344e-05 -1.16855585e-06
      -0.000800980488 -1.85919343e-05 0.26498422 -0.0256244913
      -0.00150465139 -9.23986045e-06 -7.92974447e-07 -0.000320889463
      -0.00794584211 4.75944281 -0.000338263082 2.06807232
      -0.00769059453 -7.31129694e-06 -0.00953696389 -0.00297267572
      -0.000382218801 -0.00478061056 -0.00691472739 3.46348238
      -0.0171326436 -0.00104579516 3.87749624 -0.0066957823
      -0.0020226005 -6.26613473e-05 -0.00682339165 1.8582437
      -1.49215907e-06 -6.90573652e-05 -0.00102280092 0.507673323
      -0.000111097506 -3.4667366e-05 -0.000355935685 1.29607773
      -0.0013690663 -0.00886148587 -1.93415708e-05 -8.01848873e-05
      -0.000592016615 -6.45910916e-07 -3.61768889e-06 -0.000178468821
      -4.68276958e-05 -0.00697954511 -9.00529631e-06 -0.00288998382
      -0.000545961491 -0.00603050087 -0.00963948388 -0.00260145101
      -0.0180638451 0.319569767 -0.00337432208 0.203691557 0.309745461
      -8.50723227e-05 -0.00010474633 -0.000524371571 0.363627195
      0.324481249 -0.000193282365 0.356576294 -3.42618728e-06
      0.295883715 0.466814905 -0.000239936897 0.639389217 -0.00338135869
      0.136059701 -2.22353956e-05 -0.000195035303 -3.20070103e-06
      -2.6035168e-06 0.064421922 -0.000195897621 0.246467918
      -0.000472868851 -1.11111513e-06 0.0970734507 -3.86417651e-06
      -0.00349359144 0.844143093 -0.000320908206 0.554012537
      -0.00120923587 -0.00175461033 0.22187759 -4.03067752e-05
      -0.000475133653 -0.00144591893 0.233439207 0.47502166
      -0.000326450681 -3.26156623e-05 0.268183351 0.253438115
      -0.00266074087 -0.00435532955 -0.00422756514 0.149174213
      -0.00174999051 -1.41204473e-05 -0.00340853259 0.117601775
      -0.00346570602 -0.00225962349 -0.000130239932 -3.18717002e-06
      0.409759998 -2.39316478e-07 -3.80718973e-07 0.0411049053
      0.354492784 -1.48130648e-05 -1.86635953e-05 -0.000209126782
      -0.000421363744 0.316270709 -0.000150039763 -9.46980799e-05
      0.265941083 -1.93962933e-05 0.0114037283 -0.000142828532
      -3.95565039e-05 -1.60808686e-05 -4.25879662e-05 -3.49617731e-05
      -0.000247953169 0.00143570825 -0.0001077583 0.0842918456
      -0.000681476435 0.0402699485 0.266512007 -1.60684374e-06
      -0.000119880919 -6.24495442e-07 -0.000193872227 -4.38743446e-05
      0.310120344 0.564797461 -2.44544608e-05 -0.000191665662
      -9.12772957e-05 -4.19998942e-05 -0.000484355463 0.00330642052
      0.0634634644 -0.000268544652 -0.000190265244 -2.94624351e-05
      -0.000239364279</_>
    <_>
      2.12151122 -4.20275116 -0.00604537362 4.69316387 -6.28193249e-08
      -0.000128466505 -0.0104357312 -0.000492344785 -0.00140968722
      -2.66861548e-06 -1.69576251e-05 -3.71335943e-07 -6.26945621e-05
      -0.000219600959 -0.000153068293 -0.0275377855 -0.00025869711
      -0.00278016436 2.692518 -0.000101611025 -0.00129351579
      -0.000660529069 -0.00449916162 -0.0109947771 -1.2569556e-05
      0.717609644 0.794326365 -8.29264809e-06 -4.46639933e-05
      -1.98935668e-05 0.427298009 -0.000153138768 -0.00945072528
      -0.000811671373 -8.59348074e-05 -0.000700078497 -0.000239507572
      -5.20531248e-05 0.638280272 -0.000261456706 -0.000130170127
      -0.000549845281 -0.00108804624 -0.000417250907 -0.00464770105
      -0.00182524405 -0.000477059395 3.62547612 3.35897422 1.28647172
      -0.0013731384 -0.00411562156 -2.53828443e-06 -0.00874610152
      -0.0319101103 -0.0149837602 2.29595923 -0.00270131789 1.17566454
      -0.0048946864 -0.000950080343 -0.000682920858 -0.000797064335
      0.4248586 -0.00776315667 -3.12911579e-05 -3.92833535e-05
      -2.16077751e-05 -0.00482104812 -0.0014481066 -0.000661570812
      0.340184271 -0.00156097987 -0.000104746134 -1.65272934e-06
      -0.000826028292 -1.82280237e-05 -0.00406924589 -0.0202008132
      -0.00157055794 -9.05988145e-06 -8.21177821e-07 -0.000365321292
      -0.00746865012 4.12683344 -0.000392110349 1.60716963
      -0.00824274123 -7.50614481e-06 -0.00909823831 -0.00264548929
      -0.000392576971 -0.00495770667 -0.00639882497 2.1279285
      -0.0161607973 -0.000978635624 3.36097765 -0.00647659088
      -0.00205085124 -6.40007202e-05 -0.00673103658 1.10828853
      -1.40673808e-06 -7.72346975e-05 -0.000941024395 1.03940666
      -0.000108394321 -3.2048596e-05 -0.000350391492 1.38457143
      -0.0014692113 -0.00725750439 -1.98969428e-05 -8.42480877e-05
      -0.00059761724 -5.28878957e-07 -3.37664346e-06 -0.000172879169
      -4.71819694e-05 -0.00647859136 -8.73617046e-06 -0.00345282606
      -0.000508326513 -0.0113876946 -0.00918546412 -0.00250850408
      -0.0153199071 -0.00275970623 -0.0029766222 0.168666512 0.282365203
      -8.40947032e-05 -0.000102580554 -0.000506944489 0.354646027
      0.309955835 -0.000196275854 0.379424483 -3.30557191e-06
      0.284395337 0.499734581 -0.000236877633 0.608447254 -0.00289832079
      0.103447035 -2.2637887e-05 -0.00018509751 -3.12745919e-06
      -2.69738143e-06 0.0758292675 -0.000260320638 0.254053056
      -0.000995716313 -1.14268539e-06 0.0492222384 -3.96898577e-06
      -0.00359010836 0.811664879 -0.000305354799 0.540472567
      -0.0011578335 -0.00159382029 0.228605866 -4.12183435e-05
      -0.000471828127 -0.00155421824 0.218692869 0.494483113
      -0.000316255755 0.00191301107 0.23060745 0.278386652
      -0.00266330107 -0.00432434864 -0.00397761073 0.140321553
      -0.00174549187 -1.43714342e-05 -0.00330823939 0.132871091
      -0.00371182663 -0.00221602316 -0.000129140783 -3.25217729e-06
      0.385545641 -2.4086205e-07 -3.96141758e-07 0.034134537 0.279938817
      -1.48118424e-05 -1.86623729e-05 -0.00020912505 -0.000421489065
      0.316323638 -0.000150035557 -9.46949294e-05 0.266038001
      -1.93951564e-05 0.0115053765 -0.000142825651 -3.95546485e-05
      -1.60799354e-05 -4.27773593e-05 -3.54620061e-05 -0.000247967866
      0.00158986822 -0.00010777056 0.0843935758 -0.000681715726
      0.0400127321 0.266577005 -1.60744139e-06 -0.000119877121
      -6.2941109e-07 -0.000193877873 -4.33747846e-05 0.31053555
      0.565166295 -2.4452791e-05 -0.000194869703 -9.12727846e-05
      -4.19980788e-05 -0.000484488526 0.00338364579 0.0635022372
      -0.000268584467 -0.000190263352 -2.94612037e-05 -0.000239752277</_>
    <_>
      2.23115921 -4.12984228 -0.00606626272 4.60206795 -6.21669116e-08
      -0.000125013248 -0.0102478284 -0.000486897508 -0.00149136956
      -2.11787028e-06 -1.61334501e-05 -3.65944572e-07 -5.5354878e-05
      -0.000200645998 -0.000148100444 -0.0266151354 -0.00367753441
      -0.00270400848 2.93619585 -9.42095357e-05 -0.00125488685
      -0.000654929841 -0.00453764061 -0.0113539267 -1.10292649e-05
      0.473647982 0.487208098 -7.56442705e-06 -3.95802708e-05
      -1.88627364e-05 0.764699578 -0.000154070411 -0.00996379834
      -0.000736472837 -8.29653436e-05 -0.000710742082 -0.000233153289
      -4.51812884e-05 0.738325238 -0.00024013214 -0.000126326006
      -0.000548049808 -0.00103684666 -0.000410705834 -0.00496156141
      -0.00171608687 -0.000461622811 3.97734499 3.26491427 1.08399081
      -0.00128047122 -0.00403570943 -2.16242165e-06 -0.00872035418
      -0.032422293 -0.0149814542 2.05930805 -0.00268690544 1.20501244
      -0.00495606707 -0.000858430751 -0.000722385768 -0.000779960537
      0.168872952 -0.00979469158 -3.12249576e-05 -3.68252331e-05
      -1.85959325e-05 -0.00477399444 -0.00141030725 -0.000641973282
      0.287641823 -0.00151127356 -0.00010434632 -1.72248349e-06
      -0.000769285543 -1.70328494e-05 -0.00686032698 -0.0186909605
      -0.00155065069 -8.54524205e-06 -7.08209768e-07 -0.000375945441
      -0.00751703139 4.06273937 -0.000390309753 1.55197597
      -0.00845013745 -7.54174425e-06 -0.00880917627 -0.00241001323
      -0.000382649217 -0.00499907369 -0.00618394883 1.57494116
      -0.0158256833 -0.000976548472 3.32378364 -0.00626292871
      -0.00200248021 -5.48915268e-05 -0.00646725623 0.770118415
      -1.20282732e-06 -7.49834144e-05 -0.000899122912 1.28774154
      -0.000101344143 -3.07383016e-05 -0.00034228919 1.42879546
      -0.00144521159 -0.00613596616 -1.91040817e-05 -8.12116559e-05
      -0.000556263491 -3.96068259e-07 -3.16292471e-06 -0.000162357566
      -4.63964861e-05 -0.00620912947 -8.55407779e-06 -0.00363652152
      -0.00044215942 -0.0133234737 -0.00893656071 -0.00242414698
      -0.0141487895 -0.00420419686 -0.0025803037 0.18769747 0.297563881
      -8.55326725e-05 -0.000105277803 -0.000786735676 0.36976856
      0.295496702 -0.000194605993 0.340652019 -3.49618722e-06
      0.297608256 0.481331438 -0.000238896115 0.639249802 -0.00316297542
      0.138258412 -2.22618128e-05 -0.000193978616 -3.2434466e-06
      -2.6444045e-06 0.0682895109 -0.000147471903 0.253947049
      -0.000672598893 -1.11778115e-06 0.110600129 -3.88989156e-06
      -0.00372975389 0.840719521 -0.00038709378 0.530689299
      -0.00121622207 -0.00149414933 0.226696804 -4.12415284e-05
      -0.0004746216 -0.0014751819 0.237412274 0.484054506
      -0.000324002118 -1.72159071e-05 0.229215488 0.253926486
      -0.00280291471 -0.00453422032 -0.00416214345 0.149919003
      -0.00176271377 -1.40892371e-05 -0.00336138415 0.122637995
      -0.00337379216 -0.00223072176 -0.000130589877 -3.22707183e-06
      0.408652335 -2.40287108e-07 -3.84414221e-07 0.0311300755
      0.33345142 -1.48140207e-05 -1.86645702e-05 -0.000209127509
      -0.000421267003 0.3162449 -0.000150043052 -9.47005537e-05
      0.2658723 -1.93971919e-05 0.0113160759 -0.000142830744
      -3.95579737e-05 -1.60816089e-05 -4.25967555e-05 -3.46722445e-05
      -0.000247940392 0.00128202885 -0.00010774871 0.0842056051
      -0.000681284699 0.0404975712 0.266473651 -1.6063982e-06
      -0.00011988388 -6.20932553e-07 -0.000193867047 -4.45068254e-05
      0.309770167 0.564504862 -2.44557814e-05 -0.000188948878
      -9.12808537e-05 -4.20013348e-05 -0.000484245713 0.00323990919
      0.0634346083 -0.000268512318 -0.000190266204 -2.94634046e-05
      -0.000239042449</_>
    <_>
      1.96482587 -5.05004835 -0.00606454955 5.28888559 -6.10256592e-08
      -0.000129438151 -0.0106756315 -0.000474067871 -0.00141961849
      -2.56635644e-06 -1.71395768e-05 -3.9263486e-07 -6.35282777e-05
      -0.000235508865 -0.000157387825 -0.0315009356 0.321125776
      -0.00281129335 2.82950377 -0.000102413615 -0.00138121122
      -0.000664196908 -0.00444205943 -0.0115984436 -1.27726171e-05
      0.996689141 1.12176931 -9.42394036e-06 -4.88970363e-05
      -2.00026461e-05 0.346755296 -0.000155934918 -0.00914293714
      -0.000837053114 -8.81250307e-05 -0.000708502892 -0.00025187945
      -5.21295515e-05 0.730108976 -0.000259792869 -0.000135683062
      -0.000545089541 -0.00107874686 -0.000466511381 -0.00423689745
      -0.00196180632 -0.000481756462 3.73694515 3.62999058 1.80350626
      -0.00137813028 -0.00435762014 -2.55913051e-06 -0.00882737525
      -0.0328985341 -0.0157026537 2.90980148 -0.00270959991 1.302405
      -0.00483165309 -0.00100798532 -0.000682519458 -0.000783011375
      0.652289033 -0.00535642682 -3.35033219e-05 -4.00577046e-05
      -2.1400514e-05 -0.00498195738 -0.00145537569 -0.000700502365
      0.234680563 -0.0016257721 -0.000103841667 -1.67367136e-06
      -0.000854078273 -1.90452429e-05 -0.0019288297 -0.0253331345
      -0.00156931637 -9.19018021e-06 -8.17579632e-07 -0.000354307092
      -0.0056538051 4.5507288 -0.000387259555 1.84646463 -0.00852985401
      -7.34056675e-06 -0.00971965492 -0.00334335817 -0.000393760332
      -0.00501823844 -0.00708473613 2.78304744 -0.0169704668
      -0.00101644627 3.65808821 -0.00677330047 -0.00207614154
      -6.33103118e-05 -0.0067660627 1.49867105 -1.51846473e-06
      -7.25536956e-05 -0.00103170564 0.748321533 -0.000109092944
      -3.48984613e-05 -0.000340669998 1.53469288 -0.00147039886
      -0.00966097694 -2.0088788e-05 -8.25975876e-05 -0.000605864567
      -6.24320137e-07 -3.54955955e-06 -0.00017559003 -4.85514902e-05
      -0.00678019132 -8.77801176e-06 -0.00320273265 -0.000524610688
      -0.0104052015 -0.00973842107 -0.00260193693 -0.0173613075
      -0.000872916251 -0.00361144915 0.190826446 0.263638616
      -8.50366778e-05 -0.000107112821 -0.000973733666 0.342894733
      0.322930872 -0.000196186287 0.334129006 -3.33440835e-06
      0.285870969 0.478227615 -0.000236368229 0.595072508 -0.0027440812
      0.129296556 -2.28806166e-05 -0.000189134997 -3.15566376e-06
      -2.68365693e-06 0.0924301445 -0.000358294434 0.245432407
      -0.000536341104 -1.13692317e-06 0.0605054945 -3.96405267e-06
      -0.00350077148 0.791424155 -0.000330152427 0.527760506
      -0.00114567683 -0.00139401003 0.252496839 -4.1398951e-05
      -0.00048109988 -0.00159389072 0.206553161 0.528571308
      -0.000316994323 0.036912255 0.247502595 0.261762023 -0.00243665627
      -0.00420291163 -0.00410444336 0.12602219 -0.00177296728
      -1.43887155e-05 -0.0033097486 0.180391192 -0.00378990755
      -0.00220865593 -0.000131015258 -3.25912606e-06 0.421957791
      -2.43756119e-07 -3.92661605e-07 0.00727005675 0.355776221
      -1.48097861e-05 -1.86603102e-05 -0.000209122387 -0.000421699253
      0.316406727 -0.000150028485 -9.46896398e-05 0.266198039
      -1.9393241e-05 0.0116789639 -0.000142820834 -3.95515126e-05
      -1.6078362e-05 -4.30338077e-05 -3.62613791e-05 -0.000247993099
      0.00186106935 -0.000107791129 0.0845666602 -0.000682120095
      0.0395713821 0.266681433 -1.60843888e-06 -0.000119870732
      -6.37573521e-07 -0.000193887681 -4.24442042e-05 0.311241716
      0.565787017 -2.44499752e-05 -0.000200322334 -9.12651958e-05
      -4.19950229e-05 -0.000484714576 0.00351549499 0.0635666326
      -0.000268651842 -0.000190260369 -2.945913e-05 -0.000240410445</_>
    <_>
      1.89846671 -4.85106611 -0.00580616482 5.38178444 -5.86394791e-08
      -0.000119560347 -0.0103872651 -0.000407159125 -0.00134381431
      -2.00379714e-06 -1.57966188e-05 -3.81694861e-07 -5.18034103e-05
      -0.000211846011 -0.000155763089 -0.0346295312 0.157786638
      -0.00261927093 2.60226893 -8.61585941e-05 -0.0012888317
      -0.000605383713 -0.00421389891 -0.0112652835 -1.08665026e-05
      1.04616356 0.854809284 -7.49776018e-06 -4.12090631e-05
      -1.84160799e-05 0.23591283 -0.000141957906 -0.0081227161
      -0.000834033417 -8.33887971e-05 -0.00064783683 -0.000249070727
      -4.62087883e-05 0.77703464 -0.000252248195 -0.000110047979
      -0.000512307917 -0.00100443885 -0.000459370814 -0.00526424451
      -0.00163714937 -0.000485643512 3.75432253 3.80951166 1.5609231
      -0.00125617313 -0.0042886408 -1.75844355e-06 -0.00842434447
      -0.0369424671 -0.0144300573 3.16547155 -0.00260873884 1.26834381
      -0.00473931851 -0.000929519592 -0.000696272589 -0.000668023073
      0.428519219 -0.00336509361 -3.25029578e-05 -3.54489202e-05
      -1.96954188e-05 -0.00458512967 -0.00145030476 -0.00066581904
      0.0725650787 -0.00146906183 -9.20941384e-05 -1.15769728e-06
      -0.000737503055 -1.7976894e-05 -0.00234087138 -0.0254992619
      -0.00144365605 -8.49778735e-06 -8.1982688e-07 -0.000318899518
      -0.0119701875 4.90626383 -0.00032417386 1.91548836 -0.00580270588
      -7.13728514e-06 -0.00909492932 -0.00168422423 -0.000366442633
      -0.00453494489 -0.00634157006 2.39774489 -0.0160492901
      -0.00108301395 3.81549549 -0.00625043688 -0.00190419098
      -5.79421067e-05 -0.00668505672 1.16980302 -1.30444118e-06
      -6.97495707e-05 -0.000921585539 0.862173915 -0.000102268605
      -3.21557091e-05 -0.00034140388 1.28424299 -0.00126855518
      -0.00803293753 -1.8195813e-05 -8.4499974e-05 -0.000556493411
      -4.31068798e-07 -3.22868846e-06 -0.000176794056 -4.41408738e-05
      -0.00653151749 -8.92375738e-06 -0.00277711824 -0.000490443897
      -0.00961212441 -0.00958275609 -0.00239401241 -0.0165193826
      0.0243423879 -0.00294645061 0.168318495 0.258601189
      -8.47127667e-05 -0.000107794811 -0.00134828279 0.313239336
      0.290975928 -0.000192028296 0.318573922 -3.31507817e-06
      0.252083361 0.439024895 -0.000230256483 0.578457475 -0.00280015334
      0.139840826 -2.32680395e-05 -0.000184934193 -3.13849273e-06
      -2.72658076e-06 0.108539879 -0.000501964998 0.217688024
      -0.000391069683 -1.17065042e-06 0.052570194 -4.07091375e-06
      -0.00363728963 0.767544329 -0.000402892445 0.496172786
      -0.00111420662 -0.00132902153 0.269004703 -4.12942245e-05
      -0.000472317624 -0.00144394452 0.173654988 0.512395561
      -0.000317355152 0.056125775 0.247455567 0.291791797 -0.0023129629
      -0.00387624395 -0.00389626576 0.123001993 -0.00174448185
      -1.46471029e-05 -0.00320667494 0.210938245 -0.00374455703
      -0.00210887031 -0.000126425002 -3.33519984e-06 0.437712371
      -2.48665799e-07 -4.06456167e-07 -2.4263858e-05 0.370519578
      -1.48115887e-05 -1.86620819e-05 -0.000209126025 -0.000421512494
      0.316302061 -0.000150034713 -9.46942382e-05 0.266043693
      -1.93949036e-05 0.0115438513 -0.000142825113 -3.95542265e-05
      -1.60797208e-05 -4.2489246e-05 -3.53544201e-05 -0.00024797357
      0.00169163011 -0.000107773165 0.0844289958 -0.00068177504
      0.0399031565 0.266564369 -1.60751858e-06 -0.000119876349
      -6.29842361e-07 -0.000193880638 -4.27633131e-05 0.310676068
      0.565252185 -2.44524108e-05 -0.000195985805 -9.12717733e-05
      -4.19976604e-05 -0.000484528078 0.00341270305 0.0635073557
      -0.000268595322 -0.000190264036 -2.94609345e-05 -0.000239872272</_>
    <_>
      2.06215596 -4.78265238 -0.00576994522 5.14946795 -5.59821274e-08
      -0.000122449856 -0.0103194118 -0.000417169969 -0.00134130684
      -2.31301578e-06 -1.61401695e-05 -3.8313226e-07 -5.67984753e-05
      -0.00022276146 -0.000154050897 -0.0330561958 0.529407442
      -0.00259824214 2.52078271 -9.41594772e-05 -0.0013046792
      -0.000614734483 -0.00414295727 -0.0106216138 -1.17912341e-05
      1.29296041 1.24343753 -8.80900097e-06 -4.28065869e-05
      -1.85195986e-05 0.217512578 -0.000141059543 -0.00646320637
      -0.000861055625 -8.37994448e-05 -0.000656502438 -0.000251445919
      -4.89019294e-05 0.884574294 -0.000251768332 -0.000113251299
      -0.000518890854 -0.00101509329 -0.000438512332 -0.00468728831
      -0.00166492071 -0.000459319999 3.44987607 3.79820251 1.66238582
      -0.0012848042 -0.0040661348 -2.12200052e-06 -0.00829272531
      -0.033815857 -0.0148573406 2.92143297 -0.00260334811 1.35252941
      -0.00464815926 -0.000952349568 -0.000618448888 -0.000671339978
      0.72754395 -0.00149837823 -3.24727407e-05 -3.46892266e-05
      -2.08893416e-05 -0.00458057225 -0.00145714835 -0.000668801076
      0.0740408748 -0.00149433862 -9.15979472e-05 -1.18325568e-06
      -0.000778902904 -1.89913953e-05 0.0451548658 -0.0251855869
      -0.0014150464 -8.68566713e-06 -7.67400479e-07 -0.000315679179
      -0.00878985971 4.51642656 -0.000329968811 1.9152509 -0.00566794444
      -7.13270538e-06 -0.0091330288 -0.00219838438 -0.000367605302
      -0.00449845847 -0.00655895565 2.97635102 -0.0162461828
      -0.00102715113 3.68388629 -0.00629687356 -0.00193809567
      -6.09659219e-05 -0.00670145499 1.54970622 -1.43456748e-06
      -6.97875657e-05 -0.000957351702 0.802796841 -0.000106201907
      -3.26868103e-05 -0.000339602993 1.31999707 -0.00127711683
      -0.00898570288 -1.84462315e-05 -7.8062083e-05 -0.000561792112
      -4.76018016e-07 -3.34569154e-06 -0.000174071145 -4.3577722e-05
      -0.00660878886 -8.67192375e-06 -0.00278418767 -0.000526781543
      -0.00732351094 -0.00942697655 -0.0024243705 -0.0164942443
      0.173161849 -0.00319293933 0.159799889 0.277971804 -8.40639768e-05
      -0.000106668551 -0.00142044539 0.316203475 0.278870285
      -0.000192116757 0.31309852 -3.26090048e-06 0.241002992 0.4261989
      -0.000230345686 0.572368741 -0.00239719497 0.125134319
      -2.33744267e-05 -0.000183937023 -3.11118083e-06 -2.72450325e-06
      0.130075067 -0.000498745008 0.201913476 -0.00048608231
      -1.18167623e-06 0.0316325873 -4.10389612e-06 -0.00344963185
      0.746396184 -0.000159010815 0.47307083 -0.0011254868
      -0.00114223408 0.302214891 -4.05989013e-05 -0.000469569466
      -0.0014683929 0.175905019 0.525916696 -0.000319714309 0.0729391724
      0.237987801 0.311124235 -0.00227919361 -0.00397958327
      -0.00385938259 0.127442881 -0.00177542947 -1.47874534e-05
      -0.00316871097 0.201595962 -0.00378561486 -0.00209833262
      -0.000124947488 -3.3250808e-06 0.440782636 -2.49894697e-07
      -4.11248692e-07 -0.000192803884 0.374953538 -1.4811485e-05
      -1.86619982e-05 -0.000209125225 -0.000421524397 0.316322625
      -0.000150034335 -9.46939981e-05 0.266059041 -1.93948163e-05
      0.0115439519 -0.000142824836 -3.95540847e-05 -1.60796517e-05
      -4.26668666e-05 -3.55012708e-05 -0.000247973483 0.00167036988
      -0.000107774184 0.0844306126 -0.00068179064 0.0399089232
      0.266582787 -1.60759225e-06 -0.000119876015 -6.30549607e-07
      -0.000193880347 -4.297126e-05 0.310684651 0.565279007
      -2.44522853e-05 -0.000196036475 -9.1271424e-05 -4.19975295e-05
      -0.000484533521 0.00341287069 0.0635121018 -0.000268597418
      -0.000190263352 -2.94608362e-05 -0.000239885892</_>
    <_>
      1.94751251 -4.71500301 -0.00555778854 4.80712986 -5.43403047e-08
      -0.000121227902 -0.0099989064 -0.000412353344 -0.00130178838
      -2.409628e-06 -1.58281891e-05 -3.70565715e-07 -5.79501939e-05
      -0.000225780794 -0.000149601474 -0.0299614873 0.729646981
      -0.00252448767 2.32504439 -9.60644611e-05 -0.00127775245
      -0.000603483466 -0.00399773568 -0.00977296568 -1.20187551e-05
      1.39525998 1.45874655 -9.36212928e-06 -4.2652151e-05
      -1.81468749e-05 0.203056008 -0.000136454619 -0.0054155332
      -0.000850590353 -8.2650964e-05 -0.000639932521 -0.000247191812
      -4.9887396e-05 0.806850016 -0.000249381905 -0.000111899048
      -0.000518904591 -0.000994797447 -0.000433923415 -0.0043168203
      -0.00163528498 -0.000444079109 3.22245502 3.65692544 1.56052518
      -0.00127217884 -0.00387512101 -2.15348132e-06 -0.0080351606
      -0.0317455269 -0.014691161 2.78083992 -0.0025184229 1.3050307
      -0.00446041254 -0.000916946738 -0.00058562943 -0.000659363868
      0.949411213 -0.000879832427 -3.23155618e-05 -3.44136351e-05
      -2.13074709e-05 -0.0044461838 -0.0014297039 -0.000665974163
      0.239079773 -0.0014606358 -8.99607476e-05 -1.19911601e-06
      -0.000793252839 -1.93757824e-05 0.196299031 -0.023637807
      -0.00136655534 -8.7414619e-06 -7.70364863e-07 -0.000301315333
      -0.00815099943 4.23068857 -0.000333746517 1.83116484
      -0.00559233315 -6.84078987e-06 -0.00891656056 -0.00220165611
      -0.000361484505 -0.00436234474 -0.00638389587 3.23823309
      -0.0160432383 -0.000991306966 3.45478654 -0.00608293712
      -0.00190483418 -6.17179758e-05 -0.00652152393 1.7858429
      -1.45417209e-06 -7.13928239e-05 -0.000949419569 0.721649528
      -0.000105258026 -3.25881992e-05 -0.00033060307 1.28385127
      -0.0012675419 -0.00929221883 -1.82590666e-05 -7.63722855e-05
      -0.000553026679 -4.89164847e-07 -3.25555925e-06 -0.000173431778
      -4.1949148e-05 -0.00654501561 -8.36009713e-06 -0.00271670311
      -0.000533450511 -0.00591771398 -0.00920703541 -0.00241267844
      -0.0162518714 0.210456371 -0.00323612895 0.154531002 0.29132545
      -8.40454741e-05 -0.000106290747 -0.00153039885 0.315093756
      0.272073567 -0.000191839703 0.311121017 -3.25825545e-06
      0.229204088 0.41559431 -0.000228318531 0.566634476 -0.00246290048
      0.116107009 -2.34375857e-05 -0.000182929449 -3.08229664e-06
      -2.71883914e-06 0.135827616 -0.000592969474 0.192405432
      -0.000521986687 -1.18442506e-06 0.0274061635 -4.12088048e-06
      -0.00347378477 0.745456398 -0.000196677298 0.46448493
      -0.00113413983 -0.00106537144 0.301919192 -4.04031998e-05
      -0.000469548831 -0.00148580037 0.165857852 0.528954327
      -0.000321339816 0.0749833286 0.241866127 0.339083731
      -0.00223611086 -0.00392172625 -0.00365555962 0.128000274
      -0.00178302883 -1.48061627e-05 -0.00316712749 0.195770353
      -0.00378423627 -0.00207394944 -0.000124124272 -3.32598916e-06
      0.446404397 -2.49588737e-07 -4.12493989e-07 -0.000218790912
      0.380784184 -1.4811485e-05 -1.86619982e-05 -0.000209125225
      -0.000421524397 0.316322625 -0.000150034335 -9.46939981e-05
      0.266059041 -1.93948163e-05 0.0115439519 -0.000142824836
      -3.95540847e-05 -1.60796517e-05 -4.26668666e-05 -3.55012708e-05
      -0.000247973483 0.00167036988 -0.000107774184 0.0844306126
      -0.00068179064 0.0399089232 0.266582787 -1.60759225e-06
      -0.000119876015 -6.30549607e-07 -0.000193880347 -4.297126e-05
      0.310684651 0.565279007 -2.44522853e-05 -0.000196036475
      -9.1271424e-05 -4.19975295e-05 -0.000484533521 0.00341287069
      0.0635121018 -0.000268597418 -0.000190263352 -2.94608362e-05
      -0.000239885892</_>
    <_>
      1.80808067 -5.87509775 -0.00567078684 5.67082214 -5.31067847e-08
      -0.000126070314 -0.0104100443 -0.000385288731 -0.00128828618
      -2.12069131e-06 -1.57333834e-05 -3.87125567e-07 -5.61423403e-05
      -0.000232359816 -0.00015472759 -0.0384380706 0.992599666
      -0.00255131559 2.41026115 -9.17333309e-05 -0.00136091048
      -0.000591069285 -0.00397974206 -0.0113413567 -1.15518178e-05
      1.70641673 1.63118279 -1.02913191e-05 -4.50282132e-05
      -1.84874716e-05 0.173951805 -0.000141639859 -0.00482834876
      -0.000893364311 -8.63116002e-05 -0.000639752659 -0.000263635535
      -4.85009878e-05 1.0043124 -0.000251104066 -0.000110342735
      -0.000513767067 -0.000976075535 -0.000490572944 -0.00472231302
      -0.00168591132 -0.000464971439 3.43414187 4.10351563 1.94546425
      -0.00126639823 -0.00428001257 -1.92797665e-06 -0.00805711932
      -0.0361824743 -0.0153661836 3.59740019 -0.00254673348 1.49306417
      -0.00446018856 -0.000983581296 -0.000628494658 -0.000618815655
      0.991405725 0.246945739 -3.52049428e-05 -3.53658943e-05
      -2.06560217e-05 -0.00455348194 -0.00146277901 -0.000688755186
      -0.00260910019 -0.00146248343 -8.578696e-05 -1.08031361e-06
      -0.000786351971 -1.96520123e-05 0.395944983 -0.0290337112
      -0.00135881372 -8.85151439e-06 -8.24842289e-07 -0.000291564211
      -0.0100529538 5.01823997 -0.000308693707 2.14048696 -0.00462366687
      -6.67382074e-06 -0.0094442293 -0.0023887211 -0.000361520739
      -0.00441544922 -0.00688379863 3.71640968 -0.016881872
      -0.00104818807 3.99842858 -0.00628107833 -0.00191713532
      -6.10303323e-05 -0.00665858062 1.99064374 -1.49024004e-06
      -6.50736183e-05 -0.00103461102 0.51693058 -0.000104352985
      -3.45695407e-05 -0.000329178612 1.4089185 -0.00124578143
      -0.00981751271 -1.82237181e-05 -8.05650707e-05 -0.000559555017
      -5.91857543e-07 -3.35082086e-06 -0.000182855132 -4.30326581e-05
      -0.00686267298 -8.62333764e-06 -0.00233036326 -0.000543365953
      -0.00493561989 -0.00961993169 -0.00246499991 -0.0182617493
      0.484305203 -0.00355870067 0.14747785 0.325084388 -8.36438849e-05
      -0.000106953754 -0.00170625874 0.297652185 0.271564901
      -0.000187508907 0.274264663 -3.18015191e-06 0.195663899
      0.356921017 -0.00022796249 0.558482111 -0.00245833979 0.0888298228
      -2.37408094e-05 -0.000181178068 -3.01186697e-06 -2.71048998e-06
      0.173631117 -0.000600572093 0.173104495 -0.000124955652
      -1.21010214e-06 0.020545207 -4.19320713e-06 -0.00340943201
      0.700649619 -3.51287417e-06 0.451999307 -0.00114738173
      -0.00100025372 0.355708092 -3.89956804e-05 -0.00046117563
      -0.00130366767 0.151888222 0.551079273 -0.000326125679 0.118153408
      0.246562973 0.332949638 -0.00192825636 -0.00373854744
      -0.00376719027 0.16565828 -0.0018077218 -1.50463475e-05
      -0.00308997091 0.19661963 -0.00350978971 -0.00201867241
      -0.000119655262 -3.34188894e-06 0.476878166 -2.52754319e-07
      -4.21765776e-07 -0.00039374677 0.416501671 -1.48143499e-05
      -1.86648485e-05 -0.000209129837 -0.000421229604 0.316185057
      -0.00015004423 -9.47013468e-05 0.265826046 -1.93974738e-05
      0.0113129951 -0.000142831588 -3.95584284e-05 -1.60818308e-05
      -4.20887773e-05 -3.42426429e-05 -0.00024794013 0.0013379734
