<?xml version="1.0"?>
<opencv_storage>
<opencv_ml_svm>
  <format>3</format>
  <svmType>EPS_SVR</svmType>
  <kernel>
    <type>RBF</type>
    <gamma>0.01</gamma></kernel>
  <C>1.</C>
  <p>0.001</p>
  <term_criteria><epsilon>0.001</epsilon>
    <iterations>3000</iterations></term_criteria>
  <var_count>231</var_count>
  <sv_total>185</sv_total>
  <support_vectors>
    <_>
      0.0228623636 -3.91971207 -0.00458413968 -0.0354731567
      -3.71278972e-08 -0.000169852108 -0.00979336724 -0.000287340954
      -0.00139933825 -2.20182483e-06 -1.1509147e-05 -2.56100464e-07
      -8.48531054e-05 -0.000269411103 -0.000179319934 5.25237989
      2.01758146 -0.0018592655 0.589062452 -0.000139703145
      -0.000805553922 -0.000531951839 -0.00300305127 0.208141983
      -1.11634863e-05 1.37488568 3.05692792 -1.18720563e-05
      -4.80280614e-05 -1.36735589e-05 -0.00334527344 -0.000160462354
      -0.0023747352 -0.00109244767 -9.05112174e-05 -0.000610987714
      -0.000224523537 -5.09599486e-05 -0.00679415092 -0.000183891811
      -0.000102908314 -0.000549995457 -0.00121050864 -0.00034242167
      -0.00167879299 -0.00133362215 -0.000314001692 1.82453609
      0.803252578 -0.0170230996 -0.00149924424 0.0863845944
      -2.7531637e-06 -0.00686175888 2.6634531 -0.0174173489
      -0.0413634144 -0.0027589181 0.289272726 -0.0032764026
      -0.000675391755 -0.000359285157 -0.000538451539 2.67937398
      -0.00513026025 -3.58651232e-05 -2.55126888e-05 -2.14517258e-05
      -0.00317697437 -0.00135658274 -0.000559402455 3.49588895
      -0.00131336774 -6.32408119e-05 -3.25415431e-06 -0.00095681526
      -1.63666828e-05 1.51927483 3.43485928 -0.00118006952
      -8.42812733e-06 -4.58672901e-07 -0.00018405437 1.49162889
      -0.0312807001 -0.000485759258 0.00209967047 0.669976413
      -5.1858724e-06 -0.00532953022 -0.00451584579 -0.000351673167
      -0.00371289533 -0.0049227979 4.71914577 -0.017687887
      -0.000574538077 -0.0113450708 -0.00403670501 -0.00179744826
      -5.26410113e-05 -0.00607577013 3.42384982 -1.17994068e-06
      -7.43921555e-05 -0.000870556803 3.57870746 -0.000101650941
      -2.62525409e-05 -0.000375479867 -0.00148991286 -0.00131858781
      -0.0010324443 -1.1957778e-05 -4.26004408e-05 -0.000605923473
      -8.27179235e-07 -1.62695301e-06 -0.000154964349 -3.36082958e-05
      -0.00662201317 -7.38810013e-06 -0.00453951582 -0.000617625075
      0.490694821 -0.00795928109 -0.00235010125 -0.018892454
      -0.00918844715 -0.00306642801 0.120616361 0.271130472
      -7.66643425e-05 -6.04752386e-05 0.0513764694 0.427636445
      0.238767609 -0.000176604706 0.384355038 -3.32021523e-06
      0.460528553 0.0411452577 -0.000224325428 0.617206454
      -0.00107417302 -0.000899784267 -2.3827879e-05 -0.00020804751
      -3.56216469e-06 -2.87362241e-06 0.0204001591 0.174290717
      -0.00272349082 0.00116691366 -1.31505669e-06 -6.44957981e-05
      -4.24678183e-06 0.152677834 0.606495976 0.0217597187 0.175632849
      -0.00134729012 0.0350999832 0.103968933 -3.14911667e-05
      -0.000361629005 0.0773501247 0.329444975 0.0796342939
      -0.000273171579 0.10955219 0.228820056 0.288101852 -0.00210059108
      -0.00220949831 -0.00231384044 0.367678404 -0.00114695635
      -1.63241548e-05 -0.00276305433 -0.00181068829 -0.00219586329
      -0.00233852281 -0.000125435341 -3.12472889e-06 0.0227910131
      -2.22674387e-07 -4.59270723e-07 0.0894007459 0.218685821
      -1.48364161e-05 -1.8685927e-05 -0.000209191494 -0.000418893644
      0.314539015 -0.000150121035 -9.47570152e-05 0.263702512
      -1.94175773e-05 0.00973394886 -0.000142884528 -3.95913194e-05
      -1.60981381e-05 -3.11090807e-05 -1.99897586e-05 -0.000247737451
      -1.11453232e-06 -0.000107516134 0.0825436115 -0.000677153526
      0.0442409441 0.264684141 -1.59476156e-06 -0.000119953947
      -3.5845942e-06 -5.18697789e-07 -0.000193799075 -4.24157442e-05
      0.302981645 0.557679355 -2.44855455e-05 -0.000136784089
      -9.1361464e-05 -4.20334727e-05 -0.000482071744 0.00202697702
      0.0626016706 -0.00026783385 -0.00019032658 -2.9485589e-05
      -0.000232540202</_>
    <_>
      -0.126688078 -3.56520081 -0.00493018702 -0.0330091268
      -3.91425132e-08 -0.000165663427 -0.0101957023 -0.000305108435
      -0.0013554343 -2.13386988e-06 -1.18469034e-05 -2.73057054e-07
      -8.59374995e-05 -0.000256584142 -0.000188734615 5.14249563
      1.90902483 -0.0019550391 0.781387806 -0.000143478319
      -0.000825661409 -0.000560906017 -0.00323560461 0.212298214
      -1.13461001e-05 1.30665505 2.96235037 -1.17573245e-05
      -4.84067641e-05 -1.33482326e-05 -0.00383772003 -0.000167513601
      -0.00332646701 -0.00114959129 -9.0159745e-05 -0.000629491871
      -0.00023878715 -5.09659658e-05 -0.00770929037 -0.000178647329
      -0.000108972636 -0.000541414891 -0.00129209587 -0.000347909052
      -0.000879545812 -0.00128008111 -0.000334410201 2.14767122
      0.935497165 -0.0169552136 -0.00153437175 0.075867787
      -2.47810817e-06 -0.00721412571 2.47766995 -0.0178140067
      -0.0435102172 -0.00291309529 0.26485166 -0.00355231925
      -0.000626950117 -0.000349806651 -0.000568892749 2.6643579
      -0.00676005241 -3.67544271e-05 -2.51739148e-05 -2.09584214e-05
      -0.00348299765 -0.00140294305 -0.000582268345 3.44478583
      -0.00138370192 -6.97080759e-05 -3.09188817e-06 -0.000968194567
      -1.64757112e-05 1.38088012 3.22917819 -0.00124647934
      -8.39176937e-06 -4.01177147e-07 -0.000199188085 1.46715713
      -0.0290558208 -0.000462433673 0.0956777707 0.547410607
      -5.62746345e-06 -0.00560096232 -0.00474630995 -0.000361865677
      -0.00381297106 -0.00495539885 4.5084219 -0.0179033279
      -0.000584853697 -0.00999840163 -0.00428373786 -0.00189951947
      -5.1025283e-05 -0.00617567031 3.35280252 -1.06993934e-06
      -7.88139805e-05 -0.00088001875 3.59169555 -0.000104323466
      -2.71808349e-05 -0.000392843183 -0.00141256058 -0.00135261368
      -0.00114529917 -1.22064293e-05 -4.01412362e-05 -0.000659117359
      -7.87353542e-07 -1.78975483e-06 -0.000155875285 -3.54819022e-05
      -0.00677871378 -7.81625749e-06 -0.00474660425 -0.000637332909
      0.411061704 -0.0079884883 -0.00246358616 -0.0192374829
      -0.00975322723 -0.00286332215 0.100140333 0.257201999
      -7.5340351e-05 -6.1318482e-05 0.075171493 0.444058627 0.248512715
      -0.000182634234 0.376109272 -3.16145474e-06 0.465523481
      0.0410583988 -0.000227503988 0.606142044 -0.000582189939
      -0.00118281867 -2.39749406e-05 -0.000205285382 -3.52663619e-06
      -2.94026904e-06 0.0371871144 0.158940345 -0.00246375729
      -0.000345048698 -1.32456216e-06 -0.000110096335 -4.2790416e-06
      0.161875695 0.568003416 0.053268075 0.211051345 -0.00132435572
      0.0678153485 0.110170707 -3.18195634e-05 -0.000361480925
      0.0719453841 0.325619668 0.102053434 -0.000268384872 0.0934672654
      0.245175093 0.261046201 -0.00215525972 -0.0025868183
      -0.00228413171 0.344129086 -0.00118644396 -1.64008106e-05
      -0.00272056367 -0.0020373466 -0.00226573204 -0.00232568383
      -0.000126443643 -3.12595057e-06 -3.86969004e-05 -2.25734468e-07
      -4.64358436e-07 0.0793321878 0.188635051 -1.48377612e-05
      -1.86872439e-05 -0.000209194171 -0.000418753538 0.314459682
      -0.000150125663 -9.47604276e-05 0.263585865 -1.94188142e-05
      0.00963154063 -0.0001428877 -3.95933384e-05 -1.60991494e-05
      -3.06753791e-05 -1.92923089e-05 -0.000247722754 -2.36600636e-06
      -0.000107502696 0.0824396387 -0.00067689619 0.0444907695
      0.264595926 -1.59408808e-06 -0.000119958117 -3.5852031e-06
      -5.12941028e-07 -0.000193793734 -4.26300976e-05 0.302555889
      0.557276785 -2.44873572e-05 -0.000133515074 -9.13663534e-05
      -4.20354336e-05 -0.000481931784 0.00194857828 0.062556453
      -0.0002677913 -0.000190329272 -2.94869296e-05 -0.000232137623</_>
    <_>
      -0.188418582 -3.42206526 -0.00461240625 -0.0310926028
      -3.76095883e-08 -0.000185639437 -0.00954500493 -0.000295118778
      -0.00137494795 -2.1715166e-06 -1.14607583e-05 -2.44058413e-07
      -8.41335859e-05 -0.000267602154 -0.000177872163 4.91915464
      1.76312268 -0.00188778213 0.786237836 -0.000140214383
      -0.000797292858 -0.000556130894 -0.00309116696 0.118518412
      -1.10714354e-05 1.19563544 2.7778554 -1.18459875e-05
      -4.76416244e-05 -1.44519818e-05 -0.00148682424 -0.000160984782
      -0.00423061382 -0.00104847166 -9.1191534e-05 -0.000616377802
      -0.00021363383 -5.10902864e-05 -0.00709583703 -0.000193587271
      -0.000103440711 -0.000571129785 -0.00120824308 -0.000386211934
      -0.00215755147 -0.00139056996 -0.000312668941 2.02118468
      0.790056348 -0.0158392861 -0.00151124911 0.0320253819
      -2.72897773e-06 -0.00685971789 2.30908799 -0.0176427867
      -0.0400428474 -0.00270745275 0.359050006 -0.00329516828
      -0.000666373875 -0.00040501068 -0.000566473405 2.45006323
      -0.00604566513 -3.35433979e-05 -2.68797921e-05 -2.17086399e-05
      -0.00318498164 -0.00135168224 -0.000547030999 3.44624949
      -0.00126943865 -6.76908094e-05 -3.68055794e-06 -0.000934162177
      -1.66468508e-05 1.26849556 3.26285481 -0.00119655707
      -8.53920028e-06 -5.2930784e-07 -0.000196943525 1.38524461
      -0.0273458809 -0.000532323262 -5.43334318e-05 0.542026818
      -5.27738621e-06 -0.00539659197 -0.00439654151 -0.000359870523
      -0.00384926493 -0.00504880119 4.33970642 -0.0175114647
      -0.000585051253 -0.00956746563 -0.00400016503 -0.00179340749
      -5.34408464e-05 -0.00620764261 3.17746186 -1.13411204e-06
      -7.65912555e-05 -0.000899134844 3.47235489 -0.00010325417
      -2.67473788e-05 -0.000374625582 0.0088872388 -0.00135856471
      -0.000710072287 -1.26247451e-05 -4.80928866e-05 -0.000599860214
      -7.78342155e-07 -1.67035114e-06 -0.00015780759 -3.42106032e-05
      -0.00658957846 -7.23680114e-06 -0.00449076993 -0.000612486037
      0.269267589 -0.00774655631 -0.00253425562 -0.0184393134
      -0.00962311123 -0.00310288579 0.107676476 0.268224686
      -7.66608791e-05 -6.14072851e-05 0.0327773206 0.410129249
      0.220391795 -0.000176324393 0.375132889 -3.36139215e-06
      0.471544504 0.0101767853 -0.000221990456 0.619834125
      -0.000940032187 -0.000797172019 -2.39345754e-05 -0.000207780264
      -3.5979499e-06 -2.90704952e-06 0.0185913146 0.19121781
      -0.00297910348 -0.000130139699 -1.32540504e-06 -4.80701747e-05
      -4.28387602e-06 0.151866212 0.587496996 0.0360851213 0.189855397
      -0.00134244317 0.0439766198 0.0941124707 -3.18121311e-05
      -0.00036015443 0.0833825395 0.326866001 0.0827584714
      -0.000273817597 0.0979312882 0.225604534 0.296943516
      -0.00206146413 -0.00225073029 -0.00235752901 0.350800514
      -0.00113222608 -1.63421519e-05 -0.00271548075 -0.0018284875
      -0.00220610481 -0.00229891716 -0.000124218408 -3.15659258e-06
      0.0318663828 -2.24878164e-07 -4.633022e-07 0.0888498724
      0.232830837 -1.48393201e-05 -1.86888101e-05 -0.000209195539
      -0.000418594398 0.314408243 -0.000150130974 -9.47644294e-05
      0.26346916 -1.94202639e-05 0.00949172303 -0.000142891295
      -3.95957104e-05 -1.61003409e-05 -3.05771064e-05 -1.87490132e-05
      -0.000247702235 -4.66465917e-06 -0.000107487205 0.0823022276
      -0.000676585652 0.0448478758 0.264526308 -1.59337128e-06
      -0.000119962911 -3.58590273e-06 -5.07012601e-07 -0.000193785483
      -4.34994326e-05 0.301998079 0.556800842 -2.44894891e-05
      -0.000129193431 -9.13720942e-05 -4.20377546e-05 -0.000481754309
      0.00184165873 0.0625079721 -0.000267738651 -0.000190330946
      -2.94884994e-05 -0.000231625731</_>
    <_>
      -0.182302192 -2.87455988 -0.00476440648 -0.0312738754
      -4.28256293e-08 -0.000174712652 -0.00969158206 -0.000342180283
      -0.00140155898 -2.3889495e-06 -1.23336222e-05 -2.54139934e-07
      -8.341379e-05 -0.00026471584 -0.000175006426 4.99909925 1.27823603
      -0.00201761816 1.20068884 -0.000138383766 -0.000819384411
      -0.000567790528 -0.00330087636 0.0229617022 -1.17372647e-05
      0.763699174 2.32472706 -1.14697368e-05 -4.70565792e-05
      -1.49879997e-05 0.00418109819 -0.000165607402 -0.00658719707
      -0.00100201566 -9.08696602e-05 -0.000645269116 -0.000217146604
      -5.10537211e-05 -0.00726815127 -0.000194481196 -0.000113868271
      -0.000586096023 -0.00122244144 -0.000376380194 -0.00241980143
      -0.00152843131 -0.000326236623 2.44631577 0.709887505
      -0.0166096669 -0.00151979702 0.0343541279 -2.96051348e-06
      -0.00734684616 2.34180856 -0.0174217783 -0.0414190218
      -0.00270928931 0.33854118 -0.00346312765 -0.00071201392
      -0.000467653677 -0.000640646496 2.10199308 -0.0104044629
      -3.43497231e-05 -2.92302902e-05 -2.14945303e-05 -0.00333340792
      -0.00128394889 -0.000578569132 3.50839376 -0.001333097
      -7.4767202e-05 -3.7149473e-06 -0.000926180161 -1.663068e-05
      0.805177748 3.36374402 -0.00130400388 -8.64108279e-06
      -5.47661216e-07 -0.000233117287 1.35680616 -0.0263582245
      -0.000529851881 -0.000940140337 0.547975779 -5.53662721e-06
      -0.00575812766 -0.00477481401 -0.000364223873 -0.00410655327
      -0.00524048693 3.63226748 -0.0170596968 -0.00060603075
      -0.00864723325 -0.00428140117 -0.0018208056 -5.41950249e-05
      -0.00632376643 2.72658324 -1.18171579e-06 -8.08032783e-05
      -0.000899526407 3.75716949 -0.00010315526 -2.70945857e-05
      -0.000372425304 0.0400632843 -0.00143522606 0.0111301932
      -1.33953872e-05 -5.08746307e-05 -0.000604003377 -7.60121452e-07
      -1.76486321e-06 -0.000151812317 -3.61682614e-05 -0.00641028257
      -7.14425869e-06 -0.00486372644 -0.000572838413 -0.0015325913
      -0.00815996435 -0.00236650766 -0.0183563828 -0.0128906369
      -0.00291018677 0.0882845894 0.284530967 -7.52619671e-05
      -5.72115787e-05 0.0568906516 0.439974964 0.201705694
      -0.000178898219 0.396658123 -3.21800349e-06 0.492658079
      0.0339894071 -0.000224113275 0.620539725 -0.000610841438
      -0.00119868724 -2.41324306e-05 -0.000205434058 -3.54492863e-06
      -2.9235598e-06 0.0163917765 0.196831107 -0.00274451775
      -0.000155235932 -1.33690287e-06 -0.000201802992 -4.29998863e-06
      0.181726903 0.561365068 0.0588919595 0.21551317 -0.00127375347
      0.0210883766 0.12818566 -3.11045442e-05 -0.000355680531
      0.0992521793 0.336491197 0.0977563486 -0.000265935145 0.0852031037
      0.213256657 0.259105921 -0.00213841931 -0.00236610277
      -0.00257055578 0.370907485 -0.00113522552 -1.66166483e-05
      -0.00267612562 -0.0020940078 -0.00205796142 -0.00231846562
      -0.000124444661 -3.15827219e-06 0.00348979607 -2.20641923e-07
      -4.69551793e-07 0.0656652376 0.190164879 -1.48397185e-05
      -1.86891848e-05 -0.000209196878 -0.000418551936 0.314371526
      -0.000150132357 -9.47654262e-05 0.263428718 -1.94206241e-05
      0.00946855173 -0.000142892255 -3.95962961e-05 -1.61006319e-05
      -3.03170073e-05 -1.84570254e-05 -0.000247699034 -4.75365641e-06
      -0.000107483225 0.0822772384 -0.000676513533 0.044899065
      0.264489532 -1.59315073e-06 -0.000119964163 -3.58608486e-06
      -5.05064975e-07 -0.000193784566 -4.33583918e-05 0.301893979
      0.556685328 -2.44900129e-05 -0.000128407846 -9.13735203e-05
      -4.20383185e-05 -0.0004817179 0.00182388909 0.0624934062
      -0.000267727184 -0.000190332212 -2.94888923e-05 -0.000231522092</_>
    <_>
      -0.0312180631 -3.00367403 -0.00478183944 -0.033682853
      -4.16375592e-08 -0.000177806607 -0.00977602787 -0.000342198822
      -0.00143177283 -2.39064252e-06 -1.2342437e-05 -2.56338097e-07
      -8.35009487e-05 -0.000265379698 -0.000174584871 5.25203562
      1.27304399 -0.00200369186 1.22806334 -0.000140101576
      -0.000831283629 -0.000574617181 -0.00330644473 0.0373825952
      -1.16423771e-05 0.738643229 2.34903979 -1.14715158e-05
      -4.69774168e-05 -1.47270603e-05 0.00220159814 -0.000166600963
      -0.0067282659 -0.00101003936 -9.06665591e-05 -0.000652516086
      -0.000219891212 -5.07923105e-05 -0.00744217029 -0.000189164581
      -0.000114619477 -0.000588959956 -0.0012248006 -0.000368661975
      -0.00217899773 -0.00152786146 -0.000322335516 2.53029728
      0.646593451 -0.0173290595 -0.00151545601 0.0458419435
      -2.98711666e-06 -0.00736112753 2.55195427 -0.0176692996
      -0.0437129326 -0.00274589029 0.346742868 -0.00348831178
      -0.000698082673 -0.000435804483 -0.000643476378 2.12961698
      -0.0111895455 -3.49460424e-05 -2.83682693e-05 -2.15124619e-05
      -0.00335973315 -0.00130098977 -0.000587253482 3.59880114
      -0.00135196652 -7.43664859e-05 -3.73410762e-06 -0.000940282422
      -1.66201535e-05 0.807874739 3.49149156 -0.00130473659
      -8.63527566e-06 -5.09707775e-07 -0.000232756807 1.52817726
      -0.0289950911 -0.000538786815 -0.00123741862 0.529777884
      -5.61756815e-06 -0.00573229138 -0.00485709216 -0.000365169893
      -0.00411933009 -0.00525961025 3.65022659 -0.017249383
      -0.000597686681 -0.0099395616 -0.00429481547 -0.0018294903
      -5.31708756e-05 -0.00630973559 2.7347784 -1.17051184e-06
      -8.14214727e-05 -0.000904721732 3.91142273 -0.000103997641
      -2.7066706e-05 -0.000375356991 0.033868514 -0.00145012722
      0.0343322083 -1.33330286e-05 -4.75991874e-05 -0.00059558975
      -7.49066203e-07 -1.73799162e-06 -0.000148485386 -3.59768783e-05
      -0.00641787518 -7.1453469e-06 -0.00497572171 -0.000567427778
      -0.00162857526 -0.00824915804 -0.00239177328 -0.0184200872
      -0.0136289354 -0.00291696517 0.0980504155 0.287024885
      -7.57407688e-05 -5.8589314e-05 0.041440215 0.441606611 0.20937632
      -0.000178181377 0.406736404 -3.23138693e-06 0.497591436
      0.0312278494 -0.00022479071 0.624023199 -0.000779242895
      -0.00114339613 -2.3938157e-05 -0.000206350116 -3.54340386e-06
      -2.88764704e-06 0.0261518657 0.194421902 -0.00272821216
      -7.43517667e-05 -1.32108278e-06 -0.000263911264 -4.25519602e-06
      0.176404536 0.576413035 0.0510498919 0.217615426 -0.00130475534
      0.0227887183 0.12891306 -3.13675991e-05 -0.00036085493
      0.0976037383 0.343120217 0.0971435905 -0.000269901415 0.0894519761
      0.220349878 0.268362582 -0.002187629 -0.00240990799 -0.00250518671
      0.36775279 -0.0011586874 -1.64948815e-05 -0.00273853634
      -0.002065351 -0.00207501533 -0.00235490547 -0.000124613784
      -3.13117857e-06 0.0240336247 -2.20024091e-07 -4.62938061e-07
      0.0667359531 0.202792153 -1.48397185e-05 -1.86891848e-05
      -0.000209196878 -0.000418551936 0.314371526 -0.000150132357
      -9.47654262e-05 0.263428718 -1.94206241e-05 0.00946855173
      -0.000142892255 -3.95962961e-05 -1.61006319e-05 -3.03170073e-05
      -1.84570254e-05 -0.000247699034 -4.75365641e-06 -0.000107483225
      0.0822772384 -0.000676513533 0.044899065 0.264489532
      -1.59315073e-06 -0.000119964163 -3.58608486e-06 -5.05064975e-07
      -0.000193784566 -4.33583918e-05 0.301893979 0.556685328
      -2.44900129e-05 -0.000128407846 -9.13735203e-05 -4.20383185e-05
      -0.0004817179 0.00182388909 0.0624934062 -0.000267727184
      -0.000190332212 -2.94888923e-05 -0.000231522092</_>
    <_>
      -0.0106874816 -3.15223002 -0.00467722211 -0.0321363434
      -4.02849309e-08 -0.000177847818 -0.00950698368 -0.0003269226
      -0.00145927863 -2.1374367e-06 -1.18350599e-05 -2.53964089e-07
      -8.04080337e-05 -0.000257384672 -0.000169713603 5.03868151
      1.29223454 -0.00193937414 1.29120433 -0.000138528398
      -0.000812314858 -0.000567596231 -0.00323751057 0.0205162615
      -1.10722867e-05 0.793352187 2.34230161 -1.12020389e-05
      -4.64104378e-05 -1.44529122e-05 0.160305396 -0.000165748032
      -0.00592473615 -0.000970216235 -8.80462758e-05 -0.000640471408
      -0.00021926123 -4.83551521e-05 -0.00729811843 -0.000180046074
      -0.000112939771 -0.000592005788 -0.00116310269 -0.000385033258
      -0.00210876227 -0.00148282072 -0.000314462639 2.48336458
      0.678847194 -0.0165497158 -0.00143411022 0.0153350364
      -2.83200166e-06 -0.00713465922 2.47129321 -0.0177421793
      -0.0413490012 -0.00267407182 0.394327372 -0.00340035162
      -0.000665029918 -0.000412501948 -0.000616033154 2.13109422
      -0.0102527924 -3.53048927e-05 -2.72428915e-05 -2.06874047e-05
      -0.00329931919 -0.00128858374 -0.00058024592 3.57319808
      -0.00131689489 -7.25682694e-05 -3.71870374e-06 -0.000933237199
      -1.63893255e-05 0.858288229 3.26046085 -0.00127844035
      -8.3421528e-06 -4.87298792e-07 -0.000225865355 1.562289
      -0.0278014895 -0.000533120357 -0.000798135821 0.502118886
      -5.37766527e-06 -0.00551513908 -0.00469622202 -0.000351881084
      -0.0040813298 -0.00527562667 3.6684978 -0.0170649141
      -0.000583827612 -0.00930240098 -0.0041768048 -0.00181395561
      -4.98777372e-05 -0.00610720599 2.76044154 -1.1170057e-06
      -7.92240317e-05 -0.000899603358 3.91810513 -9.87429958e-05
      -2.69571174e-05 -0.000357472338 0.207034081 -0.00141933572
      0.0299548823 -1.324594e-05 -4.60875344e-05 -0.000561802241
      -6.90420791e-07 -1.639017e-06 -0.000145249811 -3.53023934e-05
      -0.00621924037 -6.91806008e-06 -0.00485769659 -0.000536400999
      -0.0013251513 -0.0080361953 -0.00238234224 -0.0179983862
      -0.0128430948 -0.00290956302 0.101487681 0.291827708
      -7.60491093e-05 -5.69176118e-05 0.0476551615 0.429857016
      0.20078066 -0.000173701497 0.415417284 -3.27333646e-06 0.511057317
      0.0401167795 -0.000224720192 0.650486887 -0.00107216754
      -0.000912556308 -2.38587745e-05 -0.000206441124 -3.52154598e-06
      -2.84388079e-06 0.0349010304 0.221231773 -0.00295056542
      0.0282405354 -1.31410081e-06 -0.00023439675 -4.22053563e-06
      0.1743159 0.597813725 0.0429647975 0.212409437 -0.00128991553
      0.0108511448 0.13842842 -3.11011972e-05 -0.000359173107
      0.130247459 0.36994642 0.0677883029 -0.00026949789 0.0978058726
      0.2110008 0.261739463 -0.00219568447 -0.00227062125 -0.00254001981
      0.3798787 -0.00114100892 -1.65112997e-05 -0.00277031143
      -0.00160251558 -0.00198971876 -0.0023932457 -0.00012426365
      -3.11841882e-06 0.0385965779 -2.16293003e-07 -4.59861639e-07
      0.078459695 0.229044363 -1.48397185e-05 -1.86891848e-05
      -0.000209196878 -0.000418551936 0.314371526 -0.000150132357
      -9.47654262e-05 0.263428718 -1.94206241e-05 0.00946855173
      -0.000142892255 -3.95962961e-05 -1.61006319e-05 -3.03170073e-05
      -1.84570254e-05 -0.000247699034 -4.75365641e-06 -0.000107483225
      0.0822772384 -0.000676513533 0.044899065 0.264489532
      -1.59315073e-06 -0.000119964163 -3.58608486e-06 -5.05064975e-07
      -0.000193784566 -4.33583918e-05 0.301893979 0.556685328
      -2.44900129e-05 -0.000128407846 -9.13735203e-05 -4.20383185e-05
      -0.0004817179 0.00182388909 0.0624934062 -0.000267727184
      -0.000190332212 -2.94888923e-05 -0.000231522092</_>
    <_>
      0.118262812 -3.42874146 -0.00485284626 -0.0385857634
      -3.73431313e-08 -0.000191729108 -0.00993266981 -0.000301236956
      -0.00152602128 -2.102812e-06 -1.17622276e-05 -2.66689227e-07
      -8.51173754e-05 -0.000272453792 -0.000180291041 5.59789991
      1.6372906 -0.00195197447 1.05806935 -0.000144177349 -0.00082624791
      -0.000584902125 -0.00325346342 0.13570562 -1.06326543e-05
      1.01469767 2.73089671 -1.13488804e-05 -4.92060317e-05
      -1.41938153e-05 -0.00125631422 -0.000169480118 -0.00445369165
      -0.00107751251 -9.07489666e-05 -0.000659033889 -0.00022016924
      -5.00015631e-05 -0.00799370557 -0.00017688662 -0.000111643029
      -0.000593860575 -0.00122087786 -0.000375407399 -0.00137198099
      -0.00145189615 -0.000328127848 2.48635721 0.611840248
      -0.0182716679 -0.00149817951 0.0432821512 -2.74930835e-06
      -0.00716959266 2.80682325 -0.0184788741 -0.0461613014
      -0.00284024258 0.223689288 -0.00350453239 -0.000681204547
      -0.000346956891 -0.000578566454 2.44467807 -0.00949386787
      -3.52080278e-05 -2.52018581e-05 -2.18060359e-05 -0.00335172308
      -0.00140610756 -0.000565462222 3.85019231 -0.00133792567
      -7.13006375e-05 -3.61202478e-06 -0.000981979072 -1.68798215e-05
      1.18134773 3.74344754 -0.00124989043 -8.50506967e-06
      -4.13065067e-07 -0.000211084553 1.8133719 -0.0341787152
      -0.000561483961 -0.00140204199 0.346659243 -5.68908217e-06
      -0.00548772421 -0.00478431908 -0.00036346764 -0.00406002672
      -0.00535889668 4.22626209 -0.0179094542 -0.000573119905
      -0.0123396264 -0.0041995924 -0.00187430158 -4.94151354e-05
      -0.0059688976 3.15071321 -1.07561937e-06 -7.54819703e-05
      -0.000944972213 4.04474449 -0.000104138693 -2.72360576e-05
      -0.000383927691 -0.000389636232 -0.00140220579 0.000160912052
      -1.24320613e-05 -3.97074837e-05 -0.000575591112 -6.76626996e-07
      -1.64411313e-06 -0.00015095342 -3.56025448e-05 -0.0067186961
      -7.40320274e-06 -0.00493512396 -0.000596642669 0.140088215
      -0.00801629387 -0.00256398413 -0.01922841 -0.0124984067
      -0.00302630966 0.121969119 0.313136935 -7.89725455e-05
      -5.64415277e-05 -0.000157931892 0.3766357 0.176072434
      -0.000163883975 0.425212801 -3.62600667e-06 0.53206557
      0.0322813615 -0.000222847826 0.680481315 -0.00204927195
      -1.27819176e-05 -2.31055965e-05 -0.000212759551 -3.59440332e-06
      -2.67427185e-06 0.0254959241 0.250643253 -0.00386649207
      0.0584168993 -1.25531858e-06 0.00201492757 -4.04215189e-06
      0.144853309 0.681309044 -0.000265409879 0.158772618 -0.00128993078
      -9.31043905e-05 0.139544427 -3.11702934e-05 -0.000369515474
      0.1318679 0.366835982 0.0548833124 -0.000283082947 0.103236876
      0.204439223 0.342950433 -0.0023666569 -0.00208180677
      -0.00234139292 0.401778817 -0.00116874732 -1.60146974e-05
      -0.00297919894 -0.000826153497 -0.00225584349 -0.00251304987
      -0.000124371509 -3.0453491e-06 0.103570797 -2.05175766e-07
      -4.34294776e-07 0.0920543224 0.322867572 -1.4839894e-05
      -1.86893994e-05 -0.000209195539 -0.00041853654 0.314400911
      -0.00015013291 -9.47659064e-05 0.263431191 -1.94208042e-05
      0.00943379849 -0.00014289259 -3.95965944e-05 -1.61007883e-05
      -3.06560105e-05 -1.86230991e-05 -0.000247693679 -5.76052798e-06
      -0.000107481479 0.0822463781 -0.000676467607 0.044999782
      0.264509946 -1.59312549e-06 -0.000119964672 -3.58615944e-06
      -5.050411e-07 -0.000193781831 -4.3999662e-05 0.301772803
      0.55662185 -2.44902876e-05 -0.00012743719 -9.13742479e-05
      -4.20386241e-05 -0.00048168443 0.0017973911 0.0624910854
      -0.000267718278 -0.000190331164 -2.94890833e-05 -0.000231423022</_>
    <_>
      0.0969361514 -3.1041441 -0.00481639476 -0.0377923213
      -4.01921803e-08 -0.000178331655 -0.00965588726 -0.000324896479
      -0.00150126638 -2.13806493e-06 -1.17689096e-05 -2.61569284e-07
      -8.09746998e-05 -0.000271973229 -0.000171832638 5.53772116
      1.31186783 -0.00198887149 1.23769355 -0.000141288619
      -0.000811205013 -0.000584232796 -0.00330616464 0.0158103481
      -1.08891081e-05 0.767952859 2.41405749 -1.10747787e-05
      -4.77405592e-05 -1.47299625e-05 0.0134757645 -0.000166656464
      -0.0058134771 -0.00101053214 -8.79355212e-05 -0.000661726634
      -0.000211348568 -4.85155724e-05 -0.00776910456 -0.000173775872
      -0.000115481227 -0.000585895556 -0.00118410506 -0.000367850065
      -0.00177735975 -0.00152571744 -0.000332362717 2.55362511
      0.65148294 -0.0178279262 -0.00144274777 0.00436445698
      -3.00616534e-06 -0.00731957238 2.74150229 -0.0179580282
      -0.0472438522 -0.00271021132 0.242434919 -0.0035069685
      -0.000705031794 -0.000367198285 -0.00061242294 2.16241097
      -0.0121048782 -3.48273425e-05 -2.5817244e-05 -2.17588458e-05
      -0.00342317787 -0.0013437015 -0.000582851411 3.74362659
      -0.00133571948 -7.36647198e-05 -3.81697737e-06 -0.000989334658
      -1.71429165e-05 0.879837215 3.76865125 -0.00127138523
      -8.61669378e-06 -4.00782369e-07 -0.000223230178 1.82848978
      -0.0334791504 -0.000583924062 -0.00149781979 0.205474153
      -5.73315356e-06 -0.00540246489 -0.00492273504 -0.000354213553
      -0.00408043806 -0.00542126829 3.79330611 -0.017254984
      -0.000565978407 -0.010917753 -0.00418073963 -0.00182374485
      -4.80217168e-05 -0.00574330194 2.81606412 -1.05055813e-06
      -7.9759302e-05 -0.000934941869 4.05042315 -9.94194343e-05
      -2.74584436e-05 -0.000371818023 0.0225580111 -0.00143022044
      0.0471394286 -1.36475073e-05 -3.94603048e-05 -0.000561457069
      -6.22649793e-07 -1.74817467e-06 -0.00014032422 -3.55753327e-05
      -0.00647698995 -6.97583982e-06 -0.0049959491 -0.000555382459
      -0.00115261064 -0.00781477336 -0.00242366036 -0.018580351
      -0.0140506718 -0.00292179082 0.146504581 0.27946505
      -8.21122667e-05 -5.87327595e-05 -0.00103345222 0.284650475
      0.160873279 -0.000157888047 0.430694878 -3.99997953e-06
      0.522543132 0.0523792282 -0.000218175017 0.632018566
      -0.00290678325 0.0797811002 -2.2865881e-05 -0.000215446504
      -3.69622239e-06 -2.61752825e-06 -0.000369645568 0.26676318
      -0.00416929461 0.0657904595 -1.2340987e-06 0.0335750803
      -3.99719966e-06 0.130614921 0.728305399 -0.00114123966
      0.0996315926 -0.00123197399 -0.000510424783 0.0971905738
      -3.30804942e-05 -0.000379189994 0.0690315366 0.290902942
      0.0834603459 -0.000293336401 0.0678455308 0.188460439 0.445627481
      -0.00213586632 -0.00182892359 -0.0019537257 0.388100922
      -0.0011525898 -1.56834158e-05 -0.00303464709 -0.000282970897
      -0.00252520968 -0.0025014882 -0.000122675774 -3.07673486e-06
      0.153546512 -2.07167901e-07 -4.23632741e-07 0.0991249233
      0.371850252 -1.4836116e-05 -1.86856305e-05 -0.000209191101
      -0.000418924523 0.314552009 -0.000150120017 -9.47562512e-05
      0.263726532 -1.9417299e-05 0.00975942239 -0.00014288383
      -3.95908646e-05 -1.60979107e-05 -3.11601907e-05 -2.01161201e-05
      -0.000247741089 -7.34701757e-07 -0.000107519139 0.0825689882
      -0.000677212258 0.0441768765 0.264700085 -1.59490367e-06
      -0.000119953023 -3.58445914e-06 -5.19894513e-07 -0.000193800501
      -4.22957164e-05 0.303084791 0.557770729 -2.44851362e-05
      -0.000137581592 -9.13603653e-05 -4.20330325e-05 -0.00048210466
      0.00204646029 0.062611416 -0.000267843745 -0.000190326144
      -2.94852871e-05 -0.000232635764</_>
    <_>
      0.112141177 -3.40271473 -0.00551617611 -0.0423104279
      -4.15669135e-08 -0.000204931872 -0.0110240076 -0.000367374887
      -0.00158732571 -2.62848221e-06 -1.31631068e-05 -2.92142175e-07
      -9.46358414e-05 -0.000295642414 -0.000201205898 6.22499323
      1.66507745 -0.00224252488 1.06985676 -0.00016143026
      -0.000907491136 -0.000683891762 -0.00373069965 0.0869796574
      -1.22029505e-05 0.963693857 2.8497889 -1.1944122e-05
      -5.12446277e-05 -1.56625829e-05 -0.00499111833 -0.000182282791
      -0.00666588545 -0.00120642351 -9.9700279e-05 -0.00072681962
      -0.000231279657 -5.70628545e-05 -0.00971032027 -0.000204564698
      -0.000123127626 -0.000631918607 -0.00143697229 -0.000362735911
      -0.00117755064 -0.00152631907 -0.000377040502 2.63015842
      0.712888956 -0.0208674334 -0.00173780695 0.0409412719
      -3.09643906e-06 -0.00802040845 2.92791271 -0.01990919
      -0.0550701991 -0.00319112767 0.162114382 -0.00404164009
      -0.000736711139 -0.000384378305 -0.000685442355 2.54863143
      -0.0123280864 -3.61960338e-05 -2.79355609e-05 -2.41902508e-05
      -0.00384363369 -0.00158535072 -0.000608995266 3.98834634
      -0.00152081205 -8.26879404e-05 -4.29906095e-06 -0.00105918164
      -1.81666601e-05 1.19159496 4.27317142 -0.00140746532 -9.643667e-06
      -4.44398637e-07 -0.000248328404 1.9418298 -0.03726485
      -0.000615881465 -0.00227810536 0.0980286151 -6.84503448e-06
      -0.00607109722 -0.00522221718 -0.000417773786 -0.00442994805
      -0.00559252175 4.34970093 -0.0195616055 -0.000606734306
      -0.0132744098 -0.00478266086 -0.00205612183 -5.66204253e-05
      -0.00663582841 3.26624274 -1.15226715e-06 -8.93308825e-05
      -0.00101174496 4.1148572 -0.000120142577 -2.96443977e-05
      -0.000445598067 -0.00322631025 -0.00159525103 0.0584929138
      -1.480437e-05 -4.25027392e-05 -0.000688331551 -6.74792091e-07
      -2.07312246e-06 -0.000162425727 -3.99257624e-05 -0.00747742038
      -8.27941312e-06 -0.00544180302 -0.00069644727 0.0789668187
      -0.00842375774 -0.00294480682 -0.0202239715 -0.0140407048
      -0.00311101973 0.153825358 0.275754958 -8.19657143e-05
      -5.98374609e-05 -0.000900784682 0.262998283 0.156453565
      -0.00015599122 0.414557338 -3.99796681e-06 0.515850902
      0.0441943482 -0.000219965019 0.645783305 -0.00302534178
      0.105364323 -2.27435721e-05 -0.000216902379 -3.67998132e-06
      -2.58518708e-06 -0.000323024899 0.252664417 -0.00441362895
      0.0654191673 -1.21907169e-06 0.0464012548 -3.95509687e-06
      0.12628454 0.751976609 -0.00122995779 0.0951332301 -0.0012474329
      -0.000445097219 0.0849457979 -3.2557582e-05 -0.000379851204
      0.0750501528 0.286738217 0.074241519 -0.000298863219 0.0670210719
      0.201560438 0.465944886 -0.00223968062 -0.00193972269
      -0.00200524693 0.383670807 -0.00116697326 -1.55213984e-05
      -0.0030904531 -0.000241990463 -0.0026065181 -0.00251590833
      -0.000122633282 -3.04107198e-06 0.154324681 -2.06327414e-07
      -4.17143724e-07 0.110111542 0.406076312 -1.48372965e-05
      -1.86868238e-05 -0.000209191843 -0.00041880444 0.314519674
      -0.000150124019 -9.4759278e-05 0.26364091 -1.94184013e-05
      0.00964974239 -0.000142886536 -3.95926691e-05 -1.60988202e-05
      -3.11507283e-05 -1.97459758e-05 -0.000247724995 -2.61951232e-06
      -0.000107507374 0.0824617743 -0.000676975062 0.0444593057
      0.264652669 -1.59437172e-06 -0.000119956647 -3.58498846e-06
      -5.1552604e-07 -0.000193793894 -4.30570908e-05 0.302650541
      0.557407856 -2.44867606e-05 -0.000134210364 -9.13647382e-05
      -4.20347969e-05 -0.000481967727 0.001962604 0.0625751764
      -0.000267803291 -0.000190327206 -2.94864803e-05 -0.000232239661</_>
    <_>
      0.0516154058 -3.38805985 -0.00586243253 -0.0453215018
      -4.25837676e-08 -0.000214501619 -0.0116093056 -0.000397671742
      -0.00165039802 -3.30566877e-06 -1.41028231e-05 -3.1767226e-07
      -0.000104934377 -0.000299381092 -0.000211167673 6.56338978
      1.71567583 -0.00236668601 1.0797509 -0.000167405393 -0.00097920734
      -0.000707775936 -0.00401045894 0.146251172 -1.41470146e-05
      0.950940251 2.94418502 -1.16851652e-05 -5.64991933e-05
      -1.61771877e-05 -0.00770271895 -0.0001868041 -0.00687027676
      -0.00128778978 -0.000103790146 -0.000750512641 -0.000246865529
      -6.45388427e-05 -0.0123706739 -0.00021900452 -0.0001327387
      -0.000617483922 -0.00158249051 -0.000353071315 -0.000984594226
      -0.00155127631 -0.000425317849 2.66632557 0.709996939
      -0.0242813397 -0.00187671615 0.0789023489 -3.13268561e-06
      -0.00825663377 2.92504358 -0.0203998853 -0.0609916821
      -0.00338236382 -0.000726938481 -0.00431638816 -0.000737860682
      -0.000366843189 -0.000755566405 2.70780516 -0.0130466623
      -3.57115823e-05 -2.93715802e-05 -2.76312621e-05 -0.00402807212
      -0.00165910297 -0.00058339705 4.04605818 -0.00165685033
      -8.88787254e-05 -3.82569078e-06 -0.00103577564 -1.79329909e-05
      1.29961073 4.45767975 -0.00150390738 -1.02667109e-05
      -5.37370681e-07 -0.000260913541 1.90375662 -0.0394719988
      -0.00058384781 -0.00332725397 0.0272016302 -7.39986808e-06
      -0.00637585483 -0.0051772045 -0.000439622847 -0.00453265896
      -0.0053721997 4.34947491 -0.0200516433 -0.000651224516
      -0.0151718613 -0.00513061928 -0.00220488221 -6.56016637e-05
      -0.00691103935 3.30672002 -1.29820125e-06 -9.82990168e-05
      -0.000997069874 4.14239073 -0.000133907582 -3.07505179e-05
      -0.000484160759 -0.00869522151 -0.00168430945 0.069438234
      -1.49455618e-05 -4.38317074e-05 -0.000764060474 -7.21624076e-07
      -2.24858877e-06 -0.000168875224 -4.17427e-05 -0.00773629639
      -9.14676821e-06 -0.00565242767 -0.000756920548 0.21582216
      -0.00878256466 -0.00320801139 -0.0207224414 -0.0142324353
      -0.00282196072 0.166948125 0.249056429 -8.42627705e-05
      -5.66441413e-05 -0.00110674056 0.248871237 0.190165564
      -0.000156144146 0.453066796 -4.13433327e-06 0.508164585
      0.106181286 -0.000208729514 0.637103796 -0.0031618434 0.137199178
      -2.28635363e-05 -0.00021299794 -3.64146354e-06 -2.58526325e-06
      -0.000343402993 0.25200066 -0.00449421024 0.0980602801
      -1.21086362e-06 0.0351411924 -3.9506408e-06 0.113699809
      0.774050295 -0.00124581147 0.0625846237 -0.0011779106
      -0.000878791616 0.135108218 -3.38977443e-05 -0.000392907357
      0.0660769567 0.290225923 0.0843219906 -0.000281270593 0.109902352
      0.169364631 0.482240826 -0.00201985985 -0.000967355212
      -0.00163521199 0.377241492 -0.00115878484 -1.54352747e-05
      -0.00314569892 0.0531067029 -0.00298266951 -0.00259629847
      -0.000124638333 -3.08356016e-06 0.182625994 -1.98348161e-07
      -4.14512016e-07 0.101647101 0.419292182 -1.4833181e-05
      -1.86827492e-05 -0.000209185644 -0.000419229618 0.314715981
      -0.000150109918 -9.47487788e-05 0.263977051 -1.9414596e-05
      0.00998796895 -0.000142876917 -3.95864517e-05 -1.60957024e-05
      -3.20167819e-05 -2.15800846e-05 -0.000247773889 0.000219207257
      -0.000107548469 0.0828000382 -0.000677776465 0.0436156169
      0.264885306 -1.59635817e-06 -0.000119943921 -3.58313196e-06
      -5.32286322e-07 -0.000193812622 -4.16867806e-05 0.304029584
      0.558652103 -2.44811781e-05 -0.000144845908 -9.13496842e-05
      -4.20287433e-05 -0.000482413539 0.00222139992 0.0627093613
      -0.000267937372 -0.000190320585 -2.94823567e-05 -0.000233525425</_>
    <_>
      0.257876098 -4.33296013 -0.00606558193 -0.0493704416
      -4.33037322e-08 -0.000225662428 -0.0122648533 -0.000383909472
      -0.00170777878 -3.15716579e-06 -1.44702226e-05 -3.16275646e-07
      -0.000109567736 -0.000328346418 -0.000222747447 7.1427331
      2.26240802 -0.00244802563 0.598268092 -0.000178820861
      -0.000999751035 -0.000753529195 -0.00410321355 0.196525902
      -1.4195678e-05 1.36636138 3.553725 -1.26256964e-05 -5.87844661e-05
      -1.74030793e-05 -0.0100547392 -0.000197355941 -0.00578480726
      -0.00138713373 -0.000108416243 -0.000771332765 -0.00024636439
      -6.75207193e-05 -0.0118291732 -0.000239836052 -0.000125438964
      -0.000674261886 -0.00164147548 -0.00037724807 -0.00122168032
      -0.00159647397 -0.00043915867 2.40777326 0.712077975 -0.0240173098
      -0.00198743609 0.0562923774 -3.29117597e-06 -0.00859903824
      3.35286617 -0.0222187154 -0.0624895804 -0.00356537267
      -0.000598714862 -0.0044634887 -0.000798637629 -0.000369659159
      -0.000742003031 3.15747738 -0.0104012536 -3.6946054e-05
      -3.04345358e-05 -2.8646853e-05 -0.00411306228 -0.0018173845
      -0.000601263018 4.42890263 -0.0016575522 -8.93483593e-05
      -4.57046826e-06 -0.00108361663 -2.0352707e-05 1.7972101 4.90902233
      -0.00152518449 -1.1187275e-05 -5.2540662e-07 -0.000252004858
      2.16604972 -0.0441246219 -0.00065497309 -0.00389290135
      0.00124200433 -7.5081939e-06 -0.00663918955 -0.0055042156
      -0.000472009357 -0.00477788504 -0.00573998131 5.34262753
      -0.022198746 -0.000658477598 -0.0170191955 -0.0052743447
      -0.00228205859 -6.58152858e-05 -0.00754513079 3.9957211
      -1.30017213e-06 -9.92917703e-05 -0.00105402456 4.2009387
      -0.000134688613 -3.21301486e-05 -0.000510968501 -0.00735400757
      -0.00171860412 0.00348053314 -1.57269969e-05 -4.64758959e-05
      -0.000766904617 -7.71690679e-07 -2.35845891e-06 -0.000184660574
      -4.35801157e-05 -0.00848578196 -9.4936704e-06 -0.00593846198
      -0.000811124861 0.506697297 -0.0090075871 -0.00351839466
      -0.0218930636 -0.0126188844 -0.00347211096 0.19116044 0.204726607
      -8.6777909e-05 -5.86806163e-05 -0.000860962085 0.090628095
      0.160921156 -0.000147779472 0.412801832 -4.46424065e-06
      0.440054893 0.101113819 -0.000207393503 0.609440744 -0.00390910544
      0.252960473 -2.2821785e-05 -0.000219462876 -3.65595065e-06
      -2.55018472e-06 -0.000384307583 0.204743132 -0.00488484651
      0.147591367 -1.17981665e-06 0.146890491 -3.87552518e-06
      0.0795005634 0.840361178 -0.00204456202 0.0141472211
      -0.00105173828 -0.00116707303 0.114542738 -3.5391884e-05
      -0.000392706279 0.0460453108 0.18796666 0.0371914953
      -0.000291544275 0.064085409 0.201802373 0.569798946 -0.00226224796
      -0.000560079701 -0.00144084182 0.340891361 -0.00118745212
      -1.48063928e-05 -0.00321532064 0.0962910876 -0.00342053408
      -0.00255093514 -0.000126440631 -3.12146199e-06 0.210383415
      -1.96108132e-07 -3.99607217e-07 0.127077937 0.478467852
      -1.48336158e-05 -1.86832331e-05 -0.000209184203 -0.000419188436
      0.314744651 -0.000150111344 -9.47499357e-05 0.26396364
      -1.94150234e-05 0.00992576405 -0.000142877834 -3.95871502e-05
      -1.60960608e-05 -3.24174762e-05 -2.17065208e-05 -0.000247764459
      6.36745244e-05 -0.000107544147 0.0827429146 -0.00067767658
      0.0437891334 0.264900446 -1.5962263e-06 -0.000119945216
      -3.58332204e-06 -5.31421392e-07 -0.000193808111 -4.25935141e-05
      0.303802729 0.558507442 -2.44818129e-05 -0.000143049576
      -9.13513795e-05 -4.20294455e-05 -0.000482347532 0.00217392482
      0.0626996905 -0.000267919066 -0.000190319566 -2.94828133e-05
      -0.000233332088</_>
    <_>
      0.371141613 -4.99304771 -0.00630809879 -0.0511874408
      -4.4879144e-08 -0.000223734562 -0.0126431081 -0.000402897771
      -0.00172728323 -3.55353859e-06 -1.49990137e-05 -3.13934834e-07
      -0.000115887109 -0.000349088601 -0.000231561673 7.46295118
      2.5150497 -0.00256241881 -5.01191607e-05 -0.000182361182
      -0.00103619311 -0.000771994935 -0.00425810646 0.248009175
      -1.52875546e-05 1.56703675 3.82107782 -1.24109611e-05
      -6.00553576e-05 -1.74081142e-05 -0.0146574723 -0.000196307374
      -0.0061525614 -0.00150032144 -0.000111616064 -0.000772061991
      -0.00024942428 -7.54075299e-05 -0.0117880208 -0.000257300067
      -0.000126436498 -0.000661573722 -0.00178995682 -0.000338476995
      -0.00076917035 -0.00152969314 -0.000472564599 2.00668716
      0.636294961 -0.0230362881 -0.00213325256 0.07467556
      -3.46228853e-06 -0.00883477647 3.53853035 -0.0225347392
      -0.0670645908 -0.00374461641 -0.0027025044 -0.00464135315
      -0.000779073394 -0.000350357761 -0.000771260937 3.3748951
      -0.00935553294 -3.59546793e-05 -3.14407662e-05 -3.07098671e-05
      -0.00441863388 -0.00194001955 -0.000588459137 4.51338673
      -0.00173388643 -9.34655764e-05 -4.29255397e-06 -0.00105757394
      -2.13780149e-05 2.08860207 5.14945936 -0.00154432806
      -1.18720618e-05 -4.83696056e-07 -0.000243384609 2.25772309
      -0.0462249108 -0.000661074184 -0.00472257612 -0.00334699918
      -7.9420679e-06 -0.00671612611 -0.00542178005 -0.000497854431
      -0.00485911407 -0.00545956241 5.70302582 -0.0229356531
      -0.000670409994 -0.0186005998 -0.00549218711 -0.00237123459
      -6.91130554e-05 -0.00798149314 4.24812889 -1.29056355e-06
      -0.000108822234 -0.00102277927 3.88775325 -0.000148517778
      -3.21882362e-05 -0.00055269961 -0.0081257401 -0.00176281296
      -0.000956956414 -1.5985388e-05 -4.45584301e-05 -0.00086844695
      -8.2319184e-07 -2.62728418e-06 -0.000193178392 -4.46596496e-05
      -0.00892053917 -1.01566757e-05 -0.00598047115 -0.000897361664
      0.777284086 -0.00911875907 -0.00380335771 -0.0216514654
      -0.0111788213 -0.00349350856 0.195885688 0.225093096
      -8.77383427e-05 -5.78828003e-05 -0.000424872473 0.038668178
      0.168493956 -0.000144587684 0.401664644 -4.61267928e-06 0.42608428
      0.0805992559 -0.000206418277 0.616586149 -0.00479024509
      0.305412292 -2.2248867e-05 -0.000227993572 -3.61363959e-06
      -2.47102457e-06 -0.00070453994 0.17150861 -0.00535661494
      0.183227658 -1.13666158e-06 0.214063734 -3.73530156e-06
      0.0708567351 0.902876973 -0.00228205696 0.00827209558
      -0.00110766129 -0.00139510795 0.0735441148 -3.49765542e-05
      -0.000391749141 0.047752358 0.134717464 -0.000239398956
      -0.000301424327 0.0178503841 0.287935674 0.623900414 -0.0024006865
      -0.000568841351 -0.00134040858 0.311611116 -0.00121447782
      -1.42100753e-05 -0.00337993447 0.0843951628 -0.00368260546
      -0.00258155121 -0.000127333245 -3.02408762e-06 0.225150973
      -1.91492433e-07 -3.78421788e-07 0.183186591 0.542771161
      -1.48305317e-05 -1.86801844e-05 -0.000209179445 -0.000419507123
      0.314895123 -0.000150100765 -9.47420776e-05 0.264216542
      -1.94121749e-05 0.0101766028 -0.000142870616 -3.95824973e-05
      -1.60937307e-05 -3.30964467e-05 -2.30976184e-05 -0.000247800897
      0.000415887684 -0.000107574851 0.082994014 -0.000678276236
      0.0431649312 0.265077412 -1.59772196e-06 -0.000119935692
      -3.58193051e-06 -5.44047225e-07 -0.000193821965 -4.16216608e-05
      0.304827482 0.559436798 -2.44776311e-05 -0.000150945853
      -9.13401236e-05 -4.20249162e-05 -0.000482680334 0.00236585177
      0.0628001392 -0.000268019212 -0.000190314517 -2.94797264e-05
      -0.00023428924</_>
    <_>
      0.305429876 -5.03652477 -0.0056835073 -0.0480122156
      -4.20010835e-08 -0.000210250088 -0.0116142351 -0.000360322505
      -0.0017025508 -2.98413875e-06 -1.37059933e-05 -2.89138995e-07
      -0.000103560422 -0.000331107847 -0.000208256577 6.9113574
      2.51560569 -0.00232884963 0.00245202333 -0.000166661703
      -0.000999185955 -0.000698470743 -0.00386246876 0.177445978
      -1.3367483e-05 1.65394497 3.77127957 -1.21358507e-05
      -5.64594047e-05 -1.67838534e-05 -0.011525196 -0.000186482386
      -0.00478424877 -0.00134029507 -0.000103509832 -0.000719429459
      -0.000236663196 -6.74127295e-05 -0.0097664576 -0.0002279701
      -0.000112716349 -0.000633480144 -0.00156772044 -0.000341989507
      -0.000894995173 -0.0014617109 -0.000431789027 1.91353345
      0.695783973 -0.01987442 -0.00187274942 0.0271518789
      -3.40506608e-06 -0.00816720724 3.35789943 -0.0215767156
      -0.060964033 -0.00337679847 -0.000791658531 -0.00421142532
      -0.000778108195 -0.000324947032 -0.000672291033 3.29231334
      -0.00754326442 -3.69440932e-05 -2.98637497e-05 -2.8543167e-05
      -0.00402441062 -0.00178039016 -0.000588926952 4.25334072
      -0.00157155981 -8.44426613e-05 -4.01740454e-06 -0.0010263226
      -2.12055274e-05 2.10368252 4.79592705 -0.00141389843
      -1.11793515e-05 -4.52804017e-07 -0.000215989596 2.14356852
      -0.0436345823 -0.000619517639 -0.00350917783 -0.00219054264
      -6.90734078e-06 -0.00614174642 -0.00520998519 -0.000444983394
      -0.00450420007 -0.0052737277 5.73620129 -0.0217017829
      -0.000610669667 -0.0168330502 -0.00498239882 -0.00217877701
      -6.1314393e-05 -0.0072410237 4.22094536 -1.20027528e-06
      -9.80335171e-05 -0.000985692604 3.82879019 -0.000126827465
      -3.1065596e-05 -0.000490984472 -0.00470845681 -0.00158660556
      -0.000752468186 -1.51032509e-05 -4.35389629e-05 -0.000746665755
      -8.15291457e-07 -2.30109936e-06 -0.000182035481 -4.08607775e-05
      -0.0082415184 -9.09568917e-06 -0.00551404525 -0.000773301581
      0.793865919 -0.00841905084 -0.00336318905 -0.0212580804
      -0.00975671224 -0.00333883543 0.225431547 0.209820807
      -8.942157e-05 -5.93898003e-05 -0.000251573103 -0.000403623882
      0.180808857 -0.000141571029 0.371460766 -4.81386633e-06
      0.387413025 0.0970022157 -0.00020475249 0.587586462 -0.00513432594
      0.345548034 -2.20830207e-05 -0.000232505976 -3.65813639e-06
      -2.47256253e-06 -0.000841114728 0.141663462 -0.00543549005
      0.206443816 -1.12223586e-06 0.278143436 -3.70243674e-06
      0.0560442135 0.931649446 -0.0025847496 -0.000168588755
      -0.00101745396 -0.00159909017 0.0618269332 -3.58664583e-05
      -0.000391160022 0.0284003541 0.0793964192 -0.000485121418
      -0.000304495916 0.00370469689 0.308162332 0.644163072
      -0.00251957122 -0.000576846651 -0.00120366132 0.275550127
      -0.00123562117 -1.37874904e-05 -0.00341967982 0.0901674852
      -0.00382506009 -0.00257246429 -0.000127625171 -3.04663695e-06
      0.231924385 -1.91849338e-07 -3.71204038e-07 0.214015245
      0.565930545 -1.48305317e-05 -1.86801844e-05 -0.000209179445
      -0.000419507123 0.314895123 -0.000150100765 -9.47420776e-05
      0.264216542 -1.94121749e-05 0.0101766028 -0.000142870616
      -3.95824973e-05 -1.60937307e-05 -3.30964467e-05 -2.30976184e-05
      -0.000247800897 0.000415887684 -0.000107574851 0.082994014
      -0.000678276236 0.0431649312 0.265077412 -1.59772196e-06
      -0.000119935692 -3.58193051e-06 -5.44047225e-07 -0.000193821965
      -4.16216608e-05 0.304827482 0.559436798 -2.44776311e-05
      -0.000150945853 -9.13401236e-05 -4.20249162e-05 -0.000482680334
      0.00236585177 0.0628001392 -0.000268019212 -0.000190314517
      -2.94797264e-05 -0.00023428924</_>
    <_>
      0.244467303 -4.95830488 -0.005569831 -0.0464668274 -4.19282316e-08
      -0.000212871804 -0.011256895 -0.000348193862 -0.00173143717
      -2.75942284e-06 -1.33042022e-05 -2.76766883e-07 -0.000100560617
      -0.000324746332 -0.000202250085 6.7997241 2.47385478
      -0.00227051997 0.0666764975 -0.00016245959 -0.000969761575
      -0.000693791488 -0.00380560593 0.160381466 -1.27439016e-05
      1.62530971 3.69208908 -1.20917894e-05 -5.60313674e-05
      -1.68553488e-05 -0.0104240384 -0.000184015807 -0.00511960033
      -0.00128110033 -9.9928533e-05 -0.000711671484 -0.00023260912
      -6.51352093e-05 -0.0101071037 -0.000220667498 -0.000112750997
      -0.000659114856 -0.00147755735 -0.000370604947 -0.000912227435
      -0.00144577504 -0.00041566274 1.90808606 0.726870418 -0.0194286108
      -0.00178489578 0.00723856501 -3.22650726e-06 -0.00809086207
      3.30653048 -0.0219874214 -0.0592959113 -0.00328112673 0.0152643546
      -0.0041265008 -0.000775118067 -0.000322677864 -0.000659204787
      3.25602889 -0.00774710998 -3.66761305e-05 -2.97638671e-05
      -2.83901645e-05 -0.00390453706 -0.00174154714 -0.000588931143
      4.26766777 -0.00150530145 -8.4446292e-05 -4.10495659e-06
      -0.00101061852 -2.12635423e-05 2.03450608 4.61650372
      -0.00139360293 -1.10070569e-05 -4.62481182e-07 -0.000211365579
      2.0492444 -0.0424537137 -0.000624608598 -0.00312950276
      -0.00198435644 -6.66141977e-06 -0.00610700669 -0.0051055504
      -0.000432238798 -0.00452291733 -0.00538623938 5.65106487
      -0.0213709399 -0.000591718766 -0.0161505677 -0.00482389657
      -0.00215240545 -5.87858231e-05 -0.00701106433 4.19929028
      -1.17100444e-06 -9.42305051e-05 -0.00098821905 3.8254745
      -0.000119293392 -3.08285635e-05 -0.000474414643 -0.00286527071
      -0.0015644806 -0.000798571564 -1.50623027e-05 -4.49333274e-05
      -0.000688657572 -7.6696665e-07 -2.20820243e-06 -0.000180149873
      -4.0145329e-05 -0.00805945601 -8.68732423e-06 -0.00542096142
      -0.000733307796 0.704594135 -0.00830617454 -0.00336110312
      -0.0209666416 -0.010005855 -0.00345272501 0.244881809 0.188528746
      -9.02964894e-05 -6.29684946e-05 -0.000693390786 -0.000912091869
      0.17947498 -0.000141445562 0.358403474 -4.89406966e-06 0.358485758
      0.127757996 -0.000204709722 0.543836057 -0.00517151458 0.360367
      -2.23007646e-05 -0.000231748214 -3.6698998e-06 -2.49527739e-06
      -0.00100400124 0.116795108 -0.00521329092 0.205059201
      -1.12458213e-06 0.300483108 -3.72903855e-06 0.0671973675
      0.937935412 -0.00290156808 -0.000210615166 -0.000846038747
      -0.00164730288 0.0643976182 -3.72569339e-05 -0.000395235373
      -0.000126103972 0.0337400362 -0.000151717104 -0.0003047871
      0.00833746791 0.290372252 0.648611069 -0.00245962874
      -0.000626147084 -0.00124288548 0.245953754 -0.00125967141
      -1.36626377e-05 -0.00339642866 0.1144109 -0.00388616673
      -0.00254531438 -0.000128013446 -3.10149176e-06 0.225943595
      -1.97920485e-07 -3.72160059e-07 0.201557815 0.571097672
      -1.48304234e-05 -1.86800535e-05 -0.000209180143 -0.000419516728
      0.314879596 -0.00015010043 -9.47417793e-05 0.264216065
      -1.94120639e-05 0.0101964809 -0.000142870413 -3.95823154e-05
      -1.60936343e-05 -3.29127906e-05 -2.30113419e-05 -0.000247803953
      0.000472234562 -0.000107575914 0.0830117613 -0.000678303826
      0.043107681 0.265066922 -1.59774186e-06 -0.000119935372
      -3.5818839e-06 -5.44110662e-07 -0.000193823536 -4.12668669e-05
      0.304897368 0.559474885 -2.44774656e-05 -0.000151504195
      -9.13396725e-05 -4.20247306e-05 -0.000482699979 0.00238101371
      0.0628017411 -0.000268024451 -0.00019031507 -2.947961e-05
      -0.000234346837</_>
    <_>
      0.336846769 -5.16387892 -0.00624222402 -0.0492869504
      -4.58904275e-08 -0.000221220107 -0.0125960205 -0.00037049668
      -0.00178997067 -3.06199331e-06 -1.4303535e-05 -3.11130748e-07
      -0.000111658192 -0.000343283406 -0.00022809174 7.36460447
      2.65386987 -0.00252221827 0.0819196552 -0.000174957982
      -0.00107242737 -0.000758722541 -0.00419359375 0.189444393
      -1.36651015e-05 1.67677081 3.93579125 -1.22879783e-05
      -5.92857723e-05 -1.77396487e-05 -0.0130003309 -0.000198800248
      -0.00549871195 -0.00144805177 -0.000111120193 -0.000773036969
      -0.000249305129 -7.05401617e-05 -0.0115472609 -0.000249897625
      -0.00011667762 -0.000656271586 -0.00170681975 -0.0003801024
      -0.000766230223 -0.00145210198 -0.000482088159 2.13830709
      0.769604564 -0.022192508 -0.00202098256 0.0299097802 -3.133468e-06
      -0.00880847964 3.60202837 -0.0233048219 -0.0651009083
      -0.00368944439 -0.00197361666 -0.00458920654 -0.000799506379
      -0.000389417371 -0.000721303048 3.51925182 -0.00916701369
      -3.78457844e-05 -3.22135311e-05 -2.93291887e-05 -0.00433184346
      -0.00193834316 -0.000600774132 4.56955051 -0.00167051179
      -9.0392954e-05 -4.19101571e-06 -0.00104532472 -2.1209602e-05
      2.16484904 4.9313221 -0.00152620627 -1.1459284e-05 -5.45738942e-07
      -0.000239967994 2.27351379 -0.0447424166 -0.000610963267
      -0.00404893467 -0.00290484773 -7.46663682e-06 -0.00665743975
      -0.00545739057 -0.00048265708 -0.00471910182 -0.00559358951
      5.96723938 -0.0231577083 -0.0006919562 -0.0181207582
      -0.00540989218 -0.00234262715 -6.60128062e-05 -0.00780883338
      4.49968338 -1.30734941e-06 -0.000103830127 -0.00103563489
      4.03849554 -0.000132842222 -3.2292679e-05 -0.000541192188
      -0.00569882337 -0.00166837557 -0.00126658322 -1.60109848e-05
      -5.05255121e-05 -0.000813137449 -8.26499274e-07 -2.52130349e-06
      -0.000195626606 -4.43701392e-05 -0.00884179957 -9.89636646e-06
      -0.00584685057 -0.000832584687 0.761695683 -0.00901980232
      -0.0037166758 -0.022204591 -0.0105437087 -0.0033553238 0.238051713
      0.213761926 -9.11385287e-05 -5.97046201e-05 -0.000251861289
      -0.000708793581 0.18211931 -0.000140328048 0.362409085
      -4.97735391e-06 0.385562599 0.103117891 -0.000204397307
      0.597964108 -0.00536384806 0.383394748 -2.18437235e-05
      -0.000236895532 -3.69898271e-06 -2.43334102e-06 -0.00085487403
      0.139641479 -0.00560821779 0.230691835 -1.09636335e-06 0.321776927
      -3.62134074e-06 0.047893703 0.956780434 -0.00264029671
      -0.000307502603 -0.000988259446 -0.0016655717 0.0838485509
      -3.64371808e-05 -0.000397230673 0.0186376944 0.0651431903
      -0.000562399742 -0.000307218608 0.00170090795 0.31151855
      0.661545098 -0.00258364831 -0.000577544619 -0.00120289763
      0.264440536 -0.00127114833 -1.3446007e-05 -0.00350039615
      0.103518449 -0.00398202986 -0.00263241818 -0.000129206921
      -3.02678927e-06 0.249141276 -1.8837774e-07 -3.59246656e-07
      0.219840124 0.604764223 -1.48307236e-05 -1.86803882e-05
      -0.000209179168 -0.000419488293 0.314899385 -0.000150101405
      -9.47425797e-05 0.264206737 -1.94123586e-05 0.0101534761
      -0.000142871038 -3.95827956e-05 -1.60938816e-05 -3.31886113e-05
      -2.3097693e-05 -0.000247797463 0.000364815816 -0.000107572923
      0.0829722434 -0.000678234966 0.0432276502 0.265077353
      -1.59765091e-06 -0.000119936267 -3.58201532e-06 -5.43513465e-07
      -0.000193820422 -4.18926393e-05 0.304740489 0.559374809
      -2.44779039e-05 -0.000150261592 -9.13408439e-05 -4.20252145e-05
      -0.000482654461 0.0023481939 0.0627950132 -0.00026801182
      -0.000190314371 -2.94799229e-05 -0.000234213207</_>
    <_>
      0.273560584 -4.24935055 -0.00565444678 -0.0450515337 -4.56231e-08
      -0.000201316885 -0.0113336211 -0.000336004567 -0.00173095416
      -2.58943282e-06 -1.31739034e-05 -2.80651136e-07 -9.71193804e-05
      -0.000312337943 -0.000200444454 6.62216473 2.08491898
      -0.00233420241 0.509177268 -0.000156696377 -0.000978966244
      -0.000690970686 -0.00381846982 0.0986071825 -1.19771139e-05
      1.31283677 3.31608438 -1.13160804e-05 -5.44409959e-05
      -1.74614233e-05 -0.00799045619 -0.000182940654 -0.00521901343
      -0.00126169994 -9.98297401e-05 -0.00072776177 -0.000226165605
      -6.12155709e-05 -0.00931974314 -0.00021943012 -0.000107153588
      -0.000607697875 -0.00149051019 -0.000386944594 -0.00087544648
      -0.00144665106 -0.000446684659 2.38854647 0.810960293 -0.017957503
      -0.00174420991 0.00357324071 -3.01557202e-06 -0.00817335863
      3.38884926 -0.021346204 -0.0598400645 -0.00325627043 0.0153064206
      -0.00420887815 -0.000762161508 -0.000366725842 -0.000656105403
      2.95824265 -0.010966856 -3.75757263e-05 -2.98347786e-05
      -2.62178492e-05 -0.00410204474 -0.00173640216 -0.000590668526
      4.18542385 -0.00151132327 -8.52584853e-05 -3.88765784e-06
      -0.00101722439 -2.06189616e-05 1.64629197 4.39398289
      -0.00141009362 -1.05634535e-05 -4.58307653e-07 -0.000228218065
      2.19508791 -0.0416469797 -0.000582644017 -0.00216975296
      -0.0023861283 -6.68390885e-06 -0.0060235667 -0.00528056594
      -0.00042943607 -0.00443483889 -0.0053251097 5.06761742
      -0.0208527986 -0.000627987378 -0.0154316146 -0.00489989435
      -0.00212441804 -5.65660921e-05 -0.00699974876 3.85160375
      -1.15736873e-06 -9.4502946e-05 -0.00100236211 4.14880419
      -0.000116376686 -3.00568336e-05 -0.000468055252 -0.003138714
      -0.00151656428 -0.000615975994 -1.56568622e-05 -4.54553519e-05
      -0.000682227896 -7.37866287e-07 -2.23229381e-06 -0.000173255423
      -4.060625e-05 -0.00788976252 -8.78117771e-06 -0.00548343034
      -0.000710896624 0.407077312 -0.0084205959 -0.00313307764
      -0.0209121518 -0.0119586866 -0.0030365237 0.243666679 0.214090586
      -9.2480368e-05 -6.18241465e-05 -0.000515930471 -0.000883736764
      0.162553921 -0.00013911826 0.345800549 -5.11596545e-06 0.383198738
      0.0691826418 -0.000205481032 0.61841476 -0.00584570738 0.418017268
      -2.15606797e-05 -0.000240393492 -3.72531053e-06 -2.40555323e-06
      -0.000912244839 0.145858034 -0.0056343209 0.249610543
      -1.07382402e-06 0.367100239 -3.55631869e-06 0.0344811827
      0.984110355 -0.00277558807 -0.000401520578 -0.00097108935
      -0.00151530397 0.0941026956 -3.70659764e-05 -0.000401712197
      0.0253555477 0.0625626668 -0.000650661706 -0.000311721582
      0.0127786696 0.305508375 0.666759372 -0.00275120907
      -0.000708913954 -0.00127356884 0.262557745 -0.00129551045
      -1.30957551e-05 -0.00357474294 0.109451555 -0.00392047036
      -0.00267868047 -0.000129205277 -3.01787622e-06 0.275854051
      -1.86928546e-07 -3.49096581e-07 0.216373771 0.634514928
      -1.48306308e-05 -1.8680319e-05 -0.00020917815 -0.000419499382
      0.314924031 -0.000150101056 -9.47423614e-05 0.264223367
      -1.94122822e-05 0.0101502798 -0.000142870791 -3.95826755e-05
      -1.60938234e-05 -3.3409593e-05 -2.32702496e-05 -0.000247796823
      0.00033284165 -0.000107573855 0.0829711407 -0.000678246724
      0.0432431027 0.26509881 -1.59772753e-06 -0.000119935961
      -3.58197076e-06 -5.44261411e-07 -0.000193819811 -4.21734512e-05
      0.304738402 0.559397459 -2.44777966e-05 -0.00015022642
      -9.13405602e-05 -4.20251017e-05 -0.00048265676 0.00234580226
      0.0627998859 -0.000268013187 -0.000190313513 -2.94798374e-05
      -0.000234218722</_>
    <_>
      0.166734621 -4.56304979 -0.00541912485 -0.0433187708
      -4.38417374e-08 -0.000190928244 -0.0109951366 -0.000316894788
      -0.00176149036 -2.33637411e-06 -1.23215732e-05 -2.6546013e-07
      -9.24646156e-05 -0.000309039984 -0.000192150488 6.38060141
      2.20017791 -0.00222799438 0.186300352 -0.000149721338
      -0.000936610508 -0.000659873593 -0.00360575016 0.107448585
      -1.10161964e-05 1.45002866 3.39347267 -1.08836002e-05
      -5.28386627e-05 -1.6619455e-05 -0.00852666702 -0.000177923313
      -0.00474527571 -0.00121274695 -9.68470995e-05 -0.000708402367
      -0.000221865921 -5.75925915e-05 -0.00862529315 -0.000211459395
      -9.92895948e-05 -0.000590529584 -0.00139012851 -0.000389216613
      -0.000751811545 -0.00134536892 -0.000422843528 2.0641818
      0.869902611 -0.016433239 -0.00164568669 -0.000299908424
      -2.95169184e-06 -0.00783442613 3.23142767 -0.0204628129
      -0.0571585298 -0.00314510358 0.061684005 -0.00404183147
      -0.000776016444 -0.000335229852 -0.000600529427 3.02945924
      -0.00925994385 -3.71855822e-05 -2.87790263e-05 -2.54388851e-05
      -0.00396893779 -0.00169351057 -0.000570311153 4.17017984
      -0.00145307265 -7.79352995e-05 -3.74615706e-06 -0.000963806582
      -2.00529175e-05 1.74082172 4.17956972 -0.0013392712 -9.8588489e-06
      -4.62994507e-07 -0.000215576249 2.17678785 -0.0403375961
      -0.000563564652 -0.00153971277 -0.00259634899 -6.2953527e-06
      -0.00582032325 -0.00511221029 -0.000406699022 -0.00425011385
      -0.00519750593 5.26573086 -0.0203868262 -0.000598804618
      -0.0142652942 -0.00464675529 -0.00206749025 -5.4293796e-05
      -0.0063333963 3.98539805 -1.10826068e-06 -8.83247048e-05
      -0.000964303443 3.92847753 -0.000105009385 -2.9318031e-05
      -0.000445738435 -0.00282041542 -0.00141398085 -0.00152695156
      -1.4624864e-05 -4.57713868e-05 -0.0006385218 -7.29110013e-07
      -2.07837093e-06 -0.000170375482 -3.87389264e-05 -0.00757895084
      -8.37750395e-06 -0.00524508161 -0.000662534731 0.507021189
      -0.00797475968 -0.00287419721 -0.0205961913 -0.0105240569
      -0.00303568644 0.263535351 0.206044674 -9.36181823e-05
      -6.46363915e-05 -0.000545778254 -0.0014168733 0.17431739
      -0.000138636067 0.326861233 -5.18716979e-06 0.341484696
      0.102688022 -0.000202753334 0.596004188 -0.00565385306 0.460360199
      -2.15937362e-05 -0.000238067689 -3.73373678e-06 -2.41806424e-06
      -0.000654805976 0.113142028 -0.00578486314 0.27329883
      -1.070596e-06 0.402077407 -3.56361488e-06 0.02209015 1.00211263
      -0.00286632706 -0.000689194247 -0.0008423822 -0.00135331764
      0.112846375 -3.78247896e-05 -0.00040393477 -0.000139563155
      0.0126891211 -0.000568504795 -0.000310073694 0.0144157857
      0.301104367 0.70169282 -0.00275085471 -0.000522962888
      -0.00116266764 0.238310143 -0.00132502196 -1.2943442e-05
      -0.0035830806 0.151737839 -0.00428212155 -0.00269505917
      -0.000129524342 -3.0413637e-06 0.285019845 -1.88460334e-07
      -3.48048189e-07 0.214766383 0.654587567 -1.4830387e-05
      -1.86800771e-05 -0.000209177786 -0.000419524615 0.31493628
      -0.000150100226 -9.47417357e-05 0.264243394 -1.94120566e-05
      0.0101697296 -0.000142870223 -3.95823081e-05 -1.60936397e-05
      -3.34657707e-05 -2.33810388e-05 -0.000247799704 0.000359643251
      -0.00010757627 0.0829906017 -0.000678294222 0.0431949347
      0.265113115 -1.59784713e-06 -0.000119935205 -3.58186071e-06
      -5.45269586e-07 -0.000193820888 -4.21026707e-05 0.304818064
      0.559470296 -2.44774656e-05 -0.000150839012 -9.13396652e-05
      -4.20247416e-05 -0.000482682983 0.00236067362 0.0628077537
      -0.000268021045 -0.000190313105 -2.94795955e-05 -0.000234293417</_>
    <_>
      0.272927225 -4.60188341 -0.00545774493 -0.0434287079
      -4.42846222e-08 -0.000183770986 -0.0111995274 -0.000338328537
      -0.00158788112 -2.41822886e-06 -1.27144094e-05 -2.80061442e-07
      -9.21192113e-05 -0.000308138726 -0.000195263841 6.43011284
      2.25150847 -0.00227405806 0.289746821 -0.000156584385
      -0.000952553295 -0.000658522244 -0.00364390248 0.12449652
      -1.1364491e-05 1.48136938 3.50444651 -1.14148052e-05
      -5.26655822e-05 -1.6632157e-05 -0.00758889643 -0.000178717208
      -0.00490264921 -0.0012434792 -9.72942798e-05 -0.000700481003
      -0.000222403658 -5.78338913e-05 -0.00718027353 -0.000210633807
      -0.000100812344 -0.000553832622 -0.0014525369 -0.000341955019
      -0.000574755599 -0.00139467209 -0.000425086211 2.00315785
      0.870909929 -0.0151732545 -0.00169194804 -0.000194749344
      -3.2534133e-06 -0.00787412841 3.30197811 -0.0201774444
      -0.0568902157 -0.00319336052 0.0266154706 -0.00406869641
      -0.00081409968 -0.00034569655 -0.000616981008 3.07743573
      -0.00912988558 -3.73708572e-05 -2.94444144e-05 -2.45202446e-05
      -0.00398300122 -0.00168777548 -0.00058182521 4.13751984
      -0.00148682238 -7.85281663e-05 -3.8152607e-06 -0.00100481883
      -1.97443842e-05 1.76744425 4.23346043 -0.00134653936
      -1.01022188e-05 -4.2976464e-07 -0.000226437129 2.31770992
      -0.0411336571 -0.000562067784 -0.00125491514 -0.0021341464
      -6.52716471e-06 -0.00588859618 -0.00528816972 -0.000415590708
      -0.00423232047 -0.00511709321 5.38242912 -0.0207762141
      -0.000599614985 -0.0151978051 -0.00480554532 -0.00203591213
      -5.42581547e-05 -0.00676504709 4.02173233 -1.15914827e-06
      -9.14250195e-05 -0.00093818712 4.0669775 -0.000106269632
      -3.02653934e-05 -0.00045103117 -0.00247060438 -0.00146508554
      -0.00192691758 -1.50938704e-05 -4.41010525e-05 -0.000662645965
      -7.69580708e-07 -2.26024849e-06 -0.000165419042 -3.94379167e-05
      -0.00763421273 -8.52766152e-06 -0.00535738235 -0.000668847933
      0.585001588 -0.00802094582 -0.00283889356 -0.0204381105
      -0.0105337724 -0.00305320416 0.252095282 0.185782492
      -9.30608221e-05 -6.84196639e-05 -0.000755234214 -0.00124972838
      0.149547935 -0.000139847398 0.31849131 -5.14414614e-06 0.361586273
      0.0724363104 -0.000207471632 0.592871666 -0.00598625885
      0.455009282 -2.1538799e-05 -0.0002371304 -3.6874485e-06
      -2.40314216e-06 -0.000980372657 0.100707784 -0.00553498603
      0.259719372 -1.06673144e-06 0.409241557 -3.55770862e-06
      0.00698888116 0.991098046 -0.00300113228 -0.00047981448
      -0.000869659067 -0.00122973241 0.11551851 -3.79446792e-05
      -0.000406831503 0.000497832894 0.00934395939 -0.000397537224
      -0.000312207063 0.0301200524 0.308456391 0.686010361
      -0.00274985703 -0.00102730433 -0.00145344913 0.237547696
      -0.00135837344 -1.29112223e-05 -0.00358526455 0.144292086
      -0.00417559734 -0.00267511769 -0.000128482876 -3.0306503e-06
      0.295031667 -1.95585699e-07 -3.45856222e-07 0.203684017
      0.665087402 -1.48309737e-05 -1.86806537e-05 -0.000209178834
      -0.000419463642 0.31490469 -0.000150102249 -9.47432272e-05
      0.264193624 -1.94125969e-05 0.0101230927 -0.000142871591
      -3.95831921e-05 -1.60940817e-05 -3.33043172e-05 -2.30937439e-05
      -0.000247793068 0.000298188999 -0.000107570369 0.0829435289
      -0.000678181183 0.0433100611 0.265076995 -1.59755893e-06
      -0.000119937024 -3.5821256e-06 -5.42817304e-07 -0.000193818414
      -4.22433368e-05 0.304626018 0.559292972 -2.44782605e-05
      -0.000149359475 -9.13417971e-05 -4.20256038e-05 -0.000482620846
      0.00232497789 0.0627880991 -0.000268002215 -0.000190314182
      -2.94801794e-05 -0.000234113293</_>
    <_>
      0.190336391 -4.672894 -0.00579511514 -0.0455080532 -4.71544972e-08
      -0.000192745545 -0.0117195994 -0.00038302684 -0.00174187636
      -3.06008224e-06 -1.38346522e-05 -2.88208668e-07 -0.000102475686
      -0.000333658565 -0.000203638367 6.75020123 2.21858001
      -0.00245714863 -5.0570965e-05 -0.000161737626 -0.000997895375
      -0.000704428414 -0.00393491844 0.0995396674 -1.31686065e-05
      1.39879835 3.49352717 -1.11104991e-05 -5.55089209e-05
      -1.766674e-05 -0.0110486401 -0.000185804747 -0.00692828745
      -0.001311659 -0.000103226994 -0.000739336072 -0.000220330359
      -6.60172955e-05 -0.00818162411 -0.000238727851 -0.000110829227
      -0.000596774858 -0.00156892324 -0.000333894102 -0.000852775236
      -0.00149166584 -0.000450456602 1.9526788 0.766847491 -0.0173449926
      -0.00187176501 -0.000204236785 -3.58999819e-06 -0.00832742639
      3.27394128 -0.0206589382 -0.060677778 -0.00335730333 -0.0016126316
      -0.00432093674 -0.000844625873 -0.000354608288 -0.000699460856
      3.08898568 -0.0102976616 -3.63072068e-05 -3.2195996e-05
      -2.79707874e-05 -0.00419238908 -0.0017807862 -0.000574153499
      4.34811544 -0.00160161033 -8.66437767e-05 -3.97716622e-06
      -0.00100827636 -2.12668965e-05 1.77247012 4.61586809
      -0.00145466975 -1.07748529e-05 -5.01265959e-07 -0.000242348833
      2.27540302 -0.0421164185 -0.000606231566 -0.00311726145
      -0.00481740804 -7.0630158e-06 -0.00624424918 -0.00536616007
      -0.000449222804 -0.0045703291 -0.00521019334 5.31397915
      -0.0214156155 -0.000622833555 -0.0157106593 -0.00513013545
      -0.00219493359 -6.22679217e-05 -0.00703447685 4.0055995
      -1.22689607e-06 -9.93178473e-05 -0.000955122116 3.90553904
      -0.000120299614 -3.09888528e-05 -0.000480836432 -0.00487879151
      -0.00158533326 -0.0017953153 -1.55982143e-05 -4.7795711e-05
      -0.000739876938 -8.19291074e-07 -2.47554794e-06 -0.000178556307
      -4.21366603e-05 -0.0080638025 -9.05491197e-06 -0.0056510889
      -0.000737309514 0.554885268 -0.00821860787 -0.0031287903
      -0.0207629874 -0.011127511 -0.00315279979 0.26443997 0.198776513
      -9.35593853e-05 -6.85682535e-05 -0.000657801924 -0.00123458169
      0.153047606 -0.000139699492 0.311586648 -5.18450679e-06
      0.341740489 0.0970566049 -0.000205441262 0.600567937
      -0.00570200616 0.463838577 -2.15251603e-05 -0.000236101856
      -3.72384511e-06 -2.42340161e-06 -0.000772787665 0.099023506
      -0.00546082202 0.275454402 -1.07239009e-06 0.433756769
      -3.57933277e-06 0.0034232419 0.993049979 -0.002878926
      -0.000543985807 -0.00078343082 -0.00115920044 0.130672187
      -3.83051447e-05 -0.000403924438 -4.94384003e-05 0.00730205327
      -0.000455869536 -0.000309455732 0.0217740685 0.285265148
      0.681953549 -0.00268532173 -0.00101521693 -0.00142021861
      0.234465167 -0.00136883394 -1.29455266e-05 -0.00355479587
      0.144505382 -0.0041858349 -0.0026670706 -0.000128074011
      -3.05436492e-06 0.301543683 -1.95063322e-07 -3.48946259e-07
      0.205344543 0.664803803 -1.48279087e-05 -1.86776178e-05
      -0.00020917425 -0.000419780117 0.315050423 -0.000150091742
      -9.47354129e-05 0.264443338 -1.94097647e-05 0.0103745274
      -0.000142864432 -3.95785646e-05 -1.60917607e-05 -3.39420149e-05
      -2.44524326e-05 -0.000247829565 0.000656407326 -0.000107600892
      0.0831948519 -0.000678778277 0.0426829234 0.265249789
      -1.59903891e-06 -0.000119927558 -3.5807434e-06 -5.552929e-07
      -0.000193832384 -4.121866e-05 0.305651069 0.560217917
      -2.44741022e-05 -0.0001572623 -9.13305921e-05 -4.20210963e-05
      -0.00048295295 0.00251735561 0.0628876463 -0.000268102071
      -0.000190309307 -2.94771107e-05 -0.000235069281</_>
    <_>
      0.400598943 -4.44181728 -0.0056467792 -0.0473722816
      -4.76751119e-08 -0.000185122903 -0.0113889789 -0.000390406174
      -0.00175886566 -3.29844943e-06 -1.40561087e-05 -2.83242343e-07
      -0.000102084079 -0.000341387145 -0.000194116903 6.89164591
      1.99001193 -0.00245139212 0.110007033 -0.000158643277
      -0.00100490416 -0.000696188479 -0.00389307574 0.0713113248
      -1.34264428e-05 1.17610335 3.26307487 -1.11343779e-05
      -5.51584344e-05 -1.79673189e-05 -0.0108448947 -0.000177736962
      -0.00721020624 -0.00125612796 -0.000101294841 -0.000749207393
      -0.000214862812 -6.65852567e-05 -0.00790195074 -0.000238872832
      -0.000112242975 -0.000594187528 -0.00152642769 -0.000321776752
      -0.000958510442 -0.00155685062 -0.00045091295 2.07093692
      0.619543433 -0.0178042259 -0.00183100835 -6.90615925e-05
      -3.76557477e-06 -0.00837554876 3.55569315 -0.0203203168
      -0.0628552362 -0.00323673687 -0.00135945587 -0.00424390147
      -0.000846228853 -0.000330371317 -0.000726618164 2.91046548
      -0.0122329742 -3.60563099e-05 -3.20484542e-05 -2.894926e-05
      -0.00409737835 -0.00173559971 -0.000585220871 4.4199543
      -0.00160272734 -8.83097309e-05 -3.96908354e-06 -0.000996406772
      -2.15509117e-05 1.55511212 4.7721386 -0.00143842038
      -1.11283616e-05 -4.99397743e-07 -0.000241746602 2.42477894
      -0.0435944125 -0.00063166098 -0.00408589793 -0.00580172101
      -6.98414306e-06 -0.00616816292 -0.00530669605 -0.00043790834
      -0.00451354636 -0.00530085061 4.95948505 -0.020711774
      -0.000625261222 -0.0161955077 -0.00503810495 -0.00214443053
      -6.33242453e-05 -0.00686625205 3.76740408 -1.28907277e-06
      -0.00010224733 -0.000964032253 4.03075171 -0.000122011705
      -3.0304258e-05 -0.000469042454 -0.00447570626 -0.00159258896
      -0.00156477955 -1.61766438e-05 -4.59928742e-05 -0.000700141012
      -7.96928703e-07 -2.44507783e-06 -0.0001697353 -4.09552595e-05
      -0.00787914265 -8.6764685e-06 -0.00575539703 -0.000714579888
      0.364639044 -0.00832258351 -0.00300911232 -0.0205481406
      -0.0128533142 -0.003103517 0.270090997 0.19317998 -9.38952144e-05
      -7.01420868e-05 -0.000699443801 -0.00137184432 0.146993876
      -0.000139769865 0.308505505 -5.21324318e-06 0.341160536
      0.0932916179 -0.000205772769 0.593556702 -0.00550930668
      0.479148567 -2.15605269e-05 -0.000234544234 -3.74391357e-06
      -2.43137924e-06 -0.000603828346 0.108701512 -0.00561648188
      0.275450528 -1.07336245e-06 0.438769966 -3.58767556e-06
      -6.67534187e-05 0.987101436 -0.0028307985 -0.000551230623
      -0.000773929118 -0.00090909109 0.128085941 -3.84669002e-05
      -0.000405504776 -0.000170620304 0.00272352248 -0.000379332196
      -0.000309319497 0.0192466676 0.275699854 0.696767926
      -0.00274603604 -0.000990035362 -0.00138940243 0.233227625
      -0.00136413483 -1.29177142e-05 -0.00353933824 0.160364836
      -0.00428026076 -0.00267885672 -0.000128211614 -3.06487459e-06
      0.308885366 -1.95417883e-07 -3.49564147e-07 0.196530774
      0.661004066 -1.48288764e-05 -1.86785674e-05 -0.00020917604
      -0.000419679651 0.3149966 -0.000150095075 -9.47378721e-05
      0.264360964 -1.94106542e-05 0.0102993026 -0.000142866702
      -3.95800162e-05 -1.60924883e-05 -3.36623198e-05 -2.39723176e-05
      -0.000247818738 0.000559845939 -0.000107591251 0.0831188411
      -0.000678592303 0.0428676829 0.265188932 -1.59855983e-06
      -0.000119930548 -3.58118018e-06 -5.51213759e-07 -0.000193828382
      -4.14214664e-05 0.305340141 0.55992794 -2.44754065e-05
      -0.000154872163 -9.13341137e-05 -4.20225078e-05 -0.000482851174
      0.00245977752 0.0628554747 -0.00026807122 -0.000190311112
      -2.94780766e-05 -0.000234776511</_>
    <_>
      0.364162505 -4.58452845 -0.00537430588 -0.0455808155
      -4.46070771e-08 -0.000186038043 -0.0109752696 -0.000347033929
      -0.00172856939 -2.77077356e-06 -1.31071301e-05 -2.72739783e-07
      -9.49380265e-05 -0.000328540307 -0.000188248756 6.53944969
      2.13612223 -0.00228619203 0.100830987 -0.000153373752
      -0.000968754175 -0.000663513609 -0.00365260872 0.0986133292
      -1.21271169e-05 1.37406051 3.37034845 -1.09671155e-05
      -5.26545773e-05 -1.731267e-05 -0.00901040994 -0.000174280489
      -0.00577807287 -0.00122021476 -9.83932041e-05 -0.000715659
      -0.000215438529 -6.16035904e-05 -0.00705050118 -0.000220293863
      -0.000104574618 -0.000589551521 -0.00143922621 -0.000350731367
      -0.000842019275 -0.00145296426 -0.000423328078 2.00234652
      0.69982326 -0.016104877 -0.00171157578 -0.000217527631
      -3.42347857e-06 -0.00791242067 3.44041681 -0.0202189796
      -0.058097858 -0.0031278478 0.0307418033 -0.00402552215
      -0.000817375083 -0.000308068527 -0.00064752606 2.96220517
      -0.00945276394 -3.69968766e-05 -2.98289397e-05 -2.67820451e-05
      -0.00395914027 -0.00169466203 -0.000582206296 4.26962423
      -0.0015054415 -8.18030603e-05 -3.82329745e-06 -0.000992053072
      -2.12497289e-05 1.72690833 4.45314789 -0.00135580718
      -1.05276677e-05 -4.52678648e-07 -0.000217177789 2.35569763
      -0.0427480005 -0.000604857167 -0.00258954451 -0.00383352279
      -6.46655326e-06 -0.00576903345 -0.00518278219 -0.000416082854
      -0.00434736535 -0.00523187127 5.17883015 -0.0204223469
      -0.000604344066 -0.0154238902 -0.00473249704 -0.00206008158
      -5.68815558e-05 -0.00665848702 3.88266873 -1.1988061e-06
      -9.47366643e-05 -0.000952742586 3.99400997 -0.00011158736
      -3.00344764e-05 -0.000445701968 -0.00210922654 -0.00148967549
      -0.00156193145 -1.50948554e-05 -4.37467388e-05 -0.000661286118
      -7.7343401e-07 -2.24826977e-06 -0.00016750033 -3.9066239e-05
      -0.00761447009 -8.37001971e-06 -0.0054310821 -0.000673356815
      0.516232193 -0.00812015589 -0.00292414124 -0.0204957314
      -0.0110095888 -0.00314783119 0.270090997 0.19317998
      -9.38952144e-05 -7.01420868e-05 -0.000699443801 -0.00137184432
      0.146993876 -0.000139769865 0.308505505 -5.21324318e-06
      0.341160536 0.0932916179 -0.000205772769 0.593556702
      -0.00550930668 0.479148567 -2.15605269e-05 -0.000234544234
      -3.74391357e-06 -2.43137924e-06 -0.000603828346 0.108701512
      -0.00561648188 0.275450528 -1.07336245e-06 0.438769966
      -3.58767556e-06 -6.67534187e-05 0.987101436 -0.0028307985
      -0.000551230623 -0.000773929118 -0.00090909109 0.128085941
      -3.84669002e-05 -0.000405504776 -0.000170620304 0.00272352248
      -0.000379332196 -0.000309319497 0.0192466676 0.275699854
      0.696767926 -0.00274603604 -0.000990035362 -0.00138940243
      0.233227625 -0.00136413483 -1.29177142e-05 -0.00353933824
      0.160364836 -0.00428026076 -0.00267885672 -0.000128211614
      -3.06487459e-06 0.308885366 -1.95417883e-07 -3.49564147e-07
      0.196530774 0.661004066 -1.48282152e-05 -1.86779234e-05
      -0.000209174599 -0.000419748714 0.315038323 -0.00015009279
      -9.47361987e-05 0.264419496 -1.94100485e-05 0.0103481598
      -0.000142865145 -3.9579023e-05 -1.60919935e-05 -3.39028229e-05
      -2.4332925e-05 -0.000247825723 0.000615539029 -0.000107597858
      0.0831687599 -0.000678717915 0.0427495837 0.26523453
      -1.59889498e-06 -0.000119928503 -3.58088118e-06 -5.54092708e-07
      -0.000193830856 -4.13584312e-05 0.305544883 0.560124993
      -2.44745188e-05 -0.000156441558 -9.13317199e-05 -4.20215474e-05
      -0.000482918898 0.00249719061 0.0628779531 -0.000268091884
      -0.000190309685 -2.94774181e-05 -0.000234971158</_>
    <_>
      0.391347229 -4.64194918 -0.00544263236 -0.0465617254
      -4.56789415e-08 -0.000183192009 -0.0110432543 -0.00034804843
      -0.00173176778 -2.88246679e-06 -1.32537616e-05 -2.72848069e-07
      -9.70715191e-05 -0.000329388713 -0.000189079452 6.76551199
      2.09903193 -0.00231965189 0.00860301033 -0.000150184511
      -0.00096769433 -0.000661633618 -0.00368775777 0.107349031
      -1.22818219e-05 1.29995775 3.33443952 -1.07386822e-05
      -5.38699933e-05 -1.70704679e-05 -0.0102335382 -0.000174595378
      -0.00649222825 -0.00123199052 -9.67113665e-05 -0.000715302827
      -0.000213021412 -6.26099718e-05 -0.00720264949 -0.000221512761
      -0.000104046194 -0.000577697938 -0.00144128024 -0.000351233874
      -0.00100691209 -0.0014893905 -0.000433782319 1.93530774
      0.615191102 -0.0171820428 -0.00173183065 -4.97933834e-05
      -3.38865516e-06 -0.00808114372 3.55006528 -0.0203384608
      -0.0601179264 -0.00313741295 -0.000232153601 -0.00402547605
      -0.000822767906 -0.000316386839 -0.000659474579 2.95679927
      -0.010140053 -3.63244144e-05 -3.02102326e-05 -2.73524875e-05
      -0.00391499698 -0.0016938987 -0.000584289723 4.41150761
      -0.00151051208 -8.28176635e-05 -3.7444704e-06 -0.000961687532
      -2.13034891e-05 1.66966021 4.5985508 -0.00136589422
      -1.07406495e-05 -4.62206685e-07 -0.000217936889 2.29216242
      -0.0429786928 -0.000596302678 -0.00326739415 -0.00408000266
      -6.52040626e-06 -0.00597652607 -0.00524614658 -0.000417644362
      -0.00437467219 -0.0052469396 5.09677696 -0.0203678533
      -0.000602381304 -0.0157430544 -0.00476730056 -0.00205941126
      -5.78592408e-05 -0.00666768895 3.86550832 -1.19572462e-06
      -9.31696486e-05 -0.000953998126 3.99145794 -0.000111432302
      -2.97602255e-05 -0.000452117732 -0.00235586404 -0.0015012247
      -0.00146668521 -1.47885548e-05 -4.40446274e-05 -0.000661546423
      -7.84840722e-07 -2.26875477e-06 -0.000167663151 -3.93424634e-05
      -0.00767939351 -8.39979293e-06 -0.00551750092 -0.000677826174
      0.459869295 -0.00814556051 -0.00290626707 -0.0207748171
      -0.011622441 -0.00311464653 0.281452298 0.198075712
      -9.40449172e-05 -7.25821883e-05 -0.000962134451 -0.00129803899
      0.134956196 -0.000139561234 0.29995504 -5.21637185e-06 0.323926926
      0.097835578 -0.00020627465 0.584835529 -0.0057588676 0.478937656
      -2.15741147e-05 -0.000234540348 -3.70835073e-06 -2.4439039e-06
      -0.000746991835 0.0940645486 -0.00544452667 0.285720229
      -1.07455128e-06 0.450340986 -3.60052218e-06 -0.000146922481
      0.993050635 -0.00287565147 -0.000530150894 -0.000694805582
      -0.000878188759 0.13036935 -3.89118577e-05 -0.000405616913
      -0.000182286865 -2.83812733e-05 -0.000452842884 -0.000308841321
      0.0266493261 0.267270625 0.68230319 -0.00273099705 -0.00107254612
      -0.00147303101 0.205628574 -0.00135794608 -1.28162719e-05
      -0.00354288262 0.168011904 -0.00428182725 -0.00265978533
      -0.00012703902 -3.08582617e-06 0.307539433 -1.98866573e-07
      -3.49745704e-07 0.200607896 0.663890481 -1.4828478e-05
      -1.86781926e-05 -0.000209174672 -0.000419722113 0.315033317
      -0.000150093678 -9.47368753e-05 0.264401376 -1.9410294e-05
      0.0103224702 -0.000142865742 -3.95794304e-05 -1.60921973e-05
      -3.39223443e-05 -2.42643055e-05 -0.000247821939 0.000568749383
      -0.000107595231 0.0831438228 -0.000678664423 0.0428164974
      0.265225708 -1.59878016e-06 -0.000119929304 -3.58099874e-06
      -5.53161385e-07 -0.00019382927 -4.15624309e-05 0.305444211
      0.560043395 -2.44748826e-05 -0.000155657894 -9.13326949e-05
      -4.2021944e-05 -0.000482887554 0.00247755088 0.0628700405
      -0.000268082717 -0.00019030986 -2.94776837e-05 -0.000234880106</_>
    <_>
      0.454225242 -12.0910883 -0.00804205146 -0.0518008992
      -4.02147613e-08 -0.000245281786 -0.0170308799 -0.00030867281
      -0.00205351482 -2.94009124e-06 -1.43257412e-05 -4.33768093e-07
      -0.000135722512 -0.000399293 -0.0003404491 7.7743516 6.25862312
      -0.00281431479 -0.0225963797 -0.000208820624 -0.00146532955
      -0.000906304573 -0.00443429314 0.736422539 -1.53948004e-05
      4.87339449 7.76714945 -1.55136713e-05 -7.0631002e-05
      -1.81149881e-05 -0.0268729199 -0.000222281422 0.531490862
      -0.00229170476 -0.000139921569 -0.000812145881 -0.000327615096
      -8.6131171e-05 -0.00804208498 -0.000314060366 -9.2595481e-05
      -0.000662522914 -0.00226850412 -0.000468201411 -0.00098799984
      -0.00117111858 -0.000657229859 0.398121923 1.81228209
      -0.0205613188 -0.00262538972 0.0544266328 -2.46840432e-06
      -0.009023319 3.84443069 -0.0273894202 -0.0693774894 -0.00500502763
      -0.00563684804 -0.00523040444 -0.000898531638 -0.000427694642
      -0.000561017019 6.41169119 1.49960792 -4.3946693e-05
      -3.09421303e-05 -3.23731692e-05 -0.00524753379 -0.00272204564
      -0.000573378056 4.71721792 -0.00221894309 -7.135138e-05
      -4.35022002e-06 -0.00130113156 -2.80098047e-05 5.2656765
      4.93222141 -0.00155232102 -1.28717438e-05 -5.63125809e-07
      -0.000168196129 2.65384245 -0.0510281064 -0.000615065277
      0.278837502 -0.00328402035 -1.01338283e-05 -0.00652668998
      -0.00613727793 -0.000591022894 -0.00459989905 -0.00622703554
      11.7947149 -0.032640107 -0.000872238423 -0.0192220081
      -0.00626328401 -0.00281634228 -7.70380357e-05 -0.00971314963
      8.37477875 -1.53434974e-06 -0.000106643929 -0.00122518034
      3.06044483 -0.000168135943 -4.10699686e-05 -0.000756251917
      -0.0158741679 -0.00166446564 -0.00722959498 -1.50206661e-05
      -5.03295305e-05 -0.00117803051 -1.28176464e-06 -3.80204074e-06
      -0.000265347888 -5.30630023e-05 -0.0123016257 -1.40998854e-05
      -0.00540849101 -0.00125956105 3.47016096 -0.0102869477
      -0.00442394754 -0.0287189987 0.785979211 -0.00423446577
      0.277122349 0.220154583 -9.34258351e-05 -7.43353739e-05
      -0.000716999173 -0.000618956285 0.174006 -0.0001417608 0.281348348
      -5.066021e-06 0.271238923 0.138000876 -0.000203930991 0.596948087
      -0.00532862591 0.451542914 -2.1759779e-05 -0.000221179755
      -3.6417041e-06 -2.48327024e-06 -0.00060879282 0.122627541
      -0.00469976338 0.239863798 -1.10115798e-06 0.431075871
      -3.69188047e-06 -0.000290460594 1.00090384 -0.00259587634
      -0.000620930572 -0.000792738749 -0.0008679764 0.172862366
      -3.73764997e-05 -0.000402730831 -0.000334066659 0.0149666891
      -1.22716647e-05 -0.000290034572 0.0875998959 0.228169337
      0.651338696 -0.00257237162 -0.000282812602 -0.00215143082
      0.258496344 -0.00126982713 -1.29633754e-05 -0.0034864482
      0.160170168 -0.0040808511 -0.00268975343 -0.000127619598
      -3.09161101e-06 0.298942029 -1.98505035e-07 -3.6307955e-07
      0.170946613 0.540768564 -1.48272293e-05 -1.86770158e-05
      -0.000209170452 -0.000419855322 0.315147817 -0.000150089327
      -9.47337394e-05 0.264528275 -1.94091663e-05 0.0103961788
      -0.000142862715 -3.95775896e-05 -1.60912859e-05 -3.47344576e-05
      -2.51799065e-05 -0.000247832009 0.000599170104 -0.000107607768
      0.0832232758 -0.000678890618 0.042652823 0.265340567
      -1.59946865e-06 -0.000119925389 -3.58042826e-06 -5.59249884e-07
      -0.000193832137 -4.19915814e-05 0.30577445 0.560407639
      -2.44732382e-05 -0.000158155031 -9.13282493e-05 -4.20201759e-05
      -0.000483001844 0.00253409334 0.0629160181 -0.000268118834
      -0.000190305931 -2.94764559e-05 -0.000235207845</_>
    <_>
      0.25640744 -13.0650911 -0.00770965125 -0.0447261222
      -3.63863144e-08 -0.000191811734 -0.0163245555 -0.000239552348
      -0.00194388151 -2.20280708e-06 -1.26414898e-05 -4.7020805e-07
      -0.000117521588 -0.000361858605 -0.000327149202 6.60225534
      6.64303064 -0.00255042524 -0.024992181 -0.000173984503
      -0.00165115111 -0.000800451264 -0.00387585186 0.635718405
      -1.32474797e-05 5.47168541 8.09582424 -1.4930677e-05
      -6.24801905e-05 -1.57597769e-05 -0.0250310469 -0.000185034995
      0.971926928 -0.00220254855 -0.000123987978 -0.000696063042
      -0.000337532925 -7.49206374e-05 -0.00557524571 -0.000260703993
      -7.70004699e-05 -0.000500022783 -0.002063761 -0.000427977211
      -0.00215171766 -0.000964133884 -0.000672075141 0.235930175
      2.40086055 -0.0157278664 -0.00226951484 0.05844789 -1.7130078e-06
      -0.00836487673 3.49114656 -0.0249636434 -0.0655148998
      -0.00461760536 -0.00689209253 -0.00453066174 -0.000801231072
      -0.0004516505 -0.000412582478 6.47817802 1.92064464
      -4.84996563e-05 -2.64517821e-05 -2.8150369e-05 -0.00490586413
      -0.00254730834 -0.000587209652 3.8327713 -0.00234085019
      -5.49477736e-05 -3.27324051e-06 -0.0012463372 -2.72842717e-05
      5.45417976 4.06970453 -0.00136482588 -1.19083725e-05
      -3.39350322e-07 -0.000122318466 2.29415131 -0.0456943661
      -0.000484194374 0.858168364 -0.0067927395 -1.02700451e-05
      -0.0050490452 -0.00632604165 -0.000504928292 -0.00373082934
      -0.00583619578 12.4114428 -0.0311795156 -0.000933615549
      -0.0146781383 -0.00572186382 -0.00254640123 -6.06803551e-05
      -0.00858344045 8.63599396 -1.44334479e-06 -9.36904835e-05
      -0.0011244663 2.68101025 -0.00014962563 -4.05388819e-05
      -0.000720273936 -0.0181874633 -0.00130709144 -0.00941309705
      -1.43713969e-05 -3.65096312e-05 -0.00111523853 -1.19968047e-06
      -4.32348179e-06 -0.000235096217 -4.94019732e-05 -0.0118315266
      -1.34794109e-05 -0.0042199702 -0.00114597217 3.86604691
      -0.0100722536 -0.00351468008 -0.0291231796 1.22976673
      -0.00350668514 0.23654227 0.275218546 -9.14128977e-05
      -7.91565762e-05 -0.000210883765 -0.000636386045 0.261627555
      -0.000143367899 0.179408938 -4.64829645e-06 0.241681561
      0.136502802 -0.00020285057 0.611251652 -0.00559575669 0.377462626
      -2.23563984e-05 -0.000209342688 -3.37941015e-06 -2.56065891e-06
      -0.000334042823 0.083024621 -0.00359623996 0.290794104
      -1.14709792e-06 0.479174584 -3.80853203e-06 -0.000145932892
      0.957295358 -0.00115547224 -0.000126720668 -0.000852267141
      -0.000621153857 0.257013828 -3.63515501e-05 -0.000393615715
      -0.000276217819 0.00485957414 -8.14573068e-05 -0.00028063418
      0.116773419 0.350282669 0.56192416 -0.00224266294 -6.69984147e-05
      -0.00225402135 0.223409608 -0.00126876112 -1.30648586e-05
      -0.00340716029 0.140123993 -0.00378017128 -0.00262230216
      -0.000125370178 -3.06959987e-06 0.255356729 -2.17871815e-07
      -3.77221255e-07 0.162156224 0.538987458 -1.48239451e-05
      -1.86737707e-05 -0.000209165228 -0.000420195167 0.315310478
      -0.000150078064 -9.47253793e-05 0.264799476 -1.9406134e-05
      0.0106632821 -0.000142855031 -3.95726347e-05 -1.6088803e-05
      -3.54876356e-05 -2.66853713e-05 -0.000247870485 0.000971050933
      -0.000107640604 0.0834911019 -0.000679528108 0.0419885889
      0.265531093 -1.60106231e-06 -0.000119915232 -3.57894623e-06
      -5.72731949e-07 -0.000193846761 -4.09892564e-05 0.306866735
      0.561400056 -2.4468789e-05 -0.000166575686 -9.13162512e-05
      -4.20153556e-05 -0.000483355223 0.00273848884 0.0630238727
      -0.000268225296 -0.00019030043 -2.9473169e-05 -0.000236228108</_>
    <_>
      -0.133371785 -13.2778482 -0.00744437566 -0.035599146
      -3.87386692e-08 -0.00020034003 -0.0153421853 -0.00021039664
      -0.00190218759 -1.77506831e-06 -1.27096928e-05 -4.5581686e-07
      -0.000111796544 -0.000370418566 -0.000324581488 5.34321404
      6.48095751 -0.00248896121 -0.0281800982 -0.000178191171
      -0.00175008306 -0.000796201581 -0.00384527142 0.399398386
      -1.25606848e-05 5.49876308 7.73813248 -1.48899699e-05
      -5.82488465e-05 -1.77841284e-05 -0.0225773752 -0.000181237338
      1.19440269 -0.00210092356 -0.00013195035 -0.000694014132
      -0.000336134923 -7.39503448e-05 -0.00277983188 -0.000262166344
      -7.73461361e-05 -0.000513675855 -0.00202885806 -0.000448228791
      -0.00133309688 -0.000860573491 -0.000653311319 -0.00371459685
      2.63153863 -0.0120545421 -0.00215450069 -0.000523310679
      -1.93484698e-06 -0.00788911059 2.78272295 -0.0251061954
      -0.0576134101 -0.00438796775 -0.00493583269 -0.0044756555
      -0.000697892392 -0.000457945309 -0.000384261511 6.11040831
      2.18103933 -4.67600585e-05 -2.72530524e-05 -2.71162226e-05
      -0.00495762751 -0.0025014563 -0.000571852783 3.20653582
      -0.00220660795 -6.05123205e-05 -3.60157401e-06 -0.00118634524
      -2.77651725e-05 5.52099371 3.63900352 -0.00129760453
      -1.15653147e-05 -2.84438556e-07 -0.000118739939 1.73639405
      -0.0343045592 -0.00048441047 0.957815886 -0.00864926632
      -9.89151886e-06 -0.00444671977 -0.0051784236 -0.000487369398
      -0.00370848458 -0.00577564118 12.2271566 -0.0302087963
      -0.000949021312 -0.00935147051 -0.00569130108 -0.0025830071
      -5.82406828e-05 -0.00856074318 8.36226749 -1.31511899e-06
      -0.000104810773 -0.00113808515 1.91233003 -0.000150656968
      -4.10323992e-05 -0.000683392223 -0.0125817414 -0.00130079652
      -0.00953620486 -1.55631224e-05 -4.18536183e-05 -0.00118616573
      -1.21140295e-06 -4.31013541e-06 -0.000250097277 -4.68313265e-05
      -0.0112767098 -1.27345365e-05 -0.00345191988 -0.00112332881
      3.83423805 -0.0096894931 -0.00374383503 -0.0296593569 1.57594275
      -0.00375894806 0.213822484 0.310734361 -9.13161857e-05
      -7.85596203e-05 0.0965241939 -0.00034186535 0.330542326
      -0.000143357407 0.0999829993 -4.5250149e-06 0.228628546
      0.0791867748 -0.000206603014 0.680417836 -0.00575654395
      0.365429193 -2.2125887e-05 -0.000210119557 -3.24949906e-06
      -2.56669682e-06 0.0373348221 0.0937575549 -0.00338898925
      0.400929481 -1.15487012e-06 0.545329154 -3.79267658e-06
      -0.00069086533 0.921169043 0.014394559 -0.00013950259
      -0.000797532266 -0.000450706022 0.344869167 -3.62822248e-05
      -0.00038836943 0.0536189154 0.0451458618 -0.000764170429
      -0.000280128705 0.124368504 0.431111246 0.469058871 -0.00222829822
      -0.000243123504 -0.00215362106 0.193080276 -0.00127933384
      -1.3036215e-05 -0.00341124344 0.144681841 -0.00392018072
      -0.00264770095 -0.000124104045 -3.0411527e-06 0.2976138
      -2.20393986e-07 -3.76076486e-07 0.197505489 0.579029858
      -1.48180843e-05 -1.86679972e-05 -0.000209154852 -0.000420802069
      0.315621018 -0.00015005788 -9.47104272e-05 0.26529181
      -1.94007262e-05 0.0111266077 -0.000142841222 -3.95637981e-05
      -1.60843792e-05 -3.70137386e-05 -2.9490142e-05 -0.0002479369
      0.00159153901 -0.000107699285 0.0839587748 -0.000680658501
      0.0408414453 0.265887737 -1.60396166e-06 -0.000119897049
      -3.57629983e-06 -5.9720827e-07 -0.000193871529 -3.94997369e-05
      0.308778167 0.563162684 -2.446086e-05 -0.0001812876
      -9.12948599e-05 -4.20067627e-05 -0.000483975891 0.00309229456
      0.0632173717 -0.000268412899 -0.000190289764 -2.94673046e-05
      -0.000238025124</_>
    <_>
      0.0216719396 -13.048934 -0.00735169509 -0.0345965773
      -3.83697163e-08 -0.000189270853 -0.0153824659 -0.000201211413
      -0.00184057408 -1.8708356e-06 -1.27425146e-05 -4.55280656e-07
      -0.000108052918 -0.000360444392 -0.000315150362 5.43284273
      6.44367123 -0.0024451667 -0.0273281019 -0.0001675901
      -0.00171946792 -0.000788030447 -0.00369773549 0.433797389
      -1.24330008e-05 5.49470139 7.73174286 -1.43727502e-05
      -5.76876046e-05 -1.74680845e-05 -0.0238870624 -0.000173152584
      0.900735259 -0.00209760107 -0.000123808568 -0.00065125688
      -0.000325547298 -7.2062976e-05 -0.0043818322 -0.000254968501
      -7.11238245e-05 -0.000504236494 -0.00195452804 -0.000435490365
      -0.00146413606 -0.000853125704 -0.000669118832 -0.00234273961
      2.69418526 -0.00964053627 -0.00210770685 -0.000319543353
      -1.66896496e-06 -0.00790663622 2.92652321 -0.024827769
      -0.0565116219 -0.00434866408 -0.00244123396 -0.00432888279
      -0.000763217744 -0.000420210825 -0.000372107577 6.07251072
      2.1837306 -4.54533183e-05 -2.63967777e-05 -2.69666543e-05
      -0.00484010763 -0.00248919777 -0.000563136418 3.09856176
      -0.00220554578 -5.41572954e-05 -3.22162077e-06 -0.00117939862
      -2.75371804e-05 5.42361355 3.54849553 -0.00128382549
      -1.16109686e-05 -3.04652332e-07 -0.000110055284 2.05985379
      -0.036471162 -0.000455764181 1.04175568 -0.00856958143
      -9.80363984e-06 -0.00470621698 -0.00556235109 -0.000479257258
      -0.00357854483 -0.00569471298 12.1509771 -0.0301092807
      -0.000924536551 -0.00981684774 -0.00569038326 -0.002491544
      -5.70170305e-05 -0.00861603487 8.28347969 -1.3389963e-06
      -9.7852484e-05 -0.00110859377 2.23019671 -0.000146815655
      -4.05234678e-05 -0.000685967854 -0.0141469771 -0.00123776845
      -0.0100023495 -1.51615632e-05 -3.89101551e-05 -0.00108187704
      -1.14516729e-06 -4.47499588e-06 -0.000237880042 -4.62466778e-05
      -0.0113296863 -1.27414214e-05 -0.00364172691 -0.00107708725
      3.80744672 -0.00971530192 -0.00360369729 -0.0289530959 1.5369091
      -0.00370826642 0.214015022 0.299195945 -9.14067132e-05
      -8.01202914e-05 0.105406761 -0.000210277241 0.353088617
      -0.000143185054 0.0844592378 -4.5037782e-06 0.213201448
      0.0812103525 -0.000204587821 0.696601927 -0.00560769672
      0.388721406 -2.21002192e-05 -0.000207431382 -3.26034683e-06
      -2.57057422e-06 0.0542992651 0.0828154683 -0.00327398675
      0.41456604 -1.15462649e-06 0.559694886 -3.80090614e-06
      -0.000873965677 0.924301744 0.0341463536 -4.84933043e-05
      -0.000760964758 -0.000367960485 0.363475353 -3.60814665e-05
      -0.000391943991 0.0614314452 0.058838658 -0.000755614019
      -0.000277738553 0.137054682 0.41778931 0.456013322 -0.00224564387
      -0.000358963327 -0.00199780101 0.20201467 -0.00127630355
      -1.30143344e-05 -0.00340963854 0.146032363 -0.00395340752
      -0.00265209074 -0.000123502206 -3.04274977e-06 0.310884595
      -2.2140668e-07 -3.76502356e-07 0.195902243 0.592205346
      -1.48145527e-05 -1.86645102e-05 -0.000209148129 -0.000421167642
      0.315814257 -0.000150045671 -9.47013978e-05 0.265590638
      -1.93974611e-05 0.0114003271 -0.000142832854 -3.95584648e-05
      -1.6081709e-05 -3.79721823e-05 -3.12059383e-05 -0.000247975957
      0.0019529555 -0.000107734777 0.0842366964 -0.000681337551
      0.0401635244 0.266107917 -1.60574371e-06 -0.000119886041
      -3.57470412e-06 -6.12129213e-07 -0.000193885877 -3.86788306e-05
      0.309916377 0.564220965 -2.44560761e-05 -0.000190037856
      -9.12819378e-05 -4.20015822e-05 -0.000484345685 0.00330050103
      0.0633337349 -0.000268524804 -0.00019028291 -2.94637648e-05
      -0.000239101995</_>
    <_>
      -0.219864324 -13.0731916 -0.00749847153 -0.0311939511
      -4.35382184e-08 -0.000197006055 -0.0151575124 -0.000210698709
      -0.00178307062 -1.92815173e-06 -1.31913866e-05 -4.48616873e-07
      -0.00011309878 -0.000366556458 -0.000317393598 4.99502516
      6.3633585 -0.00252574519 -0.031103503 -0.000168133251
      -0.00172002194 -0.000800954469 -0.00385634135 0.37754786
      -1.31081879e-05 5.4293642 7.57715464 -1.49243742e-05
      -5.78844301e-05 -1.80848529e-05 -0.0259771906 -0.000174739485
      0.875603497 -0.00211235438 -0.000127729043 -0.000646198401
      -0.000325041707 -7.7948418e-05 -0.00425769715 -0.000273765734
      -7.198815e-05 -0.000488994527 -0.00203534309 -0.000404006656
      -0.00177901273 -0.000746886712 -0.000679285673 -0.00493406784
      2.76670742 -0.00797936134 -0.00218829652 -0.000435230904
      -1.87987666e-06 -0.00804288313 2.66730952 -0.0249053482
      -0.0570219159 -0.00434818584 -0.00576527044 -0.00444349088
      -0.000765841454 -0.000475680485 -0.000389530265 5.93060398
      2.24279714 -4.25016951e-05 -2.93577832e-05 -2.79469223e-05
      -0.00504644634 -0.00250384538 -0.000529382087 2.86804652
      -0.00214295974 -6.45937616e-05 -3.36208109e-06 -0.00112366409
      -2.91444012e-05 5.36967325 3.40418983 -0.00128840201
      -1.19814767e-05 -2.60955403e-07 -0.000110505614 1.69208264
      -0.0322369151 -0.000438055838 0.999471903 -0.011052357
      -9.94387392e-06 -0.00472986745 -0.00538435578 -0.000493462954
      -0.00366340741 -0.00540962582 11.9522829 -0.0297774971
      -0.000947500695 -0.00832505897 -0.00581464078 -0.00254464522
      -5.81163731e-05 -0.00888140406 8.1680212 -1.25101019e-06
      -0.00010374267 -0.00108276377 1.68160951 -0.00015148145
      -4.02432161e-05 -0.000695269147 -0.0148236472 -0.00124271284
      -0.0105893919 -1.60071759e-05 -4.46999111e-05 -0.00121850381
      -1.21480741e-06 -4.63404149e-06 -0.00025762993 -4.70673876e-05
      -0.0115379049 -1.2903115e-05 -0.00336961937 -0.00114948722
      3.80780268 -0.00933299679 -0.00379643915 -0.0284329019 1.69679356
      -0.00385299022 0.22589162 0.356733978 -9.32186449e-05
      -8.09997582e-05 0.0953883082 -0.000170007013 0.348078072
      -0.000141005585 0.038037844 -4.61490981e-06 0.156811893
      0.0845293477 -0.000202550626 0.722212136 -0.00534586189
      0.403203756 -2.1957052e-05 -0.000209590784 -3.31857291e-06
      -2.61551281e-06 0.135110214 0.074994728 -0.00342002301 0.484217227
      -1.16045419e-06 0.637284815 -3.80612892e-06 -0.00114853226
      0.92087996 0.104629837 -0.00059471681 -0.000488999009 0.0435354114
      0.437261075 -3.76632197e-05 -0.000387138221 0.0661704168
